2708 64
1358 -0.15013686 -0.41407374 0.09858988 0.10568219 -0.17633572 -0.3503806 0.18107219 -0.038785286 -0.32569146 0.2020355 0.098284416 0.24384852 -0.06862108 -0.46047863 0.119229026 -0.09771154 -0.23117381 -0.13598175 0.08871854 -0.460604 0.0009447341 0.018315554 0.14226569 -0.38400578 -0.13414885 -0.35513216 0.090445526 -0.19021071 0.12363666 -0.33212677 -0.012690381 -0.14968133 -0.32217202 -0.33929554 0.15540344 0.14153695 0.07361228 0.18544102 -0.19295433 -0.30462515 0.057112392 0.09811407 0.05040907 0.094695814 0.19302775 -0.18349479 -0.07765331 0.23619495 -0.06870873 -0.40920797 -0.008961697 -0.21054298 -0.0041057603 0.23594335 0.22550508 -0.14313287 0.35495397 -0.10110104 -0.13756037 -0.17431217 0.2756776 -0.44286728 0.0012401361 0.06664525
127 0.07281626 -0.34165427 0.43005818 0.3542037 -0.0072963377 -0.1274122 0.060230926 0.1782603 -0.10632182 0.3909398 0.17224461 0.06294628 -0.060814932 -0.42279908 0.18976958 -0.13441133 -0.28013995 -0.40983105 0.1157401 -0.45135117 -0.14318016 -0.0141045395 0.06796779 -0.2180771 -0.18828674 -0.17923774 0.04776746 -0.41964903 0.22342177 -0.046243966 -0.037585616 -0.23883493 -0.32864907 -0.16757292 0.22298884 -0.14188544 -0.008719126 0.2216707 -0.1569846 -0.17860672 -0.2337555 0.15940638 0.1253438 0.0204872 0.21000898 -0.21350947 0.0047004335 0.15415314 -0.0967289 -0.3356345 -0.12884842 -0.15021007 0.16196512 -0.109218985 0.10378321 -0.05725813 0.12946749 -0.19954357 -0.06832742 -0.28818816 0.21001564 -0.5099628 -0.32617593 0.11345171
306 0.27015227 -0.10566687 0.36303824 0.3522214 -0.43419406 0.34586886 0.32820565 0.22232309 -0.19096439 -0.011901316 -0.21435736 0.12862207 0.055094074 0.38045982 0.062675685 0.07157287 -0.28712192 0.7583311 0.250312 -0.13705908 -0.0956282 0.06688665 -0.2183542 0.16755813 0.41688418 -0.047930785 0.25950292 -0.098926805 0.103381515 -0.13255385 0.76812404 -0.20377886 -0.02072011 -0.0028722114 0.32141426 -0.09381389 -0.28506243 -0.060793236 -0.055627763 0.123718075 0.1042105 0.34887114 0.1574072 0.25411648 0.07558759 -0.05970728 0.2792813 0.4618811 0.09902078 -0.19967957 0.28503212 0.09595548 0.09033411 -0.29329103 0.12068029 0.29873177 0.05821185 0.15911794 0.23880985 0.07894712 -0.33705896 -0.2570668 0.014610906 0.2729745
484 0.08217992 -0.14759956 0.6482437 0.35310557 -0.3332841 0.33569467 0.29430395 0.035901114 0.033188913 -0.32923788 0.009622028 0.27850893 -0.027871221 0.35280877 -0.028099144 0.22123629 -0.13510111 0.54068726 0.053225674 -0.30743715 -0.22053583 0.058516823 0.37120843 0.14118598 0.3957854 -0.014150283 0.12983085 0.016642548 0.099130094 -0.10899361 0.95178705 -0.1241539 0.14756463 -0.06632941 0.51668257 0.09344653 -0.23036452 0.016347483 -0.03270175 -0.090717174 -0.12719005 0.29198995 -0.20853318 0.29288402 0.11836844 0.015142758 -0.024662916 0.34300184 0.027016835 -0.07583438 0.062561914 0.26946458 0.1024626 0.06763656 0.018199285 0.124707945 0.09840998 -0.26663914 0.49593523 0.03219484 -0.1968059 -0.37805063 0.1924746 0.39894298
1701 0.2278989 -0.087179646 0.11116962 0.22151786 0.26838732 0.26011616 0.45639956 0.2989949 0.19901556 -0.26592085 -0.16667022 -0.46101552 0.34939954 -0.10780957 0.031981785 0.14514245 -0.26791763 0.49324724 -0.34311768 -0.29377764 0.17725585 0.01494241 0.22926642 -0.5144136 0.06016363 -0.075206935 -0.22240359 -0.007984785 0.09566177 0.05054552 -0.49838477 -0.13875632 -0.105442375 -0.029177839 0.28104252 0.062090393 -0.14966147 0.31727517 -0.14712916 0.07995505 0.5196104 0.27921152 -0.2680248 -0.46840724 0.304693 -0.22510552 -0.32424968 0.2638841 -0.12528506 -0.39008683 -0.23332182 0.19384807 0.42765236 -0.24331652 -0.068879955 -0.030956788 -0.06978156 -0.52631885 -0.5598563 -0.37424895 -0.52572244 -0.13485871 -0.1412058 -0.11469212
50 0.32678732 -0.36538023 0.44011405 -0.39243042 0.3898021 0.14197342 0.80250293 0.18063575 0.16088574 -0.10524956 0.075542085 -0.17125197 0.3142496 -0.104750425 -0.18229407 0.31189507 0.08818129 0.4235406 -0.19232452 -0.43631196 0.06002408 0.056275755 0.40083104 -0.33190027 0.2108627 -0.07796359 -0.16104804 -0.22624081 0.27045804 -0.1990881 -0.22751102 -0.15912975 0.3001373 0.07552335 -0.0042422903 -0.12738873 -0.23916757 0.18100235 -0.2382646 -0.17989759 0.7350551 -0.095364474 -0.030491736 -0.5668825 0.077920444 -0.371341 0.19842304 0.18850845 0.19160047 -0.34997314 0.058612578 0.3165824 0.16348389 0.15763077 0.061250046 -0.14101207 0.11316093 -0.43262783 -0.031965505 -0.17998718 -0.18364027 0.21841271 0.04924894 -0.2709757
1986 -0.11886741 -0.14665109 0.43971556 -0.17350093 -0.14229082 -0.13780811 0.18075997 0.18069758 -0.16962868 0.06645821 0.2121522 -0.47619054 -0.43035576 -0.11779518 -0.03603934 0.49757618 0.038028266 0.007156891 0.07485937 0.09453065 0.48165575 0.2648577 -0.11140237 -0.17068256 0.35612637 -0.35824743 -0.23264179 -0.27015007 -0.06349209 0.47654518 0.06791008 -0.3370726 0.04705944 0.23956427 0.17475604 0.24246344 -0.18359996 0.002233673 -0.2624036 0.865261 0.06788522 0.076619335 -0.1155026 -0.29779476 -0.35517332 -0.0758321 -0.61357963 0.5481853 -0.26642597 -0.13707277 -0.31021446 0.1426455 0.6052785 -0.12869747 -0.4009257 -0.17769204 -0.13203755 -0.096607655 -0.25133508 -0.17911905 0.1542587 0.10092576 0.17611194 0.31532353
11 -0.25675192 -0.18342882 0.02097622 -0.21505277 0.1496986 -0.24831624 0.736894 0.4996504 0.10241196 0.21091644 0.3877461 -0.49523413 -0.5690142 -0.31840622 -0.26449385 0.30678982 0.007632646 0.028026104 -0.11051226 -0.20062569 0.19795388 0.20424312 -0.31091803 0.07925268 0.4810038 -0.24381016 -0.4064182 -0.30758992 0.25634867 0.05770116 0.15103148 -0.4019488 0.25824443 0.20314266 0.053332973 -0.07710534 -0.03679083 -0.36409804 -0.47482628 0.42840338 0.0026930075 0.24021332 -0.12368059 -0.20276947 -0.36416787 -0.5375146 -0.0065328735 0.23268692 -0.2451676 -0.045714285 -0.3608007 0.21427631 0.32145768 0.2830224 -0.6215755 -0.17928794 0.12234377 0.2730777 -0.03545258 0.06317516 -0.2253898 0.35844505 -0.059435736 0.26704141
51 0.40960008 -0.062270645 -0.17470528 0.050579004 -0.4715128 -0.07158399 0.33825102 -0.07517067 -0.41316923 -0.35237336 0.15428065 -0.15738074 -0.42659616 0.0056004995 -0.68061614 -0.37311438 -0.45938087 0.8578524 -0.15428965 0.044785727 0.058064356 0.40513867 0.59377366 -0.32638767 0.29866847 -0.40054384 -0.1218608 0.027646359 -0.0010111397 0.19144861 -0.08108977 -0.24983701 0.14417097 0.5330088 -0.34967673 0.06962789 -0.22309741 0.15219854 -0.10729653 -0.4864201 0.21213911 -0.29790422 -0.43481013 -0.3672508 -0.14128998 0.051249593 0.38028803 0.4292733 0.09528013 0.09665325 0.17886601 -0.25500146 0.25854537 -0.08279928 -0.17508723 -0.024695616 0.5689655 -0.30640626 -0.52067995 -0.48272195 0.28017703 0.12606582 0.09790673 -0.0694766
1810 0.39178988 0.09630883 -0.19138287 0.24429767 -0.7914823 -0.118547834 0.30843014 -0.015562846 -0.067853965 -0.31658402 -0.13645113 -0.28890067 -0.15719289 0.20257166 -0.122086994 -0.24525712 -0.22005838 0.5586905 -0.039976135 -0.02319174 0.32501772 0.14745562 0.33088478 -0.23525156 -0.07201562 -0.02701426 -0.10365937 -0.051477637 -0.010923853 0.6425277 -0.5176038 -0.20706387 -0.2745308 0.41714674 -0.30213293 0.24531446 -0.30757245 0.56712437 -0.018870343 -0.05227927 0.3082281 -0.1687929 -0.6398719 -0.2727474 -0.29938614 0.19760922 0.25284857 0.46883267 0.03909462 0.08542423 -0.15919776 -0.10275722 0.34806374 0.1563439 -0.49294606 -0.10124514 0.6546922 0.1599837 -0.42913854 -0.37549138 -0.1101294 -0.56004155 0.4297582 -0.17097728
1623 0.2723048 -0.22512448 0.0078722825 -0.022942688 -0.4258365 0.85208046 -0.016278137 0.23107459 -0.20106721 -0.017115846 -0.049569003 0.23805559 -0.109716214 -0.24830842 -0.1147638 0.07379558 0.15021516 0.058936287 0.12905954 -0.17486688 0.012893393 0.14350732 0.32687175 0.14672662 0.047526155 -0.31110874 -0.26620606 -0.23165219 -0.09060008 0.0607035 0.6231326 -0.43703008 -0.21027884 0.0025165642 0.44735762 -0.006101585 -0.80601 0.03920767 0.02013163 -0.09752919 0.15365234 0.42333418 0.22928235 0.3932291 -0.31191498 -0.33953616 0.40645668 0.2475896 -0.027241088 0.17919019 0.7061567 0.33224395 0.09262018 -0.2890562 -0.22730075 0.46135736 0.0023233336 0.34885958 0.45361856 -0.05481481 -0.25248447 -0.6091586 0.3550961 -0.14226893
479 0.16016309 -0.14615203 0.54160875 -0.10756188 -0.42229712 0.41335636 0.10156147 -0.04753425 0.14606008 -0.04459259 0.013189391 -0.14369442 -0.6137423 -0.17474489 -0.06487373 -0.04717025 0.1098725 0.10911873 -0.36074218 -0.15032789 -0.3727912 0.19749975 0.6873802 0.015305585 0.028289389 -0.24431081 -0.37602207 -0.07838968 -0.2540124 0.115946785 0.8230055 0.02760231 -0.00036930374 -0.34998336 0.32426935 -0.051866125 -0.6090395 0.19017792 -0.04503347 -0.27818477 -0.022951696 0.42017722 -0.18291989 0.2860983 -0.1852013 -0.19083185 0.3872742 0.07633018 -0.21745612 0.48133057 0.3198145 0.04928611 0.34027293 -0.08442355 -0.32909527 0.123078816 -0.26427963 0.08911567 0.49484867 -0.014466746 0.09876378 -0.61763275 0.21528181 0.03971794
2034 -0.0031168377 -0.1411536 0.45362568 0.02318815 -0.7319553 -0.5011177 0.15357922 0.06132107 0.24718362 -0.366104 -0.32608345 -0.34602636 0.31538996 -0.089186326 -0.36717469 0.4140358 0.09667738 0.11756459 -0.7834776 0.12150666 0.10579589 -0.21961048 -0.26815608 -0.10229438 -0.24186693 -0.067764394 -0.1689072 0.41210142 -0.15169676 -0.3896513 0.059446204 0.3567401 0.2527078 0.10913226 0.28743654 -0.5349382 -0.2396342 0.0642347 -0.0853735 -0.5008525 0.6313717 -0.7148011 -0.046096705 0.3577535 0.090283036 -0.27693126 0.062267907 0.35692278 -0.44698295 -0.175053 -0.26609465 0.43744227 0.2687553 0.15480323 0.27561608 0.24792808 0.36970326 -0.10781983 -0.0008854152 -0.18383089 -0.18278323 -0.34688002 0.035059422 0.0013289339
54 -0.34278598 -0.18725964 0.27407342 -0.25369772 -0.3738889 -0.49818167 0.19127142 -0.5238577 -0.075381406 -0.34706596 0.11195115 -0.12075378 0.11871614 -0.01737334 -0.35074276 0.26547596 0.03858334 0.45292524 -0.57523763 0.25396565 0.060709927 -0.1338775 -0.13984506 0.13367085 -0.3904024 0.110513754 0.028319277 0.19553663 -0.18274593 -0.44877163 0.1989224 0.010053053 -0.05240045 -0.09839163 -0.21481024 -0.24446896 0.059277713 0.13902912 -0.30389705 -0.09333578 0.40816128 -0.42010543 -0.08737949 0.5421734 -0.0011159022 -0.4268408 -0.1659183 0.34645373 -0.6596383 -0.2638497 -0.17555892 0.4486663 -0.0012455715 0.35391974 0.25801632 0.41615248 0.09648513 -0.34131584 -0.7411111 -0.54117095 -0.30393872 -0.58308387 0.09379891 -0.073530525
1914 -0.22468442 0.22055778 0.16488418 0.21238038 -0.42116362 -0.021254983 0.21537177 0.07086433 0.6184137 0.24802436 -0.24654053 -0.007635333 -0.13710272 0.13058223 -0.014853264 -0.12584034 -0.3291037 -0.22761162 -0.6284943 -0.48240134 0.083170414 -0.27616626 -0.089766614 -0.08169013 0.3575735 -0.18101679 0.6194685 -0.23631842 0.14112641 0.010320884 0.12351335 0.13260788 0.5114897 -0.7984287 -0.26109082 -0.2824262 0.18426888 0.26186305 0.4263013 -0.038646337 0.21987993 0.41447923 -0.25741816 -0.38125134 0.24758595 -0.20833066 0.057687663 -0.1075026 -0.16377577 0.10828794 0.3286676 0.031478617 0.44212666 0.07784522 -0.28822458 0.54406303 0.47343433 0.2411174 -0.62738496 -0.23298638 0.1095384 -0.4299397 0.6675251 -0.4759056
88 -0.12382943 0.07669021 0.25538492 -0.6556483 -0.13638633 -0.2966582 0.010255294 0.34102392 -0.17612939 0.36682412 -0.10769525 0.9240441 -0.67345077 -0.1514081 -0.29345697 -0.17888935 0.47827154 0.12348729 -0.39797214 -0.25832978 -0.10619577 0.38545525 0.048640225 0.2728867 0.14026223 -0.06939913 -0.4738391 0.0655965 0.22353491 -0.4872271 0.2034848 0.21517923 0.021415224 0.37674993 -0.32912087 0.3372913 -0.056731313 0.063378654 -0.049806237 0.16614267 0.08045726 -0.35297033 0.17589298 -0.18396218 0.10192944 0.33043793 0.12802547 0.009584773 -0.6272677 -0.25667506 0.4516081 0.39012027 0.5673296 -0.61565137 0.23403336 0.09183906 0.14897142 -0.11879772 0.012497545 0.05383415 -0.15815628 -0.3784949 -0.34215927 -0.050549354
300 -0.4035296 0.0375282 0.059307728 0.37046912 0.16899754 -0.52505255 0.61096835 0.12433983 0.15220489 0.43333194 0.0806775 0.22736464 0.060855415 0.16113727 -0.286149 -0.09718501 0.12935935 0.12808855 -0.4085676 0.07305251 -0.15889828 0.3725273 0.60113615 -0.15857983 -0.18704613 -0.010533866 0.34250754 -0.23412348 -0.11323796 -0.33568454 -0.016315095 -0.3728387 0.12224596 0.13423733 0.28841335 0.12184495 -0.3613793 0.103113584 0.34552717 0.12892225 0.41647774 -0.07644124 -0.09759051 -0.6758706 0.38652268 -0.15791528 -0.15426385 0.05904707 -0.20421223 0.28107977 0.10739807 0.20428458 0.44993645 -0.8410821 -0.2933851 0.37219977 0.636729 0.11634263 0.17531887 0.30389836 0.32057586 -0.5351143 0.26467928 -0.0067085656
109 -0.3915417 -0.40602168 0.57030994 -0.0052965023 0.008354038 0.25159886 -0.009931384 0.36192092 -0.3189514 -0.31947494 -0.055402502 -0.0980746 -0.32700214 0.10065022 -0.06541435 0.27691334 -0.049769923 0.23317358 0.1270107 -0.27734235 -0.17363283 0.17409515 -0.0028467248 -0.16433157 0.13583499 -0.037648294 0.010707658 0.07522821 -0.16038296 0.1345285 0.52569777 -0.007994727 0.4041255 -0.28649122 0.20780121 0.38754824 -0.578548 0.54958385 0.025047742 0.2698416 0.28310567 0.085944526 -0.25911912 0.0019450348 0.75965655 -0.4050832 0.39487538 0.57867795 0.3300116 -0.08224405 0.25364393 0.13982524 0.008416133 -0.73947674 -0.46077448 0.38852844 -0.28762063 0.062781475 -0.13444489 0.112339675 0.23853064 -0.35103774 0.082691 0.06188977
1013 -0.49682763 0.21470998 0.4797005 0.5183126 0.015427196 -0.39364132 0.36010414 0.3742649 0.3532053 0.29156792 0.11273561 -0.08056949 0.1811576 0.1605383 -0.15027972 -0.1090684 0.057405464 0.29424223 -0.027414069 -0.046719406 -0.10825323 0.041858982 0.354175 -0.008430529 -0.24039145 -0.01804214 0.11366402 -0.4232101 0.19341478 -0.62176746 0.39784032 0.28381485 0.46615785 0.059685603 0.07786092 0.009799436 -0.3431131 -0.072304636 0.13220175 0.2356283 0.18085493 -0.24729958 -0.040540323 -0.7503589 0.2640512 -0.11407365 0.031677265 0.0698291 -0.18755715 0.50435805 -0.10305569 -0.06342126 0.049569637 -0.3416834 -0.52970225 0.048870314 1.1576227 0.38522243 0.15471086 0.22861855 0.2306379 -0.760708 0.03797627 -0.121615276
339 -0.39154193 0.12957881 0.2578279 -0.37664345 0.40436846 -0.8489677 0.057133306 0.27908266 -0.1962308 0.5316505 -0.045809623 0.46586758 -0.47659725 0.015421189 -0.7423745 -0.19474272 0.20654565 0.051864076 -0.6251037 -0.10935804 -0.21885695 0.30185896 -0.037316754 -0.12578589 0.1652922 0.37093037 -0.2800409 0.08879531 -0.3551333 -0.42431843 -0.115935504 0.0021875286 -0.038665842 0.2681458 0.0048270137 -0.029037196 -0.1198028 0.33744028 0.07530498 0.51809645 -0.14977449 -0.02887595 0.08430192 -0.0070834486 0.2598914 -0.0064436584 0.1784332 0.26069424 -0.32275072 -0.4332212 0.5987561 0.11271348 0.7734646 -0.432335 0.17143089 0.19750004 0.22885066 0.18687798 0.070966594 0.0040761884 0.112747446 -0.6120767 -0.33101365 -0.3473956
95 -0.03194984 -0.17342839 0.26613086 -0.4100518 -0.50172603 -0.20634215 0.01787443 -0.22760858 0.23294201 -0.32805824 -0.07878786 -0.5097066 0.12035473 -0.28367892 -0.12868164 -0.12310115 0.023485895 0.2772641 -0.4066128 0.52811706 0.04302998 0.46271437 -0.76048785 0.3535769 0.4148438 -0.17894526 0.1420863 -0.7054219 0.14046098 -0.14117181 0.18808828 -0.268708 0.13889733 -0.22895288 -0.2496354 0.20936091 0.021522092 0.3609299 0.2868897 -0.023166742 0.5204423 0.6741455 -0.4451881 -0.19821618 0.10759354 -0.14249018 -0.2535147 0.12175909 -0.041372497 0.20705238 0.08259397 0.071801014 -0.44533035 -0.39964047 -0.1781138 -0.03576446 0.12030277 -0.49777448 0.024427075 0.11932487 0.37295002 -0.07888702 -0.071107924 -0.7689512
530 0.017766997 0.1622491 0.47736806 -0.042086393 0.09666923 -0.009452138 0.7424531 0.2180599 -0.46746263 -0.006213714 0.04798532 -0.054187138 -0.36730263 0.21034697 0.041549627 0.30115792 -0.14541332 0.59206986 -0.3647932 -0.098819576 -0.35629737 -0.00934998 0.32549384 -0.1496276 -0.24193355 -0.05729176 0.4724342 0.040377967 -0.15676387 -0.12631235 0.72094655 -0.1777767 0.42145517 -0.09101533 0.5171463 0.111377515 -0.25152788 0.12321158 -0.40480483 0.26674986 0.20281047 -0.20642914 -0.36022577 -0.39322236 0.30230424 -0.5033113 0.0230704 0.43055132 0.14726846 -0.035784654 -0.23095158 -0.013477738 -0.014741333 -0.3110454 -0.07448121 0.3619596 0.14794673 -0.18706584 0.3090155 0.19686173 0.105452515 -0.4494752 0.25056753 -0.0567853
598 0.19665547 -0.59834206 0.044651676 -0.3037997 0.44573534 -0.20189744 0.5205929 0.15821545 0.27424583 -0.3814003 -0.73302317 -0.18504107 0.31935558 0.3519117 0.22122821 -0.2569665 0.0650366 0.35609254 -0.3797987 -0.5487572 0.35890436 0.33545712 0.11320008 0.06448183 -0.002652286 -0.43344393 -0.3621821 -0.08461713 0.2807317 0.5508276 -0.07196452 0.12673211 -0.09733218 0.2445774 0.7092896 0.28703642 -0.19037236 0.2647065 -0.24057512 -0.13922793 0.18182172 0.7040796 0.042743616 0.1067792 -0.16511741 0.062691815 -0.03491929 0.44332668 -0.33297485 0.116351195 -0.32227254 0.22657605 0.35902295 -0.19350684 -0.18595469 -0.056929983 0.24778363 -0.18556374 -0.17672886 0.39110127 -0.1866606 -0.18767206 0.37840244 0.3281862
100 0.25879097 -0.75835574 -0.11565171 -0.19901544 0.6016621 -0.017628426 0.619449 -0.09540992 0.11873729 -0.46993333 -0.4358373 -0.043362882 -0.21189675 0.1553511 -0.24309361 -0.51988584 0.15336981 0.36279163 -0.27198058 -0.834883 0.0070522223 0.47278798 0.36733994 0.03895823 0.3648803 -0.49263534 -0.2540371 -0.16432951 0.5221314 0.102221906 0.18421765 0.054241844 0.16701278 0.47514814 0.40149403 -0.16530776 0.031450067 0.43625456 -0.44087276 -0.19852316 0.38448602 0.18813847 0.079792805 0.021074472 -0.051922377 0.050813854 0.1690097 0.14742516 -0.09350668 0.20484751 -0.17142183 0.24403843 0.01906932 -0.06581199 -0.15484287 -0.14078178 0.344189 -0.12699196 0.12383636 0.31589428 -0.067252085 0.038650658 0.32921675 0.45550993
1072 0.041449156 0.012072694 0.41294667 0.4504093 -0.96105313 0.055019084 0.3531394 0.4338857 0.26075137 0.37072545 -0.39575252 0.20665075 0.48090985 0.03412723 -0.049138773 -0.35977817 -0.4000959 0.49980524 0.287649 -0.28115842 -0.404449 -0.008453489 0.052599724 -0.47705647 0.27087405 0.157749 0.31264222 -0.1278813 0.30250844 -0.43943343 0.48992482 -0.17460592 -0.34394303 0.07828377 -0.09537549 -0.14197968 -0.12102584 -0.040978536 -0.23408939 0.3116357 -0.47383022 0.048025962 -0.2203086 0.32329917 -0.20093936 -0.28921112 -0.21249862 0.22173584 0.20976235 -0.18379484 -0.323546 0.28433546 0.14751808 -0.064306036 -0.28095728 -0.15062292 -0.32539207 -0.21260585 0.0040565785 -0.26442042 -0.2880444 -0.115077645 -0.21094376 -0.26120448
1542 0.55632263 0.366337 0.07467261 0.068384156 0.085349284 0.52764565 0.45311767 -0.1869817 -0.2945804 -0.30256578 0.24097545 -0.18032159 -0.057804935 -0.16098648 -0.5983095 -0.22311808 0.0063899364 0.29203004 -0.40261233 -0.4115683 0.037435863 0.77630395 0.08906772 0.4107569 0.06647839 -0.1639385 0.20404711 -0.15986183 0.30070168 -0.59836173 0.08598915 0.17909564 0.042759173 0.2279486 -0.35947555 0.7075963 -0.04274571 0.14821307 0.06774211 0.14660294 -0.30848512 0.30622128 0.19266212 0.08802397 0.40934822 0.09689888 -0.08691413 0.3028415 -0.22228935 -0.5256005 -0.4330875 0.37011725 0.45707548 0.35208768 0.4834736 0.031016994 0.10054199 0.5387093 -0.53740495 -0.22340679 -0.044564255 -0.54486907 -0.059304204 0.3346421
2045 0.21240425 0.1754979 0.23373896 0.16257343 -0.21251819 0.22380793 0.58123547 0.20661049 -0.5610882 -0.1098382 0.1156775 -0.1752798 -0.29533488 -0.062483758 -0.04284562 0.09691117 -0.12330212 0.46815443 -0.039631028 -0.106301926 -0.042369857 0.085899755 0.05167815 -0.04552778 -0.07186526 -0.4474126 0.39488438 0.024967572 -0.28375348 0.17717671 0.5203296 0.076011434 0.13666937 0.116605155 0.6804106 0.63688153 0.015380211 0.025368942 -0.18387002 0.5653659 0.09084308 0.061199788 -0.16482487 -0.3163725 0.309672 -0.2284451 -0.5121522 0.46629453 -0.25660113 0.006636463 0.40325257 0.514563 0.004998383 -0.5533596 -0.39434952 0.4060118 -0.17864388 -0.08608107 0.14365314 -0.13481742 -0.2815557 -0.5683081 0.14076173 0.18559842
855 0.4831368 0.3418492 0.48304102 -0.36861247 0.2320653 0.2900139 0.253134 -0.048599128 -0.7417162 -0.07620623 0.48710102 -0.2221692 0.06567035 -0.34687185 -0.4470172 -0.28514612 0.6166706 -0.15676986 -0.425729 -0.64043814 0.18347293 0.5078027 0.01958365 0.051425252 0.36351627 -0.37913 0.014648977 -0.23104823 -0.15685216 -0.4320598 -0.11226143 0.053604055 0.2666731 0.3388148 -0.001772597 0.5791798 -0.10681055 0.02796087 0.23182417 -0.18128374 -0.12580694 0.33567694 0.09553891 0.08043152 0.23705348 -0.31996426 -0.039550357 0.687697 -0.13253306 -0.42488262 -0.24370076 0.37680796 0.4363823 -0.08967055 0.5275848 -0.09327649 0.25969997 0.65261924 -0.46460474 -0.16142501 -0.03300731 0.056016333 0.012509172 0.08995297
83 0.11191858 0.07412889 0.4271012 0.26324403 -0.68675894 -0.07875049 0.11684211 0.49610174 0.28975618 0.05263043 -0.0054040365 0.0002583926 0.4332488 -0.19118634 0.16560966 -0.18432121 -0.2429634 0.3562143 0.33442092 -0.4772648 -0.353564 -0.38726097 0.42859372 -0.20896098 0.22045535 -0.23064238 0.5432894 -0.1453308 0.19954135 -0.47019547 0.35278487 -0.16647837 -0.21621394 -0.25980806 -0.007749997 -0.23292056 0.044435725 0.22381568 -0.30284888 0.16497828 -0.07692262 0.18680641 -0.5069077 0.20644091 -0.097139396 -0.3063659 -0.11787797 0.28363055 -0.0058099497 -0.14359403 -0.35849258 0.39761317 0.44394195 -0.19650382 0.37864637 -0.4673476 -0.18541406 -0.43775326 0.3596836 -0.22038351 -0.23633648 -0.23775528 0.05526757 0.06334799
475 0.15208103 -0.09314675 0.6099965 0.06892506 0.10252738 0.08524109 0.0874341 0.31171286 -0.44211078 0.034360584 0.28132433 -0.12287879 -0.54726404 0.082697704 -0.08740967 0.41720316 0.15658683 0.5941259 0.43944845 -0.47133276 -0.39425248 0.13765287 0.08347909 -0.12832998 0.14304288 0.22942309 -0.024880752 -0.31666312 0.11241533 0.056125615 0.700837 -0.06470968 0.26187572 -0.09419036 0.24992917 -0.11854781 -0.6574304 0.41035053 0.050608788 0.16910927 0.3017011 -0.08881885 -0.39417806 0.04848257 0.4716084 -0.36023054 0.29075637 0.37517044 -0.05448446 0.45790958 -0.14194635 0.015454023 -0.24397267 -0.41775727 -0.35208818 0.35968438 -0.40191615 -0.19812487 -0.23825723 -0.40095186 0.20354217 -0.36466622 0.67117006 -0.11824498
199 -0.05228201 -0.08631945 0.38789466 0.3772274 -0.21004239 -0.37521613 0.41143858 -0.31923094 -0.5557695 0.29240054 -0.12576316 0.29068324 -0.5767683 -0.40548253 -0.3890786 -0.07645239 0.0017928634 0.06427284 -0.02708917 0.0932461 0.056848217 0.2812416 -0.13774435 0.5094301 0.09526767 -0.33718386 0.16105582 -0.48523548 -0.21170795 0.09966662 -0.18536565 -0.6643112 -0.0030900696 0.44986907 -0.8577584 -0.037161816 -0.11131449 0.075580314 -0.32447803 0.3972952 0.31824294 0.11232024 0.3360407 0.34218928 -0.19197966 0.20759507 0.45758653 -0.021926684 0.2031879 0.38432094 -0.6031838 0.35743228 0.5841404 -0.05412672 -0.05427273 0.23656036 0.16940336 -0.81263274 -0.2080198 0.18408391 -0.4723809 -0.22900298 0.115054354 0.04432186
184 -0.43757442 -0.21669082 0.107608356 0.11678428 -0.3316053 -0.3711667 0.24929357 -0.057198316 0.25689378 0.41285616 -0.14670992 -0.12289221 -0.25879052 0.08781231 -0.5795102 0.043033406 -0.3250745 -0.54212034 -0.7404526 -0.18527119 0.013267575 -0.46577805 -0.24224776 0.005802128 0.48813808 -0.30865085 0.588872 -0.43566197 -0.0005684794 -0.022671258 0.021782061 -0.11466301 0.08692522 -0.23721528 0.034498308 -0.37007865 -0.119970806 -0.015545502 0.42200536 -0.2958771 0.22247498 0.70989686 -0.36167383 -0.4109959 0.31387183 -0.22185002 -0.16615231 0.0047283727 0.10683233 -0.1505611 0.69169277 0.034692504 0.61035013 -0.029912475 -0.07602996 0.3215377 0.17238352 0.09227694 -0.32359233 0.21871632 0.07571227 -0.36052173 1.0168304 -0.2508093
1670 -0.037407637 -0.4630758 0.0860568 -0.18299755 -0.3040134 -0.3150653 -0.34471178 0.1629981 0.5328588 -0.094099484 0.21339205 -0.031052798 -0.38528964 0.046914816 -0.007481218 -0.45026746 -0.013150945 0.048271973 -0.1248556 -0.25607932 0.15801553 0.18456484 0.16496032 0.22065711 0.28208244 -0.22923754 0.18758893 0.33129287 0.18133615 0.388985 -0.32604635 -0.48016742 0.37135425 0.45748898 -0.4562517 0.19854893 -0.1407816 0.21478282 0.4571394 0.46522295 -0.019698303 0.5534247 0.29321358 0.15164302 0.5327545 -0.16912831 -0.30942792 0.20861676 -0.04907377 0.16695367 -0.089509696 0.34862956 0.10384132 -0.58802706 -0.40399173 0.43849865 -0.17438304 -0.06820288 0.13420223 0.1295285 0.27961376 -1.2726464 0.5158158 0.6100942
26 -0.14846799 -0.45448524 0.57776123 0.5124216 0.059264928 0.24121378 -0.40086222 0.07670232 0.25897905 0.10889732 -0.18372303 -0.3215436 -0.018429413 -0.5075753 -0.09380792 0.04346809 0.42621666 0.046851136 -0.07019302 -0.03971364 -0.20332676 0.5620607 -0.14049868 -0.35168177 0.48836178 -0.39143297 0.0036323548 0.5296263 0.06509569 -0.14292973 0.48508236 0.04874466 0.45254934 0.68383765 0.26959518 -0.186288 0.22547738 0.19052659 0.31710148 0.23210798 -0.12880358 0.25238392 -0.59387726 0.28137437 0.7349551 -0.11213776 0.3408817 0.11477115 0.36069828 -0.36077586 -0.19837055 -0.29008785 0.05415855 0.259969 -1.003356 0.29994 0.219811 -0.16495179 -0.34505606 0.44300234 0.32296503 -0.25039425 -0.10834258 -0.02956292
733 -0.09409766 0.027235175 0.28938925 0.03084428 -0.25973645 -0.2700249 0.15213846 -0.38945952 -0.20008668 0.35605827 -0.33202884 0.26374146 -0.3411869 -0.16776918 0.09875602 0.25381258 0.18297508 0.32395193 -0.043037236 -0.33198044 0.78025514 0.2563254 -0.1868303 0.15029159 0.13309722 -0.4198375 0.24185137 -0.65739197 0.013983483 0.28301522 -0.28773415 -0.44580486 -0.3281546 0.013979127 -0.97409 0.11251973 0.084962875 0.31647223 -0.33011377 0.237816 0.41147503 -0.155769 0.19240053 0.41107422 -0.1579665 0.3677767 0.36217216 -0.038272746 0.07274962 0.34774637 -0.7877264 0.2558486 0.64727443 -0.2986566 -0.019105962 0.10682833 0.12351625 -0.48629913 -0.12722297 0.30694628 -0.48085457 -0.6374625 0.34293017 0.19984075
1224 0.04610809 -0.13482183 -0.44156742 -0.2802102 -0.4445366 -0.5162803 -0.2813377 0.011674207 0.37309062 -0.06522678 0.39121884 -0.0026559455 -0.23210387 -0.28075445 -0.3126322 -0.390871 -0.11612659 -0.17375438 -0.10423671 -0.47707185 0.025835682 -0.038883694 0.34097674 0.08197162 0.42501268 -0.2194552 0.4040214 0.1703178 0.059356637 -0.54450184 -0.2550865 -0.36525238 0.56211156 0.55722296 -0.62679464 -0.040609412 -0.18748479 0.2501197 0.4235501 0.20132846 0.06659686 0.064492404 0.09868787 0.0424487 0.14057454 0.022489212 -0.15955572 -0.016708773 -0.21117407 -0.010662849 -0.16762917 0.32990456 -0.29166707 -0.36618957 -0.50995195 0.053277984 0.11253345 -0.063040644 0.35226887 -0.29558232 0.23455215 -1.3755137 0.27612194 0.11155417
379 -0.24505766 -0.15588373 0.36137426 -0.5562126 0.5241957 -0.5988785 -0.28246447 0.48132694 0.17341752 0.47452947 -0.3852892 -0.05616426 -0.050774664 0.11690298 0.01694556 0.21520609 0.08107528 0.16144499 -0.7887475 0.3084132 -0.5686082 0.53293693 0.36808103 0.010431092 0.18457471 -0.38874707 -0.25976178 -0.15436473 -0.087225445 -0.37270007 0.024813592 -0.02423441 -0.4057929 0.111122504 -0.12570457 -0.22682813 -0.24307162 0.3280099 0.56429917 0.2743459 0.04141185 -0.177043 0.0041273874 0.0578076 0.49892053 0.22372274 -0.26854783 0.10315612 -0.10218059 -0.40682015 -0.06167675 0.47640836 0.58650804 -0.6250437 -0.073258586 0.2689839 0.30608365 0.026663654 0.19972876 0.011634788 0.47416744 -0.5593039 -0.29071447 -0.18817876
1441 0.19660713 0.22240132 0.9950605 -0.40839928 -0.20725466 -0.10945718 0.542409 0.5025093 -0.30063426 -0.1794656 -0.11829067 0.027537657 -0.1304432 -0.111406244 0.17309912 -0.008643297 -0.10729545 -0.21475437 0.68269634 0.25299644 -0.17114398 -0.031957246 -0.11132886 0.075289175 0.3968771 -0.3878068 0.061837178 -0.38695043 0.37422737 0.17930076 0.35232893 -0.116889514 0.0043054135 0.03841258 -0.1048014 0.081468344 0.4496085 0.59821874 0.47707945 -0.44483536 0.58241177 -0.2026387 0.13080676 0.20088772 -0.15508232 0.0038159604 0.35478383 -0.29161647 -0.09175439 -0.054475136 0.4299736 0.2967296 0.31582484 0.39167863 -0.48317146 0.619883 0.49907964 0.2361281 -0.629627 -0.077357136 -0.027342424 -0.24556068 0.8197065 -0.66841125
219 0.43683767 0.3696401 0.9315982 -0.36126736 -0.12944958 0.30267742 0.68238974 0.37862334 -0.30109087 -0.27998933 0.21602781 -0.12200197 0.071017034 0.073039725 -0.117638156 -0.35058483 0.19696997 -0.07298492 0.055976104 -0.12817073 -0.07225302 -0.17780615 -0.09844177 0.41643238 0.7158401 -0.04694865 -0.027499257 -0.017189492 0.45283183 0.33831394 0.14906609 -0.09607243 -0.20108932 -0.20740606 0.24748686 0.15462545 0.57799846 0.3132907 0.54670143 -0.23547499 0.33691975 -0.32181656 0.17249107 0.022917397 0.025195403 -0.25161415 0.052724995 -0.025839001 0.0944365 -0.29395664 -0.07573343 0.1894562 0.13214068 -0.02044378 -0.0040730163 0.40171474 0.95423025 0.12864128 -0.47232798 0.13726982 0.17368591 -0.22660246 0.38911557 -0.33227545
542 -0.22072783 -0.5132475 0.662268 0.036847755 -0.022084258 0.57700104 0.07874677 0.09550351 0.15874086 0.27039808 0.018904591 0.15760812 -0.26952684 -0.32492068 -0.25635204 0.077461824 -0.09215835 -0.29905808 0.18786342 0.077433966 0.13419954 -0.46551943 0.4321599 -0.48228642 0.3243916 -0.21994573 -0.031628903 -0.5091461 -0.047997974 -0.26421306 0.47589675 -0.08809259 -0.45583636 0.07455494 0.5825909 0.39242664 -0.024614159 0.2093117 -0.13702649 -0.4503911 0.25295183 0.8046425 0.4305002 0.29062557 -0.08273463 0.6361142 -0.14945585 0.60882545 -0.04061314 -0.03051459 0.15013075 -0.021190869 -0.002008542 -0.09815307 -0.11558592 -0.3091692 0.049126696 -0.361934 -0.06305563 -0.05185455 0.34113538 -0.88584965 -0.01776807 -0.08234372
1483 0.080940746 -0.27198023 0.5095015 0.5644204 0.06020277 -0.3119683 -0.06345377 0.27117848 -0.10537012 0.8880133 0.41538104 -0.20799576 -0.03534047 0.33780625 0.51329845 -0.02441369 -0.3361387 0.32141113 -0.4499633 -0.6405976 -0.013047834 0.17042643 0.1372829 -0.26510006 0.2519756 -0.19599582 -0.06664285 0.47132948 0.4516751 -0.20641206 0.40227017 0.00064516003 0.20285824 0.15821339 -0.20935449 0.08037033 0.36959234 0.5082097 0.07679644 -0.050424047 0.17989102 -0.26595944 -0.25104758 -0.2988691 -0.44579765 0.06458001 0.25028208 0.615418 -0.15859035 -0.6543672 0.19675973 0.07915547 0.21722583 0.3586388 0.4395858 -0.013993796 -0.13921975 -0.2384354 0.45950362 0.3093586 0.2684133 -0.64016116 -0.087064095 -0.087627254
154 0.19288646 -0.1723269 0.026196051 0.056378543 -0.3643329 -0.4008362 0.21438457 0.53322726 -0.12558849 0.23308666 0.2312646 0.26142585 -0.12553105 -0.3002832 0.0993344 0.02041281 -0.579232 0.1085898 0.13136473 -0.0029822811 -0.4458583 0.31103417 0.47684997 -0.20003912 0.009697713 0.2150555 0.19753079 0.033719987 -0.0841359 -0.9600579 0.459988 -0.2947239 0.32477948 -0.09809874 0.3486086 -0.09239602 -0.7395222 0.32325613 -0.24264047 0.2724435 -0.35077882 0.42750344 -0.0484968 -0.064515166 0.11166808 0.044966068 -0.18898441 0.21890599 -0.16627078 -0.3938052 -0.97143936 0.04371901 -0.35829192 0.198746 0.32250094 0.2654574 0.44913134 -0.20535506 -0.21819057 0.09110361 0.19766912 -0.31850198 0.2825305 -0.13852215
415 -0.40655947 -0.07150912 0.33265892 -0.691775 0.2560891 -0.3009078 0.13159505 0.42118105 0.09317949 0.47197855 -0.13619433 0.61948025 -0.51204705 0.15681735 0.30201903 0.17314667 -0.123349786 0.124573536 -0.6337655 0.60824 -0.22126646 0.22879422 0.16051365 0.10935655 -0.011933164 -0.27894363 -0.28580436 -0.31876448 0.4406903 -0.68747795 0.02779358 -0.07525479 0.013177301 0.27710766 -0.24083261 0.03156792 0.08065278 0.04193853 -0.23245251 -0.020029193 0.13641264 -0.24390076 -0.03897624 -0.28940812 0.45607904 -0.14598325 0.2821722 0.054488905 0.014792185 -0.35554686 0.0149708595 0.23849453 0.6302123 -0.40998608 0.36743626 0.55328244 0.60910165 -0.42216593 0.4262069 -0.04336307 0.22719403 -0.5702441 -0.16418535 -0.009103249
239 0.25839362 0.26854986 0.42267475 0.5081776 -0.28148845 -0.566069 0.28402138 0.5278772 0.28738895 -0.15787606 -0.40564463 0.4150322 0.714852 -0.31037617 -0.6929008 -0.06658782 0.024024595 0.0107933385 -0.18082568 -0.0781761 0.4689788 0.33431587 -0.21961237 0.6315555 0.4985111 -0.08802786 -0.43933055 0.084875695 0.2400317 -0.33864143 0.29375958 -0.05652718 -0.4858141 0.0588471 0.22845945 0.08634588 0.14140512 0.4306811 -0.13006553 0.2421708 -0.1078771 0.007139786 0.011041614 -0.103375755 0.012339301 -0.3613519 0.42991194 0.5231987 -0.54352856 0.6306702 0.01205485 -0.5666669 0.4570051 0.16255675 0.26078516 0.20735657 -0.077369966 0.14345501 0.41478005 -0.16180466 0.32879788 -0.14208995 0.51615393 -0.17413469
443 0.26391223 -0.44687513 -0.14914857 -0.31280744 -0.5080792 0.0074435933 -0.3118393 -0.14595345 0.5091456 -0.20060052 -0.0041086087 -0.47013575 0.09404926 -0.55752003 -0.29132444 -0.16696036 0.2349893 0.38069123 -0.38859117 1.047739 0.26169366 0.7661317 -0.61964077 -0.20992135 0.36042422 -0.4499334 -0.13214344 -0.8319982 0.072463416 -0.46507326 0.5798793 0.015534708 -0.20707543 0.041931044 -0.010888925 -0.13857138 0.10694521 0.36287776 0.39647174 -0.052155957 0.45902738 0.19748501 -0.103517845 0.13969561 0.052306343 -0.19002944 -0.15196621 0.14990011 0.0026192763 0.091850534 -0.04834095 -0.09729999 -0.1189848 -0.27629822 -0.38342473 -0.01570795 0.23740445 -0.22431473 0.2573042 0.06377331 0.14986432 -0.18835428 0.07767009 -0.64653456
1169 -0.18462604 -0.4856408 0.3922239 0.23942375 -0.12267664 -0.111875944 0.3278822 -0.39759648 -0.262122 0.28253052 -0.2377532 0.038214233 -0.36973417 -0.29403815 -0.24603608 0.44623095 0.13913096 -0.24874464 0.31361833 0.018797707 0.31562173 -0.32483104 0.07788797 -0.55987734 0.13950047 -0.46839285 -0.024633784 -0.81875867 -0.27723387 -0.66626954 0.02166978 -0.32198843 -0.48722756 0.25321662 0.49232802 0.6166732 0.029656641 0.34608677 0.314729 -0.06413276 0.039241463 0.5751721 -0.06719504 -0.27746156 0.03540371 0.30906415 -0.20093878 0.6901635 -0.26186457 -0.057176773 0.10371675 -0.40957433 -0.44050547 0.20466846 0.115823515 -0.23229179 0.51161283 -0.0058469446 -0.29467678 -0.18408737 0.111498326 -0.44901645 -0.035995208 -0.08677335
1084 0.05031268 -0.18139105 0.65596116 0.78046185 -0.6945727 0.04637738 -0.067050405 0.345374 -0.26771 0.7138521 0.35068822 -0.19373706 0.084301695 0.11745502 0.59836924 -0.20368552 -0.17821215 0.34809068 -0.36839992 -0.5627164 -0.23744176 -0.14415301 -0.15740794 -0.120783895 0.22211534 0.118723035 -0.23110896 0.1618911 0.7072204 0.11109699 0.37268588 -0.2965151 0.3001882 0.04757989 -0.25815737 -0.09056736 0.33176968 -0.056754652 0.06267921 0.021518853 0.30879232 0.13711365 0.1688977 -0.36971554 -0.43532422 -0.105475515 0.15130937 0.95392394 0.010017371 -0.7102564 0.32660958 -0.14881803 -0.13828501 0.1765359 0.31282955 0.058610696 -0.22685957 -0.0231429 0.0053057643 -0.13091892 0.1948399 -0.40605018 -0.03594091 -0.38395894
1131 -0.1599526 0.21396913 -0.25683087 0.0612975 -0.31525776 -0.74092185 0.09712491 -0.27842546 0.03682073 0.063721694 0.60873216 -0.020410743 0.3874074 -0.3704356 -0.25661066 0.05718323 -0.43839887 0.27522984 -0.092685886 0.0752565 0.65787107 0.07066914 0.2753033 -0.12196888 0.5227865 0.25042656 -0.8943352 -0.064816445 0.5525958 0.19853008 -0.09141671 -0.34631014 0.61929953 -0.22720823 0.025727209 0.17749734 -0.04152506 0.34485894 0.025634483 -0.06406379 -0.24692732 0.015404885 0.2334172 0.021681985 0.18355262 -0.015315753 -0.14293367 -0.20168349 -0.57805574 -0.16284607 -0.3432864 -0.32530186 0.43884182 -0.4819103 -0.33140758 0.62272835 0.4857616 -0.03173315 0.23858684 -0.025171628 -0.22726034 -1.0034074 -0.13622929 0.28302544
1229 -0.30457377 0.15600942 0.493298 0.040574208 -0.60501224 -0.23831809 0.23426582 0.05366859 0.059590835 -0.12506369 0.17350513 -0.5063533 -0.33379868 -0.13374172 -0.15245678 -0.24997437 0.023744252 -0.5422041 0.63327885 -0.4085196 -0.42706951 0.51588315 0.5612145 -0.12097118 0.19082685 -0.2688515 -0.2328232 -0.022498012 -0.3990737 -0.2647837 0.20149568 0.023698337 0.3297561 0.32421553 -0.32981288 0.024631547 -0.15303466 0.28591552 0.1534162 0.13064359 -0.48518577 0.21227907 0.2999643 -0.4709114 0.29988313 -0.499208 0.20680039 0.3153825 -0.46219444 -0.17443827 0.13864085 0.43554315 -0.06722177 0.053288516 -0.3261348 -0.6537341 0.4678443 -0.4648189 0.5049455 -0.18223198 -0.18615098 -0.17095685 0.21376611 0.34372935
1042 -0.50983894 -0.2980852 0.7110422 -0.019727765 0.43610844 0.0018327892 -0.40324703 -0.27492714 0.3364071 0.048904326 0.17476231 -0.055695746 0.025151713 -0.054473005 0.0035123434 -0.22713694 0.65796196 0.14956799 0.012900547 -0.12973566 -0.14799432 1.0064391 -0.34605074 0.040342048 0.27390793 -0.2142017 0.21445471 0.17983328 0.34384766 -0.07245673 0.25367492 -0.2690677 0.008607979 0.8491515 0.23146333 -0.49078426 0.20195185 -0.01310221 0.30387577 0.20023508 -0.21847701 0.29587922 -0.7533159 0.40523013 0.5141351 -0.098973066 0.18994357 0.25432348 0.14439794 0.041719753 -0.2933348 -0.0031456049 -0.098035865 0.42853367 -0.6609163 0.38743654 0.5202954 -0.47753075 -0.37300298 0.33181113 0.10957354 -0.1703656 -0.17691833 -0.054231998
869 0.5461512 0.0028902076 0.3621877 -0.48368657 0.20107545 0.32078853 0.5447325 0.20892964 -0.39655608 -0.14852212 0.30825222 -0.5940358 0.32473016 -0.0018366685 0.011195582 -0.18275712 0.2397185 0.10028793 -0.50552195 -0.3651109 0.08074515 0.67937356 0.4247809 0.46317178 0.17183891 0.006137241 0.037178144 -0.44155818 0.72206116 -0.1479679 -0.12099448 0.35221556 0.20658383 0.3139757 0.0045314925 0.42122194 0.04149458 0.34096658 0.21880889 -0.50858146 0.03264921 0.3686729 0.0898641 0.36115202 0.27975065 -0.35765484 -0.1969142 0.4671033 0.06369678 -0.0875797 -0.42477253 0.56986684 0.53419286 -0.19342206 0.2691178 -0.019251281 0.5614858 0.69382143 -0.4860695 -0.058111046 0.09831521 0.019806512 -0.13538319 -0.014378392
745 -0.13794321 -0.61292917 0.2895434 -0.30233735 -0.099950664 -0.5004576 0.2245845 0.36369807 0.0986785 -0.11582575 0.32397112 -0.14021748 -0.040521093 -0.52428335 -0.100034244 0.28422832 -0.06546377 -0.34444815 0.1089785 0.38720104 -0.37642643 0.5229874 0.029577017 -0.89173865 0.34201536 0.19983816 0.42972907 -0.42996204 -0.02316393 0.47442317 0.38520622 -0.012374564 0.25592834 -0.16967154 0.07439043 0.030270973 0.12554933 0.16355675 -0.27731976 0.06846925 -0.2655363 0.15036876 0.30706578 -0.21322374 -0.18617998 -0.38542286 0.21063814 0.69124985 -0.74490404 0.018402932 -0.35561255 0.16382717 0.300211 0.43626368 0.060524665 -0.5264652 0.4557227 0.14790413 -0.16124842 -0.20794033 -0.1942195 -0.550188 -0.5741988 0.31859848
1692 -0.4900721 -0.22169052 0.33243155 -0.44266844 -0.16135938 -0.19308251 0.076329686 -0.48068517 -0.31723982 -0.08526893 -0.047151845 0.37111792 0.14221293 0.13286458 0.078714654 -0.2680035 0.0596856 0.1082653 -0.8150219 -0.5155727 0.14435768 0.20671642 -0.69346434 0.008302579 0.27356607 -0.3070403 -0.060744148 -0.021210799 -0.015785381 0.4599109 0.6105827 -0.6805075 -0.24933496 0.665892 0.35279328 -0.14675343 0.16264373 -0.29508764 0.55003595 -0.28918287 0.19701432 0.20792997 -0.7736256 -0.3471518 0.09167229 0.15230963 0.17610018 0.5670179 0.20529436 -0.19888695 -0.42443028 -0.22453047 0.053297352 0.55446357 -0.05198413 -0.5133271 0.23845854 0.1141326 -0.34210733 -0.1597132 -0.44829184 -0.06493499 0.4559008 -0.056931004
232 0.028977102 -0.11982083 0.513707 -0.25178474 0.09925473 -0.30223542 -0.01993797 0.27162206 -0.070585355 -0.006879352 -0.09533902 -0.22090055 0.29064503 0.07029823 -0.047691178 0.47993433 0.45878944 0.43985677 -0.48413366 0.5276011 0.29746303 0.31361926 0.12249608 0.30847415 0.3277915 -0.2695315 -0.65969 -0.39385214 0.9679137 -0.37428594 0.33357924 0.09477163 0.039109204 -0.38174218 -0.10944361 -0.42122126 0.2583399 0.47069356 0.049593378 0.60745555 0.4333597 0.4077161 -0.38153756 -0.2999734 0.46614972 -0.16868806 0.46640787 0.30360028 -0.07325907 -0.123545475 -0.48244292 -0.016159449 0.37131286 0.1770327 -0.09438455 -0.28142208 0.37803388 0.18897602 0.38723204 -0.29461873 -0.061886966 0.07330638 -0.11020357 -0.29432908
507 0.23929074 -0.10569792 0.43097126 -0.04681242 -0.503883 0.4156613 0.6476463 0.14939928 -0.61192787 -0.11057583 0.3095007 -0.29457548 -0.20465152 -0.14179553 0.1564376 -0.2279019 0.049482904 0.1067847 0.107904695 -0.32300895 -0.13331415 0.5748937 0.35500982 0.43873334 -0.03344234 -0.00958426 0.35712332 -0.29443482 0.30544835 -0.2517643 0.72694474 0.6088891 0.33824512 0.13279787 0.05615752 0.7333624 -0.32802862 0.050071195 0.42042616 0.19267437 0.013564809 0.46179307 -0.07359408 0.33585066 -0.10560716 -0.53572404 -0.11267384 0.2284131 0.11068801 -0.2999469 -0.25511825 0.5041252 0.041017033 -0.17110708 0.22200362 0.38304877 -0.08819786 0.6067792 -0.37419552 0.012791593 0.0547991 -0.566899 -0.2926027 0.051993195
563 -0.41037908 -0.20037527 0.04217259 0.020632353 0.058603365 0.030612618 0.47509438 0.35880628 -0.26056132 0.5175146 0.02620019 -0.20790482 0.53703123 -0.10452403 -0.3224809 -0.0047557782 0.53887796 0.526096 -0.32938024 0.17438523 -0.37153542 0.6345661 0.1727538 -0.14147103 0.47570315 -0.1166264 0.1537374 0.069426484 0.5508433 0.5266548 0.20701036 -0.052864965 0.65817726 -0.22696695 0.54701245 -0.11622248 -0.8725482 0.18845502 0.18872371 -0.3954084 0.228641 -0.39156348 -0.20133452 -0.15687327 -0.07159832 0.061231494 0.018080078 0.36929137 -0.41677564 0.012657344 0.0006734871 0.24176185 -0.34495214 -0.7159451 -0.017086593 -0.16287607 -0.017354436 0.072478235 -0.31695494 -0.4786038 -0.06773173 -0.07824024 0.29905072 -0.13432571
27 0.12360679 -0.068644024 0.5021263 0.19464783 -0.2770627 -0.10840535 0.22841506 0.14349388 0.5568565 0.3616397 -0.46459645 -0.09004405 0.054587606 -0.007254276 -0.47586077 -0.5111741 0.5491696 0.22778274 0.13330743 -0.59222835 0.13874629 0.41210404 -0.21725719 -0.34291723 0.39858282 0.2406061 -0.37366635 0.22659035 0.19456905 0.43509045 0.3028098 -0.35382277 -0.010651946 0.6864902 0.080040164 -0.0660987 -0.23041205 -0.5691687 0.035723064 -0.7842794 -0.31052572 0.05685073 -0.6965837 0.12829307 -0.24561213 -0.42874965 0.7043593 0.072188124 0.39768738 -0.49966565 0.01065368 -0.24119131 -0.45082912 -0.24443164 -0.36819437 -0.16700998 0.28761345 -0.2541399 -0.4726499 0.13162461 0.036233433 -0.41506505 -0.15975374 -0.66501194
1703 0.13164538 0.16232745 0.4877713 -0.40914524 -0.85732734 -0.24826957 -0.21318759 -0.08433154 -0.058839086 -0.5757142 -0.4202074 -0.5423032 -0.23301452 0.1158939 -0.15925099 0.18934411 -0.39348552 0.23563921 -0.45217645 -0.45563084 0.3277014 -0.23760471 -0.63989013 0.102732964 0.6188127 -0.04292191 0.18318188 -0.35851353 0.1617662 0.15681694 -0.50441086 -0.2632865 0.07963792 0.2683345 -0.0059988345 0.14823368 0.106223576 0.29808995 0.0177437 0.010979439 0.5158441 0.582697 -0.37415406 -0.68124074 -0.08540548 -0.21507327 -0.3241199 0.47901747 -0.28906932 0.0921874 -0.07227262 0.22186965 -0.034237817 -0.43640736 -0.15820034 -0.050772674 -0.25867623 -0.7267699 0.13298653 0.08367905 0.47564143 -0.18687129 -0.45065 -0.60084087
177 0.19951783 0.5680687 0.5862591 -0.24806158 -0.38747033 0.37529564 0.6703149 0.067684285 -0.563199 0.14402741 0.51495534 -0.3267832 0.168862 -0.2978263 0.008887315 -0.4239363 0.39893514 -0.7065256 -0.114892386 -0.40688342 0.19643097 0.4096749 -0.01911432 0.1994963 -0.06521118 -0.2641565 0.07998701 -0.5680797 0.29620844 0.34842035 0.31606442 0.315944 0.48504287 0.04456024 -0.007970683 0.6731332 -0.24010955 0.3426081 0.6216947 -0.313639 0.2530413 0.54757035 -0.35968667 0.38867983 0.08654122 -0.30833837 0.12342299 0.057095673 0.17318785 -0.15927002 -0.4677438 0.47841486 0.29891366 -0.11253287 0.75750124 0.35541278 0.44485182 0.38238508 -0.49356002 0.07778217 -0.015979635 -0.38669476 -0.68662006 0.16146512
122 -0.58685476 0.04704597 0.36012244 0.14621094 -0.63270557 -0.25325164 0.07231566 0.17269157 0.09321859 -0.4598305 -0.39154127 -0.6728467 0.10461031 -0.021726646 0.07873676 0.3502374 -0.09399555 -0.36119923 0.11902503 -0.10849373 -0.1440357 -0.12618662 -0.0370101 0.28788766 0.8149887 -0.9936157 -0.008978444 0.14320655 -0.35761386 0.007331062 0.39130485 0.30682382 0.2984297 0.23518784 -0.202236 0.56765336 0.07761372 0.81572014 -0.2266634 -0.32271895 -0.2779034 0.20347829 0.02635335 0.031344295 0.49881598 -0.1761752 0.3339843 0.6185888 0.44395813 -0.42462352 0.19263326 -0.30488965 -0.06779659 -0.6119847 -0.59858733 -0.28147307 -0.063989595 -0.82595545 0.060057156 0.31807274 -0.06826934 -0.31256533 -0.35336933 -0.14972337
651 0.23175767 0.05099496 0.17382452 -0.48211163 0.39976645 -0.32136756 -0.22879848 -0.024203192 0.104114644 0.08686947 -0.14024809 -0.013848862 0.17864086 -0.23616461 -0.20144773 -0.11690947 0.051869314 0.30177587 -0.39744368 0.6310188 0.25375694 0.6893447 -0.3488782 0.32710356 0.014100301 -0.7658643 -0.42017165 -0.388869 0.34046486 -0.23678263 0.62318486 -0.14818804 -0.038546424 -0.18146369 -0.23126021 -0.060024995 0.46381456 0.87449914 0.0013279397 0.5681717 -0.057775833 0.4279508 -0.4121011 -0.43293947 0.15979034 -0.54111844 0.65636027 0.16818365 0.49944925 0.21180375 0.11754578 -0.29382193 -0.10155532 -0.13434918 0.32997105 -0.083496295 -0.06083191 -0.23439799 0.5738059 -0.32679057 -0.028464427 -0.7908324 -0.07928477 -0.11011649
925 0.21153708 -0.22621602 -0.29448518 -0.122190654 -0.8131176 -0.14634356 -0.0787698 0.09140532 0.0040065316 0.2855309 0.1793753 -0.22281206 0.19436733 -0.34483463 -0.15449448 0.36290702 -0.5140731 0.31355962 -0.05618235 -0.1949414 0.6865371 0.4478746 0.104314774 -0.091250986 0.2696789 0.24968831 -0.59024024 0.078124166 0.5743377 -0.10151356 -0.27137217 -0.07254315 0.5042245 0.21874397 0.03518123 -0.13973154 -0.033039056 0.50393337 0.183147 -0.1920854 -0.17034212 -0.016671842 0.16368146 0.17234997 -0.030060176 0.36026558 -0.12366573 -0.41915336 -0.3383916 0.006460162 -0.093523 -0.5261516 0.17062712 -0.8850786 -0.53953576 0.28511712 0.35414478 0.19823764 0.3750991 0.0622491 -0.3499027 -1.2072331 0.08374533 0.34469035
963 -0.32521647 0.31067723 0.065168716 -0.48466465 -0.66383845 -0.1216348 0.15338708 0.23235214 0.0757285 -0.43972448 -0.55842555 -0.4584604 0.48159248 -0.0063381153 0.031547405 0.21963567 0.4950112 -0.09203363 -0.05174703 -0.2585582 -0.15521726 -0.11300258 -0.2856541 0.5457607 0.9508314 -0.72850066 0.15390263 -0.083270855 -0.051452145 -0.34521684 0.4416179 -0.24675667 0.28815162 -0.06876193 -0.39818335 0.49181068 0.1891798 1.1480507 -0.5255537 -0.14298247 -0.33768502 0.33557633 0.21368031 -0.28751898 0.029479269 -0.26372898 -0.059921253 0.41087976 0.40830156 -0.40650395 0.22326921 -0.23031409 -0.55012095 -0.39284375 -0.47466463 -0.2817598 -0.084977485 -0.55443543 0.06723081 0.26122677 -0.26709136 -0.030027688 0.07204188 0.17853606
94 0.23397121 0.016299361 0.5302678 -0.16423546 -0.8513103 -0.20795397 0.16563387 0.040828884 -0.12342405 0.21249314 0.022467613 -0.04369748 -0.07954487 -0.04466371 -0.19694504 0.14961293 -0.44770673 0.37099013 -0.1496936 -0.057759244 -0.2570217 -0.2998104 -0.82959265 0.6028884 0.22337113 0.010814413 0.16069327 -0.44606817 0.30095825 -0.25558323 -0.36730084 -0.4130926 -0.17859471 0.41353843 -0.66092473 -0.36072338 -0.11442835 0.17949823 -0.07354502 -0.053473648 0.11305203 0.9760611 -0.33438247 -0.20141856 -0.11038416 -0.076813176 0.077449955 0.07402276 -0.42185593 0.3311583 -0.18289061 0.2901192 -0.21672754 -0.48364553 -0.20795895 0.3056832 -0.0010870448 -0.5026668 -0.11021746 0.66444117 0.47167718 -0.2932618 -0.69257826 -0.5272747
1413 0.18700898 -0.053921305 -0.0137294885 -0.2273965 -0.41884747 -0.016142942 0.6068317 -0.15607712 -0.34042796 0.054492664 0.026498819 -0.5181274 0.16173789 -0.09097794 -0.28819755 -0.30400968 0.1929747 0.03596035 -0.025467101 -0.68539184 -0.061869927 0.74099624 0.1718604 0.44652426 0.24206352 0.20481679 0.535392 -0.2623188 0.42507836 -0.42166838 0.10057614 0.45616755 0.17574315 0.46464452 -0.4606895 0.19495815 0.2439475 -0.048248377 0.471337 -0.3146134 -0.26318204 0.32198226 -0.083605416 0.43595904 0.065663844 -0.38410005 0.062243003 0.54654706 -0.108349584 -0.372696 -0.55355376 0.5650188 0.28147984 -0.20174445 0.65065044 0.22865187 0.26533973 0.8262146 -0.23059551 0.054444302 -0.21088448 -0.37873888 -0.33465147 -0.17613478
742 -0.7617011 -0.112000294 0.6592318 0.07793276 -0.28267887 -0.3056826 -0.14134534 -0.72177875 -0.39999515 0.35796344 0.39463815 0.10957874 0.3428024 0.22319108 0.1939626 -0.09599663 -0.22931467 0.05437526 -0.5272516 -1.0803778 0.273731 0.21735138 -0.62669224 -0.25695655 0.09004144 -0.13317634 -0.26365617 -0.18332681 0.38944358 0.40413103 0.6893227 -0.2567073 -0.10034934 -0.00036049692 -0.31571245 -0.11406555 0.28827924 -0.17593993 0.5632532 -0.12062703 0.31195772 0.31477726 -0.64630896 -0.40822738 -0.036824558 0.17877384 0.40710554 0.50287735 0.07061129 -0.39289072 -0.31646672 -0.080408975 0.12059923 0.60828644 0.057405606 -0.29754472 0.036507215 0.25837672 -0.062777944 -0.32237536 -0.0520449 -0.3525881 0.07912673 0.2923394
118 -0.6611164 0.2537812 -0.29393226 -0.03204442 -0.43075594 -0.055137258 0.22060965 -0.038635556 -0.26506743 0.70922405 -0.04100176 -0.079423785 0.24997905 0.025150197 -0.373629 -0.6666419 0.3414686 0.07426891 0.06175366 0.050718214 0.14407958 0.577943 -0.21063343 -0.21484318 0.61462593 -0.25521317 -0.110263124 0.18776114 0.97418135 0.8302113 0.0454607 -0.028689086 0.48348844 0.17552632 0.089616634 0.09671905 -1.0252144 -0.12616844 0.122620665 -0.41122892 -0.065037206 0.07866028 -0.35212383 0.5289861 -0.1347958 0.24577594 0.32989913 0.6373372 -0.42038688 -0.05024033 -0.044047717 -0.0006105417 -0.2541452 -0.6030818 -0.086993024 -0.21241833 0.16755375 -0.27911544 -0.10769303 -0.63996893 0.123142235 -0.29265687 0.16982096 0.06489767
436 0.09410648 0.33784255 0.32436424 -0.764686 -0.67018217 -0.39635172 -0.13130674 0.31891343 -0.03300864 -7.674107e-05 0.5497869 0.25808793 0.12587902 -0.26315263 -0.39875418 0.10226885 -0.18061665 -0.26015082 -0.7008364 -0.49626625 0.14190339 -0.082222015 -0.49621654 0.4660061 0.3050553 0.81130815 -0.5055296 0.030132135 0.49459255 0.22309336 0.2169266 0.1733478 -0.28166652 0.09317952 -0.5061598 -0.1436679 -0.44954574 0.82092226 -0.29592264 0.094678245 0.42711738 0.42491966 0.084098496 0.24936448 -0.14832811 -0.2456696 0.028040752 0.21926856 -0.2816244 -0.09839944 0.35067406 -0.43551174 -0.17341587 -0.30273974 -0.21232696 0.3422446 0.022270368 0.16090897 -0.20916681 0.37855637 -0.19426838 -0.5821741 -0.8083488 0.25161144
2182 0.34653747 -0.18655054 0.34669515 -0.46782437 -0.15074594 -0.44967782 -0.4642325 0.023759471 0.4134044 -0.35124952 0.29315394 -0.10072166 0.46416625 -0.08572305 0.05681903 0.072300114 0.27439007 0.3913512 -0.12147681 0.4679823 0.18302917 0.6814079 0.074989855 0.122307986 -0.05256162 -0.67086345 -0.31685385 -0.673559 0.9902743 -0.6866615 0.53118473 0.1295994 -0.58455 0.14041531 -0.10422533 -0.64655143 0.13705501 0.2750407 0.15591092 0.4442574 0.22860456 0.3239619 -0.28044844 -0.11180775 0.29051548 0.051789775 0.2379661 0.27797854 -0.0654227 -0.47412193 -0.20454781 -0.12238707 -0.060419068 0.10977557 -0.38619202 -0.10350869 0.23912808 0.043142077 0.23655684 -0.0666087 -0.04142331 -0.2007057 -0.16424543 -0.36955482
1257 -0.26260668 0.67357904 0.2108497 -0.46374062 -0.22906794 -0.37771738 0.8779611 0.12818043 0.119169764 0.24827033 0.14122935 -0.17172678 -0.080884315 -0.59168714 -0.23688816 -0.6991184 0.09391445 0.26254883 0.061304018 -0.11442558 -0.107833296 0.20973073 -0.34092554 -0.037599664 -0.4500052 -0.12965314 -0.11794873 0.40516987 0.5939095 -0.012850776 0.4704661 -0.67546546 0.29889998 -0.48227873 0.17110018 -0.20839673 0.114328705 0.6281314 0.11233395 -0.3352894 0.618457 0.15864332 -0.2854284 0.5107601 -0.026613152 0.95264024 -0.5667187 0.46525064 0.3697033 0.24556838 -0.0236608 0.49609146 -0.028597372 -0.019365165 0.1009335 0.50396633 0.14043967 -0.62291956 0.05619653 0.40424892 -0.03916357 -0.22963713 -0.5343409 0.34378505
1363 0.24290109 0.6253548 0.5193708 -0.30525395 -0.26693684 -0.64971733 -0.28815696 0.12483074 -0.19162114 0.14696154 0.49940324 -0.43434605 0.49238986 -0.51793534 -0.4659999 0.0019172922 -0.026978895 -0.3656491 -0.89901733 -0.6619392 0.1387663 0.15376717 0.22009063 0.32029334 -0.014730376 0.69476086 -0.04697825 -0.36717704 0.59456444 0.51591414 0.44672647 0.32421637 0.14601533 0.15371491 -0.06639118 0.23050652 -0.3441291 0.60039675 -0.063374266 -0.053613123 -0.0392733 0.6397659 -0.045599185 0.22929396 -0.34695926 -0.34288532 -0.117028505 -0.11143749 -0.061486453 0.11507611 0.368492 -0.04724923 0.27607566 -0.34926242 0.015822109 0.22753918 0.2379954 0.10570411 -0.0025385022 -0.009733323 -0.06655079 -0.54602426 -0.68655866 0.5670141
1765 -0.5297743 -0.21050897 -0.056432918 -0.061641824 0.27135038 -0.3871029 0.22354327 0.5338587 -0.6847006 0.5185764 -0.29206994 0.23399104 0.041907713 -0.0031080395 0.01891033 0.32005778 -0.037612032 -0.3521418 0.051702615 -0.8004761 -0.16753724 -0.2627815 -0.31091005 -0.05133386 0.038770746 -0.59162486 -0.12664251 -0.61160374 0.09065296 -0.5290026 -0.17155094 0.32657823 -0.5385263 -0.40739202 0.3726521 0.03826028 -0.081418276 0.6049612 -0.40862933 -0.17607757 0.24330257 0.7330669 -0.25173962 0.34191278 0.44079596 -0.1044541 0.26449862 -0.19405773 -0.29894093 -0.3560685 0.50431937 0.1436144 -0.23823334 0.047457688 -0.17628083 -0.09215965 0.15589853 -0.40102312 -0.34456134 -0.30048025 0.05053278 -0.6808393 0.11904931 -0.39584124
465 -0.588694 -0.24298918 -0.059693713 -0.18782502 -0.18792114 -0.06808457 0.44026265 0.18673925 -0.05581458 0.20298979 -0.06881715 -0.29445496 -0.116420954 -0.5593048 -0.19852172 0.16276342 -0.25850105 0.80331755 -0.55441815 -0.3505542 -0.10305876 -0.12414039 -0.52923113 -0.7787856 0.52079004 -0.111430615 0.73111 0.42978087 -0.17437263 -0.666036 -0.020000808 0.0019456825 -0.52738404 0.121033706 0.12979019 0.15722968 -0.30894545 0.14995202 0.4279551 0.22379792 0.13740861 0.18568657 0.13640334 -0.51634514 -0.4409334 0.20004012 0.5761443 -0.15688832 0.6155155 0.091369785 0.11148234 0.02168951 0.5799059 0.112875514 -0.2524736 0.7195483 0.14255068 -0.117286175 -0.18095288 -0.7861829 0.09995255 -0.08209226 -0.006189145 0.2490536
2001 -0.2557349 0.18857457 0.34593832 -0.09300093 -0.19740972 -0.46608126 0.40405166 0.032680247 -0.741631 0.7961733 -0.1365928 -0.026039295 -0.19638424 -0.46889955 -0.12046329 -0.15399429 -0.92664367 0.25504258 -0.6272942 0.12565432 0.030313322 -0.15978456 -0.5248213 0.20796372 0.3475862 -0.36840016 -0.077802755 0.3627943 -0.029001527 0.50176734 0.46227825 -0.24865311 0.35370535 0.6846432 0.5530466 -0.073567 -0.34653422 0.7327518 0.052860394 0.5228328 -0.20218366 0.037099194 0.1814737 -0.18312855 -0.7282917 -0.5467366 0.059080295 0.23320362 0.48811948 -0.028700905 -0.22667223 0.22569379 0.24969955 0.7671909 -0.550092 -0.40634805 0.12341454 -0.34155047 -0.20845571 -0.07864632 0.33029628 0.29495087 0.05085396 0.08335518
525 -0.08278451 -0.36886054 0.28107253 -0.17557304 -0.17882712 -0.14508902 -0.23765555 0.13344677 -0.11843014 -0.11587579 0.40156057 -0.15973182 0.125435 -0.03625946 0.048063774 -0.22750099 0.27183953 0.08256375 -0.36512256 0.4839529 -0.36052382 0.5610855 -0.19996834 0.2843026 0.5757417 -0.2989625 -0.21659547 -0.057294857 -0.03939965 -0.57431775 0.52213204 -0.23008431 -0.23249708 -0.45041203 0.08673658 -0.18860105 -0.015322425 1.2005439 0.0954902 0.55780697 0.061604265 0.25033733 -0.22094816 -0.3615117 0.39518833 -0.4412429 0.58292603 0.37900305 0.43845502 -0.04299274 0.11728371 -0.21064995 -0.2008497 -0.11693784 0.18849699 -0.10200526 0.06070784 -0.22834541 0.3754895 -0.16710912 0.3850761 -0.06810046 0.04531494 -0.3735695
454 -0.30312073 -0.084899634 0.34102497 0.26906133 -0.00991946 -0.19336551 0.15706226 -0.05370296 -0.15733388 0.29352435 -0.046901297 -0.2021253 0.64520574 0.27977782 -0.05925959 -0.71327364 0.41267508 0.2302583 -0.09802838 0.43021494 -0.10100371 0.78027046 -0.23085597 0.28630462 0.6069248 -0.34345067 0.3605061 -0.11639227 0.5324243 0.12370836 0.6349525 -0.07254194 0.06045344 -0.31112 0.43102348 -0.1674323 -0.20478505 0.50324506 0.12695673 0.38594273 0.3997724 0.21907063 0.073081434 -0.24767016 0.35209706 -0.37367454 0.628268 0.3745448 0.3080333 0.02753987 -0.2692477 -0.2587502 -0.64416164 0.09101318 -0.39511052 0.11369871 0.371564 -0.28927955 -0.25041908 0.14829366 -0.007733909 0.10366574 0.0696549 -0.34077302
973 0.090260334 0.09320654 0.24857862 -0.08251988 -0.54631156 -0.241582 0.173307 -0.42111742 -0.03413865 0.44441655 -0.26511854 0.08490206 0.1620214 0.22330688 -0.30433264 -0.5401422 0.0812952 0.17987879 0.532876 -0.2644796 -0.39774334 0.53867286 0.7312784 0.07004381 0.41967008 -0.22586909 0.52456135 -0.3929181 -0.0719156 -0.19846115 0.042973712 0.30069062 0.10357645 -0.16584682 -0.14930469 -0.8718966 0.16169053 0.496872 0.23554206 0.4769413 0.03147966 0.08183619 -0.33021662 -0.22712418 -0.39854872 -0.09755664 0.25848007 0.3595213 0.07644668 -0.6301853 -0.15780973 0.57402927 0.21584311 -0.3070786 0.04937562 0.20004497 0.24502264 -0.08786803 0.27034402 0.092483595 -0.15146443 -0.30614844 0.35921186 0.22525069
310 0.7282187 -0.29994383 0.14929472 0.34355417 -1.0150499 0.35207924 0.18428205 1.0304909 -0.07169847 0.39269963 0.10596799 0.14054017 -0.2372545 -0.3724449 -0.3189804 -0.15402058 0.18251805 -0.13038756 -0.3859695 -0.14833711 -0.0681857 0.49008042 -0.24378407 0.14372346 0.32798654 -0.9301695 -0.44865018 0.12655379 -0.27449778 0.3036996 -0.5536879 -0.21373588 0.19710663 0.38940775 -0.56796724 0.29980984 -0.08097236 -0.5083651 -0.20884259 -0.03871303 0.21528804 -0.1478174 -0.63948834 -0.10854252 0.44786665 -0.103111275 -0.10087736 0.21877928 -0.071561985 -0.24908848 -0.32862225 -0.6622623 0.1399351 0.17405058 -0.12906075 -0.027096432 1.1028265 -0.40969834 -0.13588603 0.40043768 -0.7353226 -0.29039437 -0.16076219 0.74447244
133 -0.13705611 0.21035904 0.18152674 -0.21413964 -0.18364336 0.67074627 0.072782226 -0.14219393 -0.10645351 0.6159963 -0.10235597 0.20043936 -0.67804396 -0.211046 -0.28839418 0.1979335 0.029125888 0.22663994 -0.040671933 0.25187016 0.102913946 0.29935083 0.2702844 0.12611306 -0.1605947 -0.0899361 -0.37211448 -0.21570578 0.040969208 0.11095114 0.66895187 -0.45489138 0.14875528 -0.14649996 0.33435187 -0.11571612 -0.13775192 0.030356152 0.11402883 -0.50401425 -0.3459924 0.113113105 0.11862519 -0.41355544 -0.029991481 -0.67766255 -0.29384688 0.17828354 0.1297173 0.3358968 -0.2482406 -0.31110606 -0.20020849 -0.7815301 -0.15520874 0.2068665 -0.41931003 -0.38438424 0.08825139 -0.54769576 -0.16943726 -1.221434 0.25568208 -0.305536
405 0.062352672 0.6523473 0.064949974 -0.77990085 0.14022525 0.17290035 0.23206334 -0.28769803 0.54021686 0.34503844 -0.37992364 0.23048128 -0.4985402 -0.36899003 -0.50197273 -0.20399255 -0.2156369 0.7290303 -0.62002486 -0.50457406 0.3305492 0.59776413 0.009911555 0.5200418 0.34160554 0.20570216 -0.13268703 -0.028895473 0.07733688 -0.3255801 0.6690234 0.005848227 -0.41890973 0.015773801 -0.075217284 0.46800014 -0.28998342 -0.20177929 0.3660088 0.5192037 -0.4826915 0.015473441 0.5520405 -0.3841804 0.13872845 0.008240527 -0.17263559 -0.11325196 0.090488344 -0.50516135 0.5372371 -0.15720864 0.08091556 0.32991788 -0.10436062 -0.27312672 0.23617114 -0.4936776 -0.18028861 -0.22465965 -0.07447455 -0.64645505 -0.23475409 -0.21883662
1065 0.1931013 -0.083664104 0.8868429 -0.20649816 -0.59511065 0.6077163 0.2679442 -0.5707621 0.13947012 0.35343942 0.28575915 0.3073133 0.12036511 0.69517636 -0.1052771 0.32139885 -0.23714477 0.18773742 0.0059591206 -0.27848652 -0.3607797 0.14116257 0.2669603 0.3111388 0.26048502 -0.06237477 0.2918836 -0.028315376 0.16750264 0.0006240845 0.34401813 -0.6150265 0.16703889 0.036273777 0.32904685 0.2574993 -0.40869513 0.5714186 -0.09453997 0.3386924 -0.3354657 -0.060535226 -0.11979744 0.53668356 0.108835034 0.46774212 0.38940692 0.24333292 -0.017831225 0.18938228 0.37827405 0.12513684 0.20279767 -0.20021854 0.014901596 0.66141945 0.5256954 -0.19132282 0.49882653 0.067981526 -0.34624028 -0.46753153 0.38938844 0.6662058
284 -0.03850705 -0.060917407 0.574981 0.18240322 0.08378413 -0.34555405 0.29657364 0.6946259 0.37391317 -0.23991297 -0.20989823 0.32277793 0.4884417 -0.25858754 -0.46243423 -0.11231898 0.18024427 -0.41968715 0.22968967 0.071923554 0.44290736 0.7990426 -0.34986472 0.06707662 -0.13625388 -0.87144643 -0.08091386 0.21716033 0.3701311 -0.39621505 0.77413034 0.100934654 -0.35184327 0.28921536 -0.10537565 -0.20313391 -0.5641461 -0.14005505 0.15728459 0.015353228 0.27467233 -0.0727571 0.21247712 0.03090279 -0.030833395 -0.440284 -0.027329246 0.5524162 -1.1083239 0.6266796 0.1086913 -0.39007086 0.12484906 0.15230718 -0.04100934 0.025246985 0.05966099 0.06521083 0.768371 -0.13274492 0.023912415 -0.27801228 0.37784657 -0.42485058
1103 0.089187264 -0.39803258 0.027141994 0.4115201 -0.4770007 -0.2083414 0.18801998 -0.23290998 -0.5668933 -0.26488784 0.049358927 -0.46871266 -0.21565881 -1.0807058 0.47868168 -0.47632483 -0.14838894 0.2341637 0.62252015 -0.5618602 0.46065652 -0.19610514 -0.093727276 -0.060466565 0.09335524 -0.17316036 -0.0016983225 -0.19633323 0.5547592 -0.6341103 0.23112501 -0.2607623 -0.51638734 -0.16099927 -0.047918368 -0.4423898 -0.027659014 0.23284756 0.03945018 0.5049895 0.26293075 -0.1590784 0.15085159 0.5024054 0.19587523 0.33156428 -0.31856486 0.087541535 -0.1663825 -0.50798905 0.71039104 -0.5010295 0.11570052 -0.2294649 0.3729175 0.049110327 0.51669574 -0.34930694 -0.07569108 -0.07993557 0.0016397677 -0.6440557 -0.00039171762 0.3319423
1824 0.28720748 -0.27032843 -0.09494822 0.534407 -0.073622115 -0.5725952 -0.04797581 0.3298533 0.0013957757 0.5545735 0.5377211 0.0199108 -0.40318793 0.44219485 0.22892475 0.061965376 0.07532027 -0.41347083 -0.05670114 -0.38954064 0.41622427 -0.14570138 0.29705405 -0.40562326 0.5993404 -0.6863689 0.030573945 -0.64189994 0.39807263 -0.65443456 0.42144156 -0.20684776 -0.524098 0.37601927 0.24692965 -0.51734024 -0.35942826 0.805185 -0.2636699 -0.13585302 0.14440912 0.06818095 0.15016468 0.01589857 -0.16407654 0.49235842 0.38048622 0.26229167 -0.4500782 -0.37055194 -0.1619963 0.51051503 -0.2992192 0.18518592 -0.0014320379 -0.66840625 0.40412787 -0.3438703 0.22067995 -0.13002743 0.2634891 -0.4394708 -0.1531612 -0.17401123
268 0.26799107 -0.97266 -0.20840304 -0.3365824 -0.7108615 0.30825558 0.22400674 0.26555556 0.36736056 0.43507046 -0.06755778 0.6779465 0.35210267 -0.2753155 0.08450509 -0.35705966 0.13762216 0.039896652 0.15835111 -0.33163825 -0.48422804 -0.030814487 -0.24677968 -0.35285884 0.09134311 -0.19115739 0.55155057 -0.21749175 -0.015189233 0.055829793 0.2776489 -0.50159174 -0.8647823 -0.08452009 0.31322607 0.24667881 0.06153877 0.61331224 0.34196037 -0.30811152 -0.40001947 -0.35270932 0.0330487 -0.15751848 -0.14097324 -0.26047453 -0.21159518 0.72483945 -0.015195727 -0.34604353 -0.09390871 0.6753484 0.2176406 0.21898246 -0.07407709 -0.345471 -0.27172962 0.275404 0.18780287 -0.4543633 0.0197809 -0.43595895 0.21736823 -0.29708526
2155 -0.12935443 -0.2708285 -0.2454724 -0.86644864 -0.32212195 -0.81219864 -0.67656076 0.011464556 0.16479456 0.47362775 -0.39093003 -0.3127501 0.123774506 -0.4727013 -0.011773695 -0.17122553 -0.16116114 0.27065322 0.1443823 -0.29680717 0.39397174 0.7969513 0.024518616 -0.13731812 0.09919947 -0.071034886 -0.24906957 0.10728823 0.2200469 0.046279337 -0.1593642 -0.09425425 0.5908729 0.55788296 -0.10316918 -0.32130355 -0.30308402 0.2113054 0.28508615 0.45121408 -0.22169448 0.3126843 -0.31459382 0.5975942 0.6619223 -0.42974797 -0.009001505 0.35640135 0.39818326 -0.25953746 -0.27707118 0.11494 -0.25097844 -0.1936015 -0.20987338 0.6956765 0.3015159 0.33501652 0.053277 0.41371325 0.16516991 -0.7538342 0.25599048 0.28666815
1368 -0.2898224 0.48847103 -0.13209644 -0.3261264 -0.16246307 -0.24253169 0.6977041 0.2841463 0.6030169 0.041129913 0.4580027 0.071055606 0.025234599 -0.5795985 0.041205835 0.08178778 0.38371387 -0.3745691 0.06377769 -0.31252405 0.15069465 0.4264785 -0.12366866 -0.24724185 -0.8204285 -0.29029748 -0.010900902 0.5213854 0.26919574 -0.24484652 0.4816479 -1.2870905 0.57805365 -0.3849795 0.42387575 -0.020057987 0.36350107 0.45566216 0.3004517 -0.273398 0.27236637 -0.04175912 -0.16025697 0.22427925 0.36933735 0.4667008 -0.13341291 0.48452255 0.046561114 0.039737772 -0.2146404 0.69839436 0.363005 -0.13092804 -0.29526052 0.59285825 0.19813839 -0.49897152 0.101623535 0.44390374 0.07348817 -0.19204077 -0.32482305 -0.39971253
1416 -0.09410223 -0.53271544 0.63594574 0.06056436 0.049681462 -0.4815714 0.19572957 -0.006653529 0.46264848 0.17289597 -0.32241276 0.0166978 0.10833118 -0.05487819 -0.51383346 -0.5768874 0.08681513 0.8596047 0.15002826 -0.4273277 0.2146239 0.03319417 -0.50390357 -0.14088796 0.1913517 0.2809517 -0.22927582 0.00475278 0.16057597 -0.25602704 0.24107124 -0.17149217 -0.14884342 0.6266098 0.032936886 -0.19756962 -0.20216392 -0.55832046 -0.2106302 -0.48913333 -0.72891283 0.05068477 -1.08978 0.4047056 0.24310313 -0.8352622 -0.051796794 0.0972766 0.59689903 -0.21274783 0.24776049 0.032499164 0.13747746 -0.2968854 -0.033239096 -0.009804908 0.3460703 -0.34237602 -0.43378663 0.010334863 0.13752708 0.021657202 -0.120754145 -0.30533442
429 0.04840727 -0.49003193 0.35656822 -0.45301753 -0.19309902 -0.23769328 0.66513693 -0.08680048 -0.1958487 -0.34362128 0.07267205 -0.4021884 -0.014292311 -0.5383239 -0.2386431 -0.2438746 -0.07841967 0.089107454 -0.75172937 -0.09150486 0.28805676 -0.74157965 -0.100121826 0.04158635 -0.351769 -0.11506606 0.5572637 0.047169525 0.23085272 0.24381985 0.20587869 0.27635586 0.22756098 0.838358 0.029825658 -0.33873713 0.1900979 0.5884679 0.5037111 0.17363217 -0.405352 -0.050051548 0.64436 0.30696425 -0.06995838 -0.4672228 0.076760106 0.14432064 -0.31207475 0.42058885 0.094680324 0.7815945 -0.05111288 0.3183951 -0.105048455 0.22143151 0.17164387 -0.46289942 -0.32061154 0.7295143 0.10949069 -0.77125555 0.044906233 -0.05300511
55 -0.035909202 0.3743943 -0.16974092 0.44515806 -0.48022345 -0.068326175 0.06558923 0.29168898 -0.036331724 -0.08329662 -0.59163624 0.026129583 0.24383298 -0.14773627 -0.65121084 -0.18203714 -0.15593286 -0.36892185 -0.434643 -0.3638746 0.52201056 0.53058004 -0.29025865 0.76551354 0.36432356 0.27247146 -0.5036657 -0.12061841 0.22095375 -0.63470745 0.29483154 0.075069204 -0.26615992 -0.24026285 0.13453694 -0.59026176 0.4155482 -0.0041929167 -0.14251119 0.42161644 -0.15994078 -0.10269766 -0.5018212 -0.32465827 -0.13157836 -0.26148283 0.55385965 0.66215324 -0.5183722 0.3729042 -0.008183472 0.10156511 1.0064769 -0.20456384 0.36410367 0.00393941 -0.33651683 -0.106305785 -0.57690895 -0.41695607 -0.28920308 -0.39668772 0.23073283 -0.046241917
1781 -0.4052372 -0.34306055 0.5270571 0.27987546 -0.5729034 0.38772163 0.28878376 0.11609277 0.1316548 -0.40311396 -0.15751599 -0.58702564 -0.26874426 0.19585082 -0.028435055 -0.26317775 0.07130691 -0.54406613 0.1448969 -0.48191494 -0.5451439 0.31336594 0.8187158 0.058929276 0.28428096 -0.18308498 -0.44632828 -0.26076642 -0.21351083 -0.13557786 0.54398304 0.08558441 0.098336205 -0.06940723 -0.22972675 -0.10786489 -0.43682206 0.2702779 0.07202753 -0.3607734 -0.3368103 0.4381849 0.43398395 -0.38691297 0.20102334 -0.24629901 -2.3294611e-05 0.46546978 -0.25572667 -0.016051114 -0.048326027 0.53595895 -0.114995815 0.4658326 -0.17549302 -0.21722433 0.100614466 -0.7059748 0.35279134 -0.7183917 -0.061091416 -0.0827295 0.4953958 0.29705727
1973 -0.108490996 -0.09787186 -0.28799868 -0.06747162 -0.33604664 -0.34088737 0.26325613 -0.45838675 0.39277944 0.38340262 -0.064283006 -0.34835163 0.2978741 0.017574841 -0.32790282 -0.05852209 -0.3908944 0.16944958 -0.5714639 -0.43974918 -0.28752 0.52933824 0.09856578 0.46537933 -0.2803463 -0.31886062 0.17780584 -0.123009235 0.23644096 -0.31986466 -0.068609394 -0.5884536 0.68753916 -0.09211243 0.3287065 0.2902722 -0.7901168 0.123677276 0.47684744 0.312257 0.16414236 -0.040635344 -0.21238586 -0.03193031 0.33712342 0.23805423 -0.49099764 -0.31162107 -0.053443264 -0.22916625 -0.20205645 0.47149038 0.6977519 0.19484086 -0.1596201 -0.79857576 -0.43877846 0.49966323 -0.49632806 -0.16804011 0.44875172 -1.0604583 0.37350023 0.19195165
1894 0.51944923 0.098247886 -0.0060414504 0.19113383 -0.033132486 -0.036986202 0.013569235 -0.040338323 -0.07843858 0.16499512 0.22096302 -0.554877 0.0010923495 -0.4975273 -0.7919897 0.32126644 0.30816066 0.17857626 0.21430318 -0.18854427 0.26225704 -0.44905573 -0.7261511 0.13714187 0.11041275 -0.39551982 -0.26527345 -0.77567255 0.07789736 -0.16556017 0.010126288 0.040472914 0.3774242 0.100402236 -0.089829855 -0.29118592 0.15729961 -0.009762222 -0.003338121 -0.06810786 0.36995366 0.33402187 0.23875538 0.17764872 0.8890366 -0.022399127 0.1041071 0.5307025 -0.18999617 -0.40586206 -0.3078974 0.34521192 0.1741186 0.6523468 -0.075014874 0.93617284 -0.122836895 -0.5195495 0.56582433 -0.99784166 -0.22337508 -0.48320138 -0.12801881 -0.091763444
330 -0.26596183 -0.37893692 -0.18197937 -0.31148833 -0.57829344 -0.71342367 -0.49026963 0.062598124 -0.21327884 0.2973011 -0.49356472 -0.23063204 0.3834192 -0.8316652 -0.3970182 0.21735887 -0.68784255 -0.08968223 -0.004025437 -0.20874128 0.27275807 0.23846456 0.0130618205 -0.044296987 0.046332505 -0.112344794 -0.019313617 0.18836682 0.12956361 0.03639805 -0.035861164 -0.5187599 0.49711367 0.22087027 -0.13637331 -0.23447512 -0.48587516 0.167609 0.15263425 0.67105395 -0.40314507 0.039271314 -0.08863114 0.6089644 0.54650277 -0.3159469 -0.30602774 0.12064894 0.119688764 -0.44243872 -0.36532182 -0.025919273 -0.42256942 -0.20476185 -0.28541666 0.5359476 0.44936493 0.03787261 0.30938894 0.28242347 0.2955655 -0.6487234 0.21571963 -0.06864207
2248 -0.4114488 0.0580051 0.5560851 0.0064305845 -0.026542772 -0.12987714 0.40631422 -0.16386792 0.50201106 0.02515955 -0.00377622 -0.6474939 -0.46566367 -0.059269644 -0.22162193 -0.1631258 0.40278384 -0.41213638 0.09177724 -0.07338027 -0.021392317 0.77382326 -0.62947184 -0.10912918 -0.23741697 -0.06814409 -0.14821404 0.48029518 0.21650869 -0.2637295 0.5831095 -1.1029401 0.3583855 -0.33241013 -0.013138733 -0.4983937 0.5747485 0.7815314 0.29513 0.14914636 0.29227242 -0.06612102 -0.13597965 0.35499096 0.31159714 0.4343371 0.08117937 0.3728792 0.3528586 0.3072059 -0.39685875 0.2536085 0.043867826 -0.06297107 -0.35619688 0.4641191 0.51487136 -0.4769703 -0.11017761 -0.030672228 0.40791312 0.06608549 -0.4743509 -0.24042162
234 -0.018761728 -0.2291453 0.40437737 0.24212748 -0.33447507 -0.18742648 0.23619568 0.32093027 0.22310121 -0.35365534 0.24375954 -0.047928166 -0.41240403 -1.1038414 0.11609836 -0.6706339 -0.028805837 -0.03802462 0.07752801 -0.9406984 0.44204757 -0.39142942 -0.0074738055 -0.21035068 -0.34917504 0.08232402 -0.07507825 -0.49549028 0.6140099 -0.55462897 0.37754494 -0.1263466 -0.2540466 -0.26976326 -0.008563786 -0.028672561 -0.10811757 -0.013531127 0.111472316 0.475201 0.1455301 -0.16797934 0.027742382 0.3631265 0.23332494 0.30680472 -0.22805588 0.24234806 -0.35600552 -0.91107094 0.258868 -0.59045196 0.034729034 -0.26375693 -0.11136613 -0.1817019 0.08431174 -0.35592484 -0.29048568 -0.33663258 0.3095431 -0.3627597 -0.442207 -0.071750805
577 -0.58490384 -0.16422103 -0.22874469 -0.18768653 -0.80527043 -0.42489222 0.15026824 0.26863363 -0.13538994 0.3553414 -0.07253535 0.17800462 -0.074758284 0.0072817146 0.015534726 -0.24453047 0.15915267 -0.1354585 -0.06298313 -0.104894064 0.34692693 0.35660887 0.10126148 -0.35865802 0.34047422 -0.3406435 -0.14746016 -0.61654127 0.73957235 -0.32425416 -0.070272945 0.45907328 0.5241658 0.3257453 0.7673521 0.47442737 -0.85316604 0.29939455 -0.12011103 0.14525665 -0.13484931 0.11697078 -0.16383772 0.27021658 -0.4484803 0.2901224 0.23821713 0.45199636 -0.26358008 -0.10526253 0.23841393 -0.14185762 -0.0938832 -0.23884688 -0.17144422 0.17382874 0.3432094 0.6615157 -0.47618625 -0.54688007 -0.90889907 0.11101256 0.062984236 -0.19404088
1040 -0.43633837 -0.42581737 0.40462935 0.021650879 0.5653143 -0.1863846 0.1340396 0.15086497 -0.17383417 0.67148536 0.1617574 0.08197752 0.15377681 0.2745426 0.08404768 0.08558504 -0.11797665 -0.44381598 0.10790058 -0.51284844 0.07279583 -0.3396698 -0.1086947 -0.29541734 -0.101988964 -0.5346504 0.04001844 -0.48881093 0.117427595 -0.2266314 0.010378967 -0.09160866 -0.71118486 0.106484614 0.38938814 0.38837194 -0.32895398 0.6903063 -0.5727189 -0.31978238 0.09983913 0.75193673 0.3479685 0.44948897 0.074437976 0.22596979 0.2959437 0.0017251556 -0.3219069 -0.21172607 0.32507193 0.36659873 -0.09748154 -0.07900893 -0.39516023 -0.40851516 0.08754429 -0.430824 -0.4479816 -0.2190457 0.27289996 -0.99403393 -0.43133432 0.0042255903
833 0.1592484 0.2099004 -0.53729355 0.31523985 -0.33678737 0.15175651 -0.08686922 0.004067439 0.065592304 0.20846741 -0.5841511 -0.7827699 0.31739846 -0.13124883 -0.082768545 -0.3797721 0.09727359 0.59514976 -0.3117118 -0.45111853 -0.752678 0.16048096 -0.27585125 -0.7501548 0.72388095 -0.23686813 0.29807922 0.55947024 0.018804377 -0.06752878 0.1765817 -0.20967223 -0.043037757 0.26096714 0.17170243 -0.008485804 0.48590428 0.43055436 -0.06853624 -0.035803583 0.24758367 0.55478823 0.5707861 -0.14190128 -0.04965898 -0.6514548 0.593358 -0.19820257 0.18188064 -0.25739712 -0.2861414 0.17398927 0.2702451 -0.38715252 0.14426866 -0.25820982 0.7602124 -0.14572331 0.24283798 -0.65807235 -1.0334321 -0.6300587 -0.07108628 0.096438676
687 0.056952834 -0.47215053 -0.17370377 -0.14899834 -0.22890344 -0.65269226 0.24931167 0.67810124 -0.03536525 -0.2476466 0.27723345 0.6672594 0.14651896 -0.6715909 0.014353071 0.001313418 -0.35499257 -0.006364887 -0.11151155 -0.054533575 -0.40963668 0.37915036 -0.19326153 -0.8146302 0.39360282 -0.042233225 0.45928755 -0.29126835 -0.17394163 0.24836098 0.17386788 0.23800173 -0.11248503 -0.2983343 0.38219497 0.09740558 -0.15463091 0.08227175 -0.21677849 0.07221081 -0.3198762 -0.21250303 -0.09703569 0.16503407 -0.17579263 -0.17352657 -0.11155312 0.3894832 -0.19004388 0.0891342 -0.52179974 0.38036305 -0.121133626 0.46879494 0.0654509 0.02250659 0.1996278 -0.021150725 -0.3418434 -0.2971925 0.23733875 -1.0435292 -0.41605568 -0.010083422
166 -0.62104744 -0.5951348 0.31092256 -0.45322967 -0.31963667 -0.24712119 0.10316336 -0.11793989 -0.3895892 0.18824606 0.2370002 -0.3228577 -0.06211975 -0.46572223 -0.16706334 -0.064957194 -0.026394704 0.5031619 -0.42395985 0.10316728 0.08655661 -0.80215985 -0.19620524 -0.1117079 -0.45507532 -0.06684457 -0.09874056 0.2609025 -0.25275484 0.10540795 0.40942633 -0.28297025 -0.07808161 0.77652794 -0.045865368 -0.4539543 0.016983094 0.62259275 0.2425784 0.76523566 -0.62700063 0.14136073 0.8080803 -0.10727025 -0.17199177 -0.5837444 0.23086001 0.45207682 -0.1318972 0.50174534 0.25983062 0.1499838 0.3170305 0.2765779 0.013011389 0.43730056 0.20499845 -0.11433088 -0.70370436 0.33332536 -0.41151595 -0.30190235 -0.090846635 -0.1975625
556 -0.25653133 -0.008501587 0.36466223 -0.031191556 -0.87157553 0.06662041 0.25918964 0.33874005 0.023245431 0.4456788 -0.34223783 -0.06815462 -0.07459363 0.1803868 -0.43390104 -0.85092616 -0.14251286 0.16213796 0.3099213 -0.24516165 -0.20445824 0.87370527 0.47107446 -0.08399485 0.24703601 0.060160913 0.45284995 -0.169146 -0.009008524 0.114518695 0.07044252 -0.12623693 0.099723816 -0.09423765 0.088749416 -0.13265431 -0.38927567 -0.019409295 0.52841187 0.651743 -0.004967017 0.2113037 0.212725 0.015561798 -0.42546162 -0.5216011 0.7976002 0.69425446 0.17362717 -0.34888396 -0.15014143 0.42762905 0.19880612 -0.61011916 -0.22056915 0.31965947 -0.23217013 0.072295345 0.24741122 0.24167168 -0.038137414 0.00036555668 -0.014048012 0.20522629
2394 -0.0029071788 1.0004123 -0.14102711 -0.50227994 0.23952983 0.16665319 0.20860526 0.39825168 0.64545816 -0.06264028 -0.011162956 -0.06349973 -0.77430415 -0.4942042 -0.29732814 -0.17084363 -0.20193979 0.6030231 -0.5680437 -0.35200503 0.21522014 0.28690735 -0.01650356 0.35288194 0.26659286 -0.14098178 0.1844244 0.17398182 0.35873047 -0.3940709 -0.06852342 -0.23547077 -0.32670593 0.20151426 -0.15119962 -0.07826109 -0.20969504 0.261783 0.5345909 0.23990124 -0.57671 0.26354286 0.9380047 -0.08899458 0.18297495 0.40540606 0.19846721 -0.12311412 -0.053712804 -0.32896075 0.33140215 -0.34753507 0.40598187 0.018952379 -0.19346467 0.01624094 0.21878766 -0.32515374 -0.22486264 -0.5076908 -0.36780006 -0.82163864 -0.17133558 -0.046704095
1628 -0.010442919 0.024521688 0.26401207 0.6595598 0.037914447 -0.47746187 -0.08149043 0.22865853 0.34318176 -0.051476553 0.019881506 -0.47998998 0.24213865 -0.21824835 -0.36354527 -0.40829274 0.6364351 -0.029731926 -0.5885198 0.45914713 0.19301254 0.80374354 -0.055179194 0.05051331 0.56179 -0.68775034 -0.11283142 0.10943822 0.0652601 -0.32558352 0.808684 -0.60588783 -0.51907367 -0.19722445 0.44330207 -0.12647629 0.2640568 0.30261838 0.20636445 0.48509067 0.17560093 0.11639311 -0.6376905 -0.26391014 -0.2568741 -0.11685842 0.4385247 0.19834904 0.45035774 0.19171242 0.13019767 -0.074366964 -0.34052986 -0.100791104 -0.3081188 0.26100975 0.33912492 -0.17537409 0.19464462 -0.09918161 0.35534114 -0.08124204 -0.24464205 -0.19479316
456 -0.41564718 -0.52601546 0.24339382 -0.37186208 -0.40098327 -0.10428834 -0.2730924 -0.07688825 0.22890216 0.07136823 0.21037665 -0.04911618 0.33699152 -0.12607871 -0.13529602 -0.19532499 0.27960625 0.40854535 -0.7602492 0.58873194 0.45476332 0.69323224 -0.37430134 0.13078251 0.20017755 -0.41389382 0.045957677 -0.6979272 -0.35742417 0.0025221843 0.5236309 -0.29881084 -0.07949208 -0.37641057 0.046875417 0.1670789 0.209128 0.7909281 -0.03787965 0.16320701 0.48231387 0.4873889 -0.6667206 0.597253 0.018882087 -0.2435025 0.34669563 0.3132885 0.13121745 0.075248376 0.181033 -0.012835972 -0.35377535 -0.10420763 -0.145343 -0.06517156 -0.11415252 -0.3033149 0.2222504 -0.3422223 0.13285178 -0.050730947 0.17770776 -0.48478258
33 0.08225928 -0.22694047 0.991941 0.48717815 0.78269535 0.593343 0.28990862 -0.6079994 0.5631886 -0.033016387 -0.0795233 0.06255069 -0.0868263 -0.6756599 -0.25518727 0.044393737 0.03721177 0.108001485 -0.14172164 0.038046848 0.13488734 -0.09038887 -0.28116935 0.52002233 0.78531325 0.053490978 0.16661657 -0.0053228615 0.2599613 -0.20844574 0.22954036 -0.0031333503 -0.15120766 0.43533182 0.08876652 0.031979766 -0.37725306 0.6372532 -0.62178135 0.3991888 -0.19603696 -0.24346386 -0.6502799 -0.04830453 0.15775469 -0.47403413 -0.34276643 0.13426962 0.05123062 0.5201453 0.27812266 0.17855935 0.06261804 1.0297602 0.1069451 -0.09586295 0.4245342 -0.12694007 0.13169828 0.08653141 -0.37601203 -0.7307549 0.16901027 -0.40427428
1128 0.61620367 0.08559853 0.43874645 -0.6199863 -0.6274096 0.48247972 0.47987175 0.8631968 -0.22062634 0.04975262 0.0659819 -0.01741311 -0.0022796341 -0.4642835 -0.6661363 -0.48648226 0.25107044 -0.17208757 0.1459747 -0.19343376 -0.2957014 -0.01200542 -0.3758389 0.42920148 0.8165099 -1.0268766 -0.39299324 -0.28776926 -0.09307461 0.24964865 -0.33103085 -0.20778549 -0.0519319 -0.38158968 -0.38599035 0.026982479 -0.08325446 -0.30769753 0.27504426 -0.28431264 0.5895824 -0.48972434 -0.35979283 0.1413797 0.5242685 -0.15463409 -0.119040556 0.15931547 -0.58715457 0.010932928 0.17450488 -0.15737747 -0.12070935 0.59657884 0.019169105 0.4179916 1.0076401 -0.22538117 -0.11243565 -0.021835104 -0.11173357 -0.047308404 -0.089412786 0.51580703
1966 0.31786096 0.030809388 0.25935787 -0.37129563 -0.72745925 -0.37793493 0.06696674 -0.20395122 0.66219646 -0.11510129 0.3842599 -0.53572166 -0.66618323 -0.19754046 -0.26776394 -0.27881536 -0.5075728 -0.12120326 -0.2664436 0.18275857 0.085483745 -0.09450689 -0.5336999 0.48056784 0.39195767 -0.33855408 0.5637953 -0.20370269 0.25815052 -0.28202575 -0.5265495 -0.1579293 -0.058481008 0.30104253 -0.4785479 -0.25963068 0.21590249 0.23055668 0.099633984 -0.3607886 0.4561214 0.89114016 -0.17502418 -0.5019779 0.4181229 -0.084406346 -0.08612947 0.23264593 -0.2053074 0.6144882 -0.11923083 0.70923764 -0.06823055 -0.44085884 -0.526134 -0.006533386 -0.18567476 -0.09149776 -0.04052626 0.1957361 0.26722497 -0.9009008 -0.16875869 -0.44997653
288 -0.017208625 -0.2590717 0.33356297 0.5979201 -0.1415801 -0.114392936 -0.12042007 0.050243426 -0.39883286 -0.24501477 -0.024107562 -0.120566085 0.5444852 -0.24890763 -0.4382698 -0.495017 0.723647 0.09372555 -0.6860894 0.6765071 0.01849107 0.88732225 -0.44516212 0.38074 0.30833536 -0.63484025 0.123434246 0.15524404 0.3258401 0.13240921 0.51384926 -0.47866446 -0.1528562 -0.10952822 0.35684422 -0.1865147 0.22155619 0.45052963 -0.094887406 0.6829522 -0.23721099 0.21575692 -0.40512332 -0.5262752 0.5226555 -0.28778818 0.3929031 0.17482293 0.52117974 0.22890046 0.12625162 0.022982195 0.051962886 0.18520439 -0.1176493 -0.038954653 0.4528065 -0.20699789 0.47894493 -0.29979652 0.111380816 -0.04415583 -0.26424855 -0.3763249
567 -0.28085282 0.23680143 0.054630164 -0.09461021 -0.33893192 -0.5434934 0.607326 -0.021988682 -0.2377415 0.47811848 0.075896345 0.09687689 0.8597251 0.30046377 -0.3436433 -0.60434985 0.35730055 0.084829964 0.66348 0.15500219 -0.44821614 0.44169214 -0.019409839 0.08191792 0.8524255 -0.72757393 0.83452296 -0.5463807 0.22075787 0.41332066 0.15037847 0.3242685 -0.06749176 0.29391548 0.25870892 -0.5602754 -0.19173886 0.20698816 -0.04042692 -0.1269545 0.20251738 0.07436015 0.15197553 0.0592409 0.46258155 -0.20780943 0.068090595 -0.0022294538 -0.095039435 -0.43305713 0.110861756 -0.088273406 -0.04603827 0.15328372 -0.44596526 0.61437607 0.029000644 -0.29192346 -0.20891373 -0.39079344 0.28998214 -0.27655014 0.07935805 -0.16214551
1309 -0.39597207 0.120626904 0.6006982 -0.74782884 0.14561662 -0.47908816 0.21174864 0.5012057 0.2896712 0.14790657 0.54198074 0.16619255 -0.47851282 -0.06715426 0.089469835 -0.3872502 0.7345996 0.32075268 -0.51340955 -0.38524956 -0.35161278 -0.07204323 -0.1705481 0.054332804 0.22419174 -0.3558673 -0.37729025 -0.18254517 -0.24467216 -0.36633816 -0.10153233 -0.06623959 0.483421 0.5609492 0.27285168 -0.13605228 -0.21071419 0.14959049 0.33887136 0.24239418 0.10568467 -0.052157123 -0.42466286 -0.21439627 -0.2556694 0.5694632 -0.17486787 -0.073427126 0.10525838 -0.40641496 0.040567175 0.20951495 0.809039 -0.90085906 0.1439426 -0.07613994 0.1983305 0.3078499 -0.063551754 -0.5261188 -0.09744321 -0.33248624 -0.4039622 0.29161596
273 -0.20711924 0.40164143 0.7982091 -0.6702736 0.100096285 -0.16229878 0.014261363 0.11506144 0.12768571 0.85903883 0.1345256 0.1675589 -0.12417341 0.010421557 -0.13241199 -0.7637774 0.2615473 0.40704063 -0.78813034 -0.111937 -0.35626432 0.101782955 -0.1440141 -0.10265281 0.3935796 0.14730868 -0.45837477 0.117743105 -0.20100453 -0.92153984 -0.08827274 -0.009616742 -0.0431444 0.3816268 0.08055974 -0.08251744 -0.25299102 0.4938195 0.04152412 -0.16312799 0.29697344 -0.13817747 -0.15374771 -0.11655243 -0.43257514 0.37581635 -0.030391738 -0.11244293 0.32686535 -0.68839514 -0.12136489 -0.021192305 0.3438104 -0.70598024 -0.21560024 -0.047038235 -0.17499219 -0.056894325 -0.34711698 -0.033337157 -0.2587363 -0.49842554 -0.21676572 0.4122715
1927 0.13349134 -0.02523137 0.14883353 -0.3372672 -0.4578985 -0.3321322 0.05596167 0.077216685 0.5167388 0.6097478 -0.32846132 -0.08885534 0.016995266 -0.37246248 -0.42024505 0.15816306 -0.052745998 0.5651398 0.20901284 -0.7056033 0.52257514 0.45693427 -0.090800285 -0.06937363 0.28629377 0.22850785 -0.27011806 0.059854392 -0.2539989 0.18134977 0.6090795 -0.114289336 -0.31791928 0.026926974 0.3332128 0.29841772 -0.58102345 -0.3987272 -0.29993108 0.5600366 0.11236772 -0.9198173 0.27994153 -0.17451106 0.20928241 -0.65112406 -0.49073458 0.20540132 0.35937628 0.29831612 -0.17606765 0.023766292 0.29300058 -0.20969196 -0.050935175 0.004016887 0.2603745 -0.39141545 -0.2215248 0.02817683 0.0625992 -0.15772527 -0.6123799 -0.58265305
1950 0.6025869 0.09362173 0.31341612 0.050375372 -0.69450337 0.48345366 0.024541995 0.7983807 -0.25886023 0.40402716 0.037322316 -0.23717353 0.2318825 -0.05194364 -1.2437829 -0.22834805 0.404236 0.18012819 -0.27218252 -0.4182853 -0.62471014 0.21418633 -0.4920435 0.24640103 0.47654465 -1.2642665 -0.23741864 -0.20250711 -0.14570706 0.010752635 -0.35206836 -0.19443376 0.02843731 -0.22325648 -0.39483532 0.2533042 0.17281191 -0.2639501 0.15007757 -0.15416132 0.06884876 0.0912073 -0.20312871 0.110163115 0.15614237 -0.076951385 -0.27533257 0.29666087 -0.15707706 -0.4406982 0.12863079 -0.5854001 -0.26502773 -0.08632085 -0.27955905 0.22363731 0.9775782 -0.5292505 0.028309839 0.16382241 -0.38340345 0.04894785 -0.4290843 0.74379504
59 0.2519599 -0.26466116 0.11094188 -0.23639147 -0.34739447 0.14623223 -0.39906195 0.15286724 0.15940876 0.43328553 -0.27066344 0.47421417 0.8469327 0.0022582894 0.14442049 -0.28051662 -0.21632217 -0.12488104 0.20688108 -0.41650403 -0.19980444 0.42560247 0.12150843 -0.24203752 -0.036792003 -0.51234496 -0.23703215 -0.53244156 -0.15327382 0.12490436 0.5897181 -0.633014 -0.5070537 0.25163695 0.18666835 0.11066529 0.070518345 0.06828027 -0.45851368 -0.09424796 -0.18625505 -0.36433628 0.3221455 -0.5117748 -0.2578709 0.19467512 -0.25299543 0.6331452 -0.41148084 -0.7601281 -0.08495941 0.5416096 -0.049834464 0.32553098 -0.53541464 0.80240715 0.14065185 0.034278903 0.09767159 -0.34103256 0.32245487 -0.3657775 0.17679875 -0.0015547185
704 -0.247593 -0.22543627 -0.2896742 0.15224884 -0.057043105 0.21491623 0.336278 0.15449941 -0.1734181 0.36988467 0.35406065 -0.57451797 0.17885952 0.3434801 0.19583422 0.20723166 -0.32118845 0.29089057 -0.5873847 -0.46211538 0.09999017 0.15404443 -0.21309072 0.12470389 -0.098639786 0.17216791 -0.37559658 -0.12012165 0.39991766 -0.30300727 0.423171 -0.18187703 0.41644308 -0.13217299 -0.49746576 -0.28370276 0.29161617 0.1858912 -0.28204453 0.06154469 -0.021114618 -0.33769956 0.32228315 -0.3418399 -0.28685242 0.06940819 0.35222876 1.1874452 -0.5582812 -0.77534646 0.12173025 0.2685637 0.18062857 -0.17427047 0.54112595 0.40288848 -0.25653237 -0.38362008 -0.5941654 0.09036821 0.55797744 -0.50376314 0.4933491 -0.30613133
666 0.31495452 0.17146926 0.30116066 -0.31876534 -0.71652794 -0.27387112 0.25251302 -0.99529755 0.5943852 0.53582495 -0.69765943 0.0022854877 0.098839045 -0.08063767 -0.258446 0.17024782 -0.028400332 0.31318998 -0.25489995 -0.6405788 0.4951754 0.1872375 0.086923204 0.24778977 -0.09923924 0.3198911 -0.26209196 -0.23087585 -0.10043597 -0.35724196 0.7808749 -0.23033115 -0.13991347 0.12655917 0.49879822 0.16007876 -0.7973102 -0.057393085 0.05867959 0.23422521 0.011133073 -0.70309 0.37674254 -0.31499556 0.3159731 -0.43024614 -0.06780477 0.33564726 0.525395 0.036434773 -0.08784715 -0.05437198 -0.6205264 -0.3783967 -0.21912391 -0.09496973 0.040070202 -0.022923699 -0.55401886 0.07222332 0.08055596 -0.60305744 -0.27446347 -0.40569082
350 0.2197839 -0.4878554 0.35001275 -0.20113954 -0.788253 0.42985272 0.34121448 -0.28224987 -0.045736223 0.3183033 -0.2954054 0.15975836 -0.11117878 0.3874476 -0.12907375 -0.09997796 -0.16782564 0.6372262 0.18126109 -0.55763966 0.31822857 0.19981603 0.101460375 0.0442281 0.30360875 -0.41799605 -0.08499252 -0.21723829 0.108900525 0.07092667 0.5529957 -0.22971451 0.1137085 0.11960852 0.3971527 0.11624799 -0.20753731 0.26523256 -0.3358215 0.14475389 -0.21043319 0.1341034 -0.10142 0.28735498 0.41586867 0.18581529 0.24618067 0.12537232 0.1894634 0.36814532 0.41485032 -0.27176523 0.20747632 -0.42197067 0.25111514 0.8645467 -0.052361127 0.17742004 0.81048536 0.30667245 -0.4321236 -0.29820687 0.17826281 0.19966301
1624 0.21146119 0.112867124 0.24836452 -0.4031905 -0.55095035 -0.041684963 -0.102412716 0.37201115 -0.473986 -0.04015478 0.17476575 0.31952214 -0.13966635 -0.2688058 0.32019514 0.13319945 -0.02370753 0.62041056 0.35052723 0.18039407 -0.3905086 0.14167045 -0.08893056 0.03961597 0.37370872 -0.18095395 -0.50190747 -0.07701739 -0.39057952 -0.6178292 0.21930526 -0.43680707 -0.10392071 -0.12440217 0.29650468 0.2603196 -1.1905866 0.51627797 0.33266565 -0.21983589 0.33818725 0.52923405 0.33687 0.05006334 0.11951024 -0.14552306 0.3580123 0.44547096 0.05716043 0.0020566527 0.19167052 -0.001176397 -0.3344369 0.008218414 0.14007843 -0.4464619 -0.033245135 0.030313766 0.4621128 0.10438549 -0.18936469 -0.5843766 0.68383133 -0.2990576
1725 0.050151363 -0.95587766 0.09712763 -0.091787 -0.7335523 -0.06316612 0.14973156 0.32746187 0.17958233 0.001907307 0.15216209 0.21100207 0.18328871 -0.2559885 0.077629596 0.14406122 0.04761108 -0.03499024 -0.17046164 -0.22271448 -0.5987556 -0.40129125 -0.5030268 -0.114620976 -0.4224764 0.027315678 0.5775975 -0.36554778 -0.07347978 -0.26891923 0.3051751 -0.18206725 -0.3834006 0.16975363 -0.14428118 0.12668332 0.026300443 0.7386895 0.10424019 -0.13957457 0.07480102 -0.4065644 0.2295603 0.27277735 0.086722 -0.37814155 0.0258017 0.9664054 -0.52708316 -0.5721833 -0.39957157 0.36936828 0.27916265 0.13249959 0.33630568 -0.35229146 -0.019803932 0.30572385 0.11571042 -0.23145345 -0.013391817 -0.15753376 0.11393192 -0.0928349
989 0.20195429 -0.6791057 -0.09810614 -0.27715573 -0.5043683 -0.11012437 0.15915884 -0.09230161 0.7313248 0.24269788 0.102057055 0.30460027 0.17592654 0.23134913 0.451769 -0.47865245 0.27936986 -0.015416747 -0.352548 -0.97456163 -0.17795198 0.53789324 0.23970781 -0.2845304 0.8054042 -0.19806251 0.7290337 -0.37918583 0.33808228 -0.26780298 -0.36704937 -0.98506516 0.376079 0.080585785 -0.5062522 0.27631062 -0.11933252 0.15286681 0.19171602 0.1835467 -0.6510831 -0.2746681 -0.60548425 0.34073484 -0.40365574 -0.14161 -0.30544057 0.23193051 0.030619834 -0.10378927 0.18657151 0.57452196 0.2996386 0.22843483 -0.3214028 0.020848775 -0.025647232 -0.060466487 0.5194856 -1.0487949 0.051624697 -0.16271544 -0.23755048 -0.4479922
640 0.75262725 -0.16893212 0.5318176 0.5966176 0.36183584 0.07032057 -0.1389034 0.3330974 -0.16878681 0.3589398 -0.455276 0.1903735 0.32483217 0.044162787 0.023741968 0.3491458 0.06992328 -0.39499372 -0.3098185 -0.34711155 -0.008432938 0.25064468 0.40444183 0.16442941 -0.25336757 -0.5795256 -0.0938724 -0.12142369 -0.1583772 0.26230863 0.5898281 -0.74422306 0.1428139 0.6488183 0.09437435 0.3986304 -0.20795141 -0.28837144 -0.33140248 -0.3931187 0.25946215 0.14425729 -0.101679355 -0.5512553 0.11382748 0.0570121 -0.28970993 0.6172804 -0.4002875 0.23315342 0.38632163 0.46175846 -0.06940944 0.4076514 -0.28959653 0.53306055 -0.27814966 0.07912753 0.56595415 -0.5140727 -0.023112638 -1.1191218 -0.44765085 -0.40402377
741 0.09002008 0.13285859 1.1162997 -0.38378832 -0.35498136 -0.568119 0.06927412 -0.48341933 -0.06052977 0.06412726 -0.25688866 0.32173255 0.13615629 -0.06818387 -0.19348298 0.009189133 -0.04488088 0.02176783 -0.6412908 -1.2365359 0.57574785 0.05258116 -0.039013818 0.15243587 -0.4014555 -0.29046223 -0.08371672 -0.28127488 0.20341332 0.48603305 0.656905 -0.3812501 -0.12851702 0.23268706 -0.25349587 -0.3984929 -0.23647474 -0.49931023 0.40749085 -0.586969 0.29487848 -0.067732655 -0.77689886 -0.44322598 0.48018882 -0.37066144 0.340237 0.040984023 0.12044811 0.0986111 -0.11968769 -0.48823684 0.041016422 0.05327744 -0.15490294 -0.7033532 -0.34763175 -0.12496578 -0.21363464 -0.4612935 -0.27413452 -0.4800068 -0.17935817 0.13644715
750 0.23906405 0.08706043 0.6820104 -0.18770388 -0.4492443 0.2827393 -0.24979 -0.3165801 -0.6110988 0.06002147 -0.27154145 -0.08248146 0.6516293 0.08743073 0.23044017 -0.15769535 -0.052460548 -0.20605727 0.41455698 -0.4104916 -0.07615205 0.49416992 -0.16095293 0.01848542 -0.059073795 0.09921834 -0.1783767 -0.5208367 -0.02961159 0.28067607 0.13316481 0.20235066 -0.21598175 -0.40673837 -0.1282887 0.5020886 0.2566509 0.16761109 -0.17338099 -0.33049828 0.18033452 -0.083005525 0.25877917 -0.35512835 0.29659376 -0.31749204 -0.33785337 0.016891472 0.19758137 -0.37274253 0.07181001 0.5047147 0.47349516 -0.123876825 -0.16886626 0.33000296 1.1414486 0.13237669 -0.2326853 -0.21756804 0.53211385 -0.94724965 -0.19496936 -0.38649997
1119 0.2204325 -0.48163787 -0.032891367 0.2674927 -0.50151956 0.050585486 -0.46017832 0.43738386 -0.49885207 0.2584683 -0.302958 0.49518424 -0.281573 -0.82804 0.56094366 0.08018525 0.10338076 0.16543773 -0.18567659 0.028031081 0.1824137 0.8968986 -0.22593574 0.012265351 0.15792708 0.42133114 -0.30651876 -0.22874472 -0.47665218 -0.20680028 -0.03416839 -0.049545154 0.0306809 0.96778303 -0.14209975 0.5150216 -0.27891776 0.49446717 0.06528464 -0.6259891 0.66032183 -0.18261078 -0.71752334 -0.14647193 -0.14745425 0.032395266 -0.2586279 0.2971438 -0.23048049 0.30893373 -0.038794506 -0.4873832 0.60363483 0.03780256 -0.18127507 0.15935284 0.6916494 -0.48546445 -0.28793845 -0.28608683 -0.6178107 -0.22256173 0.28867248 0.47781512
657 -0.46348056 0.19973691 0.6425989 0.26115167 -0.71324205 0.4050384 0.568485 -0.3078704 -0.07899337 -0.41326332 0.33689722 -0.62251407 0.16723475 -0.3663877 -0.1701982 -0.5366853 -0.09363822 -0.11634593 0.13445204 -0.33028057 -0.7704334 0.098707 0.47126296 -0.5177599 0.43853378 -0.06061466 -0.36450547 0.102086216 -0.219601 -0.32166207 0.28215337 -0.032773055 -0.47512436 -0.0094523 -0.180252 0.20362797 -0.6404503 0.43732664 0.16029744 -0.14855522 -0.28897372 0.16871251 -0.46087328 -0.044537216 0.6593698 -0.46854135 0.15006204 0.014840765 -0.38085935 0.16425508 0.10872846 0.5223905 0.3202706 0.7446674 -0.37237626 -0.051968887 -0.20335582 -0.20967785 0.59138775 -0.24228121 -0.18335898 -0.3626983 0.48008007 -0.054819666
679 0.83823293 -0.25564635 -0.06311717 -0.2950117 -1.1089445 0.37970665 0.17418602 0.757325 -0.3491506 -0.019098401 0.21172816 0.21926546 -0.1539606 -0.2055578 -0.8632744 -0.57561845 0.082260914 -0.06008198 -0.22113895 -0.045879945 -0.31913015 0.13960096 -0.24949926 0.17925596 0.22534081 -0.8744577 -0.48226622 -0.1673814 -0.18732841 0.46002805 -0.40856835 -0.29828814 0.2229428 0.10147484 -0.4521999 0.00073072925 -0.07959447 -0.0303285 0.07308794 -0.15632449 0.41448802 -0.4364256 -0.17855504 0.16014357 0.9229909 -0.27664867 0.25215927 0.33407456 -0.37525332 -0.31004617 -0.015243861 -0.7442868 0.18255877 0.56105316 -0.2460147 0.339159 0.96683145 -0.49798423 -0.22655353 -0.31757492 -0.19189073 -0.03666824 -0.46099138 0.34029117
136 0.22077395 0.21550299 0.33530363 -0.22917022 -0.22174366 -0.6810359 0.2334335 -0.8011278 0.918787 0.43833265 -0.2975274 0.22124887 0.26995346 0.49648213 -0.17822847 -0.11640842 -0.33533594 -0.028735388 -0.32305256 -0.4826365 0.0962333 0.525549 -0.14722034 0.7476874 -0.32918483 -0.45035228 0.2615673 -0.24817859 -0.07774344 -0.1979921 -0.04625194 -0.601633 0.22339708 0.08004076 0.11124257 0.32607552 -0.95897925 -0.06297811 0.61773676 0.334298 0.011523697 -0.19641076 -0.05753349 0.15788507 0.51525515 -0.09452667 -0.4026259 0.06553891 0.3760314 -0.27028188 0.3217068 0.18230414 0.615327 0.23549931 -0.2831359 -0.6181313 -0.108562216 -0.008343992 -0.54867023 0.03188314 0.10208476 -0.8225913 0.17973356 0.10495932
520 -0.059760477 0.18181969 0.47545832 -0.33712125 -0.6800401 -0.34069902 0.0380904 0.16572301 -0.103059985 -0.43201706 -0.108447544 -0.376972 -0.32611996 0.19967067 0.1814496 -0.29177064 -0.5033489 0.14216593 0.016031256 0.10548762 -0.84786844 0.2537728 -0.1390163 0.09116261 0.1751581 -0.07838027 -0.18320598 -0.05329869 0.018885767 -0.7598114 0.2919365 -0.35919973 -0.02121914 0.022017464 0.35775635 0.07014158 -1.1125147 0.68243307 0.5471031 -0.26535648 0.5387405 0.3376046 -0.47647572 0.07996107 0.7067046 -0.10080271 0.23344535 0.14448687 -0.22511262 0.22634898 0.4456147 0.21257237 -0.017683087 0.010691531 -0.16264142 0.058273472 -0.30806726 -0.19973098 0.4814505 0.24809416 -0.3276164 -0.24109966 0.73101616 -0.0029349874
514 0.5297743 -0.41894156 0.7832263 -0.23211303 0.33896548 -0.3020573 -0.09953968 0.7550641 0.2182822 -0.0065445607 -0.022783935 -0.4811085 -0.597889 0.27014536 0.15657362 -0.0022203664 0.06810004 0.20957327 -0.120278426 -0.34927714 -0.17292038 -0.04574255 -0.14373907 -0.1460993 0.054226223 0.069086455 -0.062283747 0.03618053 0.11218926 0.26797473 0.053865653 -0.06468928 -0.21142611 0.01858123 0.1165499 0.40696153 -0.79003304 0.20456402 -0.35940537 0.664804 0.30411065 0.26340616 0.118392855 0.20056748 0.31189567 -0.11686065 -0.0059310673 0.29639265 -0.20655103 -0.08315687 0.4447294 0.21394408 0.27574837 -0.81114316 -0.43327498 0.37978578 0.018628854 -0.33931044 -0.062162977 -0.2848031 -0.0935275 -0.4772113 0.08807662 0.8740538
1369 -0.46569058 0.776612 0.12850228 -0.16624638 -0.26572224 -0.29478762 0.14390549 0.6915372 0.14909631 -0.013924882 0.36737067 -0.32850742 0.26614094 -0.3556435 0.1301705 0.006922316 0.37783098 -0.47788182 0.1391399 -0.8268387 0.58938056 0.43697566 -0.09014208 -0.11240963 -0.2239349 -0.24157082 0.11781733 0.023743711 0.23501949 -0.36898184 0.5733817 -1.0282372 0.45030662 0.124368064 0.2709283 0.16908573 0.07012233 0.046164077 0.117415786 -0.41999263 -0.10762107 -0.16654384 -0.029315209 0.24782868 -0.15231708 0.8744336 -0.4485618 0.7230977 0.4893651 0.20603761 0.03436295 0.61959934 0.34390634 -0.124578945 -0.67142344 0.61108446 0.2578465 -0.9183716 0.1312602 0.5915439 -0.98339933 0.0010089184 -0.18732823 -0.529086
734 -0.017127862 -0.29800224 -0.4255866 0.14271593 -0.27457222 0.03190785 0.5125904 0.50904477 0.6952874 -0.18695761 -0.011906848 -0.5789116 -0.15568885 -0.07957218 -0.02747407 -0.17235611 0.5242003 0.06900634 -1.1110104 0.13665329 0.17461403 1.0342251 -0.12151172 -0.07210004 -0.4639628 -0.51998323 -0.05486523 -0.8554768 -0.22861645 -0.18977185 0.5046499 0.18292639 0.067870006 0.34932074 -0.37925708 -0.43303287 -0.094038375 0.5582481 -0.21075176 0.04903803 -0.29244792 -0.0930123 0.06306187 0.15656608 -0.023340054 0.42171338 -0.41303185 0.27807742 -0.08841766 -0.012183767 0.34249857 -0.3303217 0.12994877 -0.30554387 0.1342919 0.13236366 0.5095581 -0.072714396 0.27103359 -0.21358126 0.30471146 -0.24973473 0.3885361 -0.6632257
447 -0.22836731 -0.27566585 -0.37139395 -0.23191468 -0.6092686 0.61137706 0.59690535 -0.0029896998 0.048715737 -0.12893088 -0.2270911 -0.96071345 0.28445998 -0.18445714 0.29097292 -0.25222725 0.45153844 -0.14088611 -1.0445653 -0.1955235 0.27919686 0.83800906 -0.08508945 0.14959893 -0.22334825 -0.18931325 0.092000335 -1.1840699 0.17951472 -0.08942095 -0.27404776 0.00957362 0.29850027 0.1352627 -0.007464511 -0.0003000656 -0.1744935 0.63442785 0.20317471 0.16613129 -0.09940975 -0.09056543 -0.35506344 0.42077458 -0.03546459 0.09584836 -0.14269742 0.24206631 -0.017347645 -0.06092681 0.30818745 -0.055896867 -0.5082069 -0.30680653 0.059834585 -0.027555361 0.68365306 -0.0045880107 0.19763915 -0.47147816 0.1484109 -0.276958 -0.08281104 -0.4743418
1197 -0.23734769 0.1281371 0.46302143 -0.017556908 -0.23489337 -0.33803394 0.2132985 0.29026812 -0.000639679 -0.047431037 -0.4864477 -0.85692096 -0.6575079 -0.19052066 0.08058201 -0.13978647 0.22942714 -0.15774895 0.24815416 -0.012939979 -0.078825764 0.34184128 -0.6480331 -0.42052707 -0.31454086 0.49795815 -0.21941616 0.65544546 0.64354914 -0.51441646 0.35102326 -0.9516966 0.3769436 -0.04245021 0.0890859 -0.41417652 0.47848886 0.9535789 -0.5527623 -0.10628615 0.27914134 0.017406236 -0.020703055 0.20155552 0.28246456 0.36439085 -0.46600583 0.49582794 0.3070757 0.43514463 -0.15293612 0.38648885 0.22137938 0.11254732 -0.5471464 0.47569877 0.15976803 -0.48304418 -0.16895314 -0.08296102 0.30175465 -0.10164398 -0.51961404 -0.32226044
748 0.324349 -0.43139282 0.19232808 0.060416576 -0.88612247 0.35777107 0.35932592 -0.35625803 -0.2664098 0.39257416 -0.31317374 0.060474463 0.085503936 -0.51687473 -0.011791535 0.08259516 0.35039118 -0.51060367 0.18682127 -0.7329868 0.31001285 0.07444049 0.24897222 -0.1658266 -0.67350054 0.18227266 0.1743257 -0.340184 0.25205466 -0.10987586 0.629436 0.18801229 -0.32553062 0.103946894 0.39329195 0.3969351 0.06269585 0.00964724 0.1059297 0.3967364 -0.015220113 0.16468252 0.6049282 0.21839176 -0.005044216 -0.26072484 -0.33255184 0.1379905 -0.28946537 0.081336915 0.17546028 -0.21240368 -0.17936715 -0.49633476 -0.11864377 -0.4178106 0.667939 -0.23699959 -0.01068753 -0.3385627 0.38884783 -0.94228494 -0.2662931 -0.35019973
1742 -0.109601095 -0.31349802 0.46362758 0.18757027 -0.6529703 0.5349386 -0.21152258 -0.55072755 -0.5923322 -0.062103145 0.08451551 0.1471397 0.5576796 -0.2695077 0.39402637 0.060002863 0.30536044 -0.07349547 0.12539668 -0.61190104 0.0010762936 0.6837806 -0.37260184 0.2514891 -0.117498845 -0.06329244 -0.14809322 -0.5974655 -0.04769599 0.51025057 -0.3035888 -0.05832137 -0.0896105 -0.14436327 0.0011210808 0.13163094 0.092434555 0.058003705 -0.59075236 -0.102010585 0.041265994 -0.34469807 0.5406283 -0.40273944 0.31354475 -0.4241099 -0.23344082 0.20822585 0.07502041 -0.20477992 0.36610338 -0.009707343 0.33687213 -0.021039715 -0.1776368 -0.13709961 0.82147294 0.045611512 -0.22885546 -0.32632324 0.4435646 -1.0415133 -0.56713176 -0.3675358
