2708 64
1121 0.17077577 0.27930942 -0.14332148 -0.033137605 -0.080146134 0.10381797 0.08274041 0.12359954 0.2718837 0.29300752 0.0733189 -0.04844179 0.2675498 -0.21186395 -0.010692785 -0.10534228 -0.15915476 -0.114705734 -0.060871147 -0.41559735 -0.06990125 0.17425498 0.2280116 -0.40206814 -0.18038146 0.14908913 -0.042047776 0.12633276 0.041588426 -0.2892131 -0.00467105 -0.13845983 -0.058032405 0.13980131 -0.061305206 0.023123 -0.2168098 0.09232471 -0.077323124 0.16302368 0.16886497 -0.07798654 -0.014801154 0.37518108 0.12943533 0.19856523 -0.113111466 -0.012088595 0.15196753 -0.103276454 0.13186091 -0.32564476 -0.21756046 0.058563437 -0.006269493 -0.020334518 0.08493897 0.12806521 -0.21811736 -0.17909735 0.107403025 0.29580358 0.22918276 0.26957512
2077 0.107918315 0.17264111 -0.09417736 0.18740664 -0.17177637 0.0065705176 0.13645329 0.036182985 0.10465411 -0.027657483 -0.051340446 0.10048939 0.559682 -0.095136814 -0.11406084 -0.13341254 -0.2985218 -0.11993191 -0.072276175 -0.431295 -0.21867116 0.064902246 0.15698284 -0.01257069 -0.14388059 0.0084239775 -0.07436258 -0.20416015 0.22624202 -0.18001796 -0.13050425 -0.12248102 0.12623967 0.13287057 -0.2791894 -0.028307475 -0.26349816 0.03463974 -0.19276908 0.030786226 0.069773026 -0.20411274 -0.03427285 -0.074872844 -0.022238951 0.10327835 -0.25805253 0.015680697 -0.046199184 0.081194125 0.15022735 -0.24340768 0.026711164 0.13222222 0.124484494 -0.081434056 -0.10510263 0.12423245 -0.00015679168 -0.22845246 -0.018509153 0.100554354 0.030920165 0.22529024
1799 0.33834133 0.10317049 -0.1495915 -0.17782095 -0.19126008 -0.0069429833 0.32222864 -0.14673948 0.3238595 0.1939562 0.4031645 0.11364257 0.5126554 0.24575217 0.19138218 0.032667723 -0.26876268 0.12146569 -0.0047599333 0.056759894 -0.0047217403 0.159636 0.2442259 -0.17318141 -0.024529995 0.0913661 -0.33383036 0.022427335 -0.048890967 -0.049657237 0.03519666 -0.06124823 0.09942195 0.068471186 -0.2823574 -0.01996533 -0.13506497 0.04394843 -0.06637557 0.1181766 0.19629577 -0.22325121 -0.02784339 0.17058387 -0.050108135 0.2517287 -0.30758727 0.08281472 0.050867576 -0.014897852 0.17928804 0.054074813 -0.12819983 0.057125945 0.11096464 -0.06974356 0.09421199 -0.031944767 -0.012281381 -0.03124754 0.11592273 -0.086390235 0.15075882 0.13283658
2696 0.2657144 0.056513794 0.012012279 0.047355372 -0.09330195 0.178991 0.07371356 0.12339046 0.46759775 0.42607155 -0.32398605 -0.13265896 0.20638734 0.06049499 0.1583835 -0.25883257 -0.33377913 -0.15285334 0.011203194 -0.38764265 -0.2455566 0.024170069 0.22287637 -0.092241056 -0.06174987 0.138774 -0.1387833 0.11738054 -0.042000145 -0.26494014 -0.0109891705 0.02071078 0.12862426 0.019890847 -0.25077856 -0.12256354 -0.05188162 -0.07472501 -0.0853866 0.022444189 -0.00588737 -0.15072788 -0.06964516 0.26729655 -0.19108437 0.041015573 -0.42552388 -0.0956131 0.1397002 0.03980856 -0.012256254 0.07938554 0.030448558 -0.14096208 0.25197303 0.07024183 -0.08045444 -0.085256405 -0.054196574 -0.035216656 -0.13530192 0.033961684 0.16886678 0.27422336
1665 0.17744988 0.11063523 -0.07863835 0.17949408 -0.17332934 -0.25227433 -0.039054926 -0.15623927 0.008075811 0.15690114 -0.06204368 0.030097088 0.14810455 -0.07655635 0.18258898 -0.25794122 -0.26339707 -0.15228209 -0.22171743 -0.31623617 -0.37523386 0.024382835 -0.043576963 -0.10439769 -0.285501 -0.05004377 -0.3440754 -0.01007711 0.02510809 -0.20480445 0.02389412 -0.20970249 -0.027864194 0.054252654 -0.36836562 0.10106722 -0.07358316 0.17138118 -0.08795197 -0.017270613 0.22222154 -0.08716041 0.13765953 -0.0015053597 -0.03998984 0.034574397 -0.20828748 -0.10885196 -0.022072861 -0.049397744 0.052058745 -0.07845719 -0.1079204 -0.33435506 0.12462333 0.052006785 -0.34142625 -0.179782 -0.0104606 0.049663424 0.25805676 -0.12997636 0.32080775 0.31396943
2033 0.05736803 0.15305947 -0.25385264 -0.021351041 -0.2716874 -0.07426187 -0.0076518487 0.109386 0.14335912 -0.07792607 0.00413064 0.17222086 0.28295097 -0.28703544 0.084501415 -0.15288188 -0.23386848 -0.22588427 0.111157045 -0.32586184 0.13405605 0.027334198 0.024454447 -0.11458761 -0.26902702 0.06553397 -0.16972394 -0.01181908 -0.0148199145 -0.2078347 0.08014732 -0.12697814 -0.1463241 0.022756344 -0.10025513 -0.1549848 -0.18991788 -0.029966725 -0.18876253 -0.05468947 0.13988763 0.025441678 0.08002656 0.13740419 -0.036655065 0.01724015 -0.22207014 -0.04394668 0.17254674 0.06028322 0.19122015 -0.06450636 -0.18095976 -0.06767207 -0.1285157 0.110297486 0.17070805 -0.13043143 -0.00013175268 0.3144376 0.08354062 -0.09994024 0.085181855 0.55372065
1315 0.20856889 0.17558534 -0.29285067 -0.24432643 -0.09455584 0.15643074 0.26720235 0.32247287 0.06867017 -0.057724908 -0.11849385 0.10164586 0.28067213 0.0023350208 0.038550794 -0.132046 -0.047719397 -0.1140895 -0.03373382 -0.33416873 -0.08270668 0.083425075 1.6844822e-05 0.12548481 -0.16863877 -0.1371181 -0.28489769 0.029603066 -0.27243742 -0.18242434 0.08239833 -0.07788041 -0.16115251 0.16871612 -0.081373654 -0.0018572211 0.10113733 0.13233249 -0.14356416 0.1144549 0.35627672 -0.032237988 0.21786219 0.21111687 -0.09468991 0.016082019 -0.04448639 0.10197385 -0.09959304 -0.18942247 0.14814372 -0.32913384 -0.0878942 -0.104220964 0.28789818 -0.19522434 0.14727311 0.3459249 -0.105878666 0.04885696 0.280996 -0.15724371 -0.04133488 0.43750268
1020 0.018696697 0.24616604 -0.1401204 -0.016236661 0.0027497152 0.05512505 0.13623996 0.13524264 0.11160955 0.064451955 0.14577198 -0.07357496 0.4944 -0.06104094 -0.056139313 0.11329571 -0.04803269 -0.046933874 -0.023799784 -0.42418292 0.08860175 -0.06591341 -0.02473755 -0.07560956 -0.051297523 0.08368531 -0.3212909 -0.1972539 0.1599416 -0.1297568 -0.19951127 -0.1929702 -0.062108006 -0.23321688 -0.31025368 -0.0700193 -0.18069531 0.018054757 -0.19902073 -0.038418684 -0.044279806 -0.22397237 -0.03500147 0.18181816 0.08637082 0.28550023 -0.3105379 -0.013025455 0.011904648 0.15316081 0.12283109 -0.012172225 0.22783387 -0.20279256 0.13106848 -0.027971918 -0.08386648 0.26012415 -0.11664568 0.048227467 0.2785464 -0.07930123 0.16936989 0.27383894
8 0.37912217 0.1739797 -0.16270335 -0.09488911 -0.1694537 -0.0011648859 0.043521862 -0.027212702 0.08130078 0.28631645 0.18036081 0.313377 0.3788594 -0.05684962 -0.0759402 -0.033246823 -0.28930712 -0.0033495121 -0.15273368 -0.43816328 -0.16319393 -0.17901747 0.4054166 -0.10845728 -0.008057482 0.11163039 -0.19297898 -0.09220667 0.002265388 -0.26757225 0.028310392 -0.10474423 -0.017266499 -0.10485294 -0.07356092 -0.1178349 -0.06737135 0.05804591 0.032880772 -0.24312572 0.17403609 -0.13180245 0.13321337 -0.047178652 -0.053142317 -0.0816791 -0.13303356 -0.112622045 0.17303866 -0.12606657 0.2516765 -0.31394997 -0.18601981 0.050928313 0.25807634 -0.2261166 -0.30684036 0.25338843 -0.055865273 0.13800703 0.12628901 0.054889012 -0.016595295 0.22453173
1055 0.4504514 0.32109192 -0.19222458 -0.044542406 -0.21612209 -0.31841898 0.02706555 -0.0033259315 0.1871616 0.021606116 -0.24755257 0.11176867 0.28415397 -0.025703367 0.033216942 -0.15682155 -0.14962395 -0.16915391 0.20340858 -0.23397698 -0.30839482 -0.018505715 0.16092159 -0.03810491 -0.10885341 0.0989378 -0.2785842 -0.089739524 -0.01565151 -0.17829527 -0.05633879 0.037192624 0.0094127115 -0.046023026 -0.35078165 -0.1227303 -0.14411613 0.14511204 -0.11319383 0.006744172 0.12282197 -0.20468768 -0.0025764937 -0.009369256 -0.070893504 0.041826442 -0.21634297 0.058256228 -0.11382879 -0.031104913 0.012424973 -0.14172211 0.069409594 0.0037187615 0.25757727 0.27339897 -0.09344254 -0.002574489 -0.136745 -0.15894839 -0.18202458 -0.015365187 0.14558095 0.09207035
1271 0.20474677 0.23188357 -0.048552178 -0.3239157 -0.06420426 0.007592166 0.020322062 0.0087726 0.07583371 0.26149634 -0.20008603 -0.0013082516 0.21432884 -0.010453317 0.3668446 -0.10502289 -0.16247289 -0.35133862 -0.104611054 -0.18511172 0.07828123 0.22225352 0.44297308 0.14210302 -0.3213655 0.30345953 -0.22320156 0.1383165 0.0123753315 -0.17779472 -0.010738632 0.00033340536 0.08022177 0.0003677056 -0.09605448 -0.15271203 0.04660633 0.2667736 -0.07260844 -0.13903339 0.18811369 -0.22776328 0.17941937 0.16823114 -0.048223887 0.0045026327 -0.21302725 -0.09957889 0.04738124 0.03575359 0.16197617 0.018924316 -0.2091462 -0.1719841 0.011573224 -0.09434957 -0.22064067 0.15890801 -0.042161908 -0.16958521 0.19321698 -0.19379343 0.14754814 0.05862763
967 0.2643303 0.20127165 -0.310096 -0.06318106 -0.24567214 0.16190197 0.031769227 0.076010354 0.22079848 0.21487561 -0.070444286 0.15294725 0.28511283 0.1182535 0.08530801 -0.18925142 -0.34100595 -0.17946096 0.007452118 -0.29147726 0.0029352542 0.002283903 0.08937952 -0.0017388789 -0.052667975 -0.0016431974 -0.11903839 0.031448364 -0.1180366 -0.10841492 -0.25439572 -0.12938769 -0.0118134795 -0.03062822 -0.1395081 0.011040487 -0.07398048 0.3508341 0.046992123 -0.045426242 -0.14957823 -0.17249489 -0.012463005 0.41933975 -0.09019444 0.071051896 -0.16823491 0.20703836 -0.0061701876 -0.030377746 0.1299635 0.025132444 -0.15014677 -0.08532541 0.28717 0.06309484 -0.013125403 0.08516265 -0.037604734 0.14684749 0.053449146 -0.009108217 0.048324585 0.1488711
952 0.18760489 0.18986678 -0.226034 -0.07334021 0.0038824333 -0.31719595 0.27542633 0.08526285 0.17356843 0.054047905 0.09965818 0.09458569 0.23128945 0.067358434 0.33948457 -0.113755725 -0.11216789 -0.1293665 -0.12171269 -0.36324984 -0.22358565 -0.020665554 0.07166684 -0.1949303 0.088812985 0.031686693 -0.09838253 -0.15165336 0.024969999 0.00013615564 -0.24207021 -0.0581793 0.117751345 -0.160156 -0.13316238 0.008493354 -0.2555749 0.0041172085 0.02725676 -0.03857912 0.046460044 -0.30607823 -0.107631765 -0.08360975 0.10143337 0.052838072 -0.2353765 0.12016058 0.112376444 0.072161146 -0.05541898 -0.2131594 -0.08998444 -0.024628315 0.034740336 0.25766614 0.10863901 0.32738099 -0.20347975 -0.11717848 0.05504785 -0.12245766 0.25526625 0.21755421
678 0.28844514 0.26102743 -0.22585076 0.081802614 -0.36001512 -0.030851856 0.21410519 0.08259786 0.29176873 0.15532234 0.10024327 -0.012920656 0.3345769 -0.10641231 0.33134505 0.08832808 -0.05642249 0.016544053 -0.010264999 -0.22726674 -0.20532428 0.13472474 0.25066048 0.2031482 -0.3397247 -0.05291053 0.015089868 -0.21274808 0.08849586 -0.1458018 -0.33517554 -0.0064017037 0.07127415 -0.0849619 -0.22508904 0.07125014 0.08975425 -0.06560039 -0.12592222 0.014345175 -0.03584416 -0.08661483 -0.008456982 0.09930573 0.016387394 0.11576726 -0.29353392 -0.17736052 0.011797498 -0.096994184 -0.15980445 -0.1354138 0.05565172 0.12247015 -0.027775973 -0.12722723 -0.05222974 0.10098881 0.09629155 0.005957075 0.022297138 -0.07144562 0.18067954 0.29486933
2162 0.24926451 0.2042864 -0.081152916 -0.17297868 -0.3882127 0.027454026 0.043492775 0.084974825 0.020092353 0.03106428 -0.21725959 0.17843808 0.14604533 -0.2270192 0.09220024 -0.23748189 -0.005180176 -0.2686019 0.0054207626 -0.2584409 -0.0025779721 0.089121304 0.2124159 0.1576475 0.18118389 -0.09478333 -0.21310326 0.0041604806 0.23099947 -0.10439022 -0.20407258 0.025309658 -0.03310787 0.10268881 -0.1754055 -0.0026928072 -0.22086053 0.011611023 -0.20471217 0.19724876 0.1390698 -0.076211005 0.06214636 -0.11744151 -0.16925873 0.25033373 -0.40743434 -0.12815045 0.0025254905 0.043473244 0.22142081 -0.018408006 0.01359817 0.026133943 0.21164605 -0.20410283 0.102535106 0.118957534 0.050698746 0.1648405 -0.10202795 0.009424196 0.28972855 0.32046828
2367 0.03798771 0.40657285 -0.05383189 -0.036732785 -0.31052926 0.0063405847 0.02801785 0.047614712 0.1617113 0.07741449 -0.21726033 0.005967265 0.41720742 -0.059805926 0.3010669 -0.13543785 -0.1480036 -0.23593174 -0.10333545 -0.40139544 -0.19911514 0.06670839 -0.23293045 0.049867164 -0.23219061 0.16585283 -0.3484836 -0.026568882 -0.012784917 -0.08715772 -0.08981402 -0.08859156 -0.0056756483 0.13309442 -0.42875174 0.060307946 -0.04018216 0.09014276 -0.16753937 0.1313046 0.21501642 -0.26565355 0.07040502 0.11550902 -0.13285042 -0.263564 -0.22871947 -0.11800963 -0.029815774 -0.16740617 -0.0012987105 -0.060714014 -0.16131274 -0.2243656 -0.080787994 0.07743885 -0.07331309 0.13918681 -0.22022521 -0.04937118 0.07915559 -0.032262508 -0.0979525 0.32825688
2552 0.30252644 0.19364466 -0.09519064 -0.051174648 -0.0797689 -0.12126524 -0.06933876 -0.10762262 0.22141413 0.23495603 0.14437819 0.06862273 0.36261576 -0.26326373 -0.012503622 -0.19530542 -0.09897663 -0.15867084 -0.12117009 -0.2715542 -0.07302792 0.39084893 0.122988336 -0.17673528 0.023130717 -0.044843484 -0.2032027 0.115988374 0.009761476 -0.21774332 -0.03323539 -0.1786408 -0.2257451 0.16055843 -0.14865007 -0.020588098 -0.12110976 0.24025124 -0.20416608 0.09048954 0.11024193 0.14116222 -0.007852657 -0.04156939 -0.008724913 0.13318512 -0.27909935 -0.104432166 0.086965434 -0.06440604 0.3488841 -0.21590152 0.14685868 -0.15706655 -0.15078211 -0.22676936 0.11984986 0.09686848 -0.15709083 -0.07525756 0.3308497 -0.12950252 0.08762575 0.17206757
2687 0.102754064 0.27048838 -0.04213812 -0.09716201 -0.11613808 -0.018627232 -0.11437777 0.22187424 0.29270938 0.16801378 -0.108796366 0.24921663 0.42919895 0.107014544 0.20910801 -0.123334214 -0.085125566 -0.19415694 -0.27717248 -0.16266337 0.05503112 0.20764141 0.16503768 0.20266677 -0.20886262 0.12837583 -0.3060869 -0.17738436 -0.23523815 -0.273333 -0.2070483 -0.2607916 0.10753984 -0.057367317 -0.1778138 -0.27180192 0.03134941 0.09615619 -0.28132504 0.017811531 0.054571446 -0.111390516 -0.006039229 -0.008640071 0.013773513 -0.068160355 -0.08575036 -0.007627011 -0.14082417 0.1913062 0.14339538 -0.056118105 -0.13124862 -0.025739206 0.07264616 -0.12503998 -0.22325231 0.08572912 -0.20308319 0.07319824 0.18070795 -0.10519457 -0.014665326 0.07507908
2551 0.12909137 0.30377078 -0.2490992 -0.04729717 -0.36540082 -0.06063676 0.22458534 0.19014889 0.19778287 0.39348117 -0.081319995 -0.06472761 0.4709219 -0.012329191 0.11190279 0.053120397 -0.23653337 -0.32935846 0.1938066 -0.1410982 0.11188571 -0.038106665 0.2699684 0.11063804 -0.34074184 0.17864077 -0.016805861 0.09057378 0.2251803 -0.17373465 -0.15720607 -0.26659277 -0.03618279 -0.13126141 -0.12340226 0.07617756 -0.17908353 0.09346355 -0.007323976 0.19462094 0.09970462 -0.21064839 0.08364409 0.1462145 -0.00050414103 0.0072706537 -0.01148616 -0.06844301 -0.12098618 0.10435499 0.07540209 -0.14403981 0.03561476 -0.022322236 0.28800237 -0.13346684 0.17447194 0.121189624 0.120296076 0.13974798 0.13354157 0.0033986862 -0.018348759 0.39154783
2009 0.29387712 -0.068529435 -0.18309928 -0.01180051 -0.2938339 -0.09973135 0.15389915 -0.030580707 0.25916228 0.32034913 0.24572974 0.21903928 0.39165682 -0.061716657 0.08158872 -0.122611225 -0.11632047 -0.13238335 -0.0068094027 -0.24720895 -0.06847429 -0.052510988 0.24393573 -0.028588967 -0.05883407 0.086767696 -0.2959073 0.04914254 0.056059595 -0.16245884 0.0043722913 -0.07034481 -0.095287144 -0.018299082 -0.20920801 0.11034572 -0.15930533 0.13030814 -0.23459366 0.022460807 0.15627353 -0.12801112 -0.05202952 -0.10608745 0.002259316 0.1306541 -0.043199737 -0.13792154 -0.133162 -0.2463868 0.08080855 -0.34215236 -0.08531354 0.020352375 -0.052910835 -0.06663781 0.16784096 0.2786571 -0.0783846 0.036167733 0.011767352 -0.12679361 0.26443222 0.27948418
2032 0.18921405 0.3341475 -0.019997075 -0.18319796 0.03388702 -0.13152458 0.06146455 0.368082 0.13754725 0.23933063 -0.052227065 0.030491097 0.1669062 0.08845739 0.16989872 0.0119501315 -0.15107773 -0.22096083 -0.31050074 -0.43009612 0.06243418 0.10712891 -0.057851207 0.00025824536 -0.26082212 0.03645082 -0.50212836 -0.0031313282 -0.09475656 -0.14482681 -0.035867583 -0.26168573 0.034798417 -0.102121405 -0.33067274 -0.278792 -0.23529461 0.29120544 -0.20157318 0.41964078 0.025110023 -0.2963505 0.054766618 -0.15136336 0.10024538 0.30791402 0.17434323 -0.24276546 0.04921658 -0.120977335 0.19604406 -0.34943244 0.13218112 -0.033831023 0.13018008 -0.112598695 0.05728999 -0.08229946 -0.035441734 -0.16445062 -0.20927696 0.021488123 0.14049512 0.09623002
2697 0.35054922 0.30216372 -0.1296444 -0.09039297 -0.19566454 -0.0993412 0.1707942 0.06544117 0.10047991 -0.040717807 -0.09315486 0.1641869 0.17446107 -0.1970189 0.044723883 0.001334034 -0.5866703 -0.16592231 0.07368078 -0.17042445 -0.14598154 -0.01327068 0.12531295 -0.18047465 -0.09809272 0.0012006359 -0.28798208 0.06704712 0.16426384 0.024197271 0.09919302 -0.3527762 -0.06783084 -0.056007713 -0.24827376 -0.20183395 -0.3560206 0.17298912 -0.15153994 0.05497923 0.0541739 -0.20464769 -0.0008453351 0.1181559 -0.1911606 0.12758054 -0.20661303 -0.2060637 -0.03929507 0.14743336 0.1284484 -0.09171429 -0.015821213 0.021993171 0.32175395 -0.20668219 0.0085940985 0.25569734 -0.070314564 -0.026695976 -0.12509865 0.1110946 0.0014789214 0.2819832
1274 0.15123333 0.25518936 -0.09203362 -0.058293633 -0.32404223 0.06107663 0.103098564 -0.04452053 0.091640785 0.074454434 -0.12207882 0.24062902 0.1869678 0.04124979 0.23796952 -0.13765568 -0.006526399 -0.03252793 -0.008134786 -0.23711486 -0.089913934 0.26926973 -0.0046971585 0.11837146 -0.056385487 0.2778616 -0.16951643 0.13581702 0.10039637 -0.36869296 -0.22070415 0.034285307 0.067659914 -0.099947445 -0.35292292 -0.14378709 -0.05777957 0.22280473 -0.14726283 0.055693597 0.055339508 -0.06035439 0.09342652 0.012723668 -0.042187255 0.37702435 -0.16316268 -0.17881224 -0.06790568 -0.103251554 0.12665832 -0.29002753 -0.27139044 -0.015980953 -0.058775872 -0.16418706 0.10449844 -0.22677162 -0.24623188 0.054627854 0.047862224 0.15399407 0.032714568 0.28985155
1728 0.16308334 0.24698357 -0.250516 -0.004761912 -0.33127436 0.041397568 0.05181362 0.24922137 0.27346334 0.39351168 -0.17704007 0.00193129 0.25122476 -0.103419766 0.085104324 -0.19211192 -0.13551614 -0.052632738 0.036303695 -0.36531693 -0.2987953 -0.13977322 0.25114945 0.05388572 -0.0126641 -0.044207707 -0.08548632 -0.28904536 -0.18881892 -0.058549974 -0.2124876 -0.14973743 -0.16007927 0.1285844 -0.29647535 0.20123136 0.0728189 0.08455865 -0.24871878 0.07977978 -0.06805918 -0.024296083 -0.11114855 0.28811717 0.021436455 -0.02207586 0.09384754 0.1428018 -0.07062328 -0.05056411 0.07523966 -0.1854351 -0.017705373 -0.15918718 -0.00054324657 0.032533374 -0.061763033 0.060274113 -0.084619924 0.16600004 0.024081942 -0.0536046 0.16372575 0.43751517
179 0.1721888 0.30739087 -0.04201366 -0.20614041 -0.120130844 0.078232706 -0.041592423 -0.10775488 0.2151068 0.26255906 0.0041032135 0.09899667 0.25860348 -0.0551744 0.12994127 -0.17762728 -0.4011005 -0.25569093 -0.15482017 -0.47343162 -0.025077881 -0.060296677 0.22955859 -0.09315046 -0.049278002 0.0250027 -0.013304476 -0.023788847 -0.16616108 0.047919065 -0.011952913 -0.25809172 -0.25000072 0.030297834 -0.078866616 0.146046 -0.121674046 0.50568825 -0.14662421 -0.10591801 0.19860773 -0.37064767 -0.0026424038 0.08879784 0.075856484 0.2369028 -0.1264372 0.03405165 0.05720376 0.04051171 0.20138152 -0.28139183 -0.05181681 -0.10709118 0.09562616 0.022625167 0.048023846 0.05892673 -0.105248906 0.004795346 -0.07220607 0.18530594 0.10939742 0.25819543
1673 0.15068232 0.16881698 -0.051914796 -0.014614245 -0.37257695 0.021063091 0.007231707 0.19716318 0.1225599 0.09985482 -0.123813234 0.27498317 0.056710333 0.17669182 0.340291 0.026584273 -0.14549866 -0.06225645 -0.36616164 -0.29878488 -0.05313188 0.0034501902 0.13482395 0.03469559 -0.18449539 0.095191434 -0.17114207 -0.11439199 -0.028620932 -0.040419117 -0.08234034 -0.125642 0.20936315 0.037323553 -0.15100774 -0.034995943 -0.27112618 0.093410835 -0.061593983 -0.0474593 0.009181083 -0.6024551 0.090569265 0.05013312 -0.052613188 0.08925285 -0.039087284 0.13062444 0.029636644 0.08239662 0.10670207 -0.10227754 -0.006445716 0.09597476 0.02085594 -0.07985012 -0.0854586 0.011942772 -0.07897115 0.10180153 0.063967 0.04457291 0.28260037 0.40325946
1056 0.28363845 0.10148523 -0.13174713 -0.13291419 -0.26205465 0.020501193 0.26735163 0.05655262 0.24389115 0.101909325 -0.028239649 0.12831648 0.083055675 0.05198829 0.110282734 -0.012642264 -0.21315849 -0.17738608 -0.054073635 -0.27329984 -0.037722837 -0.044554397 0.2723178 0.21886861 -0.3963626 0.18496539 -0.2606262 -0.27849624 -0.07973361 -0.30777633 -0.012264476 -0.20774817 0.043811474 -0.08569023 -0.2277746 -0.1753704 0.13027142 0.026508583 0.1385007 0.045197412 0.10701057 -0.0147932395 0.098861285 0.08311854 -0.023021486 0.20439713 -0.059106816 -0.08464252 0.18449414 -0.04436689 -0.13983858 -0.2864597 0.0032937028 0.014251196 -0.085273676 -0.112516224 0.2851527 -0.009708332 -0.16747497 0.37317684 0.30065197 -0.034498602 -0.009794672 0.25207704
770 0.37960184 0.2846326 -0.19115874 -0.096770525 -0.10546516 0.046272743 0.114796996 -0.068876505 0.1623275 0.099375464 -0.012085859 0.22057009 0.20164126 0.29262298 0.071234584 -0.2530728 0.002015384 -0.23878393 0.073327936 -0.22781032 0.07508992 0.32246235 -0.12768668 0.08397599 -0.13158876 0.14789508 -0.07945141 -0.09053876 -0.1615998 -0.34742746 -0.08695642 -0.02041834 0.11744832 -0.14813603 -0.24423173 0.0045709163 -0.26373872 0.07526326 -0.4135866 -0.078960374 -0.035839923 -0.31178334 -0.09863964 -0.021655872 -0.10735776 0.24072011 -0.20861837 -0.030497883 -0.106514126 -0.07787289 0.27072996 -0.04075696 -0.01820096 0.0015309359 -0.007618573 -0.021326136 0.0008435088 0.05573893 0.04787651 -0.032689262 -0.09705123 -0.13028912 0.049427062 0.17946266
2420 0.4015777 0.1922055 -0.06981583 -0.078896336 0.030907199 0.06825495 0.29703858 0.16081035 0.35287595 0.07645281 -0.10595666 0.43384525 0.12173289 0.2057628 -0.37171522 -0.014666269 -0.039433528 0.030376337 -0.06952108 -0.39267945 -0.15831257 0.17020905 0.16374177 -0.002213448 -0.36403 0.14771739 -0.1825725 -0.32720068 0.012912683 -0.40726843 0.1267848 0.260451 0.018134259 0.08053802 -0.048318688 0.14626843 -0.066048265 -0.051963996 0.12468689 -0.28852966 0.09282783 0.0837939 0.12317518 0.17646861 0.015338612 0.2536904 -0.39910373 -0.044361822 0.02844967 0.04462737 0.19922332 -0.23333906 -0.17694628 -0.14079864 0.14365847 -0.2456486 0.24629177 0.07451752 -0.06093315 0.233439 -0.009214128 0.02414986 -0.0114204595 0.18884413
2041 0.22246973 0.4545135 -0.08869464 -0.094377674 -0.17922059 0.061057106 0.010950735 -0.013385971 0.19970019 0.4088839 -0.08298052 0.04233945 0.24894714 -0.035209414 -0.0110957865 -0.25707358 -0.23573603 -0.08032617 -0.09097072 -0.31201842 0.0891937 0.028250655 -0.08301586 0.015620513 -0.1446776 0.19350052 -0.267253 0.30458695 0.32454696 -0.1832535 -0.05801027 -0.13871592 -0.13520972 0.010622748 -0.2818825 -0.18229862 -0.13092174 0.1631353 -0.3253836 0.065454245 -0.015288432 -0.16766612 0.04349553 -0.0300421 0.19840258 -0.040098425 -0.094589286 -0.10543231 0.10379183 -0.040471196 -0.0013439177 -0.27593425 0.08600218 -0.1451429 0.033825923 -0.18303709 -0.0054254904 -0.124545485 -0.008772232 0.08363689 -0.13070717 -0.12951611 0.04187628 0.2500389
2693 0.32324666 0.13853866 -0.0062953862 -0.012969566 -0.24143106 0.057050362 -0.08894597 -0.10039683 -0.017208358 0.1563948 -0.010793229 0.087556675 0.3181575 -0.11567696 0.30795947 -0.2424385 -0.013729345 -0.109625906 -0.28221694 -0.32470685 -0.07375875 -0.004345526 0.20657529 0.010227504 -0.25477052 0.06532881 -0.3631775 0.093698844 0.114535116 -0.3691423 -0.128991 -0.23784734 0.03252676 0.13988374 0.016662963 -0.037754815 -0.14896587 0.0826289 -0.15403739 -0.26189634 0.15250789 -0.17112158 0.09042764 0.11211869 -0.054762606 -0.08405608 -0.118261844 -0.014091295 0.14529045 0.04950379 0.16907476 0.003167507 -0.09246899 -0.080352746 0.009131409 -0.36465856 0.022087289 0.10987774 -0.24192889 -0.0015399243 -0.188224 0.0637136 0.07946096 0.36670265
1614 0.2424173 0.1669919 0.008725461 -0.13604617 -0.29751045 -0.1496562 0.082816325 0.24205644 0.10756036 0.23632705 0.021041783 0.08083867 0.40732026 -0.35129055 0.16760613 -0.15524812 -0.052862134 -0.05816309 -0.05036866 -0.5309763 -0.25175124 -0.07813604 0.07106778 -0.1551249 -0.072398774 0.12946174 -0.17718606 -0.24554402 -0.01746814 0.06295202 -0.14775372 0.07370142 -0.123741984 0.24552059 -0.28686297 -0.08335753 -0.07564482 0.14409193 -0.14108834 -0.02504666 0.10532493 0.016489526 0.013583011 0.12855743 0.015219223 0.035852667 -0.30902785 -0.16308987 -0.12802285 -0.23036663 -0.07554772 -0.20649524 0.18187685 0.035780326 -0.005988336 -0.19948731 0.1487453 0.17458852 -0.14906192 -0.25905702 0.06482253 -0.08108368 -0.0878834 0.1801719
1802 0.24984717 0.18981722 0.07817757 -0.21851903 -0.12900598 -0.039310493 0.14810371 -0.08933623 0.23559064 -0.0219948 -0.086146824 -0.0029966848 0.31156224 -0.14303312 0.20952384 -0.10690087 -0.18859254 -0.04482737 -0.17978126 -0.20436224 -0.007433396 -0.060079094 0.028318238 -0.16474807 -0.042028375 0.08744955 -0.022629041 0.15867005 0.110532925 -0.13700604 -0.3298083 -0.08430631 -0.0042344527 -0.21094276 -0.26713893 -0.11743434 0.0062335134 0.32046852 -0.09647749 0.07948873 0.25615802 -0.24330544 -0.106004044 0.26326236 -0.0403842 0.011485637 -0.19734204 -0.1108975 -0.08946108 -0.09659458 0.1996356 -0.14539412 0.14235257 0.043424577 0.016773697 -0.11787805 -0.15862666 0.33240893 0.050752003 -0.08921464 0.18414243 -0.11639494 0.13704138 0.467164
2038 0.19705227 0.26494464 -0.10912314 -0.056827206 -0.07548026 -0.42870453 0.09398108 0.22343062 0.12827341 -0.025941502 0.07679246 0.16835634 0.23175612 -0.084347144 0.061555013 -0.13746077 -0.13859206 -0.1753476 -0.166355 -0.27686667 -0.12687084 0.10270789 0.17561288 -0.07516668 -0.31517065 0.1501584 -0.10400212 -0.21983966 0.15968846 0.06305836 -0.014179111 -0.39377275 0.05681122 -0.03719073 -0.29234958 0.16624972 -0.10570336 0.07500878 -0.03413022 0.041436836 -0.0039966665 -0.18685079 0.07011294 -0.012154633 0.12509678 -0.04899697 -0.42706135 -0.030923037 -0.14923663 -0.027249215 -0.2032147 -0.17269816 -0.12369045 0.18128388 0.11168852 0.19350493 0.082816884 0.17130324 -0.06976996 0.01513974 0.31066382 -0.099953644 -0.019512244 0.25305504
1127 0.09346229 0.18651035 -0.1841615 -0.18877439 -0.37565878 0.19239175 0.13468587 0.115646645 0.17626512 0.22775471 -0.1128248 0.1438235 0.28988665 -0.23441122 0.25953317 -0.11740652 0.092167705 -0.38784522 0.22822475 -0.20581602 -0.08202453 0.052295104 0.19212285 -0.072901286 -0.06276742 0.14562215 -0.08166196 -0.037472636 -0.017338216 -0.2449874 -0.15353411 -0.32198796 -0.01941505 0.00548197 -0.0445708 -0.015593571 -0.11344845 0.14163893 -0.29367673 0.00906138 0.18195838 -0.38190535 0.03941704 -0.0030195103 0.03528761 0.14598776 -0.2569227 -0.3792894 -0.0014343499 0.03113589 -0.0060665715 -0.16229406 -0.054576963 -0.049034003 0.0750504 -0.1428913 0.013756843 0.046692558 0.114404865 -0.046284746 0.025982538 0.016542073 -0.2454578 0.45457995
1054 0.4997704 0.1702923 -0.16144809 -0.051289674 -0.059080824 0.32222384 0.10622982 0.0458622 0.2634093 -0.04567889 -0.07082546 0.10257666 0.3024385 -0.10717073 0.09505269 -0.13164191 -0.14133674 -0.10963836 -0.15963413 -0.2488369 -0.036007773 0.14008467 0.1260071 0.11313801 -0.17423537 0.16389301 -0.21245539 -0.09533709 -0.034130856 -0.06404223 -0.3207927 -0.14133975 0.10027791 -0.0029020275 -0.2689634 -0.22648147 -0.15112375 -0.10924925 -0.047111195 0.29631338 0.3005147 -0.13532807 0.21354367 0.04995751 -0.060802326 0.10697634 -0.07423581 0.11062328 0.076742984 -0.123206005 0.16853364 -0.18757975 0.05767715 -0.10171035 0.20993926 -0.005374953 0.24021788 0.015554816 -0.12872484 0.13879283 0.025823105 0.13930137 0.16999516 0.13212653
2027 -0.05349912 0.24511525 -0.17360833 -0.061305046 -0.21984537 -0.096148 -0.20302977 -0.14170982 0.40695253 0.280981 0.34596705 0.34033585 0.32749498 -0.154275 0.29483593 -0.09814176 -0.2819408 -0.26038802 0.1346001 -0.21183252 -0.2376267 0.21387497 0.1393718 -0.11778938 -0.20398647 0.034352686 -0.3218559 -0.09625487 -0.18251354 -0.25398552 -0.11373572 -0.39498508 0.1244924 -0.09121301 -0.13763553 -0.17396888 -0.15210158 0.18334103 -0.06199678 0.06647194 0.38444376 -0.06018028 -0.0688388 0.07474761 -0.1614399 0.34269953 -0.3380005 -0.040289484 -0.03492833 0.011191599 0.18330759 -0.124909304 0.10015979 0.05597583 -0.0020121804 -0.014667969 0.027041657 -0.17066845 -0.116487935 -0.09960382 0.08458522 -0.25636584 0.22424215 -0.074266136
2438 0.16761635 0.2630016 -0.02617753 -0.2284954 -0.25172454 -0.0047384053 0.1476048 0.25065348 -0.015412638 0.13603972 -0.011330812 0.1684689 0.23941785 0.24393176 0.11195817 -0.11918279 -0.10708737 -0.23959987 -0.21418908 -0.15234332 -0.100848235 0.32485378 -0.03380281 0.021580014 -0.21509643 0.25372338 -0.33733994 -0.11677653 0.08551581 -0.3508404 0.08922953 -0.14952244 0.14539734 -0.043114755 -0.451393 -0.048898835 -0.027026359 0.036343485 -0.08489671 0.11762334 -0.03386899 -0.24126218 -0.026499955 0.12283501 -0.006164232 0.1861602 -0.17994653 0.10320149 -0.12575637 0.14848036 0.014631743 0.05458034 0.008348693 -0.08375316 0.048159797 -0.16933638 -0.07836104 0.0024772438 -0.24071513 -0.16223541 0.0076248236 -0.04454488 -0.13714603 0.08308909
2343 0.28264695 0.3971383 -0.10988333 -0.21095191 -0.17334908 -0.18661836 -0.06573734 -0.12459658 0.06450977 0.1655097 0.077777125 -0.008268122 0.3042998 0.08208746 0.10446415 -0.15151353 0.055395953 -0.082984015 -0.24123502 -0.34514025 -0.1303307 0.14518282 0.24899355 0.06333408 -0.16131954 0.11685909 -0.2544766 -0.15496545 -0.25914782 -0.13236433 0.03206522 -0.06558929 0.035324086 0.04353422 -0.36449027 0.04544296 0.1269135 -0.05888791 -0.111300826 -0.027683282 -0.031405192 -0.39491382 0.25956103 0.011169246 -0.01570018 0.12756704 -0.24362637 -0.09731445 -0.103533044 -0.049083844 0.17030324 0.06951478 -0.22279334 0.052412815 -0.15306532 -0.10873004 0.07234884 0.040462133 -0.16748226 -0.045766182 0.10741547 -0.0128245065 0.023339296 0.27871737
775 0.25025883 0.06109367 -0.11761661 -0.05042789 -0.22128695 0.051411286 0.20279941 0.15503712 0.109727055 0.08233672 0.06957987 -0.014108491 0.49411997 -0.17304057 0.3264982 0.15953457 0.07372531 -0.18657267 -0.12481166 -0.33825108 -0.026067605 -0.18603742 -0.077590615 -0.34122437 -0.14218101 0.20183316 -0.47534904 0.1252066 0.21693689 -0.24377453 0.047213018 -0.2157151 -0.08112878 0.050373267 -0.18200302 -0.27980694 -0.17373139 -0.15556675 -0.20290403 0.16979 0.11348226 -0.15768585 -0.088168085 0.09506326 0.06366384 0.14508209 -0.08841139 -0.10533325 -0.10101472 0.120558985 0.014134774 -0.03652066 0.012616025 -0.28380662 0.06277057 0.0571057 -0.257887 -0.1161864 -0.027758308 0.007971075 0.24414735 -0.026479416 0.13639936 0.17468916
1310 0.17064631 0.26273394 -0.29460442 0.029422421 -0.10287064 -0.12720919 0.08288005 0.10073688 0.20922454 0.13376004 -0.0029599566 0.33133155 0.16059977 -0.023583097 0.090768345 -0.05394319 -0.11428118 -0.13410458 -0.0124679785 -0.21848378 0.011701607 -0.13952398 0.3335518 -0.30423212 -0.15021221 0.16925591 -0.12921618 -0.0019491379 -0.13424216 -0.20601386 0.055431634 -0.294543 0.06002306 0.06602205 -0.24812451 -0.20935385 -0.12853505 0.020013053 -0.076756775 0.24325465 0.05414844 -0.23538786 0.03853487 0.04221372 0.046271037 0.19496372 0.04955345 -0.031066056 0.048128568 -0.21083775 0.26894838 -0.18416768 0.11930108 0.27070242 -0.04213285 -0.14532323 0.08505537 0.014664022 -0.13229252 -0.12578508 -0.0835972 -0.027123306 0.108845234 0.42024383
875 0.16162604 0.16475162 -0.16332649 0.06898227 -0.14427178 0.025023634 0.10573825 0.006975478 0.19130363 0.18429506 0.36732575 0.17841819 0.24707432 -0.11370705 -0.047594145 -0.07377561 -0.32784718 -0.13000144 -0.10213395 -0.16972518 -0.049556017 0.1778654 0.14654914 -0.12790059 -0.14271937 0.34365168 -0.09270445 0.035663735 -0.11986629 -0.13493098 0.07295738 -0.12516727 -0.05485819 -0.027578672 -0.26041877 -0.17371917 -0.26050135 -0.08262811 -0.055810407 0.056676954 -0.024656903 -0.27695692 -0.052037816 0.13953148 0.06649004 -0.07442168 -0.09931027 0.05275801 0.21826513 0.1709226 0.056575056 -0.099807784 -0.084720895 0.04642228 -0.17620002 0.18001299 0.15343238 0.03020887 0.061415486 0.15373595 0.095704965 0.033516705 0.48385805 0.45731553
19 0.28342524 0.27459115 -0.0980533 -0.3440801 -0.09932592 -0.026101837 -0.11688403 0.04349596 0.06261831 0.11559675 0.08579832 0.06812201 0.10591501 0.14009143 0.10586868 -0.19288673 -0.19064492 -0.39953074 -0.29574016 -0.14551832 -0.24996531 0.2648657 0.10165069 0.021812644 -0.2749904 0.24160062 -0.00249464 -0.051014278 -0.057227846 -0.04274254 -0.1523166 -0.30431047 0.08794674 -0.06734693 -0.24808787 -0.16832517 -0.19238468 0.32541916 -0.3364384 0.27855438 0.040878166 -0.2595068 -0.054778315 -0.056102168 0.17152512 -0.14316818 -0.17952721 0.104460165 0.09611333 -0.30129197 0.01688851 -0.08043563 -0.21623039 0.0013676139 -0.17692874 0.07797432 0.15328422 0.18999667 -0.11410596 0.08641407 -0.17386203 -0.084780596 0.082645915 0.45531404
1681 0.038418956 0.35470653 -0.13692208 -0.021229835 -0.2679628 -0.04601461 0.15250497 -0.093325414 0.3000311 0.0383562 -0.08813516 0.17096746 0.1415729 -0.06944319 0.1130075 0.08463765 -0.38386214 -0.31136397 0.16634823 -0.45469552 -0.07448582 -0.15254912 0.19496721 -0.296393 -0.07199871 -0.06828011 -0.21601865 -0.04660614 -0.037261784 -0.035616864 0.056471583 -0.09375836 0.089182995 0.12226394 -0.23037012 -0.0071046194 -0.019400608 -0.03533358 -0.3007512 -0.27769846 -0.08855679 -0.09414055 0.1125924 0.1302653 -0.075337894 0.28103113 -0.34584486 -0.13565585 -0.027057916 -0.020183023 0.12752254 -0.11579378 -0.12940547 -0.27747676 0.22993761 0.08706132 0.030174647 0.16505793 0.23546614 0.22030826 -0.011316703 -0.034261763 -0.04978046 0.18721667
226 0.23195554 0.3218831 -0.18915215 -0.14986013 -0.44837737 -0.19249651 0.26952958 -0.04955839 0.19451861 -0.043652017 -0.23283502 0.10536654 0.29334074 0.016953861 0.12840295 -0.13471766 -0.11843359 -0.063344605 0.11525567 -0.1691203 -0.12691818 -0.031506192 -0.21312019 0.06826898 -0.18614021 -0.021581208 -0.29299307 -0.33383897 -0.10936853 -0.29284945 -0.10821924 -0.20119019 0.26276508 0.14945637 -0.070136726 0.058442347 -0.09939842 -0.06833442 -0.14032295 -0.0005307846 0.022635348 -0.26684752 0.044411134 0.011527053 0.051569026 -0.05441717 -0.23198909 0.034003694 -0.25936303 -0.018683823 0.0832095 -0.23471749 -0.08177447 -0.00025885127 -0.032938898 -0.04515142 0.17322645 -0.03719833 -0.17545661 0.2986484 -0.0014549398 0.080240496 0.19831549 0.4939997
1541 0.28148836 0.32054225 0.0017898711 -0.28612366 -0.109892644 -0.0526785 0.13296947 0.056901813 0.12695006 0.011934939 0.22193563 0.07935006 0.1009016 -0.18166047 0.21441603 -0.19390967 0.047043182 -0.039523676 -0.20500638 -0.3575692 -0.13821507 0.08980948 0.04930204 -0.2538152 -0.07311551 -0.06256328 -0.06457178 -0.05713994 0.19605026 -0.34203485 -0.06666663 -0.31829682 0.06286635 -0.062984794 -0.4340607 -0.15045342 -0.023024375 0.30146083 0.020352578 -0.2334736 0.28365073 -0.33976007 0.04236923 0.09981083 -0.08417559 0.099565804 -0.19168429 -0.17376082 0.13136761 -0.0727123 0.062824845 -0.20517772 0.01882398 -0.054797657 -0.022522002 0.0224456 0.030303197 0.280839 -0.11873557 -0.18032697 0.23976119 -0.09757796 -0.03115217 0.16641492
568 0.19179259 0.20367797 -0.091670215 -0.18805756 -0.16810219 -0.25535527 0.02346556 -0.1340669 0.11852196 -0.09573631 0.05866304 0.20261045 0.3599412 -0.20484608 0.091241255 -0.20334296 -0.073375374 -0.20906493 -0.110249564 -0.2198992 0.028186517 0.18158443 0.043980334 0.016279152 -0.32673076 0.33405432 -0.047865387 -0.016561475 -0.10785473 -0.213982 0.044638675 0.02136662 0.2660524 -0.027164275 -0.20267776 -0.13897285 -0.30899438 0.040806003 -0.029962003 0.040614277 0.12867145 -0.22954048 -0.29511154 0.3144115 -0.2804692 0.20111123 -0.3189058 0.006915666 -0.100122176 0.0065168943 0.31338438 -0.09006486 0.14959008 0.050782897 0.08100869 -0.24955201 0.03633293 0.1903165 -0.25634253 0.009965573 0.23598768 -0.34813818 0.1666221 0.20610236
1147 0.3638983 0.21619296 -0.09954299 0.0708045 -0.28609797 -0.053160045 0.04219318 0.20023023 0.091130584 0.06360535 -0.19561474 0.08088462 0.3761341 0.08988091 0.06909869 -0.18516505 -0.20312461 -0.038336154 -0.12590711 -0.38864613 -0.13367042 -0.17199455 0.10130138 -0.0124263065 -0.086823404 0.031930707 -0.12828523 -0.093186595 0.08406387 -0.12771462 -0.096857846 -0.23958574 0.099232934 0.04811118 -0.40324628 0.016794514 -0.01906439 0.11503751 -0.17384437 0.06288548 0.12441461 0.09124028 0.05712752 0.13932356 -0.13087529 -0.036930744 -0.33661985 -0.08251887 -0.11264222 -0.010738246 -0.0018094403 -0.0502607 0.062462196 0.055092618 0.16713536 -0.1446148 -0.11149213 -0.09511276 -0.08016365 -0.13435513 0.095419735 0.051183097 0.12924066 0.32476547
169 0.14279474 0.18069087 -0.18070157 -0.046408717 -0.1640195 -0.029676171 0.19679418 0.06894309 0.20343053 0.22827524 0.040933747 0.1892656 0.7094646 0.1510983 0.12588586 -0.017766159 -0.248821 -0.27725065 -0.18833625 0.00051414844 -0.3765658 0.10829481 0.2558796 0.07478422 -0.139252 -0.009438138 -0.21845584 -0.21328126 0.05159822 -0.048681132 -0.11934723 -0.2335856 0.08642265 -0.032839123 -0.04453354 -0.039364666 0.059949845 0.12941869 -0.13090143 0.21668369 0.031317398 -0.2714598 -0.13985719 -0.016754774 0.15801074 0.060065296 -0.31894955 -0.10006114 -0.10036663 0.10056505 0.1727691 -0.21573977 0.19725104 -0.15595464 -0.08855786 -0.15054135 -0.028482812 0.085349664 0.05541537 0.23395723 0.016626865 0.014742559 0.085362576 0.14059559
1988 0.22994953 0.20823519 -0.029220223 -0.24392499 -0.18956466 -0.052161437 0.16738266 0.0954098 -0.05673283 0.18400076 0.16860786 0.23307037 0.45976067 0.05796104 0.35334706 -0.11239222 -0.0924242 0.008894158 -0.23044635 -0.14820491 0.06292846 -0.061986662 -0.025922941 -0.01942026 -0.15355822 0.09238873 -0.14479631 -0.0445712 -0.0023801203 -0.004789296 -0.12367351 -0.23624061 -0.00979817 0.020549163 -0.2955503 -0.051558476 -0.2631438 0.14347596 -0.15544815 0.10056035 0.2803172 -0.24437085 -0.023065126 0.16088106 -0.1653632 0.22085702 -0.24955381 -0.02550977 -0.07770762 0.17979863 0.13007094 -0.14220749 -0.22973382 -0.06002167 0.05584632 0.16506192 -0.020372175 -0.06826381 -0.17366952 -0.048893753 -0.042235315 -0.16259046 0.053704847 0.41139653
2699 0.12312189 0.36644062 -0.025548622 0.03510247 -0.29572064 -0.15258104 -0.10136976 -0.06734675 0.39450088 0.31437725 -0.148969 0.16803026 0.2787898 0.06063487 -0.15638132 -0.094339594 -0.06618552 -0.023320433 -0.25672355 -0.25250432 0.05566085 0.1640783 0.19492297 -0.0842845 -0.2536524 -0.12609224 -0.31842571 0.017027305 0.027859055 -0.2704662 -0.38973397 0.060293265 0.26667705 0.048641816 -0.17411278 -0.3035767 -0.19848648 0.1277741 -0.02549673 0.04163648 -0.06724491 -0.09506044 -0.08407348 -0.020647157 -0.082620464 0.29202116 -0.24102287 -0.0743488 0.050844334 -0.060594186 -0.19664626 -0.24327575 0.024102522 0.24562916 0.31728914 -0.15414341 -0.2934708 0.33294374 -0.025662392 0.036202487 0.2439778 0.06693993 0.1499862 0.3136842
918 0.22402751 0.27804807 -0.13092875 -0.032008294 -0.35432386 -0.063007474 0.11155864 0.08221571 0.24507129 0.0330713 -0.12182273 0.05852215 0.30337688 -0.061808635 0.0034619076 -0.19733727 0.20406015 0.23204434 -0.054631937 -0.42731008 -0.1619164 0.16831854 0.08533156 0.053868484 -0.07423879 -0.13161936 -0.19734958 -0.104982324 -0.23906475 -0.17625554 0.022355597 -0.2153384 -0.1048684 0.059654325 -0.102305256 -0.054117914 -0.16044314 0.18670197 -0.19791868 -0.051191524 0.1443901 -0.055213034 0.03622211 0.21713103 0.028802585 -0.119854 -0.021297187 0.057231456 -0.019210868 -0.1553896 0.19718531 -0.2592563 0.12820314 0.10211163 0.054024864 -0.40047237 -0.16680193 -0.046493277 -0.18432502 0.14225717 0.012701888 0.002525266 0.39918417 0.41280338
990 0.08637876 0.39477384 -0.19388469 -0.38326237 -0.10531947 0.07281956 0.005356838 -0.09385838 0.12757432 0.4218981 -0.07357155 0.007352157 0.47964576 -0.08532494 0.07562689 -0.03223505 -0.23303644 -0.26843873 -0.03837825 -0.3995415 -0.004129038 0.14489947 0.21543452 0.16698956 0.06904249 0.25428927 -0.22747202 -0.17631668 -0.029003777 -0.14558467 -0.011698812 -0.22936937 0.18255988 -0.19099867 -0.18915698 0.018711373 -0.0978179 -0.04969644 -0.18545124 0.2587446 0.120173894 -0.31875148 0.064451076 -0.08573358 0.19669276 -0.11281802 -0.11778393 0.12382566 -0.0472995 0.09819209 0.039555933 -0.16816679 0.05523673 0.014654692 -0.0441089 -0.13008952 0.07620596 0.15648137 0.016916588 0.17587416 0.18649429 0.044235714 0.018790651 -0.15111613
200 0.45171642 0.14481236 -0.08272712 0.16418806 -0.4588378 -0.08222129 0.22833447 0.018512554 0.1878531 0.15482537 -0.08609876 -0.09232206 0.3799205 0.09753551 0.14033736 0.20542535 -0.07059092 0.013374092 -0.09621321 -0.2076864 -0.19774625 0.40381986 0.083836466 0.21996604 -0.22221608 0.26334137 -0.13109875 -0.0443233 -0.10461903 -0.09208001 -0.007762467 -0.2345421 0.10205145 -0.1301472 -0.30380005 -0.117809646 -0.055228617 0.13642825 -0.13037492 0.026301177 0.16616882 -0.33916897 0.0668085 0.048399575 -0.03994263 0.02452922 -0.14243102 -0.0032326854 0.15492688 0.19987957 0.14063703 -0.10861893 -0.17233025 0.033496846 0.0715883 0.2032276 0.047237057 0.22915314 0.1156392 0.17912473 0.0063135205 0.022426933 0.13192981 0.106472485
2602 0.27076954 0.075574666 -0.029148752 -0.014386029 -0.30257624 -0.051544268 0.41059366 0.17752875 0.2502208 0.08929686 -0.012913363 0.06584737 0.08857214 0.075863376 0.2485143 0.053929374 -0.0057681897 -0.102768965 0.011296649 -0.2311166 -0.119921826 0.109984405 0.14646909 0.27130213 -0.11055758 0.096467435 -0.11407228 0.034312863 0.14303654 -0.37567735 -0.020884711 -0.19622567 0.09130882 0.24689648 -0.05776224 -0.0016891548 -0.05799743 0.14735067 -0.13417253 0.023456413 0.037991952 -0.2654456 0.0148769375 -0.04961819 0.19316816 0.20360285 -0.39471477 -0.10221396 -0.016449852 -0.13567157 0.18641117 -0.1462284 0.02715441 -0.039871152 0.09292695 -0.114398226 0.17045787 -0.014052097 -0.17039971 -0.1189052 0.08062483 -0.047585018 0.33289647 0.49682158
743 0.3334707 0.16870289 -0.07199614 -0.011280694 0.009981107 0.06682129 0.14370775 0.28791916 0.117143795 0.10380179 -0.07241563 0.039332718 0.38051596 -0.02995683 0.06308843 -0.057337273 -0.15934747 0.02655718 -0.25871447 -0.34424838 0.018448165 -0.048959427 0.17721206 -0.024451256 -0.21071628 0.022216918 -0.3208809 -0.036080696 0.07591957 -0.11036241 -0.052375525 -0.13089378 0.076256864 0.2463488 -0.25293916 0.10272883 -0.037120014 0.05362557 0.03291899 -0.06020753 0.12131546 -0.273776 0.18734635 0.032443713 -0.014684921 0.16101888 -0.10019713 -0.09831498 -0.016639898 0.105260506 -0.023798788 -0.055563938 -0.04292962 0.16020581 -0.1273583 -0.15705946 -0.1080599 0.04321326 -0.020100223 -0.030965418 0.096058935 -0.08973452 0.33133534 0.26236904
1692 0.22196074 0.0141738225 0.12752199 -0.051623423 -0.10767566 -0.18321955 0.2459325 -0.2288834 0.16897134 0.10936001 -0.23082955 0.19212034 0.36302227 0.09385523 0.14944708 -0.07329937 -0.20395206 -0.1050183 -0.027209861 -0.42429745 -0.042571828 0.2663971 0.0025765614 -0.03426596 -0.17928419 0.10679375 -0.23267919 0.08143685 -0.020458082 -0.15729627 -0.1879908 -0.28717455 0.01593578 0.025547056 -0.18385425 0.20057803 -0.28448278 0.015169901 -0.17079388 -0.005274511 0.39524418 -0.25611806 -0.00028873558 0.18122119 -0.06841307 -0.021605402 -0.1695765 0.12305054 0.21113859 -0.17268312 -0.027769703 -0.09160262 -0.035778537 0.08658055 0.013449415 -0.2214154 -0.12395933 0.15291557 -0.17245223 0.11603991 0.04551448 0.15103123 0.015611172 0.066044286
2566 0.23633973 0.44266337 -0.06471683 -0.030968804 -0.14790796 -0.009367066 0.25268134 0.0509236 0.23474848 0.17594266 -0.0417332 0.022055568 0.33646408 -0.069106095 -0.11433816 -0.07068967 -0.23957136 -0.071462795 -0.18210076 -0.24334782 0.0019540999 0.17482278 0.020488378 0.016071482 -0.32012495 -0.057765935 -0.3510992 -0.16325173 0.08420283 0.09022913 -0.0968229 0.022162303 0.14286843 -0.027684676 -0.27570632 0.052328218 -0.27340743 -0.19974814 -0.24325198 -0.07737472 0.27230427 -0.058781132 0.21160208 -0.11148886 0.13759287 0.07720448 0.0134787625 -0.0022097232 -0.022474788 0.18889545 0.31123847 -0.1860001 0.08852457 -0.033292107 -0.03760868 0.038695198 -0.27662054 0.006216864 -0.06514193 -0.03661452 0.043452922 -0.06477099 0.023584303 0.3144652
1450 0.32782438 0.030404443 0.058826208 -0.0066281203 0.03752662 -0.26440603 0.16714089 0.101657234 0.1279619 0.07867271 -0.047067385 0.19343878 0.40598118 0.08748484 0.076533206 0.10496174 -0.36047032 -0.1998332 -0.04735696 -0.3161087 -0.10431445 0.11289199 -0.04183697 0.08668154 -0.26107576 0.24783456 -0.23717107 0.037745725 0.06876968 -0.31898186 0.050777517 0.0052429643 -0.061985586 0.09585138 -0.21676546 -0.18631323 -0.16484584 -0.09512692 -0.15062498 0.057417758 0.058391973 -0.11985008 -0.061259642 0.10732894 -0.053942252 0.018752053 -0.23229203 -0.0540211 -0.0016816772 0.088930435 0.13521974 0.03122607 0.14649999 0.0732749 -0.10825821 -0.07081094 -0.11382342 0.02637339 -0.057982784 -0.108357795 0.18415144 0.28052607 -0.021770012 0.42459875
1242 0.22227962 0.28527978 0.027070113 -0.19477315 -0.0101442095 -0.115895875 0.11955554 0.16964605 0.40531337 0.25148448 0.07623393 0.20407896 0.29141846 -0.13685599 0.1231257 0.11378042 -0.11880306 -0.043819163 0.0011909349 -0.38442537 -0.16589496 0.025070535 -0.04994057 -0.029684434 -0.27692974 -0.13008371 -0.20022462 -0.09382276 -0.0397739 -0.24589838 -0.16233543 -0.26112995 0.01075533 0.07395302 -0.25959954 -0.043307412 -0.3879358 -0.07190064 -0.008004974 0.27022153 0.22687083 0.07724 -0.11327527 0.084181204 -0.048064906 -0.020262064 -0.23389205 0.070697084 -0.034201134 0.11489749 0.23419538 -0.18685949 0.04358478 -0.15248632 0.17962024 -0.033528924 -0.036105763 0.24464628 -0.21348508 -0.26935974 -0.10301464 -0.07809699 0.20927024 0.11922085
2565 0.3487209 0.05424152 0.13356203 -0.020881785 0.06744523 0.09000807 0.044020727 0.13800551 0.0025794746 0.12500918 0.083754934 0.18775456 0.3530733 -0.0893389 0.15339 -0.25585547 -0.29016042 -0.3216032 -0.28108925 -0.29333892 -0.1280036 0.06880843 0.21060373 -0.10898152 -0.009236722 0.21127307 0.022784265 -0.25922662 -0.0935303 -0.5175318 -0.05363227 -0.2051906 -0.07716943 -0.22378436 -0.087260455 -0.11418365 -0.20059939 0.014230577 -0.27607083 0.045297537 0.19772148 -0.17181984 -0.1833893 0.24217576 -0.1652879 -0.19743098 -0.09058258 0.13964549 -0.036378145 0.053170282 0.23791172 -0.14136508 0.097583905 -0.020350708 -0.1694019 0.047763575 -0.030881759 0.092065424 -0.03718284 0.06688913 0.08451661 -0.21478795 0.23607256 0.40792695
2607 0.46473348 0.3054765 0.068698786 -0.1935678 -0.02695742 -0.011362575 0.27993944 -0.08689178 0.19961302 -0.018264482 -0.11269383 0.047021214 0.3254165 -0.045197252 -0.035404813 -0.19449928 0.027132161 -0.25132573 -0.2913851 -0.45842555 -0.019713782 0.07759958 0.24119584 -0.2800462 -0.19498686 -0.015595782 -0.03685993 0.18553767 0.19737594 -0.2673964 -0.19514625 0.006701278 0.063001506 -0.06890729 -0.18989901 -0.024065789 -0.20198551 -0.26397535 -0.15537588 0.052137688 0.10929191 -0.088673644 -0.25798285 0.12879601 0.09468569 -0.019951371 -0.22063705 0.042043697 0.1356453 0.10484826 0.12930124 -0.080599464 -0.014309694 -0.09049889 -0.07775907 0.02690862 0.06270596 0.07767328 -0.17312321 -0.058875676 -0.250599 0.012447688 0.20847473 0.31860074
2534 0.05805741 0.22186767 -0.06991843 -0.17367862 -0.15932783 -0.20690264 0.30945805 -0.056085367 0.2955544 0.08694486 -0.0668476 0.21856616 0.35007277 -0.2338497 -0.13637078 -0.12308764 -0.05876331 -0.028643519 0.10999193 -0.5610868 -0.11103257 0.092871346 0.047813553 -0.14844699 -0.22669294 0.060974482 -0.13198085 -0.16192764 -0.19971009 -0.16559765 -0.093129575 -0.23873603 -0.08190129 -0.027813436 -0.06836409 -0.10162045 -0.08123268 -0.037145846 -0.2118511 -0.038219985 0.36563098 0.028170723 0.008035595 0.13635373 0.047533445 0.18470052 0.020919126 -0.16399984 -0.0118727395 0.121102706 0.07345093 -0.1757349 0.07367834 -0.085286096 -0.1723952 -0.21710873 -0.12307327 0.25595295 -0.28185797 0.06902243 0.20401828 0.07390934 -0.1506332 0.05963923
2571 0.23416436 0.2938611 -0.12336322 -0.23109779 -0.21372725 0.021582864 0.26843143 -0.06602047 0.22535047 0.27478862 -0.008707797 0.0873916 0.35911623 0.036091466 -0.013599009 -0.17668287 -0.049087323 0.021039685 -0.22667459 -0.24986714 -0.06521956 -0.16096406 -0.011452991 0.06996445 0.041958094 0.30531326 0.035892084 0.23830244 0.06240872 0.07289428 0.056875575 -0.21035357 0.05165031 -0.16655163 -0.17044033 0.1043322 -0.16299519 -0.23779288 -0.09869835 0.06283034 0.10789727 -0.29692626 0.07285442 0.03242096 -0.20648324 -0.06736164 -0.25324103 0.119837746 -0.16815661 0.15877096 0.15463781 -0.28293902 -0.11119509 0.11478836 0.120631725 -0.18826948 0.25439554 0.13758491 0.03582128 0.1440986 -0.16004166 -0.06694125 0.2518276 0.1913427
1031 0.29779518 0.30651775 -0.144896 -0.43512943 -0.1901881 -0.06513447 0.0020156573 0.07217211 0.5452022 0.22635642 -0.049278963 0.2607115 0.2397507 -0.15905741 -0.054106433 -0.12533581 -0.124465875 -0.051699854 0.121845834 -0.41871583 -0.117235206 0.17142157 0.23853046 0.14567278 -0.004108092 0.09509572 -0.19403742 -0.08830413 -0.041645683 -0.11757157 -0.0348799 -0.06661613 0.10460362 -0.039948005 -0.3868719 0.27937764 -0.060359247 0.053819347 -0.042781632 -0.02673523 0.3698578 -0.009351719 -0.005484425 0.09997845 0.08399196 0.09834492 0.016741669 0.13251089 -0.018718068 -0.047331702 0.25905877 0.22801761 -0.11172337 0.10628033 -0.10630441 -0.03046269 0.12090091 0.012341285 0.06144582 -0.13196509 0.059664857 0.06331799 0.09342366 0.18451302
1570 0.28989366 0.29652557 -0.0970119 -0.17751443 -0.10970249 -0.026199399 0.15587507 0.0043194667 -0.1467896 0.13464946 -0.08280911 0.08847885 0.33022308 -0.120539 0.20094368 -0.1625442 -0.017807318 -0.15161476 0.044679467 -0.18519202 -0.09841631 -0.04478087 0.30931672 0.0108182365 -0.18943518 -0.092148505 0.0027053214 -0.1562933 -0.020963352 -0.07694425 0.05045219 -0.16762154 -0.017358465 -0.038549945 -0.25594097 0.05476721 -0.32662302 -0.014709751 -0.21809314 0.0131126065 0.056888245 -0.019906268 0.017935539 0.114867084 0.016650464 0.06535226 -0.2752191 0.14346355 0.002038135 0.15352115 0.22837399 -0.11450267 -0.004678635 0.04756214 0.08085595 0.0005864364 0.039166678 0.049450833 0.21733597 -0.15720464 0.2966384 -0.10322057 0.22892697 0.35659328
57 0.10328375 0.0860709 -0.17107935 -0.10232896 -0.21492465 0.067688055 0.23306805 -0.035502244 0.21804544 0.11016909 -0.25141037 0.188498 0.2349807 -0.2126574 0.17024876 -0.12000632 -0.020845668 -0.12667796 -0.039273202 -0.4104458 0.15875965 0.012825297 0.09805647 -0.082862005 -0.06755734 0.12555788 -0.14512432 -0.2551438 0.13696393 -0.20707843 -0.09088952 0.0704285 0.15109916 0.10230825 -0.1544623 0.13953958 -0.29746878 -0.06398296 -0.14813575 0.17932178 0.0076038837 -0.16032141 -0.07809875 0.29084957 -0.07546984 0.11425152 -0.06251323 -0.23849984 -0.21597524 0.06274869 0.24684153 -0.17183083 -0.064271376 -0.09333657 0.021263538 0.009723286 0.028898565 0.21420726 0.031269472 -0.011849626 0.039320022 0.065731056 0.26340735 0.4006925
2410 0.07527293 0.2353425 -0.38711357 0.14125705 -0.27877504 -0.083078176 0.25382182 -0.0058475663 0.29316795 0.14532207 -0.07715216 0.1207887 0.37075126 -0.0072472324 0.01872747 0.15851499 -0.26843074 -0.035020746 -0.0073575685 -0.23147786 -0.21047662 0.071329124 0.05635169 0.10100465 -0.09488203 0.11081947 -0.11927309 0.17161496 0.15858352 -0.00886148 0.17907435 -0.17711669 0.0007514419 0.2555694 -0.18955868 -0.014216986 -0.011653322 0.0067661013 -0.24544357 -0.12557171 0.031063635 -0.25578573 0.045316745 0.05311751 -0.05982396 0.223293 -0.14107047 -0.010180716 -0.037028495 0.084399015 0.40692776 -0.18543325 -0.26624033 0.044835594 -0.054253735 -0.03390132 0.048914265 -0.19508937 0.26848158 0.16669556 -0.04038192 -0.11233699 0.07271483 0.34414738
2501 0.3671597 0.09863853 -0.08376388 0.09702228 -0.40588257 -0.12459017 -0.14432767 0.14564034 0.38395572 0.27977225 -0.076344244 0.18111107 0.29118586 -0.06100105 0.08022199 0.04589613 -0.300237 -0.22493982 -0.23401994 -0.35220352 -0.19204663 0.115384415 0.039813448 0.11011244 -0.0886058 0.33536616 -0.27305046 -0.09813709 -0.012087652 0.017094411 -0.13632403 0.08274317 0.025131186 -0.120243825 -0.10770817 -0.03947492 -0.062298633 0.10105351 -0.25100753 0.028032733 0.2634381 -0.18393695 0.052376222 0.083304115 -0.0994006 0.09780132 -0.22549635 0.09710751 0.15165186 -0.09477308 -0.075658835 -0.4004956 -0.07067402 -0.06833593 0.12863064 0.031132217 0.34514174 0.18939754 -0.06451088 -0.10534981 0.005017452 -0.13152052 0.18114287 0.4083186
1997 0.122387186 0.2713072 -0.3481129 -0.049963478 -0.20501754 0.09755282 0.1627281 0.11682822 0.100786276 0.47075433 -0.015799813 0.10984753 0.28109545 -0.11822959 0.06407178 -0.045411848 -0.29416332 -0.09947736 -0.14294389 -0.30850685 -0.017837666 0.019217726 0.35343227 -0.0013452959 0.25572294 0.043198407 -0.307593 -0.014106023 -0.08422305 -0.07178442 -0.031827122 -0.1643208 0.012471713 0.017565375 -0.22484885 0.029805034 0.07112199 0.15061177 -0.10503394 0.112748586 0.0041495883 -0.26377383 -0.2287276 0.20596111 0.036864582 0.16673778 -0.40457425 -0.16366738 -0.01824411 0.08549803 0.16301975 -0.11457921 -0.0760155 0.12021047 0.2326251 0.030333614 -0.11066301 0.201527 0.15056787 0.026499474 -0.14235109 0.06018401 0.08419356 0.22478177
866 0.24395773 0.118409194 -0.071255535 0.018983148 -0.19960248 -0.00054610573 0.052574094 0.17891067 0.21197948 0.037656695 -0.0717393 0.123648345 0.572803 0.03842735 -0.04440406 -0.10778163 -0.10961534 -0.35519677 -0.052296672 -0.21785553 -0.16675799 -0.1759376 0.27556393 -0.2931462 -0.27772892 0.17913029 -0.24711518 -0.15572041 0.009168043 -0.11131729 -0.037437588 -0.23215961 -0.101703025 0.15453771 -0.20709682 -0.24432006 -0.017358977 0.06860216 -0.070052475 -0.09514216 -0.03756458 -0.31736222 -0.032480385 0.12984668 -0.0045912974 -0.025109734 -0.07280437 -0.088003375 0.056533888 -0.005242288 0.233765 -0.13561185 -0.053726554 -0.11450596 0.11846668 0.022226373 -0.05677396 0.17576782 -0.16953546 0.18311538 0.29288688 0.06535897 -0.0020758098 0.40951303
1277 -0.1440918 0.26829985 -0.095780365 0.024900915 0.06257224 -0.29846534 0.2736804 0.121009 0.35798088 0.13948318 -0.066691995 -0.018567925 0.22969665 0.06293989 0.11559746 -0.14605397 -0.20050862 -0.015365791 0.007961558 -0.30635032 0.15744159 0.19311596 0.14976305 0.06624306 -0.13419177 0.22882915 -0.33121496 0.06066494 -0.13675915 -0.112917125 0.033403147 -0.13418312 0.1424055 -0.0155895185 -0.24770834 0.136021 0.053300533 0.119904004 -0.09524312 0.10531569 0.1271593 -0.16629419 -0.02978896 0.20895974 0.1521045 0.07709605 -0.22937371 -0.004684074 0.15519106 0.2626197 -0.034897685 -0.2470675 -0.16144027 -0.08147846 0.09005531 0.024401685 -0.11836137 0.27834544 -0.1659948 -0.0073533542 -0.03937868 0.022165935 0.14908059 0.19741778
2373 0.23666596 0.0795478 -0.11549852 -0.05555214 -0.4202652 -0.07869183 0.101624385 0.18462147 0.14479178 0.113241896 0.13873218 0.30283895 0.2778965 0.074138135 -0.10339844 -0.16498768 0.048073586 -0.030821782 -0.102764435 -0.32659027 -0.018999197 0.012890461 0.03337174 -0.19725505 -0.3143227 0.31127885 -0.09348558 -0.09353621 -0.049015418 -0.19752827 -0.14350623 -0.4777708 0.10092809 -0.01828961 -0.16115661 -0.18813562 -0.044821963 0.16909677 -0.24299115 -0.26042458 0.2978529 -0.2547726 0.15395007 0.080177754 0.02053881 -0.081027225 -0.03140223 -0.09310995 0.05849044 -0.13583326 0.019506076 -0.009909705 -0.035480987 -0.01166987 0.22421338 -0.012556468 -0.10767154 0.20373297 -0.0014679673 -0.013018075 0.13020414 -0.16989172 0.07500478 0.37308636
2118 0.30600682 0.3011985 -0.2887863 0.069670394 -0.07040875 0.06809193 -0.07264981 -0.01155041 0.043677457 0.26187858 0.022780692 0.043872397 0.24610312 0.07189767 0.051449258 -0.018758556 -0.09404253 -0.14317846 -0.024585476 -0.48125094 -0.038325325 0.04242685 0.20859852 0.24694976 -0.3835582 0.09247279 -0.2102751 -0.16137433 0.26875132 -0.04090042 -0.1269819 -0.1269349 -0.07719557 0.10993068 -0.28081632 0.021800933 -0.28198767 0.18358962 -0.06268615 0.012794334 0.10874668 0.015969126 0.32368332 0.0049703885 0.00079844584 0.08824567 -0.18263899 -0.1526716 0.07606622 -0.16198978 0.07438419 -0.14536895 0.09496715 -0.012534204 0.039866906 0.033119187 0.13423553 -0.23501445 -0.13879977 0.17851128 0.23635566 -0.15121435 0.16831417 0.23847663
1837 0.13151543 0.20361319 -0.10183811 -0.33774477 -0.23955753 0.08009418 0.009904232 0.278235 0.46957663 0.062335227 0.046941463 0.12485932 0.2355438 -0.14900646 0.07179201 0.31521282 -0.059746057 -0.21311508 0.10916153 -0.38848105 -0.36963114 0.081356 -0.023247374 0.04069782 -0.019175503 0.17756023 -0.49552408 0.09306896 0.12209573 -0.15034981 0.08032177 -0.18144467 0.24731205 -0.009661579 -0.09395197 0.10542352 -0.17263164 -0.020187054 -0.0990281 0.082825504 0.32635453 -0.026574204 -0.029102338 0.06275894 0.18471381 0.038437665 -0.28704292 -0.08362858 -0.11570344 0.024462469 0.18298174 -0.07756974 -0.13044715 0.23756935 0.15936841 -0.12172693 -0.15108594 -0.07601432 -0.145657 0.16335143 0.18021461 -0.022459134 0.17375998 0.056482233
821 0.25126943 0.27648136 -0.06748725 -0.027290236 -0.14798415 0.0416532 0.1532166 0.17361005 0.11789304 0.23030482 -0.16843551 0.21038824 0.42788848 -0.12240026 -0.020124895 0.025268268 -0.056582976 -0.10534278 -0.12501341 -0.3254069 -0.19073601 -0.012048748 0.20423047 -0.19448432 -0.039083887 0.06795548 -0.03386527 0.053843576 0.31181034 -0.1583087 -0.10876753 -0.1419845 0.15958856 0.11677165 -0.25684327 -0.23316468 -0.06468325 0.1883726 -0.050962616 0.21926618 -0.056142684 -0.3663446 0.072036035 0.08614359 0.08124307 0.12627192 -0.13284203 0.0030446446 -0.17435619 0.19465977 0.06723206 -0.12583876 0.11313598 -0.07437246 -0.035985358 0.01737899 -0.002606821 0.04565677 -0.13529956 0.0129519515 -0.09314113 -0.05817471 0.048630424 0.20240073
1016 0.17632414 0.15813254 -0.13882075 -0.22732109 -0.23314704 0.092338115 0.070772946 -0.04366336 0.18217835 0.30093005 -0.1998591 0.19309458 0.43224764 0.14409411 0.123090446 -0.05926025 -0.19529402 0.022037117 -0.14688392 -0.2266935 -0.07558815 0.10555233 0.31751537 -0.13837641 -0.034574 -0.13353556 -0.32251528 0.11106842 0.06546069 -0.019497419 0.07925953 0.2117211 -0.012593577 -0.12962773 -0.32069644 -0.011950888 -0.225384 0.062095817 -0.042957213 0.034984477 0.14318992 -0.095007874 0.100109555 0.06434232 0.07046508 0.024618575 -0.124568075 0.09213719 0.14601499 -0.18388538 0.14972025 -0.32643142 -0.29393113 0.1346888 -0.05583078 -0.119302616 0.13130802 0.04132835 -0.031647444 0.27161855 0.35603523 -0.0043693823 0.0015835752 0.31604978
653 0.20222205 0.1927511 -0.050953537 0.22833349 -0.31932765 -0.31272504 0.013327849 0.0455478 0.2815633 0.11971045 -0.0059051886 0.18390545 0.14452957 0.24299271 -0.06941323 -0.06759977 -0.32617083 -0.121496886 -0.23585096 -0.3967316 0.016513288 0.19131948 0.15994254 0.06582882 -0.23145436 0.16464722 -0.32666695 -0.087462164 0.0059409966 -0.05110396 -0.08122999 0.23352537 0.1653423 0.17831145 -0.32293224 -0.0938607 -0.110490784 0.17292984 -0.3332274 0.23448369 0.051156968 -0.18264994 0.06817152 -0.01966759 0.13455832 -0.0846913 -0.2650704 -0.15955684 0.10774817 -0.23100948 0.35402623 -0.29613048 0.06806708 0.16500661 0.06639091 0.015654253 0.35065767 0.14114276 0.06736093 0.01699701 -0.08594584 -0.0748199 -0.049128644 -0.019770222
1439 0.22673206 0.17863874 -0.20665781 0.04322899 -0.3903337 0.017349409 0.28661916 0.053302795 0.2231191 0.17144169 0.022341918 0.14734302 0.43295813 -0.04057305 0.0886738 0.0936629 -0.30590177 -0.061445475 0.020632848 -0.33484828 -0.3073571 0.24063526 0.16369022 0.008571493 -0.25996238 -0.24137256 -0.16301636 0.12097912 0.20713997 -0.20942105 -0.16427547 -0.50887895 0.01820564 0.04826646 0.01872955 0.029502384 -0.21376766 0.23265323 0.10002351 -0.034699123 0.20311461 -0.020464292 0.105303586 0.33805126 0.08589683 0.125654 -0.08615027 -0.1529374 -0.076613516 0.005440588 0.20906118 -0.2095575 0.20126775 0.014172408 0.049537066 -0.2842894 0.14423862 0.18912217 0.1197371 0.03435269 0.14853603 0.102465354 -0.1767637 0.18337469
2163 0.01133075 0.313941 -0.17420198 0.074854 -0.19420569 0.07243284 0.22184655 -0.26740104 0.16778114 -0.024930561 -0.16144492 0.061482485 0.058265585 0.084527954 0.2015503 -0.0660951 -0.014952378 -0.18666191 -0.1245721 -0.40611604 0.019061865 0.03005653 0.20932455 0.07253552 0.045997024 0.08467157 -0.20961785 -0.10978668 -0.1610352 -0.23438022 0.07491896 0.33610964 0.3697073 0.14386204 -0.19514623 0.057898633 -0.11012662 0.16538274 -0.41573486 0.097765386 0.26136512 -0.07463729 -0.10138605 -0.065721765 0.04042529 0.096747294 -0.20672098 0.030991446 0.08640335 0.10250992 0.083469495 -0.31598243 -0.0773306 0.0039436882 -0.08666091 0.0022770076 -0.147594 0.062445536 -0.45377493 0.14090657 0.108628616 -0.16695383 -0.04180384 0.22719683
2698 0.16492124 0.36339706 -0.41586667 -0.009110418 0.003709902 -0.008791339 0.09560309 -0.019234603 0.04813969 0.16826822 0.13927655 0.2277485 0.43947846 0.041458134 0.20570011 -0.06485538 -0.058768228 -0.18955292 0.005208238 -0.046255387 -0.004321154 0.032973945 0.23585652 -0.034644138 -0.2828598 -0.09242874 -0.10690446 -0.037472054 0.053327713 -0.35374746 0.08782879 0.054723997 0.29756942 -0.28823626 -0.2868245 -0.081226006 -0.17796169 0.09109653 -0.18458346 0.031757545 0.007952701 -0.008019097 0.04356563 -0.042204436 0.05879981 0.0871273 -0.17036225 -0.09698327 0.20832114 0.043172635 0.039301272 -0.21434098 0.071947515 0.042619918 -0.03232355 -0.26416075 -0.16084678 0.18574075 -0.037208952 -0.07381253 0.33581665 -0.08674744 -0.0117741525 -0.10197712
1445 0.07123988 0.4631358 -0.17378996 0.058352973 -0.15844426 -0.041409962 0.3497488 -0.068537444 -0.025525765 0.16718823 0.054935265 0.018947197 0.27512982 0.064360656 -0.021601796 -0.24016246 -0.33294755 -0.33490193 -0.12669002 -0.30076006 -0.06967801 0.38686714 0.15937127 -0.0059509557 -0.43638915 0.017236365 -0.31091517 -0.079007246 -0.11058111 0.13626927 -0.130461 -0.13624966 -0.10290963 0.023414038 -0.27529177 0.2995136 -0.31947887 -0.3500202 -0.17629702 -0.028446188 0.15368815 0.064967 0.10208568 -0.0035899347 -0.002924449 0.21072009 -0.13694268 0.053559992 0.0405015 -0.07988965 0.07930375 -0.23914427 -0.011289758 -0.13619424 0.14670002 -0.10205523 -0.082052015 0.13277498 -0.10557318 -0.073254764 -0.16309641 0.11450682 0.04032619 0.23789918
1348 0.3076212 0.19103122 -0.14684707 -0.040416516 -0.14204782 -0.16050468 0.06097125 -0.049610764 0.23780492 0.36899415 -0.19364884 0.039793137 0.025207205 -0.010016661 0.13183849 -0.14651458 -0.14659438 -0.2242103 -0.22559951 -0.2025719 -0.11492216 0.016344849 0.2460503 0.007095405 -0.20888469 0.20364736 -0.2896174 0.10900406 0.017529499 -0.069872126 -0.025214823 -0.18447271 -0.020111406 0.07775873 -0.15719624 -0.039629165 0.17160101 0.12330667 -0.086769804 0.15475486 0.05636493 -0.16054557 -0.0684576 0.1726834 0.17129129 0.14927939 -0.30694276 0.12760831 -0.18390882 -0.1272101 0.35295084 -0.07332957 0.12946224 0.029734245 0.2449328 -0.077394485 0.14411499 0.090638146 0.101463795 -0.07286045 0.06974871 -0.029165575 -0.11626545 0.1903457
2369 0.3231989 0.2273245 -0.01989095 0.27367055 0.0053919163 -0.073533185 0.1894191 0.16224506 0.25485146 0.2429463 -0.045579076 0.032298677 0.541854 0.2875481 -0.103254 -0.0863348 -0.39186597 -0.18534453 -0.21080661 -0.09813595 0.01462902 0.08565531 0.09769952 -0.058347646 -0.067159645 0.12407891 -0.22981809 0.03779454 -0.16789562 -0.14856115 0.08607605 -0.11716477 -0.050348766 0.1801749 -0.19621712 -0.031399395 -0.17760749 0.21140124 -0.20341468 -0.04050128 -0.15965748 -0.2551002 0.27841252 0.014269508 -0.16688712 0.08485922 -0.07241057 -0.031544536 0.027090097 0.028439391 0.19182222 0.010745208 -0.070793204 -0.053697918 0.18565305 -0.15136957 0.09844665 0.033635415 -0.16985019 -0.02031024 0.0033793424 0.10002985 0.12621991 0.2613865
708 0.030283308 0.37257484 -0.2763545 -0.040178664 -0.20831104 -0.037685398 0.2783999 0.1053639 -0.07955579 0.116410345 -0.26403403 0.09028268 0.30844948 0.13747884 0.0896546 -0.23402742 -0.21812358 -0.23322445 -0.061339032 -0.40714887 0.024633992 -0.06280709 -0.0430652 -0.24874328 -0.43062833 0.26132998 -0.1804395 0.036446836 0.16455495 0.025325214 0.078347474 -0.012735197 0.19667749 -0.18314813 -0.26353368 0.061890874 -0.22869715 -0.056141198 -0.0053385096 -0.0802101 0.23303199 -0.28856295 0.14297298 0.44370592 0.26312336 0.13090935 -0.0853515 -0.022864517 -0.02180487 -0.15607895 0.36689642 -0.07022977 0.07408043 -0.07268134 -0.026268736 0.07653774 -0.28601158 -0.09414841 -0.110658616 0.30064347 0.015208695 -0.17100659 -0.34585404 0.063131995
1862 0.12492976 0.21389863 -0.02523786 -0.0844995 -0.3663908 -0.02964214 0.14677718 -0.046525594 0.18130678 0.24194168 0.011771262 0.05944559 0.47432974 -0.11004082 0.14476137 -0.2652451 -0.09055381 -0.23292153 0.24828406 -0.43347153 0.15389729 0.050501555 0.072094485 0.08659803 -0.13574284 0.17976727 -0.3313289 -0.044270758 -0.016445395 -0.12184997 -0.023765137 0.030754745 -0.032518838 0.023801276 -0.21236642 0.0020155609 -0.19089547 0.086050145 -0.16461112 0.048737828 -0.04920983 -0.36345738 0.12740459 0.13974082 -0.11595219 0.010382264 -0.31725407 -0.037614156 0.056121927 -0.09184612 0.124386236 0.056851566 -0.13128108 -0.22225745 -0.11486471 0.04042504 0.10634301 -0.04708237 -0.30973437 0.171183 0.11036943 0.020404806 -0.040790085 0.19089116
846 0.10204525 0.17763683 -0.18107294 -0.29867303 -0.065472856 0.046322063 0.033614125 0.11078503 0.26685548 0.37894154 -0.09756751 0.121468954 0.3283903 -0.20462872 -0.20332655 0.064528085 0.033914376 -0.3541314 -0.1808189 -0.28141677 -0.24037753 0.14781779 0.0673891 0.12250958 -0.3164821 0.1445484 -0.10327055 0.009979492 0.11619278 -0.18308806 -0.08259343 -0.39907944 -0.12624435 -0.14848547 -0.35303104 -0.07628268 -0.26743907 -0.028394392 -0.19839153 -0.11694388 0.046985317 -0.17555854 -0.20258518 -0.06478774 -0.024720196 0.22052415 0.027503535 -0.10004621 0.045953255 -0.29880205 0.12473976 -0.04241456 -0.02966308 0.2596742 0.033801638 -0.07202616 0.025320852 0.008695214 0.11383736 0.23293878 0.20516251 -0.17937319 0.10409237 0.046298794
1893 0.13479963 0.3471122 -0.09633391 -0.3584843 -0.042903554 0.082353 0.24569546 0.035740644 0.32294777 0.2998254 -0.14670359 0.08292828 0.28703585 0.035022378 0.06704956 -0.19356787 -0.07992303 -0.11921822 0.17151946 -0.23455939 -0.34547046 0.052415185 0.11122046 -0.06023372 -0.028293492 0.002026178 -0.23307817 0.013231923 0.027826326 -0.22752465 0.03295388 -0.22797558 0.1965476 -0.12067377 -0.38728645 -0.022301687 -0.20767006 0.023097474 -0.028337475 0.0010743131 0.16910583 -0.18457185 -0.102447964 0.1496039 0.013392494 -0.07685543 -0.20426527 0.17949556 0.07957542 -0.23102245 0.32218078 -0.3849452 -0.015891712 -0.09671148 -0.15219407 -0.17956121 -0.14067037 -0.15757093 0.00866872 -0.11162702 0.087145776 -0.11875914 0.21833472 0.09096323
1977 0.25527874 0.0062039015 -0.16276918 0.011816682 0.11464668 0.04798931 0.17140958 -0.06644229 0.20329182 0.11028701 -0.20712535 0.27709234 0.110108845 -0.006185635 0.2043677 -0.23232813 -0.035316806 -0.14005788 -0.07534306 -0.3725887 0.13414854 0.2794393 0.18233451 0.23007153 -0.17419778 -0.055762112 -0.06803774 0.13087673 0.031264253 -0.3264647 -0.166924 -0.25613093 -0.11826606 0.17189938 -0.24758592 -0.09795488 -0.037190136 0.114390336 0.009235252 0.18866415 0.2639764 -0.2300592 0.087918445 0.22451189 -0.01598631 0.0872198 -0.13721456 -0.38613018 -0.023592733 -0.014676413 0.26522473 0.020616526 -0.054332368 0.014534014 0.16599607 0.032188874 -0.07112405 0.27875188 0.09617526 0.19025396 0.09717346 0.28296092 0.33707556 0.328455
1611 0.2975085 0.28389788 -0.18603007 -0.103065714 -0.033233996 0.14113827 0.035340544 0.14028874 0.24059874 0.3430983 -0.03799457 0.20326103 0.28481176 -0.15800342 -0.050416965 -0.036323268 -0.22560944 -0.20146342 -0.11288634 -0.23292735 -0.09222865 -0.024090681 0.024609307 -0.07704833 -0.15020055 0.077855445 -0.24896891 -0.08922046 -0.16250429 -0.24392712 0.2063229 -0.24453399 -0.066331014 0.053084273 -0.51474637 -0.11852813 -0.16439107 -0.04950932 0.107455604 0.0815884 -0.1426397 -0.37428924 0.09410071 0.3727614 0.10292969 0.1539168 -0.12804243 -0.08414112 -0.07487217 -0.08334146 0.18026896 -0.10431548 -0.066268526 0.06590637 0.032603387 0.16613463 0.026708562 0.04160153 -0.07264811 0.06306081 0.12057538 0.034693453 0.028432494 0.12398687
1273 0.19655019 -0.0029321527 -0.32371122 0.05494055 -0.28047335 -0.03876684 0.088680625 0.2902858 0.24986908 0.14541376 -0.3380059 0.2664153 0.33702695 0.12396238 -0.073660344 -0.035036992 -0.37770382 0.0242537 0.091350764 -0.28535572 -0.13153036 -0.06644741 0.24642538 -0.107754946 -0.27890363 0.03243403 -0.13443318 -0.040507585 0.24310768 -0.19230531 0.023151092 -0.21503983 -0.023287492 0.2574073 -0.3485922 0.10432468 -0.11138791 0.09833112 -0.14190681 0.27639487 0.23473935 -0.0060047167 -0.05180208 -0.0009189605 -0.01515646 -0.013928525 -0.04120152 -0.023562996 0.043582868 0.0011746146 -0.22591868 -0.2640351 0.09303377 -0.021207858 0.098188855 -0.010136928 -0.2819351 0.1405247 -0.4399483 0.093044706 0.08885816 -0.34675196 0.24996859 0.21503273
1119 0.2315555 0.40254495 -0.15039036 -0.16881037 -0.24225987 -0.14234255 0.2712809 -0.051991038 0.11156868 0.28188518 0.033825457 0.24919565 -0.13727717 0.08983128 0.033110272 -0.04352018 -0.3121043 -0.21256524 0.037448656 -0.2041953 0.17525335 0.22922054 0.04966494 -2.8058861e-05 -0.13315576 -0.0057732533 0.0527647 -0.004636049 -0.06251255 -0.2680642 0.059973456 -0.13812876 0.07530017 0.105062515 -0.2367625 -0.043009706 -0.3936303 -0.06373125 -0.11403612 0.12483385 0.05814948 -0.0625315 0.068555705 0.07711449 -0.24350014 0.14395022 -0.23191968 0.035896618 0.15640275 0.13560806 0.17787252 0.002430665 -0.12649947 0.07675662 -0.084406026 0.02445244 -0.045360528 0.14407593 -0.17663649 -0.09728726 -0.08748585 -0.11952114 0.063233994 0.43140963
2701 0.114465676 0.23745072 -0.010081622 -0.06602827 -0.23516767 0.024608608 0.29173782 0.17282616 0.27939245 0.15869905 -0.23774838 -0.02552991 0.32370132 -0.0012966793 0.053661324 -0.050526332 -0.018874383 -0.09060448 0.021271564 -0.5354964 0.029238285 0.12073006 0.16582693 -0.0897993 -0.07002702 0.19327085 -0.07995848 0.08509784 -0.104476176 0.0058823177 0.035545863 -0.13394809 -0.0605635 -0.108686596 -0.26411512 -0.106115535 -0.11604169 -0.23392601 -0.07521226 -0.02956449 0.17604798 -0.14279804 0.12183574 0.29798806 -0.11750849 -0.10095424 -0.22441451 0.034040857 0.0701542 0.07042169 -0.06550414 -0.27004942 -0.108916916 0.15221347 -0.006683879 -0.045424234 0.14345193 0.44501984 0.048084345 0.082807764 -0.09989974 0.32196996 -0.02008624 0.2912231
178 0.088541746 0.23865978 -0.16587362 -0.048089076 -0.16276969 0.2709083 -0.013890084 -0.09047636 0.25652915 0.30553508 0.18290405 0.1759914 0.23301718 0.010910214 0.17877626 -0.30464533 0.018810088 -0.23455574 0.064303674 -0.25280306 -0.17394009 0.07429731 0.25701937 0.0741091 0.06461322 0.08419127 -0.085075326 0.06479787 0.12032832 -0.2799673 -0.16784276 -0.118999414 0.092918664 0.16989088 -0.14874439 -0.29689187 -0.11672774 0.0813281 -0.06842839 -0.1404202 0.052122172 -0.24424443 0.07076278 0.0197532 -0.16251253 -0.037309233 -0.3643622 0.1077451 0.04369343 -0.112463556 0.25752577 -0.014474018 0.10220482 -0.1603397 -0.10761794 -0.17347147 0.12409183 -0.013760792 -0.18947543 0.07317915 0.24862501 -0.016584301 0.39068168 0.48018515
729 0.2992857 0.20300142 0.108667456 -0.019528728 -0.28254482 -0.1629143 0.13267878 0.025823379 0.2672657 0.2309403 0.13606553 0.27233005 0.15910207 -0.34054893 0.22789216 -0.028838057 -0.17516215 -0.1650465 -0.14399952 -0.3671004 -0.1265703 -0.20616418 0.19551101 0.05987611 -0.38566408 -0.016004859 -0.25731102 -0.0040565175 0.04967864 -0.38893294 0.18563004 -0.21895155 0.10327202 0.1839257 0.01564644 -0.13060765 -0.1473761 -0.004573477 -0.2096824 0.20230143 0.2396507 -0.13620412 -0.1380779 0.06484887 0.18783113 0.03799139 -0.19197634 -0.10706229 -0.014997559 -0.011122854 0.055116538 -0.21020047 -0.0705613 0.22320807 0.02507888 -0.008507559 -0.049905725 0.30816773 -0.18006426 0.0004915299 -0.06435522 -0.00976328 0.1776059 0.1720427
237 0.31622645 0.30510184 -0.19293958 -0.25671053 -0.22373867 0.23713967 0.058421634 -0.13885185 0.049098115 0.29347634 0.14767025 -0.03572901 0.21908638 0.059316788 0.10269349 -0.035789385 -0.27502602 -0.36060715 -0.25652358 -0.14382371 -0.17923541 0.11985755 0.016033053 -0.0703781 -0.11538857 0.05573751 -0.40434557 -0.033345133 0.083125375 0.16553767 -0.03909264 -0.04549015 -0.10359962 -0.19662245 -0.37335855 -0.03238502 -0.18634611 -0.2288208 -0.32662278 0.26802444 0.12670015 0.065400876 -0.07103348 -0.050382834 0.2864596 0.21369971 -0.34420764 0.10571288 -0.07362622 0.034226134 0.3769451 0.043009024 -0.18625191 -0.06880598 0.23351909 0.079209596 -0.040888216 0.18604048 0.012601153 -0.055857945 0.009200844 -0.0920997 0.07961018 0.050750688
2535 0.07855129 0.3108262 -0.079581566 -0.14496079 -0.10628021 -0.30659387 0.0016027474 0.031711366 0.450516 0.25603166 -0.0030682124 0.1290318 0.23435469 -0.0057354746 -0.040841937 -0.2183693 -0.023372317 -0.13090564 -0.07192586 -0.36030725 0.12576076 0.03998313 0.2345153 -0.109632514 0.039103717 0.049287554 -0.31016603 -0.06644988 -0.15848866 -0.30700392 -0.23674722 -0.19672264 -0.042090584 -0.10007213 -0.30962628 -0.08706895 0.000328093 0.263502 0.10479032 0.02469524 0.09442639 -0.1130398 -0.12284293 0.29258862 0.10197372 -0.13571638 0.07124811 0.30020022 0.1113733 -0.07999914 0.32058722 0.04243232 -0.034431864 0.012453515 0.18559626 -0.05306217 0.041848555 0.15434663 0.056051012 0.030573515 0.24092478 0.3996269 0.08632245 0.16581228
2229 0.14163084 0.28833413 -0.20115596 -0.091745935 -0.034098662 -0.09263876 0.18037082 -0.049335998 0.3493961 0.3440196 0.25403357 0.082548745 0.47862864 0.033845503 0.12235114 -0.06491609 -0.13902402 -0.20179078 -0.05029387 -0.17667103 0.110773526 0.11215037 0.067663126 0.013907107 -0.19038056 0.055471603 -0.0046431893 -0.12228662 -0.3806234 -0.26699537 0.05773696 -0.21552159 0.24152061 0.27511024 -0.2554118 0.08125316 -0.02122213 0.14303908 -0.20559153 0.059104152 0.1235785 -0.16809289 -0.027235666 0.032454148 -0.1700579 0.01877702 -0.22796026 -0.15473774 0.15798256 0.10386783 -0.022249859 0.063953914 -0.07232841 -0.24704997 0.3021361 0.039029088 -0.02215247 0.12791316 -0.007969788 0.04062357 0.00089539925 0.110787615 0.2506888 0.12719494
2555 0.088077165 0.25800452 -0.24671529 0.09489149 -0.20505442 0.15175316 0.027735826 0.03337626 0.0009994175 -0.013438172 -0.08990665 0.121640064 0.38375098 0.08570015 0.071637094 0.021491865 -0.22830954 -0.2670264 -0.14453717 -0.44183454 -0.26240528 0.1141192 0.11964174 0.2657287 -0.19694999 0.14028497 -0.058974624 -0.08492315 0.08450384 -0.12737615 0.14643109 -0.2233651 0.010634658 -0.12051562 -0.27731696 0.2354697 -0.13197534 0.26365837 -0.18256998 -0.106042095 0.13250072 -0.15950361 -0.094167806 -0.04176903 -0.004114149 0.4931966 -0.12645693 0.13812867 0.21048652 0.022067318 0.20900801 -0.24271159 -0.13303126 -0.059104346 -0.10154385 -0.245678 0.12709422 0.14062633 0.14780532 0.11124237 0.15087675 0.13477932 0.01530344 0.27405494
1004 0.20251535 0.09852133 -0.008201432 -0.090549365 -0.28640923 0.040703014 0.012635129 0.14994437 0.23327042 0.21318063 0.0067811334 -0.051805004 0.26879904 0.055604514 0.08510877 -0.1690577 -0.22148748 -0.13324137 -0.20363317 -0.42967522 -0.3238872 0.1615885 -0.103618115 0.11898619 -0.15072456 -0.066315256 0.07929236 -0.055011112 -0.14631265 -0.112462565 -0.15762517 -0.039127808 -0.049432863 -0.04476073 -0.34151027 0.116066664 -0.1757852 0.1395234 -0.2518637 0.04069819 -0.12040559 -0.32539135 0.09508252 -0.03530744 0.12966555 0.17139697 -0.15802115 -0.10685919 -0.021798931 -0.1907008 0.2018906 -0.10974604 0.09594179 -0.17919624 -0.07655612 -0.06354253 0.050331652 0.029078528 -0.035268392 0.038293872 -0.19100432 0.038784403 0.14207074 0.24406381
2064 0.1803462 -0.07161647 -0.27995545 0.048413422 -0.10585726 -0.25006273 0.22941092 0.22872879 0.13294078 0.39431927 -0.19782516 0.10544879 0.27588263 0.1008766 0.08372001 0.035971116 -0.12837319 -0.07730415 -0.1098499 -0.23460448 -0.026790924 0.37135792 0.19101398 0.11200335 -0.15042295 -0.040474296 -0.14316902 -0.20851521 -0.03915134 -0.09321788 -0.030354057 -0.23311552 0.100490905 -0.0276207 -0.2488303 -0.10609687 -0.27190334 0.016717454 -0.14412408 0.08099895 0.053881392 -0.004879201 0.115504876 0.33032942 -0.024612894 -0.09045474 -0.12162858 -0.08851167 0.1429033 0.0034923253 0.14745376 -0.16623332 0.15717252 -0.062264815 0.07541821 0.005203631 -0.045273818 -0.056620255 -0.25680503 0.25917786 -0.061787058 0.2110844 0.12218683 0.23478307
215 0.07500286 0.18117979 -0.26723757 -0.2976334 -0.3952891 -0.32718596 0.0993715 0.17228718 0.23211712 -0.035277378 -0.038590994 0.06294854 0.15755053 0.08299919 -0.033306036 -0.12830202 -0.1346232 -0.114441946 0.005292554 -0.2707979 -0.022945141 0.010121128 0.28535444 0.11542738 0.040774997 0.047056083 -0.20871899 -0.09739155 0.0540854 -0.19292846 0.13019086 -0.12691416 -0.0062990743 -0.067775376 -0.21585938 -0.03340571 -0.15554969 0.12649351 -0.027226388 -0.026424225 0.06298623 -0.16346906 -0.041092504 0.064223714 -0.08473782 -0.060921825 -0.17505176 -0.00571235 -0.16800927 0.0137268035 0.2696848 -0.14768606 -0.14484401 -0.023887677 0.12064672 -0.024377868 0.04160879 0.45033067 0.14437088 0.08954928 -0.05875899 -0.22414014 0.05177439 0.44125268
1558 0.33964032 0.35005933 -0.07751432 -0.203002 -0.03209843 0.03850347 0.21785267 0.097415686 0.18410999 0.015806947 0.08606828 0.047437936 0.12947097 0.10250331 0.26583543 0.091973074 -0.1165555 -0.15102918 0.10879815 -0.34056294 0.10068551 0.14227937 0.13758872 0.16556491 -0.13025405 0.10356515 -0.24329306 -0.29923722 -0.06787001 -0.10076627 -0.0053475546 -0.16742451 -0.09000163 0.13389206 -0.22923787 -0.16229516 -0.23424567 0.22815645 0.15025686 -0.05292973 -0.05880385 -0.17057121 0.1898493 0.1167009 0.05697302 0.21465312 -0.27865943 -0.10902901 0.14488046 -0.09480152 0.16020106 -0.12681405 -0.013954059 0.015143813 0.13856597 0.034829013 -0.018734306 0.048785083 0.0026275164 0.10024394 0.19948599 -0.06017704 0.39502048 0.18649213
2601 0.11401657 0.19429493 -0.07347198 -0.26490033 -0.19395709 0.023349356 0.052447084 -0.13703448 0.33863088 0.13517295 -0.16090383 0.12962744 0.13593936 -0.0874727 0.026571233 -0.21233593 -0.26430073 -0.37871346 0.0077208322 -0.17197797 -0.06522173 0.17817992 0.21504846 0.15706271 -0.051521625 -0.08637056 -0.2940848 -0.12224155 0.049636673 -0.19598705 -0.08183848 -0.19465032 0.06259378 0.072886005 -0.21723394 -0.028061332 -0.32656914 0.06385443 0.14342508 0.20084374 0.01074902 -0.35054603 0.048110656 -0.18366751 0.03619224 -0.08956672 -0.35884702 -0.22021621 0.0524258 -0.020511078 -0.0086918725 -0.25791538 -0.010670678 0.072074115 -0.30588308 -0.00044856864 -0.18947905 0.09567609 -0.05734374 0.2385215 0.24924302 -0.026572922 0.24435289 0.23143002
1815 0.22112933 0.22212222 -0.25350848 -0.12018785 -0.18042451 -0.08674684 0.09135998 0.10777369 0.18642883 0.29880923 -0.12683867 0.1266001 0.05973936 -0.3790607 0.0886206 -0.011972334 -0.13181482 -0.18979298 -0.07831148 -0.314329 -0.080036715 0.016012646 0.2487762 0.08613642 -0.15782116 0.11585185 -0.15659244 0.015414012 0.00912776 -0.15938859 0.3705339 -0.09996003 -0.032292914 0.28532237 -0.267125 -0.058413096 0.11746293 0.13152447 -0.13742447 0.1370465 0.15084761 0.13038251 0.055894293 0.06830618 0.2460068 0.22339608 -0.14618362 -0.03274321 -0.036492843 -0.19186974 -0.07203444 -0.26206252 0.032265596 0.028427992 0.086102754 0.06823589 0.12916368 0.16367918 -0.16253379 0.24653324 0.014914542 0.09471587 0.0794561 0.45749563
1023 0.32154763 0.18582533 -0.18571737 0.15928517 -0.15246703 -0.3998792 0.18581334 0.22400469 0.09838909 0.16811047 -0.16424957 0.034211952 0.48210004 0.018144593 0.18821765 -0.0037671523 -0.0017061052 0.076278485 -0.21945907 -0.23498152 -0.16650411 0.18544556 0.312548 -0.08196001 -0.074332155 0.07058705 -0.19383122 0.032677013 0.018442092 0.034802914 0.008992244 -0.029006546 -0.033492826 0.1030799 -0.22251458 -0.148415 -0.2258502 -0.044393726 -0.11742664 0.025710758 0.055657648 -0.07193534 0.16593933 0.24346657 -0.017959628 0.076402515 -0.2452212 -0.042566553 0.12756382 0.10749751 0.22605711 -0.4556569 -0.22302507 -0.07588659 0.21380188 -0.014817542 0.042306315 -0.14938588 -0.13203654 -0.12418709 -0.04221773 0.06713181 0.20249379 0.020976178
1608 0.29913363 0.27057242 -0.18351018 0.019225676 -0.11130541 -0.026460428 0.016216211 0.0427202 0.123963974 0.12814388 -0.052012946 0.2129017 0.15504129 -0.14852017 0.03208893 0.005155323 -0.030797148 -0.14428318 -0.1259633 -0.46554577 -0.10251109 0.16789338 0.1859325 -0.18078169 0.16579883 0.25327823 -0.14962687 -0.1528828 -0.022840694 0.15250133 -0.035066415 -0.047007356 0.15415075 -0.025926586 -0.42205173 0.094759606 -0.20594914 -0.13062313 -0.24939808 0.20271985 0.18850343 -0.07697464 -0.005909038 0.03571089 0.060764946 -0.05783195 -0.2470072 0.16651863 0.07170443 0.07083237 0.17686333 -0.122204386 -0.16585097 0.04082325 0.08601082 0.030839842 -0.033537246 0.18848974 -0.16336861 0.036216788 0.23324133 0.18093278 0.027686087 0.26389065
1942 -0.12820907 0.17420039 -0.21586107 -0.19103545 -0.3211556 -0.07225485 0.05465857 0.17589381 0.17843744 0.1123298 -0.07850756 0.11527905 0.2618343 -0.045796152 0.1211907 -0.023133056 -0.020395704 0.05777936 -0.17707457 -0.4045584 -0.108615234 0.023294637 0.2022875 0.103693075 -0.27873197 0.05602598 -0.2948122 -0.19174193 -0.04453962 -0.12879604 -0.12754916 -0.3403225 0.071893595 0.033317067 -0.12818043 -0.27430367 0.08560461 -0.0071717883 -0.0972807 0.23963843 0.3679064 0.018218443 0.25648892 0.091735266 0.08651914 0.05952552 0.06080759 -0.06939032 -0.046629105 -0.039594006 0.40748256 -0.046161484 -0.07441 -0.0613271 -0.047872424 -0.041712184 0.15635592 0.13912456 -0.10351049 0.31811166 0.15954715 -0.16946198 0.10161134 0.17573297
960 0.48648328 -0.0055968342 -0.24344987 -0.22813761 -0.23453192 -0.3073808 0.17963943 0.0024784282 0.004561311 0.02830783 -0.09867973 -0.16194884 0.29014623 0.13059805 0.03534289 -0.15011267 -0.17785461 -0.06480402 -0.017101645 -0.22616489 0.10105441 -0.097761795 0.042588662 0.13236028 -0.50984144 0.106353454 -0.42276943 -0.045651123 -0.22110572 -0.054993704 0.047413085 0.06840664 -0.058646813 -0.06217484 -0.41199443 -0.34455708 -0.00825324 -0.018140076 0.02452733 -0.03442025 0.041754022 -0.081364125 -0.073211715 0.1845646 0.039861698 0.114207715 -0.2549887 0.14401744 0.08513163 -0.11420497 0.20498146 -0.11176866 -0.02821858 0.017730443 0.1698986 0.35402316 0.122300476 0.006869716 -0.17165965 0.10343961 0.2223925 -0.15258715 0.2865253 0.2721036
1175 0.0057451893 0.37762904 0.12932679 0.083315164 -0.30131236 0.18799898 0.16048136 0.10890285 0.280541 0.14256197 0.083635956 -0.058944367 0.15950608 -0.07740706 0.19124137 -0.21823345 -0.08283865 -0.24341539 -0.22559492 -0.24490549 0.022816569 -0.079387605 0.032377116 0.08636377 -0.21713048 0.100015566 -0.17444924 -0.10561384 -0.06682277 -0.23018828 -0.059185363 -0.20828089 0.0063089454 -0.03916083 -0.2951973 -0.07795989 -0.28867897 0.1125663 -0.13866633 -0.11953706 -0.088549316 -0.4559501 -0.06825454 0.15400942 0.014062502 0.15809225 -0.2664568 -0.10848033 0.07789879 0.040423576 0.15360291 -0.19159073 -0.07246722 -0.06813934 0.03884017 -0.067864485 -0.043351654 0.14875974 -0.03140884 -0.094689704 -0.026890248 -0.21181469 0.16516687 0.2626407
1814 0.012023885 0.15881917 0.05503494 0.021618491 -0.38759682 0.061248586 0.15006432 0.2573404 0.36223376 0.09327004 -0.04208624 -0.044588592 0.36111376 0.24152064 0.08613188 -0.28411752 -0.2099416 -0.23138474 -0.07857828 -0.23470028 -0.30792633 -0.0915407 0.14745222 0.119069934 -0.034514137 -0.14160909 -0.18251167 0.10420153 -0.09889039 0.018756537 -0.0099537615 -0.06756324 -0.057395674 -0.026792334 -0.17757745 -0.2283206 -0.07614521 0.2063461 -0.3281093 -0.016793229 0.15452203 -0.3265006 0.15012267 0.14534236 0.14003459 0.12266035 -0.26798284 0.08098323 0.054363888 -0.15210153 0.21352541 -0.20533398 0.07847292 -0.17954208 -0.01871889 0.14603296 -0.002852929 0.037630036 0.017177124 0.19270441 -0.0465167 0.15159237 -0.18957503 0.42454043
2600 0.34927103 0.29929882 -0.27076554 -0.026062237 -0.22799121 0.06647102 0.1473837 0.0075459965 0.2872644 0.30473033 -0.02905268 0.09109985 0.32655814 0.103436954 0.11800883 0.1484699 -0.14782077 -0.088926256 0.06826646 -0.17247674 -0.101637006 0.14166607 0.28523 0.096549466 -0.015189221 -0.065994285 -0.15521447 -0.10499452 -0.0902656 -0.2672753 0.030304417 -0.21750636 0.17294237 -0.020861333 -0.3292946 -0.2103571 -0.2115192 0.064835384 -0.21599749 0.01801941 0.11898376 -0.059305895 0.083464764 0.27955008 -0.1601345 0.014816659 0.10624286 0.18878569 0.15179667 0.07673528 0.35971966 -0.09875441 -0.11235747 0.096786395 0.11365507 -0.21355058 0.18694569 -0.04716238 -0.29911068 0.06922442 0.14598356 0.08220314 -0.06488184 0.18536714
2605 0.054000184 0.047438905 -0.1827367 0.10396016 -0.23103267 0.18079211 0.21411145 0.097200595 0.6438394 0.30195335 -0.15925507 0.056828547 0.3790698 0.22847295 0.07389123 -0.00676691 -0.065480545 -0.20008868 -0.15251797 -0.3561082 -0.111089975 -0.010334368 0.0019649044 -0.16195479 -0.30276653 0.08317346 -0.13334006 -0.3012413 0.018461302 -0.033533063 -0.0064539555 -0.090524025 0.07009207 0.22405642 -0.18970819 0.18450831 -0.1685909 -0.06770426 -0.33615756 0.18424357 -0.0023617335 -0.051521868 -0.22537771 -0.09528293 0.025571568 0.00084880885 -0.24893917 -0.09433445 -0.015779397 -0.123982385 -0.03888371 -0.09378093 -0.10109642 0.063447006 -0.07540271 0.07072978 0.07221301 0.034540832 -0.08354653 0.017971197 -0.17018734 -0.059615403 0.083907835 0.24541132
1116 0.3868096 0.061145585 -0.29232213 -0.012989636 -0.2735651 -0.0076294877 0.31218615 0.050088692 0.37824512 -0.080888145 -0.041126117 -0.041178327 0.03703224 0.0060167317 0.18100677 -0.04893593 -0.3445894 -0.026894856 0.07186715 -0.06369575 -0.021187058 0.30560187 0.022064852 -0.21987656 -0.111319736 0.105327584 -0.2780433 -0.22326842 -0.12667863 -0.17971808 -0.13560589 -0.24662921 0.19517528 0.14834467 -0.4451397 -0.12314303 -0.2822641 -0.035818104 -0.15824622 -0.03121447 0.12816066 -0.012563204 -0.15658598 0.11734034 -0.21199909 0.21507725 -0.10911589 -0.0995807 -0.19836238 -0.08413405 0.1838009 -0.34264463 0.07544729 -0.22789344 -0.03720266 -0.04987502 -0.11482338 0.14803112 -0.052702725 0.034068972 0.130282 0.007685852 -0.12671842 0.16130514
1126 0.14059988 0.21731657 -0.09527052 -0.15241307 0.04377421 0.036294743 0.06597788 -0.16243307 0.21154301 0.17821108 -0.042732224 -0.009325035 0.3365237 -0.03617997 0.43260044 -0.14374644 -0.5320888 -0.072223775 -0.019909127 -0.23200391 -0.15647832 0.15547192 0.1396534 -0.12050097 0.0711093 -0.11895267 -0.10687909 0.08085466 -0.1008069 -0.018429259 0.015940236 -0.07791831 -0.06938636 -0.38239992 -0.38287765 0.061460897 -0.19532068 0.008421418 -0.07901972 -0.046752673 0.07348752 -0.43825647 -0.010023935 0.29837444 -0.19711876 0.23862563 -0.3949478 -0.09570127 0.13419509 0.011362921 0.18734474 -0.2802532 -0.11278316 0.24264765 -0.1449018 0.00824945 0.026429087 0.05442613 -0.13097458 -0.016168434 -0.102840565 0.18490073 -0.12792332 0.2505636
1256 0.41668338 0.034404088 -0.0030152514 -0.28206518 -0.24119683 -0.23487426 0.20622993 0.01996675 0.26593542 0.24235092 -0.21311265 0.096611135 0.011550514 -0.12647231 -0.055333916 -0.09401127 0.08652061 -0.16045192 -0.016319912 -0.2459638 0.07047633 0.30016875 0.2344674 -0.39337912 -0.21792728 0.33624488 -0.10394588 -0.25302252 0.017029164 -0.25708228 0.08485777 -0.16642489 0.0043324362 0.088676065 -0.01342762 0.027976133 -0.24240519 -0.09153381 -0.233567 0.01225076 -0.06305693 -0.12826939 0.0025288071 0.29221106 0.2016346 0.1560623 -0.31279925 -0.11186937 0.089282595 0.031768207 -0.009071529 -0.045632415 -0.19694033 0.05469064 0.15605922 -0.03806765 0.27884763 0.15513168 -0.13871527 -0.33291954 -0.13588962 -0.09351233 -0.030057753 0.39200833
868 0.34762046 0.27374545 -0.31709686 -0.20619063 -0.33522505 0.080072746 -0.06078514 0.096509434 0.16834003 -0.061964616 -0.22444893 0.1423673 0.39129996 -0.1716944 0.121481515 -0.20275624 -0.09893329 -0.15376449 -0.023299318 -0.2733174 0.006436844 -0.09945862 -0.24141914 0.098725945 -0.28880015 0.0937106 -0.12741871 -0.0058431774 0.039933436 -0.14023636 -0.06468119 0.056799646 -0.103428274 0.20643774 -0.1557696 -0.008768115 -0.12549062 0.16959323 -0.1156999 0.1546791 0.081399605 -0.15141048 -0.008376774 0.19945315 0.10414449 0.036672473 -0.29478836 -0.026961735 -0.024661437 -0.1243107 0.01301174 -0.32019517 -0.009341967 0.04866459 -0.06927502 0.07357604 0.05032976 -0.08417953 -0.22553563 0.07993379 -0.0018160682 0.13743982 0.20055024 0.17285205
401 0.15273361 0.32287848 -0.12256169 0.07272602 -0.015688438 0.11324413 -0.107638 0.19453958 0.071210474 0.24340396 0.30459246 -0.13521902 0.44984344 0.05070294 0.14512992 -0.101277925 -0.109190196 -0.19068955 0.008849026 -0.33325198 -0.049890682 0.02715952 0.2958942 -0.08301822 0.15864165 0.121855035 -0.28385842 -0.18060122 0.10837638 -0.07148324 -0.08954501 -0.06975981 0.058374926 0.04490758 -0.085857145 -0.012911283 -0.273663 0.13571241 -0.07067754 0.26703727 0.134248 -0.09604718 0.1819013 -0.1426711 0.2056316 -0.14017121 -0.28929648 -0.13547592 0.112146564 0.16219723 0.5111245 -0.22075157 0.119205385 0.039025303 -0.05527973 0.0014622087 -0.05094665 0.24591543 -0.24158852 0.2511488 0.10768929 -0.120664254 0.1806523 0.47747776
727 0.14317769 0.26663256 -0.15010685 0.09671189 -0.10112475 0.06861638 0.09910482 0.120230004 0.3840311 -0.12043226 -0.14094046 0.2080925 0.19984697 -0.022878792 0.23614363 -0.28029943 -0.258379 -0.09678646 0.023531111 -0.25767967 0.029174516 0.09179935 0.13220127 0.0053334287 -0.14205259 -0.23080373 -0.14329538 0.08594271 0.28353956 -0.3347821 0.053742602 -0.46155268 0.11255044 0.009408679 -0.03317744 0.049512133 -0.17505011 0.21351005 -0.12105913 -0.020066025 -0.008611276 0.0125705525 -0.021766875 0.06984216 0.062400106 -0.07081459 -0.3399189 0.17331043 0.14350714 0.19215493 0.16411792 -0.36055836 -0.2124353 0.04886505 0.08642075 0.1152116 0.1819478 0.0037675432 -0.04296972 -0.05822394 -0.053283274 0.20360565 0.056099717 0.49688572
201 -0.022475662 0.3125547 -0.12504065 0.38812762 -0.2608377 -0.16006468 0.3125366 0.04568505 0.16818261 0.06189211 -0.030796828 0.18031947 0.3005232 0.18851687 -0.011818653 -0.32296872 -0.19401796 0.016730407 -0.2079268 -0.3732804 -0.41309226 -0.2129802 0.03687659 -0.081637174 -0.1850674 -0.008285726 0.0044772434 0.18841743 -0.0054623173 -0.0026328377 0.03519568 -0.20428249 -0.09857546 0.0025607038 -0.28270432 -0.022894964 -0.06952709 0.19242324 -0.045499146 0.101633266 0.177616 -0.22318813 0.105554976 0.31844565 -0.08750476 0.20779537 -0.1543864 0.0021162163 0.08656936 -0.17509386 0.2990612 -0.2522093 0.009822049 0.07067614 -0.06774031 0.009151216 0.031897675 0.023744386 -0.041994292 -0.04507122 -0.044896346 -0.11993642 -0.08679414 0.22959144
2358 0.5236923 0.47085983 -0.23864165 -0.19854094 -0.17510077 -0.27011615 0.21616046 -0.0712635 0.15025362 -0.00085551175 0.16903074 0.23272966 0.20138215 -0.035362426 0.10127115 -0.13861716 -0.22772795 0.028563451 -0.00938309 -0.4038745 0.103940085 -0.035126742 0.077935286 -0.0746877 -0.17118685 0.14270549 -0.2645913 -0.29626983 -0.057583213 -0.25182363 0.025306828 -0.050890334 0.019110927 0.14863479 0.077932715 -0.15613292 -0.118634865 0.008405121 -0.0744974 -0.1118412 0.17966512 -0.11654251 0.19842415 0.10221067 0.05650495 0.09575654 0.016999487 -0.13875203 -0.15056023 0.33014646 0.1776106 -0.16095927 -0.25905144 -0.07078331 -0.1481513 -0.062171903 0.06770608 -0.040773645 -0.19979988 0.034155738 -0.21679 -0.055240896 -0.07138065 0.19374555
1340 0.21380974 0.028222466 -0.2098723 -0.11281717 -0.39900264 -0.23828341 0.019106025 0.1540116 0.28197244 0.008449356 -0.13579372 -0.13857208 0.45608675 -0.070634454 0.03271819 -0.0128063755 -0.28771833 -0.14701767 0.017841792 -0.38426173 -0.040820632 -0.047638346 0.23283337 -0.18545921 0.046990797 -0.24525106 -0.1662 -0.12477958 -0.050219238 -0.019892456 -0.04093035 -0.17509136 0.323236 -0.02119843 -0.3020529 -0.13180028 -0.07159637 0.07600753 -0.074541755 0.13298108 0.13023433 -0.23394535 0.20413628 0.13735779 -0.13017751 0.04484578 -0.19190587 -0.114901155 -0.08036731 0.024617096 0.20399798 -0.13503432 0.13918917 -0.113933936 -0.049300108 0.056586783 -0.23078565 0.08249071 0.046483524 0.28880525 0.3284178 -0.07688536 0.028157549 0.30691612
2320 0.11163879 0.22566868 -0.3468705 0.16861965 -0.2716251 -0.061636504 0.25414434 0.11061342 0.18594064 0.22168663 -0.15326007 -0.047590896 0.4794853 -0.0052363034 0.05997606 -0.021497836 0.036643572 -0.23345485 0.010403171 -0.06736991 0.041089155 0.31873146 0.04543831 -0.2253875 -0.18093394 0.051629543 -0.16468164 0.29632738 -0.09505917 -0.05697015 -0.0045594214 -0.15722056 0.22051784 -0.083169565 -0.20228456 0.24483871 -0.124630444 0.11352546 -0.14271224 0.111941874 -0.04437146 -0.21072453 0.017936384 0.12977579 -0.11592285 0.26693448 -0.13422729 -0.05044205 -0.14084618 0.036511987 0.10346054 -0.3392741 -0.02354521 -0.055558003 -0.06669103 -0.025399324 -0.046883672 0.13036478 -0.11407715 0.092951015 0.040189307 0.14886104 0.13825919 0.47603893
2559 0.33887312 0.14428584 -0.064410776 -0.08507076 -0.2080086 -0.16867052 0.24801694 -0.06512876 0.117452234 0.17960052 -0.11454282 0.0010410631 0.38507366 -0.017791187 0.08162514 -0.11172947 -0.14075135 -0.038077973 -0.111012906 -0.3435189 -0.02312894 -0.069123045 0.1826779 0.04228981 -0.15817577 0.23209652 -0.15690978 -0.18980947 0.16767254 0.009582098 -0.15355028 -0.12926428 -0.17452511 -0.041370526 -0.18585528 -0.0962841 -0.18488467 0.09477024 -0.11704271 -0.092841186 0.024750786 -0.12454226 -0.14371285 0.20714195 0.3716127 0.16171646 -0.145808 -0.2054051 -0.14381462 0.21027333 0.42306527 -0.08757658 -0.16173688 -0.13560985 0.1684522 0.016614331 -0.11327235 0.2432975 -0.0600985 0.012365991 0.0096987225 -0.039565153 0.1678937 0.36579168
874 0.14239348 0.2445792 -0.29095376 0.028162716 -0.22521321 -0.30965635 0.29305825 0.26840752 0.07645776 0.19164823 0.0920702 0.18771932 0.12962113 0.18333961 0.029441966 -0.030846654 -0.15792145 0.105379395 -0.09420788 -0.32906455 -0.0304091 0.15547273 0.31622985 0.053986605 -0.05354229 -0.15080042 -0.16473795 -0.06778545 -0.089254804 -0.056451946 -0.015561107 -0.1422442 0.17970586 0.03889098 -0.39950415 0.20014009 0.099850535 0.06618251 -0.04365351 0.27168295 0.2589108 -0.08250294 -0.1283106 0.538683 -0.22090173 0.30327272 -0.31805837 -0.02595206 0.043623198 0.23213269 0.30681396 -0.09111552 -0.10789524 0.09708969 -0.075769864 0.0066249287 0.08092835 0.003692825 -0.055384282 0.14115761 0.3121171 -0.17136188 0.21910308 0.26853102
1502 0.13854995 0.102638684 -0.11668731 -0.21313417 0.06718387 -0.2595113 0.18614121 0.1593872 0.24862613 0.2691992 -0.262377 0.12107506 0.34101492 -0.13063228 0.07977281 -0.09492757 -0.18425898 0.046189148 0.10209048 -0.2600814 -0.024488136 0.15711325 0.293265 0.27601144 -0.17677195 0.31025043 -0.31328052 -0.13550535 0.0289887 -0.28347942 -0.11647392 -0.10280698 0.111104876 0.03481203 -0.31849784 0.18772444 0.1950986 0.13294244 -0.28109318 -0.029001964 0.11676266 -0.017546894 -0.120121524 0.17406213 0.15846667 0.10318625 -0.035940334 -0.05893206 0.16197304 0.08441991 -0.0478695 -0.16832386 -0.10317899 -0.27655464 0.15863854 -0.09692153 -0.03872549 0.07384106 -0.30067337 0.041927386 -0.08131138 0.04649616 0.07885638 0.38620168
2539 0.22299975 0.30311337 -0.13148195 -0.2431883 -0.21741116 0.028176047 0.03108898 0.2010838 0.117534384 0.19168031 -0.038055185 0.17891192 0.22205302 0.06736682 0.06715058 -0.14672625 -0.18443817 -0.28515515 -0.022842897 -0.21183851 -0.11910104 0.10532014 0.06404968 0.10090158 -0.17796022 0.24654509 -0.09954884 -0.00040693444 0.11748022 -0.035178352 0.021393988 -0.3453379 -0.21518384 -0.054530922 -0.29172543 -0.19336024 -0.21591932 0.121837 -0.16047014 0.16534679 0.06599736 -0.15468952 0.0040465537 0.061551344 -0.04172757 -0.038296804 -0.2989433 0.15301003 0.4222249 -0.24287742 0.014635432 -0.30018798 -0.06680548 -0.10778928 0.16333367 -0.15643467 0.076287694 -0.12829565 -0.084066726 0.030763716 0.2664798 0.12455584 0.077560745 0.26046222
2303 0.09167549 0.15156704 -0.19186138 -0.042737365 -0.30657774 0.093919426 0.1995024 0.24588928 0.29938254 0.11193102 -0.21656395 0.109083086 0.17002214 -0.09532367 0.17209265 0.12576132 -0.10578429 -0.042340897 -0.1873403 -0.24642617 0.055627957 0.18846263 -0.0154591715 -0.17962307 -0.3424507 0.22958148 -0.09664992 -0.07702359 0.111287355 -0.32462716 -0.008890487 -0.47984973 -0.14452031 -0.2558629 -0.05902985 -0.20684712 -0.12059439 0.013366188 -0.25075346 0.094390824 0.05105256 -0.2428544 -0.055545364 0.31410298 0.027268425 0.19457182 0.05020757 0.20009242 -0.17424877 0.101683974 0.22427061 -0.30476418 -0.061665017 -0.16787308 0.04869101 0.115989976 -0.008863464 0.16064736 0.05210849 -0.080120906 -0.089771844 0.08408984 0.17236899 -0.012201403
2692 0.0685527 0.32517716 -0.034698054 -0.14949918 -0.5389033 0.15397646 0.05582781 0.28868675 0.085522 0.024343457 0.03090473 0.22170833 0.361114 -0.16062228 0.30018243 0.16633411 -0.17123374 -0.037645966 -0.08641784 -0.14333771 -0.03134973 0.009924929 0.005598983 0.15848677 -0.19682217 0.07167395 -0.16899073 -0.08826606 0.41481045 -0.14085896 -0.34691507 0.06470168 0.0964604 0.1277149 -0.20517388 0.12543285 -0.040575232 0.19633162 -0.14758848 -0.064385526 0.27192402 0.017052412 0.094839975 0.22400002 -0.12697656 0.2500198 -0.26789206 0.13499048 0.0032535025 -0.07971344 0.48166624 -0.16379912 0.0580389 -0.16285676 -0.019172447 0.0014711187 0.3096475 -0.028100606 -0.090499364 0.19393797 0.09422414 -0.2659234 0.2069792 0.37066078
2191 0.10509343 0.30482638 -0.13216649 0.02809808 -0.42296746 -0.08499204 0.28069577 0.08623132 0.43891898 0.10427867 -0.0782608 0.22594987 0.16487107 -0.04212659 0.07722317 0.06596927 -0.22935453 -0.05905745 0.1728382 -0.42339873 -0.11842504 0.20849489 0.29133087 -0.06745359 -0.15950392 -0.022961644 -0.14764385 -0.032121144 -0.28084755 -0.055642985 -0.13891688 -0.12009546 0.1321789 0.24647515 -0.24372558 -0.0204904 -0.16515179 0.15815426 0.06496834 0.094860256 -0.110079214 -0.12741505 0.11447245 0.18458062 -0.014147359 -0.07312941 -0.18636374 -0.025242273 0.047402382 -0.082813576 0.2347955 -0.013257746 -0.2931677 -0.16574581 -0.121278964 -0.16486128 0.0068900506 -0.11649303 -0.14754112 0.0403352 -0.19687895 -0.04807836 -0.03260389 0.29473698
2542 0.21764185 0.24430946 -0.311662 0.04320778 -0.25974047 -0.13314062 0.016435906 0.041195255 0.09429992 0.15678877 -0.082124986 0.22499336 0.26728135 0.05221077 -0.06884678 -0.18066381 -0.15088677 0.031280696 -0.086655304 -0.38056797 0.03569638 0.123218395 0.07951785 0.2093763 -0.23194318 0.1497607 -0.10669407 -0.10413132 -0.013172308 -0.3201874 0.03467298 -0.044296883 0.21521635 0.056282524 -0.20356135 0.038567286 -0.22208573 -0.087253235 -0.26279366 -0.015902082 0.16305178 -0.01772428 0.21788709 0.08222784 -0.021958176 -0.03718282 -0.08430477 -0.1026371 0.011546991 -0.0636022 0.061612796 -0.1969723 0.14734367 -0.058776997 0.33109447 -0.07901724 -0.042830285 0.20095117 -0.07937016 0.080254175 0.0021927953 0.060497187 -0.045056537 0.25844458
1465 0.4397631 0.32642293 -0.11720612 0.29597417 -0.23398086 -0.14468747 -0.061534155 0.050205525 0.1342539 0.009371215 -0.18725887 0.36570558 0.29926544 -0.012697193 -0.2718258 -0.14801651 -0.20419785 -0.3017774 -0.188542 -0.31543165 -0.040243056 0.0028886576 0.16992064 -0.032578062 -0.25158426 0.18578808 -0.29253665 -0.07744812 -0.16626169 -0.2716318 -0.16279842 -0.16408207 -0.13946807 0.07353668 -0.09411458 -0.22214566 -0.08407244 0.30856434 -0.23772737 -0.10679635 -0.04066724 -0.058345236 -0.06085275 -0.1711494 -0.2942245 -0.0024902532 -0.19769213 -0.18689623 0.18117215 -0.1966057 0.18570049 -0.36306956 0.15916358 -0.0764365 0.06559695 -0.2023254 -0.015421204 0.03483807 0.17647387 0.15567861 0.097399354 0.05531243 -0.12655853 0.14851016
