2708 64
1147 0.14827645 -0.09265003 0.034119707 0.2684677 0.08552517 -0.03642522 -0.03145578 -0.082847774 0.23538025 -0.02580063 0.17640704 0.19177587 -0.12820964 -0.12945583 0.08091443 -0.09693731 -0.2009351 0.22181544 -0.3493474 -0.28916073 0.14065123 0.21534103 -0.20217438 0.12906541 -0.106332496 0.15476847 -0.0655576 -0.37847278 -0.043689646 0.24728034 0.15458183 -0.14463797 -0.31402305 -0.10230909 0.0047418056 -0.14413854 0.4560459 0.10405862 -0.19359215 0.11269075 0.056900583 0.18085133 -0.045800157 -0.16067696 -0.09654547 0.03393475 0.2573507 -0.23107538 -0.047600396 0.0791814 -0.13739999 -0.032224968 -0.07435189 -0.4913268 0.109702386 -0.033263467 0.03650487 0.040147837 -0.044279974 -0.28098887 0.15021439 0.03536786 -0.026482424 -0.15320186
1450 0.054726813 0.1394426 -0.19621266 0.12645209 0.05856898 -0.07437785 -0.0045118667 -0.012964827 0.055967204 -0.19181955 -0.12682687 0.018486643 -0.005668545 -0.11192628 -0.007922874 0.0048445435 -0.23672736 0.16897035 -0.3825107 -0.32093415 -0.22395961 0.22737685 -0.24300703 0.037009295 -0.08792424 -0.011043712 -0.11801239 -0.3761513 -0.070272796 0.21250197 0.2120473 -0.20806281 -0.055123284 -0.22396933 0.12332189 -0.03150343 0.36408392 0.23507471 -0.12965567 -0.08419536 -0.049117204 0.18020184 0.110505775 0.028316919 -0.17886822 0.0628484 0.0424575 -0.10098131 0.048134785 0.15976156 -0.23702776 -0.020661652 -0.29763764 -0.4908992 0.25041005 0.081088744 0.02453247 -0.065243565 0.17828676 -0.34507525 -0.08084292 0.066917665 -0.033145774 0.18365854
2373 -0.10669546 -0.087319575 0.11087225 -0.32054913 -0.11393209 0.13364811 0.06318646 -0.1225894 0.08753297 0.06275245 -0.14098184 0.14171302 -0.19650374 0.017918013 0.124558784 0.15385328 -0.25472215 0.13284977 -0.25247636 -0.17547423 0.19817251 0.009007531 -0.016800089 -0.08786965 -0.20865873 0.15359399 -0.1805158 -0.1180518 0.045991886 -0.0060170116 0.21352893 -0.3257159 -0.13003366 -0.28401703 -0.12830897 -0.26264888 0.29689443 0.12928075 -0.16485727 -0.06373141 0.19596729 0.15504752 0.09744055 -0.13474065 -0.2518904 -0.02123541 0.16867207 -0.20318928 0.3038962 -0.032555055 -0.44393623 0.04620101 -0.18265882 -0.63006556 0.011331422 -0.13290286 0.13919832 0.05143179 0.016477484 -0.20532618 -0.05558924 0.0065738414 -0.09505152 0.06073338
1806 -0.007249477 0.052752733 0.02503803 0.04673209 0.07985012 -0.018618906 0.09479706 -0.19364208 0.1401663 -0.061166678 -0.078392506 -0.103453934 -0.12557924 -0.16350535 0.20353127 0.21389352 -0.16946034 0.25635818 -0.25972012 -0.51830786 0.19994406 0.14456487 -0.35836336 0.07276352 -0.09212537 0.009013853 -0.22862208 -0.31821376 -0.070279084 0.10309722 -0.015369212 0.064967655 -0.3076465 -0.1734695 -0.18009552 -0.16803102 0.32690683 0.14373747 -0.06642495 -0.0015760675 0.11494818 0.19101965 0.0838763 -0.19898956 0.016224127 0.1328272 0.263588 -0.052230548 0.16930023 0.025590962 0.05361853 0.013640432 -0.23487721 -0.23663531 0.10787677 0.01668054 0.07863047 0.0111853685 0.12063816 -0.2550646 0.10931241 -0.16388771 -0.13072798 0.14011438
2559 -0.08417973 0.0013796285 -0.15167479 -0.04428199 0.0800812 0.0725049 -0.030423183 -0.16868098 0.03121684 -0.03658002 -0.11918131 0.12398449 -0.029565416 0.13578124 0.044068277 0.17013963 -0.3456337 0.15451826 -0.20451602 -0.39099088 0.16070132 0.17057416 -0.24415703 -0.27398705 -0.03206399 -0.1278735 -0.18615536 -0.33100623 0.03923357 0.17790511 0.050113752 -0.25824228 -0.1214223 -0.055180494 -0.05516299 -0.27998233 0.18303898 0.03740396 -0.0041627977 -0.01229597 0.10902624 0.084479965 -0.0023862869 -0.24153468 -0.0012896421 -0.02877182 0.16908176 -0.29327664 0.00059024314 -0.030755788 -0.19631442 0.16448146 -0.1903331 -0.47574633 -0.08291889 -0.051819216 0.3472444 0.15423825 -0.1006165 -0.124980725 -0.0039483528 0.044121258 0.15701732 0.06809067
57 -0.06478422 0.0011568532 -0.1650591 0.05235517 -0.047561493 -0.017065132 -0.25772008 -0.068365194 0.0082267 -0.22711131 -0.1704744 -0.17420977 -0.23013015 -0.09736573 -0.019295016 0.006025292 -0.19204283 0.13912643 -0.016095955 -0.37266997 0.37840632 0.20166251 -0.26152116 0.045890972 -0.011882793 -0.08489807 -0.073121876 -0.24564904 -0.15019731 0.22196767 0.052193165 -0.21731047 -0.27339265 -0.0041865637 -0.12887797 -0.11729365 0.09847972 -0.12488731 -0.15262462 0.19040185 0.40933892 0.013537412 0.16169454 -0.3644245 -0.028997356 0.13918868 0.054439615 -0.2599524 0.12526841 0.15045087 -0.15953232 0.15694672 -0.25627014 -0.46366116 0.14482552 -0.04910136 0.10928269 0.28284702 0.06053824 -0.16790847 0.09384652 -0.042806253 -0.10149247 0.048381675
2698 -0.010447211 -0.012375028 -0.16268931 -0.012393812 0.04700918 -0.044571918 0.06541158 -0.1479202 -0.04060532 -0.096796945 0.08648299 -0.08436432 -0.016353732 0.02506619 0.03915842 0.07545321 -0.097413465 0.399609 -0.33014292 -0.40179205 0.17252089 0.045261484 -0.19571735 -0.2187099 -0.255291 0.10299154 0.0813251 -0.36131892 -0.14213075 0.13465863 0.106934555 -0.15383343 -0.15302989 -0.20364876 0.056105055 -0.26102504 0.16471271 -0.036629897 -0.028233256 0.012634384 0.1825354 0.032331686 0.11047954 -0.3370259 -0.09899307 -0.024984535 -0.02406481 -0.12962224 0.26144066 -0.03923387 0.02757432 -0.13250391 -0.0845783 -0.5920896 -0.086887546 -0.03226653 0.126641 0.07765283 0.09278377 -0.14422214 0.032050963 0.018210392 0.013216842 0.14566694
1054 -0.1769041 0.17864771 -0.051228877 0.016482826 -0.026933761 -0.1041298 -0.029953534 0.09178739 0.17989084 0.008841383 0.02112362 0.055591825 -0.09160093 0.13008659 0.008321721 0.037403546 -0.28444883 0.1825635 -0.25104046 -0.10634246 0.23852539 0.08010871 -0.042252056 0.038142033 -0.3160855 0.026402613 -0.1788692 -0.28495634 -0.08941542 0.19776967 0.1464079 -0.1579219 -0.15172938 -0.30577263 -0.06755449 -0.14167961 0.20185053 -0.10337749 -0.18323517 -0.12062709 0.15208326 0.05555173 -0.027231386 -0.1857867 -0.2007946 0.09905845 -0.05518978 -0.00012011702 0.06496792 -0.058754828 -0.15864924 0.10888555 -0.2726045 -0.5155732 0.06730396 0.10575437 0.16997801 0.23566125 0.08677415 -0.37264356 -0.05786332 -0.06309823 -0.008263432 0.05968855
2028 0.04887834 0.07419498 -0.13031852 0.095101565 -0.23737037 -0.09377095 -0.14817931 0.13667578 0.090645194 0.049484104 -0.29011568 -0.11895164 -0.320539 -0.06258643 -0.09426676 -0.20336688 -0.27229723 0.37364945 -0.111705415 -0.38497892 0.16593844 0.05461122 -0.0621171 0.13016826 -0.15469301 -0.029187236 -0.070546925 -0.27831584 -0.08143151 0.08375575 0.28831574 -0.20881632 -0.0198659 -0.1317157 -0.13482878 -0.33059883 0.24570069 -0.06072577 -0.13550535 -0.027135441 0.036325388 -0.059521835 0.1496353 -0.1168326 0.051767793 0.24312592 0.08771821 -0.17444332 0.04406597 0.16126338 -0.2562011 0.049802132 -0.23447664 -0.55068856 0.17711307 -0.2322367 0.34294227 -0.092654824 0.2123247 -0.1420722 -0.10784287 0.11241064 -0.19412416 -0.036657576
1570 0.14586201 -0.028240746 -0.0041652187 0.14927441 0.13934654 -0.008115262 0.029146915 0.11439906 -0.0076293265 0.03151648 -0.019965166 -0.08230007 -0.15100163 -0.00375119 0.090645865 0.20760287 -0.517447 0.112070814 -0.33083782 -0.22527201 0.3133405 0.12838018 -0.16735296 -0.32131734 -0.13012174 0.051969524 -0.15162729 -0.17614102 -0.03203693 0.15926044 0.23432791 -0.34363127 -0.25245246 -0.20925577 -0.23442994 -0.37987554 0.30409303 0.06568325 -0.22060348 0.04211803 0.14577603 0.02836197 0.085110806 0.0045010294 0.056154467 -0.07737302 0.09234859 -0.16718188 0.021076785 -0.14901987 -0.03230027 0.043911804 -0.31732926 -0.35646173 0.13448615 -0.12456103 0.12549087 0.06218044 0.025382303 -0.16286369 0.013495331 -0.068127386 -0.15352337 -0.06896908
1741 -0.14187871 0.04320213 -0.18845066 -0.0035222266 -0.025328496 -0.04444579 -0.0035866888 -0.056673676 0.15584 -0.08076157 0.041489188 0.041646574 -0.2563318 -0.139758 0.16911122 -0.0066213184 -0.18308523 0.2534486 -0.43314314 -0.15673345 -0.09569543 0.12484389 -0.4565142 -0.016891971 -0.14400509 0.16062057 -0.23269969 -0.31192276 -0.081830435 -0.017044354 0.04662372 -0.24694782 -0.16306743 -0.17172736 -0.08157591 -0.26610819 0.12917739 -0.015092558 0.2551167 0.029674748 -0.1259328 0.3278055 0.13054948 -0.011070658 -0.3414638 0.029073436 0.19916563 -0.19733642 0.2753149 -0.013975039 -0.3334509 0.0844196 -0.2073772 -0.4198305 0.17909577 0.15354721 0.10312045 0.116489016 0.012480275 -0.30299902 0.09814242 -0.009971699 0.16883056 0.08269105
2567 -0.0656618 -0.03701739 0.02648717 0.10061265 0.07473498 -0.13932377 -0.11077892 -0.10643826 0.14793757 -0.36154094 0.074115045 0.17216666 0.04098359 -0.1361369 0.23752037 0.0041801883 -0.23813395 0.26192924 -0.36365306 -0.49007428 0.003997458 -0.043024216 -0.11244741 0.09219977 0.015485517 0.18644348 -0.21082266 -0.13320903 -0.17665882 0.10949742 0.277786 -0.063134216 -0.18573515 -0.15956171 0.03343866 -0.2368341 0.15649539 0.042746924 -0.09747659 0.23610559 0.1837442 -0.039340366 -0.13631332 -0.07699422 0.015598128 0.0027199087 -0.0070380815 -0.19197272 0.23964183 0.10076192 -0.2609452 0.08503581 -0.24947913 -0.58527803 -0.03582385 -0.06608221 0.09539853 0.062848866 -0.10994402 -0.36916423 -0.17614649 -0.009346114 0.13641731 0.03253977
2115 0.021052524 0.05536857 -0.10060959 -0.06915656 0.02742817 0.011049378 -0.08319561 -0.042479083 0.074266054 -0.22414027 -0.18624943 0.047070865 -0.09787978 -0.0056722644 -0.12624957 0.21444544 -0.25938466 0.18632616 -0.26412028 -0.087485716 0.11918193 0.1847796 -0.02748152 -0.10559078 0.027916746 0.067527354 -0.13032302 -0.29369846 -0.09253506 0.08381016 0.23797736 -0.2962658 -0.16548698 -0.06264312 0.055012558 -0.3063548 0.16118345 0.12470865 -0.15656199 0.08747601 0.15629697 0.14376852 0.051948097 -0.04682413 -0.112192295 -0.04385481 -0.13234603 -0.2614118 0.06118458 -0.0050093243 -0.3279107 0.09817712 -0.090999685 -0.5704448 0.22801802 0.22179163 0.039441228 -0.0475877 0.1276636 -0.25727934 -0.1305293 -0.096698105 -0.03208687 0.12229313
2697 0.16210592 -0.17207865 0.13597521 -0.056464497 0.08602036 0.06924829 -0.2359166 0.0019613681 0.21182862 -0.24749355 0.0042208424 0.12621778 0.0006163469 0.061139688 0.09853167 -0.0072492603 -0.29791725 0.17573208 -0.32938465 -0.3189647 0.20648846 0.10266232 -0.20957543 0.13048595 -0.21651965 0.2992582 -0.02851814 -0.286618 0.01390562 0.08842327 0.1876602 -0.40522137 -0.34300694 -0.23894091 -0.076600194 -0.13255973 0.2653262 -0.052975647 -0.053550143 -0.0068080705 -0.00868184 -0.017581707 0.19289088 -0.1220136 -0.28493392 0.02067218 0.05953068 -0.2704025 0.053129394 -0.10478267 -0.18622334 0.15546374 -0.2402637 -0.29327223 0.1599423 -0.14842233 0.15030248 -0.16243617 0.054867107 -0.22043459 -0.049068984 -0.120175816 -0.1870179 0.20101985
1256 -0.04210447 0.08634276 -0.11573867 0.1351934 0.058401763 0.052533876 -0.12896545 -0.2644012 0.044106025 -0.0034192263 0.09985782 0.07110039 -0.09469537 -0.04657218 -0.005218706 0.050468426 -0.25126916 0.42824417 -0.30138978 -0.28921297 0.15982126 0.24851564 -0.13205191 0.055362303 -0.1134452 0.02803358 -0.063626274 -0.40159974 -0.062681876 0.023087379 0.16589773 -0.17973146 -0.16038682 -0.17692961 0.016467113 -0.19158958 0.24031135 -0.026110617 -0.07945031 0.13175738 0.0132623045 0.09215028 -0.15567437 -0.2356734 -0.08856006 -0.07281043 0.25909078 -0.16035448 -0.1447039 -0.0220098 -0.067819186 0.13269213 -0.16303053 -0.4345179 0.14832568 -0.120687455 0.15858687 0.12028924 -0.11116395 -0.4175942 -0.06184481 0.087806605 -0.03900731 -0.14787379
2542 -0.027726242 0.09350238 -0.08494595 0.057238042 0.18768321 -0.05427068 -0.086113855 -0.12716079 -0.018933471 0.018056702 -0.15904672 -0.0007191084 -0.111627206 -0.1797888 0.1260645 0.23724677 -0.2748186 0.19611585 -0.005807098 -0.3231632 0.42604068 0.31551027 -0.5179164 -0.0649216 0.017797653 0.036090817 -0.227381 0.06487542 -0.06297723 0.2822714 0.11850304 -0.08217187 -0.22962652 -0.019886022 0.14317046 -0.24578767 0.35159323 0.048953515 0.05390934 0.15016636 0.04917975 0.04285448 0.17644754 -0.18459798 -0.066923104 0.09935918 0.29135132 -0.24171911 0.03374074 -0.04412636 -0.24532653 0.026445081 -0.21256027 -0.5736059 0.095777035 -0.096781924 0.17135686 0.078616925 -0.17205673 -0.07077794 -0.06782877 0.13830824 -0.043291777 0.26146308
1681 0.0042217914 0.106959425 0.059582822 -0.024716293 0.0032918553 -0.07016356 -0.012204227 -0.20982976 0.07488451 -0.097125135 -0.08578896 -0.10268096 -0.2635237 -0.06829465 0.24634585 0.08133294 -0.19172807 0.16952856 -0.24974237 -0.46113783 0.036469504 0.103756964 -0.27501196 -0.08036168 0.18330497 -0.19203594 -0.23618452 -0.34395093 -0.11359652 0.1773868 -0.071506105 -0.25639924 -0.21175297 -0.18280996 -0.09489651 -0.1602253 0.22676732 0.105040155 -0.24429995 -0.11776792 0.28710914 0.14889789 0.053648595 -0.15938735 -0.19292071 0.11405226 0.068848036 -0.12755711 0.078641914 -0.02318168 -0.22771406 0.14070271 -0.2333351 -0.42668906 -0.0014333387 -0.15486361 -0.021202799 0.16448697 0.05894381 -0.10563704 0.0917946 -0.071517415 -0.0018305643 -0.11631006
1348 0.09429799 0.041547075 -0.0254893 -0.06467185 0.12324459 -0.13728735 -0.02674995 -0.18848345 -0.009713689 -0.1294927 0.15056245 0.20239942 0.06003155 -0.020622835 0.06311168 0.0824298 -0.22801425 0.15964276 -0.2859555 -0.23854461 0.09695425 0.3874257 -0.25629985 0.015386253 -0.27436635 0.0014654949 0.015760804 -0.17249529 0.0013373813 0.31541753 -0.08752329 -0.09945642 -0.19504713 -0.09984202 -0.07747356 -0.33439687 0.07457425 0.06477733 -0.3387172 -0.024689602 0.106568255 0.17309646 0.03195302 -0.095596164 -0.044709176 0.032881025 0.15274991 -0.17285034 -0.04571789 0.10359504 -0.19152963 0.14746512 -0.2337951 -0.5806934 0.057770986 0.023093227 0.052049153 -0.015936453 0.025535606 -0.1726448 0.0033394648 -0.097588316 0.0010387328 0.17229912
1002 -0.053003237 -0.13460827 -0.099674724 0.06345381 0.17633854 0.087383345 -0.23265252 -0.033746276 -0.00773066 -0.21199113 0.032482907 0.03246947 -0.035897076 -0.07495861 -0.13257045 0.14217718 -0.15208015 0.19579794 -0.1978834 -0.45912164 0.03368756 0.08605408 -0.106779605 -0.11408467 -0.13782522 0.0366878 -0.29753032 -0.4614899 -0.13599247 -0.0022077393 0.05597309 -0.17180492 -0.20751905 -0.08612838 -0.08722396 -0.2997354 0.40401936 -0.023944218 -0.14277814 0.07783048 0.06300385 0.21784388 -0.07343453 -0.10055938 -0.029414795 0.16809122 0.1213081 -0.18191564 -0.13291043 -0.16497166 -0.30649626 -0.004918607 0.084393315 -0.29703352 0.19686559 0.13477097 0.2672964 0.18577442 0.021598512 -0.2709061 0.07347289 -0.03801031 0.06569852 0.13402268
15 0.005737794 -0.026902193 -0.09784666 -0.09377513 0.11142385 -0.15789594 0.0835414 -0.061198924 0.066802375 0.037279602 -0.07661886 0.199033 0.10846312 -0.021707322 0.14746614 0.22401026 -0.28309435 0.10440277 -0.16845806 -0.3517221 0.28625426 0.19812958 -0.21071187 -0.070683785 -0.13263293 0.050865147 -0.20808186 -0.26987243 -0.06579869 0.13414572 0.13540104 -0.14281823 -0.19135529 -0.1730212 0.14106543 -0.19579104 0.21432322 0.020487385 0.03681401 0.13474894 0.15838377 0.15032004 -0.15283056 -0.03956079 -0.031104049 0.061931435 0.1974774 -0.26373515 0.22972484 -0.058853112 -0.09787969 -0.043536317 -0.35200578 -0.5564242 0.097639285 -0.038115997 0.08657559 -0.008286309 0.049756557 -0.37823856 -0.14157262 0.17621745 -0.11418482 -0.02933221
1124 0.0123215765 -0.0877261 -0.03541766 -0.00066361186 0.14621677 0.33580366 -0.035626344 0.10042507 0.10888393 0.04347385 0.08156935 -0.063429475 0.02462359 -0.11009503 -0.020631924 -0.06649267 -0.4316139 0.33600116 -0.15643251 -0.3937053 0.12510568 0.14377378 -0.23342875 0.14271827 -0.039774682 0.15127124 -0.023063907 -0.27198175 -0.29564908 -0.05381699 0.14675035 -0.2695092 -0.034725763 -0.42400113 -0.22097085 -0.25713757 0.25548592 -0.030205064 -0.063883185 0.14539428 0.11744024 0.14210413 -0.20672855 -0.21903199 -0.049817473 0.025985647 0.22104761 -0.1551161 0.26302895 -0.12438935 -0.1701552 0.1454034 -0.1357311 -0.459346 0.21720709 -0.069846064 0.19038488 0.0011759852 0.2510257 -0.24629714 -0.22181925 0.011562897 -0.25526834 -0.024218038
1816 0.0544594 -0.12671775 -0.038829636 0.05163815 0.10822879 -0.046431907 -0.1783792 0.17987499 -0.05311745 -0.2783814 -0.13474981 0.09723138 -0.18604721 -0.0668121 -0.038193423 0.0759827 -0.24202992 0.1618451 -0.31989792 -0.18330175 0.084000476 0.22115771 -0.24204499 -0.14308012 0.008016256 -0.11229388 -0.10890124 -0.113127574 -0.26191577 0.12388326 0.20608589 -0.12602186 -0.11680124 -0.1524018 -0.050418902 -0.3857356 0.091572836 0.20050308 0.103710994 -0.046368025 0.22683117 0.31680965 0.0027963656 -0.032337658 -0.01436273 0.04944363 0.09229986 0.028706873 0.05785618 0.15718348 -0.046042617 -0.0826539 -0.19551073 -0.56585646 0.12474876 -0.1719228 0.1396518 0.07803933 0.018518228 -0.4476149 -0.13584048 -0.10709453 -0.17688937 0.087971
2482 -0.13374881 0.0064364234 -0.011831836 -0.08544939 0.17097406 -0.049734026 -0.11313463 0.16300632 0.004139975 -0.30978212 -0.07147645 0.038303044 0.086170785 -0.25245312 -0.16915274 -0.13188873 -0.18042012 0.22782367 -0.1935076 -0.18456481 0.33194748 0.06437862 -0.30649996 0.11876224 -0.04366526 0.12204517 -0.0065841717 -0.390979 0.054202504 0.2706639 0.15778132 -0.32142514 -0.2869682 -0.13392746 -0.060966093 -0.3677937 0.17964384 0.07735894 -0.0628383 0.04945648 0.08299899 0.16458042 -0.021071464 -0.11692414 0.010523156 0.03872423 0.03778861 0.028015578 0.1371227 0.17511849 -0.13048527 0.15037285 -0.40199757 -0.4478916 0.041714624 -0.018551653 0.1121862 0.18519336 0.106838666 -0.3001494 -0.13731161 -0.2638803 0.037552875 0.041709352
2508 -0.10505518 -0.2832961 -0.064110674 -0.0050830166 -0.079928644 0.12133639 -0.14222182 -0.19549671 0.08260363 0.014055515 0.01464914 0.01431407 -0.052051242 -0.1361044 0.013851007 -0.037196375 -0.20087364 0.09220051 -0.29165483 -0.3638135 0.20107524 0.17436004 -0.22318478 0.09148926 -0.3368428 0.025645694 -0.19739832 -0.17931615 0.09399572 0.06611455 0.057078216 -0.011953985 -0.21118312 -0.027500233 -0.052977387 -0.4154087 0.27892813 -0.12219409 0.018957881 0.2386783 0.029038986 0.13452104 -0.09632225 -0.08640831 -0.062386055 0.08685484 0.249925 -0.07466001 0.04756971 -0.12659676 -0.21351314 0.20493303 -0.0342128 -0.41443348 0.19154614 -0.06629817 0.14056168 0.10068505 -0.1510924 -0.35008338 0.011144242 0.055367097 0.18112962 0.20220523
1321 0.13659893 -0.32566085 -0.041209716 0.01212903 -0.010413607 -0.06355527 0.013100825 -0.27054197 0.009404896 -0.1995156 0.059759125 -0.10518383 -0.05461149 -0.12476092 0.0559349 0.022299979 -0.15578674 0.23794404 -0.092016265 -0.2980322 0.22387034 0.09876851 -0.13663891 -0.014706732 -0.20603737 0.012876167 -0.22655798 -0.2218184 0.048303187 0.10492254 -0.103354156 -0.2328558 -0.40560895 -0.29181993 -0.07958165 -0.13801338 0.18809436 -0.012180802 0.08311394 0.30213484 0.0027502147 0.072260514 0.1740127 -0.053736754 -0.27447397 -0.20726554 0.09254169 0.012850203 0.16268045 -0.028867232 -0.15856972 0.09192133 -0.3501403 -0.5311761 0.18166348 -0.26508585 0.38580778 0.11026991 0.031662058 -0.38709536 0.010840738 0.023860391 0.04300818 -0.24805467
967 0.06739061 0.045299966 0.05787455 0.040565446 0.010404876 0.18719412 0.03633269 -0.14422637 0.104293086 -0.19590603 -0.11325027 0.17120157 -0.25525492 -0.12901346 0.11872102 0.042144123 -0.23435046 0.3821156 -0.38956675 -0.16124853 0.13345954 0.12334001 -0.14666188 0.04365482 -0.21398607 -0.20477037 -0.042903733 -0.24126315 -0.13105798 0.19099557 0.027174981 -0.32366648 -0.17290375 -0.21332338 -0.04391694 -0.030121513 0.3235423 -0.016848085 0.004836835 0.09343429 0.16708228 -0.04353626 0.12263943 0.07059153 -0.11263663 -0.084878534 0.22255199 -0.15871553 0.20982982 -0.11560976 -0.29951042 0.09792257 -0.06339428 -0.41306108 0.18247716 -0.31596828 0.053160127 -0.070100166 0.21984018 -0.36333254 -0.106919125 -0.012813338 -0.109520905 -0.010420398
1075 -0.21325123 0.14240411 -0.01798927 -0.09833036 -0.037632264 0.008943986 -0.069498315 -0.041158803 0.013370222 0.018365862 -0.048725557 -0.0041892827 0.10249314 -0.21933037 -0.08934909 -0.15277041 -0.30659258 0.3097809 -0.34932533 -0.32515004 0.1796906 0.18574399 -0.078818664 -0.22343065 -0.18942304 0.12945431 -0.016851073 -0.3863603 -0.10547515 0.2703754 0.02402264 -0.27924737 -0.17517719 -0.21726954 0.14281912 -0.31993935 0.06318615 -0.1383203 0.020284725 0.10940605 0.13432571 0.0069785328 0.16957302 -0.2690787 0.05780681 -0.020642512 -0.1489932 0.0044403668 0.15912202 0.12126053 -0.30451363 0.10366533 -0.08897801 -0.41002083 0.03747218 -0.048011824 0.15178165 0.06381637 -0.014668594 -0.1278387 0.11490812 -0.015569779 0.013721433 -0.039033663
2033 -0.14496078 0.10827847 -0.15785198 0.11173253 -0.09435354 0.15159489 -0.041310463 0.021831067 0.038704026 0.16116711 0.017808793 -0.15830825 0.0011094518 -0.0034246363 0.12295631 -0.13015082 -0.18961295 0.16645426 -0.40484172 -0.33733588 0.065124094 0.41634357 0.07495947 -0.13323124 -0.12499543 0.06523071 -0.18173313 -0.5235143 -0.22401243 0.19461963 -0.2671135 0.0067628827 0.03161745 -0.11761301 -0.039686903 -0.025633793 0.36828038 0.047607824 -0.07807609 0.054879557 0.20917383 0.2677115 -0.048442416 -0.20557213 -0.08003381 -0.079523325 -0.06091337 -0.20660965 0.1853014 -0.03553184 -0.2209193 -0.032449156 -0.120604925 -0.66697204 -0.093307935 -0.24712583 0.31494656 0.105481096 0.18846522 -0.08910877 0.00025717795 0.1513415 -0.1857361 0.07128896
1121 0.07985009 0.23478825 -0.05495539 0.12769718 -0.16594705 -0.13483329 -0.052187573 -0.1364472 0.0803875 -0.16502944 -0.21012579 -0.028670765 -0.0017057401 0.031301964 0.28772864 0.10255248 -0.30194137 0.18200056 -0.2757827 -0.3803531 0.09044115 0.13427253 -0.15350923 0.035275877 -0.08111144 0.095482156 -0.09257842 -0.4153082 -0.11547234 0.33601522 -0.008043267 -0.123393156 -0.17469983 -0.073317125 -0.1502432 -0.15498091 0.21155946 -0.02829047 -0.23030452 0.08964766 0.095798954 0.30677837 0.023006655 0.100862645 0.10037775 0.11839746 0.18147516 -0.20780115 0.13961191 0.2979138 -0.053171687 -0.14957756 -0.15629202 -0.59435374 -0.11844523 -0.08944289 0.24415147 -0.00045493615 0.020466201 -0.14094388 -0.16511615 0.11311976 -0.13380304 0.09901466
1665 -0.045396637 0.032674853 -0.009755732 0.11450978 0.06197399 0.020506488 -0.077817455 -0.13567676 -0.0060202437 -0.0003112515 -0.21203534 -0.0035683108 -0.1421462 -0.20140234 -0.00084952405 0.116427384 -0.24593331 0.3730752 -0.173317 -0.25804234 0.18714465 0.2682618 -0.12879524 0.14608938 -0.08738561 -0.030192941 0.030340305 -0.16347346 -0.09731918 0.11014746 0.17854103 -0.16524124 -0.14457701 -0.028486535 -0.12356678 -0.12473096 0.45172095 -0.08177563 -0.25165075 -0.0023214119 0.22689317 0.108274855 0.018514339 -0.09718079 -0.004752546 0.23302162 0.13648498 -0.14283793 0.075061865 0.03392071 -0.29891598 0.05482871 -0.055536866 -0.72745043 0.25588468 -0.1092366 0.08954478 -0.01993546 0.0064287884 -0.27830178 0.02307635 0.08783724 0.041797638 0.0033297709
2551 0.044909474 0.16325916 -0.05978993 0.025871988 0.14399181 0.18142462 -0.279145 -0.21507046 -0.026705954 -0.075669184 0.04430436 -0.011543546 0.10264116 -0.11124763 0.09944147 0.20676228 -0.1761554 0.1887668 -0.1788655 -0.25552988 -0.0346801 0.26777396 -0.087612405 0.09410829 -0.08013322 0.1245184 -0.113631934 -0.38626105 -0.32771882 0.120930955 0.121567085 -0.34684604 -0.28585538 -0.07698991 -0.13225996 -0.23687373 0.11395026 -0.13979538 -0.16424651 0.16361177 0.2618621 0.009107067 0.16244861 -0.08947389 -0.13422075 0.010215947 0.057131447 -0.29747146 -0.011168306 0.05896596 -0.10175243 0.014672773 -0.14106174 -0.49990952 0.049549628 -0.050606783 0.11552063 0.10498161 -0.12323935 -0.23525415 -0.12213739 0.0022436879 -0.03116666 0.01330052
2700 0.05421434 -0.042497344 0.27888584 -0.044107467 -0.07585234 0.02340209 0.051986042 -0.06792935 0.20398071 -0.31724733 -0.18109027 0.114602335 0.048755307 0.044889618 -0.057387788 0.07429971 -0.19837242 0.045230314 -0.21758507 -0.22681616 0.07656367 0.09631821 -0.15131538 -0.11845716 -0.21839474 0.036273684 0.083540455 -0.3466191 -0.31425902 0.1210459 -0.098569356 -0.47820148 -0.3027833 -0.27608812 -0.030119553 -0.21407102 0.4538922 0.13270059 0.11333398 -0.04014778 -0.008580886 0.10903053 0.063324824 0.10273187 -0.21178724 0.02445991 0.12027483 -0.18768854 0.15001266 -0.10917618 -0.13168886 0.15802947 -0.04548189 -0.42551577 0.20236665 -0.20703028 0.250568 0.07190416 0.03350705 -0.13570268 -0.16546178 0.0003870224 -0.017040104 0.19539104
237 -0.114817955 0.07169828 0.019243801 0.17592046 0.16210912 -0.06306769 -0.030414892 -0.12121834 -0.027266428 -0.21631956 0.05701403 0.038917936 -0.083318375 -0.06120546 -0.041218944 -0.04202877 -0.08407198 0.2439236 -0.2983598 -0.48281562 0.1935647 0.18487212 -0.13519536 0.00062297157 -0.038048174 -0.04414664 -0.23636588 -0.27550572 -0.13925011 0.47153336 0.056111068 0.023579784 -0.092759475 -0.29504457 0.0072667566 -0.23905733 0.3473573 -0.13794796 0.17042919 0.056978475 0.2744312 0.3231725 0.09338728 -0.050327767 -0.05234608 0.0943834 0.10185438 0.0873999 -0.06414615 -0.1366094 -0.08572631 0.06781232 0.06132757 -0.46077615 0.18256833 -0.005834498 0.2135291 0.064832896 0.02157644 -0.27038297 0.01406153 -0.06575171 -0.05144455 0.09614274
1116 0.09591849 0.2180418 -0.0076318732 0.19885936 -0.21047273 0.10968077 0.040415555 -0.010972127 -0.012733244 -0.10707849 -0.079845615 -0.11934334 -0.31042588 0.06686212 -0.053404167 -0.12775873 -0.16216365 0.40915632 -0.32138136 -0.44092396 0.050497644 -0.14672913 -0.153515 0.09331603 -0.10097101 0.09354041 -0.13451166 -0.39301872 -0.08909971 0.21481058 -0.04039185 -0.20871043 -0.104064435 -0.1500819 -0.15053292 -0.21723524 0.1628344 -0.07754575 -0.08938071 -0.08829598 0.098691665 0.17263554 -0.0015826348 0.054033544 0.019459186 0.23202066 0.17108452 -0.18156642 0.23795669 0.08905927 -0.36695963 0.03072399 -0.05486467 -0.6606785 0.00751807 -0.05000004 0.20889246 -0.017945452 0.22126609 0.012969967 -0.07074639 0.092210814 -0.11950334 0.04979
2041 -0.04391378 0.120564036 0.18369526 0.010793052 0.01166525 0.024165574 -0.14252296 -0.08339901 -0.021207986 -0.2757665 0.11883188 -0.021241961 -0.10463146 -0.19725195 0.057014316 -0.023041075 -0.17306404 0.17484124 -0.38657504 -0.33661506 0.023487536 0.2526009 -0.41470525 0.05142155 0.010292091 0.1461885 -0.13247707 -0.30032924 -0.13408162 0.16683698 -0.047547866 -0.2476938 -0.18941478 -0.2918094 -0.1364528 -0.28607658 0.23042303 -0.22994727 0.029958837 0.024465293 -0.023682784 0.08270098 0.06275276 0.060520153 -0.20168169 0.103610806 0.46630633 -0.11356582 -0.0073015997 0.08455669 -0.17900625 0.40491924 -0.24358386 -0.3131565 -0.034709886 0.11470303 0.009443893 0.12674187 0.14819153 -0.21312176 0.008888126 -0.0397838 -0.13294064 0.373324
1315 0.07359276 -0.024615588 -0.04046662 0.062176745 0.09774005 -0.12697269 -0.046415422 -0.01802837 -0.013131366 -0.16144437 -0.074153885 0.007904148 -0.11838227 0.021237269 0.051473927 -0.124141075 -0.13307756 0.116619416 -0.097872555 -0.39632532 0.28348395 0.12875956 -0.07194782 -0.07278467 -0.09959739 -0.09557456 -0.30315644 -0.20900394 0.101018496 0.25246713 0.21410438 -0.1676658 -0.1795384 -0.24361396 0.082356885 -0.2518399 0.33360425 0.029987652 -0.07743166 0.046986397 0.011293999 0.1517303 0.064995036 -0.0010834392 -0.11021018 0.1322782 0.1551402 -0.026244815 0.097717196 -0.09245456 -0.2131713 0.031651206 -0.06100478 -0.5361031 0.014301723 -0.11661873 0.10304503 -0.010753213 -0.019637298 -0.46226832 0.040856346 0.13173704 -0.23278563 0.31381533
2571 0.1519028 -0.12358698 -0.10263588 -0.030097412 0.20608824 0.018798146 0.09095192 -0.05461855 0.17550172 -0.016654199 -0.0013471866 0.11703258 -0.22121306 0.045916036 -0.0033336484 -0.08611999 -0.33610743 0.02987083 -0.23176514 -0.5018769 0.2799425 0.04236284 -0.26066145 -0.028663227 -0.17849351 -0.20786823 -0.21956076 -0.2992996 -0.023524994 0.012090207 0.2562264 -0.27603373 -0.20430967 -0.4072306 0.0367226 -0.27181163 0.04679477 0.026059512 -0.057482723 -0.123942815 0.22230586 -0.065703474 0.06994139 0.0066589685 -0.0056052683 0.119288616 -0.0018114264 -0.17706704 0.06733134 0.02438296 -0.08009495 0.13394858 -0.12452886 -0.2969973 0.046896446 -0.19443837 0.15675108 0.02089402 0.21113396 -0.43168694 -0.024362037 -0.18911766 -0.071846195 0.13467988
2191 0.032442324 0.1861598 -0.120396435 0.048695434 0.164179 -0.032069415 -0.116110995 -0.050765224 0.18480496 0.013818936 -0.25307763 0.0177529 -0.18429407 0.12796894 -0.02076149 0.1967125 -0.30828178 0.11759424 -0.29575858 -0.18087149 0.2735148 0.30052122 -0.020117898 0.07851927 -0.15591897 0.057647105 -0.20552813 -0.3211321 -0.13724981 0.15896437 0.12996928 -0.20867372 -0.3933558 -0.26877928 -0.14582025 -0.1255381 0.26704305 -0.028865835 -0.080654904 -0.00706024 0.14744703 -0.26933852 0.10003326 0.016231446 -0.05050627 0.06603587 0.10502081 -0.07954967 0.068992175 -0.078295745 -0.19118139 0.06352418 -0.16725294 -0.7001497 0.14777027 -0.10622358 -0.058371462 0.10112735 0.023834646 -0.07121523 -0.07635957 0.009579503 0.019413477 -0.112327345
401 0.05891177 -0.06450957 -0.24714981 0.16998623 0.108474866 0.09080281 -0.34895995 0.06474077 0.117269345 0.021824086 -0.18572585 0.08635834 -0.31013843 -0.039714508 -0.104764745 -0.09798281 -0.16505012 0.16522253 -0.13979319 -0.17886949 0.22507933 0.26055315 -0.2382383 0.1210319 -0.19369224 -0.0438468 -0.048702415 -0.27902332 0.0403697 0.27703282 0.11068381 -0.23478518 -0.48532608 -0.12568882 -0.037537474 -0.2710494 0.3803026 0.11954431 -0.107942514 0.103338346 0.34968764 0.03119278 0.087207794 -0.08834021 0.08230192 0.2291471 -0.03996748 -0.24440233 0.20611787 -0.05078198 -0.19186382 0.04100863 -0.008766737 -0.4719862 0.033657998 0.18689401 0.17371245 0.00792765 0.06042571 -0.1964236 0.058590617 -0.23923078 -0.02620523 0.10912531
2555 -0.006286535 0.13728045 0.03411132 -0.07499725 -0.14244483 0.1268025 -0.17567784 -0.2239896 0.16251844 -0.19614445 -0.19732392 0.07594792 0.010814695 0.12077043 0.3298036 0.072971195 -0.052220322 0.23223597 -0.16258594 -0.39837706 0.014589852 -0.080097094 -0.3239199 0.024072165 -0.04881692 0.15233012 -0.11743698 -0.14912143 -0.19059664 0.32143834 0.14890265 -0.2955531 -0.054461066 0.007967202 0.019726962 -0.18882546 0.25876385 0.16853853 -0.15611492 -0.048622437 0.124200866 0.090563565 0.07939484 -0.1402196 -0.12873161 0.10414106 0.091812685 -0.16412 0.23439941 0.13282144 -0.29057884 -0.053803578 -0.13432921 -0.50141996 0.05391415 0.029932654 0.12988216 0.05706025 -0.08966875 -0.16530897 -0.28139636 0.08509813 -0.25608176 0.25759828
2027 0.025597911 0.059081998 -0.16505235 0.15197289 -0.042518996 -0.3122329 0.051467102 -0.09606853 0.19978504 -0.1160685 -0.055852357 -0.081028454 -0.082938634 -0.0022057986 0.07266381 0.0626762 -0.2231976 0.23818317 -0.25558773 -0.45046788 0.27736223 -0.0135844955 -0.18343152 0.03873246 -0.35577232 -0.017272627 -0.1019382 -0.22278675 -0.16491954 0.0911875 0.22606072 -0.28926283 -0.17671403 -0.26715246 0.022521988 -0.14793918 0.099812664 0.0652695 -0.030965107 -0.0062361844 0.062316116 0.03388479 0.17631957 -0.037241004 0.0042028427 0.12590735 0.0738626 -0.26860198 0.07077873 0.030355733 -0.05810264 -0.026797628 -0.10322339 -0.68004686 0.33515128 -0.042586263 0.084331095 0.17805944 0.07422806 -0.12983097 -0.16537987 0.093769155 0.053335086 -0.21613778
1611 -0.026814453 -0.03763564 0.09202039 0.022789981 0.04583242 0.05153195 -0.14457896 -0.15879658 -0.046628345 -0.28940418 -0.21854351 -0.05265714 -0.09156136 -0.02673577 0.20762351 0.037803553 -0.19200572 0.21941675 -0.2540325 -0.26260194 0.17779526 0.24125856 -0.24616015 0.031013412 -0.1551093 -0.01040377 -0.10469994 -0.17275424 -0.15857422 -0.031707738 0.111955 -0.12693134 -0.31323358 0.1514446 -0.09194008 -0.048086103 0.41208977 -0.015512826 -0.32651225 0.0538597 0.2350424 -0.030957915 -0.060943075 -0.08662746 0.051044296 -0.095016874 0.03665897 -0.13088334 0.11811074 0.047745183 -0.20523301 -0.010506631 -0.16072927 -0.49630767 -0.013189038 -0.35646284 0.06657904 0.060052108 0.056999102 -0.059517764 -0.22490516 -0.08666723 -0.0800374 0.3229203
2410 -0.11551779 -0.108139575 -0.18280068 -0.04043029 -0.025106858 0.2520763 -0.14033523 -0.13481441 0.12426617 -0.218213 -0.19370925 0.032416023 -0.010881981 -0.052955557 0.07793219 -0.0787211 -0.16714703 0.0037282524 -0.21430576 -0.57387483 0.102174684 -0.16656 -0.29740894 0.10433146 -0.13594219 0.0481948 -0.16765201 -0.44348663 0.07908854 -0.0057282294 0.23742807 -0.24898332 -0.40961358 -0.031105509 -0.124925025 -0.08498075 0.28467387 0.09024466 -0.007369456 -0.1672977 0.2221087 0.18100755 -0.0073097916 0.049311448 -0.15078638 0.14160997 -0.030063469 -0.41375476 0.023474906 -0.069887914 -0.11270078 0.1131227 -0.13983479 -0.36436403 0.18554236 0.067182556 0.27211174 0.17264241 0.052865677 -0.0865745 0.019093713 -0.08178783 -0.029928653 0.3656344
2426 0.08287726 0.14922059 -0.10304569 0.32326332 0.062104523 0.12835015 -0.09330518 -0.24456207 -0.012196897 -0.21002723 -0.048887074 0.046305235 -0.2097149 0.21142697 0.023018181 -0.08124583 -0.15213315 0.118649654 -0.13372381 -0.24546227 0.22694544 0.1792107 -0.37247664 -0.038614437 -0.22048728 -0.14674123 -0.07463977 -0.3453519 -0.06180305 0.23975243 0.09687311 -0.2138123 -0.2827676 0.033796456 -0.07594452 -0.31650195 0.38811862 0.07407998 -0.1240621 -0.006096074 0.115513 -0.015708987 -0.042399287 0.058578704 0.07217735 -0.20069687 0.20147929 -0.19243608 0.018999549 0.05943886 -0.38991186 0.030093485 -0.1601095 -0.2887307 0.0056338054 -0.14702386 0.3219142 0.2736538 -0.12633662 -0.13612193 -0.20379314 -0.08975989 -0.0041059675 0.14057054
729 -0.17193063 0.031925905 -0.040189017 0.06810061 0.22271635 0.022165759 0.024670027 -0.08669693 0.067850985 -0.16390473 0.048227753 0.13207108 -0.12931098 -0.29518074 0.29254588 0.028095277 -0.31334224 0.31646648 -0.41021088 -0.31215352 0.20729266 0.07670169 -0.22792765 -0.08495351 -0.1494144 -0.063882284 -0.27309433 -0.2667961 0.03640734 -0.0677211 0.11252989 -0.09650456 -0.2374436 -0.21278694 -0.19660603 -0.08372139 0.4290519 0.034251563 -0.022719232 0.10599923 0.32963824 0.045958422 -0.051268544 -0.1561113 -0.119266294 0.12524565 0.15116777 -0.12650159 0.30566868 -0.18542288 -0.27932274 0.07097079 -0.15834957 -0.22837901 -0.08648943 -0.17049624 0.27700514 -0.14597848 0.22757645 -0.23431425 0.05827398 0.06801975 0.014297123 0.24193045
2042 0.12377196 0.070727475 0.008964845 0.13062738 0.03947821 0.05156349 -0.030776232 -0.0048293313 0.17830612 -0.095877565 -0.04480916 0.04045425 0.037804212 0.020701109 -0.019058893 0.22330019 -0.1543403 0.11719359 -0.2081806 -0.29111058 0.23852211 0.12044655 0.03157105 -0.16750786 -0.14385398 0.056603547 -0.2921632 -0.27895856 -0.32555744 0.1646756 -0.030396894 -0.062309198 -0.22040044 -0.1417633 -0.043404423 -0.38333955 0.21128395 -0.105280675 -0.04576379 0.006199829 0.24039678 0.32182473 0.116378956 -0.12281229 -0.052167457 0.025668932 0.0016171077 -0.0048819752 0.28246626 0.23580101 -0.29887402 0.0120527 -0.12353135 -0.47923765 0.034296002 -0.2655573 0.031106595 0.2066711 0.11375883 -0.31703278 0.11352851 -0.14983954 -0.06770347 0.02118226
868 -0.08814772 -0.06663736 -0.15541783 0.1513457 -0.097071394 -0.07868616 0.12061577 -0.11168105 0.07685661 -0.118555605 -0.04476829 0.032731775 0.061082914 -0.026040405 -0.21716093 0.15577316 -0.24886195 0.33457458 -0.050347377 -0.48740962 0.05992047 -0.00936676 -0.1874065 0.16375548 -0.26556462 0.27431184 -0.12977275 -0.19769743 -0.04004782 0.27985254 0.12773058 -0.31239498 -0.15479094 -0.35937282 0.040926233 -0.053849798 0.12171978 0.2050109 -0.1020035 0.085812844 0.27772486 0.14428212 -0.066828765 -0.3525112 -0.06308813 0.1937583 0.14709125 -0.10745784 -0.05890707 0.024959635 -0.3001708 0.057158213 -0.1680139 -0.4637918 0.17550935 -0.13617176 0.12417234 -0.10429212 0.17148298 -0.3436594 -0.076800816 0.09209183 0.10943192 0.06852314
2077 0.18511145 0.097223185 -0.040533394 0.046902753 0.21486726 0.13467686 0.051967982 -0.05815667 0.15711258 -0.24135408 -0.1260516 0.011420387 -0.050844576 -0.15284948 -0.027516853 0.149066 -0.38995898 -0.12517086 -0.457301 -0.33995885 -0.06223597 0.28857917 -0.40813977 -0.08264546 -0.058082983 -0.13393475 0.05188193 -0.44348785 -0.29908046 0.099560425 0.12087324 -0.21535677 -0.039082665 -0.15855308 -0.20491886 -0.19646849 0.34667107 -0.16299252 -0.10766293 -0.1257083 0.015125607 0.083151616 -0.1522483 0.020741828 0.15384895 -0.08295256 0.009186422 -0.06718267 -0.12525122 -0.17007917 -0.11526382 0.018616928 -0.2507869 -0.47149745 0.06846541 0.015679257 0.0073318295 0.05051413 0.0072091613 -0.4418 -0.22747868 -0.1604223 0.1401859 0.014868155
1460 -0.014541115 0.24983549 -0.05015031 0.05398797 0.001001456 -0.18254825 -0.2813427 0.06596411 0.14840063 -0.16439068 -0.07194603 0.089709386 -0.26920354 -0.051540937 -0.11972065 0.028128762 -0.14472462 0.2716183 -0.05350981 -0.22717945 0.29825598 0.114800334 -0.13682832 0.004867905 -0.34184575 -0.20521772 -0.09745195 -0.23942636 -0.12418562 0.3260731 0.089354195 -0.21032551 -0.23735398 -0.18128322 0.027699957 -0.34192577 0.29068628 0.025480393 -0.07970221 -0.11301749 0.21932246 0.15765023 0.25613996 -0.19714324 -0.026901785 0.051239856 0.16830732 0.01764955 0.07116277 -0.18193759 -0.15222545 -0.018863695 -0.0818565 -0.43761757 0.20172793 -0.16665459 0.24330236 0.10667788 -0.004638954 -0.13186334 -0.14351875 -0.1531312 -0.041119758 0.028444769
1272 -0.038592357 0.11782994 0.10135125 0.18235373 0.145729 -0.08198643 0.26277208 -0.21222956 -0.055182185 -0.032390155 0.04333606 -0.0485802 -0.026453365 -0.16810024 0.32371694 0.2233733 -0.12686892 0.1078931 -0.21760347 -0.4222461 0.105713464 0.008727578 -0.35248882 0.0077791135 -0.1803841 -0.09528985 -0.28755182 -0.25857514 -0.13700186 0.22319551 0.10766704 -0.13107282 -0.15885486 -0.19412844 0.095448576 -0.26916805 0.2807311 0.17051683 -0.08865898 0.09516158 0.12824796 0.0147921555 0.037194256 -0.15963143 -0.078281924 0.14651829 0.14641434 -0.26593465 0.10508242 -0.018772205 -0.17276704 -0.14467719 -0.11579471 -0.4199763 0.03278078 -0.1919178 0.09919842 0.10412042 0.06919901 -0.23968135 -0.02403786 0.09123735 0.30864134 0.109563135
1310 -0.005121291 0.026589463 -0.16763796 0.0067023975 0.33016762 -0.011336314 -0.0549462 -0.042313978 -0.14375022 0.013611058 -0.044261556 -0.007992575 -0.03168274 0.11728764 -0.30135477 -0.17919846 -0.40823385 0.05960594 -0.36382878 -0.25744557 0.09198896 0.26345265 -0.2297699 -0.02518125 -0.04119303 0.08208337 -0.28012186 -0.4080649 -0.04579703 0.326183 0.012553929 -0.24801941 -0.19401206 -0.38237792 0.055393375 -0.3901242 0.1598006 -0.041818965 -0.023844756 0.0037161533 -0.038259476 -0.066428736 -0.15714103 -0.14468227 -0.008633832 0.12190932 -0.017048903 -0.067093186 0.09681235 -0.088227175 -0.17577606 0.22290479 -0.054896772 -0.42313325 0.036535915 -0.05237484 0.025288358 0.12185289 0.21890582 -0.1855971 -0.15340611 -0.018962126 -0.044358727 0.035421513
2636 0.07889633 -0.07227096 0.14963539 -0.34704083 -0.03366583 -0.00925063 -0.12045605 -0.014579681 0.14974292 -0.082622886 -0.13249516 -0.2180978 -0.18170837 0.09202177 0.14221002 -0.1367465 -0.1338135 0.21592103 -0.28534883 -0.28009763 0.31012586 0.12715267 -0.12332351 0.0809438 -0.1815642 0.11073618 -0.22566772 -0.2236922 0.054924864 0.10353216 0.04064257 -0.35552305 -0.4367496 -0.25458482 -0.05039146 -0.21043022 0.2577243 0.081063434 -0.21638876 0.007738378 0.31634143 -0.09841417 -0.013837821 -0.12179141 -0.27854556 -0.232646 0.040059704 -0.15927677 0.116688125 -0.14333658 -0.020099109 0.017140238 -0.10802122 -0.474344 0.117223755 0.17522515 0.23628522 0.10166727 -0.08684812 -0.22601037 0.102018714 -0.09761493 0.05894426 -0.0122776665
2509 0.12613638 0.17068437 -0.13849771 0.1875315 0.17764252 -0.05672409 0.05632101 -0.049589984 0.009183437 -0.19520624 0.041713197 -0.18039252 -0.12622991 -0.055370804 0.014411533 0.096177876 -0.3220651 0.09018157 -0.29315534 -0.47330263 0.19018906 0.18363501 -0.13526371 -0.0263599 -0.14677013 -0.025813475 -0.31666473 -0.27632254 -0.0721114 0.1532228 0.041913163 -0.20268218 -0.12422824 -0.28230467 0.030941615 -0.2585536 0.087735765 -0.11710187 -0.23224825 0.097760916 0.16196279 0.21533203 0.1641403 -0.16800672 -0.036397494 0.099175565 0.2639933 -0.38377246 0.08856668 -0.083798915 -0.10420495 -0.049721997 -0.13503471 -0.4564699 -0.05874845 -0.00059427635 0.29934418 0.087128796 0.051494926 -0.042434216 0.013643149 -0.12489185 -0.25527173 0.056819957
1502 -0.17082272 -0.1489967 0.31476864 0.0024716707 0.09434712 0.08938115 -0.30833465 -0.061241545 0.25952214 -0.068829715 -0.07549291 -0.007411471 0.03389401 -0.07231085 0.27554992 0.18352932 -0.29961222 0.34239602 -0.3664269 -0.24724755 0.37384015 0.33813694 -0.30400416 0.04424839 -0.056028277 -0.08673884 -0.17074911 0.0026620792 -0.21465969 0.16581464 0.072988324 -0.32509014 -0.116231844 -0.11941412 -0.19911641 -0.36320725 0.28677526 0.03686343 -0.06849837 -0.024411997 0.09395041 0.07802568 -0.057081703 -0.20387886 -0.04107712 0.03184274 -5.1631614e-06 0.028507162 0.15094908 -0.17715092 -0.14435089 0.004126862 -0.24177462 -0.39253536 0.27488482 0.03706146 0.27911234 -0.06568524 0.10731215 -0.15602946 0.008694031 0.1511404 0.009902977 0.132642
1697 -0.04599998 -0.1298524 -0.061031725 -0.10243404 0.007049857 0.0057201227 -0.078063145 -0.34586462 -0.30962157 -0.18568753 0.037563965 0.00068217644 0.07480913 0.08782795 0.14539862 0.0014346667 -0.2447956 0.3340983 -0.25748715 -0.46643722 0.0036667543 0.15763378 -0.21939684 -0.11461087 -0.07349697 0.2379133 -0.18561655 -0.105836965 -0.12248231 0.32354748 0.23357601 -0.28545418 -0.2609767 -0.108677775 -0.17749138 -0.37014216 0.13231888 0.13255145 0.18279997 0.040711276 0.09746853 0.050130166 -0.16992427 -0.02445779 -0.12798448 0.32916096 0.015012622 -0.20749329 0.022358196 0.11115572 -0.22274595 0.19464236 -0.2775189 -0.37234768 -0.077933125 -0.2324314 -0.015240019 0.09356321 -0.004444362 -0.16170418 -0.027191246 0.07603592 0.1858239 0.2176185
1020 -0.005241263 -0.086051874 0.2390335 0.004516676 -0.08665643 -0.12947285 -0.04814066 -0.06328995 0.09824077 -0.273726 -0.1358227 -0.12455061 -0.023388676 -0.2449559 0.18453382 -0.0607396 -0.36399484 0.25910625 -0.19208263 -0.413102 0.22037321 0.16866985 -0.3032292 -0.041737895 -0.056839284 -0.05797193 -0.2457516 -0.2115761 -0.05742885 0.09519766 0.038251534 -0.16180031 -0.18568347 -0.15852694 -0.16994068 -0.4558554 0.09962758 0.021447439 -0.09831682 0.099039435 0.067400746 0.11380108 0.005945922 -0.10274095 -0.11097241 -0.06487366 0.1132775 -0.12364753 0.06931133 -0.121328264 -0.34046715 0.15311547 -0.22748972 -0.49849057 -0.0019151627 -0.04349358 0.16436745 0.15147722 0.08807574 -0.07854731 0.20316839 0.09711148 -0.18370755 0.15243703
0 -0.23064388 -0.013120803 0.16133006 -0.00988781 0.07782911 0.03379075 0.030885687 -0.1649813 0.012647602 -0.17750265 -0.08916159 0.07696769 0.0051704473 -0.09347264 -0.040465962 -0.010309067 -0.30150017 0.29472646 -0.3458244 -0.17917854 0.42575723 0.06426077 -0.060096417 -0.09565487 -0.2175269 0.06986067 -0.118040085 -0.32321844 0.03875897 0.30615887 0.11169545 -0.27051115 -0.008903641 -0.21278138 0.18850943 -0.21625997 0.14336991 -0.11596055 0.0147037115 0.119044796 0.1431307 0.12057631 -0.011099527 -0.192421 -0.22973928 0.0287226 0.123700365 -0.22205795 -0.0013777912 0.012016522 -0.12327898 0.12577114 -0.30299908 -0.5314542 -0.027271552 -0.036407877 0.21659036 -0.03320839 -0.040624615 -0.2332175 0.027662044 0.07630235 0.04111216 0.004298776
2204 0.050881166 0.07608205 -0.26214853 0.034822825 0.23604678 -0.036355708 -0.15768895 -0.21569993 0.11669517 -0.016596168 0.06314633 -0.18887618 -0.050774675 -0.06698301 0.13996512 0.2682241 -0.12704147 0.10160353 -0.122572415 -0.2822582 0.10290034 0.12631029 -0.22598056 0.033580627 -0.23549865 0.13822207 -0.16556504 -0.24316828 0.089662716 0.11441288 0.054391645 -0.2343736 -0.4161002 -0.3107912 -0.1375973 -0.31199473 0.21971695 0.10163909 0.06773424 0.035631143 -0.04530777 0.2611626 -0.023901712 -0.0407011 -0.18773569 -0.10281455 0.38368666 -0.1642937 -0.13516949 -0.09120083 0.1339988 -0.12391756 -0.1742144 -0.42219633 0.09163764 -0.067159735 0.24378383 0.14986645 -0.14662588 -0.13117467 -0.102895185 -0.03311553 -0.030797185 -0.017253019
2687 0.07686756 -0.11986967 -0.0035656944 0.05358375 0.013431689 0.04621961 -0.12640612 0.035731968 0.18633673 -0.20882596 -0.13757801 0.09451462 -0.19669494 -0.09259652 -0.02172936 -0.10448566 -0.29353213 0.34563786 -0.2906745 -0.64590394 0.2824409 0.2230296 -0.14334165 -0.014822894 -0.04853332 -0.18213597 -0.009567823 -0.16268745 -0.100233294 0.29597285 0.33559415 -0.27465805 -0.18723437 -0.04373714 0.16968015 -0.07402289 0.17083631 -0.027467966 0.014567388 0.026025537 0.23743406 0.3348929 -0.004675944 -0.05901914 -0.17780074 0.15466209 0.09970799 -0.33458763 0.11680702 -0.15229833 -0.17547034 0.028979028 -0.17097737 -0.43674034 0.10915281 -0.028031213 0.16476919 -0.0013049591 -0.09655435 0.043955345 0.18587941 0.10077305 -0.15985481 0.0633791
2009 0.033510007 -0.13115542 0.0039243456 0.094875455 0.15298757 -0.018457834 -0.13680081 -0.06597235 0.03406237 -0.1446835 -0.07550065 0.15051627 -0.14211126 -0.170339 -0.10126231 -0.09225907 -0.15440868 0.13857667 -0.36735782 -0.35862398 0.22456327 0.17643452 -0.33191046 0.27221918 -0.16500145 -0.038903933 -0.10710679 -0.30201092 -0.07004437 0.25877786 0.18670137 -0.5139191 -0.15997079 -0.011449246 -0.04468431 -0.20442659 0.21377003 -0.11623471 -0.15771465 0.117259935 -0.17916828 -0.026972817 -0.083303615 -0.082306586 0.014928966 0.17784029 0.3478666 -0.20187314 0.25166696 0.27195123 -0.1965092 0.045078956 -0.107151836 -0.36907902 -0.005085765 -0.15011755 0.12404462 0.3093117 0.17484373 -0.10803599 -0.052885037 0.10146795 -0.20464079 0.14246523
1837 0.03895807 0.019430248 0.106393926 -0.08143299 0.057086095 -0.26290756 -0.05831413 -0.10037505 -0.041443437 -0.30685645 -0.06594112 0.30196276 -0.077372946 -0.016208343 -0.16544002 -0.0507015 -0.12418212 0.3233946 -0.2680417 -0.30200353 0.1862903 0.027150294 -0.17541026 -0.024485502 -0.1809549 -0.102947526 0.072825395 -0.38568476 -0.20767027 0.14823274 0.043063127 -0.095166095 -0.10450913 -0.14218836 0.061681036 -0.30135533 0.13106976 -0.011095926 -0.25043783 -0.0015089547 0.18099265 -0.18335435 0.020387897 -0.0880739 -0.029508563 0.13200696 -0.08649006 -0.17251937 0.11178798 0.0011214482 -0.3780165 -0.046235763 -0.11805846 -0.6056358 0.15915392 -0.03925362 0.23478058 0.082407 0.0064138933 -0.3951221 -0.14268227 -0.14805286 -0.12700963 0.026401635
1708 -0.13054349 0.21819116 -0.03780049 0.16636892 -0.095462136 0.093650624 -0.034301046 -0.15274823 0.1255675 -0.26338828 0.011080618 -0.024713535 -0.32754987 0.19677417 0.06647376 -0.061353296 -0.048009507 0.25637907 -0.2908182 -0.41303834 0.10437459 -0.022825861 -0.10879326 -0.16840866 0.032169465 -0.014150252 -0.14767209 -0.28986573 -0.40215027 0.011798126 -0.04167028 -0.17361285 -0.07015339 -0.231269 0.15655346 -0.34337935 0.28089398 -0.09849208 -0.17871326 0.00043045668 0.067787305 -0.042179476 -0.042794827 -0.06897808 -0.18314794 -0.018893791 0.00996459 0.025575113 0.111928664 -0.053255815 -0.388127 0.022274647 -0.04111436 -0.4822711 0.10477366 -0.13907488 0.097578995 0.21888416 0.0117862215 -0.13308005 -0.045930758 0.11559266 0.07776101 0.0898131
1049 0.05642543 0.047344673 0.22175133 0.08402108 0.060127497 0.0058874977 -0.056898244 -0.03363125 -0.04020511 -0.0463495 -0.12284715 -0.049155395 0.051708944 0.05944082 -0.015175943 0.023165522 -0.0629845 0.24437223 -0.08812089 -0.27125397 0.21871223 0.32681805 -0.29156178 -0.027683327 -0.005215622 -0.23158488 -0.21513543 -0.16216937 -0.19865762 0.2175513 -0.009389304 -0.12595905 -0.22729932 -0.0086039975 -0.07052284 -0.3581487 0.20402431 -0.023785574 0.11740784 0.033571772 0.26808125 0.06937554 0.16928291 -0.10259121 -0.004770748 0.022149533 0.018752519 -0.18101095 0.25294524 -0.024068225 0.042667244 -0.09878311 -0.29236943 -0.77587396 0.0027416735 -0.2967512 0.17761318 -0.024523145 0.022906983 -0.12900425 -0.135018 0.04114865 0.024392279 0.27827036
178 -0.073209815 0.09438937 0.09838975 -0.062052086 0.07918839 0.049514346 0.102739826 -0.08767112 0.013425033 -0.07186374 0.1653235 0.1586149 0.012284163 -0.072230324 0.12486883 0.015580761 -0.16081536 0.13965733 -0.027499542 -0.45557636 0.23368116 0.11669254 -0.15147603 -0.079361826 -0.15550672 -0.08425157 0.01717851 -0.306038 -0.15666388 0.13346325 0.09697291 -0.24846657 0.027528308 -0.3491604 0.20635456 -0.33800262 0.32493985 0.01101114 -0.14531575 -0.20293748 0.10694041 0.22038005 0.08405006 -0.21875843 -0.21031429 -0.036321808 0.022655398 -0.09578043 0.21072388 0.018064054 -0.3261369 -0.15282907 -0.20481905 -0.5979373 0.0792951 -0.08494951 0.33938706 0.34657142 0.16069573 -0.032804098 -0.06142796 0.028564055 -0.19734465 0.06434487
2539 -0.15633312 0.050311524 -0.08485351 -0.09698035 -0.093109444 0.13615553 -0.11020522 -0.20049523 0.03463031 -0.056258447 -0.20732409 -0.20479462 -0.07358736 0.061752576 -0.05693211 -0.09182517 -0.23391332 0.116628036 -0.36785534 -0.4152771 0.19047135 0.29929233 -0.23923814 -0.0024115797 -0.0787757 0.019619796 -0.2104391 -0.267988 -0.06940283 0.18111765 -0.008807645 -0.39597306 -0.17750347 -0.049083497 -0.21107012 -0.40002477 0.14810057 -0.008208034 0.12829813 0.06642073 -0.0073526027 0.07999573 0.079109475 -0.07581033 0.04113303 -0.16606931 0.07029971 -0.18549481 -0.04765057 0.06364888 -0.15937434 -0.08967283 -0.18747193 -0.40197235 0.19875303 -0.07402275 0.25868753 0.37642023 0.13973795 -0.20213413 0.02333144 -0.15866627 0.21498273 -0.054238737
1447 -0.0051746108 0.13678245 0.15030295 0.24545105 0.18313824 -0.06079639 0.061469533 -0.057855636 -0.0856037 0.08235478 -0.05136232 0.18948606 -0.1339144 -0.2633547 0.0294245 0.29275063 -0.057327192 0.31281242 -0.19173868 0.055818558 0.19661395 0.13054338 -0.2644481 0.08192528 -0.19775829 0.04681588 -0.090724796 -0.16039297 -0.3229186 0.34089214 0.18155365 -0.37256438 -0.32184872 -0.30052736 -0.13175689 -0.41716507 0.40362224 0.18892524 0.098231144 0.109793514 0.1452401 0.23296453 0.030038802 0.1788215 -0.0021106915 0.11636656 0.26003703 -0.2277246 0.03868136 0.066613846 -0.25790948 -0.008242976 0.09831992 -0.4058747 0.06296488 -0.05641363 0.09334848 0.07585011 -0.0022246798 -0.22750697 -0.15798277 -0.017681826 -0.18367766 0.041668445
1024 -0.19599992 0.10054335 -0.14670958 0.10255932 -0.004943975 -0.061989374 -0.18100306 -0.15639004 0.1388975 -0.06358413 -0.105519414 -0.029241158 0.050912008 0.016903974 0.09697781 0.12190944 -0.2924515 0.2586811 -0.389167 -0.25153428 0.15486974 0.17935018 -0.20314799 -0.05637467 -0.089410715 -0.0058055082 -0.28740185 -0.17370762 0.0065080323 0.20517915 -0.17634408 -0.20621279 -0.24477978 -0.18259603 -0.2094942 -0.40391853 0.20652851 0.07966404 -0.10462515 0.012144044 0.027973168 0.21496868 0.10701379 -0.2393089 -0.05628712 -0.04210313 0.069329135 0.015344171 0.063375965 0.012178859 -0.045594882 -0.03938487 -0.13319668 -0.5050278 0.13949108 -0.11963288 0.18766032 0.13382336 0.025898974 -0.07352637 0.04814453 0.07425577 0.08750928 0.021935735
1701 0.039159067 -0.030417783 -0.05917085 0.10896636 -0.06315022 -0.17517376 0.020466268 -0.17258435 -0.09797485 -0.2523832 0.07317502 0.024006838 -0.1969704 0.069859505 -0.1276042 0.05944634 -0.19650607 0.09570508 -0.17983237 -0.4684718 0.21941856 0.19667545 -0.23496535 -0.14514536 -0.22340693 0.19935846 -0.30836728 -0.26242793 0.002128858 0.19214578 0.010547213 -0.3401251 -0.271409 0.039564908 0.15724698 -0.10487962 0.14671259 0.11198457 0.01588156 0.057696156 0.28159696 0.2831309 0.050250687 0.025955055 -0.12177542 0.18065773 0.11950572 -0.27225146 0.1951828 -0.08176324 -0.17038667 0.1374685 -0.22711629 -0.47172773 0.11761434 0.20717761 0.2794016 0.050680034 -0.0446876 -0.10097009 0.036877137 -0.05586254 0.046677392 0.100437716
2692 0.1927409 0.028219407 -0.045633834 -0.12568994 0.05256367 0.097945094 -0.11208344 -0.039987773 0.1006619 -0.09531837 -0.21410888 0.015121621 -0.04782907 -0.10738162 0.18667679 0.095175385 -0.29363915 0.29319483 -0.306247 -0.35917488 0.14712109 0.18981141 0.05871201 -0.031486135 -0.092129566 0.10853513 -0.1271832 -0.2736272 -0.064589694 0.18618107 0.16342245 -0.3823037 -0.2835029 -0.2975627 -0.063176915 -0.36550745 0.22650751 -0.1317385 -0.08314313 0.25485647 0.09398009 -0.10411882 0.095797755 -0.16750434 -0.06586067 0.004144762 -0.052128963 0.0111610545 -0.05566604 0.19149828 -0.15043078 -0.09025609 -0.059647426 -0.47690824 -0.0773979 -0.20706543 -0.13901311 0.15991963 0.059465103 -0.13963689 0.11813991 0.14088623 -0.14381757 0.074137166
1242 0.20180562 -0.14068958 0.122293994 0.07919096 -0.01035938 0.059514824 -0.20322254 0.07694361 -0.034845833 -0.18378939 0.20602947 0.017489137 0.034245633 0.059918698 -0.011621815 0.14009713 -0.14865366 0.084860705 -0.16410805 -0.396567 0.18618637 0.3293558 -0.140391 -0.01031542 -0.20716022 0.020632602 -0.0730912 -0.43148896 -0.1777432 0.053592574 0.12369192 -0.21555856 -0.09733013 -0.06007274 -0.019717788 -0.3977298 0.34243044 0.1563664 0.0039016185 0.041689277 0.0963662 0.22881572 -0.022061817 -0.019543365 -0.16062787 -0.023236278 0.23452516 -0.15498994 0.13284522 0.114647485 -0.21224459 0.09987354 -0.014708812 -0.22394544 0.11006524 -0.052581728 0.27428478 0.049149945 -0.0033531478 -0.27598408 0.073348664 -0.023178386 -0.22836135 0.29934186
1392 -0.0059651406 -0.07691783 -0.15117201 0.2662517 0.17873596 -0.030597558 0.0247988 -0.19138204 -0.10342105 0.054576915 0.071700074 0.007054664 -0.03447439 -0.14113979 0.2250802 0.26836637 -0.302417 0.14541525 -0.34057403 -0.16774075 0.12296533 0.21844521 -0.10754278 -0.21256402 -0.048734102 -0.002496232 -0.1346207 -0.3256982 -0.052406657 0.3280731 0.3937481 -0.2880758 -0.1061625 -0.29554695 -0.03936182 -0.18365523 0.336493 0.008962745 -0.0921628 0.2835333 0.11379205 0.2078744 0.004265177 -0.0053070374 -0.039572164 0.16717128 -0.07396544 -0.21070042 -0.0830616 0.047765747 -0.19533573 -0.04647071 -0.08630494 -0.4756788 0.023142202 -0.17121595 0.019392403 0.13215443 -0.039597597 -0.3114271 -0.022219107 0.15152717 -0.034030363 -0.041683327
653 -0.0095491605 -0.12857854 -0.04896135 -0.035222083 0.2349899 -0.015298154 -0.2663808 -0.09331165 0.23244098 -0.15286236 -0.051517174 0.13513511 0.06411333 -0.14505528 0.06926386 -0.056579314 -0.2031227 0.15429239 -0.3310879 -0.477102 -0.2119802 0.23531727 -0.22779106 0.039298207 -0.08659564 0.03586948 -0.060328033 -0.2589003 -0.073548175 0.20599708 -0.022873137 -0.33700705 -0.109127104 -0.04495137 -0.20590836 -0.460503 0.17767684 0.066448316 -0.09838987 -0.031290304 0.08358443 0.061658297 -0.021506058 -0.068036176 0.01613907 0.18744215 0.071807295 -0.12378051 0.026921405 -0.036853906 -0.12955074 0.10155451 -0.025772616 -0.5635834 0.19427723 -0.1986385 0.007687006 0.13943444 0.13655582 -0.06993384 0.021936063 -0.032824226 0.14375351 0.14144698
1894 -0.15937573 -0.03304092 0.1321409 0.054783408 0.060216255 -0.12104249 -0.101076424 -0.016614875 0.0071771434 -0.35465458 -0.15724823 -0.101434946 0.14109401 -0.22291134 0.03923554 0.09962956 -0.112246506 0.20492832 -0.3349805 -0.39947313 0.013413068 0.11425654 -0.052867167 0.10594306 -0.24328789 0.11609988 -0.319749 -0.41001818 -0.15898032 0.16088168 0.20421182 -0.40547356 -0.004360455 -0.40339974 0.008689079 0.0048074606 0.17276883 0.0003009601 0.16503873 0.040418133 0.17453839 -0.03659626 -0.054610588 0.05681962 -0.11433456 0.120043 0.10533968 -0.16276237 -0.16185364 0.18173082 -0.20448574 0.053352423 -0.073415734 -0.31635916 0.1272828 -0.2205428 0.3224837 0.09569124 0.01917059 -0.3880549 -0.03962094 0.094287194 -0.072548464 0.14327623
1679 -0.058062214 0.13617241 -0.01535529 -0.075267665 0.03969966 0.03203586 -0.12225662 -0.19979443 0.09595296 0.0074946643 -0.058368973 -0.058928113 -0.09104728 -0.041545913 0.020207148 0.12311406 -0.22472444 0.3668417 -0.12044533 -0.28285897 0.027945567 0.13760194 -0.21925078 -0.16005638 -0.07544209 -0.13033281 0.012929306 -0.3383003 -0.09329749 0.1616692 0.14729139 -0.15446809 -0.0360062 -0.10087117 -0.06014113 -0.33979252 0.243779 -0.15073736 0.0930519 0.043088682 -0.02299054 0.123784766 0.16726404 -0.23120667 -0.23803069 0.1593508 -0.085752144 -0.08842239 0.23273097 -0.12457862 -0.13020855 0.030095968 -0.3033072 -0.47146356 0.09264786 0.01972324 0.3490673 0.17984842 -0.12455556 -0.20385833 0.03648199 -0.030098282 -0.037700504 0.09146217
8 -0.027520338 0.059812542 -0.22661735 0.1738293 0.09967087 0.007108144 0.15413654 -0.14971505 0.3271837 -0.2454961 -0.1516147 0.07327759 -0.14332336 0.09718502 0.055529684 -0.026825033 -0.12320615 0.07034501 -0.2566257 -0.14599104 0.057257973 0.011122257 -0.3080034 0.17914167 -0.05676877 -0.040355463 -0.292191 -0.1732098 -0.10882936 0.1744861 0.18218152 -0.26907048 -0.23394567 -0.20516582 -0.022084255 -0.20247053 0.32527217 0.07961927 -0.19166352 0.055899132 0.21930484 0.054496 -0.029177587 -0.24361424 -0.20331813 0.24753645 0.02289335 -0.37973496 0.17391087 -0.14512286 -0.004427622 0.102363236 -0.19932799 -0.53580743 0.097049884 0.030697312 0.0701431 0.06209762 -0.025930732 -0.23361239 -0.11406043 -0.02350306 0.051516686 0.097137794
1273 0.052687306 0.13066962 -0.124755815 -0.062907405 -0.12937409 0.065369196 -0.21079883 -0.14036556 0.056380227 -0.22644964 -0.068536185 0.052061856 -0.091594614 0.068717174 0.19075333 -0.047869213 -0.05952887 0.20998135 -0.3910825 -0.38865736 0.13545673 0.15527344 -0.08215366 -0.01768569 -0.12605368 0.27150187 -0.041407775 -0.51569396 -0.21984051 0.26860788 -0.05638869 -0.08065846 -0.15026812 -0.21988018 -0.040887486 -0.20140241 0.15525325 0.13426462 -0.083519325 -0.14218079 0.12534432 0.04825868 -0.02747108 -0.08041287 -0.076394916 -0.032808926 -0.11933139 -0.116274424 0.056112748 0.19653234 -0.23809834 0.011511555 -0.13311581 -0.42575672 -0.11735119 -0.31059608 0.22808297 -0.017544731 0.22772665 -0.22041933 -0.19238222 -0.078919455 -0.06753173 0.328503
1673 0.112162136 0.04998548 0.0050325096 0.034969147 0.04435197 0.02793285 -0.00016665008 -0.15658374 -0.117593125 -0.33713853 0.0331037 0.10662274 -0.14551519 0.0042370344 0.17561264 -0.004578636 -0.25422347 0.033417683 -0.29944173 -0.26133817 0.14468198 0.1159186 -0.029031213 -0.09420488 -0.20587291 0.009316585 -0.06980871 -0.32288608 -0.21034333 -0.084111996 0.06785148 -0.11417861 -0.1548632 -0.16137707 -0.008767668 -0.2699549 0.28512058 -8.982898e-05 -0.04753096 0.0038529534 -0.047819138 -0.073664434 0.22824949 -0.22443393 -0.35999075 -0.056108717 0.005896456 0.00086441246 0.17284717 -0.04553204 -0.3704407 0.15598609 0.045353167 -0.6091353 0.094684556 -0.044564955 0.12571017 0.066321954 -0.023623997 -0.26144093 -0.013422235 0.08291707 -0.06310689 0.16665763
2534 -0.06222601 0.16391176 -0.12476476 -0.05475408 0.033446234 -0.08977964 -0.24682398 -0.06598405 0.051576212 -0.21671337 -0.01770995 -0.1525206 -0.07634532 0.022857266 -0.106967 0.006607082 -0.23200096 0.16271748 0.11466127 -0.29203525 0.17333612 0.1879665 -0.1445357 -0.03942241 -0.13030013 0.16674857 -0.25787985 -0.07982555 0.042952683 0.29305738 0.23203517 -0.27433854 -0.3079233 -0.26891252 -0.055776272 -0.27191392 0.35973328 0.116506904 0.015346734 0.039442107 0.081871904 0.08740387 0.14670496 -0.2784991 -0.0045982813 0.15494949 0.3544426 -0.07124531 0.025714127 0.02535519 -0.055415414 0.03398709 -0.06030163 -0.49638054 -0.06440885 -0.24827622 0.21748847 0.02928016 -0.11965577 -0.18495089 -0.005547167 -0.078415155 0.017681569 0.19282311
2552 0.1937279 0.01932402 0.15997918 -0.026365144 0.2570921 -0.057040032 -0.060669858 -0.18353191 0.18500601 -0.40142292 0.15991676 0.11414537 0.0940846 0.034154385 0.08443862 0.1763988 -0.15864295 0.065192305 -0.16737077 -0.44334915 -0.030216299 0.23417114 -0.084442325 0.19774902 -0.1483192 0.013496098 -0.034796868 -0.22980994 -0.04010182 -0.07182428 0.09262169 -0.19209729 -0.32618758 -0.22991967 -0.14164107 -0.35992786 0.33798495 0.03207773 -0.030212533 0.05825755 0.22151688 0.09964503 0.01463503 -0.14769852 -0.12441799 0.10209321 0.04408476 -0.058672886 0.095537536 -0.14546292 -0.028866662 -0.09315833 -0.30817172 -0.54262877 0.11606123 -0.041039743 0.061302092 0.03199136 0.038540456 -0.10469087 -0.28413305 0.06501241 -0.11321147 0.089876026
2609 -0.06527461 -0.16097097 0.0069979923 0.07663213 0.022727221 0.09564813 0.018692555 -0.12148375 0.07495434 -0.04099489 0.020646043 0.08042041 -0.08022695 -0.111230426 0.18919882 0.07467193 -0.21608043 0.15408973 -0.3454477 -0.55801266 0.16450952 -0.07415151 -0.2746888 -0.14688782 -0.18035826 -0.010109045 -0.24203864 -0.16446353 -0.13659495 -0.0007051483 -0.07262585 -0.11696137 -0.1089832 -0.2050225 0.05632288 -0.20067474 0.31122378 0.0079905875 -0.09486252 -0.089564204 0.2220125 0.20514247 -0.024222063 0.02000915 -0.1284798 0.08116657 0.30525956 -0.11548101 0.3321947 0.10834411 -0.07957929 -0.062703356 -0.13732497 -0.5001096 0.030341549 -0.115716115 0.123132795 0.15272248 0.10059363 -0.13517344 -0.085308135 -0.049061894 0.05269783 0.107194155
14 -0.095401675 0.0407248 0.10670496 0.24172415 0.22044311 0.055962104 -0.19807252 -0.22025807 0.06910913 -0.084156215 -0.13215634 -0.14127345 -0.09575639 -0.17127098 0.03925528 0.036975436 -0.29343724 0.3491509 -0.25083297 -0.066205345 0.20073003 0.0077150133 -0.22939101 0.009519523 -0.08930888 0.09448782 -0.16316006 -0.28787982 -0.093943566 0.019716993 0.00065617944 -0.17204212 -0.35280445 -0.16078568 0.030680824 -0.3777644 0.52647245 0.000115455034 0.10533466 -0.011306664 0.11075145 0.21000154 -0.05079009 -0.014720186 -0.1898542 0.06682951 0.11838641 0.08167396 0.025228476 -0.15308918 -0.34871525 0.08574633 -0.080711566 -0.49070254 0.15002587 -0.09295264 0.06370957 0.039074164 -0.14594223 -0.3246365 0.06358277 -0.03852182 -0.07476794 -0.05518438
1728 -0.092932045 0.07271369 -0.14980905 0.043976236 0.12743318 0.17652309 -0.07691546 -0.114016905 0.23441036 -0.07273735 -0.14877138 -0.105050415 -0.02433267 -0.030211868 0.15197867 0.17531553 -0.1010417 0.13491735 -0.010730253 -0.40379032 0.056039866 0.20459226 -0.17965932 0.041807946 -0.07229988 -0.20679799 -0.13936466 -0.3327259 -0.12724896 0.066428885 0.23811944 -0.25874853 -0.049191136 -0.2583082 -0.2651482 -0.22207318 0.4224885 0.079336695 -0.07149211 -0.038087342 0.10586607 -0.0075017824 -0.1420237 -0.11610041 0.06871308 0.020990448 0.065761395 -0.065209456 0.072648354 -0.054776106 -0.28343108 0.24193676 -0.11419868 -0.34260798 0.17717266 -0.103464276 0.26698285 0.19552286 0.05761311 -0.3337036 -0.05665357 0.15604907 0.053117834 0.16208436
1126 -0.026813235 0.0077573797 -0.10950319 -0.06291248 0.21873769 0.026047785 -0.014290642 -0.37874252 -0.21183272 -0.1668699 -0.06318579 0.18276376 -0.32005978 0.06235574 -0.0022669267 0.08059442 -0.11453101 0.15347533 -0.25832388 -0.4628613 0.22756891 0.16424295 -0.26546118 -0.1143565 -0.02520471 -0.10381141 -0.12856242 -0.063071206 0.09053672 0.2276706 0.12161416 -0.14323144 -0.09968005 -0.12670708 0.005877723 -0.3700679 0.33311668 0.15756632 -0.087950595 0.0927212 0.11184766 0.124917775 -0.01621177 -0.2051847 0.072815634 0.09619707 0.27498507 -0.3927573 -0.1699032 0.15161192 -0.21255235 0.03887125 -0.08051822 -0.58084047 0.022014592 0.058458414 0.13465475 0.31477988 -0.06501187 -0.22554068 0.009700837 0.062814005 -0.0118285995 0.15299068
2032 -0.34812754 0.2200961 0.13766596 0.2780288 -0.064785205 -0.10850503 0.10415083 -0.2510283 -0.00014925974 -0.22535399 0.016446743 0.0038405808 0.14552005 0.12312081 0.27351928 -0.058448907 -0.25940427 0.44162735 -0.3346574 -0.35007268 0.12014992 0.2024333 -0.16708376 0.06247109 -0.253589 0.076814 -0.08236981 -0.25350004 -0.105541006 0.09537924 0.034940753 0.049811848 -0.057049047 0.14880735 0.075466186 -0.33314434 0.43482208 -0.115328945 0.012636444 0.1686406 0.14402413 0.3221383 0.08673934 -0.24474216 -0.028024117 0.12635717 0.03842908 -0.08595304 0.24502648 0.076574154 -0.2872247 -0.0990131 -0.20237625 -0.46407598 0.078696676 -0.04761041 0.030781103 -0.03199475 -0.05321539 -0.17429626 0.04815551 0.15169163 0.15479812 0.332187
2320 0.011306122 -0.08398415 0.28978837 0.008350875 -0.116434865 0.027113484 0.020867292 -0.18996786 -0.012064616 -0.12248025 0.0017927745 0.09443972 -0.23460013 -0.17496406 0.06536396 -0.08494473 -0.12196724 0.2747658 -0.16023032 -0.40400714 0.07493843 0.09133003 -0.13931215 -0.14281262 -0.073348425 -0.04516033 -0.11620045 -0.19120389 -0.009015149 0.39926836 0.059214402 -0.40753067 -0.15396406 -0.32811052 -0.059510387 -0.39138266 0.15373282 -0.06266418 -0.0019821494 0.17911068 0.17484356 0.2906871 0.13198921 0.033442523 0.013539447 -0.02559179 0.028330747 -0.11493903 -0.015744327 0.067099355 -0.30094904 -0.047833174 -0.23597966 -0.3029619 0.04281729 -0.18563007 0.334948 0.27647153 0.12924333 -0.2991423 -0.12237818 -0.12634249 -0.07416293 -0.17148748
1119 -0.015953079 0.110983595 0.1889735 0.20958117 -0.041848715 0.091473415 0.0989063 -0.025901139 0.058323205 -0.20994513 0.18354058 -0.1736967 -0.264951 0.046058267 0.12686507 0.04753488 -0.12565632 0.096375324 -0.32312316 -0.30294508 0.13437834 -0.005379128 -0.12118786 0.000803919 -0.13806449 -0.071753174 -0.22558 -0.21378751 -0.3534966 0.0035466535 0.083173506 -0.20569004 -0.33155808 -0.34089923 -0.033181105 -0.12626262 0.31077403 0.013203021 -0.095874056 -0.21090253 0.019923165 0.094785124 0.16801421 -0.14123341 -0.00037065477 0.0036824667 0.036465835 -0.1099753 -0.01027406 0.23970589 -0.13981919 0.020435542 -0.2322158 -0.5044236 0.11949157 -0.046061195 0.27333158 0.13587776 0.18029565 0.08933696 -0.031035088 -0.06729888 0.05623149 0.15604545
1055 -0.09408395 0.052005287 -0.018416494 0.10189962 0.043983493 -0.040430702 -0.13119633 -0.006826221 0.09315561 -0.15138702 0.13092972 0.0002951249 0.13414212 0.09043539 0.08949656 0.11567514 -0.2172766 0.1252167 -0.43593377 -0.21878912 0.06635899 0.07758256 -0.073762216 0.019418985 -0.31306502 0.1530898 -0.2639883 -0.52413225 -0.16600841 0.2508298 0.05333752 -0.24153416 -0.09244171 -0.114832476 0.10426483 -0.13332672 0.15223551 -0.04055805 -0.037091207 -0.060836818 0.18117377 0.19545552 -0.13446993 -0.07136196 -0.10962066 0.16247153 -0.020272149 -0.22377643 0.06301709 0.061056852 -0.16007297 0.027661966 -0.25485277 -0.32331574 -0.07141445 -0.032623135 0.26893717 0.06817917 -0.018453581 -0.3659504 -0.11525567 -0.14653887 0.041722447 0.19363791
2343 0.1666405 -0.0681124 0.17137584 0.057263628 0.029310707 0.14907943 0.04349194 -0.05310211 0.053721577 -0.17768846 0.14337307 -0.07627646 -0.2622118 0.1461508 0.037288208 0.19723696 -0.2429642 0.28249043 -0.25845125 -0.44786528 -0.10246637 0.14174598 -0.24417776 -0.102820575 -0.1716164 -0.05300495 -0.18236163 -0.16806856 -0.08790304 0.18332388 -0.03387248 -0.07194802 -0.049709752 -0.057688676 -0.2733391 -0.3428643 0.31639484 -0.15970774 0.057133194 0.019634018 0.14788473 0.1557812 0.22485468 -0.19019654 -0.029974539 0.106672905 0.25835252 -0.22862145 0.032829106 -0.13661154 -0.34620532 -0.054373212 -0.0942723 -0.48809382 -0.115776494 -0.19242613 0.23259915 0.05368682 0.005435348 -0.094625145 0.1131272 -0.023034401 0.124926195 0.27559388
2367 -0.16880186 0.1583815 -0.04377701 0.021407632 0.1213133 -0.11852173 -0.21066034 0.033670764 0.01867361 -0.17732988 -0.21605659 -0.16968818 -0.08155607 0.038055774 0.014988686 -0.120123714 -0.33005297 0.1149864 -0.37529275 -0.2813396 0.012278168 0.29745236 -0.13678554 -0.20105451 -0.1684346 -0.14845367 -0.29047734 -0.43140876 -0.09398637 0.20628603 0.1511521 -0.06552218 0.011697062 -0.08626326 0.16364647 -0.30042902 0.15940668 -0.109088 -0.10897076 0.03328342 0.2704141 0.09119695 -0.067505375 0.12201866 0.0037764686 -0.12570171 -0.03851996 -0.2998074 0.014729345 -0.08553009 -0.29842556 0.04447764 -0.11956931 -0.4167386 -0.032709222 -0.022889828 0.12623556 0.252658 0.023828715 -0.31917906 0.055988513 -0.0557126 -0.024207681 0.0801896
2438 0.009245694 -0.20891751 -0.039987445 0.20120025 -0.039461374 -0.05798781 -0.09393849 0.040955737 -0.06229536 -0.17645621 -0.03539616 -0.08484453 0.13832082 -0.13023987 0.0016153553 0.23915234 -0.4537018 0.29612628 -0.41388103 -0.33536622 0.22963688 0.17173481 -0.2915035 -0.12796101 -0.18911694 -0.003611402 -0.14407642 -0.23058063 -0.18043986 0.3019851 -0.07418578 -0.16237994 -0.31874108 -0.27170426 -0.17918393 -0.16201064 0.06257338 0.115757555 0.11414922 0.07134363 0.031816807 -0.033993524 0.07892876 -0.13812561 -0.046771117 -0.09171305 0.09938178 -0.1806001 0.017074686 -0.09393332 -0.07930235 0.01295045 -0.15186091 -0.41832694 0.054284956 -0.13724224 0.076275036 0.09984892 0.1590786 -0.13966076 -0.069228716 -0.076296814 0.005384895 -0.031723723
1274 0.02834951 0.055645935 0.097455405 -0.06591581 0.046822667 -0.27450654 0.14131741 -0.10514952 0.040997274 -0.37215036 -0.2308704 0.032328248 -0.06291667 0.1937197 -0.024768405 0.08285608 -0.16138631 -0.058234904 -0.3769288 -0.071619354 0.22730784 0.098508306 -0.08743835 0.1463507 -0.3450545 -0.014919469 0.08569607 -0.2931358 -0.17150041 0.27172047 0.07879191 -0.4201034 -0.21508892 -0.12883945 0.013132971 -0.24258591 0.16655411 0.048226826 0.07351206 0.10925368 -0.074762836 -0.18395989 -0.030882018 -0.30141795 -0.110750385 -0.11590704 0.18607435 -0.41917792 0.1334241 0.011333787 -0.22942059 0.04384339 -0.21310377 -0.63014656 -0.033055127 -0.053029723 0.03093532 0.18880612 -0.008273573 -0.18263742 -0.14612524 0.047347605 -0.010371101 0.050512087
30 0.07600256 -0.19015686 0.19469327 -0.103633255 -0.0128715085 -0.08849766 0.13921446 0.112584434 0.0024972581 -0.030125178 0.009292946 0.05195314 -0.013656034 -0.120612875 -0.11848397 -0.08361474 -0.20121339 0.29037595 -0.114966035 -0.50835973 0.14265881 0.21462764 -0.30482164 -0.09154013 -0.09209696 -0.19595414 -0.29199383 -0.32373986 -0.13196845 0.104460716 0.32224143 -0.31349918 -0.16510451 -0.11840289 0.15365362 -0.46944052 0.40207794 -0.13311043 -0.1262169 0.06706763 0.017763214 0.21935895 0.03209568 0.019816287 0.009482534 0.09270321 0.1893635 -0.2247686 0.032882612 -0.18821716 0.07472789 -0.03299456 -0.25637582 -0.48647714 0.18369761 0.006251337 0.13693678 0.014941078 0.07176439 -0.025360694 0.05902107 0.088288926 0.07423804 0.17720212
1996 -0.027893286 0.058817036 0.021879373 -0.020359762 0.079888545 -0.036161736 -0.07223725 -0.32795733 -0.021085987 0.016363041 -0.18148959 -0.009559477 -0.24447645 0.1645168 0.23145458 0.1189277 -0.15405318 0.2848525 -0.20082922 -0.29611266 0.13862327 -0.07215356 -0.1842263 0.080129966 -0.17190725 0.13556673 -0.5541862 -0.05275022 -0.2348847 0.22991091 0.072660536 -0.103848904 -0.2028668 -0.14090987 0.06006101 -0.33373272 0.5424534 0.09418864 0.059956294 -0.030311514 -0.09987388 -0.11867355 0.030613663 0.010329214 -0.13594224 0.08948656 0.20833528 -0.12670426 0.24436818 -0.1409545 -0.10159247 -0.09206328 -0.14797582 -0.45400056 0.06420136 -0.05063421 0.33978683 -0.03392377 0.06375633 -0.19578889 -0.22256643 0.08307368 0.027571287 -0.083429076
869 0.074421145 0.11051566 0.00854861 -0.0372344 0.002873025 0.038397145 0.06659774 -0.1381176 -0.010389946 -0.24661064 -0.023178766 0.05702451 -0.3105944 0.12677905 0.01131293 0.104606286 -0.36330968 0.07610795 -0.15141557 -0.3714121 0.20481499 0.010284996 -0.06348033 -0.20349845 -0.07795219 -0.033051006 -0.22808474 -0.17069817 -0.02983828 0.078824505 0.048857026 -0.203477 -0.10710115 -0.12439293 0.20183216 -0.36944935 0.14176518 0.020713925 -0.19102308 -0.036550287 0.38291642 0.12425521 0.19700296 -0.06818914 -0.12866913 0.021789998 0.04317252 -0.39834264 -0.09413577 0.07719573 -0.35111132 0.08915101 -0.19728704 -0.50624716 0.09030052 -0.05803793 0.006936306 0.20511514 0.13139728 -0.28088775 -0.012986571 -0.06923523 -0.0036185295 0.21799788
2229 0.1891825 0.064664975 -0.0297821 -0.081994526 -0.2762529 0.0034695426 0.0045771124 -0.20236744 -0.005278978 -0.22592816 -0.05098458 0.027712258 -0.33999074 -0.17651433 0.17767425 0.2469227 -0.17486694 0.24654257 -0.39211956 -0.54020274 0.022999423 0.0037907546 -0.09874371 -0.06828878 -0.09143416 -0.045986388 -0.099738955 -0.28798485 -0.14572734 0.10908406 -0.06427588 0.013902534 -0.1919293 -0.19809784 -0.26161584 -0.22480066 0.1637375 -0.045268044 0.050935417 0.021808887 0.24761136 0.09236359 0.051030274 -0.09143291 0.030050974 0.0719036 0.14893441 -0.13303821 -0.0032088086 0.03838255 -0.2751694 -0.0012082154 -0.08228848 -0.38966817 0.119992025 0.0283597 0.0768382 0.012059711 0.0482859 -0.33245882 0.043961942 -0.28390282 -0.10948826 0.18534373
1347 -0.0026734415 0.038170792 -0.049241595 0.12386316 0.07357469 -0.09618086 0.082719475 0.010314338 -0.020710642 -0.15858598 0.06901219 0.207894 0.07824686 0.055682845 0.12750076 -0.2809043 -0.26534647 0.14969684 -0.30702564 -0.42057943 0.22276244 0.16527629 -0.0055655628 -0.14625517 -0.24127972 0.14739047 -0.22086613 -0.14744505 0.113780595 0.35609028 0.32466605 -0.27144048 -0.14058813 0.0516076 0.24684079 -0.34991083 0.46864226 0.19411273 -0.050487954 -0.08532843 0.08674566 0.38095784 0.07092009 -0.12650152 -0.06087789 0.041073274 -0.08974037 -0.050500974 -0.061025713 -0.0024835817 -0.119980775 -0.07480171 -0.26855266 -0.48894942 0.19367239 -0.07266702 0.10531102 0.04638154 -0.08387977 -0.2514533 0.1034235 0.051715124 -0.08634507 0.26529372
2118 -0.0079136435 0.015026775 -0.118029185 0.08207003 0.22637099 -0.038194362 -0.17148328 0.024442771 0.010141358 -0.14794625 -0.028478935 -0.0016171819 -0.011067497 0.08616808 0.14629462 0.033334598 -0.28103203 0.09752913 -0.36233926 -0.2659153 0.15948533 0.20199482 -0.12528504 -0.08261053 -0.17028292 0.09201014 -0.26739237 -0.18120283 -0.024261685 0.10163549 0.15143976 -0.2522434 -0.27786532 -0.21856754 0.038505077 -0.28342605 0.32031724 0.098774604 -0.04663473 -0.16643704 -0.045780223 0.020603571 0.049514364 -0.058501367 -0.3173415 0.07573136 0.13892156 -0.32871595 0.082386516 -0.023071432 0.00840749 0.2446309 -0.041730396 -0.42729372 0.11041844 -0.12559952 -0.0047658803 0.16718711 -0.19083813 -0.20447506 0.11903811 -0.09045041 0.115289725 0.18938436
226 0.074410275 -0.048076596 0.104213335 0.20074554 -0.15256889 0.022279264 -0.09927227 -0.0663297 0.0016151681 -0.054602426 -0.05928423 -0.1152485 -0.03087827 0.04097048 -0.06768507 0.02657271 -0.18299295 0.30877724 -0.33537942 -0.52556247 0.053674683 -0.086962365 -0.054244485 -0.110118985 -0.02525882 -0.024245877 -0.018139137 -0.3607624 -0.2061872 0.03522434 0.14942911 -0.13180712 -0.28194326 -0.3460889 -0.22550738 -0.4079673 0.4309947 -0.12779348 -0.062134486 0.21648513 0.16351089 0.2097135 -0.029543785 0.047415927 0.023172315 0.010427551 -0.0060691065 -0.21583977 -0.04315352 -0.03501508 -0.24401493 -0.10011377 0.08324177 -0.4541409 -0.019587943 -0.044788484 0.035328243 0.051541835 -0.0028953517 -0.08802513 0.06192566 -0.14267407 -0.16550122 -0.013289248
1175 -0.12400855 -0.07833981 -0.14191982 -0.06693291 0.054845 -0.20494355 -0.17985193 -0.11240378 -0.038433455 -0.04467314 -0.06210513 -0.25708604 -0.021368641 -0.08080332 0.08866577 0.027548153 -0.16449746 -0.019134607 -0.18080765 -0.3227731 0.14082246 0.26516193 -0.11520807 0.10791145 -0.080857664 0.041908007 -0.21328633 -0.24404174 -0.13103116 0.121837005 0.20451291 -0.26432106 -0.19335319 -0.26767898 0.05268819 -0.14675136 0.28445727 -0.07779554 -0.22902304 -0.20281763 0.110696256 0.09888946 -0.19979195 -0.12049443 -0.11691063 0.27448216 -0.026601225 0.1652156 -0.0360059 -0.16203067 -0.23476079 0.12486409 -0.16789809 -0.75937366 0.1193384 -0.0038037424 0.24705313 0.21433567 -0.07455975 -0.4278743 -0.06177347 0.22006886 -0.070364065 0.12029082
1541 -0.12715232 -0.01559415 -0.08689087 0.14396486 -0.015413906 0.169773 0.05164202 -0.07580611 0.047798187 -0.18238208 -0.2611737 0.010116332 -0.06858657 0.16063209 -0.07699364 0.2635981 -0.14839685 0.06796537 -0.1286576 -0.36939576 0.29824013 0.038042385 -0.21321537 0.05169593 -0.15899645 -0.10947457 -0.113245845 -0.5720942 -0.37081861 0.025290648 0.13344811 -0.2715009 -0.12852427 -0.02421919 0.18475886 -0.430728 0.12184486 -0.17827442 0.019125983 0.11365296 0.15285696 0.23900805 0.00014684907 -0.2065459 -0.02011535 0.15558125 -0.031329792 -0.19714576 0.358175 -0.011279074 -0.27763575 -0.065623246 -0.2463836 -0.2609913 0.12653223 -0.1414907 0.47705826 0.12250412 -0.037820764 -0.15348582 0.056588765 -0.061309546 -0.045245808 -0.1072316
765 -0.116263814 0.040583402 -0.353643 0.10067366 -0.14580089 -0.1182838 -0.22714686 0.0029124448 0.088735454 -0.30248255 -0.18525234 0.100525714 -0.055038292 0.12314644 -0.0031428863 -0.07684816 -0.123589754 0.119013086 -0.293317 -0.33259812 0.12056832 -0.03640803 -0.18898799 0.10548495 -0.22796455 0.071465716 -0.30409715 -0.43742183 -0.13328259 0.12294082 0.15939796 -0.24862586 -0.43329093 -0.071984984 -0.009194339 -0.10752894 0.29349855 -0.11349661 0.0342142 -0.018595764 0.040664647 0.20631343 0.041782808 0.0026729074 -0.039991938 0.0029183326 0.13465443 -0.20402026 -0.06500692 -0.009403293 -0.05172915 0.24465099 -0.17394987 -0.48134738 0.20100135 -0.027644409 0.21108313 0.19577606 0.05148584 -0.29986826 -0.114902 -0.030495394 0.11950702 0.15787761
990 -0.050576422 0.0036980778 -0.086803906 0.011534964 0.24681306 0.058471575 -0.137117 0.12661634 0.14737336 0.03801564 -0.2745664 -0.11671584 -0.21469922 -0.108147725 0.19556105 -0.026572386 -0.30427054 0.19195862 -0.20269425 -0.13622245 0.27092806 0.18931882 -0.3896431 -0.083400786 -0.16375989 0.0072041135 -0.2051504 -0.088113315 -0.19553745 0.21340041 0.03039403 -0.21142443 -0.15359406 -0.16368644 -0.019645737 -0.13872987 0.4470236 0.013341199 -0.15635747 -0.035805583 -0.119200625 0.040358447 0.07767296 0.005718317 0.058403254 -0.16958398 0.22686355 -0.3036836 0.012295362 -0.24466494 -0.2565566 -0.098046005 -0.00033974554 -0.35971656 -0.026926795 -0.2202203 0.14144294 -0.16630559 0.24687582 -0.4365277 -0.23295292 -0.15773189 0.084501475 0.1254433
1614 -0.2042462 -0.050320353 -0.09357043 -0.17034623 0.16611889 0.03205777 -0.05763365 -0.1715703 -0.036102664 -0.030437974 -0.22284661 -0.04494806 -0.1391506 -0.1629241 0.07809428 0.059402224 -0.18676758 0.10713538 -0.3565335 -0.41643623 -0.058007542 -0.02286055 -0.23590553 -0.18991561 -0.00955331 0.37727016 -0.30172008 -0.4225049 0.20569777 0.08544814 0.3347382 -0.2945584 -0.17476635 -0.20546737 0.067468084 -0.2652366 0.11071603 0.028736718 -0.016799612 -0.015082251 0.19476277 0.026880112 0.12060865 -0.100086555 -0.09550231 -0.006364582 0.18016061 -0.21774898 0.007167081 -0.00035317245 -0.10875193 -0.10240391 -0.13601746 -0.57829124 0.20757085 -0.07586631 0.30660594 0.2598572 0.06631698 -0.19671994 -0.014988315 -0.093901835 0.045884784 -0.004669073
1477 0.06472792 0.107145675 -0.032777723 0.022129543 0.09136709 0.07436811 -0.11811249 -0.04565003 0.20101352 -0.19708411 -0.19027385 0.037135746 -0.15810218 -0.020696444 0.090489596 0.13488014 -0.3135245 0.12622097 -0.3556129 -0.36598742 0.26715672 0.13477138 -0.015412565 0.0048100115 -0.17404291 0.034577962 -0.035266798 -0.28516945 -0.055673238 -0.25996438 0.031624876 -0.11146295 -0.15121625 -0.22260061 0.1931661 -0.27532813 0.18036465 0.0023157662 -0.22207274 0.045356557 0.10003227 0.017283473 -0.2862823 0.007020833 0.0131346965 -0.14984354 0.3501342 -0.22131893 0.17000827 0.19642328 -0.08888919 -0.052672904 -0.061093602 -0.6418037 0.16678809 -0.07036442 0.09805884 0.11788803 -0.019681023 -0.13511252 -0.11030769 -0.06321568 -0.15869214 0.048659146
1031 0.04413498 0.13532783 -0.009235074 0.06767813 0.12971734 0.16856246 -0.15827408 -0.25837192 -0.111910835 -0.09949246 -0.0048359954 -0.021669637 -0.20861828 0.033941317 -0.05939581 -0.047264706 -0.21758483 0.3778779 -0.29886112 -0.37280843 0.13609 0.11178741 0.011511583 0.04611533 -0.03947724 0.026026748 -0.27338812 -0.15383756 -0.21346378 0.1590449 0.08912356 -0.39876455 -0.12855744 -0.07934538 0.017143788 -0.29632384 0.23121841 -0.042689025 -0.0035672905 0.21875504 -0.06427014 0.18100946 0.16817583 -0.08423672 -0.15418468 0.055947475 0.09374603 -0.09663401 0.010748817 0.034321107 -0.032079764 0.045120083 -0.19543691 -0.58156675 0.1732043 -0.008774363 0.14984371 0.22521521 0.03722307 -0.15639631 -0.3124731 0.020272134 -0.04071803 0.057719614
681 0.018510368 0.1526601 -0.0990966 0.117729634 -0.022089984 -0.16413327 -0.22668034 0.09667441 -0.00085655006 -0.19605221 -0.055363115 -0.09568873 -0.029026985 -0.11039372 0.11678195 0.1823412 -0.3034899 0.0872168 -0.18230943 -0.24210532 0.23254602 0.16778623 0.020904124 -0.05876407 -0.3133475 0.20847051 -0.089109525 -0.37173882 -0.035099756 0.121941715 0.050605096 -0.13042912 -0.35350916 -0.1636867 -0.089678295 -0.2756167 0.25863817 0.16459957 -0.0012953865 0.129959 0.21316123 0.15133722 0.11305342 0.22014016 -0.054272015 -0.059063982 0.04612762 -0.16907273 0.23169422 -0.049738415 -0.26896232 0.15388444 -0.00036799154 -0.5214267 -0.017455878 -0.114433795 0.14484878 0.07464485 0.117612645 -0.33905292 -0.2035489 0.025631517 0.065931424 0.24837963
2119 -0.07747667 -0.01807946 0.069360994 0.1689609 0.09436698 -0.06942317 -0.1290239 0.1454633 0.001170771 -0.111953065 0.12777339 -0.15171725 0.044885647 -0.123164 -0.12716258 -0.0537998 -0.21202448 0.38061875 -0.15584661 -0.16375385 0.04393777 0.16248396 -0.2036655 0.050174434 -0.21754518 -0.11252683 -0.30007568 -0.16640414 -0.18713331 -0.0037408157 0.09671771 -0.1347265 -0.16899413 -0.19798324 -0.08280571 -0.07383464 0.38705164 0.19197643 -0.12769708 0.055731878 0.16908604 0.028981829 0.03674092 -0.30563515 -0.12414118 0.0698526 0.07609913 -0.20538206 0.13661169 0.042994354 -0.25712422 0.23800859 -0.14431146 -0.5162122 0.04348624 -0.10330945 -0.14813182 0.32740596 0.18427838 -0.53270155 -0.076331854 0.18028088 -0.11505191 0.22130941
179 0.26307032 -0.20449843 -0.044445455 -0.12408996 -0.019409688 -0.17397167 0.013441466 -0.05916764 -0.05395595 -0.10588134 -0.098811366 -0.05402508 -0.097384125 0.036702175 -0.029787213 -0.0114436485 -0.16439803 0.17077741 -0.26167384 -0.4950483 0.18314493 0.12016913 -0.124969825 -0.060235832 -0.24124654 0.11556413 -0.17905113 -0.20249988 -0.20638175 0.27342713 0.28649145 -0.23600534 -0.0493168 -0.030361883 0.06331536 -0.2588987 0.20854193 0.0791062 -0.12148499 -0.09075899 -0.16766421 0.086251594 -0.109014876 -0.071392536 -0.21019745 0.1141943 0.062826395 -0.10031416 0.21386199 -0.062161665 -0.25055018 -0.016149534 -0.071536385 -0.60045147 0.28204152 -0.15726346 0.21777119 0.013506357 -0.05092272 -0.0133702755 -0.012883778 -0.08455315 0.02271203 0.1599814
1957 -6.09092e-05 -0.12878418 -0.1167569 0.047562655 0.008089928 -0.045322344 -0.02667625 0.14888673 0.10445762 -0.23944454 -0.03137207 0.17928736 -0.21597178 -0.07965494 0.08964462 -0.051773418 -0.06989892 0.112143755 -0.37387472 -0.20481916 0.10700585 0.10002666 -0.488738 0.0442523 -0.1255514 0.008240152 -0.22491618 -0.318139 -0.1875015 0.22977911 0.19828697 -0.05658954 -0.23522891 -0.102625765 -0.26741382 -0.16889097 0.21589927 -0.16399346 0.009016601 -0.14544006 0.20490435 -0.042828377 -0.056949202 -0.23111068 -0.039190777 0.33024824 -0.06604301 -0.05619645 0.33520907 -0.07567773 -0.30165514 0.17235808 -0.25573853 -0.35335046 0.05468225 -0.17158233 0.29491416 0.06800736 -0.026684199 -0.36803424 0.0075549143 0.06588994 0.08084862 0.072974876
2310 -0.068087466 -0.1504376 -0.035369903 0.13187353 0.23511618 0.25470477 -0.22372192 0.06570021 0.079864845 -0.02696215 -0.22516476 0.025631642 -0.080062225 -0.08635029 -0.053925004 0.045103367 -0.08413592 0.11684883 -0.29291126 -0.40767273 0.27079403 -0.0108473785 -0.27350873 0.049925625 -0.06260385 0.08369247 -0.21579204 -0.34427476 0.0032292565 0.20211667 0.16286823 -0.10362453 -0.19043647 -0.11200459 0.04847905 -0.44270182 0.18076724 -0.12165401 0.0252346 0.027830679 -0.048794348 0.08052783 0.09280872 -0.025688661 0.009363711 0.083773784 0.25676754 -0.39651605 -0.083277486 0.038179945 -0.13996427 0.054133724 -0.012750518 -0.48423812 0.16955076 0.10407047 -0.020424379 -0.027378187 0.084211595 -0.20201513 0.10334328 -0.036783148 0.025600476 0.10810149
200 0.008705897 -0.03640664 -0.063342765 0.088735156 -0.06760057 -0.10756383 -0.10563879 -0.21205609 0.06374166 -0.40566695 -0.33781832 0.1208401 -0.060948443 -0.031792182 0.06295632 0.0665199 -0.30164883 0.2416446 -0.39238033 -0.37258667 0.35562778 -0.14077339 -0.043937847 0.024645379 -0.25521427 0.12982546 -0.07830775 -0.29995438 -0.0062244846 0.40813956 0.059318494 -0.29563564 -0.29633385 -0.004214248 0.010949197 -0.115337804 0.22266978 0.05264567 -0.01744226 -0.25372162 0.027432332 -0.04723214 -0.16889036 -0.10702858 0.0024899805 0.13053076 0.031225588 0.020186018 -0.11216804 0.04807375 -0.40208185 -0.10285195 -0.19190843 -0.29529446 0.16344881 -0.11268798 0.31966704 -0.03812128 -0.08039769 -0.16445339 -0.10293195 0.08038456 -0.17305458 -0.041552134
1340 -0.08451121 0.07719326 0.02087153 -0.005637642 -0.058041736 0.2004622 -0.1793395 -0.04539626 0.026841668 -0.0971621 -0.2885497 0.118284106 -0.226097 -0.31079167 0.08395552 0.16790693 -0.22082454 0.12705645 -0.24479362 -0.38182524 -0.09578875 0.0947401 -0.20104916 0.15493678 -0.26109993 0.0015074284 -0.05124054 -0.2605476 0.018708702 0.12520769 0.032582723 -0.23453324 -0.1492469 -0.28295112 -0.10541507 -0.47755125 0.22153209 0.12442426 -0.18112253 0.09152109 0.3661544 0.09856403 0.10067649 0.1044723 0.16526583 0.109338894 0.012673349 -0.0017175201 0.10174229 0.008021197 -0.37643108 -0.087812394 -0.06983474 -0.5150809 0.09410248 -0.032232173 0.03682156 0.0117225805 0.12685348 -0.1927074 -0.22532332 0.111040056 0.013573906 0.18742017
256 -0.04750091 -0.010426224 -0.24405317 0.20928223 0.084859975 0.08795269 -0.09840931 0.033916295 -0.0583456 -0.2090497 -0.21936008 -0.02816463 -0.298718 -0.052421987 0.0034521362 0.2530855 -0.24868877 -0.119608656 -0.1988417 -0.48734158 0.41141352 0.030913442 -0.102535754 0.033003494 -0.03794206 0.14722742 -0.2808436 -0.0957016 -0.043201018 0.13225436 0.26444322 -0.19574732 -0.15819898 -0.14727457 -0.19568089 -0.33517513 0.24497238 0.0741513 -0.115724646 0.0632313 0.17090346 0.007914547 -0.15894864 0.0007550659 0.062252697 0.2039119 0.15473655 -0.10266377 0.16496135 0.07230778 -0.31634286 0.034762308 -0.003127496 -0.4485501 0.079655044 0.04523776 0.23246625 0.18968585 -0.106445305 -0.071110405 -0.0960589 -0.039217196 0.018183822 0.08792554
918 0.22827458 0.014699589 0.13077083 0.006203831 0.16466679 0.059595853 -0.099739745 -0.19948764 0.26864955 -0.13118124 0.029148705 0.0169 -0.20930189 -0.20061782 0.19560985 0.07780899 -0.43302792 0.4195158 -0.30817667 -0.39490637 0.12728412 0.23440497 -0.27770936 -0.04004486 -0.003726723 0.13119929 0.013306822 -0.18236226 -0.0019571662 -0.067054264 0.11318885 -0.25015935 -0.034626465 -0.17003949 0.029106256 -0.43789792 0.22787862 0.14624175 0.12747157 0.11651096 0.02458329 -0.103179775 -0.11958545 0.018318892 -0.15796056 -0.014928782 0.0736794 -0.013273768 -0.026481878 -0.0027728602 -0.06275883 -0.13507962 -0.2336754 -0.50187474 0.046283603 -0.1832205 0.21713477 0.06757071 -0.12290326 -0.16530544 -0.12336744 -0.0050525293 -0.0585961 0.02187922
2531 0.099570125 0.12490172 0.16958965 -0.09915781 0.0020774603 0.02122637 -0.11476666 -0.10747416 0.002505162 -0.15063246 0.053145368 0.012057776 0.092761025 0.12096794 -0.11787465 0.20310763 -0.3913911 0.25608 -0.19876826 -0.4946185 -0.08281237 0.18507393 -0.13080487 0.048848737 0.05747788 0.07966784 -0.19444945 -0.31210884 0.08453438 0.32267055 0.10979289 -0.19332045 -0.27086192 -0.24015754 -0.01564533 -0.41103056 0.1657438 0.22906065 -0.07989021 0.068318486 0.2224911 -0.07235758 0.18170759 -0.2650587 0.054843582 -0.15379182 0.11145777 -0.28233838 -0.033206303 0.13073419 -0.12024083 0.03123614 -0.044226278 -0.579862 0.046508085 -0.20987529 0.038528003 0.1332147 0.0062179286 0.0043982957 0.049580667 0.1610914 0.00067737827 0.088832594
2369 -0.023604564 0.009576186 0.05850267 0.21842849 0.10710688 0.16240786 0.046335205 0.06170812 0.012018732 -0.16936155 -0.08049508 -0.042798605 -0.20841368 0.15078807 0.036180124 -0.024761867 -0.25547072 -0.054763637 -0.35327813 -0.33531827 0.31467533 0.012767426 -0.06968675 0.10700328 -0.056961942 -0.005658839 -0.16045652 -0.44349617 -0.15484436 0.34448203 0.02229416 -0.11735851 -0.19573827 -0.17761086 -0.1422706 -0.16063897 0.41109806 0.06584265 -0.031119067 0.0023514861 0.32909587 0.013928151 0.14765793 -0.026950413 0.10273286 0.1227802 -0.01404402 -0.0063332664 0.05185773 0.123971134 -0.12740101 -0.00015780138 -0.21207845 -0.46843216 0.081391916 -0.03957549 0.18729974 -0.15135005 0.1432693 -0.31691566 0.021047283 -0.123592995 0.10301041 -0.03308269
1016 -0.031463426 0.15363991 -0.10708494 0.016934019 0.22517504 -0.06470701 0.08525244 -0.29722705 0.13130899 -0.20320939 0.10588046 0.08325216 0.030453641 -0.21825346 0.17135535 0.078933895 -0.09080934 0.29763672 -0.4866127 -0.2802304 0.28601545 0.1944805 -0.37748048 -0.14569749 -0.14203647 0.0531193 0.07595158 -0.28601032 -0.28906342 0.31123376 0.049962606 -0.2516928 0.046161644 -0.21922004 0.0057714623 -0.4009812 0.26444674 0.18028118 0.07628336 -0.039278504 -0.045793634 0.04816565 0.03911823 -0.2868322 -0.23778605 -0.12438048 -0.014587981 -0.15592708 0.06311754 -0.17544767 -0.21037228 0.012706445 -0.17699288 -0.37053257 -0.01098963 -0.17071359 0.12720026 0.032122385 -0.11278758 -0.16142628 0.08410939 -0.09926804 -0.056106474 0.15367769
781 -0.054762345 0.06884768 0.14449573 0.1670942 0.07293607 0.031173022 0.048467297 0.05980426 0.04915898 -0.092259064 -0.06105984 -0.17146729 -0.070390806 -0.10342138 0.15527551 -0.17850274 -0.43240184 0.101883546 -0.25585887 -0.20573115 0.0047785677 0.12650363 -0.20954874 0.123479135 -0.17379406 -0.08957823 -0.23076573 -0.2520006 -0.19582611 -0.008093238 0.05091184 -0.16594554 -0.103309326 -0.16017938 -0.06293095 -0.30441082 0.27288717 -0.04381173 -0.06947929 0.022884354 0.09339794 0.14622295 -0.14596887 -0.13545768 -0.15869571 0.14815503 0.07420036 0.025858508 0.3620247 0.036243424 -0.25247782 -0.042460762 -0.17293121 -0.49465486 0.06938663 -0.027366664 0.075947255 -0.010003563 0.17709902 -0.18313447 -0.0314807 0.16257577 0.057861507 0.038729835
727 0.007913647 -0.106368996 -0.111526616 -0.013602398 0.08950832 -0.15446602 0.0008601094 -0.0660236 0.114647284 -0.16372533 0.10631014 -0.06558964 0.0013189916 -0.21925886 -0.021625042 0.13784352 -0.14988343 0.15231691 -0.2687331 -0.40578333 0.2474485 0.18510717 -0.21666011 -0.051736515 0.035340276 0.07899238 -0.18526165 -0.33336776 0.07981274 0.18315639 0.094851024 -0.09448022 -0.24015523 -0.14613956 -0.0031217658 -0.35374668 0.10532883 -0.1289545 0.04094418 0.2835027 0.24649015 0.14539908 0.03765052 -0.14569765 0.07778644 0.016355358 0.12070351 -0.075926244 -0.02294028 -0.032798555 -0.10058259 -0.06284609 -0.0964985 -0.64479953 0.090684295 -0.0045539388 0.105306104 0.14246754 -0.09127755 -0.264743 0.10877254 -0.07719403 -0.028034944 0.07353741
952 -0.03275584 -0.06320392 -0.11807066 -0.06593964 0.0892082 0.05792131 0.07132632 -0.19936273 -0.114230245 -0.11450776 -0.23302346 -0.10417112 -0.10329127 -0.23744303 -0.07073111 -0.079765745 -0.18217087 0.2113278 -0.117333464 -0.39934054 0.28161904 0.04296055 -0.082492344 0.02022108 -0.19559659 0.0113635 -0.24788831 -0.394239 -0.06997776 0.16931213 -0.09531112 -0.40026167 -0.251264 -0.1210676 0.10542638 -0.31433555 0.13705757 -0.07198437 -0.062463973 0.1689528 0.06309299 0.13066417 -0.011631466 -0.18385552 -0.055930484 -0.101810455 0.018464543 0.04356613 0.12120084 0.029107997 -0.30452305 0.0048420955 -0.26631576 -0.42622313 0.020048736 -0.1561113 0.36486882 0.23895456 0.11816408 -0.19512175 -0.13302493 0.054845955 0.0979979 -0.23973042
1439 0.036761392 0.05017745 -0.058086563 0.026790889 0.03787999 -0.054169644 -0.1553267 -0.042501885 0.0020848962 -0.058716156 0.003950607 -0.2579648 -0.17741936 -0.31006503 0.07229292 -0.010215481 0.008527156 0.26005173 -0.28043196 -0.4954808 -0.0749321 0.18552509 -0.20810768 0.040435974 -0.13733463 0.09094757 -0.36056185 -0.40209803 -0.116478086 0.17450264 -0.11095439 -0.31152743 -0.21408331 -0.16153009 0.029075813 -0.4001961 0.14167772 0.24807505 -0.058928464 0.16995242 0.074065365 0.085651144 0.14225921 -0.024438776 -0.064245 -0.07801747 -0.04752804 -0.17984158 0.05969769 -0.071716115 -0.12829453 0.13245519 -0.043300018 -0.49694404 0.14239877 0.029641392 0.1780622 0.18097651 0.13775289 0.052799635 -0.0006648937 0.19139189 0.13675481 0.21554674
1662 0.03726988 -0.17818587 0.16641015 -0.00045951546 -0.026162602 -0.04219475 -0.035585944 -0.091621995 -0.049330827 -0.1009459 -0.07525956 0.21604562 0.056842644 0.031367708 -0.07738095 0.26525006 -0.24977317 0.18228771 -0.18657848 -0.4425392 0.08971001 -0.061042167 -0.23847069 0.061196577 -0.15644516 -0.03392083 -0.0072882446 -0.419386 -0.16073035 0.19065742 0.24531657 -0.40994433 -0.23644748 -0.28760082 -0.0027755757 -0.30477673 0.22115782 -0.21986699 -0.2634024 0.08770649 0.1454422 -0.07574927 -0.08903914 -0.025318068 -0.05668343 0.103566 0.25335008 -0.25253817 0.013394502 -0.031200325 -0.24648315 -0.25661713 -0.16886763 -0.3788159 0.11571225 -0.2701414 0.05603615 0.16121088 0.1527606 -0.20648101 -0.10611185 -0.2465399 0.009231822 -0.2234932
960 0.016781908 -0.13237183 0.11436273 0.0034940192 0.042243287 -0.22986828 -0.16371228 -0.019535707 0.20058633 -0.2448283 -0.05557147 -0.094331555 -0.02513292 -0.010748968 -0.17665371 -0.037686855 -0.18233839 0.23202178 -0.085717306 -0.3403196 0.01280069 0.21304663 -0.16358882 -0.05528738 -0.15692124 0.0046929372 -0.12477242 -0.20122224 -0.21309409 0.09940686 0.026191492 -0.20994532 -0.22442141 -0.09957298 0.021122137 -0.24059665 0.1749487 -0.0432402 -0.0805416 0.04625905 0.38938725 0.194996 0.097414315 -0.044067804 -0.067310885 0.20438197 0.15791501 -0.11151852 -0.11718521 -0.12912591 -0.15261152 -0.10675829 -0.05403839 -0.626792 0.15104969 0.0016167302 0.17813271 0.0014810064 -0.0039538024 -0.27045277 0.06196989 -0.17635636 -0.11597581 0.061989117
1988 0.09311417 0.0533409 -0.0112743 -0.13138838 -0.016194813 0.07017883 -0.21106374 0.03278593 0.10291306 -0.06778559 -0.16879764 -0.027713865 -0.038386025 -0.032818317 -0.02025828 0.08887403 -0.3433986 -0.0012828603 -0.376793 -0.39040548 0.24313267 0.1342182 0.09087945 -0.19443856 -0.1786541 0.09968986 -0.08144756 -0.50827366 0.022134548 0.27304372 -0.028186383 -0.2168363 -0.14963989 -0.2514334 0.01277091 -0.19386005 0.23357792 -0.116254576 -0.110691875 -0.02394678 0.18312709 0.08548334 0.10001165 -0.17668103 -0.07126271 -0.2114126 0.16883588 -0.2548839 -0.030296102 0.007284083 -0.2671058 0.117817946 -0.22164008 -0.6332049 -0.02776111 -0.059793454 0.13172787 0.3609387 -0.08867018 -0.34367874 0.03630961 0.08419635 -0.20230766 -0.01797403
2420 0.1154629 0.13644573 -0.1790953 0.029417492 0.15445448 0.11081562 -0.11738268 -0.05675602 -0.14039196 -0.0665902 -0.061434932 0.042872686 -0.13935499 -0.11355688 -0.007358366 0.3427815 -0.20262961 0.08154122 -0.35115847 -0.340711 0.011690785 0.3493511 -0.0389455 -0.048385743 -0.19283308 0.019480502 -0.25385672 -0.3722234 -0.118396744 0.23043548 -0.07801159 -0.17671524 -0.2649102 -0.07601811 0.14347757 -0.3097711 0.17052162 0.16173716 -0.16806774 0.0454934 0.23158953 0.23089051 0.19903412 -0.02999367 -0.035725113 -0.018780109 -0.07188469 -0.10812669 -0.04133759 -0.25460476 -0.118772656 -0.09392183 -0.11817545 -0.45016208 0.079859704 -0.052552257 0.2489343 -0.075561576 0.18748596 -0.11759824 -0.12569508 0.103466995 -0.1372401 0.069185324
1363 0.026261285 0.21755436 0.09166473 0.027666777 0.10454371 -0.010467088 -0.021261793 -0.049845167 0.11690734 -0.13050479 -0.12531026 -0.035133943 -0.07876612 -0.0651791 -6.0680195e-05 0.16573407 -0.34182975 0.05941727 -0.259618 -0.30313465 0.16340382 0.17192428 -0.30915856 -0.13112558 -0.06764795 -0.13865438 0.06877979 -0.36355516 -0.34863564 0.026883386 0.12322825 -0.262287 -0.124221526 -0.2477666 0.105375245 -0.23690291 0.38865435 -0.03157191 -0.103246376 -0.1537788 0.10458531 -0.029806798 -0.018366583 -0.13295066 -0.28885427 0.082489885 -0.012975072 -0.16357605 0.18304524 -0.18759297 -0.10822766 -0.104281835 -0.24324852 -0.5490962 -0.07232859 -0.073899314 0.12973912 0.13365304 -0.15345454 -0.08114833 -0.02905009 -0.019461822 0.05057614 0.14958888
2699 -0.036558084 0.09369935 -0.16209768 -0.07489512 0.13155912 -0.26734495 -0.09450993 -0.10966336 -0.05613442 -0.27215254 -0.026570179 -0.03023253 -0.04765514 -0.0035253018 0.03915224 0.27333543 -0.25255555 0.39108124 -0.12658572 -0.39029944 0.2779286 0.25535217 0.050609857 0.13988043 -0.24200863 0.17243338 -0.20440598 -0.2643117 -0.18247594 0.015270007 0.06881235 -0.08195049 -0.19299485 -0.2577254 0.020255804 -0.075546265 0.4180437 0.06419296 0.019531691 0.1561064 0.010676606 -0.086279504 0.18262401 -0.41932258 -0.26983166 -0.013376902 0.20072214 -0.14263064 0.16844757 -0.020728117 -0.010046827 0.02719752 -0.15784377 -0.41600144 0.028941844 -0.06668986 0.07264682 -0.0015312294 0.0979713 -0.26247197 0.06195459 -0.013318992 -0.17600064 0.122471236
865 -0.0039543738 0.0009547585 -0.27754974 0.10452409 0.2540138 -0.19890687 -0.06448188 -0.13441148 -0.15521285 -0.36385262 0.01239583 -0.1292684 -0.16443227 -0.16597068 0.0777504 0.09667438 -0.22279735 0.2523215 -0.14452386 -0.26378176 0.14502221 -0.032547805 -0.1114543 -0.027608395 -0.13956945 0.23021291 -0.10435794 -0.28521553 -0.19599757 0.037987065 0.042365875 -0.066983 -0.26246527 -0.12527569 -0.09725411 -0.15756959 0.03217703 -0.15960148 -0.07944946 0.0036886015 0.006103321 0.09014775 0.0018823761 -0.22778179 -0.3004796 -0.13808434 0.091994315 -0.17281508 0.03536376 -0.20735961 -0.33303565 0.16426563 -0.24305512 -0.62314934 0.00014855555 -0.17556629 0.16359368 0.04350454 0.22774078 -0.09291008 -0.08723421 -0.16928361 -0.0843813 -0.118014656
2303 0.17239287 0.17574567 -0.03084971 0.051762708 -0.08197606 -0.02287316 -0.005722972 0.1307937 0.11529905 -0.022166397 -0.12375125 -0.03436717 0.022884088 -0.014145353 0.05797322 0.028340653 -0.1430026 0.13553987 -0.08550086 -0.29175276 0.04350074 0.31730467 -0.26707235 -0.06189476 -0.07969842 0.10287761 -0.1051985 -0.47311628 -0.3147425 0.20769718 0.004144167 -0.2405817 -0.17823903 -0.13003187 0.18789081 -0.2614454 0.3113989 0.27723062 -0.11067695 0.00056677405 0.31352642 0.15963343 0.034096092 -0.072247006 -0.096496366 0.07213021 0.05738364 -0.20573738 0.22873324 0.1498687 -0.06969437 0.13431996 -0.02997586 -0.564588 -0.08060246 -0.102315985 -0.06840994 -0.0747578 -0.030592112 -0.1762048 -0.021335792 0.07168221 -0.027598737 0.24377702
2368 -0.07266382 0.09530785 -0.061633114 0.090086274 0.21700458 0.026664257 0.0996044 -0.024908904 0.046173934 -0.12013468 -0.029456608 0.086772576 -0.17403945 -0.027013775 -0.19701318 0.011139933 -0.16248725 -0.008583806 -0.20383526 -0.25491813 0.13885058 0.13239878 -0.29638115 0.028162014 -0.09411456 -0.020136848 -0.018980961 -0.29773557 0.022503303 0.30457306 0.14227727 -0.26598862 -0.24769175 -0.0815 -0.027062967 -0.24138564 0.40231743 0.107522726 0.12810087 -0.14546499 0.15630504 0.015459605 0.05865025 -0.18291038 -0.030807601 0.18118337 0.22440204 -0.16174027 0.2648494 0.023278425 -0.17463326 0.18063585 -0.378523 -0.4950397 0.01942453 -0.014683484 0.22480449 0.14535813 -0.16814438 -0.075289875 0.11850093 -0.10648179 -0.10130859 0.32729468
900 -0.052516367 0.10196416 -0.25956723 -0.0185472 0.24571536 0.05423154 -0.101958245 -0.189122 -0.029610945 -0.29551774 -0.11568501 0.055317122 -0.25372565 -0.23314983 -0.16017088 0.11985591 -0.037758213 0.36799514 -0.42492247 -0.43393084 0.11555486 0.21749707 -0.1109527 0.098501064 -0.1712538 -0.18869825 0.008341214 -0.32946923 -0.08537866 -0.107555024 0.16437188 -0.19309875 -0.035294786 -0.054661985 -0.15799984 -0.29494947 0.22850467 -0.007428942 0.08899714 0.0742623 0.2349663 0.088394225 -0.1090578 -0.1176628 0.05627781 0.19238652 0.20509891 -0.35040134 0.035173852 0.19348307 -0.17006977 0.09731763 -0.029636871 -0.39906758 0.023499746 -0.06850861 0.16126251 0.013041144 0.10762369 -0.052412126 0.09665685 0.08620775 0.018361125 0.14137585
592 0.072528705 -0.015857456 -0.10650342 0.09571465 0.00954488 -0.15623704 -0.0706307 -0.20069009 -0.1282183 -0.25977033 -0.19923612 -0.02700928 -0.2311173 -0.059471376 0.12769036 0.1422363 -0.24856515 0.18507837 -0.28207684 -0.33556604 0.057727978 0.09943866 -0.14456706 -0.14269224 -0.11379486 0.029511217 -0.02933693 -0.43733996 -0.11065885 0.16543376 0.17710504 -0.26309916 -0.15596339 -0.014593299 0.16627961 -0.07167926 0.34097135 0.20558642 -0.19393422 -0.008251221 0.14242497 -0.068384215 0.040694878 -0.06551153 -0.06776606 0.052344125 -0.11966019 -0.13662599 0.029719306 -0.0128457695 -0.3999569 -0.068675876 0.06138442 -0.4826753 0.083096094 -0.17758171 0.33105645 0.113149576 -0.00065119984 -0.21089181 -0.28662637 -0.009503966 0.16875884 -0.052557006
