2708 64
2696 -0.059192814 0.019828903 0.050809644 0.17802298 -0.15094188 -0.2493746 0.026314683 0.0926596 -0.0072732065 -0.13443504 0.102169625 0.27374125 0.10066889 0.19026475 -0.24692713 0.1681838 0.05045643 0.17949425 0.013376902 -0.029002368 0.19523998 0.002669523 0.23654535 0.09334993 0.03372325 0.2596828 0.31698808 -0.11901828 -0.24894598 -0.14201501 0.03128716 -0.405021 0.10419726 -0.0015859823 -0.083673395 -0.22536044 -0.14335656 -0.19264339 -0.021677785 -0.102274515 -0.0025643194 0.14566822 0.1470099 -0.118757024 -0.24190478 -0.34233943 0.043166216 -0.18706647 0.19294345 -0.0040046005 0.35403594 0.065769784 0.096087866 0.09069996 0.1650385 0.07928616 0.054581925 0.29229078 0.42033103 -0.006417041 -0.023758478 -0.114340566 -0.11901225 -0.28517407
1321 0.10855948 0.032399945 -0.037333373 0.16080512 -0.083886296 0.108977675 0.072806686 0.08314541 0.11737632 -0.13486022 -0.015993744 0.24630384 -0.02154345 0.039245304 0.01338843 0.0919186 0.031316843 0.29434526 -0.027049216 -0.29812688 0.26064816 -0.05465706 0.016957326 0.1162817 -0.065283716 -0.13211018 0.11761881 0.15864779 -0.34920007 -0.2117667 0.12189204 -0.22427258 0.17552322 -0.097664684 0.24905851 -0.47669402 -0.18318586 -0.17261487 0.12272022 -0.36361417 -0.14798361 -0.124664515 0.052493308 -0.03627059 0.0398324 -0.34145686 -0.05419341 -0.099745184 -0.07860777 0.03233113 0.20428936 -0.017059296 -0.16083187 0.0723737 0.004490958 0.20830859 -0.3653808 -0.091515645 0.1799305 0.25084847 -0.03139593 -0.06159436 -0.28489316 -0.0944487
1728 0.21134217 0.13923751 0.27899116 0.09257748 -0.10530801 0.060283028 0.30025315 0.25465724 0.26395103 -0.042760774 0.1227293 0.3137433 0.03530984 -0.1170372 0.080518864 0.04943689 0.10532964 0.14615831 0.03212066 0.050517805 0.041750424 0.022542447 -0.12365606 0.015150258 -0.055425994 0.14091071 0.062563956 -0.15314 -0.2588721 -0.2896025 0.10558837 -0.071119614 0.031653114 0.18215068 0.024837976 -0.29715955 -0.1711332 -0.18922248 -0.09029544 -0.12854432 -0.027952425 0.09964949 0.043772306 -0.05942557 -0.0871184 -0.22263032 0.009304352 -0.48263335 -0.017029164 -0.17185107 0.29264882 0.16224971 -0.14255908 -0.05371995 -0.11309412 0.14166342 -0.2098155 -0.029999504 0.14476202 0.29615152 0.13750038 0.023379888 -0.06477101 -0.19068362
568 -0.08407746 -0.023708036 0.20760559 0.062184382 -0.22624075 0.14493825 0.18620454 0.041745994 0.31983724 -0.09875162 0.019279186 0.42471683 -0.034835003 0.18474153 0.102023475 -0.13982113 -0.14357051 0.1320846 -0.07778752 0.0044468814 -0.0032960067 0.025739238 -0.010497124 -0.17528808 -0.006669446 -0.12353816 0.23269528 -0.13549034 -0.06359844 -0.06026933 -0.18142287 -0.12791696 0.20484963 0.04229843 0.21114792 -0.35407647 0.04816746 -0.01671223 0.19207233 -0.22440787 0.0319832 0.16877177 -0.23941965 0.0048551066 -0.3278681 -0.2782469 0.015598123 -0.0635731 -0.31845468 0.04999496 -0.02293563 0.017380634 0.111711696 0.058870543 0.011962155 0.103756234 0.10137985 0.16841176 0.30498442 0.092453286 -0.08083701 0.06425258 -0.16690339 -0.17499639
2229 -0.21543719 -0.06788363 0.1404807 -0.082553186 0.045940787 -0.16401197 0.3830923 0.058681373 0.16958462 0.15555713 0.18184188 0.537079 0.13373357 0.08509064 -0.03080402 0.13416258 0.21165752 0.1772033 -0.17600444 -0.23229778 -0.078183636 0.21795718 0.00611701 -0.15449306 0.08131863 0.17225668 0.05355081 -0.0021175777 -0.22563995 -0.23632447 0.18592419 -0.25915077 0.18816414 -0.24968041 -0.012119586 -0.5053089 -0.022726256 -0.12084524 -0.034247708 -0.040246435 0.1576843 0.08386577 -0.16598865 -0.1320333 0.027913982 0.07247103 -0.16089939 -0.03285871 -0.20566851 0.012979242 -0.076305896 -0.15752095 -0.15514725 -0.08093764 0.077694565 -0.09854513 -0.04621648 0.0552949 0.31580853 -0.001025855 0.12140789 -0.07815046 -0.2813727 -0.016110258
1440 0.077812925 0.17178325 0.46240205 0.0044020265 -0.049778208 0.21016157 0.24552588 0.043883596 0.251618 0.07106982 0.25053367 0.232527 -0.058799643 0.021929508 -0.2528553 -0.025882533 -0.074024886 0.041339785 0.05197153 0.120705396 0.10818923 0.0371623 0.17559941 -0.26592 -0.031169934 0.15556838 0.09166474 -0.05706768 -0.21109752 -0.23361884 0.042544954 -0.22035477 0.08589769 -0.32740676 0.043780513 -0.3702904 0.04406306 -0.059209988 -0.09149765 -0.34850976 0.12423848 0.19055307 -0.11120727 -0.12452853 -0.0050139283 -0.1655693 0.18334952 -0.34139928 -0.2759714 0.080787525 0.13038252 0.0809987 -0.07912403 0.21668234 -0.0059258216 0.25679448 -0.0743751 0.0914448 0.41025046 0.2537352 -0.022371138 0.08922769 0.05019936 0.03655644
990 -0.018816909 -0.0048482614 0.029284267 -0.019610588 -0.27766326 -0.0076697473 0.08852614 0.13585128 0.004685918 -0.20843862 0.52989924 0.45763668 0.083278164 -0.06289687 0.10277986 0.035330188 -0.0368173 -0.06647262 -0.0011472101 -0.38583538 0.08936124 0.078805596 -0.0060511995 0.003725849 0.20936409 0.21534118 0.12888536 -0.22564735 -0.25850204 -0.24795903 0.1508999 -0.10151667 0.13658844 -0.1646694 0.13219301 -0.22877327 -0.050974697 -0.15787356 -0.19211783 -0.35847872 0.25740245 0.21738178 0.0055124965 -0.22599111 -0.104180485 -0.24151975 0.0013138957 -0.0006989401 -0.24476951 -0.036005158 0.010266257 0.04496122 0.057267807 0.027135737 -0.13686937 0.21826187 -0.026834242 -0.027496707 0.16731189 0.20812574 0.12588847 0.098077185 -0.22947341 0.11807676
899 -0.06352744 0.016656894 0.114530265 0.12674847 -0.45549554 0.08588407 0.33119974 0.20798965 0.08136965 0.12708196 0.07328835 0.16021551 0.06360472 0.32078326 -0.31607375 0.13662712 0.112154245 -0.014286669 0.11027193 0.15959391 0.21436682 0.097960874 -0.033477172 -0.2649458 0.09747186 0.020448083 0.0695105 0.020506686 -0.23527212 -0.059061475 -0.055460747 -0.19105822 0.040777158 0.035059325 0.15156963 -0.31306696 -0.23616908 -0.12316817 -0.09043264 -0.5295391 -0.10606113 0.22973955 -0.121680446 0.19260398 -0.29475847 -0.17998484 -0.25944528 -0.13013315 -0.21209271 -0.04227935 0.10457633 -0.043902993 0.19895485 0.21455514 -0.021038687 -0.026886122 -0.029972006 0.2944578 0.26086462 0.20141408 0.059131544 -0.0760448 -0.0912608 0.037360646
2303 0.16029902 -0.07683199 -0.060404345 -0.022619942 0.058434524 0.065826066 -0.044797212 0.2772584 0.2233704 -0.109653205 0.0945988 0.26816875 0.029379647 0.16677871 0.2585068 0.1084486 0.13103287 0.1512263 0.0049591134 -0.26510203 0.04705935 0.1359245 -0.08466786 -0.072556846 0.07111865 -0.165934 0.1017668 0.069227286 -0.17840339 -0.115354866 0.03575416 -0.27616987 0.15660454 0.083881825 0.14017667 -0.45292473 0.18024366 0.13301389 -0.09907337 -0.4362962 -0.123226434 0.2202297 0.1459816 -0.101279214 -0.053548954 -0.23770268 0.1710094 -0.13518079 -0.046117805 -0.14393264 0.040962942 0.16755635 0.012552749 0.17543691 -0.112772584 0.30624774 -0.010805903 0.0880448 0.30743706 0.10156468 0.010060192 -0.12985347 -0.28290546 0.08210257
212 -0.1706085 -0.110679194 0.30113032 -0.38072455 0.044908263 0.03272779 0.3687887 0.25511122 -0.046879645 -0.035285197 0.36611018 0.120318525 0.24018377 0.12820543 0.16333891 -0.23552296 0.080167554 0.37181243 0.34022814 0.06272271 -0.2418875 -0.12169829 0.08026524 -0.16243105 -0.08005588 0.39893547 0.033039276 -0.039028604 -0.17625326 -0.073776774 0.026117753 -0.22272913 0.22485569 0.031110099 0.105140924 -0.2150847 -0.14420047 -0.20821682 -0.05455212 -0.0730376 0.043260396 0.050199438 0.078376465 -0.039624542 -0.2548739 -0.24219245 -0.047028266 -0.21174385 -0.019066432 0.02775688 0.3973703 -0.369312 -0.16772436 0.115968734 0.025590302 0.13460158 -0.07496613 -0.28359437 0.23294349 0.09968213 -0.015541 -0.06865918 -0.29268694 0.17571172
2687 0.088384114 0.2648204 0.08496138 0.0041817115 0.010494495 0.043985836 0.24426825 0.10557899 0.101101786 0.09442273 0.2122735 0.24834657 0.07991014 0.136794 0.1828871 0.17568502 0.12747867 0.29081723 -0.06828791 0.039399818 0.05172927 0.25983897 -0.1959222 -0.22805858 -0.044577014 0.0065571265 0.14343055 0.21849193 -0.11937368 -0.12296969 0.13559356 0.0451055 0.027110027 0.0057691317 0.14949888 -0.40053242 0.07878369 -0.12281594 0.0020921258 0.02251849 -0.04705472 -0.0035280476 0.0636511 -0.20364201 -0.30724573 -0.0832244 0.14710116 -0.31857514 0.16790754 0.035051342 -0.0269078 -0.026456306 -0.12536174 -0.103564285 0.010997514 0.17714246 -0.20408936 -0.03109631 0.31770727 0.16797712 -0.14737952 0.13891578 -0.36070207 -0.11832534
2114 0.119600214 0.1914452 0.06444626 -0.0009112995 -0.056909934 0.05624361 0.27524146 0.13223438 0.03862667 -0.12233759 0.11338972 0.04724564 -0.10545281 0.36532918 0.21570386 0.2565556 -0.13337101 0.33885056 -0.05855146 -0.10465042 0.2789342 0.27737018 -0.14463137 0.0074073435 -0.11501772 0.043959633 0.44319198 -0.22217605 -0.3080504 0.05575229 -0.0052785734 -0.20475236 0.11445505 0.01477082 0.064419724 -0.22650857 0.088655695 -0.14375979 0.106268644 -0.29115754 0.16042806 0.1083639 0.08276526 -0.03703806 -0.19853748 -0.2005722 -0.1843373 -0.0442034 -0.22768164 0.10424103 0.016658017 -0.11630191 0.0975847 -0.18832323 -0.24123015 0.07891957 0.24681334 0.0780884 0.14793317 0.013296143 -0.012882956 -0.1479249 -0.20295085 -0.21926826
653 0.15358274 0.17780106 0.27554378 -0.34297335 -0.00074646936 0.14882135 0.28444925 -0.06424716 0.072585605 0.24969417 0.23588783 0.18414482 -0.3249199 0.0987439 0.2406451 0.048495576 -0.016912393 0.3161361 0.05907304 -0.18218711 0.13249588 0.018619359 -0.054731045 -0.018022079 0.013635525 -0.11377764 0.057451878 -0.17413533 -0.17861539 0.019935966 -0.03228369 -0.2217662 0.14427115 -0.09085378 0.046866506 -0.4952134 0.07714733 -0.13751914 0.15065266 -0.26714644 0.16058534 0.13076895 0.10595737 -0.25093344 0.16133742 -0.2420683 -0.2078766 -0.23138404 -0.39693835 0.1728249 -0.15490499 0.21888363 0.12910247 -0.06444719 0.13271543 -0.008437082 0.32179394 0.10096901 -0.01778227 0.32248867 -0.17966263 0.2190983 -0.2464472 -0.100486055
960 0.0957779 0.22322148 0.07594885 -0.19477455 -0.05459962 0.0010827793 0.086533315 0.324833 0.01913898 0.028468397 0.048988726 0.36640096 0.03229599 0.3228072 0.08630242 0.0959843 0.20072599 0.24030264 0.08401301 -0.19930393 -0.03531635 0.2353789 0.4213625 0.13581678 -0.056588545 -0.05676308 0.14184965 -0.21655719 -0.05665786 -0.1423609 0.09188485 -0.042027377 0.19776046 0.013594714 0.1530878 -0.22532378 0.09182571 0.079356745 0.016600814 -0.16518576 0.021620708 0.1621768 -0.08480465 0.16516922 -0.0686224 -0.1646312 -0.23502208 -0.31142634 0.0036950791 0.13990848 0.06062764 0.19685791 0.026387364 0.101133496 -0.107042745 0.07837046 -0.14395212 0.017350426 0.14605144 0.19444098 0.089769274 -0.007567562 -0.3709878 -0.22966512
2191 0.06918364 0.01829137 0.333254 -0.04202319 -0.12582913 -0.075041845 0.1569924 0.009095374 -0.013626047 0.2897129 0.18234053 0.3763135 -0.009621337 0.28564087 0.20509174 -0.14338432 0.20710446 0.14419177 0.1104095 -0.13314392 0.0011510612 0.10712053 -0.024558282 0.004075719 0.17791265 0.095757276 0.27534145 -0.25614786 -0.29354835 0.10432236 -0.1465957 -0.03127792 0.06426754 -0.07333486 0.120705456 -0.0023388835 -0.028325934 -0.07039812 0.104354076 -0.34916815 -0.1910523 0.215522 -0.14282374 -0.26784447 -0.09969734 -0.26113498 0.089930445 -0.019318903 -0.28574595 -0.12972535 0.13526209 0.25224367 0.092664585 0.124078274 0.13322334 -0.08510841 -0.01042836 0.13019657 0.27765808 0.277618 0.110375784 -0.046903662 -0.18327028 0.105387166
875 -0.06587805 0.21102078 -0.086563505 0.03959246 -0.13951284 -0.04082238 0.27965647 0.31392673 -0.26767707 0.033045795 0.32610273 0.12522301 -0.1987241 0.013276341 0.037341528 0.34293127 0.14169522 0.33628264 -0.21119638 -0.059385937 0.020889891 0.4478771 -0.33080208 -0.075856164 -0.07875383 0.16129108 0.08973328 0.12989289 -0.38403618 -0.070331715 0.35714394 -0.19817916 0.012755638 -0.083852574 0.087918736 -0.3580899 -0.0051065497 0.05407113 -0.1428956 -0.22948427 -0.18097503 -0.025181655 -0.033670757 -0.18626577 -0.1282098 -0.2146889 -0.2586672 -0.038037002 -0.119617246 -0.053823177 -0.009321944 -0.021800961 -0.31634542 0.1484472 -0.02524512 0.19936937 0.048743106 -0.091507226 0.051603667 -0.0643709 -0.15041219 0.06551541 -0.12357392 -0.0048779687
874 -0.024367316 -0.00083391945 0.29135758 -0.015386581 0.08442201 -0.009267293 0.17879789 0.37561527 -0.10385925 0.15248355 0.2658377 0.33199903 0.19488068 0.076398425 0.03935538 -0.15181643 -0.010132037 0.12731223 -0.055369765 -0.07244989 0.025241392 -0.036480527 0.01698242 0.013277502 -0.035670254 0.37791714 0.18636806 0.024189325 0.09436732 0.02011676 -0.0037205047 -0.11390885 0.16341141 -0.27390632 0.014234167 -0.3180936 -0.2959442 0.01355957 -0.14423908 -0.17341475 -0.14827257 0.35601845 0.14352001 0.1367021 -0.360469 -0.25778025 -0.07279269 -0.03244936 -0.11852657 -0.38190424 0.18602921 -0.07358918 -0.1375375 -0.06636006 0.06508661 0.19609517 -0.21240051 -0.06059556 0.16365856 0.1383539 0.09110984 -0.06331278 -0.2570919 -0.13786115
2369 0.095610976 0.10179086 0.2664983 -0.00991066 -0.11783955 0.1007483 0.122771166 0.030232444 -0.07330646 0.04851786 0.07506661 0.47197354 0.0034580836 0.19655034 0.15212026 -0.04026215 -0.011039957 0.108709365 -0.06451199 -0.13495854 -0.008502711 0.20379674 0.03092502 -0.10242707 -0.017928997 0.119991496 0.20293638 -0.22607478 -0.026667003 0.061939497 -0.01871671 -0.12084623 0.24327543 -0.16739406 -0.28200448 -0.3000922 -0.076321706 0.2151083 0.122859254 -0.21851264 -0.08004305 -0.08168085 0.26666218 0.016766021 -0.5303464 -0.14848785 -0.122121945 -0.16311681 0.056454223 -0.002819878 0.15845484 -0.14887333 0.241043 0.1553332 0.002302363 0.39240554 -0.07579301 0.019566363 0.2027503 0.29745588 -0.44217208 0.1368914 -0.20123282 -0.06018861
1450 0.06995543 -0.008657964 0.09931328 -0.14836912 -0.02983072 -0.032817174 0.30408135 0.09295345 0.054350447 0.094371065 0.25337714 0.124893196 0.20009367 -0.060732473 0.007502428 -0.042953856 0.10644525 0.027231952 -0.049338307 -0.010598459 -0.043983534 0.047746353 -0.23560493 0.19088936 -0.13613747 0.054857705 -0.16183393 0.0769005 -0.282753 0.15828048 -0.15566932 -0.3004647 0.05692516 0.088881664 0.1283392 -0.5691187 -0.12005943 -0.33325872 -0.25825614 -0.10372258 0.059866548 0.14036684 -0.15227385 -0.23779698 -0.26173347 -0.24912213 0.075650886 -0.14498186 -0.10820825 -0.06026715 0.39385587 -0.1367439 -0.14139205 0.019201063 -0.017656302 0.12511308 0.008877917 0.015467853 0.35451728 0.12853858 -0.14890653 -0.21047164 -0.08271719 -0.03671909
2501 -0.11710193 -0.14316833 0.026385268 -0.23371936 -0.15663967 0.086603686 0.20699543 0.07651601 0.062354814 -0.029865863 0.2880115 0.27316827 -0.26441514 -0.15811796 0.067895 0.002276241 0.104399525 -0.034133643 -0.010097379 0.09682206 0.17623699 0.35791683 0.046717536 0.16088626 -0.030874928 0.09801714 0.17283031 -0.124837056 -0.10310777 -0.21978988 0.15348938 -0.19461085 0.29152864 -0.025841072 0.2840225 -0.17298502 0.069260284 -0.090089284 -0.1273645 -0.3498678 -0.038579565 0.15792702 -0.22617802 -0.3093562 -0.20114096 -0.3809549 0.06419352 -0.03310413 0.052949358 -0.17664483 0.3181269 0.0029362973 -0.03652992 0.19223352 -0.04931829 0.20434123 0.05706054 -0.07270071 0.09506525 0.25573006 -0.1341797 0.007618795 -0.14764549 0.014685845
1679 -0.18121228 -0.021737214 0.12211646 -0.19387597 0.060735736 0.21446267 0.32350674 -0.065729715 0.17134358 -0.06066496 0.35327342 0.2097598 0.020768538 0.16051807 0.054853514 -0.114816055 0.08365289 0.095979325 0.09418103 0.04044827 -0.051464014 -0.14006804 -0.11323562 0.04070472 -0.09033072 -0.032942567 0.21265319 0.12408542 -0.16823402 -0.07392343 -0.0073942775 -0.13750014 0.08158162 0.05067752 0.1445601 -0.110922985 0.04623866 -0.3983268 -0.16424052 -0.11217009 -0.004872883 0.22992304 0.18449524 -0.17721523 -0.19577424 -0.40053722 -0.075540856 -0.29461774 -0.31161037 -0.18109491 0.039169654 -0.0018627641 -0.021036169 -0.1034057 -0.09109403 0.25376073 0.1717491 0.19951387 0.2956771 0.20367822 0.016923966 -0.07884089 -0.29192522 -0.03267459
237 0.27424943 0.09063612 0.21844508 -0.024471585 -0.1829022 0.01376051 0.1035413 -0.0068137837 -0.057822637 -0.024538219 0.307102 0.14328903 -0.046965487 0.21978712 0.11147876 0.0367306 0.10079275 0.14415255 0.40725023 0.069549344 0.003423913 -0.03473077 -0.033579566 0.10803837 -0.07159122 0.24784161 0.15305789 -0.07219197 -0.24568239 0.038695842 0.035972062 -0.09102628 0.23290426 0.048055384 0.23565932 -0.21677767 0.30483326 -0.25733247 -0.039636593 -0.24924679 0.103105165 0.18704566 0.16383813 0.09274764 -0.16960412 -0.3592975 0.13052379 -0.062053025 -0.046786826 -0.010394075 0.018702611 0.1308779 0.00877707 0.21589912 -0.13612065 0.36866736 0.10018211 -0.14262393 0.12035608 -0.1331342 0.08991602 -0.10446351 -0.27126318 -0.24199823
1681 0.008737641 0.22992998 0.12995057 0.033787236 -0.006710654 -0.12872384 0.10821715 0.05268925 -0.14746633 0.031733476 0.21880208 0.07112467 0.04072294 0.07681588 0.04975645 0.00023105956 0.2143258 0.23611926 0.24958065 0.041976843 -0.10398861 0.051144276 -0.07154794 -0.079114 -0.07726215 0.2826292 0.33374423 0.1507255 -0.18723689 -0.34963933 -0.22931765 0.028747635 0.040143237 0.19563293 0.075267464 0.08864887 0.1476144 -0.23197205 0.21702343 -0.5976723 0.08270836 0.27988085 0.056086507 -0.2221768 -0.17108658 -0.16517726 -0.15786436 -0.16236553 0.021004828 -0.00789759 0.3135284 -0.013427832 0.20640494 0.05977078 0.1184761 0.13906245 -0.15143785 0.14243047 0.15607256 0.052339695 0.0039924495 0.00977808 -0.4314578 -0.20429148
2607 0.071377255 0.27374795 0.21847335 0.06425741 -0.14950024 0.24845752 0.2444723 0.1390055 0.15480107 0.07724667 0.28835568 0.05922852 -0.21890292 0.2232489 0.22810285 -0.032443002 0.23712961 0.34422177 -0.08107078 -0.23818499 0.15862909 0.18699194 0.07727151 0.07295687 -0.23029992 0.2787276 0.052879885 -0.1957747 -0.17393866 -0.008138082 -0.10251865 -0.040368065 -0.006362049 0.022242878 -0.0840497 -0.072332606 -0.14067367 -0.05223273 -0.16228037 -0.3882694 0.05147026 0.16236392 0.2606178 0.052054517 0.0009286383 -0.12220649 -0.122088045 -0.19999473 -0.2766421 -0.005939495 -0.05118073 -0.0010897339 -0.20464438 0.24807331 -0.067975745 0.07310569 0.26302952 0.018746875 0.17017493 0.16698205 -0.089321055 0.11843026 -0.2537893 -0.0002509753
1741 0.3221546 -0.12414502 0.102054924 0.08235462 -0.30074084 0.118801266 0.062835775 0.15186256 0.013151548 -0.015249686 0.18132327 0.25787804 0.045455247 0.27727485 0.051426377 0.21543702 0.25796947 0.053540327 0.2325566 -0.08415249 0.15824346 0.04022327 -0.19496532 -0.1450341 -0.28092676 0.024037508 0.32313836 -0.17151886 -0.14462672 -0.16720557 0.033343356 -0.00632846 0.15008864 -0.13176909 0.004828545 -0.13954315 0.010480409 0.018429143 -0.027123192 -0.38620743 -0.061521508 0.37378588 -0.04586118 0.04171571 0.06250785 -0.18821211 -0.06519847 -0.21266194 -0.031009775 -0.17914541 -0.038982008 0.0241399 0.13867626 0.26226574 0.0225704 0.27098536 0.07549315 -0.0428457 0.1362431 0.19111606 -0.113506526 0.18309556 -0.3044072 -0.21261759
1127 0.09333116 -0.010355439 0.050699607 0.038594466 -0.40477288 -0.026509387 0.045967158 0.19625305 0.21147636 0.2669137 0.22470753 0.20972684 -0.045262005 0.0017920411 0.049437165 0.08299891 0.30623418 -0.0659306 -0.06752162 -0.21318156 -0.010474776 0.32649434 -0.14903964 -0.18166162 0.078626 0.22542603 0.4229435 -0.22350118 0.21876308 -0.0026819496 -0.23595591 -0.23112634 0.09617572 0.11716477 -0.22377563 -0.048567988 -0.0031033128 -0.029214026 -0.1963814 -0.14363952 0.0152569385 0.11157835 -0.15006287 -0.1321182 -0.23416027 -0.45007074 -0.025916932 -0.06130396 0.04259291 -0.089603595 0.1159556 0.064104006 -0.0049795206 0.1159141 -0.005817923 0.29359078 0.13570115 0.037626505 0.48388433 -0.10728312 0.101883896 -0.004847595 -0.23491193 0.1333888
51 0.4191303 0.032114584 0.21246375 -0.048998155 -0.22699453 0.17795818 0.11876926 -0.23025325 -0.1604209 0.36276543 0.09106144 0.24926473 -0.100559786 0.11784633 0.14996319 -0.13603562 0.42503282 0.12862577 -0.2142314 -0.10792012 0.02157854 -0.0022466283 0.020701444 0.14562601 -0.15999083 0.005234778 0.23696923 -0.11897981 -0.13777988 0.0054094717 -0.09410949 -0.04081446 0.09813266 0.05603677 0.22294171 -0.42297092 0.039493296 -0.1726148 0.11148503 -0.2464649 0.09999607 0.109102964 -0.056485277 0.019375818 -0.4496571 -0.3513712 0.06350295 -0.2498241 -0.32171556 -0.05961976 0.08991728 -0.11080041 -0.11031988 0.06328355 -0.11349427 -0.050480947 0.14115624 -0.02171797 0.0061046816 0.041714247 -0.14599277 0.13666192 -0.25239754 -0.028997261
2064 0.226472 -0.008097632 0.34334618 -0.021556867 0.0371146 0.2798982 0.17530726 -0.04146261 0.122425675 0.004191575 0.19277199 0.34267974 -0.06752843 0.19060151 0.13807634 0.0990343 0.17957693 0.20747155 0.041344456 -0.1989325 0.18263794 0.11217037 0.09649415 -0.07679535 -0.22934403 0.16846578 0.10924034 0.037466902 -0.334124 -0.12282436 -0.079139605 -0.4354836 0.076065525 -0.122608624 0.062634215 0.06749117 0.15696546 -0.024363479 -0.2250928 -0.15492535 -0.06484986 0.27658162 -0.053900722 0.14899933 -0.12089533 -0.23725064 -0.09425882 -0.25578764 -0.13373297 0.036623135 -0.12798561 0.0698033 0.028711718 0.16901836 0.09099701 0.10384957 0.046441466 0.0524388 0.31719878 0.024534797 -0.0009417505 0.054665707 -0.23923971 0.19536741
2624 -0.068170354 -0.07759296 -0.07929192 -0.11597871 -0.00029917277 -0.25211927 0.07702621 0.13647684 0.21364364 0.12329273 0.25315696 0.27611205 0.17305389 0.022316005 -0.049184576 -0.16542128 0.13204636 0.2121836 -0.1296126 -0.048864532 -0.012978021 0.051309057 -0.15160194 -0.10247559 0.06276537 0.090748444 0.11765217 -0.13509406 -0.21303366 0.052997425 0.034901794 -0.23819767 0.13778788 -0.08797619 -0.18765616 -0.3982687 0.032889653 -0.039961837 -0.29445302 -0.2753415 -0.091180615 0.23725548 0.48626238 -0.20118839 -0.22051582 -0.015540515 0.04802087 -0.34180945 -0.08569992 -0.070670724 0.0010152062 0.08057611 0.15059377 0.21196586 0.24107896 0.22775689 0.06311696 0.17752694 0.25302336 0.09180893 0.07217415 -0.1134365 -0.33101872 -0.19937791
1708 -0.058701627 -0.09173455 -0.020449212 0.092718504 -0.081665516 -0.0024049226 0.3494885 0.17941344 -0.059660543 0.036480803 0.37791854 0.3720187 0.27193043 0.07992084 0.008815693 0.19288151 0.04340531 0.3123965 0.13440703 -0.15255615 -0.004596834 0.17002828 -0.013537602 -0.073459126 -0.13093284 0.08294461 0.02079902 -0.0537162 -0.33318633 -0.12687998 0.042562038 -0.3103072 0.14047319 -0.19550157 -0.07870188 -0.26525763 0.10152369 -0.086237706 -0.048541136 -0.024942378 -0.12563898 0.049153898 -0.183322 -0.099553615 -0.2840115 -0.03288856 -0.109591484 -0.15636222 -0.2076331 0.21871048 0.12111628 0.034061436 -0.049884744 -0.00036201096 -0.26626584 0.29415485 -0.29627696 -0.052935816 -0.0019755966 0.17377676 0.06287142 -0.24153687 -0.134027 -0.108189724
727 0.060726743 0.0035201323 0.38831922 0.09317147 -0.051906586 -0.1078397 0.4793508 -0.004239232 0.040807527 -0.20802097 0.27173468 0.14084646 -0.07054832 -0.10268658 -0.017320534 0.054408964 0.22276619 0.29625311 0.0019542626 -0.036157884 0.12922768 0.07061211 -0.14021985 0.2880395 -0.034617674 0.13465132 0.22983712 0.21018021 -0.10884731 0.12934603 -0.091492854 -0.23732895 0.24717905 -0.053543855 0.036265478 -0.23154622 -0.13233186 -0.3370812 -0.09595567 -0.15747912 0.17481475 0.10531965 0.12880301 0.015395616 -0.1889726 -0.13967168 -0.13632935 -0.0301819 -0.35035408 -0.20403644 0.15131652 -0.1038332 0.04600094 0.19283935 0.18548058 0.008276095 0.16799092 -0.083347626 0.21490791 -0.25543246 -0.048246827 0.021687403 -0.107807554 -0.053655453
768 -0.022167584 0.038452923 0.1907919 -0.05784525 -0.05401925 -0.19577174 0.2040721 0.3109022 0.18904218 0.12670311 0.3411573 0.23780769 0.13706915 0.09014968 0.29528064 0.15035947 0.14059839 0.10004896 -0.012768565 -0.053582337 -0.14703779 -0.12372655 -0.0044041923 -0.02064782 0.1401643 0.032742817 0.22560087 -0.06927805 -0.17543286 -0.23172724 -0.14744577 -0.3019753 0.037058733 0.016613875 0.021719504 -0.23155223 -0.12870196 -0.06406104 -0.0020925757 -0.31809425 0.047956914 0.032870762 -0.07102923 0.0012123451 -0.22335403 -0.22127363 -0.1879673 -0.16155533 -0.2847469 -0.23196569 0.2541877 0.019531723 -0.10500719 0.14014882 -0.11284465 -0.0050815763 0.10297314 0.05402272 0.08240077 0.016995184 0.11304909 -0.104009345 -0.07506543 -0.009426297
1274 0.18012515 0.18909758 0.09729797 0.18842429 -0.20607507 -0.17762443 0.07747102 0.0052815657 -0.022846427 0.15247935 0.21337053 0.30917463 -0.075854585 0.28209725 0.07678667 0.11904475 0.3283588 0.05809043 0.012438949 -0.06627733 0.33738026 0.22195345 -0.09514895 0.038620554 -0.043882307 0.29564756 0.3086934 0.15196308 -0.22261761 -0.14501767 -0.064071015 0.025274444 0.31665656 0.00090921327 0.22546673 -0.19179124 0.09357378 0.011817883 -0.09659697 -0.1802768 -0.026433874 0.28681913 0.16188012 -0.022584356 0.15083203 -0.33211127 0.10372289 -0.4431292 -0.13297081 -0.052229892 -0.20107464 -0.04769049 0.0015418422 0.18007833 -0.08343379 -0.061593454 0.03280078 -0.14177503 0.41403806 0.07660871 0.02377827 0.10711272 -0.29449973 0.017676318
866 -0.11421104 -0.055652782 -0.053921647 0.010256647 0.070719406 -0.004409653 -0.1358799 0.16734977 0.107122764 -0.0644772 0.118824236 0.21908619 -0.12877013 0.08945068 -0.3098911 -0.00027588903 0.23368639 0.19721144 0.1904349 -0.15946817 0.095535256 0.12166365 -0.23506248 0.061085522 -0.13152018 0.29090244 0.2425717 0.25294045 -0.14644112 -0.2533638 -0.17889585 -0.44223505 0.1601119 -0.07223512 0.2015101 -0.2699255 0.14931738 0.20081724 0.12904789 -0.084172755 -0.13191792 0.16444798 -0.1087509 -0.12158899 -0.16430594 -0.16571389 -0.029558657 -0.096565194 -0.19281274 0.22299063 0.21887468 -0.024170382 -0.017766984 0.327438 -0.12715288 0.34169808 -0.082121536 0.15623905 0.2780822 0.14944194 0.04755249 -0.016879445 -0.39173082 0.019816386
846 0.05231458 0.034242224 -0.091147475 -0.13388108 0.037192095 0.02223221 0.14325315 0.25293404 -0.09497077 0.22487688 0.3528482 0.08986283 -0.17085126 0.2117832 -0.06469466 0.05874374 -0.22189882 0.06276471 0.06559462 -0.36573917 -0.05765095 0.34456965 0.005913331 -0.21936342 0.09206056 0.18359075 0.08117334 -0.14806879 -0.07188119 0.05305233 -0.031511903 -0.40903983 -0.016418474 -0.12557645 0.03619063 -0.08128312 -0.041288294 -0.18171011 0.048251595 -0.13590644 0.27641305 0.28644142 0.002399463 -0.045112655 -0.2320614 -0.2814344 -0.10954508 -0.2823372 0.21986446 -0.010655275 0.1515653 0.12094882 -0.039454218 0.13521823 0.10832337 0.3115147 0.17032164 0.14323442 0.33161813 0.05506468 -0.1375139 -0.13986667 -0.333578 -0.04591434
2368 0.25002497 -0.02378062 0.106277585 -0.06481756 -0.005084203 -0.06646947 0.17281681 0.08174363 -0.096591905 0.1694568 0.09180251 0.47763148 0.027039949 -0.15830481 0.04501815 0.09794766 0.032052636 0.13404438 -0.05767696 -0.16398615 0.014024624 0.28168297 -0.010844496 -0.050565347 -0.20016073 0.14942305 0.02167359 -0.11994317 -0.1707848 -0.2772435 0.08663482 -0.2845911 -0.102613784 -0.226168 0.34836966 -0.08429896 -0.06742632 -0.16434817 0.09452401 -0.14849097 0.095460914 0.061446358 -0.08815966 0.011094806 -0.36043805 -0.36697325 -0.012751742 -0.41126946 -0.3106617 -0.15589924 0.08194434 -0.010329915 -0.09784289 0.21521823 0.010423943 0.2627378 0.051101882 0.021834929 -0.06871525 0.03765092 -0.10586948 -0.05409028 -0.22174187 0.0041034697
2508 -0.03981969 -0.16981116 0.3968663 -0.06040659 -0.03799519 -0.075376466 0.25149652 0.104840495 0.17830846 0.062083524 0.092401706 0.31465787 -0.1923446 0.18260059 -0.011137001 -0.0014404928 0.21352993 0.2670532 0.08374876 -0.28826442 -0.13423668 0.132104 -0.06679382 0.10276248 -0.099989735 0.2161784 0.025705043 0.15844838 -0.29347622 -0.014937845 -0.042383052 -0.1529352 0.22577937 0.07148444 0.16443506 -0.044170137 0.11638443 0.06660543 0.036305245 -0.15103544 0.017294256 0.22616781 0.100110985 -0.21340655 -0.18159835 -0.41688085 0.23005097 -0.2465037 -0.15886916 0.0646184 0.033156488 0.11627569 0.10072347 0.11589058 0.03555847 0.15484938 -0.24256764 0.0015160355 0.082427494 0.049011063 0.08984758 0.0052024755 -0.36747319 -0.006573618
1075 0.11943385 0.021871157 0.10432937 0.0174269 0.00051546824 0.24936372 0.11859937 0.033572994 -0.041811768 0.14714538 0.33683082 0.38565212 0.19607821 0.2003584 0.07092742 -0.27357677 0.17651887 0.086365394 0.14844993 -0.054146368 0.07692554 0.12434664 -0.0149919195 0.10986877 0.069008805 0.15840997 0.17027692 -0.123582385 -0.04873815 -0.20686382 0.037768137 -0.26204896 0.21882369 0.08399552 -0.002834393 -0.3556136 0.010317505 -0.18026304 0.04668755 -0.21112666 -0.07328572 0.34110638 0.024233907 -0.0030375586 -0.18129627 -0.2113838 0.023975473 0.050340276 -0.19549236 -0.295431 0.038572036 0.05066458 0.1488686 0.300895 0.2649707 0.11625571 -0.1860588 0.10697742 0.13056567 0.04597411 0.26375058 0.055155456 -0.08850457 0.08693502
1861 0.026350489 0.001774954 0.15211572 0.03249578 0.074423455 -0.045953244 0.12885432 0.13900948 -0.050736316 0.09687898 0.34713694 0.2528994 0.15050207 0.13148169 0.09733626 0.0601882 0.44824266 0.15382321 0.18143162 -0.33908454 0.25920206 0.23682071 0.029345697 0.0952721 -0.20305172 0.23734139 0.18299627 0.057135273 -0.32981968 -0.14581971 -0.00037759167 -0.083366305 0.1313028 -0.039172918 -0.048695784 -0.11752341 -0.2152005 0.06154328 -0.15362544 -0.28969362 0.0323955 0.06133104 0.2417051 -0.012389026 -0.15879108 -0.015379001 -0.07476257 -0.17964521 -0.105364114 -0.17196168 -0.13773234 0.016165754 -0.15813106 0.23498125 -0.009679995 0.20695099 -0.22729148 0.10342439 0.17614412 0.050417256 -0.18903655 0.21411856 -0.09721108 0.023037067
1575 0.03766098 0.268559 0.12091072 -0.21344058 0.15967807 -0.033226945 -0.11256129 0.16597858 0.037229348 -0.21775052 0.030653335 0.3049229 0.01654342 0.08623504 -0.050389998 -0.025661724 0.24120755 0.31816417 -0.16410594 -0.03544651 0.11544135 -0.015099959 -0.1710614 0.08817189 -0.04281341 0.026092015 0.20197055 0.10779591 -0.22694926 -0.12233792 -0.018668529 -0.18997407 0.2767094 -0.0913872 -0.019604364 -0.5527764 -0.12370095 -0.21404262 -0.120700225 -0.11979723 -0.08911734 0.22323309 -0.02133983 -0.10684146 -0.39132 -0.3519859 -0.1969692 0.08637549 -0.11588542 -0.07025072 0.030652592 -0.0008309332 -0.044162888 0.048072744 0.0014746245 -0.007453835 0.18878053 -0.06209396 0.20859683 -0.058974765 0.11697572 0.31837177 -0.22719045 -0.077231
2571 -0.07627633 0.035744775 0.14913543 -0.073141314 -0.083028376 -0.18085738 0.30036816 0.2819326 -0.07941633 0.07693975 0.24327517 0.28203875 0.21543628 0.1737861 0.3078305 0.0026880633 -0.00057264016 0.17927024 0.19891217 -0.059659418 0.14705415 0.27999088 -0.093970485 -0.036505647 0.13646834 0.06131757 0.086111054 -0.10430481 -0.09444204 -0.13349771 0.08761578 -0.24348503 0.2721829 0.040438246 -0.012549134 -0.29056138 0.055686597 -0.15769204 -0.023422185 -0.2989804 -0.10071209 0.08867169 0.021942595 0.0032849528 -0.25825295 -0.16479482 -0.0065272334 -0.18766013 -0.26581454 -0.15834916 0.14354607 0.162564 -0.051916346 0.19640024 0.022721918 0.21982494 -0.05969736 -0.025129432 0.0021366773 -0.094458245 -0.18583602 -0.059172183 -0.15289226 0.06963775
1121 -0.020136768 -0.086679734 0.07410954 -0.20348409 0.0764301 0.050048374 0.17390206 0.35236263 0.26682502 0.21588843 0.09428439 0.34724656 -0.028080713 0.09517377 0.21637745 -0.13916263 0.4020464 0.097684465 0.067980535 -0.2512763 -0.05431528 0.11059897 -0.18141243 -0.22481361 0.0145237865 0.15866828 0.0064896233 0.07503172 -0.30394807 -0.09875708 0.22640991 -0.08590033 0.16095439 -0.12431438 0.19341184 -0.13779902 -0.18845595 0.055417128 0.11536543 -0.27554378 0.2200297 0.20567983 0.12264177 -0.1762479 -0.027800005 -0.12406263 0.058440823 -0.108796075 -0.27853033 0.023479417 0.079998754 0.08197232 -0.028744923 0.27768838 0.050749272 -0.03690868 0.02546745 0.30522966 0.13293757 0.17614907 -0.072684616 -0.09365885 -0.29897898 0.16035883
2427 -0.14506234 -0.04623387 -0.055846352 -0.09207913 -0.08693137 -0.13455471 0.29484415 0.19898741 -0.18700725 0.022009628 0.23396392 0.32222146 0.050979234 0.24167241 -0.19253278 0.3900716 0.23515649 -0.054936823 -0.027860053 -0.1839096 -0.094459735 -0.06713671 0.057287425 0.017989282 -0.001119272 0.15336858 -0.07643679 -0.06637051 -0.37665775 -0.06455338 0.28546587 -0.15821569 0.10517968 -0.0390055 0.24310721 -0.117902875 -0.14692353 -0.0919396 0.00059232983 -0.14549118 -0.08201489 0.23704034 0.25885087 -0.17241004 -0.22185688 -0.35384804 -0.110337466 0.013481753 -0.29047033 -0.13451771 0.043873735 0.017954383 -0.114844665 0.011038454 0.16337793 0.16801567 0.08682103 0.3087037 0.085279785 -0.032539293 0.011692193 0.122922145 -0.29617172 0.045837693
2599 -0.021454047 -0.008393671 0.015717799 0.026732264 -0.15316615 -0.18521531 0.31675228 0.20426638 0.003555317 0.06831207 0.43633196 0.36747402 -0.034276497 -0.042388365 -0.024322018 0.15247187 -0.18835421 -0.027442131 0.16035192 0.0229232 0.1440406 0.14676216 -0.20127007 0.17370766 0.20278132 0.36927325 0.041060504 -0.059801545 -0.28245828 -0.031136064 0.067103915 -0.12272269 0.17361727 -0.053023435 0.12618314 -0.23793085 -0.002901507 -0.2788409 0.12266065 -0.32207674 -0.03743984 0.016559597 0.22957006 -0.24277501 -0.19672333 -0.25944224 -0.06683322 -0.23766151 -0.21047811 -0.02897747 0.14352863 0.09663291 -0.0010287577 0.058927957 0.21810861 -0.16731073 -0.2189972 -0.04595991 0.11995691 -0.12447017 -0.0012973092 -0.31497994 -0.27331975 -0.05273295
1348 0.06596247 -0.04140762 -0.05237629 -0.04200994 0.041336946 0.062221214 0.16741924 -0.13419865 0.11674787 0.005513207 0.29699776 0.16164722 -0.08499362 0.2621641 0.0018369233 0.27022642 0.31311366 0.04574613 -0.08185221 -0.19866014 0.010517429 0.054680422 -0.011337923 -0.038175426 -0.32811788 0.24784978 0.20041566 -0.13289733 -0.24911205 -0.0025399432 0.08809818 -0.30108124 -0.096647985 0.05959322 0.19638476 -0.32270375 0.024371102 -0.21046558 -0.0016295213 -0.01057471 -0.09482996 0.40257365 -0.14445123 -0.18044962 -0.054729205 -0.2902108 0.053471055 -0.15202072 0.06848485 -0.047096595 0.24439882 0.01987168 -0.19461295 0.1334645 0.22506492 0.12911752 -0.008054265 -0.05115348 0.09440123 0.04318927 -0.12728429 -0.03536773 -0.20631811 -0.16508329
226 -0.08567895 -0.02367608 0.16423088 0.03354063 -0.3175919 -0.13713218 0.124744594 -0.018647008 0.18664928 -0.033159573 0.17845918 0.2309071 0.015691807 0.099303626 0.18046486 0.16781783 0.13276772 0.18805052 0.003730403 0.124615446 -0.09287127 0.29396087 0.29578066 0.034513947 0.010911876 0.14285213 0.18395127 -0.1296754 -0.1687186 0.07096273 0.15672952 -0.27460855 0.37992886 0.063002795 0.16528887 -0.26694047 0.12595533 -0.043253236 -0.08653733 -0.22905494 0.038100917 0.070455246 0.15996902 -0.27843082 -0.0090349475 -0.18750575 -0.25275743 -0.26441124 -0.19265886 -0.13909006 -0.0075067184 -0.022426004 -0.049093887 0.2502525 0.035155457 0.2046136 0.07488365 -0.09178662 0.1321009 -0.08558541 0.23113303 -0.37928593 -0.12977608 -0.11188092
2420 0.13928235 0.08742785 -0.024423104 -0.3002467 0.002750528 -0.27824888 0.07822749 -0.047000457 -0.101723686 0.057529956 0.34885624 0.3764835 0.016667636 -0.044059686 -0.06711575 0.056339476 -0.13532889 0.12721595 0.3021916 -0.19451259 0.009481063 -0.24543294 0.060923763 -0.17531459 -0.21952541 0.44369027 0.10976023 -0.16319495 -0.25180393 -0.08330096 -0.08634773 -0.36605594 0.070979424 0.08873941 0.33805868 -0.115313135 -0.11962398 -0.1426615 -0.07088546 -0.044941153 0.21930479 0.2850165 -0.06235473 -0.02509756 -0.29692805 -0.27412903 0.09164322 -0.14428262 -0.02944466 -0.07246122 0.2853312 0.19952814 -0.08538143 0.2948827 0.062637016 0.26352808 0.12806629 -0.06532826 0.20141248 0.10866822 0.10161939 -0.12494574 -0.066350706 -0.2998758
1057 -0.0629927 -0.16058221 0.32059193 0.15294375 -0.054083083 0.0015983355 0.024427442 0.3132901 0.26340026 0.03188251 0.3127325 0.04234993 0.15534936 0.08426636 0.3721664 0.07661299 0.20449892 0.304789 -0.11336495 0.15501767 0.15439811 0.08851385 -0.15074411 0.020729953 -0.014059008 -0.027213164 0.2650216 -0.07450356 0.006338337 -0.27328938 0.15661235 -0.37944868 0.07560787 0.30555773 0.26821822 -0.3410451 -0.13955069 0.10543282 -0.31817797 -0.1198793 -0.024764212 0.15381892 -0.039446484 -0.34006417 -0.47568977 -0.12813072 0.05068968 0.15965217 -0.25682777 0.07232009 0.00047681355 0.19885682 -0.22934243 0.13450822 -0.018388083 0.13075116 0.08985594 0.19249763 0.020476803 0.11240263 0.07230693 0.10268492 -0.25966603 0.036145195
2358 -0.06349213 -0.068817616 0.07695652 0.018408135 -0.07448387 -0.14870271 0.17771265 -0.06505565 -0.11245861 0.13119984 0.2585244 0.3196282 0.18881856 0.03169032 0.17223416 -0.031951156 0.24599764 0.0911073 0.29325163 -0.20529042 -0.037353445 0.1302619 -0.113618076 -0.043777727 -0.061292827 0.24556275 0.18691874 -0.102331944 -0.029463287 0.1620357 0.13095023 -0.29169548 0.07250399 -0.067444846 -0.010356695 -0.40968546 0.09951798 -0.09307685 -0.18534471 -0.15011063 0.079485975 0.020379031 -0.035365872 -0.406951 -0.3471133 -0.10534989 0.12299059 -0.16196494 -0.2500123 -0.09782177 -0.07431127 0.015535912 -0.029889854 0.4062417 0.07115309 0.06625072 -0.10043013 0.04558673 -0.01245122 0.2435716 -0.20301019 0.07581755 -0.23400624 -0.009532446
1445 0.10101088 0.116497725 0.26911142 -0.18167825 0.17012551 0.09274515 0.022925839 -0.03191902 0.17404762 0.34139627 0.460796 0.16876085 -0.07156788 0.007207089 -0.15198784 -0.07834836 0.23292081 0.02371324 0.04496595 -0.05714329 0.042995844 0.078144215 -0.047543753 0.05054998 0.009175982 0.25836885 0.03797683 0.07873866 -0.25013152 0.13644212 -0.018777907 -0.060885582 0.13499469 -0.13142185 0.24431415 -0.25009704 0.023516607 -0.10752828 0.10199293 -0.073645934 -0.048072398 0.27806067 -0.13262555 -0.16707133 -0.28089517 -0.18137473 -0.19280343 -0.1374646 -0.12828396 -0.15190358 0.033577014 -0.11795801 -0.07744301 0.08132226 0.13976619 0.23091018 -0.07317832 -0.051187526 0.23119274 0.14198264 0.015272787 -0.030988835 -0.19385839 -0.1677396
2636 -0.15358742 -0.21121913 0.010600672 0.080700226 -0.17523614 -0.2423528 0.19675039 0.29439643 0.15978158 -0.026744325 -0.0648025 -0.016543426 0.084014595 -0.024960777 -0.05668898 0.102272384 0.18661396 0.02422397 0.12905015 0.11019828 0.16953433 0.30378595 0.09997922 -0.113627866 -0.25851232 0.07884911 0.3173435 -0.33445537 -0.13446204 0.034801677 -0.0060589355 -0.11901968 0.24741733 -0.17676757 0.008566414 -0.2203077 -0.15312676 -0.2134704 -0.14676592 -0.19797988 -0.048712492 0.29829887 0.11353358 -0.02179035 -0.29980752 -0.23700628 -0.12923586 -0.119310714 -0.106808476 0.1585731 0.09803266 -0.16082868 -0.13868672 0.25741163 -0.047051936 0.14272742 -0.17230783 0.122128665 0.30108607 0.26707476 -0.24733958 -0.06933254 -0.16182575 0.20164488
1310 0.028483909 0.25203058 -0.23686668 0.24591076 -0.073910624 0.0061155465 0.09748501 0.41962412 0.19690022 0.3155852 0.19105427 0.07979639 -0.18261339 0.08536969 0.047815207 -0.09241963 0.18239361 0.05890468 -0.18724577 0.041329823 0.074139476 0.32019672 -0.1093086 -0.20480497 0.06795419 0.05546001 0.30376053 0.0033483342 0.041645467 -0.1442953 -0.05472577 -0.43635175 0.24292958 0.020849496 -0.034481857 -0.21758047 0.09224916 0.012780277 -0.031352364 -0.019365866 0.062818356 0.24894169 0.10496628 -0.20264141 -0.266954 -0.22894809 -0.14081717 -0.1457037 -0.28548768 0.14966787 0.0032667674 -0.20526841 0.036235042 0.24310054 0.17615394 0.16318491 -0.19399327 0.16263644 0.02282496 0.22876468 0.09859269 -0.041284822 -0.36917886 0.15630522
1815 -0.11493566 -0.014354661 -0.08427841 0.09269668 -0.41960075 -0.05753573 0.28487393 0.12742643 -0.0913744 0.08711375 0.14859843 0.2194201 0.14058529 0.37995976 0.17413153 0.2884183 0.07234743 0.18748389 0.13786681 0.15384555 0.017128648 0.27047122 0.08667057 -0.084625766 -0.1606293 0.0069856117 0.0137153445 0.08866586 -0.17978923 -0.1116262 0.059219465 -0.3397002 -0.042019848 0.18535435 -0.06769168 -0.47092023 -0.23242286 -0.22003956 0.06597056 -0.11207018 0.017707137 0.25469694 0.04270396 -0.034702495 -0.10392329 -0.31159154 -0.026593396 -0.34280607 -0.16443674 -0.030351354 0.18398671 0.068101466 0.16175255 -0.023786413 0.040421575 0.046414524 0.15273876 0.04784412 0.037815657 0.1281811 0.19726695 -0.4379432 -0.2253556 -0.00913343
0 0.042805143 -0.13576567 0.04488803 0.14718536 0.009389516 -0.07741517 0.17248721 -0.062286485 0.07476688 -0.051403772 0.105235115 0.27344984 0.1374411 0.22550711 0.147441 0.012573473 0.031020345 0.28069305 0.16534847 -0.24671909 0.19362427 0.04613077 0.2878545 -0.0915565 -0.28240407 0.16714531 0.16189845 -0.15218082 -0.15098299 0.01766718 -0.13739987 -0.14407186 0.32101515 -0.03962316 0.4499187 -0.13727088 -0.14844252 -0.00821205 -0.13012195 -0.4140905 0.24825859 0.122306734 0.0069216243 -0.19867502 -0.35862058 -0.08296861 -0.054118946 -0.08463252 -0.22508557 -0.15204455 0.09833627 -0.08912563 0.23602727 -0.010132641 0.14785206 0.09783414 0.07199146 -0.030112125 0.03878552 0.33042145 -0.34710088 -0.022845555 -0.36166534 -0.027382007
2118 -0.066909485 0.1823756 0.24582346 -0.124442555 -0.10744606 0.18226814 0.25241318 0.39261883 -0.040822916 0.0792735 0.10715009 0.46662077 -0.13501267 0.26573008 -0.18580097 0.011302164 -0.18167526 -0.034524012 0.0009517536 0.06021163 -0.08600487 -0.023625804 -0.1061408 0.118257344 -0.007446648 0.20202503 0.14937897 0.04992402 -0.1999162 -0.05179842 -0.06177537 0.07389456 0.18478586 -0.08130299 0.35402796 -0.21481243 -0.0044382866 -0.36546427 0.12762466 -0.077500746 0.2522776 -0.052432474 0.23996127 0.0030569108 0.019991545 -0.26301512 -0.017403515 -0.16281879 -0.12390816 0.21699052 0.21977012 0.2226289 0.035905506 0.14341645 0.045100614 0.2542434 0.014654055 -0.14518462 0.17312197 0.31842056 -0.017119206 0.027748736 -0.30045605 0.160065
2041 -0.22330351 -0.022985535 0.2814212 -0.0091913175 -0.37301245 0.14038734 0.42106035 0.13008241 0.09067309 0.015128943 0.13194384 0.161513 0.17019258 0.11299454 0.06925642 0.19354819 0.15968536 0.11157363 0.13341424 0.068574496 -0.08502491 0.14853849 0.1971195 0.08219543 -0.12873214 0.092259124 0.24133343 -0.16875301 0.17166257 -0.06873178 0.23295705 -0.2185572 0.11233189 0.08776147 0.04606263 -0.42968133 -0.049394578 -0.22453728 -0.104825065 -0.022169111 0.053490393 0.041435238 0.18086097 0.01015187 -0.18824759 -0.35930973 0.24333192 -0.14625637 -0.16165969 -0.007732746 0.24580717 0.072285645 -0.051750943 0.056898706 -0.043957304 0.15499473 -0.08911559 -0.23429978 0.09112857 0.21696317 0.08313552 -0.09220829 -0.22379562 0.116694264
765 -0.010164707 -0.10799337 0.22310217 -0.028969264 -0.08772998 0.005986074 0.1725645 0.13454357 0.04040127 -0.07625003 -0.006852694 0.21553545 0.060643636 0.24433517 -0.08489008 -0.021034308 0.059900377 0.058919452 0.007993781 -0.092125386 0.05157276 0.03732064 -0.18692635 -0.22096929 -0.36276686 -0.033139065 0.069165975 -0.0006774148 -0.119811855 -0.08780525 -0.20786265 -0.0033577583 0.3493308 0.09472264 0.024562897 -0.093621686 -0.13427384 -0.051809587 -0.036866963 -0.5283632 0.18674354 0.060797263 0.07564812 -0.065427355 -0.2689251 -0.25978228 -0.37316987 -0.17857422 -0.19172287 -0.0734579 0.4199086 -0.10713095 0.03349138 0.44619104 -0.030706098 0.17263426 -0.14525284 -0.060243562 0.1720541 0.16220704 -0.1453496 -0.000876656 -0.11942362 -0.04692665
1894 0.12306179 0.020683851 0.06709531 -0.059478186 0.05625215 0.057177972 0.09700579 0.15499568 0.12146459 -0.29143864 0.21044709 0.0088354 0.41878772 0.037117 -0.041269213 0.24348639 0.19028188 0.05951534 0.13671824 0.05442599 0.037042018 0.14081725 -0.22703017 0.10200813 0.028556751 0.15518403 0.41053325 -0.092204064 -0.17196363 -0.12728792 0.30463994 -0.12036028 0.02383703 0.03845231 -0.062072862 -0.18306755 -0.02345029 -0.19749032 -0.16413666 -0.30765283 -0.08383869 0.10318921 0.022725351 -0.04791083 -0.26084557 -0.29005885 0.0064864177 -0.21640909 0.11588052 -0.18247363 -0.11309461 -0.0068355813 -0.24754708 0.0124531705 0.042601958 0.35551795 0.14688568 -0.0188503 0.0672799 0.00081084756 -0.18124114 -0.053863544 -0.38332063 -0.31346315
865 -0.082199305 -0.13887894 0.11614409 -0.06154428 -0.2210519 -0.261349 0.119683556 -0.0024580886 0.18192148 7.388198e-05 0.28285182 0.23146403 -0.074606456 0.24083939 0.22369765 0.27459356 0.14464828 0.14846157 -0.004211482 0.030138716 0.107657835 -0.07565826 0.18242256 -0.09334053 -0.011641603 -0.068437144 0.29037163 -0.074390694 -0.3069672 -0.10572918 -0.25839263 -0.17549169 0.21048127 -0.07788741 0.014696025 -0.22927962 0.0809498 -0.006236818 -0.1556276 -0.1600144 -0.028727723 0.023387631 0.010118365 -0.12454914 -0.31717908 -0.36106023 -0.0063927057 -0.004308384 -0.1637592 -0.11382164 0.09798689 0.06135315 -0.06591854 -0.12794891 -0.011214803 0.32779324 -0.09646119 0.00025824158 0.20824543 -0.027785685 -0.22139373 -0.13469535 -0.34695894 0.085735604
2531 0.08135774 0.042990945 -0.17008978 -0.048711397 0.05301616 -0.028877785 0.15501839 0.20846118 0.017334053 0.2135619 0.12799962 0.23583984 -0.0070395404 0.35569713 0.060622107 0.11097058 0.006429516 0.099401586 0.09736665 -0.26121274 0.07218675 0.07953444 -0.09501844 -0.010517662 0.043654207 -0.015230919 0.03440038 -0.006455614 -0.12970382 0.021679739 -0.052583862 -0.062495645 0.3900468 -0.23570383 0.1793822 -0.38352814 0.13614579 -0.18797147 0.07210138 -0.16353582 0.062569834 0.046493735 0.2118218 0.040835775 -0.310762 -0.39722887 -0.08623988 0.017942064 -0.1854194 0.18902418 -0.17777534 0.08738832 0.03679353 -0.10972565 -0.12224541 0.12402461 -0.20911068 0.11287813 0.17110279 0.060336966 -0.15133879 0.06721886 -0.3720631 0.058053046
1439 0.089500405 -0.25803512 0.29120612 -0.12126757 0.062491067 0.16242148 -0.08689893 0.2443968 0.28271255 -0.061872806 0.21817935 0.3556068 -0.09213349 0.19927962 -0.1303669 -0.1348223 0.20705386 0.23364046 0.100144856 -0.15887403 -0.14122818 0.24864803 -0.021828901 -0.1147146 0.065091364 0.17119515 0.23845837 -0.22035019 -0.20161875 -0.12359893 -0.35514367 0.1493386 0.2546968 -0.089856185 0.10058363 -0.22956042 -0.14009722 -0.0372323 -0.06757098 -0.043150283 -0.20839517 0.08431547 -0.013631459 -0.20051956 -0.4348178 -0.48645225 -0.026936607 -0.10133306 0.13561532 -0.2927172 0.33287886 -0.17127785 0.12534985 0.02928215 -0.11245824 -0.013119751 -0.13195288 -0.059180565 0.0939866 0.16769691 -0.06934051 0.1997653 -0.28976643 -0.042131927
2028 0.014444852 0.13351092 0.097446024 -0.0910161 -0.044565775 -0.048065234 0.2705578 0.106160365 0.17791264 0.15989086 0.2972681 0.10741419 -0.036695883 0.019531257 0.10485309 0.21937028 0.1592752 0.20995572 0.24427836 -0.2860924 -0.0025813985 0.08315138 -0.13072212 0.0025476532 -0.1886586 0.14208429 0.28927687 0.12569988 0.02846618 -0.018732606 0.00020268741 -0.11187933 0.3954443 -0.11146863 -0.12003209 -0.07892789 -0.089376524 -0.09008046 0.06918363 -0.28470844 -0.19152117 0.112474635 0.0022126255 0.02783112 -0.17358187 -0.37572697 0.06274115 -0.1793508 0.1851502 -0.14989968 0.22887324 -0.016274262 0.047599763 0.24573801 -0.12140968 0.22441994 -0.20978746 -0.25791374 0.14334284 0.03080495 0.3735902 -0.030593978 -0.24098873 -0.03198204
841 0.041179523 -0.038817223 0.17053129 0.116924345 -0.0306796 -0.12790874 0.044511333 0.16285254 -0.059610244 0.05341423 0.16851981 0.2901159 -0.101502456 0.43218103 0.15207657 -0.015489621 -0.018652704 0.095017366 0.1103185 -0.1351069 0.14302412 0.14887464 0.010121225 -0.00031480633 0.1843781 0.17259279 0.195871 -0.09024163 0.0116186775 -0.14810006 -0.07587769 -0.11143079 0.10736275 0.18319401 0.017862566 0.043728054 0.07396836 0.0329313 -0.0013333029 -0.2709086 0.09022959 0.26446828 0.23230098 -0.08798849 -0.38077262 -0.27254024 0.06937765 -0.26265293 0.08095136 -0.004498913 -0.090119556 0.16349666 0.029162612 0.15363796 0.2609063 0.29749632 0.14034203 0.030161997 0.048525747 0.3715262 -0.23240174 0.104135424 -0.5541686 -0.08636365
1024 0.24693967 0.2177831 0.26179054 0.0822332 -0.01237404 0.13731575 0.07321288 0.16444448 -0.07141875 0.17451133 0.012851909 0.22090603 -0.06408421 0.12954056 0.07700848 0.3056101 0.19352281 0.22030243 0.11965402 0.12225463 0.003009456 0.029265873 -0.12462368 -0.079271026 -0.26489517 0.2574948 0.34864667 -0.011839042 -0.12064927 -0.25218156 -0.056346994 -0.39661142 0.18478845 0.06906504 0.37584865 -0.0087272385 -0.054090466 -0.16475993 0.098886766 -0.020115163 -0.09412587 0.123984106 0.16488561 -0.08126461 -0.24577814 -0.2468688 -0.29668826 -0.07399723 -0.21837194 0.14542067 0.40627718 0.22512147 0.109758124 -0.10398779 -0.13510185 0.01384284 0.12907708 0.07689958 0.20097579 0.07350625 -0.08476744 -0.050088458 -0.11932632 0.048986144
2320 -0.17637525 -0.077723674 0.18512037 0.09504207 0.017336387 -0.22015204 0.070817515 0.038852546 -0.27046815 0.20048292 0.14456715 0.12840603 0.102513626 0.093747675 0.00058035966 0.1858768 0.074561864 0.059310608 0.1864473 -0.3149732 0.064332895 0.045711067 0.11856337 -0.15811796 0.16849227 0.09013168 0.21917221 0.21395478 -0.12136931 -0.055947848 0.10585433 -0.2078323 0.13004497 -0.057246096 0.45804462 -0.13510256 0.1708625 -0.1441355 0.066566095 -0.2849311 0.101034075 0.23407972 0.06035357 -0.277574 -0.45877007 -0.44531766 0.2155589 -0.14370793 -0.2573371 0.18758929 -0.0041969377 -0.21179092 0.18353567 -0.27887335 0.008128798 0.093080096 0.17250584 0.18691844 0.3270142 0.0651954 -0.114168115 0.012341947 -0.22911263 -0.21169876
1870 -0.01325171 -0.010522872 0.4229916 0.112972885 -0.12216953 0.13177082 0.083520845 0.31927544 0.15758896 -0.09397154 0.017070835 0.42640495 0.13920516 -0.17816342 0.20885813 -0.028326634 0.23733887 0.124794975 -0.117735334 -0.03911679 0.109873384 0.053090725 -0.1412479 0.09941974 0.08664476 0.15356994 0.29465985 -0.08192776 -0.37210697 -0.16585922 -0.08262403 -0.0681197 0.034588628 -0.047588915 -0.2989408 -0.2448727 0.040191155 -0.08719131 0.036675237 -0.1570011 0.045547318 0.45065856 0.11016 -0.0094769 -0.259849 -0.20825613 -0.01867323 -0.02475926 -0.1790652 -0.17287089 -0.0653817 -0.093702435 -0.0821761 0.09314607 0.015327895 0.06001297 -0.063359566 0.30568072 0.18511859 0.014955093 -0.12794109 0.08646939 -0.22697313 -0.0866167
14 0.26863796 0.03386924 0.014561444 -0.3030558 -0.09896753 -0.20187947 0.4161239 0.17403728 0.21100447 0.17422 0.32199 0.19417493 -0.027204495 -0.07244288 -0.08960756 -0.10502655 0.19052918 0.08028147 -0.092620775 -0.0031268732 0.066705115 -0.08315909 -0.2551466 -0.070616394 -0.17787273 0.27303255 0.2083051 -0.009836951 -0.08254914 -0.063632876 -0.12083711 -0.3528743 0.29395765 0.11048528 0.25449234 0.06321059 0.18935497 -0.1646912 -0.07137717 -0.1339551 0.10438881 -0.11660731 -0.026932783 -0.14882833 -0.2319715 -0.42017317 -0.21125232 -0.19493707 -0.24976341 -0.21002504 -0.14298886 -0.055333097 0.14538035 0.05755498 -0.088142954 0.12985423 -0.014016139 -0.087159455 0.07745183 0.1713458 0.13472104 -0.10439729 -0.031595755 -0.1593023
2539 0.09642522 0.11604377 0.21020381 -0.12143189 -0.13237253 0.06228667 0.23407026 -0.004983178 0.13269274 0.07170774 0.23049131 0.25214514 -0.039539374 0.14375204 0.0063529364 0.059586767 0.13031727 0.09795403 0.11698906 -0.20281072 0.062564574 0.2643113 0.19215225 0.13525927 -0.13781975 0.079805575 0.14969848 -0.10987458 -0.26575258 -0.05861356 0.11750132 -0.24686456 0.26238182 -0.028970828 0.13695623 -0.06602001 -0.10663707 -0.1999203 0.1973749 -0.27092278 -0.03867767 0.089526385 -0.23420608 -0.17175415 -0.20086834 -0.33954114 0.06568222 -0.29528123 0.01434698 0.17345597 0.17893492 0.022149844 0.34114042 0.033872057 -0.110306434 0.25882852 -0.025337191 0.020749962 0.26865917 -0.005921135 -0.095716916 -0.04256656 -0.04725357 -0.1786712
1799 0.038333915 -0.11197798 0.029947124 0.052669454 -0.07536128 0.10707402 0.050457932 0.3657128 -0.11918717 0.16409965 0.23972495 0.023509974 -0.1034891 0.20847276 -0.003765224 0.017151294 -0.057970796 -0.027694007 0.032292373 0.03282639 0.19587196 0.13570876 0.102392256 0.24358162 -0.15723158 -0.14270756 0.18656376 -0.19548142 -0.13778467 -0.12950945 -0.32306632 -0.22849022 -0.004366822 0.20292066 0.38870358 -0.35540769 -0.25270534 -0.25478926 -0.2525753 -0.41875595 -0.04548861 0.1677571 -0.056521803 -0.30427372 -0.14614673 -0.4510152 -0.29328832 0.026685392 -0.07326221 0.020852374 0.106150374 0.10360918 0.07319342 0.1567333 0.037337393 0.1787118 0.020572392 0.1438321 0.10906424 0.31441766 0.20277277 0.041035816 -0.16138981 -0.01090896
2009 0.1392987 0.15774453 0.10228753 -0.094008215 0.07322095 -0.021729136 0.27307916 -0.10424095 0.19273502 0.21232943 0.32409343 0.07716631 -0.1426643 0.2393044 -0.09620166 0.029794555 0.07123848 0.22839747 0.10680913 0.10494483 0.16182421 0.085835 0.16577226 0.01391087 -0.030687692 0.21421464 -0.032213442 -0.18083814 -0.06671007 0.053234387 0.039421957 -0.26376548 0.12039479 0.1088551 0.060947686 -0.32926115 0.24549812 -0.1559739 0.07531857 -0.44302365 0.15975541 0.17604275 0.19249669 -0.02630583 0.057331372 -0.005716657 -0.14799857 -0.09076627 -0.25841373 0.28192627 0.24571352 -0.045762304 -0.20583418 0.0047289985 0.029667415 0.14818437 -0.019487148 0.14941679 0.5257337 0.0324926 -0.060831107 0.0025828292 -0.33918476 -0.08598419
1692 -0.02328633 -0.092422426 0.22713453 -0.013645946 -0.074019484 0.049040124 0.1680534 0.032871045 0.006090356 0.02136225 0.2203899 0.1076064 0.37905878 0.11302867 -0.04279585 -0.18716057 0.028469358 0.10919207 -0.09591371 -0.13377063 0.23148371 0.05461167 0.04718661 -0.29889148 0.18373482 0.07686758 0.29732344 -0.18552719 -0.28594345 -0.061251458 0.15621902 -0.09590639 0.13569522 0.19736925 0.14120205 -0.32534805 -0.2012625 0.0065118656 -0.20558299 -0.09733252 0.05984732 0.2329374 -0.0968098 0.1364649 -0.30912325 -0.09810263 -0.14458932 -0.30214736 -0.12136234 -0.11212365 0.23639894 -0.023995586 0.056897394 0.2272233 0.068749264 0.38413972 0.11079142 -0.1832634 0.42807245 0.048250366 -0.030052613 0.018610056 -0.28123567 -0.029595492
900 0.053207085 0.10772125 0.019586071 -0.13388918 -0.14332466 0.19901401 0.07612001 0.41398516 0.098382056 -0.09513887 0.24845324 0.13833633 -0.03915447 0.11379689 -0.0773062 -0.14256614 0.116155945 -0.026082933 0.04729546 0.045689274 -0.130904 0.056945752 -0.10115617 0.11177669 -0.008219428 0.11051721 0.23685846 -0.11470117 -0.5217602 0.1423955 0.0055129905 -0.1319731 -0.019489145 -0.01834468 0.015679758 -0.29778022 -0.024321089 -0.32052985 -0.17094877 -0.27309155 -0.17514113 0.10070372 0.038860586 0.02434116 -0.20412014 -0.34883982 -0.12380031 -0.2349857 -0.13820262 0.30717856 0.37156603 -0.118498124 -0.0019865846 -0.17932683 0.057361897 0.08936288 -0.19357897 0.19894712 0.2963049 -0.059154693 0.035954803 0.038827892 -0.17386529 0.11508931
855 0.06538335 0.015431331 0.117045715 -0.16769646 -0.18505076 -0.067858025 0.18106686 0.26222518 0.016840743 0.18289103 0.1689253 0.12974998 0.11818377 0.12990218 0.04176664 0.15082176 0.15759301 0.40280885 -0.014624692 -0.09371236 -0.055794105 0.23317654 -0.14061274 0.018997304 -0.015627954 -0.132109 0.15569155 -0.1260161 -0.14605725 0.14920019 -0.08490668 -0.27107304 0.1813925 -0.12668774 0.19007635 -0.3405219 0.12005118 -0.35837618 -0.15004846 -0.14338294 0.06831185 -0.036155168 0.0003754993 -0.112308934 -0.29330105 -0.3516611 -0.0699172 -0.07558359 -0.06382144 -0.17979155 -0.0049381964 -0.043735087 -0.030425891 -0.025769161 -0.069999605 0.40335664 0.12734835 0.20077601 0.08301569 -0.14835085 -0.0739973 0.11839722 -0.050831705 0.004044562
2283 -0.07724093 0.025262063 0.07984689 -0.07583576 0.22996043 0.11856596 0.3163873 0.1906894 0.24781722 0.10363931 0.2871518 0.11253285 -0.094987184 -0.2539376 -0.01767677 0.12091059 0.16495952 0.15778235 0.10384982 -0.05325398 -0.17168964 -0.12311587 -0.23887558 0.044869985 -0.11045662 -0.013300761 0.28150627 0.10072089 -0.16262823 -0.058602095 0.08917906 -0.3028356 0.22654328 0.123748265 0.4498804 -0.028892137 -0.2225156 -0.25433388 -0.17883806 -0.076466314 0.008132219 0.32124415 -0.007232556 -0.054476824 -0.42359474 -0.31992096 0.20290826 -0.3919154 0.043480366 -0.088053904 0.053502083 -0.1308178 0.11344954 0.13307539 -0.021262677 0.19339685 -0.06008884 0.13803235 0.3781697 -0.31472775 0.23526444 -0.1739958 -0.28993288 -0.1292987
2566 -0.090495296 -0.021850387 0.051122874 0.1620064 -0.04383513 -0.016306425 0.17242765 0.20591143 0.31338704 -0.083408155 0.24460186 0.2774648 0.15735197 0.094989195 0.05604899 0.08455382 0.03971684 0.03420821 0.027012946 -0.20046958 0.11408081 0.06987282 -0.20743118 0.2533577 0.047843672 -0.001196588 0.08617129 0.06929426 -0.2316547 -0.044157878 -0.05193323 -0.07402707 0.21277148 -0.018151183 0.3033418 -0.20219833 0.09379386 -0.13448945 -0.15722501 -0.1497949 -0.28626323 0.04569472 0.13802975 -0.52571785 -0.18051669 -0.06644567 -0.048712183 -0.009020458 -0.3507813 0.019919867 0.000691584 0.1674248 -0.03971959 0.0880105 -0.0054843365 0.12205072 0.11374187 -0.02212527 0.38231683 0.17128639 0.09816768 -0.06558855 -0.2339757 -0.28035572
1615 -0.12379136 -0.09679843 -0.077974476 -0.34299088 -0.20365387 -0.07483869 0.28535601 0.29829141 -0.04102152 0.22194646 0.015414896 0.23927367 0.16244423 -0.08233643 0.13076472 -0.019572772 0.07419183 0.14673415 0.007503699 0.02634584 0.21311185 0.20668598 -0.17192362 0.15239595 0.05391907 0.012707942 0.1441564 -0.09244627 -0.15076563 -0.29171917 -0.04644558 -0.10840297 0.16995318 -0.10956172 -0.0908473 -0.3974985 0.20288616 -0.1231874 -0.0012466976 -0.15858474 -0.13327818 0.34248137 0.20860742 0.091630764 -0.17491941 -0.2428789 -0.15601805 -0.13098046 -0.2371296 0.042545985 -0.060341198 0.11784138 0.05072346 -0.098949976 0.097367994 0.13622229 -0.07034787 0.10091353 0.08100639 0.075003386 -0.15623495 -0.077555604 -0.40937236 -0.29521194
649 -0.1348811 -0.39404193 -0.05120378 -0.15297249 -0.010501144 -0.0063898265 0.277737 0.22904813 0.09291158 -0.14914 0.18473524 0.25575635 0.08800066 0.019974919 0.16261165 0.061162002 0.11505789 -0.24741212 0.37455994 0.03743584 -0.0303214 0.27685893 -0.1821703 0.061722282 0.01322832 0.21713729 0.14501336 -0.3153886 -0.081555 -0.36162806 0.10042776 -0.25258577 0.058580697 -0.03723055 0.036965556 -0.022591233 0.016274367 -0.16208929 -0.015285827 -0.10452762 0.05778216 0.15245432 -0.010954674 -0.18543547 -0.31455258 -0.40780857 -0.07185461 -0.08648198 -0.053587966 -0.10170625 0.13536675 0.19849207 -0.0626012 0.21835124 -0.054321405 0.09490494 -0.21939494 -0.110189125 0.053855795 0.23856054 -0.14126207 -0.015695073 -0.30486432 -0.13888882
708 -0.16770782 -0.06638739 0.14465028 -0.018893193 -0.059550337 0.05442249 0.2349002 0.06556556 0.04979807 0.15941267 0.22176987 0.054280136 -0.11767475 0.13192797 -0.16837205 -0.18299846 0.22579923 0.25632283 0.05804937 0.044113465 0.095418364 0.022326479 0.08566187 -0.061943896 -0.044699356 -0.016224494 0.1674577 -0.034035124 -0.19761187 0.012578156 -0.25185463 -0.02782565 0.22486633 -0.14067976 -0.055061087 -0.2589309 0.12799224 -0.222867 0.07009038 -0.09086952 0.005241376 0.1987083 0.23021954 -0.055552848 -0.21133322 -0.30270112 -0.11582568 -0.11114119 -0.25696453 -0.01215296 0.2030625 0.09151872 0.13795671 -0.037666757 -0.17483191 0.32749808 -0.023890339 0.08631109 0.06741822 0.3343461 -0.12978147 0.026053011 -0.42532626 -0.017173836
8 0.06578024 0.16526987 0.004807193 -0.12913024 -0.013352918 -0.26754344 0.22032891 -0.08068028 0.19140065 0.08174131 0.34994137 0.12923172 -0.0033979411 0.14455496 0.19950646 -0.067786984 -0.059093032 0.0944714 0.07325408 -0.1842727 -0.03901341 0.117411755 -0.06727863 0.038000457 -0.17815447 0.3577351 0.10576925 -0.12139712 -0.25298986 0.06978624 0.05356314 -0.18592353 0.16140892 0.16044118 0.017330606 -0.008269628 0.019780902 -0.17618695 0.057032485 -0.26083606 -0.003847329 0.14473553 0.35605612 -0.14179173 -0.2104283 -0.33191264 0.0060727415 -0.1800528 -0.26465306 -0.073791616 0.30032748 0.07167746 -0.029093495 0.18251094 0.29581562 -0.15807195 0.08795536 0.21849161 -0.053034306 -0.00971022 -0.044934485 0.109834656 -0.24287131 -0.26264024
201 -0.008325817 0.16738825 0.12211717 0.20856306 -0.029564654 -0.21014078 -0.059141535 0.14957318 -0.076833054 0.07349153 0.20195904 0.0037161165 0.11288395 0.28252158 -0.18386003 0.21404408 0.089922465 0.17167953 0.3229305 -0.080849305 0.08710752 0.08145729 0.033246752 -0.037337296 -0.1730765 0.2716328 0.2257187 -0.1704093 -0.21561375 -0.22454269 -0.0018800482 -0.13123484 0.07846839 0.09510404 -0.021218311 -0.26792797 -0.24973935 -0.15750937 -0.08556867 -0.2365435 -0.107322 0.13104281 0.078564994 0.295164 -0.2228409 -0.39461586 -0.2222244 -0.17498705 0.011000988 -0.02431313 0.045638863 -0.11265953 0.039903186 0.081422836 -0.058566988 0.19871901 -0.017253073 0.12049161 0.20643224 0.07086915 -0.026255697 0.053628974 -0.31244478 -0.11934117
1056 -0.07159583 0.0019394243 0.22695689 -0.03871475 -0.013048988 -0.07542493 0.15073738 0.2814245 0.15229991 0.023040634 0.39539272 -0.103796154 0.095676035 0.15623502 0.16502148 0.22857812 0.15215147 0.05352306 0.42480728 -0.24333665 -0.3239518 0.0011358609 0.027116437 -0.032230668 0.11857213 -0.044597134 0.25995812 0.20037732 -0.22234829 -0.21690908 -0.047822177 -0.38132742 0.09266165 0.059635967 0.028215768 -0.14601555 -0.023686605 0.07032962 -0.049677245 -0.22455111 -0.080087386 0.13680191 -0.07721909 -0.21542777 -0.16578488 -0.30100048 -0.08817892 -0.24638106 -0.0071571935 0.033018507 0.021407556 0.0864689 -0.15861964 0.23202695 -0.13719347 0.31672692 -0.011281891 0.2463004 0.2545543 0.08178494 -0.3414936 -0.20613915 -0.23628215 -0.080043755
2692 -0.056223016 0.2819361 0.15673018 0.20605025 0.16801253 -0.066566594 0.01226651 0.27359238 -0.019796768 -0.073867455 0.26001567 0.22948553 -0.3298271 -0.04205411 0.15636727 -0.04419016 0.12132406 0.35119584 -0.1292324 -0.32142854 0.052623928 0.14805296 -0.05991776 -0.16306919 -0.002970704 0.123953655 0.121074885 -0.037609078 -0.19068548 -0.38177496 -0.07503295 -0.29669705 -0.035650115 0.14210859 0.08792669 -0.2770321 -0.1697418 0.01947171 -0.07745591 -0.18876188 -0.041403502 0.26658157 0.087218195 -0.021903446 0.008075645 -0.45512232 0.042697024 0.04699303 -0.44718614 0.046296723 0.1424347 0.10519647 -0.015817378 -0.13070673 -0.02792021 0.1138763 0.26450664 0.1196742 -0.00372207 0.25406387 -0.04555266 0.022273049 -0.31268695 0.10044186
1570 -0.07752953 -0.13909456 0.009791377 -0.27598533 0.047151253 0.080056496 0.1335061 0.24313194 0.26616257 -0.045459103 0.1340217 0.18018599 -0.09801732 0.23611256 0.12915592 -0.17263031 0.23525973 0.36179447 -0.0693143 -0.16832685 0.291143 0.13131721 0.049660265 0.0664399 0.03203762 0.12084902 0.25522476 -0.2855737 -0.013393725 -0.24139957 -0.07811651 -0.2864468 0.23538657 0.11711083 0.28562438 -0.2616187 -0.116375245 -0.03222946 0.13363716 -0.014602441 -0.13602087 0.2061955 0.27251673 -0.08722332 -0.14946614 -0.014889046 -0.26933426 -0.24717958 -0.22002986 0.21742122 -0.0776225 0.25686917 -0.13687964 0.009814465 0.100683026 0.24529533 0.0019604315 -0.04183051 0.15588894 0.22206573 -0.028194755 0.13693914 -0.104313165 -0.027097821
1673 -0.064061336 0.068538964 0.02506763 -0.076776676 -0.05373727 0.012293801 0.076620124 0.23427422 0.021525854 0.2141413 0.32309347 0.2512798 0.069308415 0.036771785 0.19476877 0.04164606 -0.07844616 0.26364544 0.15437426 -0.06208716 -0.07999501 0.08981131 -0.096766196 0.055259764 0.0392212 0.09845146 0.12671214 -0.16494049 -0.022801436 0.013470314 -0.15310973 -0.30064073 0.35574338 -0.010113471 -0.058475044 -0.46078834 0.108480744 0.034368876 -0.04003484 -0.33563927 0.24917485 0.14237912 0.11938344 -0.17115586 -0.3048608 -0.16849363 0.012889824 -0.13713719 -0.16635469 -0.03582472 0.12301082 -0.042954747 0.0036035366 0.11003151 -0.047183715 0.035931535 0.07720985 -0.0043530506 0.07113584 0.13613245 -0.050804153 -0.09410072 -0.17149684 -0.020541608
1814 -0.025156317 0.009733588 -0.07526055 -0.1428115 -0.08876131 0.11334127 0.18560337 0.1583294 0.15252289 -0.108572155 0.00042413565 0.43439636 0.05140186 0.05475138 0.24648355 0.15909211 0.3047952 0.08606406 0.12108532 -0.07488867 -0.03535228 0.26802093 -0.23428151 0.13227502 -0.049557965 0.18690322 0.17035966 -0.21567218 -0.17733862 -0.30216357 0.31072176 -0.09305526 0.06233705 -0.05510706 0.18400079 -0.30400306 0.18422334 -0.06212176 0.06540277 -0.087113865 0.12997992 0.16150893 -0.14012429 -0.016851624 -0.14181216 -0.15902194 -0.043899573 -0.21096604 -0.18543658 -0.12626135 0.24469997 -0.059774727 0.2961627 0.1544281 0.11129835 0.022657605 0.028559411 -0.12899928 0.18501288 -0.0107122185 -0.14758666 0.043984596 -0.2765729 -0.11394262
2343 0.012775388 0.1319443 0.22022778 0.09426109 -0.14365342 -0.00499876 0.18099713 0.004676533 0.105168514 0.21500239 0.030217245 -0.018044302 -0.03643047 0.03791581 -0.0039778766 0.06363751 0.1509719 0.014981059 -0.12992395 -0.06385191 0.090580374 0.16772191 -0.08491706 0.16768055 0.013785282 0.09662356 0.15133962 -0.020964036 -0.31147227 0.0027773397 0.124909215 -0.36790586 0.07908011 -0.09023033 0.25128824 -0.42104378 -0.22635719 -0.093947984 -0.11005461 -0.20698106 0.21459098 0.053813886 -0.05551854 -0.08108785 -0.31862897 -0.2941103 -0.17450516 -0.109458104 0.14188117 0.03935523 0.0044467263 -0.1481744 -0.064979576 0.17585354 -0.08203427 -0.014474476 -0.11754979 0.24147198 0.27710664 0.4454743 0.13123342 -0.20169441 -0.38859096 0.30150086
1016 0.07099809 0.217524 -0.14042565 -0.07779149 -0.032469198 0.059740745 0.027120234 0.029826773 0.3002843 0.27548963 0.051283654 0.105203934 -0.036278404 0.20485307 0.1103952 -0.10732162 0.050587278 -0.06322757 0.19914053 -0.07321428 0.026149657 0.24313802 -0.057959516 -0.008550569 -0.068214744 0.4516631 0.08264636 -0.11419334 -0.668968 -0.21560799 -0.20934147 -0.2810408 0.24320792 0.25004846 0.13789508 -0.29289588 0.034376554 -0.16616985 -0.06914548 0.10424548 0.016293122 0.0911182 0.14539456 -0.07575572 -0.357464 -0.15206096 -0.0421621 -0.06411626 -0.061121594 -0.17361513 -0.0146615775 0.020739144 0.09811681 0.31261137 -0.0087109385 0.12622714 0.20066237 0.03983041 0.06647597 0.3517539 0.12924118 0.00475554 -0.018451186 0.0481852
1132 0.08895952 -0.0129016135 -0.13532415 -0.17386267 -0.27980232 -0.30454168 0.27008966 0.008018895 -0.041307833 0.16368675 0.26088795 0.3722378 -0.1134955 0.3192152 0.1503333 0.06426722 -0.07022971 -0.11720625 0.19339567 0.03923379 0.0067192204 0.083325535 -0.055830453 -0.040120866 -0.046301067 0.26194754 0.23054186 -0.21174653 -0.26571572 -0.21443085 -0.009268541 -0.28587288 0.007905608 0.100606166 0.16926995 -0.15151688 0.0076226587 -0.122159116 -0.117414854 -0.32827708 0.0801241 -0.12879051 0.1717626 -0.019105727 -0.34206572 -0.16712415 -0.025207331 0.07096358 -0.011030241 0.0821222 0.13435608 0.17524531 0.10786518 0.16142337 0.105941065 0.089325994 0.16654268 -0.009960316 0.047763355 0.16110888 0.0051616104 -0.16832645 -0.3927225 -0.18703769
775 0.13576974 0.029925937 0.1781846 -0.03729831 0.13202913 -0.28108224 0.008017667 0.09749867 0.020464402 0.15308738 0.12251396 0.24003196 -0.10024134 -0.03839828 0.19165605 0.10764319 0.16080067 0.12981507 0.19005656 -0.23562977 -0.04007582 0.27108634 -0.019775802 0.019926855 -0.0085675875 0.30533147 -0.025493318 0.18399225 -0.11034398 -0.083315335 0.13259684 -0.0416758 0.16083102 0.15509105 0.19054106 -0.26982656 0.13654944 -0.011211198 0.024145063 -0.3723726 -0.21098386 0.17790751 0.15063867 0.00909607 -0.12816069 -0.14638849 -0.03985955 -0.023881393 -0.40950185 0.24465169 0.36078298 0.025944542 -0.06103712 0.22505651 0.12682793 0.17544942 -0.23862903 -0.023715124 0.008558065 -0.04373169 0.10051013 0.124311745 -0.33957106 0.05877056
894 -0.03179423 0.038776837 0.3264636 0.06613017 -0.074853994 -0.053442117 0.34081736 -0.013466459 -0.01765775 0.08810365 0.18120937 0.2741995 -0.1339922 0.08740776 -0.0108846845 0.02969536 0.23122548 0.11687493 0.28021717 -0.114491425 -0.053777084 0.08289038 0.099658094 -0.06717772 0.007774815 0.124429286 0.14282769 -0.09822651 0.03664504 0.0077641285 0.077381976 -0.1270554 0.30815813 -0.017260605 0.19227855 -0.20270915 0.23720962 -0.1967372 -0.26073527 -0.184677 -0.026738638 0.2077225 0.14759879 -0.12664078 -0.17284694 -0.36639342 0.024959672 -0.14531207 -0.016958944 -0.026475219 -0.055734076 -0.11615522 -0.10437809 0.17330448 0.31229186 0.061840016 -0.06372702 0.018451113 0.21362236 0.09386539 -0.043669034 -0.117555164 -0.23344657 0.009586291
1816 -0.10251816 0.014316684 0.06313418 0.08994564 -0.13260226 -0.059764814 0.33829904 0.33773082 -0.013482745 0.2900741 0.29262263 -0.03802864 0.29841906 0.25822213 -0.08273691 0.21867192 0.091787644 0.22341736 -0.09736249 -0.22559854 0.11573173 -0.08425615 0.10432505 0.17786516 -0.17377806 0.07169048 0.302239 0.083895676 0.04723789 0.16760789 -0.2801263 -0.1260886 0.3152534 -0.03309744 -0.13257888 -0.21439514 -0.17664991 -0.122956194 -0.2734641 -0.40898952 0.20365715 0.35215098 -0.03984503 -0.14375398 -0.32317832 -0.31673223 -0.27832714 0.0044920864 -0.15824872 0.1547682 0.21177143 0.19157645 0.1803754 -0.09907519 -0.07675482 0.14571387 -0.40650618 0.21483918 0.19265836 0.11837797 0.16358003 0.08854833 -0.15906838 0.21512933
1126 -0.118639566 -0.01530896 0.1272507 -0.16673055 -0.017653517 -0.21137267 0.1888184 0.030489214 0.2580441 0.073679395 0.29548392 -0.004263826 0.07071904 -0.027311226 -0.055722762 -0.35599667 0.24200863 0.25726545 0.06433645 0.02393967 0.06026811 0.3516402 0.32677108 -0.19532548 -0.19393075 0.24021263 0.08080186 -0.55986446 0.028266652 -0.14932159 0.008747844 -0.2399037 0.13212346 -0.23886262 0.035963487 -0.34873372 0.00095836294 -0.24172634 -0.1422399 -0.34136453 0.1952794 0.011365022 0.17505577 -0.1310829 -0.1012511 -0.4954735 0.23179401 0.28872967 0.012420222 -0.105262496 -0.08677093 -0.05630113 0.0072455457 0.16832417 0.070283614 0.12797731 -0.1017545 0.101509795 0.29962847 -0.09660861 -0.07813317 0.22436583 -0.45010754 -0.10369634
2699 0.2070922 0.036327157 0.0881201 -0.2636561 -0.062365048 -0.036080163 0.21293962 0.037292875 -0.12278873 0.17941801 0.2607253 0.3363211 -0.010425377 0.03352247 0.15663424 0.068840116 0.12304508 -0.21540233 -0.12504873 -0.00429042 -0.066316806 0.22281574 -0.074649416 0.09326579 -0.31097552 0.12732536 0.22529733 -0.10269217 -0.29548937 -0.13731739 -0.03563274 -0.40394732 0.01802227 0.14685823 0.16224806 -0.36956277 -0.09021593 -0.18027486 -0.08587855 -0.06774328 0.17514743 0.043945458 0.10368707 -0.08524326 -0.15874651 -0.21981771 -0.050181672 -0.18698923 0.2082811 -0.07693497 0.22758448 0.047819506 0.12729713 0.18395998 0.19956131 0.43982488 0.114030875 -0.09800581 0.09320468 -0.051798027 0.15153538 -0.07037846 -0.3646213 0.2543026
766 -0.053798277 -0.025012603 -0.12721851 -0.15839194 0.035818048 -0.07006609 0.17519042 0.10490459 0.0034318967 0.055039894 0.3366741 0.116534665 -0.05100447 0.28457233 -0.052130707 0.005848058 0.118932076 -0.008432217 0.19105677 0.008203525 0.15797716 0.22863998 -0.046567675 0.022199249 -0.04155049 0.045017947 0.25889295 0.107463226 -0.29588205 -0.17024086 0.14584959 -0.0065310495 0.22526789 0.12951426 0.1727072 -0.04199433 0.06562351 -0.1886459 -0.13526939 -0.098326735 -0.079703234 0.012663931 0.07029775 0.055760205 -0.13583061 -0.39338377 0.026914435 -0.24095763 -0.13325548 0.12766102 -0.030745978 0.17981113 0.22570519 0.28038618 -0.18102741 0.14859706 0.22395138 0.19525188 0.16714063 0.18311745 -0.13270234 0.04495223 -0.34842896 0.04643353
1004 0.25777867 -0.080842674 0.102109954 0.15388454 -0.028067777 -0.09161324 0.089215994 0.19380005 0.08291902 0.28031212 0.31364942 0.145128 0.19484705 0.3992585 0.009916006 0.22837357 0.1778855 0.16581152 -0.27525184 -0.116124816 0.08944185 0.26991585 -0.36070466 -0.13620663 0.09061868 0.057344288 0.17615852 -0.043998063 0.12963566 -0.18689346 0.01962772 -0.35499737 0.0881671 0.026916036 0.007620775 -0.38767344 0.01526227 0.21953844 -0.11128872 -0.293988 -0.058330156 0.11256473 -0.10006287 0.008747457 -0.17055075 0.0787989 -0.2845388 -0.05679118 -0.14385636 0.0792228 0.1839552 -0.14620891 0.14486904 0.19964162 0.10601481 0.40863177 0.09546091 0.14261004 0.052717306 0.18370338 -0.0010410097 -0.13931689 -0.2737493 0.032957867
1608 0.13788263 0.032407243 0.22370255 -0.13244642 0.0774274 0.0033953153 0.15590096 0.26191074 -0.027007798 -0.12672205 0.05288496 0.061343774 -0.022354195 0.22423567 0.17640992 -0.01523855 0.08590693 0.17506094 -0.0018262562 -0.1573576 0.15721065 0.09229657 -0.2575123 0.18551452 0.03929879 0.12209612 0.3000344 -0.184636 -0.34552556 -0.15218389 0.07218423 -0.11034897 0.18721811 0.12763432 0.087393925 -0.3378034 0.22210127 0.025403244 -0.01619867 -0.25167274 -0.10099384 0.18430746 0.0013262621 -0.14309922 -0.078537114 -0.49564046 0.18808345 -0.3969451 -0.4233169 0.14656842 0.14677408 0.09337392 -0.23652883 -0.045175053 -0.011079352 0.026172949 0.19304262 -0.13462286 0.04458166 -0.06991444 -0.19718486 -0.076946594 -0.19615749 -0.15273589
2027 -0.03167986 0.26141986 0.029783301 -0.20890252 0.051445015 0.1440382 0.079861544 0.008173982 0.2001574 -0.17690216 0.06772246 0.012934638 -0.0076696463 0.56574297 0.10268883 0.17048433 0.06618964 0.29358736 -0.06409629 0.03386511 0.45049965 0.37888524 0.07517643 0.18427151 -0.2301793 0.005589161 0.07305805 0.010592453 -0.084749624 -0.20406908 -0.0972204 -0.35213238 0.112901755 -0.08733489 0.09621639 -0.014931451 0.20120564 -0.10298752 -0.22893253 -0.1923527 0.15054044 -0.071097516 0.06834703 0.027074922 -0.1195182 -0.40440956 -0.21691333 -0.09547366 -0.09553374 -0.15948893 0.00612156 -0.0791431 0.21964829 0.33100876 -0.024165206 0.14068025 -0.01248393 -0.0075645875 0.24508041 0.2374582 -0.20915014 0.17043059 -0.3633199 -0.19554074
1096 0.03164351 0.20062515 0.15005097 -0.0063199154 -0.1295092 0.002238365 0.1928164 0.23775661 0.19065168 0.010703578 0.04865084 0.198999 0.004097762 0.2331391 0.13452493 -0.0055546905 -0.0052161776 0.29666424 0.15134257 0.18942076 0.24297912 0.14302611 -0.07617279 -0.10918827 -0.07097885 0.109512635 0.29428422 -0.13897158 -0.112260506 0.014894396 -0.23376352 -0.10239783 0.11533243 0.22410026 -0.109148264 -0.43626648 -0.05224014 -0.15826315 0.17703474 -0.114572704 -0.013608825 0.1768473 0.1531377 0.056534637 -0.14922954 -0.25784308 -0.06066148 -0.20007972 -0.09306598 0.03809916 -0.03137721 0.009793663 -0.11144974 0.20070364 0.0066727307 -0.07645011 -0.018560555 -0.17355686 0.27228758 0.16379079 -0.025307462 -0.23844169 -0.3415964 -0.030172275
1611 0.21708491 -0.1055542 0.18996742 -0.2005408 -0.2739266 -0.0459508 0.36761907 -0.07189174 0.07697342 -0.19151285 0.2864984 0.24395698 0.2586527 0.09998882 -0.1469303 -0.12848358 0.22252698 0.2221125 -0.021473406 -0.27015734 -0.01416725 0.1530591 -0.4057708 0.10724752 -0.073414795 0.015223522 0.2637217 -0.057580184 -0.21979219 -0.13858667 0.016802423 -0.41263214 0.17057163 0.13495825 -0.006236521 -0.21403171 0.15215372 -0.20141314 -0.05340823 -0.18612713 0.032054853 0.18761487 0.035305142 -0.15142052 -0.16670537 -0.14753015 -0.0011824607 -0.10492327 -0.20785221 -0.10248811 0.121388145 0.03667778 -0.23848744 0.00011774052 0.15268566 0.07518996 -0.10781851 0.063598156 0.16233408 0.089367785 -0.030842263 -0.08138884 -0.20266563 0.07222801
2482 0.05200098 0.2518724 0.016627502 0.21375157 0.25692633 0.05872547 -0.025811473 0.21516778 -0.19308238 0.034597795 0.26269355 0.24103846 0.06367355 0.15471436 0.028619336 0.2852437 0.14484057 0.07530003 0.15085611 -0.23075826 0.10523382 0.1681952 0.09200872 0.049475834 0.05521652 0.158556 0.012159346 0.030389832 -0.21808566 0.006230556 0.13155533 -0.22876312 -0.06906857 0.0013239437 0.32420766 -0.14732769 -0.09215035 -0.07573434 -0.047954433 -0.15671642 0.1116752 0.18514922 0.009245283 -0.1836454 -0.39778373 -0.19146362 0.040065724 -0.18916845 -0.12406864 -0.09372882 0.07390465 0.034868248 -0.115733035 0.073158205 -0.05385833 0.30597055 0.01046679 -0.05789667 0.00059406616 0.3315661 -0.087707326 -0.16466223 -0.41095102 0.020220885
2038 0.16419475 -0.069460295 0.21098055 0.028570656 -0.10030151 -0.12810063 0.22086646 0.3876061 -0.0826802 0.027867602 0.24969533 0.20929652 0.002896305 -0.100087255 0.10889431 -0.038700446 0.08616573 0.095709845 0.081166476 -0.08509047 0.13171136 0.2831011 -0.009323512 0.06927116 -0.03620594 0.115390755 0.03619304 -0.06486002 -0.14818694 0.17658329 0.234915 -0.16125335 0.12115082 -0.18329695 0.2903679 -0.27208868 -0.14088532 -0.14843874 -0.31850255 -0.116355464 0.122290924 0.10489155 -0.018118804 -0.14181308 -0.25039753 -0.32195988 0.16334736 -0.1922514 0.042314865 -0.07810981 0.0067696306 0.15623736 0.036055483 0.19139606 -0.06311653 -0.07752386 0.06966525 0.2429094 0.21152088 -0.02440694 -0.0845515 0.063951224 -0.4777471 0.065290034
1130 0.000674161 -0.312317 0.15075023 -0.19421832 -0.16139825 -0.29440895 0.13116257 0.055474762 0.038606014 0.2197394 0.139041 0.20800917 0.2043788 0.038756106 -0.17810185 -0.06778095 0.0053977254 0.047892623 0.040686525 -0.121223405 0.042051785 0.1348321 -0.036767796 0.069561034 0.0026541806 0.1886694 0.3344547 -0.2515954 -0.07306047 -0.088872716 -0.16124606 -0.14516161 0.18393683 0.09411506 -0.052547127 -0.23879525 0.015204785 -0.18567064 0.014991143 -0.06729072 -0.10825676 0.015682954 0.30180413 0.039742924 -0.5012494 -0.30225855 0.13606231 -0.25530183 -0.105681956 -0.1271931 0.3079001 0.031631988 -0.24550271 0.08718602 -0.026284883 0.22357367 -0.1680204 0.16326974 0.32055336 0.023560755 0.22450297 -0.16294987 -0.06076739 0.043464586
821 -0.15295473 0.13696858 0.2036096 -0.21054168 0.03570958 -0.11439309 0.19023576 -0.020746548 -0.032698218 0.111946344 0.13372272 0.34582287 -0.20284145 -0.04524484 -0.11762405 0.2522001 0.065501615 -0.14769603 -0.00243247 -0.17347318 0.0038076418 0.11819993 0.02849295 0.07304214 -0.16878532 -0.030250283 0.08063811 -0.183126 -0.5061456 -0.025550665 0.029945556 -0.052167643 0.053680085 -0.13531911 0.23269323 -0.34928465 0.033279564 -0.096675165 -0.17187285 -0.2409891 -0.09904906 0.08765261 0.07810161 0.028286971 -0.16820227 -0.15732884 -0.085323155 -0.14255866 0.016863443 0.042997472 0.018365938 0.30774453 -0.1493733 0.23814817 0.047639556 0.35777 -0.12735529 0.03466564 0.24231526 0.080087274 -0.013766305 0.034373704 -0.15570088 -0.0052857213
1340 -0.052388866 -0.04658476 -0.0373725 -0.23202743 0.1704039 -0.056771602 0.40331498 0.19706991 0.26755518 -0.0504526 0.20099507 0.17486162 0.10988449 0.15362637 0.22950153 -0.121818215 0.082950845 0.18370104 -0.08466071 -0.113113016 -0.11301774 -0.03308531 -0.01022164 0.11389071 -0.05788936 0.14136434 0.4488823 -0.25490278 0.22137372 -0.011533252 0.0074485736 -0.1705247 0.22911686 0.18902262 0.27907088 -0.25480768 -0.17260504 -0.057871934 -0.2019956 0.026756883 0.06630637 0.4052462 -0.15225083 -0.27312085 -0.104497306 -0.0704983 -0.035877712 -0.27587143 0.093258046 0.1876116 0.20428202 -0.13012834 -0.11069953 0.1416643 0.11918479 0.25598302 0.14980896 0.10489546 0.1931275 0.3426111 0.13137531 0.099087514 -0.45001936 -0.108495966
2606 -0.08046385 0.1374684 0.08333572 -0.019085709 -0.028273148 -0.20276111 0.2874474 0.31947768 0.09159629 0.15896614 0.2808177 -0.088692084 -0.057787407 0.3297658 0.24826752 -0.10190615 0.124093935 0.30081853 -0.011340382 0.02638944 0.22714742 0.21282725 -0.02984061 0.12648687 -0.10380311 0.104089476 0.12731834 0.29465926 -0.34427714 -0.114645705 -0.23111412 -0.19676143 0.12706326 -0.017205391 0.086046815 -0.11679203 0.059234533 -0.16658603 0.110860825 -0.23229222 -0.20834059 0.027557453 -0.014701213 -0.094864674 -0.4247551 -0.12372081 0.028511716 -0.12704249 -0.29901886 0.0076074935 0.09457014 -0.13940515 0.16339457 -0.09589101 -0.088737 0.27534837 0.010702497 0.02926281 0.039813705 0.16750121 -0.061962456 0.023693444 -0.24310713 0.05113237
1663 0.04996938 -0.19260989 0.18263105 -0.11668173 0.07309532 0.124839544 0.33792067 0.33195382 -0.015244173 0.39427048 0.36633474 -0.0747534 -0.029634085 0.24411716 0.24945216 -0.27510315 0.074141495 0.2688339 -0.004964867 -0.18830292 0.112838276 0.22645257 -0.03088774 -0.26515546 0.19736569 -0.06424073 0.11105807 -0.009579079 -0.18014994 -0.06981563 -0.00419921 -0.19938782 0.25586575 0.007504773 0.16251315 -0.28968596 0.47590423 -0.026918946 -0.21562025 -0.24179013 0.059460025 0.2345282 0.15222411 0.006596516 -0.099978454 -0.38627633 0.03451988 -0.42455125 -0.09486987 -0.06878321 -0.17385381 0.070105195 -0.2155899 -0.025842318 -0.0046890858 0.060321588 -0.023926131 0.14432661 0.13312207 0.18380347 -0.182341 -0.1177892 -0.022675587 0.06821119
1802 -0.0041509205 0.14542562 0.084137954 -0.07647036 -0.15638903 -0.020078622 0.29679593 0.4330795 0.09725606 0.1398787 0.1430233 0.36578265 -0.009637465 0.2674329 0.1927217 -0.066099636 0.23110771 0.13452525 0.07961767 -0.12705377 -0.37935388 -0.0011857931 0.08146662 -0.07834498 -0.05436045 0.009393348 0.2602541 -0.07514506 -0.09983698 -0.11211171 0.013347894 -0.10245976 0.009869378 -0.03750736 0.21460421 -0.27474093 -0.25610757 -0.07333596 0.094584435 -0.06231011 0.18064769 -0.008623914 -0.09670804 -0.009469159 -0.13662934 -0.25215372 0.02302604 -0.22314966 -0.1277251 -0.09699124 0.1484561 0.06426767 0.05593317 0.11241741 0.15218481 0.061589643 0.03915018 0.17585498 0.14637844 0.0030851567 -0.029503793 -0.1966754 -0.34642404 0.08596046
2535 -0.0032812634 0.05067052 0.3204553 -0.02062059 -0.15333422 -0.055052474 0.22194503 0.056572586 0.022507327 -0.055731174 0.20648323 0.21627276 0.07548952 0.31806394 -0.10019904 0.0025233226 0.4636155 0.16721523 0.19113396 0.15658696 0.18266977 0.21437597 -0.051732533 -0.050210696 -0.17769985 -0.037503462 0.25844622 -0.15835373 -0.29555497 -0.25247997 -0.15465447 -0.26169017 -0.03979945 -0.17427637 0.11370644 -0.35691464 0.062013723 -0.1923735 -0.083620146 -0.14739336 0.005867761 -0.00022091337 -0.076062195 0.017809674 -0.048140474 -0.18591818 0.10672989 -0.18678038 0.048195988 -0.10482957 0.17892078 0.007671134 0.022560606 0.0137646 0.08064838 0.041153546 0.0067751734 0.036939934 0.07706969 0.04106536 -0.010448056 -0.065974586 -0.38799852 -0.14226955
1124 0.04243494 -0.08071975 0.47050068 0.021591607 -0.16979448 0.03515747 0.21885231 0.11347776 0.063610576 -7.2393177e-06 0.2636145 0.21538721 0.08344505 0.06335414 0.12657154 -0.13526148 0.27294314 0.023116697 -0.016189694 0.22731075 -0.035382163 0.056454226 0.06500489 0.13209161 -0.043099184 0.1707866 0.48080444 -0.1610285 -0.16159952 -0.14898948 0.067816325 -0.02571499 0.23938483 0.14883833 0.13377813 -0.23877767 0.100632004 -0.25417954 0.04149923 -0.10830083 0.10430375 0.10970742 0.12876688 -0.045251887 -0.17919001 -0.14316389 -0.08824642 -0.2499175 0.046441387 0.021262487 0.18372437 -0.23487255 -0.025248768 0.23052652 0.112252355 0.30054748 0.10604743 -0.026148725 -0.111249216 0.3370014 -0.16690485 0.15346535 -0.14711548 0.105631776
401 0.001992887 0.16769412 0.06460109 0.0050397906 0.1743866 -0.022152836 0.062232636 0.093901634 0.053290345 -0.08023191 0.2153512 0.16795903 0.02672316 0.18109994 -0.12749094 -0.0012301287 0.20935953 0.20393592 0.013114463 -0.22056757 -0.17027603 0.20461856 0.09730154 -0.11518236 -0.13133883 0.015384471 -0.037790205 0.078091934 -0.19218303 0.0054545165 0.3193576 -0.23843083 0.19039507 -0.054815944 0.19090259 -0.35233283 -0.013373477 -0.22288743 -0.22043741 -0.19387087 -0.14860725 0.107217625 -0.029831396 0.00973415 -0.19275011 -0.34440258 0.009484609 -0.25703514 -0.12450841 0.016162641 -0.019843608 0.024652477 -0.039506383 0.07278687 0.01980418 0.4453183 -0.015248969 0.059391566 0.16148251 -0.14156532 -0.12307257 -0.05796083 -0.24171534 -0.07781223
1857 -0.17817093 0.23573032 0.05396412 0.00806165 0.07488808 0.21119505 0.23527437 0.039646465 0.20460899 -0.21242836 -0.051368132 0.08253519 -0.25892296 0.00010954329 0.111260764 -0.06142443 0.07037168 0.29851425 0.2003368 -0.34282547 0.0053395317 0.40668827 -0.12953031 0.0962637 -0.06586112 0.062226664 0.14047845 -0.0060116365 -0.22510025 -0.019341344 0.13536206 0.09735177 0.3275367 -0.17968026 0.13285366 -0.2920819 -0.07009445 -0.12437517 -0.17823642 -0.22334918 0.017553218 -0.17431147 0.14681332 0.45741674 -0.06872475 -0.19966596 -0.114587024 0.30990306 0.009829465 0.0053866156 0.1068102 0.32760435 -0.25437945 0.32058597 0.3349173 0.21543711 0.114746384 0.16344151 0.035580665 0.12944633 -0.35654807 -0.04135521 0.15043114 -0.15784931
2574 -0.092612594 0.27431408 0.3414203 -0.015278611 -0.0005406064 0.11926659 0.22989087 0.09426769 -0.10335223 0.124595165 0.05325104 0.3077334 0.18825129 -0.23843077 0.10717416 0.10938899 0.21474996 -0.107082054 0.025762135 -0.08353792 -0.09910666 0.19744615 0.12669067 0.13662083 -0.11869666 0.2802357 0.29507318 -0.1376679 -0.17775808 -0.11923277 0.36263174 0.104480356 0.23453693 -0.23787685 0.11386259 -0.2102379 -0.0067581423 -0.35627863 -0.13491462 -0.19455324 -0.010727457 0.1076344 0.007097936 -0.074705124 -0.10905753 -0.15724397 -0.06699838 -0.38036427 -0.07789719 0.12665296 0.15142281 -0.045708634 0.012560299 0.16697781 0.08271075 0.47149754 -0.0013240415 -0.17230788 -0.056626063 0.052693713 0.01626399 0.10285866 -0.33629927 0.13486455
1175 0.10837891 0.0511684 0.006201153 -0.30670545 -0.091859944 0.07344863 0.17406268 -0.08976718 0.112707786 0.23318121 0.21291582 0.12265766 -0.00811632 0.16646618 -0.041262962 0.27697232 -0.03713688 -0.08951847 0.045462262 0.2379941 0.05411801 0.27138603 0.066384815 0.17033906 -0.07939548 0.31949285 0.17912318 -0.063810475 0.06496224 -0.28647545 -0.08034743 0.038867682 0.35053027 0.0502794 0.2619362 -0.3166889 -0.033376068 -0.13192968 -0.04153088 -0.19036178 -0.07683894 0.0663365 -0.06473547 -0.110930674 -0.106136024 -0.4422053 -0.073698744 -0.11320914 0.12606458 0.1323515 0.15781358 -0.034240827 0.03225942 0.03397753 -0.050897866 0.15985656 0.09525545 -0.040261894 0.10492312 0.3245734 -0.2914152 0.04302543 -0.40913466 -0.009362638
169 0.04753068 0.14801438 -0.1507878 0.19667779 0.039779484 -0.24238811 0.2858111 0.2459617 -0.029720267 -0.023707403 0.3315753 0.20592064 0.082200065 -0.027141267 -0.16604123 0.30730358 -0.10936761 0.18041019 0.06467966 0.07412534 0.12633564 0.128002 -0.18649867 0.17249596 -0.05302157 -0.013051819 0.2923512 0.06285723 -0.13131471 0.007374474 0.02882786 -0.34350032 0.27951908 -0.027671149 -0.022076191 -0.15877013 -0.021942923 -0.11381188 -0.17828377 -0.05120224 0.07779124 0.17805906 0.08760757 -0.020586584 -0.26602387 -0.27061427 -0.23759933 -0.07833417 -0.26164484 0.1548458 0.061825257 0.11641276 -0.062005058 0.2031491 0.13070022 0.24172144 0.06681994 0.04960687 0.089962356 0.14917001 -0.07165006 -0.0050036884 -0.35410464 0.16826215
2438 0.015309881 0.13677628 0.33026025 -0.20560901 0.003976695 -0.1813092 0.26674736 0.17768112 0.029029515 0.10914179 0.114905074 0.18531416 0.12139694 -0.1609573 0.1443772 0.22105484 0.121264026 0.21458572 0.27420476 -0.26372725 -0.07339505 -0.16662717 -0.09073457 -0.1953559 -0.1270981 -0.0053630006 0.27225885 0.08424219 -0.21383786 -0.0015788723 0.0020134922 -0.2809489 0.32826373 -0.19214672 -0.03838817 -0.12879142 0.006889855 -0.14756751 0.033763662 -0.3824304 0.11088046 -0.0031811108 0.17061608 -0.025062699 -0.030587504 -0.41825566 -0.28087434 0.13646801 -0.21479012 -0.12705061 0.1501811 0.22491561 0.09914584 0.21974008 0.07410577 -0.052758902 -0.050494637 -0.11350011 0.29421607 -0.23676631 0.090611435 -0.1293975 -0.19218937 -0.014074808
1095 -0.1157695 0.20968017 0.10201409 0.051151168 -0.25326517 -0.130003 0.1763499 0.11503044 -0.014759834 -0.008902729 0.12981959 0.31466192 0.10916079 0.20251584 0.1742306 0.105406076 0.07437751 0.11413406 -0.090054914 0.03502368 0.083009295 0.1726213 0.10879236 0.19945289 0.16113986 0.00080818235 0.08281099 0.13424179 -0.13611162 0.14081916 -0.24462806 -0.2427088 0.20869997 0.015934773 0.08576335 -0.4085027 0.059739865 0.08247856 -0.3739554 -0.2250169 0.1641504 0.1386028 0.10487465 0.045931503 -0.14420684 -0.24717622 -0.087969854 -0.1468181 -0.19930632 -0.15291536 0.025493184 -0.008011527 0.012251484 0.1536134 0.13483699 0.21866637 0.12722284 -0.06137076 0.102512464 0.2740383 0.014003269 -0.072006986 -0.24360316 0.042680487
868 0.09659901 -0.09452485 0.06841934 -0.20087525 -0.07799447 -0.0031739166 0.44551978 0.10471976 0.10295305 0.3106714 0.27256897 0.11284156 0.16175814 0.044798568 0.1250824 -0.18786773 0.20490673 0.2947732 0.008068607 0.09814322 0.055876017 0.040493753 -0.038389694 -0.030611925 0.06344838 0.06514179 0.07688311 0.014564335 -0.27223063 -0.28783104 0.20396277 0.031979512 0.21074855 -0.13613854 0.199616 -0.2003269 0.2465324 -0.51135105 0.023033062 0.09407465 -0.05949454 0.0055011963 0.076803595 -0.29035884 -0.11296698 -0.29324743 0.05971999 0.03365013 -0.08924913 0.20223315 0.13238917 0.1795945 0.17374976 0.15043427 0.19823211 -0.050231427 -0.016726295 0.04295646 0.19217514 -0.04233704 -0.016532967 0.10644143 -0.4095062 -0.15953383
892 0.43698066 -0.054096617 0.34758472 0.0055634566 -0.1656019 -0.09396384 0.19363753 0.16363026 0.21197495 0.04457124 0.39640588 -0.002617839 0.016788997 0.13035463 -0.065720394 0.16303849 0.17557852 0.2889627 -0.0046713594 0.032391828 0.08047137 0.2913834 0.2543813 0.04848279 -0.004925353 0.049656786 -0.030113157 -0.12457196 -0.17883706 -0.09772402 0.07114174 -0.14386436 0.24481593 0.12199766 0.25921485 -0.15725926 0.25543115 0.024978055 -0.13181421 -0.25644195 0.0014807705 0.23568444 0.025198359 0.0582855 -0.26365972 -0.42005694 -0.19560967 -0.051399566 -0.084894374 0.017778657 0.031048091 0.022444777 0.056125775 0.056234438 -0.25307542 0.030586269 -0.003213419 -0.1398791 0.24147703 -0.03056807 -0.0023916326 0.16172618 -0.31499144 -0.12406889
2565 0.12844914 0.16903651 0.19083194 0.15006745 -0.18218294 -0.0010308195 0.23304842 0.05080214 0.14997913 0.011233727 0.21654065 0.0026162595 -0.12040642 -0.035119973 0.023808243 0.069611125 0.11470032 0.03542539 0.23186618 0.22933306 0.03994401 0.4814225 0.07612388 -0.23065053 -0.20373671 0.0498458 -0.0010477311 -0.06775865 -0.5119926 -0.43180728 -0.07672613 -0.02534204 0.15041089 0.21933803 0.117390186 -0.13944958 -0.01527953 0.12653415 0.09749525 -0.30162972 0.026309652 -0.0027647798 -0.23575123 -0.09801383 -0.27997893 -0.016074177 -0.13884792 -0.21626195 -0.08596659 -0.050947152 0.2762598 -0.0877901 -0.076062225 0.24186718 -0.103058904 0.3269841 -0.027999733 -0.14232156 0.17091075 -0.0091648735 -0.16494742 0.12970811 -0.31458598 -0.22709762
179 0.045383085 0.060690176 0.1291657 -0.08975788 -0.20353603 0.020254647 0.19659527 0.1328684 -0.084070735 0.1670834 0.34717092 0.21922363 -0.06077166 -0.086815216 0.11840352 -0.07273408 0.18547787 0.21255784 0.031262923 0.0656071 0.07310152 0.18114914 0.15642586 -0.0065733064 -0.02972589 0.056206666 0.030580565 -0.112902045 -0.2966235 -0.10403324 -0.011526468 -0.25402313 -0.10952002 -0.096096225 0.24524678 -0.32807502 -0.10978172 -0.121254034 -0.10505444 -0.26124159 -0.074458025 0.11701084 0.124289155 -0.063892916 -0.3199219 -0.1549428 -0.08082221 -0.21239899 -0.15889314 -0.05736588 -0.111726426 0.075553454 -0.10106671 0.17568126 0.10163316 0.28954038 -0.21099441 -0.06501097 0.021979844 0.09338344 0.09820888 0.106320746 -0.40716866 0.16709974
2426 -0.04038142 -0.06370867 0.051590305 -0.11704321 -0.035599224 -0.01641764 0.003124196 0.14439097 0.17015018 0.26018026 0.43200272 0.23239478 0.038567103 0.11683329 0.26517218 -0.16261338 0.05985289 0.09821339 0.11912347 0.175063 0.063314594 -0.056564566 0.11176528 -0.25703666 -0.029553698 0.10035543 0.15501447 0.041835885 -0.120485984 -0.22669682 0.11882698 -0.06640268 0.037165772 -0.13258319 0.024201093 -0.20049638 0.13082522 -0.21356498 0.092833124 -0.14798473 0.050203405 0.18799616 0.22170901 -0.02398492 -0.1267937 -0.45280975 0.12702653 -0.13206351 -0.06600424 -0.3801753 -0.09733397 0.2019467 0.017723735 0.0004753379 0.20153008 0.131316 -0.062267616 0.054367743 0.42054707 0.11803832 -0.16321743 -0.08653154 -0.40228412 0.039285805
1465 -0.1148935 -0.08800181 0.24580024 -0.054409288 -0.14264613 -0.119167425 0.5014676 0.22677186 0.0815188 0.021056136 0.13668779 0.229386 0.06486402 0.07650322 -0.021464791 0.069571204 0.017508283 -0.059289623 -0.06555685 -0.06003313 0.16465755 0.31936774 -0.18155178 -0.13414183 -0.04500919 0.14050527 0.079820186 -0.16031468 -0.15739723 -0.043616056 0.053795528 -0.25277695 -0.053230423 0.06427921 -0.00038650923 -0.35347807 0.029105423 -0.060541473 -0.026571093 -0.29661238 -0.38379672 0.17176732 -0.056604534 0.29327035 -0.25106624 -0.12950502 0.27908725 -0.25879377 -0.03250887 0.045038443 0.061960597 -0.0005813712 -0.02831875 0.15242174 0.061096013 0.06275333 -0.11087071 0.04864827 0.2909376 -0.14461496 0.08599558 0.004895446 -0.24579367 0.028343003
2551 0.22724473 0.13667515 0.090720385 0.06060332 -0.04824681 -0.061292466 0.18819426 0.16330484 0.32820243 0.18683077 0.38825938 0.15309903 0.06006654 0.17876197 0.0994175 -0.003109179 0.1814692 0.13265376 -0.020440526 -0.054087333 0.122590475 0.15639263 -0.118745714 -0.03421988 -0.38443664 0.03644221 0.19683568 -0.2571509 -0.24389628 -0.3810493 -0.032534856 -0.23964785 0.12911655 0.03007362 -0.045006767 -0.13327667 0.15790337 -0.18659678 -0.082669474 -0.003564413 0.19180714 0.3070296 0.021431394 -0.16879879 -0.39197466 -0.032412343 -0.06337236 -0.14716825 -0.06502603 -0.039549645 -0.059157956 0.018015582 -0.11665725 0.12570569 0.13556331 0.06692087 -0.074991226 0.11576012 0.21345027 0.22443968 -0.105976224 -0.019246902 -0.3249242 0.15753204
1119 -0.11499743 -0.30028564 0.10091035 0.010038796 0.07083902 -0.24924089 -0.028690703 0.41704497 0.08532351 -0.1521404 0.31172928 0.0153382085 -0.08007531 0.2480921 -0.1233054 -0.053828083 0.13884622 0.15442236 -0.14285709 0.2139919 -0.04384372 -0.12246484 0.005793102 -0.03648765 -0.09387735 0.021831699 0.12261904 -0.16715476 -0.44061017 -0.23812523 0.111855 -0.32198176 0.106023826 -0.14645451 0.1156866 -0.030154558 0.08225107 -0.2218489 -0.020096386 -0.3217752 0.04290514 0.20945941 0.14925076 -0.028728573 -0.3115983 -0.19850326 -0.38982671 -0.22967167 -0.06274206 0.06130919 -0.22215101 0.053277597 0.043948982 0.14533396 0.13146697 0.17402253 -0.046025746 -0.20073484 0.4998082 -0.12701507 -0.16060945 -0.00231184 -0.29878005 -0.19525415
729 0.09025165 -0.066587806 0.36832878 -0.20712411 0.03603535 -0.1775343 0.30032474 0.1787034 0.1919478 0.19780876 0.15844615 0.23205405 0.15197317 -0.0019095453 0.22193591 0.15814155 0.16814224 0.07818679 0.1670008 -0.35765603 -0.13662145 0.1220378 0.021843046 -0.03894947 0.19600232 0.3431644 0.14047503 -0.25824693 -0.048331264 -0.1773567 0.01424793 -0.13850026 0.19664326 -0.0035670064 -0.14996845 -0.039594434 0.043482464 -0.1592489 -0.1382945 -0.2585068 -0.03149302 0.4666499 -0.03274279 -0.14059024 -0.053709116 -0.14986245 0.15244028 -0.18164039 -0.028351191 0.089820355 0.22643085 0.18322447 -0.013503361 0.198154 -0.16450147 0.095969215 -0.12251276 0.12969528 0.16343625 0.3455501 0.032160107 -0.015597356 -0.18066926 0.120742574
2555 -0.12632777 0.27377993 0.15359432 -0.086411744 -0.24380001 0.0675732 0.07251313 0.07609153 0.1723948 0.098243155 0.29506573 0.23374912 -0.060629856 -0.24029106 0.06280651 -0.020155486 0.2876772 0.19333099 -0.037422724 0.06895037 -0.0719919 0.0818955 -0.01243767 0.14223097 0.017339062 0.2517822 0.32155696 0.09472536 -0.12230932 -0.27887768 0.1349228 -0.12423304 0.1585516 0.10477671 0.23812048 -0.47897422 0.21896854 -0.19024013 -0.1657934 -0.25814214 0.025380002 0.15137316 -0.07190047 0.016771467 -0.217188 -0.06871547 0.15702574 -0.44110218 -0.12046833 -0.13986991 0.22713661 0.21107844 0.10317811 -0.060407817 -0.18158083 0.23862058 -0.016487638 0.11272633 0.17686239 0.1502882 -0.08088801 0.22561465 -0.0005251103 0.22547853
1957 -0.2747262 -0.01658225 0.13001318 0.051892232 -0.16831362 -0.03163179 0.34930074 0.02783563 0.026768118 0.040374335 0.15802841 0.2940461 -0.04270895 0.0765223 0.28558552 0.0674247 0.076038845 0.34860852 -0.15110728 -0.03534145 -0.103651814 0.17989022 0.05260549 -0.037115484 -0.09263949 -0.056611866 0.30440181 -0.07787951 -0.30523282 -0.029634655 -0.0036189053 -0.09597781 0.14117813 0.08197607 0.027300201 -0.20091096 0.09968385 0.04111953 -0.27556404 -0.23842362 -0.20612842 0.020529576 0.042415448 -0.14837988 -0.2242776 -0.17597347 0.25294456 -0.38700452 0.005316642 -0.1937776 0.2833319 -0.08041619 -0.24277197 -0.024026657 -0.05300362 0.1573863 -0.15793736 -0.06578313 0.13749962 0.07171439 -0.17426106 0.095469944 -0.35911787 -0.2172794
2162 0.22023012 0.11001079 0.11455201 -0.06286152 -0.05259485 -0.03241969 0.009812814 0.15536971 0.074827366 0.3898878 0.44664407 0.35303244 -0.046961755 0.034634575 0.12542538 -0.057049572 0.18842229 0.10893807 -0.123136796 -0.10900203 0.014181445 0.31448993 -0.14340053 -0.03179308 -0.12611079 0.0393628 0.16937545 0.15231968 0.049449075 0.04804524 0.0034293488 -0.18412632 0.13780877 0.18051684 0.24185216 -0.22142568 0.1775576 -0.038859434 0.11708928 -0.1108949 0.11178563 0.11908353 0.21414936 -0.090196885 -0.3317654 -0.14466572 0.05151468 -0.054032695 0.061220855 0.041843586 0.0348235 -0.019630404 0.08594398 0.46000418 0.08446621 0.22780298 -0.030201437 -0.06742591 0.11788813 0.21845841 -0.0033347462 0.20210826 -0.1754793 0.044565924
1031 0.04812251 -0.11042968 0.44467917 -0.06792098 0.03507478 0.041433334 0.22293994 0.32735136 0.08160359 0.009448269 0.07368365 0.001575009 0.018515803 0.15532136 -0.14392175 0.01390512 0.27005708 -0.051724415 0.11559806 -0.14386772 -0.3424407 0.24323905 0.026280457 0.03305267 -0.08393689 0.09949264 0.005506595 -0.003146366 -0.31005862 -0.20453787 -0.03931967 -0.34522069 -0.16086908 0.05683574 0.038383294 -0.29484978 0.20416549 -0.12632284 0.10054183 0.090103246 0.12242925 0.28654808 -0.2638907 0.1468088 -0.06252675 -0.37881407 -0.22338307 -0.069080085 -0.078657106 -0.0845851 0.2948971 0.0041555506 0.1873153 -0.10685537 0.14339352 0.1214869 -0.1363552 0.10949091 0.21607046 0.13907006 0.1462987 -0.19824418 -0.34889805 0.10928254
1837 0.017940404 -0.14877175 0.15533948 -0.15299386 -0.14807485 0.07964793 0.12130252 0.11219534 0.0045295353 0.02950887 0.12330629 0.18732995 0.07616965 0.21880116 -0.0017748863 -0.05654947 0.24098474 0.24450055 -0.039147433 -0.17814228 0.05449996 0.09785355 -0.023343708 0.011651685 -0.038022872 0.002579166 0.33486766 -0.18922159 0.10769966 -0.18587066 -0.18210803 -0.09575311 0.36323234 -0.05114505 -0.015529367 -0.13865033 -0.08981322 -0.018314902 -0.0018125424 -0.27544892 -0.002499582 0.1157779 -0.0947697 -0.08237728 -0.3424785 -0.32256696 -0.11528067 -0.16684267 0.096194685 -0.17357868 0.15310715 0.12954855 -0.08200249 0.09584953 0.035474252 0.28851488 -0.11324902 0.06780771 0.052983098 -0.06149014 -0.05468756 -0.04410232 -0.5102878 0.0043747392
1893 -0.1572981 -0.007917718 0.20749708 0.18808256 -0.16616383 0.15243982 0.3348397 0.38742527 0.36684594 0.03777495 -0.12410709 0.26944128 0.05340718 -0.038591612 -0.039887883 0.09558529 0.20890494 0.2744328 -0.058410604 0.043831237 -0.003858261 0.15752643 0.03815955 -0.1601165 -0.17658877 0.055039704 -0.0254009 0.060312334 -0.022916494 -0.16749662 -0.031668097 0.072504476 0.18443634 0.20484278 0.19654597 -0.16850789 -0.0810403 -0.13475826 -0.18090425 -0.04436733 -0.29891208 0.4273304 0.21484812 -0.0839523 -0.44149143 -0.30001837 -0.15596546 -0.1861903 -0.2625899 0.103420354 0.016928483 0.19362824 -0.16330338 -0.079327516 -0.096468285 -0.015771784 -0.2278111 0.08036111 0.09109577 0.36275965 -0.0077536316 -0.15694788 -0.20416059 -0.11663494
1277 0.011057151 -0.02572353 -0.15516558 0.17839631 -0.13787857 0.063204974 0.0067360634 0.049982857 0.38637996 0.059142135 0.32318363 0.22476661 0.00631965 -0.09701466 0.18352152 0.057175476 -0.01802954 0.20665073 0.37318867 -0.15113315 -0.052815087 0.2672681 0.10881632 0.027072512 0.03635375 0.22380975 0.41197208 -0.034234304 -0.16300987 -0.026707117 -0.15083016 -0.31664976 0.09535577 -0.058164507 -0.12495211 -0.18346703 0.07659975 -0.17597346 -0.22910872 -0.24732122 0.05743469 0.02880759 0.0793113 -0.016705092 -0.14139722 -0.15701413 -0.1264055 -0.11662739 -0.21496229 0.039020598 -0.19621561 0.12644185 -0.2018327 0.011610062 0.06519284 0.10917996 -0.3274043 -0.08989265 0.13212302 0.3095358 -0.012045634 -0.054694213 -0.1941374 0.11836447
2602 0.0682602 0.051075023 0.15891398 0.12245958 -0.15404251 0.048618853 0.08398236 0.057254262 0.13071722 -0.08944005 0.24996902 0.14118472 -0.24492796 0.13812941 -0.14092745 0.10794486 0.20093735 0.4483422 0.040378854 -0.10321405 0.07315738 0.21050608 -0.09008491 -0.12277629 0.27497637 0.15314153 0.21741651 -0.05753722 -0.43603206 -0.050537273 0.081800476 -0.124408744 0.11177421 0.12968734 0.15649593 -0.23513515 -0.06215026 -0.068532825 -0.024544371 -0.15660189 -0.1394558 0.103984535 -0.31519607 -0.162522 -0.23466204 -0.23666027 -0.0073639816 -0.20899062 -0.118764654 0.18775335 0.22145528 -0.10874513 0.08266547 0.11242236 -0.023254737 0.08908192 0.047405615 -0.12389201 -0.19088122 0.4027976 0.0666623 -0.20478307 -0.32120878 0.12546787
