2708 64
1147 -0.00052157947 0.03183611 0.30440846 -0.13741134 0.0029180394 0.07509131 0.11270186 -0.246845 0.15415414 0.009144198 0.25457224 -0.06276223 0.1357911 0.26887596 -0.018807188 -0.07162346 -0.06455031 0.18956381 0.032033358 0.061311495 0.38756076 -0.3208906 -0.15290976 -0.10172026 -0.15412936 0.02548022 -0.088624895 0.17079021 0.4528294 0.1264198 -0.14184186 -0.13266577 -0.112096824 -0.08549703 -0.30129686 0.17211099 0.0067182807 0.017134883 0.36813974 0.2510586 -0.07638255 0.22815096 0.034650248 0.18348938 -0.1846225 -0.09632013 -0.034757543 0.029200673 0.09035636 0.1538254 -0.04067035 0.068393216 0.22972254 0.060922597 -0.330221 0.14367446 0.12640773 0.0050156233 0.19838044 -0.09513254 -0.28607947 -0.008963513 -0.16541542 -0.19745025
1450 0.04842861 0.12873158 0.33798945 -0.34840804 0.088130355 -0.06816113 0.1956097 -0.24943551 0.092378385 -0.1202838 -0.17079759 -0.19473475 0.2528222 0.21511991 0.047608525 -0.1360399 -0.037363883 0.096049175 0.18737371 0.15789987 0.18382396 -0.27754128 -0.21561678 0.0059203645 0.057310738 0.14820847 -0.12481151 0.05847541 0.13655971 0.06810015 -0.08494502 0.03640661 -0.058892645 -0.24814622 -0.43361485 0.22958747 0.17535532 0.022304196 0.108851925 0.32084206 0.20936659 -0.106881864 -0.11573043 0.026959244 -0.17937665 0.09542825 0.1538063 0.042616703 0.17301083 -0.09214679 0.014275439 0.12702478 0.33979186 0.21792625 -0.20172039 0.19348806 -0.01830493 0.032644913 0.18711913 -0.011742935 -0.3189322 0.1576165 -0.13222666 -0.21403721
2373 -0.25290567 0.2555482 0.5321973 -0.118060805 -0.13092236 0.09333028 -0.029168878 -0.22420089 0.013277688 0.35925472 -0.047824576 -0.22517361 0.25629246 0.35608962 0.042375393 -0.24780555 0.11306796 0.105012625 -0.16536967 -0.03788798 0.09826528 -0.1471209 -0.03444755 0.10207228 -0.20157205 0.028952409 -0.1567074 0.27056453 0.09047836 0.14160189 0.17590629 -0.011435696 -0.15640996 -0.25309002 -0.28091908 0.22929683 -0.06909328 -0.111088626 0.2919067 0.05138311 0.15592706 0.23183817 0.21439745 0.1026807 -0.20891576 -0.22531235 -0.02024299 0.112030335 0.15247108 0.04920682 -0.091127 0.12145231 0.25838608 -0.06330021 -0.3690419 0.017132087 -0.06380058 -0.18076923 0.050730366 0.039288558 -0.42702463 0.11412182 -0.016623303 -0.18993331
1806 -0.0038317787 -0.028567517 0.44750336 -0.033495653 0.06098304 0.027250955 0.054326203 -0.16580802 -0.14323941 0.15569909 0.15673181 -0.18092251 0.019973537 0.19869725 0.107694544 -0.11192783 0.013548016 0.008529629 -0.15184271 0.23723587 0.13468292 -0.38368523 -0.28125176 0.14538184 0.05921436 -0.1254572 -0.17691642 0.122237675 0.17858948 0.12808971 -0.13100012 0.09462024 -0.093712784 -0.10127682 -0.09679022 0.40609145 0.15813328 -0.06004239 0.3022315 0.33829272 0.23344383 0.08786754 0.066549785 0.19171931 -0.097503155 -0.19518466 0.24730949 -0.030815545 0.11161077 -0.066782966 -0.22119601 0.021631552 0.07385005 0.07947463 -0.3590499 -0.008903672 0.0016739473 0.12084536 0.16767304 -0.14881526 -0.22341934 0.037826236 -0.056640264 -0.18729538
2559 -0.044407547 -0.04384946 0.25970557 -0.2031617 -0.020006932 0.01673066 0.2334855 -0.027749268 0.024917005 0.1586687 0.011147841 -0.1506115 0.19127563 0.20594965 -0.050552525 -0.2618182 0.055437323 0.112510614 0.022587415 0.08091504 0.22255105 -0.2190082 -0.071537584 -0.019826854 -0.2695633 0.26665753 -0.25909153 0.19392101 0.12757058 0.17347369 -0.079120226 0.08884587 0.012897048 -0.23189643 -0.2183061 0.48731804 0.029156838 0.049421195 0.26557544 0.29081082 0.24284363 0.028907128 -0.02476956 0.16235505 -0.14461231 0.008982883 0.15066898 -0.008271476 0.06781797 0.15998252 -0.13396172 0.09697019 0.15462323 0.084075876 -0.09466103 0.0075603994 0.09051346 -0.013231081 0.26323316 0.14667428 -0.09650377 0.026988963 0.13319464 -0.2903532
57 -0.10824114 0.16845101 0.21365555 -0.1547779 -0.06532349 -0.10382718 0.30245766 -0.11961268 0.037057664 0.014217334 0.112603016 -0.20803198 0.11167707 0.28016007 0.10307861 0.13117677 -0.14259239 0.23507579 0.17200114 0.22978052 0.333807 -0.21834277 -0.03758613 -0.051929068 -0.33325684 0.08145104 0.002687836 0.16662408 0.20299649 0.07674535 -0.27875012 -0.011749194 0.109928966 -0.46323168 -0.25217855 0.40341341 0.029404046 -0.12111623 0.43317536 0.19797313 0.13473445 -0.1286556 0.09001589 0.14688295 -0.06632155 0.07740455 0.2635954 -0.1304801 -0.10452304 -0.105627455 -0.1332207 0.041771155 0.07900517 0.23940438 -0.05161694 0.011732354 0.18675645 -0.040254474 0.09424305 0.17595074 -0.20061116 0.024032865 -0.12856908 -0.1649637
2698 0.081526354 -0.12658252 0.3359102 -0.14501882 -0.09378656 -0.13904808 0.12601122 -0.16725546 0.079881825 0.07528697 0.10670891 -0.11351717 0.036176257 0.24605805 0.018769559 -0.019705754 0.19196741 0.07092673 0.062681064 -0.22467941 0.39343053 -0.25405708 -0.17826067 -0.17731169 -0.21654497 0.10444654 -0.15937875 0.009936415 0.22110133 0.01852536 0.0044660745 0.07301659 -0.16847327 -0.13319199 -0.25872296 0.30455258 0.25191966 -0.065638736 -0.023596354 0.3439886 0.08259579 0.1552861 0.007552232 0.22526097 -0.13216498 0.13141929 0.11882412 -0.030475011 0.11958557 0.13508803 -0.21438582 -0.16429229 0.21470407 0.11665069 -0.025852574 -0.14264518 -0.07687829 -0.022459473 0.26295418 0.21657556 -0.404155 0.047886785 -0.15173858 -0.15869623
1054 0.047141146 0.01124966 0.32791403 -0.2841949 -0.19694585 0.03521611 0.16351119 -0.21752678 0.1476324 0.24613926 0.038499862 -0.26920184 0.07457936 0.32491535 0.0705918 -0.15839262 -0.0536512 0.099509954 -0.09377519 0.1721144 0.14721802 -0.2547587 -0.030173354 -0.101082936 0.049127974 0.17032348 -0.17943086 0.0866995 0.062415328 0.06771411 0.014781414 0.1709906 -0.094246194 -0.24986988 -0.3430641 0.11047933 -0.11515764 -0.056535665 0.35526443 0.11539113 0.23330265 0.029934138 0.19243221 0.08748173 -0.08289779 0.11305186 0.00628076 0.116532564 0.13803653 -0.20788945 -0.03300192 -0.01287836 0.33207318 0.06927561 -0.013991851 -0.06897365 -0.108136185 0.08126267 0.16522588 0.02971657 -0.39494237 0.13301478 -0.08852507 -0.13565123
2028 0.028965097 0.18127686 0.14350867 -0.11172709 0.047191773 0.038840163 0.20910828 -0.25511497 -0.0009177273 0.11196587 -0.012930129 -0.18883708 0.38815352 0.40480787 0.05653907 -0.028989522 0.027864408 0.06073623 0.19272321 0.051942125 -0.015295658 -0.13244538 -0.21746412 0.113974854 -0.2892101 -0.12506245 -0.057122685 0.08038524 0.19890548 0.083444305 0.08030459 -0.003119838 -0.03385981 -0.558518 -0.34068233 0.16822197 -0.019561242 -0.03396719 0.37305793 0.039764367 0.13898908 0.09551073 0.33173183 0.311315 -0.13591865 0.09823498 -0.02971269 -0.23118919 0.19609056 0.14435746 -0.0035823921 -0.036771744 0.27155158 -0.028302174 -0.04421966 0.12738745 0.048396483 -0.21551211 0.21411078 0.20570524 -0.24399072 0.19192407 -0.14822699 -0.13871011
1570 0.027917916 0.07863624 0.3105287 -0.24751014 0.17082253 -0.01084388 0.1288634 -0.16848207 0.079104125 0.089315005 -0.012241243 -0.19618614 0.113561 0.14118156 0.05710698 -0.21720055 0.07518753 0.06992155 -0.1375515 -0.090058126 0.24110293 -0.19113652 -0.17367594 -0.17179237 -0.07816778 -0.06625444 -0.19444042 0.13437179 0.24015686 -0.06875011 0.023535265 -0.030639598 0.07758749 -0.24355187 0.061422125 0.25594682 0.2747161 0.0015756557 0.4305672 0.2613031 0.09079777 0.018006187 0.25484297 0.3198166 -0.05740403 0.0073868837 0.0042637545 -0.2017502 -0.03075255 0.0690198 -0.10993067 -0.11046988 0.18116677 0.18098071 -0.29812407 -0.013164162 -0.121385016 0.005450488 0.20911129 0.007846721 -0.24112724 0.12517244 -0.060539827 -0.27564162
1741 0.05789977 0.25956798 0.23756583 -0.059397634 0.14210826 0.023886675 0.07939022 -0.12912177 -0.021040227 0.0011111059 0.25087434 -0.15430243 0.17043982 0.36225072 -0.16043158 -0.21690136 -0.0093976045 0.1738505 -0.11624937 -0.12179567 0.20851971 -0.20182484 -0.22573423 -0.08689598 0.10909117 -0.097658776 -0.30733812 -0.060793538 0.08589004 0.034419943 -0.0050123734 -0.18691562 -0.21548538 -0.022895632 -0.40237167 0.21200763 0.058846947 0.0125878295 0.32129407 0.2810796 0.30398726 -0.058274366 0.23687099 0.15137158 0.052060284 0.02597265 0.17844096 0.14057474 0.18530072 0.0154202 0.0054174885 -0.01753734 0.42696315 0.102910556 -0.32388714 0.22691554 -0.053442582 -0.26732194 0.2354903 -0.045738634 -0.20006816 0.07715714 -0.18712495 -0.14862035
2567 -0.028163012 0.028498847 0.4250113 -0.37450927 -0.044943422 -0.068755336 0.29461107 -0.33145058 -0.01936748 0.15089786 0.0890756 -0.30876777 0.25100106 0.1469552 0.08910687 -0.26770332 0.20372193 0.3804081 0.05425846 -0.014322379 0.14862227 -0.25544673 -0.17950504 0.0011984818 -0.21538933 0.1296291 -0.30285507 -0.005063632 0.39777622 -0.038500026 -0.05187229 0.0034315393 -0.034208152 -0.088337384 -0.016982635 0.2736432 -0.022560071 -0.1097209 0.38301373 0.18036798 -0.04537307 -0.11383953 -0.1274758 0.24655063 -0.14205086 0.08902257 0.20874797 0.13097139 -0.10142366 0.104106225 -0.044692114 0.043179035 0.11351008 -0.03374241 -0.14885975 -0.084895164 -0.0072959517 0.07292166 0.16882406 -0.049239736 -0.17521596 -0.021045879 -0.16403617 -0.256229
2115 -0.00024002766 0.0091599105 0.49163285 -0.1718183 -0.008753512 0.04108024 0.093073845 -0.29847372 0.08421971 0.118972585 -0.08109703 -0.37935966 0.47003016 0.30494756 -0.049240474 -0.0370986 0.24830668 0.12936454 0.16163464 -0.14042588 0.18141775 -0.11747455 -0.010827072 -0.006251014 -0.24972415 0.22661167 -0.13314845 -0.08041429 -0.054710716 0.027256792 -0.1224483 -0.04801318 0.030639423 -0.2215638 -0.16369388 0.31327608 0.049580224 -0.14612502 0.06581484 0.14012706 -0.07131515 0.034613192 -0.0709134 0.22688931 -0.2754433 0.15744066 -0.04793999 0.0030295334 0.16653253 0.097331725 0.11658677 -0.030979214 0.34016755 0.12164411 -0.33320963 0.05437058 -0.06181996 0.074319184 0.21277665 -0.00093959307 -0.2953177 -0.07741581 -0.06983455 -0.033949647
2697 0.13429496 0.2069814 0.38011158 -0.21789554 -0.07911823 -0.14328443 0.29556355 -0.27227548 -0.047578212 0.07248699 0.034587014 -0.0496783 0.17771216 0.018178413 0.024463845 -0.12588356 0.09502667 0.059235852 0.2512225 -0.15471001 0.23162107 -0.3360519 -0.022552157 0.11445207 -0.10968427 -0.04972622 -0.17648321 -0.19259703 0.3046358 0.039588947 -0.043592572 0.09621735 -0.07885739 -0.33953267 -0.19458538 0.43156266 0.18915191 0.02201804 0.5202879 0.3805681 -0.1622126 -0.017160127 0.108605616 0.23272835 0.07625017 -0.111040786 0.033125915 0.075152196 0.050848976 0.026830716 0.0019063095 -0.14657454 0.21542387 0.12684819 -0.3151698 0.2626721 -0.17103404 -0.0583316 0.0584222 0.06114341 -0.1041961 0.20215157 0.015824147 -0.09657871
1256 -0.031437624 0.07912378 0.3654283 -0.15944517 -0.05027265 0.14510244 -0.049269613 -0.23148906 -0.00336032 0.14768064 0.17107631 -0.07912514 0.18615438 0.11395207 -0.20106791 -0.023505561 -0.13577935 -0.04701384 -0.07196919 0.10273855 0.22953719 -0.3808469 -0.25998068 0.07008025 -0.10894674 0.18997154 -0.21462108 0.08046055 0.2562457 0.103348225 -0.17929046 -0.004784341 -0.019771006 -0.21980377 -0.10901944 0.12037137 0.11155211 -0.005119486 0.49494034 0.32404304 0.12446668 0.07479602 0.091757335 0.37599072 -0.2634276 -0.046390075 -0.031285316 -0.08039425 0.15859552 0.21554346 -0.09568067 -0.043812685 0.15654327 0.16921902 -0.18011227 0.13953128 -0.007944584 0.16586365 0.1845755 -0.0155120045 -0.08731125 0.023997493 -0.12344581 -0.23776978
2542 0.009239803 0.07040481 0.41839775 -0.17032808 0.033630013 0.11429159 0.13215426 0.078265905 -0.05513137 0.057859607 -0.019391958 0.1240952 0.09244003 0.25981113 0.08863096 -0.0486349 -0.009892964 0.09446053 -0.06280049 -0.014540761 0.1611504 -0.4344752 0.041765112 -0.06403161 -0.30869123 0.08142321 -0.38834018 0.20184213 0.35524046 -0.00148299 -0.18899888 0.01668957 -0.09368685 -0.136382 -0.17869398 0.42335528 0.077898964 0.04968443 0.3969231 0.2211393 0.13237049 0.15358822 0.19818251 0.36669406 -0.19811 -0.017703837 0.2685745 -0.19136944 -0.10585054 0.051205937 -0.07168669 0.16082452 0.121330544 0.10997729 -0.086560376 0.05382207 0.28216985 0.1889838 0.2143694 -0.00918928 -0.06837777 0.002567007 -0.14844744 -0.2754584
1681 0.030444235 -0.006798748 0.26947257 0.0367222 0.18987548 0.14178203 0.3412207 -0.1787866 0.20935403 0.08985139 -0.017613046 -0.04922933 0.19312923 0.26070768 0.123113774 -0.12603088 -0.13591042 0.17356633 -0.08869094 0.054266613 0.27620652 -0.15603772 -0.15457986 0.09619245 -0.061142173 0.05903538 -0.08082766 0.27981454 0.1562468 -0.0970406 0.033690087 0.09784724 -0.093783244 -0.18571503 -0.2772933 0.3585009 0.030089132 -0.12292073 0.26487124 0.22032486 0.18783504 0.13777572 -0.029236658 0.362293 -0.086700216 -0.040298775 0.22043955 -0.08558013 -0.03116123 -0.030580025 -0.10345281 -0.08568451 0.11900825 0.012023331 -0.45041713 0.06794819 0.018922152 -0.143002 0.18995592 0.0795854 -0.32584348 0.18590242 -0.068906024 -0.16193765
1348 0.1266507 0.04432152 0.21264528 -0.111550644 -0.10625091 -0.0749734 0.11019257 0.02187507 0.061159864 0.155857 -0.0960208 -0.41876194 0.32138464 0.22482055 0.21598421 -0.07964138 0.07916219 -0.05316162 -0.12355274 -0.1513061 0.2895874 -0.42365304 -0.054055687 -0.1735898 -0.07734749 0.07478547 -0.12016073 0.07153283 0.21909492 0.02593814 -0.10954236 0.15869239 0.111901425 0.02793953 -0.3029848 0.3834264 0.095351644 0.0047803367 0.376741 0.15264545 0.057892922 0.04572757 0.079729795 0.11557952 -0.0883815 -0.014009966 -0.019252704 -0.04400393 0.109010614 0.103726596 -0.06260263 0.11546601 0.051012017 0.006717668 -0.22693746 0.15233178 -0.030817451 -0.243166 0.3036296 0.10338583 -0.22936545 0.03913968 -0.10573776 -0.14811997
1002 -0.028051406 -0.053148616 0.28260413 -0.24464391 -0.07283302 0.070352376 0.23766111 -0.28065622 0.006308528 0.07284945 -0.03295851 -0.21250278 0.18751556 0.17762694 -0.19122115 -0.2721353 0.04222005 0.31489173 0.1276205 0.16572182 0.30584413 -0.16708902 -0.14958698 -0.047630765 -0.21929221 0.0629016 -0.24457067 -0.023952307 0.19249101 -0.06856204 -0.14085506 -0.019778501 0.14208095 -0.062082235 -0.13857862 0.28899688 0.10470694 -0.11852723 0.32829547 0.36267814 0.31230125 -0.05556693 0.043086335 0.018865503 -0.037604343 0.058735397 0.20202684 0.033853404 0.16678432 0.10682839 -0.17263785 -0.041653477 0.2509842 0.030604476 -0.11096704 0.21071039 0.07553402 0.07436511 0.14612868 0.042446043 -0.10717451 0.03047131 -0.06355459 -0.27475294
15 0.09541485 0.010813242 0.4032578 -0.30888298 -0.13915065 0.011859706 0.08088381 -0.17337935 0.040760003 0.05151468 0.06382065 -0.38541365 0.26033676 0.32302397 -0.16664322 -0.21507078 0.08055556 0.30398032 0.00033730868 0.04307003 0.313072 -0.11690002 0.051054258 -0.12098557 -0.050289135 0.35286266 -0.13177273 0.19214883 0.23681347 0.13193198 -0.07577941 0.1419517 0.03302507 -0.117751844 -0.09525387 0.273269 0.24254633 -0.16201502 0.27623492 0.08681084 -0.067405835 0.20197819 0.10886981 0.24380594 -0.12980695 -0.0038250096 0.15338172 -0.19160347 0.12242805 -0.007352828 -0.010124692 0.060790736 0.3429961 -0.08831727 -0.4003556 -0.0809922 0.09818788 -0.040112067 0.10250817 0.15999962 -0.14119494 0.05545673 -0.16969234 -0.077464186
1124 -0.02402093 0.12039253 0.5568718 -0.023679998 -0.017662507 -0.22267452 0.0006239913 -0.34196866 -0.13256443 0.20753035 0.12342788 -0.3715054 0.001869272 0.2997786 -0.22403455 0.05222309 0.17594099 0.062308893 0.10814097 -0.08365883 0.14988685 -0.000327769 -0.17792416 0.11187781 -0.2286098 0.07403809 -0.13954589 0.2752885 0.15232736 0.018117579 0.09511825 -0.06300203 -0.050966114 -0.33497584 -0.057212275 0.25070617 0.2260156 -0.16933046 0.38846838 0.2257074 0.06653891 0.22976835 0.23433584 0.34966826 -0.17689815 -0.13343602 -0.21489017 0.000335844 0.24845111 0.07015187 -0.22659495 -0.13873729 0.22332986 0.15243034 -0.20674077 0.2667583 0.005928641 -0.2253386 0.19477183 0.10176434 0.0026825182 0.09528537 -0.18646327 -0.18149787
1816 0.0024082786 0.26931056 0.18496189 -0.10296683 0.0041248575 0.08534932 0.16091405 -0.1539305 0.20886931 -0.08776637 0.041205544 -0.30839828 0.30359924 0.25272754 0.13680531 -0.17959207 0.06099558 0.09114085 0.0021788692 -0.042871602 0.15641406 -0.03677674 -0.15703622 -0.036679305 -0.0336633 0.222657 -0.13401407 0.18410538 0.099273175 -0.13651699 -0.117743745 0.072529346 -0.11768475 -0.11116569 -0.03977903 0.22379065 0.19337156 -0.13041958 0.36963153 0.08177278 0.11297562 0.03787378 0.102879636 0.22986424 -0.13389187 -0.11987847 -0.011846223 -0.034684494 0.077843495 0.0691456 -0.2657832 0.0013703187 0.58782214 0.17281109 -0.24231431 0.09642376 -0.012089557 0.0064135194 0.39341345 0.0382828 -0.16649969 -0.101655714 0.05155998 -0.34127164
2482 -0.041483976 0.06928809 0.33162028 -0.09536297 0.045453098 -0.32385486 0.104894884 -0.18629104 0.010223101 0.0323768 0.12362706 -0.21086527 0.041479282 0.26613826 0.15726647 -0.007616915 0.12904206 0.10285981 0.19306692 0.11499393 0.0630047 -0.3633622 -0.12356112 -0.18219526 -0.18311958 0.23035705 -0.26148915 0.24070798 -0.122582525 -0.04384647 -0.10454699 0.14668547 0.08668597 -0.13724433 -0.22674847 0.38624108 0.030187776 -0.057884976 0.3879709 0.31432793 -0.19235003 0.012768152 0.22960123 0.3016738 -0.017025642 -0.08862582 -0.06974626 0.054584682 0.17742482 0.01633558 -0.21848117 -0.114470586 0.16794282 0.2492071 -0.030396719 0.26416683 0.07731581 0.016422369 0.27139562 -0.21339978 -0.36290175 0.027848879 -0.08651448 -0.12535466
2508 -0.11575289 0.23566341 0.25546396 0.023524452 0.012920659 0.019671101 -0.019818982 -0.23838542 0.009634477 0.23849624 0.10760442 -0.09639081 0.09615093 0.5027277 -0.042046048 -0.22468859 0.11960458 0.062405553 0.030469976 0.121487156 0.41068825 -0.12962957 0.029209688 -0.09719748 -0.09048015 0.06860309 -0.45288545 0.20653921 0.24958667 0.17767689 -0.02771198 0.036860745 0.049760703 -0.22354862 -0.10552092 0.1366216 0.020413436 -0.104809806 0.37882113 0.24750067 0.3021432 0.09190511 0.29093626 0.054395895 -0.09659121 -0.06383386 0.11756366 0.08248654 0.24344066 0.20587042 -0.17109686 0.04674707 0.057529766 0.086261995 -0.0880839 0.082639195 -0.0023052252 -0.15695193 0.20475496 -0.046507925 -0.014958951 0.09808079 -0.028943162 0.050094765
1321 -0.019688759 0.3352795 0.19351639 -0.20922762 0.24462253 -0.05215283 -0.04965626 -0.2401502 -0.16828601 0.1162686 0.17048344 -0.13752155 0.10738357 0.11261938 -0.09433765 -0.114701375 -0.030278372 0.06522314 0.0578115 0.1458591 0.224555 -0.33637306 -0.03541159 -0.30814388 -0.012273332 0.09424002 -0.28399777 0.18009539 0.11787833 -0.031246323 0.07472792 0.0601145 -0.16646019 -0.26621026 0.09675004 0.30003548 0.14155744 -0.09909043 0.48481292 0.36823493 0.07928973 0.33525357 0.24489422 0.2703397 -0.05930724 -0.12831886 0.10075663 0.13096784 0.11037213 -0.043754883 -0.20520017 -0.11785144 0.21674107 0.097536325 -0.3392826 0.005297019 -0.004138678 -0.30802122 -0.05621833 -0.05098135 -0.15711032 0.06904512 -0.062095426 -0.20342568
967 0.1962973 0.36003286 0.26826432 -0.16691643 0.11931756 0.13566193 0.04128165 -0.27944422 -0.04800038 0.029381862 -0.028445704 -0.1618837 0.26529595 0.22071394 -0.16709487 -0.017068777 -0.032449912 0.004763898 0.031096203 -0.13555425 0.26938492 -0.30712828 -0.07355109 0.07669876 -0.12536539 -0.00039660576 -0.25453565 0.22761384 0.23102996 -0.04312168 0.085321404 0.06052551 -0.21795806 -0.36741826 -0.026100826 0.30955055 0.23110886 -0.0759755 0.43525118 0.11294903 0.122636765 0.05104273 -0.123350896 0.18171728 -0.15290436 -0.23267579 0.114414394 0.1346908 0.0836006 0.044039853 -0.23396206 0.050491475 0.12704977 0.14776577 -0.20516329 -0.0059487405 0.08296347 0.10942449 0.02870602 0.059916537 -0.2921428 0.0034515508 -0.009343074 -0.3453424
1075 0.005247548 0.07933739 0.1840111 -0.095373884 -0.08139106 -0.092324935 0.24416739 -0.29514176 -0.01611249 0.100848556 -0.045363355 -0.054931168 0.10186892 0.31637496 0.127671 -0.1946484 0.2373426 0.15371853 -0.090921395 -0.07653722 0.05903563 -0.14601439 0.03075173 -0.21101822 -0.23719876 0.17778327 0.039591003 0.18366426 0.09132665 0.26288787 0.07537645 0.0057470277 -0.15117002 -0.22017403 -0.20667188 0.19722603 0.16606675 -0.0754265 0.41110593 0.18122552 0.049977936 0.061043296 0.0991907 0.051955868 -0.23841512 0.18582529 0.1785183 -0.042102356 0.15736915 0.0031505267 -0.20555711 -0.06164619 0.29756856 0.2639553 -0.06105551 0.21830098 0.10666452 0.0041200146 0.25675544 0.047119733 -0.17389166 0.01507749 -0.2608193 -0.13370137
2033 -0.12655586 -0.017861985 0.24305294 -0.40206736 0.098010205 0.010951468 0.22454734 -0.008044347 0.20067687 0.27276015 0.13761072 -0.2046627 0.14138298 0.40157664 -0.002627676 -0.091289625 -0.007965899 0.17474668 -0.05938 0.21167305 0.078757726 -0.3041229 -0.39642248 0.06507182 -0.001169056 0.16146298 -0.10187153 0.123012125 0.08235844 0.072172105 0.17588378 0.01721402 -0.24143314 -0.29654214 -0.19808698 -0.10415795 0.15305516 -0.027092211 0.3017009 0.2996498 0.2996806 -0.03266784 0.0386953 0.026416043 -0.2544418 0.103316255 0.17212455 -0.060462557 0.21955304 0.012600479 -0.33583972 -0.14668903 0.33115014 0.14480475 -0.09955563 0.0328931 0.17451394 -0.178483 0.36567748 0.1737365 -0.16322556 0.30952743 -0.22580226 0.0018342659
1121 0.05641071 0.060425676 0.33028573 -0.18937023 0.06497292 -0.10544852 0.09790007 -0.032266013 0.18021649 0.19623385 -0.007648735 -0.30652228 0.38940042 0.33383805 0.12566634 -0.20128913 0.016658146 0.10993571 -0.05904059 0.16986895 -0.026680967 -0.5450864 -0.1834242 -0.10473076 0.00826621 0.039837778 -0.11494223 0.20427144 0.21082637 0.11412383 0.14827688 -0.06906297 0.039861456 -0.17034672 -0.00061199616 0.48548555 -0.09371489 -0.16572326 0.12656967 0.17360666 0.2486098 0.17252375 -0.130802 0.29621822 -0.18155429 0.09387062 0.12607075 -0.10901943 0.012175555 -0.05425581 -0.2226609 0.08471288 0.111641236 0.102563985 -0.17960349 -0.17117144 0.14863802 -0.05890034 0.34236196 0.113645606 -0.16506197 0.17492814 -0.045734346 -0.18918
1665 -0.014461084 0.08824146 0.27878815 -0.17855391 0.038667157 0.066996306 0.05304635 -0.2732259 0.063150994 0.22147529 -0.011823446 -0.37449256 0.37623784 0.2887481 -0.06660009 0.031268254 -0.054515287 0.2369526 0.04644445 0.07129401 0.13449535 -0.33623797 -0.012305736 0.11244536 -0.007977316 0.15230066 -0.04372465 0.18970443 0.22691219 -0.002806387 -0.092368476 0.12718834 0.109782316 -0.469763 -0.21356149 0.28753412 0.15978816 -0.08362385 0.48047873 0.022432059 0.06171252 0.105394654 0.043121822 0.20862128 -0.18364488 0.083127715 0.14389916 -0.040065873 0.10048523 0.09893844 0.08081308 -0.049218584 0.10186193 0.023421237 -0.02674354 0.079808295 0.088222764 -0.13954192 0.23298825 -0.076484226 -0.36775067 0.16839959 -0.1643472 -0.20470573
2551 -0.0808239 0.4514278 0.363385 -0.040793266 -0.061663233 0.08919549 0.01747681 -0.1828144 -0.019949619 0.071432136 0.09619353 -0.12717965 0.27366805 0.08604365 -0.022285195 -0.047945093 -0.07958849 0.18317223 -0.11575191 -0.09802958 0.37504986 -0.31282473 -0.04114766 -0.041932084 -0.18567933 0.1603512 -0.0012952486 0.15223312 0.20320474 0.10928716 -0.08097886 0.06022402 0.17494695 -0.025537582 -0.12862743 0.25539485 0.10506275 -0.11145927 0.28570753 0.28523424 0.20205155 -0.023626674 0.10086524 0.20595972 -0.18784766 0.06173385 0.004302653 0.012313541 -0.04939114 -0.07562653 -0.13429314 0.09658127 0.15452905 0.044053532 -0.24436194 0.2337971 0.09732543 0.04402401 0.3222464 0.13995074 -0.15154518 0.01731538 -0.051927466 -0.2995776
2700 0.24547528 -0.00011752726 0.48403496 -0.15323547 -0.093017615 0.095177665 -0.05656107 -0.08919011 -0.058787685 0.1365646 -0.048810925 -0.029911561 0.31030944 0.22121872 0.12022373 -0.27219027 0.14371869 0.014586338 0.21473564 -0.13294438 0.26621413 -0.38234982 -0.039548814 0.04866617 -0.2701081 0.05972035 -0.19281267 -0.0860125 0.25112727 -0.09415506 0.17479493 0.053670615 -0.08874908 -0.23017216 -0.115483396 0.36392564 0.049977157 -0.1041639 0.25289482 0.31834018 0.0067593236 0.07519288 -0.06285545 0.044857357 0.045335863 0.061294895 -0.00062775274 0.059888642 0.016302092 -0.12692967 -0.07379364 -0.2743361 0.036771312 0.19420898 -0.20187253 0.12471865 -0.03833105 -0.33184686 0.20535381 0.11042128 -0.25745407 0.015273268 0.07240893 -0.29577965
237 0.17369375 -0.03620371 0.2623267 0.18338424 0.023275165 -0.010196563 0.04566899 -0.17401655 0.050719354 -0.016316524 0.17247836 -0.10191508 0.015884025 0.5060207 0.037776124 -0.13913777 0.015528135 0.14860009 -0.10112484 -0.033136893 0.37293556 -0.19711018 0.07641715 0.015417083 -0.31780282 0.070867024 -0.24692582 0.12978598 0.23742236 0.014218148 -0.28388795 0.16192289 -0.15971012 -0.16941933 -0.17160289 0.32081622 0.1301824 -0.07929061 0.16417347 0.18313795 0.30174223 0.13913752 0.13632366 0.16957793 -0.2256773 0.14434886 0.08952692 0.0017317198 0.22137661 0.009238242 -0.39423242 -0.12314199 0.3228889 0.25328994 -0.11565552 0.06883024 0.23649608 -0.120929 0.029841129 -0.14725892 -0.20146641 -0.06418969 -0.0929129 -0.23429109
1116 0.06540742 0.11167884 0.26838875 -0.063435085 -0.022857249 -0.04435959 0.16039333 -0.23144552 0.06087174 0.05349872 0.08906724 -0.14420824 0.27923104 0.32746953 -0.066277236 0.0050786603 0.09271562 0.04124281 0.20470572 -0.23786968 0.14178632 -0.27205876 -0.2301356 0.12446341 -0.110615626 -0.27900007 -0.27937973 0.099844396 0.1836199 -0.060805157 0.07806139 0.131052 -0.090709366 -0.2967192 -0.33856386 0.16082714 0.1405082 -0.15743653 0.2967986 0.22821729 0.16780409 0.16206011 -0.100375764 0.33423045 -0.1539766 -0.06888171 0.16569218 0.014238541 0.093094565 0.058859773 -0.03644494 -0.14926763 0.06716592 0.01956823 -0.12620017 -0.0061957864 0.19270943 -0.120933205 0.42309228 0.33483908 -0.29039812 0.090585284 -0.18532808 -0.11295517
2041 0.05043696 0.1842623 0.42672426 0.048016928 0.10042837 -0.20962808 0.16947602 0.021862656 -0.026564514 -0.075167574 0.17150922 -0.07806014 0.08431167 0.17217222 0.08920671 0.13350067 0.029660316 0.054505 -0.06592738 -0.14578664 0.55732983 -0.3555941 -0.005672558 0.1832169 -0.04008044 -0.10686891 -0.3604398 0.15597759 0.11709208 -0.08128196 -0.047652256 0.046582032 -0.03134509 -0.13075276 -0.14131798 0.32479462 0.2912714 -0.03140342 0.37747347 0.45590615 0.18295242 -0.13685542 0.15691912 0.19281861 -0.09320614 -0.013746179 0.13711293 0.035909753 0.12651137 0.024642292 -0.07146705 -0.12164692 0.13015525 0.18280527 -0.15272251 0.13587023 0.11215806 -0.013207722 0.22173375 0.07241349 0.00040834158 0.097423986 -0.053097878 -0.34088498
1315 0.045020096 0.046666317 0.18034843 -0.21093789 -0.025207294 -0.0809492 0.05708725 -0.17362419 0.09570931 0.078100614 0.038282033 0.003264243 0.25055966 0.36738598 0.123277694 -0.07922825 0.0422334 0.25497767 0.0044339797 0.038540296 0.26612905 -0.3468469 -0.09767937 -0.024972567 -0.075297914 0.007812583 -0.25809845 0.2125077 0.14598195 -0.08821182 0.019870648 0.25694522 -0.16844901 -0.28339738 -0.097899094 0.33195743 0.079321615 -0.09656754 0.3175208 0.28870508 0.16099855 -0.041768968 0.0189675 0.11679416 -0.05563845 0.093966246 0.25229615 -0.1598602 0.16151041 -0.017304024 -0.18593241 0.1122076 0.35937297 0.11723105 -0.030961704 -0.088154584 0.062416416 -0.0074414583 0.07344 -0.049737927 -0.17009526 0.038377218 -0.20171206 -0.2590145
2571 0.08802757 0.009312967 0.19321375 -0.02289121 0.088200524 0.05309865 0.33417752 -0.35142857 0.007122738 0.11181671 0.018577585 -0.22819404 0.19379434 0.27440256 0.17832057 -0.15892497 0.0986513 0.25940475 0.19990493 0.05697939 0.20017469 -0.12397345 -0.22598751 -0.182299 0.007315002 -0.09152267 0.09009616 0.044393394 0.15390211 -0.013601135 -0.010033206 0.0957141 -0.09713385 -0.28261834 -0.16748634 0.38983428 0.0012808432 -0.23759642 0.4053231 0.39262804 -0.0035858408 0.049386576 0.0785299 0.33547592 0.164087 -0.013840127 0.12782484 -0.074061975 0.08878747 -0.110466674 0.0256872 0.1550828 0.19549198 0.21813801 -0.1721884 -0.05485961 -0.27263495 -0.08614569 0.17283572 0.10630859 -0.190528 0.11345885 0.057066165 -0.22796296
2191 -0.04274027 0.15848392 0.46473488 -0.3193676 -0.10257628 0.121564314 0.07286912 -0.34387925 0.23407787 0.012619441 -0.029282365 -0.25512105 0.31203306 0.06713486 0.07969681 0.04584796 0.037895124 0.27045116 -0.08623332 -0.009635462 0.2642722 -0.25317252 -0.06885354 -0.09639671 -0.34450102 0.13865125 -0.17041768 -0.031690232 0.111705005 0.029013557 -0.08872494 -0.0787751 -0.041209664 -0.19190039 -0.33347628 0.2783956 -0.038122863 -0.16864789 0.23135403 0.27961314 0.031857915 0.12648942 0.13646902 0.29864857 -0.10171757 0.038845528 0.104012385 -0.10574575 0.04426724 -0.19437692 -0.10362668 0.016084068 0.17277324 -0.063448936 -0.16765589 -0.050922934 -0.23486415 0.09433882 0.14692973 0.15241562 -0.27023372 -0.016000072 -0.0069178017 -0.1225149
401 -0.048111893 0.112546824 0.16322836 -0.16796912 -0.13608037 0.024934312 0.16159096 -0.27867872 0.23389623 0.12385424 0.2967297 -0.03084066 0.2704709 0.30446327 0.017552745 0.019345447 0.13369662 0.2016398 0.2611562 0.046063296 0.24328656 -0.21230866 -0.09445559 -0.11398087 -0.09769329 0.19972211 -0.2159216 -0.019946847 0.045269977 -0.04941772 -0.12613733 -0.1294323 0.23357874 -0.5239037 -0.32745177 0.23839062 0.10015951 -0.18218286 0.5145223 0.36944067 -0.038650498 -0.016133746 0.24499133 0.1051365 -0.10254324 -0.104465105 0.17099437 -0.09024088 -0.027443828 -0.26822057 0.012642722 -0.09907595 0.23238653 0.04515188 -0.06555918 0.17318296 0.046629928 0.1439633 0.15158997 0.09749578 -0.19158855 -0.090180516 -0.07904892 -0.12006598
2555 -0.0422343 0.14591442 0.46815628 -0.1668381 -0.027122105 0.047985163 0.17899965 -0.13130665 0.035333302 0.120332405 -0.06462928 -0.05603323 0.14374126 0.43753093 0.13502161 -0.18450819 -0.05260855 0.13530031 0.17119862 -0.02079259 0.1113226 -0.38578892 -0.06351682 0.14235705 -0.26634875 -0.10695312 -0.30492955 0.14955814 0.20968415 0.03098693 -0.052926395 0.18679857 -0.09265246 -0.09945161 -0.12835807 0.32972348 0.058468472 -0.106919535 0.0026360028 0.19016634 0.079177625 -0.047443885 -0.16511942 0.23653062 -0.33986917 0.0047857743 0.19160955 -0.056008413 0.08659327 0.07731456 -0.018260226 0.03572006 0.21540679 0.10473691 -0.22091317 0.04755836 0.14421453 -0.008642217 0.13049652 0.18419342 -0.11344019 0.2825907 -0.09689928 -0.17035335
2027 -0.019500362 -0.022638138 0.33095923 -0.27491418 -0.11835649 0.10648038 0.066392444 -0.3003936 0.046346392 0.059640203 0.22819121 -0.21735208 0.32688084 0.14298657 -0.032033302 -0.14590329 -0.16313162 0.15035377 0.0633616 -0.051165964 0.2537463 -0.5356364 -0.16726834 -0.33133885 -0.34209967 -0.039459787 -0.10296935 0.03927271 0.144541 0.08126784 -0.08332161 0.20204961 -0.14190471 -0.26819566 -0.1251869 0.11687537 -0.13802949 -0.07070837 0.18363498 0.25111997 0.15508796 0.058041386 0.11689384 0.30609787 -0.1372324 0.12637094 0.11060805 -0.11193024 -0.029558495 -0.017688714 0.08912976 -0.06931865 0.13833651 -0.005208348 -0.24116275 -0.03003341 -0.13166192 -0.100923404 0.19653855 0.12559582 -0.28512818 0.17585672 -0.23087072 -0.2211967
1611 0.035730768 0.016927477 0.13807294 -0.18546075 0.008742207 0.06615044 -0.015259896 -0.20705503 -0.0015509188 0.16325799 -0.033364773 -0.44264448 0.29672015 0.22875279 0.2508204 -0.22569835 0.28958252 0.18682894 0.007370807 -0.0044712024 0.24452509 -0.30159208 -0.090072595 0.1569229 -0.22006686 0.15940122 -0.0392539 0.16633299 0.48468676 -0.096714064 0.031507105 -0.07658182 0.047965407 -0.1561472 -0.049676284 0.336967 0.11556643 0.014379457 0.42505676 0.294086 -0.043480128 -0.0025182404 -0.1946124 0.25379142 -0.08271941 0.056183748 -0.018436527 0.037619587 -0.07742889 0.20388873 -0.16439381 -0.08338928 0.04445282 -0.018733842 -0.07383394 -0.112578265 -0.08606983 -0.0027533525 0.34497628 0.03388725 -0.119408354 0.11306761 0.0010187365 -0.06379824
2410 0.038271986 0.08217268 0.21399076 0.045843482 -0.11170359 -0.11597405 0.18170439 -0.22384936 0.08678424 0.41598934 0.08814047 -0.14428048 0.16803783 0.1945546 -0.025116568 -0.21221034 0.3326521 0.29738316 0.39485824 0.13860664 0.25669733 -0.11721849 -0.2258352 -0.04229827 0.049725562 -0.055482853 -0.20040183 0.017245565 0.34071454 0.1529341 -0.02178827 0.022837278 0.1944792 -0.32663557 -0.2648546 0.39003482 0.0070073507 -0.16473041 0.22567059 0.39469558 0.23093948 -0.08763546 0.06655545 0.16112126 -0.040055983 0.24203555 0.2011924 0.06884513 0.115897164 0.16935296 0.030181834 -0.038638342 0.28450862 -0.06982028 -0.22469777 -0.028357398 0.24812852 -0.09830883 0.3888209 0.023913888 -0.12174378 0.20880814 -0.062206894 0.2159185
2426 0.17645521 0.1868296 0.08140337 -0.3130188 -0.13344634 0.110356145 0.09116642 -0.11550483 0.26915887 0.08450612 0.07586124 -0.099648975 0.10476737 0.27218938 -0.11417118 -0.21889664 0.08469717 0.16716588 0.111922845 0.101880215 0.24519259 -0.30132148 -0.17215136 0.1391461 -0.30488068 -0.05888469 -0.27093157 0.21812579 0.18087375 0.04055199 -0.12898098 0.021243015 -0.045073524 -0.2945767 -0.17633441 0.4218212 0.00082587067 0.160855 0.4744581 0.24496862 0.3538749 0.010652883 0.12233882 0.18225336 -0.08488841 0.006098211 0.13965623 0.05843525 0.065626636 -0.21948709 -0.049008064 -0.08795611 0.012396305 -0.083314106 0.092634715 0.026422417 0.011466848 0.094722584 0.13150209 0.2041186 -0.25101662 -0.12449887 0.07241539 -0.30311403
729 -0.15717307 0.14532237 0.30481604 -0.36591733 0.0988529 -0.029382447 0.22862512 -0.14776063 -0.13171257 0.34461272 0.08803249 -0.16284177 0.118782446 0.36362827 -0.15546834 -0.14983572 0.12591174 0.33793524 -0.004001184 -0.07035068 0.06485129 -0.0951415 -0.12820293 -0.049714066 -0.25000852 -0.062401153 -0.26339957 0.13635637 0.37568292 0.029898657 -0.013555393 -0.19537157 -0.20571959 -0.21210861 -0.20211947 0.27522063 0.27244186 -0.033099305 0.28128773 0.32796472 0.063496426 -0.027017642 0.13485923 0.09685353 -0.026310142 -0.14227615 0.1244934 -0.022800574 -0.042828556 -0.024336787 -0.2508351 0.08028681 0.14873645 0.14547068 -0.13305093 -0.14645268 0.09326466 -0.05480426 0.17842011 -0.020151323 -0.11619699 0.30106768 -0.19848268 -0.23816982
2042 -0.028198013 0.14577372 0.27390468 -0.20992437 0.06757606 0.07654974 0.08181871 -0.08368558 -0.03699737 0.06980963 0.08063708 -0.00707316 0.2908501 0.20038262 0.19944508 -0.00022959147 0.20331688 0.099557914 0.033655997 -0.027009835 0.33794388 -0.34850866 0.043173753 0.011637395 -0.1434036 0.0148516465 -0.08434162 0.10928835 0.033953104 0.110469885 -0.06773041 0.18272202 -0.023193924 -0.02898657 0.042492915 0.14616334 0.23981689 -0.07887453 0.60430384 0.05042963 0.22191997 0.24819061 0.03422 0.4140106 0.075885035 -0.15208703 0.046492815 0.118556336 0.17870833 -0.07195889 -0.3160981 0.12699501 0.16064158 0.2612298 -0.16732378 -0.07973698 0.123223744 0.0680334 0.23622516 0.07294879 -0.3062199 -0.009625113 -0.07145029 -0.28290465
868 -0.0005315306 0.16375706 0.44560075 -0.26657173 -0.16953558 -0.11675965 0.112318814 -0.25242552 -0.19905718 0.22027951 -0.018362239 -0.39474937 0.06132615 0.37624502 -0.07821269 -0.16013657 -0.120726325 0.12287169 0.30753928 0.27627394 0.038389202 -0.35970214 0.036747046 0.02854025 -0.18525077 0.20717038 -0.18151218 -0.15808392 0.107620634 0.13730295 -0.14214869 0.16608465 -0.06560549 -0.22874363 -0.26454374 0.15298104 0.076425664 -0.07716553 0.18502226 0.30704427 -0.06544636 0.22150756 0.027201613 0.28113058 -0.14270613 0.11880684 -0.010060527 0.049411256 0.13056672 0.015854314 0.0015304834 0.05528057 0.17409477 0.027342243 -0.17407647 0.13271643 0.27838263 -0.1230531 0.111565925 0.08742111 -0.29403505 0.12437482 -0.07449088 -0.17330094
2077 0.11135066 0.08998928 0.19046025 -0.10474453 0.13486508 -0.03452074 0.11065262 -0.38650736 0.009699243 0.084368005 -0.047510277 -0.20318787 0.3793135 0.20333876 -0.0912609 -0.17696185 0.114346705 0.12134393 -0.11201602 -0.077240594 0.19477114 -0.18750253 -0.12115308 0.0058209905 0.105393276 0.36646155 -0.01108478 0.20584948 0.24533859 0.17679577 -0.14595236 -0.062757015 0.08274691 -0.038390037 -0.19995163 0.35099024 0.24277696 0.020985493 0.3153606 0.36959565 0.1461788 -0.040408246 0.09190804 0.3092604 0.00066613115 0.04908365 -0.1330102 0.19977964 0.08907131 0.004491021 -0.037658293 -0.1138832 0.1120973 0.17399421 -0.1580696 0.24900256 0.03916851 0.19778511 0.24614616 0.17142794 -0.24031173 0.01965834 0.043433342 -0.3353847
1460 0.18049312 0.1851422 0.3051681 -0.084407896 -0.090546116 0.1880219 0.10567426 -0.2272512 0.080144875 0.02604781 0.096543215 -0.09951714 0.32890362 0.22134215 0.03200425 -0.23269346 0.07312235 0.035942946 0.085818626 0.07568556 0.1362283 -0.20713262 0.036260355 -0.17983799 -0.2535379 0.00866338 -0.25869682 0.18801573 0.022747092 0.027349325 -0.16334529 0.02986694 0.0730864 -0.37350857 -0.089827694 0.20722046 -0.025101593 -0.15823206 0.30195463 -0.019153006 0.2109871 0.11959958 0.24724288 0.37324768 0.08886917 0.034331243 -0.19876756 -0.027164523 0.18439674 -0.05855591 -0.14364226 -0.06675138 0.14192463 0.087646544 -0.11695921 0.11410792 0.052845858 -0.095536865 0.38228935 0.006703926 -0.4078481 0.034998033 0.12803403 -0.26546392
1272 0.0046125627 0.05947447 0.20520246 -0.13421018 0.021942863 0.19943175 0.08529748 -0.3497946 -0.17846172 0.05479066 0.039026655 -0.18143956 -0.038108535 0.44778085 0.013250618 -0.047708787 -0.034504805 0.21499978 -0.112081505 -0.09352478 0.30513903 -0.4037706 -0.10177643 -0.1948352 -0.059707366 -0.038030706 -0.136904 0.12638488 0.19479766 0.20448807 -0.023173945 0.074452214 -0.032033402 0.14241071 -0.19309287 0.1741124 0.23155068 -0.045104664 0.24179226 0.16500019 0.12282634 0.018389327 0.015352234 0.49256828 -0.12248671 0.05532234 0.23759367 0.015319354 -0.04817645 0.06706752 -0.034426004 0.08724021 0.11572886 0.07179969 -0.14697784 -0.02246756 0.14957209 -0.22868873 0.30708715 0.057630494 -0.2999002 0.32930362 -0.009256707 -0.27361098
1310 0.12725203 0.0035743546 0.24853104 -0.09847239 -0.08878582 -0.053891383 0.256995 -0.1289816 0.027240178 0.12970304 0.0093227215 -0.1173018 0.1820265 0.19259174 -0.08096521 0.032143075 0.23918809 0.11032569 0.007245748 0.11735332 0.20575888 -0.17431192 -0.09560144 -0.220445 -0.049594544 0.23642959 -0.23454925 0.07589473 0.0012769498 -0.04905058 -0.01994675 0.07369911 -0.08779946 -0.12084253 -0.39424923 0.2364012 0.2930231 -0.0055726077 0.47959995 0.40055388 0.040445194 -0.04577059 0.13865697 0.28552487 0.056021176 0.03917582 0.11547649 0.060478877 0.19847947 -0.0778094 -0.08714511 -0.04574424 0.019019427 0.26341093 -0.062491484 0.1536858 -0.023555877 -0.051864453 0.20723325 0.40782654 -0.17065257 -0.112516224 0.02059543 -0.21721847
2636 -0.039871596 0.017868305 0.30101496 -0.052213017 -0.1462788 0.0131793115 -0.08807941 -0.22900495 0.15107061 0.30436313 0.16975251 -0.0514064 0.038414657 0.17453133 0.034952547 -0.03799715 0.087151706 0.21899103 0.12187524 -0.12640814 0.30184612 -0.2761751 -0.17983492 -0.100627065 -0.18233304 0.012691145 -0.22407307 -0.06268695 0.03588294 0.01814266 -0.05068246 -0.0042454065 0.056828696 -0.12834427 -0.3601804 0.5566159 -0.0047324314 -0.098838665 0.3813092 0.29791087 0.114528745 0.0908447 0.11063721 0.22309168 -0.28829196 0.06356799 0.09884966 -0.014572819 0.009094754 -0.11115564 0.07729965 -0.39741132 0.054408018 0.032753773 -0.22055946 -0.13161951 -0.38581774 -0.2030263 0.09183285 -0.1310403 -0.41683444 0.001403411 -0.05996614 0.051725183
2509 0.042402484 0.014983945 0.24225646 0.024077872 0.029297888 -0.06531794 0.17038462 -0.06923905 0.10028459 0.14103009 0.19541281 -0.28635862 0.2400652 0.2621907 -0.09921262 -0.14890252 0.07607676 0.06277311 0.103761904 -0.18491866 0.24124232 -0.13102712 -0.21916944 0.029013647 -0.13265564 -0.089143924 -0.05479471 0.3973517 0.2896037 0.119205676 -0.09413903 -0.10386045 -0.12634303 -0.17203222 -0.114552855 0.32614994 0.13571183 0.1584606 0.29676995 0.3065602 0.16360945 -0.010099623 0.19542456 0.49464667 -0.10372455 0.23618858 0.0842278 0.042941783 0.11709173 -0.0052395 -0.20354015 0.21044007 0.2450907 0.086851075 -0.32087693 -0.06718816 0.093776196 -0.073274896 0.2235537 -0.001003929 -0.3321582 -0.085907236 -0.058920387 -0.2042395
1502 -0.000121696154 0.07780028 0.49058563 -0.29432195 0.11947936 0.1271717 0.121739455 -0.088652186 -0.23090985 0.33563006 -0.07844564 -0.08279816 0.088708326 0.2609629 0.030256612 -0.28112248 0.1304145 0.18456547 -0.16963916 -0.03747243 0.20329693 -0.11644776 -0.053809647 -0.07987236 -0.13125776 0.16743205 -0.47026247 0.33826125 0.13357288 0.07092632 -0.15389208 0.15969802 -0.04661225 -0.3117427 -0.09708356 0.388827 0.048119407 -0.03601749 0.31818843 -0.091700755 -0.04653529 0.009740496 0.17580035 0.26602098 -0.075826384 0.11690964 -0.057822786 0.043757644 0.18733719 -0.0602241 -0.0062285443 -0.040619608 0.17658453 0.41778943 -0.1712052 0.22768104 0.024586089 -0.116250195 0.23863609 -0.22147232 -0.05357486 0.1928946 -0.06023211 -0.20281288
1697 -0.07773789 0.085379615 0.549022 -0.06131738 -0.028211009 0.07951185 0.22201271 0.104514055 0.0012588605 0.073152035 0.043915074 -0.18907025 0.15646273 0.22005656 -0.1470778 -0.10018686 0.094160676 0.23253387 0.10651524 -0.10198748 0.32651958 -0.30922368 -0.04877428 -0.025494631 -0.07794141 0.020117773 -0.3358965 -0.09423269 0.22584385 -0.034453448 -0.13797912 0.20112921 -0.16956785 0.025465703 -0.39572275 0.5024658 0.3152353 -0.022445425 0.21010174 0.15875064 0.024261089 0.017633311 -0.009543732 0.093864165 -0.16652961 0.0044650706 0.26603207 -0.0926721 0.22065558 0.12178223 -0.07600885 0.051898763 0.0051897466 0.18274252 -0.12359245 0.10204975 0.19141011 -0.17940569 0.22399707 0.19166844 -0.06727343 0.10699053 0.07899089 -0.15233383
1020 0.026301812 0.057491854 0.35111597 -0.14069688 0.22046094 -0.20427212 0.17577995 -0.015228735 -0.1963446 0.36819327 0.14152658 -0.16361879 0.27206218 0.24083096 0.10789307 -0.21382457 0.31172013 0.05833743 -0.11786104 -0.1019731 0.2739528 -0.32778856 -0.21478762 0.07758148 -0.12252524 -0.13564143 -0.27021956 -0.04443367 0.034853835 -0.085593805 -0.0053387014 0.015794763 -0.101585165 -0.19926246 -0.055800587 0.24629086 0.07011716 -0.15994819 0.5407751 0.22423531 0.035261612 -0.008429231 0.13877888 0.26190445 -0.03430804 0.06819842 0.111565895 -0.10210727 0.04709847 -0.117901556 -0.07105245 -0.20963287 0.22539882 0.10741569 -0.28137088 0.10564495 0.12556076 -0.21654487 0.15925212 0.0801389 -0.11000113 0.10979645 -0.2001346 -0.2850283
0 0.07362628 0.090600714 0.1739966 -0.20403577 -0.19355163 0.0020381468 0.17622158 0.026239602 0.045463365 0.31386924 0.18419266 -0.17098778 0.14950217 0.22544013 0.10012492 -0.10308508 0.003108522 0.1607904 -0.03180865 0.012190775 0.39954624 -0.22656812 -0.062482778 -0.20146841 -0.12688065 0.10390077 -0.19537717 0.04955955 -0.09286768 -0.03534787 -0.10593618 0.16599171 -0.21803883 -0.26414925 -0.03717233 0.38766018 0.12057783 0.0130955 0.37617847 0.2772205 0.13234448 0.14492668 0.09208199 0.18692882 -0.013908174 0.30072626 0.1391047 0.105184294 0.032326676 0.09385931 -0.16197264 -0.11351718 0.20075522 0.15326612 -0.17504698 -0.13319486 0.085835956 -0.035361417 0.11511251 0.07347282 -0.38103452 0.14514582 -0.026554558 -0.23781589
2204 -0.0041658035 0.054558653 0.36987638 -0.13889971 -0.12748429 -0.053243414 -0.07104879 -0.11965566 0.11868813 0.057625532 0.24501704 -0.108772285 0.09928983 0.0702361 -0.10032825 -0.23525734 -0.1241564 0.00024667874 -0.038477596 0.14319502 0.3396498 -0.21252581 -0.09494686 -0.14550616 -0.1042186 0.082962416 -0.27942017 0.11647865 0.17518963 0.025196059 -0.36680934 -0.00861785 0.16680579 -0.15993676 -0.136491 0.33869198 0.11682726 0.051976323 0.087746106 0.3605212 0.39488083 0.08898436 0.29318622 0.15881534 0.075416684 0.04119995 0.029316554 -0.049899943 0.10447914 -0.22681525 -0.21205923 -0.070080474 0.055749975 -0.14437951 -0.3345439 0.0049996693 0.14593537 -0.22991736 0.33191276 0.0049399664 -0.052705936 -0.008228175 -0.059577312 -0.2139551
2687 -0.02580746 -0.12776415 0.40079734 -0.08254239 -0.0779426 -0.055712897 0.13543357 -0.12790464 0.030892817 0.2365316 0.16441482 0.071484484 0.3461461 0.12229192 -0.12056368 -0.20682871 0.12808798 0.1264621 0.1380138 -0.07521537 0.36700955 -0.005554848 -0.27687842 0.110684335 -0.2763538 0.2466603 -0.12563561 0.049059484 0.23842075 0.13615502 -0.100155346 0.0995935 -0.18765615 -0.63032836 -0.28229266 0.27413148 0.06818441 -0.046923686 0.3378322 0.13147855 0.07976606 0.10415716 0.005524283 0.21037593 -0.11929101 -0.0851699 0.23296253 0.00037334376 0.12347302 -0.037733376 -0.15334961 -0.17978601 0.19093318 0.058169805 -0.08996465 0.07622884 0.13011405 0.015133139 0.25413644 -0.2754452 -0.25268424 -0.023710413 -0.25281498 -0.19730256
2009 0.028019438 0.123450406 0.2919805 -0.08577096 -0.026494578 -0.16534297 0.08326656 -0.15559378 -0.16823362 0.01648477 -0.02721668 -0.19730884 0.20694062 0.09498464 0.08582667 0.1505327 -0.023720386 0.12748162 0.2697554 0.0018983091 0.24240285 -0.49734187 -0.12199464 0.031300347 -0.15384218 0.15134086 -0.18956344 0.20834236 0.20948376 0.097615495 0.15186356 -0.067036316 -0.10699681 -0.28727463 -0.19481526 0.35509703 0.18664657 0.034331985 0.4504788 0.48971725 -0.104099765 -0.03262018 0.04408079 0.4445697 0.06706668 -0.2673137 0.097649485 0.1398762 0.1305649 -0.081588544 -0.113748156 -0.12643652 0.050197817 0.2525865 -0.021012342 0.12254228 0.19058682 0.042778853 0.16446936 0.0791656 -0.19603062 0.021170573 -0.08246509 -0.09331853
1837 0.34449854 0.16021743 0.16612168 -0.032502808 -0.101151176 0.049447007 0.10543047 -0.1904067 0.018840762 0.034478027 -0.044270623 -0.18865119 0.39446193 0.41382784 0.0246926 0.005313269 0.11520974 0.19728792 0.07009098 -0.09058375 0.2695942 -0.41158333 -0.01213177 -0.15846114 -0.33879495 0.087949954 -0.017149221 0.21698105 0.11384274 -0.14129078 -0.10571537 0.123352855 -0.08290697 -0.024628295 -0.041195724 0.431314 0.057304095 -0.14881872 0.3820623 0.29877588 0.0045987056 0.051295433 0.16472043 0.22039102 -0.20739546 -0.038844235 -0.011697876 0.021749834 0.10584827 0.14852208 -0.07603728 0.03734241 0.2793784 0.030444827 0.090313464 0.053978167 -0.0059410506 -0.02818323 0.08028139 0.14170739 -0.3668132 -0.103775114 0.0986942 -0.2921297
1708 0.16676669 -0.0028211444 0.2951958 -0.24534784 -0.006042758 0.10371552 0.090605624 -0.3181514 -0.0831326 0.03912488 0.10027273 -0.050525915 0.2919519 0.4221714 -0.04671643 -0.035165757 -0.025193734 0.1777609 -0.005058244 -0.087894455 0.35115406 -0.18295132 -0.13347553 -0.02612703 -0.22794352 -0.16875887 -0.15570484 0.10545786 -0.032082234 -0.062231425 0.15294282 -0.14280428 0.044489168 -0.29350588 -0.08628556 0.112216905 0.031459685 -0.22418237 0.14643916 0.2966553 0.3579233 -0.0055270395 -0.093760416 0.34838438 -0.107209876 0.18549523 0.103357755 0.06859718 0.062366106 0.0771056 -0.02164298 -0.06353991 0.1887188 -0.020667873 -0.08049698 -0.037869204 0.07283459 -0.105724834 0.2799604 0.10515216 -0.32774436 0.21114813 -0.031810112 -0.12651332
1049 -0.15909311 0.27557242 0.21228619 -0.32189783 -0.0044140792 0.10694239 0.011105692 -0.04941964 -0.22996844 0.17856918 0.2637803 0.01018912 0.14314663 0.4769106 0.3348585 -0.18710864 0.044445183 0.16702275 -0.10623376 0.02773447 0.17304152 -0.20002744 -0.043250646 -0.21086216 -0.3019441 0.21481007 -0.17576797 0.39921665 0.058519773 0.04176795 0.08453308 0.26969177 -0.036723785 -0.24846375 -0.35667104 0.31474337 -0.04934076 -0.024115855 0.32019317 0.25748888 0.15262423 0.17665635 -0.049939696 0.24966504 -0.0963152 -0.020708732 0.063415945 -0.13146774 0.030563973 -0.0030977894 -0.2212071 -0.05692926 0.1453637 0.25695089 -0.12550399 -0.13153611 -0.056316346 -0.056506004 0.30509216 -0.034420047 -0.01465365 0.014016817 -0.019290544 -0.03860858
178 0.025323784 -0.16353594 0.38047245 -0.18275584 -0.10532143 0.111022905 0.10542581 -0.15790737 -0.083666146 0.30514026 -0.009893117 -0.14677726 0.12979372 0.33930236 0.13656746 -0.2571688 0.29820934 0.2459388 0.022355033 -0.024511782 0.21565756 -0.26636642 -0.22184277 -0.08971342 -0.30330637 0.055009518 0.11873147 0.37705076 0.07549122 0.0040780604 -0.1226855 0.19773103 -0.1337635 -0.22945473 -0.0693669 0.23065925 -0.013711013 -0.038454898 0.11833341 0.12971519 0.25679132 0.041236635 0.24582152 0.12324483 -0.04886942 0.032925226 -0.028924545 0.05779677 0.22595286 -0.056693293 -0.26779553 -0.140101 0.31241396 0.0064775636 0.08547979 0.14498013 0.098726675 -0.29256034 0.31419185 0.11806706 -0.2929209 0.03538679 -0.15202048 -0.4239512
2539 -0.07141358 -0.02116935 0.36179826 -0.25879452 0.12346731 0.00036422774 0.13062352 -0.22687979 -0.10690538 0.08409227 0.2529011 -0.2932589 0.08609732 0.35267088 -0.03614969 -0.20304425 0.031695575 0.20682447 -0.07470436 0.073586285 0.37668273 -0.13902074 -0.24555504 -0.048233207 -0.19097488 0.02290919 0.0016040581 0.13051794 -0.13996457 0.18896708 -0.16514054 -0.0036912179 0.14454241 -0.052469045 -0.20572945 0.40487236 -0.03160829 -0.005005418 0.27469674 0.18998705 0.3934478 -0.0015712747 0.117309384 0.19431974 -0.06667358 0.07359795 0.2177639 -0.04340895 0.046757314 -0.09520128 -0.183797 -0.15484929 0.17344062 0.053896643 -0.25553095 0.24240619 0.099897906 -0.09082745 0.22552633 0.11738202 -0.19007193 -0.09701871 -0.035073157 -0.12770459
1447 0.25392416 0.23853883 0.33824077 -0.245037 -0.15033707 0.010884837 0.0037473005 -0.061910085 0.14420326 0.1200951 0.13366918 -0.19207683 0.17996238 0.21080638 0.23155133 0.028000047 -0.048107162 0.120082736 -0.053805888 -0.13399237 0.18925898 -0.416623 -0.15773214 -0.17366745 -0.2428719 0.09345574 -0.18056525 0.071633875 0.16754858 -0.08867452 0.10832566 -0.103719436 0.03298941 -0.13914037 -0.18233305 0.22984697 0.03892909 -0.13250822 0.36006975 0.21427865 0.15307616 0.24610607 -0.03345399 0.24376412 -0.15100774 0.0047680894 -0.08969579 0.032614704 0.10373535 -0.14530376 0.12868269 -0.08720857 0.10020335 0.122871 -0.25865358 -0.05438373 0.21372204 0.0025048256 0.27459815 0.015452139 -0.13043672 -0.25899225 -0.13091427 -0.39514476
1024 -0.057383392 -0.077746324 0.26475984 -0.22634545 0.04212772 -0.09217838 -0.025795443 -0.1052076 0.110915706 0.06832633 0.059527364 -0.14665434 0.118696734 0.21367139 -0.0058942954 -0.068939686 -0.010687987 0.21605209 -0.09041346 0.07485389 0.2845618 -0.22928484 -0.047523912 -0.07368095 -0.06467529 0.1145523 -0.28627175 0.20396438 0.103209116 -0.14013283 -0.1551154 0.023199681 0.11935597 -0.122942485 -0.16783747 0.39552355 0.028110463 -0.011089978 0.31092054 0.15736373 0.2772529 0.16203398 0.17994434 0.2571593 -0.043244716 0.06636075 0.071296945 -0.0056603695 0.12988636 -0.0045217597 -0.29298165 -0.038685147 0.1549373 0.21244462 -0.27088442 0.13748588 -0.050246663 -0.25115752 0.28791574 0.07597206 -0.15811728 0.22562835 -0.137427 -0.09113206
1701 -0.06659158 0.011184198 0.19598374 -0.07732679 -0.03468711 -0.10207584 0.1900558 -0.08502844 0.057338182 0.100537255 0.10790329 -0.2608806 0.29003033 0.2933348 -0.09999325 -0.2905014 0.110968255 0.12051333 0.021804672 -0.0010552781 0.29606792 -0.21053985 0.06583943 -0.102022104 -0.16315837 0.06724083 -0.2532727 -0.081304155 0.1635481 0.10290173 -0.13659473 0.13579474 -0.12809241 -0.24675205 -0.1253474 0.24573682 0.1533559 -0.063031256 0.28512615 0.41090113 0.059270017 -0.05416382 0.26145557 0.28992367 -0.020509778 0.21311834 0.074662365 -0.16455828 0.075516626 0.14792775 -0.11958602 -0.20783544 0.42043912 0.017045 -0.27708656 -0.028117847 0.25975946 -0.09919277 0.032116484 0.059366103 -0.19565073 -0.031569272 0.015211197 -0.1987134
2692 0.046490226 0.2165743 0.29970968 -0.2534795 -0.010122531 0.19422895 -0.103835635 -0.17395087 0.1611473 0.17852011 -0.14609993 0.016034974 0.31895885 0.081372984 0.046397198 0.2064301 0.14682364 0.24630159 -0.056012515 -0.08491872 0.37341958 -0.2641843 -0.11831033 -0.08020679 -0.10312563 -0.011565141 -0.021116065 0.015188905 0.11089822 0.08951993 0.0015852819 -0.117222324 0.16410221 -0.14125869 -0.28869653 0.2997299 0.17551872 -0.24449517 0.38637975 0.15139745 0.027612293 0.11657271 0.10406668 0.30818146 0.01924632 -0.026948994 -0.014243559 0.15330915 0.11268547 -0.1737685 -0.09386757 -0.039811295 0.21037821 0.29140812 -0.246632 0.06156957 -0.10938943 -0.06707158 0.00118974 0.26986888 -0.21973173 0.12851372 -0.28079253 -0.3122171
1242 0.04662344 0.13157094 0.46070218 -0.24279824 -0.109064035 0.06325899 -0.021545209 -0.17490059 -0.06245567 0.11504089 0.09313075 -0.18043196 0.17409074 0.14195958 0.01660636 -0.32899356 0.030396039 0.16071686 0.21327938 -0.027177425 0.189677 -0.4666437 -0.10098987 -0.0043312563 -0.13315293 0.07731804 -0.12010575 0.008462246 0.17497472 0.10324139 0.06342341 -0.035925634 0.037359253 -0.11092029 0.07082781 0.21808827 0.18566525 -0.1467087 0.30520466 0.16466816 0.11840355 0.03838015 0.037351724 0.12755205 -0.03389531 -0.12325 0.11795226 -0.21282646 0.17229645 -0.06251334 -0.11839354 -0.0062945755 0.141608 0.12162792 -0.1757945 0.054823495 0.07288924 0.043258622 0.37728298 -0.0041726446 -0.040482517 -0.0049835816 -0.18638577 -0.26729506
1392 0.06353114 0.050531473 0.23141116 -0.3848761 0.053707544 -0.029977765 0.043153014 -0.117332675 0.22671804 0.18995307 -0.042094238 -0.1379997 0.2024143 0.28843305 -0.079507686 0.02457328 -0.011564269 0.19958974 -0.06443049 -0.08500132 0.21294032 -0.3445216 -0.102037795 -0.3110347 -0.043629095 0.31750196 -0.20441562 0.079945244 0.32823604 0.02153649 -0.13299845 -0.006161205 -0.0885129 -0.20403801 -0.12762396 0.17291184 0.29574832 -0.009264708 0.09769816 0.21083306 0.09321898 -0.09117454 0.19238023 0.22554602 -0.03596486 0.11976607 0.11341257 -0.07426951 0.074841365 0.054692224 0.035920706 0.24350508 0.2626608 0.24314399 -0.22554113 0.17361528 0.12860523 -0.0564509 0.20247099 0.009074407 -0.21182697 0.2213296 -0.2235445 -0.32313982
653 0.1731817 0.050963383 0.23554465 -0.052997656 0.023839753 0.057156023 0.15201844 -0.26983222 0.02338192 0.20142192 -0.06955788 -0.2236767 0.3752046 -0.0054242294 0.18633254 -0.3409731 0.28435653 0.17925222 -0.10045302 -0.024845129 0.21165295 -0.36199215 -0.27055928 -0.07675275 0.0018560801 0.10156798 -0.17538223 0.21225476 0.35335687 -0.047937356 0.071053624 0.09670575 0.17901617 -0.020065192 -0.2746768 0.36621353 -0.055255037 0.065815195 0.32853147 0.17266785 0.052637327 -0.14785796 0.14496128 0.16551054 0.11230388 0.061001293 0.15241405 0.05517794 -0.053690802 0.14847885 -0.25139275 0.021544408 0.0048960727 0.045579188 -0.15852511 0.30125046 0.07892394 -0.04289164 0.4005959 0.15816651 -0.16639008 -0.0101383645 -0.27809092 -0.16803989
1894 -0.042319167 0.33927396 0.3077903 -0.08344579 0.1207455 0.0044846092 0.13741335 -0.08487437 -0.1767451 0.16771607 -0.011584459 -0.31173617 0.12277321 0.12560467 0.079180054 -0.23285097 0.015785897 0.20294411 0.2332279 0.08025649 0.02190619 -0.40529847 -0.1698146 0.1300869 -0.14292999 0.21239644 -0.05989996 -0.05906635 0.23316403 0.0589027 -0.02125595 0.1221515 -0.31970578 -0.11586484 -0.07226094 0.16289659 0.2823624 -0.09131099 0.26813546 0.24568501 0.17934078 -0.0080859335 -0.00038807187 0.3633141 -0.14883353 0.3133374 0.1206717 0.1411526 0.11295724 0.020207394 -0.12666829 -0.023299392 0.4552282 0.116239585 -0.10082463 0.12469901 0.2573019 -0.092478745 0.19282229 -0.1224116 -0.15749738 0.15487504 -0.14441527 -0.14982605
1679 0.08339116 0.09260807 0.3024672 -0.14172718 0.19988911 0.04548874 0.09298701 -0.1042109 -0.12417152 0.07882886 0.1956718 0.025641415 0.2918183 0.37193686 -0.023685606 -0.024204813 0.09618299 0.116823375 -0.012434943 0.009130239 0.13662702 -0.23517777 0.015884995 -0.22091079 -0.04758278 0.07060757 -0.32132313 0.19704367 0.018187573 -0.006358155 0.06966766 0.17746727 -0.13050966 -0.22268425 -0.08369865 0.25937316 -0.035131693 -0.13847512 0.17784585 0.22096743 0.21905972 0.08157957 0.06849316 0.22559859 -0.1216063 0.2049543 0.12848295 -0.0044254516 0.2124833 0.13371441 -0.08436187 0.12551247 0.17303307 0.29740092 -0.09756601 0.13128062 0.08296576 -0.0959225 0.3213282 -0.0345692 -0.19993992 0.19686553 -0.050806463 -0.23197708
8 -0.06181019 -0.046979815 0.27220085 -0.12909028 0.0061254054 -0.1351941 0.084377475 -0.37269837 -0.09426156 0.2373601 0.2103948 -0.16471633 0.28164938 0.27203634 -0.11430998 0.031592656 0.07072779 0.12834546 0.13578412 0.094543695 0.1285603 -0.24688138 -0.13969193 -0.030637398 -0.108526245 0.16692726 -0.18805446 0.1805221 0.35771328 -0.15278448 -0.11674947 0.019429967 -0.049459692 -0.23083137 -0.4619999 0.2948014 0.0021718275 -0.0015888237 0.31390902 0.27085206 -0.023136377 0.12458104 0.06440286 0.24014093 -0.031425193 -0.0019451014 -0.08940518 0.23579225 -0.1097076 0.10160357 -0.1243331 0.2417273 0.0040438804 0.05729228 -0.32163727 -0.08638508 0.113573045 0.07397257 0.15237983 0.13161357 -0.42028433 0.042041212 -0.09599894 -0.040380735
1273 0.19877729 0.0777601 0.27565473 -0.29811934 -0.23654948 0.009760382 0.16201416 0.007106083 0.16908272 0.20148803 0.10115194 -0.26667264 0.30732444 0.36492893 0.2176986 -0.015479455 0.1133082 0.18677118 0.26135802 0.010658284 0.3903812 -0.44215253 -0.29368052 0.06752029 -0.14819211 -0.09000537 -0.07186572 0.0093688965 0.042805582 0.08825957 0.08901813 0.11196254 0.06609013 -0.14483628 -0.21598946 0.23344041 0.034313425 -0.11296247 0.0636232 0.1958045 0.18372737 0.06481351 -0.27762926 0.21149571 -0.014457203 0.08133459 0.10376332 0.12722908 0.16958304 -0.04131686 -0.17077677 -0.06855497 0.13532725 0.070940875 -0.088399835 0.07056823 0.05086783 -0.073545255 0.5330016 0.10114512 -0.3404856 0.19576798 -0.121573366 0.11036433
1673 0.12337272 0.24656963 0.22049902 -0.018343981 -0.10355993 0.14977026 -0.0034972925 -0.45328933 0.008070017 0.015863879 -0.034432452 -0.1725601 0.2236828 0.101430476 0.05442372 -0.08198196 0.09205707 0.28976363 -0.09825288 -0.10372549 0.3245453 -0.4748229 0.0033412285 -0.054726757 0.016243301 -0.13542832 -0.2680971 0.14238593 0.21477759 -0.003872284 0.001858345 -0.020510899 -0.13030933 -0.061112214 -0.04172167 0.2567007 0.20098333 -0.20638373 0.34839836 0.14801107 0.20094594 -0.057963442 0.12002838 0.0070089176 -0.055252172 -0.097974956 -0.010796849 0.093978904 0.06081106 0.014139804 -0.16747703 0.07627886 0.412613 0.0049499143 -0.080899924 0.08349949 -0.14736576 -0.18407203 0.3496135 0.16765402 -0.18797894 0.059271935 -0.094392985 -0.2638009
2534 -0.33833948 0.17303677 0.4481328 -0.1449974 -0.16880988 -0.092441715 0.19155316 -0.14950241 0.041319795 -0.05056758 0.23388754 -0.07332803 0.05503588 0.25053078 0.1605477 0.06080973 0.019736176 0.22222549 0.020875106 0.05786092 0.06549519 -0.21984705 0.17833652 0.07637509 -0.29255065 -0.06353776 -0.19870578 0.19142929 0.14510286 -0.047603864 -0.15492183 -0.029403716 -0.021135498 -0.2004437 -0.17777577 0.48978934 0.02513396 -0.076539725 0.3370441 0.3449775 0.012763393 0.14081423 0.017450336 0.20305374 -0.04038766 0.10089893 -0.10505126 -0.257597 0.10566804 0.0010308113 -0.3681847 0.0045843497 0.25835472 0.08329586 -0.15535448 -0.03761964 0.092108384 0.12470398 0.24061951 0.14955625 -0.01980464 0.19706093 -0.017834708 -0.24038142
2552 -0.20574492 0.041347977 0.6046256 -0.25073507 -0.095772006 0.060181852 0.034812845 -0.322329 -0.122509025 -0.007826757 0.17451882 -0.26466268 0.41928944 0.09881654 0.035820093 -0.35301465 0.18959442 0.22181556 0.0065294174 -0.02804227 0.32605225 -0.20689821 -0.09684674 0.09981819 -0.23401341 0.07824556 -0.13957684 0.20481838 0.22259922 0.033984113 -0.26927596 0.2969139 -0.06003048 -0.092799544 -0.043222994 0.25521564 0.0500998 -0.07106512 0.046394803 0.26204774 0.040516563 -0.10115016 0.18500373 0.13744622 -0.0058696712 -0.08565563 -0.080090754 0.24575262 0.0017773837 -0.103480235 -0.2169112 -0.069595404 0.041181322 0.014448803 -0.27818447 0.021314247 -0.060322046 -0.09013914 0.1480658 -0.0400288 -0.04952271 -0.011363685 -0.036919493 -0.36551496
2609 -0.010722771 -0.097128905 0.38196158 -0.088157676 -0.084094696 0.06113344 0.13184121 -0.18773365 -0.08819763 0.31570584 0.012724638 -0.23899221 -0.0051030284 0.32293314 0.13028707 -0.3520425 0.06331771 0.19095887 0.12503521 -0.072915435 0.14824013 -0.154625 -0.07923452 0.03164479 -0.036223628 0.10626889 -0.15492679 0.20337644 0.3691569 -0.07734199 0.06047317 -0.07264682 -0.16807391 -0.23486853 -0.15709388 0.30728653 0.2685972 0.0122092385 0.29351357 0.17255507 0.18588667 0.17453948 0.043302704 0.22671403 -0.011694482 -0.0063811634 0.27748364 0.015036329 0.05274955 0.015350782 -0.12140128 -0.092761725 0.194546 -0.042350702 -0.27066472 -0.18602727 0.116986714 -0.17867944 0.15468137 0.088162005 -0.22092514 0.060983066 -0.18105964 -0.11187196
14 -0.011769565 0.06482805 0.46725184 -0.015947392 0.13909298 0.1339303 -0.12085134 -0.32768792 0.062516026 0.040241547 0.10821895 -0.079667464 0.19575706 0.22787084 0.0061278176 -0.058552355 0.076383464 0.25515944 -0.114887275 -0.080310136 0.070270166 -0.2702352 -0.01818072 0.06379022 -0.05847309 -0.016556766 -0.39570335 0.041342072 0.16475749 -0.22911358 -0.013776918 -0.09842285 -0.108080335 -0.2590478 -0.18784675 0.18128903 0.22175181 -0.13125852 0.6212224 0.11851334 0.16569093 0.2124534 0.039778627 0.30574787 0.004162835 0.03189126 0.007817731 0.08304748 0.18775599 -0.08623621 -0.05203999 -0.013961031 0.12589625 0.18126445 -0.18216658 0.1872979 0.016841944 -0.013555033 0.1876182 -0.10732451 -0.20995995 -0.038459152 -0.13754885 -0.38214165
1728 -0.14324006 0.16546449 0.2272087 -0.28295386 0.09734682 0.04747726 0.007443631 -0.199507 -0.07772284 0.17646538 -0.06874309 -0.18934692 0.15747517 0.25023958 0.043345034 0.1025727 0.0985423 0.2770044 0.111997284 0.08460632 -0.046004515 -0.29798138 -0.34517002 0.074126914 -0.16474018 -0.00025881917 -0.25612554 0.008034404 0.14668056 0.10298887 -0.034635622 0.116270356 0.12611024 -0.26286867 -0.15980215 0.2418234 0.058872964 -0.1437695 0.26168397 0.29460067 0.17056568 -0.06543154 0.084250726 0.37317318 -0.12450384 0.13309185 0.032848936 -0.042394284 0.2627781 -0.021128641 -0.04613065 -0.042751398 0.10654395 0.28574735 -0.07189356 0.25753668 -0.047900867 -0.18181708 0.2964211 0.099082306 0.070956394 0.30876032 -0.18299307 -0.20883954
1126 0.0008219286 -0.13938749 0.24126513 -0.06091007 -0.08003418 -0.0017843966 0.20097695 -0.046678923 0.10452136 0.25624248 0.020227768 -0.2749746 0.2565544 0.41002652 0.08583625 0.11815714 0.02469012 0.24750677 -0.029558523 -0.055960592 0.24608722 -0.16879039 -0.31326535 -0.076028205 -0.16669574 0.08296878 -0.18030071 0.14811668 0.24470966 -0.13564849 -0.28596497 0.054515775 -0.108449556 -0.1619027 -0.21318874 0.42998263 0.22947441 -0.098385856 0.21360406 0.4522907 0.25921708 -0.083334655 0.12771939 0.09323596 -0.23117983 -0.006771145 0.1445155 -0.074390955 0.055616356 0.24880624 -0.04451126 -0.00828156 0.29496613 -0.04461347 -0.038184028 0.15251599 0.10312213 -0.03271223 0.15348747 0.1605914 -0.1580106 -0.18352796 -0.13661756 -0.32437757
2032 -0.07169735 -0.03634615 0.3853375 -0.3359454 0.08930517 -0.06559084 0.033322886 -0.2720143 -0.18739787 0.2880749 0.23998481 -0.109758064 0.11290243 0.5794975 -0.05191527 -0.26205906 0.35373557 0.0768361 -0.33334604 -0.030288462 0.13447627 -0.26321256 0.009604526 -0.08237004 -0.332279 0.08861631 -0.09754585 0.12809016 0.32605958 0.23255733 -0.07121526 0.0879003 -0.06505954 -0.103886954 -0.13043278 0.20406042 0.28810924 -0.048637945 0.26426068 -0.039368212 0.34891576 0.12670797 0.03679453 0.17594373 0.019565515 0.010071627 0.062513374 0.11622025 -0.017903471 0.21682715 -0.22646822 0.2008525 0.1577535 0.17387462 0.062200014 -0.019658899 0.25839874 0.0073319576 0.14619394 0.02271733 -0.1415438 0.18762591 -0.119405955 -0.26152548
2320 0.08416082 0.046777483 0.21592629 -0.21018602 0.15025425 -0.077319615 0.11929772 -0.1703463 -0.00821358 -0.020587647 0.23046607 -0.31619227 0.20717637 0.42878583 0.0022630384 -0.10324373 0.040005162 0.19955458 0.21334271 -0.267348 0.20719145 -0.14496097 0.014592026 -0.1590153 -0.27137038 -0.005079197 -0.06397127 0.21722482 0.06508643 -0.072141714 0.09659191 -0.050469875 -0.10561744 -0.20084393 0.058362454 0.44027165 0.061949886 -0.2079141 0.17571086 0.12794355 0.17550032 0.31227383 0.1779123 0.30616897 -0.14910632 -0.0053254105 0.24232079 0.100280955 0.0680207 -0.06628842 -0.03593869 -0.18105514 0.08982707 0.28609356 -0.16685598 0.2596429 0.230297 -0.287194 0.14049715 -0.048387036 -0.29486734 -0.087208025 -0.033723015 -0.2444273
1119 -0.11176646 -0.105289266 0.24368337 -0.17042306 0.06500482 0.18544652 0.10605285 -0.20321572 -0.14975424 0.050540403 0.18681026 -0.05745221 0.09415927 0.19768788 0.19651489 -0.082619846 0.09936412 0.014501408 0.09421969 0.050132804 0.28144598 -0.30871394 -0.10907291 0.026641473 -0.25096676 -0.12360039 -0.13743983 0.34096524 0.22034273 0.0473454 -0.011627925 0.065887325 -0.15380478 -0.20400126 0.008656755 0.3279084 -0.05834588 -0.18396758 0.1671532 0.36707675 0.4002348 0.18851742 0.07232208 0.14050274 -0.05555782 -0.010303138 -0.20356286 0.065776944 -0.16748255 -0.14798974 -0.017879905 -0.06125264 0.1491273 0.023293637 -0.24601024 -0.18338968 0.09409451 -0.10312823 0.29509002 -0.008150923 -0.3970221 0.26265827 0.1256541 -0.18034616
1055 0.10145099 0.06700439 0.2865314 -0.10563748 -0.083345406 0.031333826 0.05015168 0.023277326 -0.05658644 0.22942358 0.060272288 -0.26572898 0.048898462 0.41372082 0.047019612 -0.21487343 0.1002122 0.13394982 0.07788207 0.03212734 0.27621755 -0.3508048 -0.14696838 0.01640029 -0.12439217 0.32617408 -0.13739704 -0.0592452 0.36123553 0.19902067 -0.17899463 0.11748319 -0.05168134 -0.03474612 -0.13916619 0.19429952 0.16153972 -0.04182142 0.2685071 0.28544036 0.08749485 -0.10283619 0.0053068246 0.24834327 0.09577664 0.09153197 -0.01550844 0.16482987 0.05097373 -0.08721761 -0.12636423 0.1653199 0.148205 0.11657152 -0.24697292 -0.09557989 0.029887708 -0.028460043 0.35041928 0.034664515 -0.23879625 0.0026238114 0.10552728 -0.16193612
2343 0.062020887 0.15348755 0.3196607 -0.13170746 0.103834 0.17969075 0.19435178 -0.13063867 -0.1629865 0.08750867 0.16330379 -0.30815732 0.2125196 0.3132379 -0.012403909 -0.35500613 0.08309811 0.15654652 -0.028092045 -0.22804256 0.21774887 -0.1543285 -0.07253195 0.14107195 0.017719602 -0.09889844 -0.3048385 0.04808214 0.12986824 -0.0208617 -0.033258818 0.05044826 0.0024401902 -0.074741475 -0.033262067 0.3989806 0.16782801 -0.016506845 0.4177586 0.22309402 0.26098508 0.16501111 -0.002831982 0.15756032 0.07628672 0.08209882 0.07788651 0.09700934 0.14655642 0.1256689 -0.17500122 -0.060638078 0.14200146 0.09684872 -0.13457982 0.17704661 0.039353773 0.06564948 0.33609986 0.0998554 -0.07251724 0.07765789 -0.0066847675 -0.2444058
2367 0.03715045 0.063657366 0.13210775 -0.16992734 0.08264687 0.015345712 0.08231034 -0.0005163547 0.14142942 0.28014705 0.17442428 -0.12646997 0.29740465 0.33117405 0.053102143 -0.07158074 0.14291556 0.29593086 -0.12045228 0.09455421 0.37955797 -0.1533553 -0.1491266 -0.08338228 -0.3288767 0.19545966 -0.07672598 0.15686508 0.076493084 -0.070118226 -0.075113125 -0.047079057 -0.046608854 -0.06447495 -0.21596797 0.22315352 0.18372203 -0.0024581274 0.37101397 0.28728145 0.4287397 -0.14038841 0.01867884 0.22565039 -0.023549555 0.1616086 0.1257315 -0.07492847 0.1505331 -0.15105733 -0.18311523 0.02420905 0.095913865 0.057669587 -0.030298175 -0.011170718 -0.14621669 0.11624289 0.2005849 0.121281415 -0.27295393 0.034358736 -0.029373432 -0.18704876
2438 0.20831586 0.08692422 0.24104142 -0.21158573 0.0987534 -0.07998624 0.28148282 -0.083364725 -0.096346885 0.06525841 0.054778405 -0.2532015 -0.01802693 0.15622808 0.12390236 -0.070663095 -0.038183846 0.121340334 0.14455634 0.0011107298 0.32134682 -0.3291439 -0.13639304 -0.25647497 -0.18648416 0.16423602 -0.19781686 0.022405384 0.2758746 0.074927166 -0.11738871 -0.12399143 -0.11191619 -0.1296897 -0.110454984 0.42480072 0.19635445 -0.020625623 0.31485605 0.16191435 -0.009368065 0.09362954 -0.05522843 0.32311562 -0.02931878 0.14665356 0.0002152558 -0.020312315 0.13883132 0.014990674 -0.0903084 -0.02967384 0.20591688 0.19745348 -0.33892867 -0.035593264 0.012297023 -0.23411764 0.32848528 0.13205783 -0.025199492 0.09266564 0.13872844 -0.12855431
1274 0.11524848 0.3031728 0.33465984 -0.35739782 -0.07266576 0.0038118078 0.19081281 -0.0740221 -0.010440016 0.29790905 0.23747481 -0.20752965 0.35414466 0.2166113 0.09076802 -0.18753436 0.04003832 -0.037329655 0.028894417 -0.026886346 0.3791245 -0.36655176 -0.14686322 -0.16657488 -0.339812 0.23031028 -0.13889264 0.062869936 0.036301207 0.37667534 -0.10562072 0.034414757 -0.116639525 -0.12010956 -0.13240695 0.4052679 0.01383936 0.08366839 0.28772077 0.20092052 0.08109866 -0.04458748 0.041733555 -0.0011993487 -0.0024738722 0.12906027 0.011082948 0.16302297 -0.08601414 0.02643445 0.0024603151 -0.1337769 0.07354434 -0.06606403 -0.10773346 -0.16028477 0.07921541 -0.22276841 0.021256141 0.32755375 -0.36228025 -0.1014397 0.03105817 -0.19118428
30 -0.13355379 -0.17826566 0.25018457 -0.053240143 -0.13375352 0.052040115 0.033915106 -0.15887913 -0.2348996 0.070774205 0.02018445 -0.21676572 0.19158612 0.24226855 0.02129554 -0.23911886 0.21829689 0.14475505 -0.079890594 -0.15552402 0.30122396 -0.12001875 -0.14922303 -0.2636714 -0.19963494 0.06431332 -0.07794106 0.023209577 0.17104858 -0.05956395 0.03287982 0.20961787 0.025153134 -0.26504773 -0.4011845 0.22412448 0.06854818 0.07367883 0.48492604 0.37557417 -0.074268214 0.104523465 0.10696078 0.24964827 -0.051152423 0.062861465 0.13967441 -0.167589 0.23543547 0.35167903 -0.12189324 -0.1418768 0.07762534 0.19143775 -0.18964736 0.04963668 0.02500665 -0.08625605 0.1977661 -0.05302342 -0.22514379 -0.020295097 -0.13163644 -0.3875414
1996 0.089448825 0.083082296 0.34613395 -0.1905682 -0.084752455 0.31010285 0.117694795 -0.30128086 -0.361233 0.32946804 0.057536706 -0.10135927 0.1251741 0.3634238 0.011347125 -0.1525836 -0.064337 0.30311978 -0.11723297 0.10064177 0.021216469 -0.13792898 -0.10352042 -0.2081006 -0.18242516 -0.070288494 -0.30279368 0.23900032 0.3179537 0.089158855 -0.07245972 -0.10651247 -0.033802338 -0.097317904 -0.28765783 0.31062493 0.16312517 0.045402743 0.13760483 0.16839282 0.10994805 0.053799216 0.06108865 0.31348774 -0.12549809 -0.015559094 0.05952553 -0.07779681 0.29231682 -0.018918768 0.019836066 0.058525436 0.14185998 -0.11789115 -0.32436904 -0.14111672 0.042858254 -0.11501202 0.080316745 0.25620434 -0.18026306 0.12086455 0.0836687 -0.29824498
869 0.097483754 -0.051951505 0.14537512 -0.1694918 0.0015455626 0.04164534 0.3058856 -0.19268602 0.121751 0.15051705 0.0037283057 -0.25057963 0.33071458 0.46442273 0.07206534 -0.03363949 0.1297002 0.23393834 0.119445555 -0.121150374 0.38386768 -0.1845112 -0.06804363 -0.109169595 -0.1371369 -0.04790209 -0.14315331 0.00646989 0.13745554 -0.2612441 -0.016809246 0.1631038 0.042307913 -0.059798837 -0.027024575 0.26745132 0.1401015 -0.1445742 0.31204915 0.28279868 0.16269262 -0.06566369 0.03840597 0.34874544 0.09418433 0.09500748 0.080809005 -0.10845793 -0.09446223 0.059470117 0.021737885 0.050571915 0.29180768 0.07789371 -0.19887912 -0.059380226 -0.017437952 0.10867005 0.13855475 0.20576788 -0.3616155 0.094001524 -0.045444172 -0.2884687
2229 0.05988894 0.21979858 0.32746682 0.079447724 0.2587945 0.17796816 0.20486164 -0.14444724 0.0679265 0.18269639 -0.03192544 -0.32676494 0.2595623 0.45142987 0.23212788 -0.017839925 0.0835181 -0.041004896 -0.044346187 0.057627548 0.13392784 -0.32005885 -0.3943175 0.122779876 0.07674252 -0.16248326 -0.13754359 -0.0947423 0.18917504 0.102632806 0.05350405 0.0010020147 -0.08631401 -0.09923909 -0.19576997 0.29258934 0.0051604523 -0.25612348 0.36169037 0.21370919 0.39580205 0.08190506 -0.1372046 0.27392182 -0.11484826 -0.20806408 -0.10843044 0.17914805 0.1288894 0.108430505 -0.08239616 -0.016315691 0.1420886 0.045687407 -0.39932036 0.0982865 0.013089533 -0.060643684 0.030596694 -0.070238724 -0.23107262 -0.094471 -0.031911284 -0.16116461
1347 -0.147197 -0.16098975 0.26123923 -0.3169284 -0.036583435 0.21268906 0.117275156 -0.11747312 0.22561643 -0.0074394005 -0.01906328 -0.070448026 0.082570024 0.2925135 0.0984004 -0.2068054 0.10758363 0.18045504 -0.029253088 -0.011844849 0.13949911 -0.30399892 -0.12816131 -0.28857067 -0.16734493 -0.015800824 -0.12457087 -0.19284248 0.2706279 0.1350712 -0.18311562 0.24570373 -0.09690089 -0.1564406 -0.31855533 0.20155127 0.16356638 0.13392137 0.41504276 0.18506528 0.2986938 0.044956796 0.104925595 0.21621677 -0.1154413 0.0898378 0.039723437 -0.086174764 0.195672 0.2656599 -0.27106005 0.05218186 0.34369782 0.26829097 -0.0783866 0.1284399 0.107222766 -0.050535742 0.07703164 -0.003934181 -0.31125525 0.0813852 0.063603215 -0.31680217
2118 0.0555087 -0.006110301 0.3656705 -0.13835573 -0.10820202 0.10484346 0.2315978 -0.1866566 0.1970713 0.121819116 0.09021944 0.07353304 0.049794186 -0.056259267 0.077312335 -0.079933695 0.0057958495 0.17297731 0.0030865723 -0.12634166 0.33206752 -0.32760748 -0.031900983 -0.06113441 0.006429828 0.12570818 -0.35300124 -0.019802973 0.31606406 -0.1623978 -0.19604564 0.046208154 -0.08191274 -0.04283347 -0.34648585 0.32233515 0.24771552 0.041774727 0.4127612 0.24356686 0.2027526 -0.1432408 0.14190741 0.045596007 0.112117894 0.18514964 0.10003454 -0.06807538 0.18528633 -0.059641555 -0.18517546 0.09353591 0.27156907 0.079061806 -0.16435915 0.14694308 -0.26116145 -0.053028524 0.22091563 -0.10671435 -0.2642748 0.025768213 -0.1563139 -0.14080855
226 0.1437124 -0.00043256773 0.437479 -0.053111937 0.055082463 -0.10571292 0.06488777 -0.331013 0.08591573 0.20139968 0.24644661 -0.04571314 0.26199457 0.33225796 -0.05943861 -0.19717593 0.18724138 0.2590405 -0.004699007 -0.1706554 0.20975772 -0.17371719 -0.13298735 0.048733335 -0.1293717 -0.11289742 -0.13272788 0.009849728 0.12669164 0.050750665 -0.01935152 -0.2524137 0.12515178 -0.17795941 -0.051254794 0.368082 0.055989258 -0.23716384 0.27242213 0.2889293 0.13041855 0.22740795 0.10465426 0.08264822 -0.17959014 0.11979044 -0.056808833 -0.12172562 0.114674926 0.13365366 -0.13051568 0.03456873 0.11332825 -0.011399562 -0.25040743 0.03286908 0.067538776 -0.04533842 0.2098275 0.18841185 -0.1775342 0.006626275 -0.27254426 -0.12800246
1175 -0.106073506 0.06287134 0.34655485 0.008637114 -0.045941878 -0.038667157 -0.14835343 -0.26752314 0.049510226 0.119750015 -0.07491329 -0.2879814 0.17788805 0.28986865 0.017309673 0.043245193 0.06782753 0.41143164 -0.011449327 0.00012133221 0.054626513 -0.45860267 -0.015179153 0.06230571 0.08853305 0.37971622 -0.25228006 0.11866875 0.29573596 0.04504014 -0.017632963 0.12775593 -0.037021417 -0.22088337 -0.3090475 0.3508383 -0.005305028 -0.22856922 0.39857656 0.25517324 0.046539355 0.014253465 0.24980788 0.24502435 -0.15523255 0.3026149 0.08112101 0.022569405 0.1437576 -0.055953734 0.035298623 0.017383128 0.21029723 0.09016926 0.039472174 0.05526021 -0.029902887 -0.16864376 0.29327092 0.072369166 -0.21701415 0.14123954 0.008506268 -0.15995812
1541 0.109363675 0.07862689 0.12087843 -0.3040304 -0.122713014 0.13882951 0.13750924 -0.20992428 -0.050627634 0.30378288 0.19215962 0.005111227 0.24478757 0.42326537 0.010195896 -0.24600141 0.11239901 0.19286278 0.2175726 0.122701555 0.18566687 -0.14239666 -0.25531644 -0.15037858 -0.2935081 0.1312628 -0.009094831 0.051733427 0.08653156 0.19101934 -0.06790537 0.16819629 0.017720442 -0.28525823 -0.1517656 0.08508245 -0.0109307915 -0.12040804 0.30593738 0.40242398 0.14360441 0.018649844 -0.05123056 0.37454146 0.07344821 0.09734224 0.22854224 0.066093385 0.23328245 -0.107936755 -0.17521882 0.012605785 0.004997058 0.18366183 -0.1295762 0.016080528 0.14112365 -0.03939543 0.1767376 0.12193825 -0.23047684 0.016474314 0.032111753 -0.26601112
765 0.0066877278 0.09171156 0.3626274 -0.15576541 -0.069014736 -0.055391274 0.07607456 -0.28338948 0.14805122 0.07859632 0.06047299 -0.30168396 0.1642232 0.12137906 -0.053345986 -0.19155374 0.04521064 0.15675515 0.21520445 0.35048747 0.13402215 -0.27711543 -0.0008215323 -0.194137 -0.19559307 0.10674608 -0.29461226 -0.10604143 0.38318303 0.090989344 -0.0850707 -0.004768333 0.05220849 -0.39296213 -0.43996558 0.13639201 0.0034345884 -0.111701265 0.28986606 0.35517168 0.38777053 -0.032014802 -0.04210964 0.08732044 0.027243545 0.14649595 -0.036979154 0.20724311 0.15958174 0.024119793 -0.19099781 0.05875017 0.2802464 0.053268798 -0.21655796 0.06369568 0.13281022 -0.056670204 0.16237162 0.058009434 -0.2467026 -0.029768717 0.13043076 -0.113308266
990 0.29998562 -0.07492287 0.1349924 -0.20870672 -0.07756745 -0.01556272 0.18886234 -0.33657408 0.09177624 0.08505141 0.03302846 -0.1569803 -0.0034336601 0.31106922 -0.07737736 -0.11049885 -0.105853826 0.20610718 0.04586764 0.018620467 0.26624203 -0.14362015 -0.031118456 -0.013754868 -0.0779339 0.117104925 -0.3049803 0.30560997 0.22429618 -0.12364089 0.06588417 -0.10057468 0.0460315 -0.20677198 -0.07324953 0.40372658 0.20030436 0.1170521 0.35754675 0.28247193 0.008658527 0.069484144 0.10830681 0.2227575 0.062754095 0.018119385 -0.01002929 -0.20355472 0.15114789 -0.29362595 -0.1149935 0.0053576995 0.3338487 -0.009542584 -0.19042479 0.13131785 -0.13611592 0.1877545 0.21156824 0.012808513 -0.30652723 0.06595655 -0.056704532 -0.042495683
1614 -0.19120201 0.28288695 0.36110982 -0.20843086 0.09197537 0.031848077 0.06111365 -0.16880248 -0.081237234 0.119764015 0.1805585 -0.10993723 0.08452197 0.09068483 0.004691872 -0.12175391 0.20997876 0.16696426 0.09375658 0.19636731 0.010668695 -0.34471825 -0.11045057 0.037440546 -0.21151252 0.053324815 -0.23345971 0.037366807 0.1279853 -0.0720664 -0.05534609 0.048603464 -0.10896598 -0.026185371 -0.41169557 0.29060057 0.13359927 0.019259097 0.24135089 0.4433053 0.28552607 -0.1451632 0.22731756 0.33373335 -0.21241154 -0.048069302 0.34340093 0.06752356 -0.011169682 0.13976102 -0.0086666215 -0.16531809 0.29743636 0.14503652 -0.3413957 0.21636371 0.052573733 0.035242796 0.033154275 -0.040228695 -0.32613242 0.1103311 0.030499205 -0.22080083
1477 -0.08812539 0.14769474 0.37035286 -0.27414674 -0.19989303 0.28987294 -0.04013749 -0.21386018 0.20039852 0.1732365 0.010218156 -0.20690024 0.37905836 0.120356135 0.023611581 0.03343796 -0.039936904 0.0065063667 0.16351473 -0.00037985638 0.11716146 -0.38600266 -0.04012731 0.07931975 -0.20155534 -0.10737339 -0.14495784 0.3272892 0.056260735 -0.025200652 0.0017012756 -0.16259402 0.03512192 -0.19236729 0.026453972 0.24735467 0.14773981 0.032869298 0.3220404 0.34397587 0.22817956 0.00432382 -0.10302738 0.4497704 -0.25166303 -0.11084199 0.077020176 -0.040496863 0.06734802 0.011362348 -0.14135991 -0.012713037 0.22166555 -0.013688032 -0.2969656 -0.1092385 -0.03765995 0.015767861 0.14325306 0.048024554 -0.1823102 0.12616538 -0.089468576 -0.11942858
1031 0.08999021 0.08171952 0.29667452 -0.20663685 -0.16131902 0.12342352 0.045603484 -0.20213866 -0.09934939 0.049828704 -0.0074339276 -0.27826414 0.2380948 0.17105512 0.06449478 0.06550227 -0.2932733 0.15420216 -0.06644428 -0.06929074 0.3044089 -0.2318747 -0.14593199 -0.14317077 -0.191737 0.0962904 -0.35768595 0.12809706 0.04601348 0.034390967 -0.09982715 -0.009589937 0.06725032 -0.21103252 -0.16572255 0.31913543 0.05470724 -0.018483762 0.28884616 0.35763058 0.30388704 -0.05037026 0.12291177 0.30019516 0.039333843 0.08909348 0.11357713 -0.012662959 0.10873139 0.03739524 -0.10649011 -0.050554223 0.09607882 0.1425065 -0.1619213 0.015445386 0.051873084 -0.14267464 0.19180232 0.112657465 -0.12671836 -0.0690895 -0.091601096 -0.33504638
681 -0.044761024 0.1959778 0.43618628 -0.21273701 0.05426067 -0.1838914 -0.06277946 -0.033817522 0.2920168 0.25385222 0.15056941 -0.098484606 0.34314257 0.29944757 0.0856062 0.03648427 0.16169843 0.11847017 0.15237078 -0.0047394778 0.26983988 -0.4120466 -0.04323201 -0.21282028 -0.3603001 0.10503932 -0.34931004 0.049058974 0.32373062 -0.012895625 0.12766851 -0.06495104 -0.017165087 -0.017750947 -0.047061063 0.26901114 0.16876717 -0.050061252 0.14592174 0.18621278 0.15597212 0.042072788 0.11439931 0.3647846 0.025718847 -0.0273344 -0.06851115 -0.103416845 0.13392586 0.05034606 -0.20580183 0.025157444 0.20709252 0.089830905 -0.05353835 -0.12213106 -0.07879655 -0.055323027 0.26137823 0.012326639 -0.21530016 0.0217892 -0.029814523 -0.15433562
2119 -0.02965824 0.18788013 0.3555816 -0.30776867 0.021228202 0.03157354 0.10419069 -0.13928393 -0.18294337 0.14179766 0.15097767 -0.24554506 -0.028570743 0.39135432 0.04338741 -0.08010608 -0.16386332 0.2769935 -0.03536884 0.036096968 0.35736653 -0.3111048 -0.18665604 0.0039292234 -0.105836235 0.0615047 -0.31528243 0.20228483 0.1801583 0.0362935 -0.0074930796 0.01609959 -0.11892278 -0.06930094 -0.19968452 0.06919223 0.19341572 -0.17428538 0.5064387 0.10186365 0.0634391 -0.07945583 -0.03843314 -0.07764487 -0.0318719 0.12990384 0.0562093 0.10237768 0.01500626 -0.15198787 0.111702666 0.056321375 0.35554352 0.11541775 -0.008895331 0.057310533 -0.22577074 -0.0353351 0.28991532 0.09134233 -0.29820552 0.1687412 -0.31992322 -0.15035968
179 0.07262925 0.12634131 0.3689268 0.03753878 -0.084079385 0.1358836 0.069379754 -0.29495177 -0.041339178 0.122692026 -0.14789285 -0.21723804 0.26126954 0.05437216 -0.17757756 -0.013622152 0.20560598 0.03564124 0.071565494 -0.109480426 0.17537376 -0.22524415 0.046999957 -0.14245798 -0.220198 0.09293528 -0.14244497 0.06224735 0.17759076 0.18312939 0.04779711 0.010333896 -0.16759135 -0.22432229 -0.4650087 0.22804302 0.036330774 0.07578923 0.22954386 0.23590593 0.045548458 0.12507772 0.18868384 0.41809788 -0.12384255 0.048720207 0.069030136 -0.019004304 0.34808242 0.17944947 -0.061750297 0.01596859 0.080398716 0.0060317293 -0.17597136 0.1382065 0.0004994505 -0.24374111 0.21490727 0.00072122156 -0.47346342 0.042041834 -0.034839977 -0.18081707
1957 0.042087413 0.19238819 0.30197942 -0.11735254 0.19231977 -0.065096974 0.37296855 0.08423524 -0.062430754 0.040609658 0.20519684 -0.10588525 0.17396626 0.42477652 0.1041697 -0.1857221 0.27567497 0.41931838 0.16666761 0.21026026 0.2356297 -0.22796462 -0.21060203 -0.1321198 -0.0143909985 0.14033033 -0.15855731 0.19097893 0.29102707 -0.037358735 -0.014218689 -0.04843936 -0.22565244 -0.08026083 -0.38544664 0.30965438 0.004239436 -0.42488104 0.31095266 0.20891938 -0.048186854 0.13565737 0.12328137 0.10176947 -0.006080621 0.026879493 0.04588304 0.18116738 0.16367124 0.09575843 0.01934603 -0.024698421 0.07062908 0.06963054 0.04984563 -0.12730475 -0.09881448 -0.19664258 0.40223736 0.0070284144 -0.2948105 0.0408844 0.045928035 -0.05679292
2310 0.029147048 0.20593928 0.20945199 0.033405054 -0.20078747 0.190284 0.11794661 -0.36975423 -0.041070826 0.14537822 0.0017365789 -0.06849221 0.049640875 0.17322357 0.205944 -0.064061545 0.011899491 0.2464498 0.0113914935 0.08662645 0.18591757 -0.16056116 -0.16014233 -0.1881921 -0.13016379 -0.14229332 -0.22938079 0.042803403 0.1990658 -0.037977483 -0.19353104 0.036998022 0.060008403 -0.23213755 -0.32447252 0.30345625 0.12193955 -0.014306325 0.35579094 0.33781907 0.2033936 -0.13688132 0.10878319 0.07943933 -0.14914139 0.13836709 0.28050762 -0.018423282 0.16459602 0.02143214 -0.12520939 0.14041206 0.29342544 0.08800074 -0.2906238 0.2571074 -0.03474694 0.07985819 0.17653412 0.17590193 -0.06840791 -0.1877141 -0.03578896 -0.12692423
200 0.17484607 0.12226365 0.1206428 -0.18120803 -0.056422926 0.06878596 0.355813 -0.20008343 0.18661329 0.100524746 -0.27890253 0.0036820346 0.29177037 0.16598083 0.009496644 0.007854792 0.11553746 0.15675461 0.13467175 0.07058313 0.12566808 -0.40799364 -0.09193215 -0.050430797 -0.15832101 -0.019171173 -0.21709478 -0.0713814 0.3686385 0.0764374 -0.21602151 0.10092136 -0.082772754 -0.19667959 -0.14587246 0.37675726 0.20448059 -0.13643883 0.29467714 0.12215462 0.030750563 0.13347709 0.01568824 0.24235274 -0.074765086 0.081472866 0.028481403 0.06837008 0.09916569 -0.031567495 -0.0052733957 -0.04784366 0.24891558 -0.018009745 -0.18964615 -0.018412948 0.41018465 -0.0054034893 0.1323092 0.21573159 -0.24656527 0.09430185 0.0045639114 -0.3200595
1340 -0.04367047 0.32509136 0.30655083 -0.21835925 -0.116866075 -0.01484101 0.04825015 -0.37448713 0.114118576 0.13631035 -0.063012294 -0.15469295 0.4739053 0.35644394 0.12913178 -0.22110137 0.23627825 0.16246177 0.09591506 -0.16890332 0.1596263 -0.091526665 -0.10404294 0.014825478 -0.011130115 0.06733326 -0.15821719 0.2380152 0.12634942 -0.077534825 0.17888145 -0.0030644669 0.1979855 -0.21719123 -0.15264249 0.17132293 -0.03948942 -0.34570438 0.11797715 0.24639206 0.14958508 0.028132932 0.25938046 0.44038928 -0.120674364 0.00148955 0.0588772 0.11546793 0.023831498 -0.066058055 0.076911815 -0.011997364 0.027130622 0.22795556 -0.26163134 0.22772883 0.15329324 -0.013197199 0.12214329 0.1968193 -0.18834858 0.19138664 -0.032306876 -0.37345836
256 0.019007655 0.021773888 0.16919127 -0.21779467 -0.1999969 0.013584536 0.14413927 -0.24881719 0.33965114 0.2669414 -0.07122331 -0.16739772 0.24345909 0.22422823 0.03163699 -0.036124602 0.11572766 0.44302014 0.22688407 0.014134376 0.034755733 -0.30100563 -0.1434212 0.062956564 -0.086531654 0.16748159 -0.35564783 -0.028046094 0.2514078 -0.13866867 -0.012555308 -0.13273884 0.10718146 -0.15424585 -0.07559551 0.4191687 -0.025570402 -0.15558983 0.31849217 0.2724108 0.0384422 0.0045951153 0.27394712 0.5282147 -0.09201404 0.052701496 0.11476274 -0.091528706 0.009230121 -0.018548632 -0.011298451 -0.0031410663 0.067584135 -0.090813726 -0.04464931 -0.076688595 0.115681864 0.16635285 0.14682117 0.061612777 -0.2088172 -0.060970448 -0.0963003 -0.114818566
918 -0.051373698 0.14032957 0.4865186 -0.14661562 0.15448911 0.17407063 0.027783299 -0.22310549 -0.038333055 0.23338833 0.03219999 -0.13845636 0.3050666 0.11982009 0.080849916 -0.11797349 0.06779866 0.050426733 0.02595525 -0.08095819 0.2256313 -0.09632187 -0.18555757 -0.09788468 -0.20888673 0.09113096 -0.1705324 0.1637975 0.18704 -0.033905677 -0.18399908 -0.1979589 -0.024878241 -0.20063742 -0.20581755 0.20630735 0.10822435 0.046053078 0.29775026 0.20186052 0.15334041 0.11491859 0.15256447 0.44289792 -0.03365873 -0.0015029868 0.06485116 0.09428063 0.20617294 0.13743275 -0.03643018 -0.22548093 0.25328848 0.040227078 -0.24286586 0.18340689 -0.0186029 -0.08833596 0.28995022 -0.0826312 0.10642266 -0.014656009 -0.21553506 -0.14972164
2531 -0.09880053 0.26333347 0.38454342 -0.1492986 -0.08765669 0.051526383 0.20665567 0.0035680379 -0.045694713 0.12049184 0.10827496 -0.15435842 0.26314583 0.08642277 -0.02669761 -0.031998765 0.14992264 0.24443963 0.036471874 0.0924027 0.05904555 -0.11687913 -0.09928524 -0.0653814 -0.21122542 -0.026817486 -0.07178605 0.10133362 0.07197727 0.093159854 -0.019509982 0.12146457 -0.11092224 0.023631632 -0.2298491 0.3511482 -0.06925982 -0.122275904 0.3188736 0.22594556 0.072721295 0.09520226 0.114018284 0.3717293 -0.07664979 0.09293019 0.09582272 -0.074804544 0.13054273 0.05840805 -0.11031359 -0.047282714 0.13140969 0.06779494 -0.5013398 0.19192305 -0.06007441 -0.011135581 0.26406652 0.20845784 -0.33124045 0.01622 -0.10822157 -0.40510812
2369 0.13139012 0.055097517 0.11914961 -0.057248045 0.005080536 -0.034420505 0.025973767 -0.3063455 0.20571029 0.09687092 0.10585044 -0.10552975 0.07864965 0.3505232 0.24815728 -0.19281459 0.18099058 0.105014645 0.18828274 -0.0011481851 0.22541928 -0.22856727 -0.24734728 -0.051219072 -0.04677851 0.050893176 -0.07047299 0.14215435 0.16045372 0.07180143 -0.108884215 0.14417417 0.061761893 -0.24200927 -0.03596123 0.50380063 0.15771642 -0.09726682 0.43242094 0.13426946 0.15014964 0.06442519 0.1627431 0.2726761 -0.04219434 0.02680474 0.063176826 0.0067556202 -0.10498041 0.004833114 -0.028218048 -0.10087382 0.21641919 0.19247603 -0.104503214 -0.0017885244 0.22274989 -0.014999836 0.1092994 0.09731965 -0.35354674 -0.006472548 0.11100548 -0.15341127
1016 0.29594007 0.016456032 0.3209357 -0.27719983 0.042902432 -0.13617562 0.22279473 -0.14941184 -0.01791714 0.13990088 0.11107764 0.13296367 0.06929219 0.1599646 0.0059542023 0.014008555 0.051531002 0.102349274 -0.2063951 -0.19220483 0.3236271 -0.48806182 -0.27236184 -0.08643677 -0.16972631 0.11649341 -0.22906016 0.013061935 0.104470864 0.04065498 -0.28978887 0.08345004 -0.12586576 -0.038093492 -0.16986278 0.30274582 0.20955618 0.10904219 0.3619694 0.22943446 0.1232934 0.11855942 0.12867238 0.17584866 -0.0450789 -0.014964923 -0.033212937 -0.0015072378 0.2025745 0.10919965 -0.25874293 -0.10686718 0.13309498 0.10051247 -0.18954772 0.18075494 0.14428821 0.017679624 0.2775125 0.15233998 -0.2941162 0.15621436 -0.27417973 -0.20244308
781 -0.20484321 -0.054415554 0.26911923 -0.18261726 -0.056124907 -0.060360566 0.06876318 -0.43617344 -0.11074485 -0.05322189 0.047026873 -0.10512164 0.095470816 0.18261562 -0.09104295 -0.13692273 0.29198638 0.07035574 -0.03386994 -0.041900802 0.24932587 -0.17388865 -0.09267571 0.1295884 -0.003551465 0.013568276 -0.18340127 0.18016213 0.112633556 0.0047772443 0.124284744 0.03275288 -0.22941713 -0.14887065 -0.28581968 0.007839678 0.19298366 0.013883271 0.54681563 0.025343733 0.082061894 -0.10885075 0.0902678 0.38286373 -0.08209692 0.028566549 0.16528486 -0.002125062 0.025603242 -0.18131629 -0.06753594 -0.20042355 0.13621098 0.25967643 -0.13839091 -0.11926781 0.14736685 -0.327967 0.21508217 0.2580368 -0.12775055 0.20285 -0.20587005 -0.36828932
727 -0.10558063 0.22060774 0.24986789 -0.14570302 0.031151883 -0.075352125 0.08119644 -0.1971641 0.06582426 0.013737614 0.045758847 -0.24840821 0.11534269 0.27991053 0.07116208 -0.14675991 0.11482629 0.15043032 -0.06068234 0.033562876 0.1409972 -0.26106095 -0.11125763 -0.089915045 -0.14537407 0.122565985 -0.11411157 0.04088994 0.22305204 0.09284093 -0.27778912 0.16285326 -0.022483489 -0.2283683 -0.15436071 0.19578205 0.058966022 0.07405304 0.46905246 0.33624348 0.03354748 -0.05052504 0.16863485 0.20660317 -0.05393488 -0.006581257 0.18034063 0.08226696 0.041649688 0.118294545 -0.25009215 -0.115369774 0.33819482 0.116909355 -0.33385032 0.045507196 0.043611106 0.01203155 0.23275651 -0.0709892 -0.041833706 -0.056660626 -0.22282527 -0.17454815
952 -0.08262261 0.15123682 -0.003710863 -0.28281727 0.05180691 0.06577306 0.077053875 -0.38762745 -0.02042486 0.13692285 -0.026522558 -0.25823984 0.18963747 0.31992155 -0.0815315 -0.16042958 -0.049516626 0.21229045 0.14376554 0.01333705 0.16852234 -0.25313094 -0.058849458 -0.19740911 -0.23460324 0.10218819 -0.26101327 0.1256487 0.09021008 0.087498255 -0.011143174 0.022884201 0.18428032 -0.13793473 -0.07135662 0.23105282 0.13359132 -0.0785372 0.3873255 0.24635132 0.11937327 0.1929334 0.07524932 0.31191847 -0.1336894 0.11794354 0.2584159 0.063582055 0.05895048 -0.03853609 -0.18099736 -0.142152 0.13803071 0.18704107 -0.048217352 0.10036049 0.2828482 -0.22964783 0.06484791 0.1765521 -0.23517196 0.09869143 -0.1507322 -0.22894916
1439 -0.115479276 0.114757076 0.36663923 -0.025921114 0.1501515 0.052170057 -0.036351196 0.0085173845 -0.17732175 -0.060315803 0.12607522 -0.06799105 0.14939903 0.28388485 0.012065397 -0.1479281 0.076409385 0.038842656 0.07193251 -0.054702614 0.45059583 -0.28030095 -0.24323535 -0.069531515 -0.3640542 -0.028849568 -0.44820952 -0.0022230826 0.05392047 0.027854798 -0.11842529 -0.03540134 0.08475318 -0.087640025 -0.15907426 0.123103045 0.008933018 -0.11976873 0.16829836 0.42413825 0.24337453 -0.10554335 0.18917851 0.30534697 -0.25407368 0.14633614 0.22943954 -0.07480164 0.113651924 0.02377682 -0.07941242 -0.23311295 0.09442112 0.28816834 -0.19267221 0.064602315 0.07677019 -0.41113946 0.23893328 0.104678564 -0.17186958 -0.015336742 -0.041210502 -0.1502435
1662 0.31971592 0.1548883 0.3109616 -0.23360722 -0.13824141 0.15636122 0.13276322 -0.3175385 0.036707137 0.27147362 -0.16291605 -0.11789427 0.15378396 0.14398032 0.10245771 -0.17951865 0.16542636 0.2264803 0.046330493 0.1146116 0.26337427 -0.37214 -0.13461992 -0.06992071 -0.04696214 0.093994506 -0.013429851 0.06130999 0.14077695 -0.055138625 0.10917099 0.1460127 0.083170325 -0.16358104 -0.3191077 0.34191677 -0.04206574 -0.07154904 0.45560655 0.2067951 0.032757327 0.035712022 -0.041996166 0.2890172 0.017390074 0.0011611695 -0.0013883 0.12379299 0.21825396 0.10814667 -0.06070289 -0.1750673 0.0049577104 0.016694857 -0.2520922 0.17994447 0.036176287 0.02077353 -0.018070078 0.18214965 -0.25823376 -0.0018131934 -0.049890775 -0.31230098
960 0.10319441 -0.041942753 0.32519102 -0.0370445 0.14325483 -0.015939211 0.07824482 -0.20891765 0.031302255 0.117124416 0.08832666 -0.30326068 0.340791 0.1759569 0.17629564 -0.28984976 0.15706286 0.15527107 -0.0367311 0.09215987 0.19237196 -0.23185807 -0.031156562 -0.046395276 -0.19144174 0.1781543 -0.093360044 0.13106582 0.11120748 -0.11410485 -0.0017591466 0.03373506 0.08532114 -0.14007825 -0.26452392 0.31367177 -0.07161523 -0.19259332 0.41636902 0.044901326 0.09284786 0.174481 0.038377993 0.20624283 -0.026626432 0.3511459 -0.06653467 -0.10075021 0.07326283 -0.01191733 -0.0402553 -0.009814474 0.20857807 0.107840955 -0.2021271 0.115198016 0.24184322 0.023981916 0.19328958 -0.03714193 -0.2452076 -0.028134724 -0.14570081 -0.12768126
1988 -0.1017371 0.19575724 0.33813927 -0.24291326 -0.021550423 -0.084108256 0.16885711 -0.0658461 0.28010067 0.3334144 0.018380921 -0.03764604 0.32059652 0.2501631 0.2822331 -0.024998523 0.053489167 0.14145792 0.085744165 0.1593326 0.36012977 -0.32040116 -0.2894694 -0.07366502 -0.23673958 0.2882247 -0.18151593 0.11033377 0.06641154 0.19424039 0.08253249 0.10527046 -0.07761202 -0.070099905 -0.120402925 0.19672 0.08404862 -0.08536299 0.37066963 0.33787128 0.4087287 0.045537777 0.06632771 0.12785755 -0.19353154 0.07201981 0.06032469 0.0019122488 0.17251417 0.08364163 -0.19776753 -0.20475617 0.4191724 0.01071612 -0.3050731 0.26761016 -0.2066809 -0.0008586434 0.02000051 0.12257841 -0.3239379 0.024364332 -0.16108951 -0.08560163
2420 0.1034124 0.12404847 0.17878114 -0.30759302 -0.044571456 0.17549948 0.039514236 -0.06903068 0.16216154 0.11180958 -0.06581303 0.038769376 0.41099316 0.16706502 0.08357207 -0.14560153 -0.008979667 0.13636048 0.037624832 -0.016500918 0.22938797 -0.22827354 -0.22459194 -0.15427129 0.022759883 0.17926815 -0.2909314 0.17262582 0.21839437 -0.06844688 -0.110888764 0.16714628 0.017409015 0.055401176 -0.24090938 0.16865486 0.17916217 -0.12335978 0.19394219 0.2503252 0.15004401 0.0014809984 0.22047822 0.17258401 -0.11122525 -0.07101965 0.1488358 -0.058186512 0.23409937 -0.059582572 -0.10114361 -0.12639166 0.17332326 0.16519222 -0.24753614 0.0815749 0.12758422 0.005655311 0.21371087 0.19257945 -0.24384941 0.057849098 -0.09803625 -0.30021846
1363 -0.01903381 0.06880305 0.4986783 -0.080998786 -0.046431072 0.25372848 0.07325454 -0.26018566 0.024811594 0.09568885 0.089843616 0.006861633 0.2820938 0.2035831 -0.061382987 -0.22121161 0.13013725 0.3139282 -0.10961637 -0.04592421 0.21762247 -0.19979881 -0.11992028 -0.04779934 0.03375886 0.18878333 -0.09391004 0.12775187 0.038751442 0.0537146 -0.06802389 -0.019710822 -0.1471404 -0.16640963 -0.10108194 0.24099009 -0.045855336 -0.021286497 0.21743153 0.22955135 0.13388854 0.01686496 0.07166249 0.30280656 -0.1900376 0.22888726 0.09612423 0.08965323 0.047539577 0.016209995 -0.17258018 0.06793217 0.25636554 0.012319837 -0.08491991 0.13648456 -0.09581048 0.042720247 0.45260185 0.051338814 -0.3911368 0.07073912 0.0618135 -0.393889
2699 0.06411784 0.11882864 0.35648647 -0.09970521 -0.031962268 0.029305253 0.15511134 -0.19457874 -0.2074237 0.12510367 0.17078492 -0.14124767 0.12729904 0.18246697 0.054989967 0.1128329 -0.16581298 0.22750409 -0.034266587 -0.015273202 0.34571734 -0.31111163 -0.037600774 -0.026694695 -0.28346616 0.09306325 -0.08254247 -0.016693914 0.323701 0.20641461 -0.23602697 -0.11985979 -0.067151 -0.109693706 -0.12837444 0.37448826 0.2290342 -0.0075227595 0.16598906 0.34357175 0.024967914 -0.0092722345 0.18588227 0.3083485 0.025734445 -0.053149812 -0.08729653 -0.10889229 0.25048116 0.020768618 -0.21857293 0.10812581 0.33201206 0.022540344 -0.2549758 -0.05412347 -0.10052292 -0.14384565 -0.023924908 -0.079544075 -0.2160133 0.26094678 -0.05941293 -0.24209774
865 -0.045727804 0.0839161 0.37806496 -0.13092645 0.1849626 -0.14226432 0.25944293 -0.2031608 -0.10811232 0.09793533 0.3059696 -0.38295245 0.2417411 0.19439186 0.02905452 -0.15125908 -3.5966114e-05 -7.594924e-05 0.059242647 -0.02454026 0.31538093 -0.38324338 -0.107698195 0.06152769 -0.3166281 0.021686636 -0.3389791 0.02562701 0.14389443 -0.15274145 -0.18324742 -0.059294514 -0.012670027 -0.0645397 -0.10102601 0.17308041 0.14293297 -0.0052871676 0.1710415 0.3428743 0.05769057 -0.06776182 0.0568828 0.029341428 -0.19466087 -0.15112998 0.02640316 -0.11786408 0.075883515 -0.103729784 -0.23754936 -0.20817181 0.3120502 -0.13485551 -0.03516228 0.024879685 0.04851506 -0.18361954 0.11283057 0.12297739 -0.29635143 0.08973452 -0.27194065 0.009020135
2303 0.06706578 0.123647265 0.35550687 -0.06986968 -0.04607708 0.09105347 -0.077333935 -0.1094593 0.07462538 0.22789101 0.11174891 -0.020026788 0.1934043 0.30581284 0.11153854 -0.31233487 0.051584776 0.11987542 0.009935189 0.09944591 0.26411828 -0.437352 -0.112769775 0.034505278 -0.120957024 0.20514531 -0.008273097 0.07116378 -0.008555446 0.16374737 0.056746867 0.018063731 0.0577419 -0.06064202 -0.21813986 0.34887353 0.065011345 -0.13914843 0.28783703 0.12431502 -0.00033893896 0.22050866 -0.020262362 0.21215762 -0.011503508 0.08190763 -0.037364386 -0.13464712 0.040414102 0.053411104 -0.24827607 0.16343264 0.10603855 0.06906957 -0.17646657 0.106652476 -0.044182654 0.07950826 0.29299778 0.014940024 -0.45179662 0.08539827 -0.10771523 -0.24039808
2368 -0.12786305 0.08560035 0.4813919 -0.28833684 -0.01384589 -0.06755052 0.10713785 -0.082462355 0.07558706 -0.023342961 0.21132466 -0.13160746 0.07074769 0.21287806 0.15204138 -0.11313757 0.15688187 0.1694554 0.12867545 -0.0037623562 0.16502847 -0.08379485 -0.14723277 0.14252408 -0.16461882 0.101222225 -0.14535843 0.20569609 0.049824204 -0.04026612 -0.07320482 0.12672445 -0.103915244 -0.3075921 -0.23251823 0.37587848 0.020680424 0.028558437 0.29934832 0.45682943 0.1292651 0.09711467 0.26788965 -0.011608321 0.088658646 0.0396034 0.14243889 -0.10569258 0.022749033 -0.12302224 -0.14213859 -0.0985916 0.0912525 0.024029905 0.014428747 0.083266385 0.061899778 0.0014924745 0.2506809 0.058420185 -0.4657172 -0.015082807 -0.13067679 -0.27883363
900 0.122157335 0.048231423 0.14186178 -0.050615583 -0.23034526 0.020701865 0.081079535 -0.1651698 -0.03798859 0.013129472 0.072543286 -0.3095262 0.44514093 0.20247138 0.004981866 0.007354425 -0.1072503 0.32062146 0.17356573 -0.28739116 0.26053208 -0.08221692 -0.26800004 0.15331812 -0.2845233 0.18832079 -0.09143473 0.0321118 0.20152327 0.010986375 -0.17010428 -0.13910586 0.056994725 -0.33874312 -0.32563743 0.3815921 0.23235512 -0.19793846 0.17111444 0.34299058 0.30791837 0.036880188 0.1333148 0.07073566 -0.010279172 -0.066700555 0.10259722 -0.07621547 0.05800835 -0.28046113 -0.16595879 -0.12726459 0.07248803 -0.05481957 -0.008230007 0.019035846 0.05771544 0.078258514 0.33236334 0.042413965 -0.24676493 -0.048880454 -0.37822235 -0.08996719
592 0.07858336 0.05088398 0.21970284 -0.2514036 0.1435733 0.1132234 0.2035354 -0.2509518 0.1950129 0.14848182 -0.034174033 -0.13971853 0.33575344 0.34190318 -0.032795675 -0.08838665 -0.023092723 0.12649482 0.21986642 0.075687505 0.24029721 -0.49425742 -0.055373542 -0.12816471 -0.29527372 0.16528024 -0.1804452 0.07848966 0.2000589 -0.037209768 -0.020234928 -0.100262925 -0.0130532775 -0.10760469 -0.111639656 0.24358192 0.17895292 -0.10969453 0.06007601 0.31894132 0.061840944 -0.021202886 -0.09369349 0.19834213 -0.15436609 0.0805164 0.1356625 -0.022426946 0.039579213 0.16713625 0.053414192 -0.20346716 0.2700696 0.10652801 -0.056988 0.11576268 0.047346428 -0.07743704 0.18322015 0.051826656 -0.26585883 0.17090821 -0.056437057 -0.25822997
1691 0.11491285 0.07721119 0.2763304 -0.3121849 0.10737131 0.10952803 0.20779347 -0.20492467 -0.07509038 0.07160576 0.12968607 -0.15983969 0.080894604 0.35903907 0.0124185635 -0.009076665 -0.07322835 0.19243953 0.0133336615 -0.17128755 0.2476551 -0.29974654 0.01733612 0.055047624 -0.27634484 0.07755043 -0.38410664 0.34287602 0.261254 -0.046528228 -0.047222827 0.037125055 -0.014923105 0.006486266 -0.33874884 0.24285872 0.10813801 -0.06461161 0.2960888 0.11020042 0.04403286 -0.053930704 -0.07000033 0.22382502 0.034082506 0.2621337 0.025405278 0.11666044 -0.007159261 -0.09090664 -0.15607055 0.14330493 0.18633159 0.12903036 -0.0059398124 0.21102446 0.18307418 0.012307643 0.17771915 -0.02741584 -0.42465726 0.063556746 -0.24981007 -0.09126405
