2708 64
1728 0.19492598 -0.16255918 -0.18567407 0.0018600945 -0.038532484 0.22435406 0.2524469 -0.13748817 0.094873905 -0.22292969 0.14806706 -0.27419752 -0.051790234 0.03003292 -0.015152524 -0.15504616 -0.17274182 -0.13204399 -0.28744182 -0.0134254405 -0.29241845 0.15146409 -0.09127134 -0.2183221 -0.12712863 0.33027336 -0.097835064 -0.26404503 -0.048027914 0.07682787 0.07969507 0.15538314 -0.056691967 0.05073825 0.031031117 -0.14133255 0.26418734 -0.08707151 -0.13165529 0.20172082 -0.39800468 -0.055758856 -0.28304866 -0.16549832 -0.17722955 0.04874207 -0.11777558 0.08055116 0.18445548 0.07924742 -0.13252437 -0.23914276 -0.09789703 -0.10291836 -0.22881866 -0.18337065 -0.15234137 -0.15206781 -0.21916904 0.378219 -0.4191768 0.36125854 0.12201432 -0.36376402
2501 0.30870625 -0.0038987382 -0.023788627 -0.13262512 -0.16714646 0.17564999 0.08366663 -0.35019198 0.12700921 -0.12657678 0.09084648 -0.03711219 -0.08917631 0.04586376 -0.3246116 -0.00892793 -0.3681526 0.014451781 -0.24684624 0.18079676 -0.19863783 -0.0046011717 -0.020194314 -0.16292103 -0.09254617 0.14444119 0.25783655 -0.13502693 0.26177108 0.2679403 -0.16457249 0.032729834 -0.20990284 0.18523976 -0.2319434 0.042807564 0.25271797 -0.25084472 -0.27814105 -0.051050812 0.031862188 -0.08988984 -0.24761778 -0.021456487 -0.007919992 0.047049355 -0.41472635 -0.23849037 0.21684599 -0.064035006 0.08506271 -0.22828767 -0.24562895 0.109526865 -0.1416339 -0.19424234 -0.2200359 0.019737013 -0.08374351 0.09643366 -0.22214712 0.3589784 -0.0016532326 -0.25682113
1870 0.33661392 0.041686773 -0.1695781 -0.08240021 -0.124307536 0.32068327 0.34809032 0.033400435 0.0017474901 -0.03163617 0.12865277 -0.20608757 0.031765737 0.061376896 0.08592318 -0.097559445 0.11497649 0.033923224 -0.29820845 0.17602593 -0.050147016 0.1125343 -0.30064014 0.015160518 -0.11058089 -0.036773063 0.23465101 -0.21244097 0.06546756 0.12318857 -0.21183263 -0.040117368 -0.20661399 0.10483347 0.064702444 -0.11152457 0.36873472 -0.21460001 0.195085 0.14325896 -0.22578979 -0.00074644067 -0.13728808 -0.16268592 -0.023112556 -0.1856716 0.037231702 -0.15920335 0.34336075 0.044790026 -0.03153573 -0.09047948 -0.1369786 -0.27475995 -0.10992455 -0.087258935 -0.1880191 -0.14803095 0.05401924 0.010795417 -0.5890355 0.2546751 0.119473204 -0.31890723
967 0.20872568 0.08197718 -0.14837414 -0.23186839 -0.15964174 0.1467309 0.22047603 -0.19273098 0.13710967 -0.15175575 -0.0044415593 -0.1514242 -0.18004878 -0.016795436 0.04108008 -0.016825214 -0.16171786 -0.07831354 -0.22672546 0.12981239 -0.21740991 0.06138813 0.038206298 0.062359925 -0.12154119 0.30493978 -0.110018745 -0.34786403 -0.17838217 0.025617324 -0.18979803 0.19406584 -0.11412076 0.11989912 -0.053619836 0.13151461 0.26904395 -0.122770965 0.0014173469 0.3075816 -0.03962322 -0.24536182 -0.17377879 -0.14300363 0.060312547 0.15789412 -0.32315585 -0.06566723 0.21490303 -0.068052895 -0.06891396 0.0027214608 -0.10891863 -0.045710493 -0.10830142 -0.14422661 -0.23175845 -0.29368496 -0.22807539 0.1849848 -0.33950135 0.25860602 -0.15617177 -0.15905514
1127 0.36505353 -0.083117604 -0.053680718 -0.27194324 -0.19845636 0.103711285 0.15340702 0.03950984 -0.0039514424 -0.058044996 0.08934272 -0.15378456 0.22572668 -0.1335742 -0.026830124 -0.11117617 -0.175664 0.046701916 0.06175108 -0.037038617 -0.15950802 0.100922786 -0.1327734 0.114594415 -0.005274687 0.09092836 0.12495599 -0.23178156 0.08260793 -0.22541438 -0.10230617 0.26903194 -0.32106024 0.06187337 -0.2435902 0.031143244 0.18461804 -0.27643248 0.29027438 0.22052541 -0.026935134 -0.38392508 -0.20672114 -0.06251293 -0.28771356 -0.17116043 -0.22843863 -0.23849082 0.332545 -0.00720121 0.11955098 0.12920347 0.00664981 -0.110416174 -0.22191693 0.042695787 -0.47560877 -0.10880598 -0.01972253 0.2672844 -0.46488902 0.19988896 -0.16029699 -0.17549719
1802 0.29200414 0.083344266 -0.17170656 -0.048586916 -0.31206656 0.29256308 0.20510148 -0.22477216 0.034817286 -0.019104488 0.015695905 -0.42392868 -0.02127415 -0.0029164928 -0.22316958 -0.19806898 0.06409668 0.13572 -0.0825795 0.0931343 -0.45073488 0.10950635 -0.15758218 -0.08956685 0.27485418 0.023563975 0.090140164 -0.27957064 0.20351455 0.26133388 -0.38025743 0.15155159 -0.12096538 0.14449412 0.15296552 0.2616762 0.19684431 -0.28477776 -0.15955512 0.1698554 -0.07669449 -0.18300803 -0.13238594 -0.06657643 -0.18178026 0.04238502 -0.10616287 -0.1496998 0.14196406 0.006621186 -0.030002987 -0.10727093 -0.2750564 -0.1512465 -0.22856268 -0.19117409 -0.40625623 -0.08277161 -0.11456305 0.02645735 -0.13503127 0.3914904 -0.08716039 -0.2797713
2367 0.254261 -0.00025735406 0.056984622 -0.3085404 -0.28221273 0.08595632 0.30341953 0.021960024 0.16896288 -0.19676794 -0.116465054 -0.0766377 -0.09640542 0.15448631 -0.0008486688 -0.16062321 -0.2483586 0.004544521 -0.09778734 0.3556138 -0.08734636 -0.08125288 -0.21157676 0.13729326 0.046940874 0.38902646 0.3228988 -0.3237925 0.00815877 -0.22253731 -0.1863746 0.013895507 -0.32360977 0.25627297 0.21544778 0.11234119 0.08381197 -0.038555507 0.1508606 0.22609 0.15046369 -0.13250725 -0.24253772 0.1696486 -0.17738596 0.07745209 -0.12469787 -0.010981625 0.22673002 0.064899646 0.21700497 0.07095161 -0.122103274 -0.2651622 -0.08598782 0.06602333 -0.57703686 -0.16392572 0.033100285 0.2929577 -0.058058545 0.38787484 -0.11848007 -0.12356127
868 0.20862672 0.054185353 -0.024352442 -0.28461826 -0.037532732 0.076266006 -0.006671959 -0.058192037 0.26470825 -0.04950218 0.07826465 -0.06408755 -0.1789108 0.07520051 0.037077807 0.10928944 0.09483721 0.21652362 -0.23474309 0.41658083 -0.27502862 -0.024955623 -0.26331314 0.07819972 -0.1109241 0.027391974 0.13676104 -0.2179325 0.13502441 0.182892 0.08198959 0.13522588 -0.029857915 0.057936467 -0.24488385 -0.1362551 0.14681982 0.058986854 -0.09448188 0.221091 0.0069357352 -0.22298215 0.03040371 -0.101531446 -0.12364172 0.07266795 -0.2589727 -0.1986582 0.40442508 0.23701419 0.040883996 -0.08577044 -0.39185545 -0.14083077 -0.022992734 -0.21965761 -0.13132614 -0.32804754 -0.25312442 -0.0021268232 -0.14391433 0.3308417 0.022821274 -0.2715123
1611 0.20511796 -0.09875996 -0.20037912 -0.039325245 -0.13906756 0.27829698 0.20109667 -0.29766572 -0.023456404 -0.18127388 0.20885205 -0.14894333 0.013234005 -0.12561315 0.0073984955 0.13730708 0.10892744 0.0054018362 -0.051355477 0.5495058 -0.073107064 0.13573536 -0.19369364 -0.21046034 -0.1479231 0.074877515 0.19392854 0.05903464 0.2831231 0.24591412 -0.24323937 0.083372794 -0.0457935 -0.08598144 -0.009939134 -0.081678286 0.28137016 -0.15027374 -0.08298438 0.1244502 -0.02003214 0.011110415 -0.3916377 0.102079846 -0.031732194 0.105897374 -0.27319124 -0.16945654 -0.09982469 0.39381838 0.04023949 0.17783274 -0.25750658 -0.14573193 -0.15286447 -0.12684569 -0.1868157 -0.29512218 -0.13823067 0.021631595 -0.39867193 0.29013696 0.048298802 -0.08808078
678 0.41863003 -0.080080755 0.07032041 -0.17550038 0.04707192 0.057885416 0.07064628 -0.035490442 0.037454102 -0.1073388 -0.0051560802 -0.13507624 0.20765802 0.26190093 -0.1751173 -0.20210552 -0.05966133 -0.008971668 -0.36059457 0.2312863 -0.19048811 0.07779352 0.046716284 0.11082411 -0.21882789 0.31694344 0.02528614 -0.3421289 0.043668758 0.13271104 -0.15411237 0.024436848 -0.11068282 0.20755692 -0.034288898 0.01987502 0.34947675 -0.08192788 -0.016698215 0.25639832 0.075970426 -0.010075181 -0.24159293 -0.05532061 0.23814735 -0.064513266 -0.008377643 -0.08650658 0.2501048 0.1388532 0.1976552 0.08654018 -0.21222745 -0.19981106 -0.243032 0.15239786 -0.12505104 -0.14424655 -0.23551027 0.21125731 -0.35384643 0.4773056 0.10251806 -0.30344677
1277 0.35164985 -0.023388179 -0.19162984 -0.16340022 -0.040991653 0.19693477 0.101169534 -0.036107615 0.09208037 -0.025028868 0.16723476 -0.06985608 -0.25331563 -0.013724266 -0.20877782 0.1494942 -0.061105587 0.08815018 -0.105373114 0.1297262 -0.06834587 -0.04330824 -0.38902795 -0.1220024 0.013279286 0.20438482 -0.07999463 -0.17684595 0.03007343 0.047029212 -0.2203333 0.05167355 -0.05221493 0.29716578 0.08509908 -0.14112477 0.25605422 0.07651601 0.02885902 0.20225908 -0.09038974 -0.19176862 -0.10249887 0.0062712687 -0.06855465 -0.025700105 -0.22628734 -0.050318524 0.40139177 0.17623134 0.38253534 -0.25883222 -0.5107605 0.02457161 -0.25328982 0.12895758 -0.30411902 0.19123553 0.009518078 -0.032285262 -0.43947992 0.17828831 0.11168105 -0.10695879
1837 0.35418364 -0.12737888 -0.19378673 -0.19009511 -0.18669952 0.22063012 0.14853463 -0.1977564 0.040484063 -0.35063654 0.11877293 -0.06358467 0.25513583 -0.01668373 -0.26359144 -0.32245296 -0.19331066 -0.08613048 -0.17059274 0.2980868 -0.15467814 0.07612572 0.101187326 -0.24654181 -0.16864699 0.2407317 0.299302 0.035778847 0.05029422 -0.29048762 -0.27247357 0.2466797 -0.37151045 0.09409 -0.05054758 0.04165738 0.29064125 -0.056499686 0.07107567 0.3171852 -0.23577452 -0.081293344 -0.2803901 0.061406627 -0.39207304 -0.051211063 -0.30391744 -0.15613922 0.15679854 0.11043313 0.0995551 -0.124781355 -0.1531982 -0.2624158 -0.17941166 0.17869386 -0.20926432 -0.14276202 0.04394459 0.35640788 -0.093332574 0.22125345 0.27102703 -0.12367438
1440 0.35935962 -0.10130693 -0.31164685 -0.040343534 -0.037060697 0.13163513 0.2991018 -0.20507206 0.14702941 -0.20651163 -0.0016450239 -0.23334329 0.28463 -0.05497101 -0.08862021 -0.030193474 -0.34904128 -0.030418567 -0.3701109 0.105854854 -0.19004813 -0.019634724 -0.22185661 0.010911887 0.2322644 0.28916314 0.12142644 -0.38066775 0.32927448 0.13369235 -0.2921756 0.042046443 -0.011520672 -0.15183435 -0.08689624 -0.122008696 0.1087795 -0.18039717 -0.07275759 0.14050344 -0.065932155 -0.114987165 -0.21456641 0.051225014 -0.10711944 -0.03919569 0.0033247527 -0.032622874 0.13460577 0.037284475 0.18174364 -0.105521634 -0.341701 -0.06075724 -0.049224626 0.08663768 -0.097227685 -0.21438444 -0.053272847 0.005947918 -0.34485224 0.4212269 -0.18507983 -0.09454856
875 0.45071888 0.07836149 -0.05342446 -0.07672929 0.047182802 0.23201174 0.0019400702 -0.022177787 0.2238844 -0.10761634 -0.09192007 -0.19833162 -0.12396879 -0.07124301 -0.0768107 -0.1177686 -0.038677633 -0.008268924 -0.0935394 0.23699787 0.0137774395 -0.27703127 -0.12767518 0.038228493 0.012229853 0.03872419 0.06687013 -0.14855085 0.10707782 0.10143308 -0.03437924 0.15778452 -0.37354702 0.19087556 -0.34159762 -0.1893093 0.34148872 -0.1466752 -0.059372608 0.18766989 -0.19924355 -0.3173705 -0.36228818 -0.27771476 0.019801749 0.11168806 0.039327696 -0.061547287 0.26656803 -0.009182168 0.32305384 -0.100076795 0.041505743 -0.11007342 -0.1430457 0.13811436 -0.5050171 -0.0156105 -0.056986388 -0.14527759 -0.09982662 0.2034129 0.15175252 -0.19412099
869 0.33464852 0.083396345 -0.12609681 -0.17697328 -0.30206278 -0.012341066 -0.02012526 0.014430767 -0.0255954 -0.21853036 0.0055238158 -0.1596147 -0.24759878 0.041761976 -0.01871509 -0.12372462 -0.022487568 -0.15230359 -0.35268822 0.13827963 0.004551438 -0.022285093 -0.019294312 0.09694312 0.0578029 0.1638185 0.121567376 -0.31069806 0.25282103 -0.052040476 -0.34011325 0.15056345 -0.07422475 0.03355389 0.0029644414 0.046714734 0.16477565 -0.2386533 0.100681044 0.22023697 -0.19576824 -0.043909892 -0.20439328 -0.13419469 -0.08060079 0.07606816 -0.15900217 0.10635121 0.35999578 0.06758659 0.08591871 0.14881867 -0.1842783 -0.10002058 0.29090497 0.21664374 -0.2244996 -0.18619299 -0.06909894 0.15826519 -0.37008014 0.54954165 0.002099971 -0.03353093
1096 0.39256158 0.0825764 -0.17845173 -0.3249286 0.052434705 0.103547186 0.25191668 -0.30298287 0.014527546 -0.08282536 -0.17876637 -0.13459717 -0.26593903 0.028082209 -0.30569485 0.098031044 -0.24562451 0.08892443 -0.35869083 0.2685827 -0.16999876 0.15270887 -0.096620575 0.30494052 -0.103515804 0.17453529 -0.035458937 0.06674215 0.07075754 0.09246527 -0.17498142 0.08947464 -0.2932413 0.045426168 0.0016618117 -0.0071089193 0.28429568 0.0009323693 -0.14511012 0.08907143 -0.06891295 -0.21308182 -0.2175706 -0.21289599 -0.13803002 0.056443367 -0.2505507 -0.10331178 0.3762846 -0.017884664 0.005815354 -0.3170836 -0.20805202 -0.12640445 -0.14995912 0.10212884 -0.027475942 -0.012474855 0.14227185 -0.08801383 -0.043347027 0.07711004 0.33196187 -0.4459763
1016 0.22718734 -0.06777331 -0.2688251 -0.03056638 -0.17510563 0.10114109 -0.06775148 0.083106585 0.08545105 -0.20063818 0.033935443 0.11464116 -0.14656468 -0.09454176 -0.19302526 -0.19228137 -0.113732286 0.084096156 -0.28016996 0.15821801 -0.11737172 0.15298942 -0.25116098 -0.028742852 -0.10581648 0.2587108 0.095061325 -0.1602932 -0.059618425 0.17764309 -0.12219289 0.036271423 -0.33421323 -0.023647947 -0.3634072 -0.022108477 0.4230983 -0.024863193 -0.09811793 0.13162628 -0.24054989 -0.2867601 -0.31600222 -0.06158726 0.06973578 -0.20387802 -0.12563342 -0.008599847 0.27157626 0.3829285 0.0102432 -0.31167924 -0.117444836 -0.06100758 -0.14155415 0.2889428 -0.24648747 -0.105386645 -0.13263837 0.06889027 -0.36097005 0.17475748 0.010116089 -0.23409621
2368 0.19046047 0.004486728 0.12789729 0.03317209 0.17986567 0.20804404 0.16863638 -0.2521258 -0.12083806 -0.23914191 0.11624044 -0.3065523 -0.3094601 -0.1198327 -0.32403776 -0.0063928436 -0.0631442 -0.13448493 -0.21326171 0.20933443 -0.068070084 -0.16510828 0.14593363 0.17875153 0.13131094 -0.055328958 -0.056993958 -0.11157666 0.15067258 0.18022908 -0.19999175 0.34937656 -0.081684545 0.33126873 0.09132678 -0.17818548 0.011749272 -0.25364047 0.18054888 0.035175834 -0.33516762 0.1343722 -0.3916524 -0.055037618 -0.2520492 0.3099887 -0.22022921 -0.1889967 0.30765602 -0.0070835603 0.12205006 0.086359985 -0.18083845 -0.2789859 0.17451228 0.062157795 -0.264075 -0.28798538 0.055234455 0.016067404 -0.28124043 0.4059219 0.024358394 -0.24900329
1558 0.25268328 0.036451146 -0.034827493 -0.22906515 -0.12018569 0.17202921 0.10362361 0.03222984 -0.020917067 -0.058062572 0.27543923 -0.23829898 -0.14884023 -0.010751986 -0.10402436 0.0072587975 -0.0054046162 0.13733765 -0.20736292 0.15490408 -0.051269446 0.037400436 -0.10768901 0.026162228 0.063685134 -0.030337505 0.21532114 -0.11734221 0.19746883 0.018477866 -0.26650158 0.1168694 -0.32405612 0.21852647 -0.024676245 -0.07873011 0.19909485 0.21833281 0.17967126 0.34138775 0.0111156 -0.23039643 -0.18805312 -0.12319992 -0.10354605 -0.07369098 -0.37894917 -0.115002975 0.416826 0.35359356 0.08250546 -0.10350564 -0.40028882 -0.21444093 -0.20177554 -0.008063938 -0.14660712 -0.08809304 0.00060847285 0.069873 -0.20753153 0.52978355 0.18486449 0.021038627
1363 0.41116166 -0.106015176 -0.05792593 -0.102062546 -0.16484055 0.28748587 0.3038338 0.15728746 -0.020086218 -0.04680873 -0.19104666 -0.09417408 -0.09423342 0.24654472 0.1205219 0.0459328 0.037349526 -0.15194187 -0.18169856 0.20938966 -0.26891112 -0.00476778 -0.33114195 0.11462912 -0.09387988 0.056782298 -0.13720399 -0.05733877 0.05598534 -0.022149878 -0.07924934 0.15545933 -0.023864383 0.37243006 -0.022996657 -0.0043634 0.09465935 -0.22955626 -0.18484534 0.39089927 -0.026719404 -0.023018677 -0.3141057 -0.05756225 -0.29864284 -0.1134033 -0.08490607 -0.0075503346 0.37943077 -0.06721959 -0.06425124 -0.07796637 -0.24391167 -0.17635365 -0.052351784 -0.034669902 -0.28148594 -0.14912303 0.016508456 0.25362828 -0.2773434 0.39223534 -0.14131507 -0.11845209
743 0.3689139 0.06860157 -0.36439258 -0.037112538 -0.27754146 0.28538954 -0.011293699 -0.10232272 0.10393017 -0.10353368 -0.15164593 -0.05404739 -0.13966915 0.16745174 -0.025802808 0.25809354 -0.063260004 0.011684388 -0.24816385 -0.05523293 -0.25460333 0.14555217 -0.23712358 -0.086083196 -0.19610871 0.07275039 0.24925938 -0.29290825 -0.041024476 0.026457714 -0.19065937 -0.227449 -0.26987737 -0.097090505 0.018593699 -0.06958129 0.35926065 -0.056258973 -0.018302646 0.08645003 -0.35787013 -0.46505728 -0.60856116 -0.031172745 -0.034328356 -0.07302876 -0.22912848 0.10686877 0.13155845 -0.11510466 0.15677047 -0.15064849 -0.18847108 -0.17196392 -0.24314371 -0.03517429 -0.1895098 -0.16609985 -0.12387987 0.14928585 -0.16501562 0.3289352 -0.1210161 -0.08904312
1957 0.50975126 -0.069635116 -0.18125275 -0.049426094 -0.052895084 0.10918501 0.2459254 0.000109422675 -0.19418773 0.14001974 0.07376723 -0.20524827 -0.117824115 -0.15954423 -0.0050822566 -0.06787607 -0.13430528 -0.20565428 -0.29159072 0.29834703 0.028672488 -0.06253331 -0.14499892 -0.08083565 0.047117226 -0.043801274 -0.10121646 -0.3504995 0.07252307 -0.18331246 -0.11406727 -0.019822506 -0.12584516 -0.042668443 -0.0068437187 -0.0467134 0.0017848348 -0.12091556 0.09761723 0.23435418 -0.120287806 -0.26726526 -0.46330652 -0.035448566 -0.11514367 0.14994512 -0.20139326 -0.16125777 0.31369814 -0.20853125 -0.08349279 0.06479604 -0.1204781 -0.2651707 -0.029831063 -0.104671955 -0.18955109 -0.18738404 -0.31101567 0.22709547 -0.21843404 0.29215288 0.18607137 -0.1653836
953 0.41582173 -0.055984296 -0.13272165 -0.12694015 -0.07689046 0.1762449 -0.15506347 -0.03331244 -0.066664055 -0.056874495 0.18422559 -0.3969176 -0.18512838 -0.01283815 -0.17821352 0.014381438 0.054158054 0.017603865 -0.4504269 0.46547008 -0.17088911 0.22082067 0.08418219 -0.018324262 -0.10600316 0.16004649 -0.0012716855 -0.01839656 0.09553853 0.034012046 -0.2179935 0.12973629 -0.3809897 0.073859744 0.003301171 0.1217695 0.32725433 -0.20095433 0.033979155 0.20843963 -0.40851903 -0.104970016 -0.093588166 -0.15014009 0.015678333 0.123487085 0.21669574 0.06382518 0.31201276 0.060385026 0.025644833 -0.030188663 -0.09497294 -0.3088018 -0.068632066 0.071046226 -0.28910193 -0.098404 -0.32545915 0.12490052 0.020635432 0.30386811 -0.038792238 0.038587738
568 0.4167775 -0.17510669 -0.08296901 -0.15593912 -0.14090438 0.15154877 0.3019377 0.035322502 0.14904444 -0.26407656 0.112834595 -0.03575571 -0.3754198 -0.006064044 0.0048462353 -0.05211368 -0.0766525 0.0014443932 -0.24400598 0.14182977 -0.03843589 -0.024441058 -0.22791919 0.20700756 0.121660724 0.1453461 -0.06941627 -0.21712388 0.020248938 -0.025764763 -0.16206217 0.13800274 -0.022595901 0.157559 -0.25196424 -0.018233739 0.2717355 -0.104338445 0.010107614 0.046404388 0.07279667 -0.30253696 -0.36888313 0.045925546 -0.20235944 0.07795881 -0.23587185 -0.07488751 0.23059736 0.16143762 0.1578034 0.0818107 -0.026963007 -0.09925512 -0.045316488 -0.1797752 -0.28170103 -0.32292202 0.22871943 -0.09395687 -0.30671093 0.32106167 0.29267898 -0.1801918
729 0.476388 -0.17024109 -0.2822317 0.004619246 -0.3350467 0.3335717 0.2210436 -0.30107325 0.20171322 -0.12145805 0.078405716 -0.24788307 -0.073095806 0.044249948 -0.19177443 0.011291863 0.044740282 -0.050088715 0.046597026 0.11524523 -0.2606303 0.13640496 -0.29533967 -0.035821483 -0.019725718 0.10001526 0.09521311 0.031333983 -0.09106763 -0.081018314 -0.24243064 0.16235529 -0.24048801 0.20393914 0.03579681 0.014204455 0.15049289 -0.08986576 -0.069618896 0.34863278 -0.05935604 -0.19927363 -0.2768252 -0.12960911 -0.13649772 0.19559398 -0.12432927 -0.05451885 0.19863962 0.29638863 0.008159555 -0.11825672 -0.2034296 0.023073109 -0.11369327 0.1459315 -0.20849158 -0.11035345 -0.19058986 0.19066668 -0.26646832 0.20294984 0.10026743 -0.17671873
2535 0.19593498 0.10524349 0.053157005 -0.13841082 -0.30244467 0.24395241 0.026303193 -0.36542937 0.19197175 -0.020677397 0.08830326 -0.27369118 -0.23365137 -0.13063228 0.025944948 -0.14197496 0.08436275 -0.017615842 -0.30566907 0.4065274 -0.06578637 -0.027990459 -0.16533624 -0.07905237 -0.042716235 0.19514078 0.16800012 -0.40117556 0.025156964 0.05138532 -0.28917754 -0.076429464 -0.042178884 -0.10591338 0.056013703 0.017157385 0.18355082 -0.054097466 0.12822925 0.1921627 0.06022091 -0.21281765 -0.06547401 0.12439401 0.0038519816 0.031570625 -0.29645982 -0.19335465 0.16700037 -0.050042562 0.078245215 -0.03995251 -0.31845295 -0.08442867 -0.024476307 0.050663613 -0.24658684 -0.13019967 -0.1772915 0.25265113 -0.32528958 0.26226196 0.07208224 -0.26057053
14 0.5403344 -0.0657766 -0.07109321 -0.1529792 -0.016394405 0.20470832 -0.025306184 -0.064986885 0.1457548 0.045107093 0.005115712 -0.20054469 -0.12180515 -0.14133458 0.15865566 0.0893396 -0.09342669 0.018538952 -0.21164696 0.30144548 -0.1141907 -0.15167668 -0.083655454 0.19425282 -0.077083915 0.06413388 0.14088796 -0.15405285 0.033343494 0.16230267 -0.0285088 0.06490998 -0.14042622 -0.099529825 -0.32461715 -0.23722367 0.21887262 -0.3799314 -0.0356615 -0.11673245 0.09242456 -0.16007632 -0.06435303 -0.38949925 -0.088791035 0.22825873 -0.3773377 -0.28728122 0.17499866 0.24887459 0.06902348 -0.039976776 -0.16490309 -0.25993684 -0.13882278 0.12136142 -0.036720872 -0.17583261 -0.12149098 0.10273093 -0.36634758 0.20354545 -0.09762967 -0.2765589
0 0.28183678 0.026490139 0.029217403 0.025347272 0.1062759 0.36488017 0.14786328 -0.2777732 0.1276346 -0.0054547633 0.22001511 -0.18784003 0.090252705 -0.102285 -0.1183066 0.112728134 0.0011942827 -0.03179992 -0.18937181 0.2413228 0.013549874 0.09751241 -0.10718867 0.1530782 -0.021371718 0.1567677 -0.0019642238 -0.10365368 0.16037856 0.23027793 -0.10816437 -0.01820912 -0.16855426 0.06579921 -0.19424415 -0.33682972 0.36999533 -0.33258373 0.0641065 -0.003723183 0.017312864 -0.35129207 -0.25870958 -0.1466125 -0.21199408 0.12508805 -0.15121695 -0.10828065 0.2979139 0.29802653 0.012393681 -0.06648091 -0.077934995 -0.03084038 -0.18039362 0.06894919 -0.5681887 -0.12319815 0.007888169 -0.06359246 -0.2376567 0.020979472 0.08740182 -0.3028893
1701 0.3560315 -0.06844189 -0.19205955 0.06944591 0.052024312 0.1875085 0.14129935 -0.13482319 0.0014719049 -0.10559121 0.054139186 -0.15189886 -0.12596719 -0.25021362 -0.3039781 0.23757187 -0.06828009 -0.107961096 -0.15312368 0.18620582 -0.08409686 -0.032662697 -0.30751148 -0.12695561 0.093649805 0.41851392 -0.06914061 -0.20177847 0.114395484 -0.10182306 -0.26523107 0.1581206 -0.27964276 0.039694134 -0.04108507 0.07491452 0.2431726 -0.21339397 -0.21332559 0.13197017 -0.096155345 -0.3141262 -0.10677569 -0.24591088 -0.32935798 0.11096878 0.035677772 -0.055453412 0.4443882 0.39656493 -0.09333913 -0.014456725 -0.09134832 -0.07538496 -0.061960764 0.04500181 -0.44151148 -0.20321709 0.22040762 -0.05564293 -0.26189536 0.15469138 0.084173724 -0.16638616
708 0.34002733 -0.047134824 -0.15544575 -0.027932381 -0.13567874 0.3098752 0.021657338 -0.46320644 0.063821465 -0.11594714 -0.04137499 -0.1259326 -0.021490779 0.070439816 -0.04592108 -0.0030965426 -0.11861794 -0.22305536 -0.0833217 0.29031315 -0.10508901 -0.1727765 -0.037074145 -0.0022735589 -0.10482157 -0.00041688723 0.16186221 -0.25830555 0.26357377 0.052252453 -0.07196994 0.043165624 -0.16770378 0.38139474 -0.16398545 0.017419148 0.23255573 -0.13289467 0.091454744 0.18508424 -0.14436755 -0.18606341 -0.2775402 -0.17894036 -0.2568904 0.09407956 -0.17641503 0.05937657 0.34262076 0.034495685 0.05370259 -0.09921231 -0.098688565 -0.17238235 -0.15402955 0.09088671 -0.36323333 0.06663551 -0.07917656 0.14582406 -0.06059466 0.3619728 0.21408892 0.03823725
1663 0.3275311 -0.06691515 -0.15317011 -0.12272907 -0.008655617 0.3040875 0.41950625 0.023696257 -0.077244945 0.08530331 -0.06567306 -0.32729468 -0.12836611 -0.34569234 -0.11691676 -0.1592301 0.006239767 -0.08647357 -0.37723297 0.3987542 -0.084519796 -0.05310515 0.017012294 0.12895828 -0.08936658 0.18191533 0.23878165 -0.24086328 0.013205518 0.15659468 -0.19283101 0.081984386 -0.12711488 0.08733687 -0.03254301 0.0602614 0.008887474 -0.20232816 0.044849735 0.14223327 -0.0028253123 -0.103701346 -0.36610737 0.048396952 -0.07287469 -0.23756433 0.020566313 -0.16638927 0.12154365 0.1221848 0.03224784 0.12244123 -0.16312712 -0.109788954 0.18057449 -0.0043217717 -0.3820676 -0.448827 -0.098939076 0.15795329 -0.28417343 -0.030473921 0.043719728 -0.1490877
2624 0.45755196 -0.17481928 -0.024668375 -0.09471531 -0.09087665 0.24313135 0.18552057 -0.13695054 0.2620564 -0.03910258 -0.1064064 -0.19312404 -0.16662282 0.06759289 -0.3044402 0.11579686 -0.18407312 0.017662685 -0.1265785 0.12820874 0.083724335 0.036636088 -0.14452717 -0.12385307 -0.0833175 0.11201546 -0.083528556 -0.1663659 -0.06272298 0.14556903 -0.0777138 -0.09024076 -0.033363413 0.12478696 -0.096527666 -0.07442993 0.07336437 -0.344517 0.16433893 0.22401237 -0.05928556 -0.20295407 -0.039105564 -0.0010527666 -0.12208676 -0.010588599 0.031054055 0.16393568 0.18816276 -0.029551892 0.1670865 -0.24785651 -0.4154921 -0.14468856 0.10672856 -0.09713965 -0.36258873 -0.25744092 -0.015903596 0.15583347 -0.25258467 0.33952346 0.043317627 -0.3753373
1126 0.42339507 -0.10718795 -0.16383058 0.035785444 0.090996325 0.3179509 0.3031343 -0.212574 0.0746169 -0.19536468 0.004965841 -0.082782425 -0.19960706 0.03574567 -0.076279506 -0.0003738309 -0.14737892 -0.13833185 -0.14477937 0.25739032 -0.31157944 -0.090848915 -0.14677157 0.09667056 -0.025532067 0.12981318 0.12803799 -0.17732695 -0.09331488 -0.046153687 -0.029015984 -0.01792784 -0.35373047 0.40580034 -0.18872611 0.06395735 -0.07338807 -0.3373677 0.22716522 0.44292378 -0.118786 -0.17636666 -0.17989884 -0.06487977 -0.3121435 0.121536754 -0.17973302 -0.3119513 0.2722881 0.15845837 0.14206707 -0.0073873526 -0.1535689 -0.15876272 -0.20685497 0.13618365 -0.007567567 0.074788846 0.11978757 -0.009738328 -0.26512963 0.20757475 -0.02875216 -0.15035667
2555 0.5133698 0.31661668 -0.12647104 0.072199255 0.14335126 0.12158723 -0.021621922 0.09701817 0.12666509 0.04642101 0.13579619 -0.2893061 -0.021702316 -0.030321762 -0.078178905 0.12132071 -0.23162432 -0.03507346 -0.28811765 0.33934593 -0.14633803 -0.03940047 -0.079999976 0.1429302 -0.068476506 0.10450776 -0.13255972 -0.08078538 0.048978318 0.026520647 -0.35252687 0.1927662 -0.021212349 0.23417243 -0.010341239 -0.12816845 0.2672275 -0.112182125 0.031679444 0.3843946 0.18480857 -0.10160035 -0.22609697 -0.31065696 -0.1346879 0.13761047 -0.19131097 -0.070739456 0.25235957 0.05553771 0.075523965 -0.1499581 -0.34448978 0.16900422 0.08393382 -0.04583903 -0.10490701 -0.20514944 -0.1941243 -0.2213827 -0.41579133 0.28504407 0.0668297 -0.2533488
178 0.46190524 -0.05172649 -0.1191753 -0.028185802 -0.0006519884 0.116282895 0.14392889 -0.17219047 -0.05682785 -0.30825058 0.24797098 -0.19317289 -0.069017254 -0.044756737 -0.12928496 -0.20031267 -0.052824065 -0.060523435 -0.17545669 0.2444211 -0.03995688 0.1342656 -0.20512645 0.058201272 -0.1327759 0.14990515 0.08265303 -0.1887534 -0.023191493 -0.07221882 0.09433922 0.10259882 -0.04352488 0.14118597 -0.1410636 -0.20032273 0.14985198 -0.04084185 0.01681851 0.11916837 -0.23560919 -0.2521306 -0.37916633 -0.07308248 0.07842618 0.14498077 -0.13520218 -0.1732203 0.26960948 0.044109702 0.16182359 0.23151335 -0.24181053 -0.07914032 -0.09446826 -0.077412225 -0.3243444 -0.05197399 -0.09689734 0.095378116 -0.29567105 0.054342125 -0.12919968 -0.37215298
2115 0.29525384 -0.06508255 -0.14166193 0.022198588 -0.21438912 0.3805947 0.16116688 -0.2015097 0.2675578 -0.02534733 -0.092366695 -0.33858508 0.12374701 0.08509346 0.15615778 0.09361988 0.25088975 -0.04135073 -0.44222227 0.15872185 -0.23438911 -0.0045723156 0.018799372 0.021891585 -0.043050867 0.028851487 0.20212741 -0.40166533 0.0030337737 -0.16816293 -0.20236365 -0.15965046 -0.26873258 0.21711563 0.026919482 -0.08963207 0.27399758 -0.1377076 0.026633231 0.35473713 -0.026982239 -0.11440509 -0.35947287 0.025255283 -0.080479234 -0.00047965453 -0.34676182 -0.23865582 0.15735395 -0.26569402 -0.07538341 -0.047072764 -0.099909894 -0.020851502 0.17801331 -0.16791616 -0.29339305 -0.15626127 -0.31746587 0.2918326 -0.4849023 0.030203676 -0.07798766 0.1362596
2067 0.42154968 0.11184695 -0.06642329 -0.20711605 -0.04496814 0.3475333 0.29444152 0.09160659 -0.06741332 -0.15529104 0.013723528 -0.054456767 0.04721876 -0.071160346 -0.067485005 -0.1460871 0.08329968 0.042387955 -0.22305188 0.14675716 -0.20795593 -0.19518991 -0.31174845 0.07456639 -0.16217583 0.046552677 0.16682687 -0.1961723 -0.0705758 -0.068973996 -0.115998134 -0.09175978 -0.15741438 0.17865692 -0.14980705 -0.026039371 0.26618883 -0.38560688 -0.12807813 0.18864727 -0.14630258 -0.26560172 -0.21841468 -0.15055992 0.006226471 -0.052492462 -0.004044676 -0.0888496 0.29265502 -0.059542514 -0.010168253 -0.1292504 0.08364255 0.06019978 -0.20552179 -0.010149174 -0.58865553 -0.032657236 -0.047338348 0.3193268 -0.34786552 0.36560798 0.2171175 -0.2597789
226 0.17864166 -0.108386695 -0.0638648 0.23935382 0.046525087 0.2775755 0.028472973 -0.39831242 0.018841444 0.22673768 -0.09907131 -0.33047098 -0.060738105 -0.1315312 -0.15957999 0.11192793 -0.13230257 -0.05374339 -0.37556046 0.19451113 0.019103715 0.1398878 -0.08922439 -0.0071615907 -0.18132548 0.17619334 0.16142845 -0.15725815 0.0062604067 -0.12618867 -0.05776638 0.012918609 -0.05779458 0.26434335 -0.088204 0.05162146 0.31436154 0.10738102 0.08874936 0.26718283 -0.1699178 -0.18880995 -0.3352694 -0.07556577 0.025289541 -0.17632084 -0.43393856 -0.19704586 0.33627856 0.16873653 0.19164811 -0.20197488 -0.35942736 0.0007685322 -0.19607581 0.05208495 -0.18591458 -0.062143743 -0.066058956 -0.011292911 -0.4748719 0.3038578 0.017799811 -0.16937314
2508 0.25051174 0.02054893 -0.17563535 -0.2654875 -0.15993954 0.34351036 0.15815277 0.099788085 0.10474287 -0.009593641 0.04164862 -0.034995727 -0.38631943 0.051762417 -0.06428279 -0.17511328 -0.20295314 0.08792446 -0.32068536 0.07995875 -0.08840801 -0.20799816 0.04097606 -0.06159226 0.1661362 0.17574818 0.04348827 -0.30125582 -0.03561064 -0.010713135 -0.06921985 0.14702882 -0.15033098 0.043659154 0.06628475 -0.23076756 0.40811893 -0.09003293 -0.051498875 0.21215041 -0.097933404 -0.066252366 -0.4177064 0.10272767 -0.2934063 0.08074609 -0.11684424 -0.033283483 0.1601695 -0.20323798 0.0048895385 -0.13904047 -0.014493748 -0.114331335 -0.1106036 0.007449145 0.032128204 -0.14039426 -0.13099426 0.08407083 -0.4249814 0.23209387 -0.069484 -0.3926852
1130 0.22376586 0.048483748 -0.25873286 -0.034753036 0.023414383 0.10912952 0.35482708 -0.16057555 -0.39051738 -0.22631605 0.07040766 -0.057078805 -0.2384884 -0.0012095957 0.10059077 0.001539833 -0.17094205 0.2516161 -0.34396198 0.27029613 -0.09617159 -0.02717156 0.06818618 0.016774356 -0.053383388 0.31580904 0.048923973 -0.28262284 0.28782266 0.014953541 -0.15249881 0.03635957 0.00025240218 0.2115046 -0.0162012 -0.18071993 0.116441086 -0.10171412 -0.094285145 0.36303824 0.080075435 -0.10149934 -0.28421465 -0.23819995 -0.0128560625 0.07177079 -0.24111357 -0.0644488 0.25491306 -0.047654066 0.13427566 0.08136003 -0.37888002 -0.07767548 -0.09144941 -0.037475437 0.038934346 0.0128105935 -0.044595767 -0.07220559 -0.3718562 0.24728906 -0.001120076 -0.15859677
1708 0.12653781 -0.02551973 -0.25286108 -0.22267973 -0.15053819 0.173168 -0.088734284 -0.042248234 0.029732384 -0.07685321 0.14789878 -0.13921796 -0.16523524 -0.056895368 -0.041746315 -0.065851144 -0.10389962 -0.041541886 -0.16949272 0.34278205 -0.36258116 0.042128585 0.06361343 0.0008596308 0.16153923 0.1667793 0.05520634 -0.23187882 0.025711056 -0.00797104 -0.045135263 0.1732249 -0.21111138 0.17396185 -0.13842861 0.036902092 0.34347728 -0.29905364 -0.07835524 -0.02151687 -0.117273964 -0.17587362 -0.4729663 -0.18093386 -0.000719556 -0.010009055 -0.2528142 -0.2073529 0.31277567 0.15715331 0.144395 -0.030266821 0.11903924 -0.28291592 -0.19597271 0.12421045 -0.386032 -0.26601872 -0.03154667 0.14873172 -0.4979351 0.024142273 -0.12003949 0.0005390672
2320 0.28687727 0.024358235 -0.16232212 -0.07211858 0.041277178 0.29439187 0.09252259 -0.33154598 0.13824445 -0.12063179 0.14397453 -0.1195356 -0.121410795 -0.10993872 -0.00687844 -0.18780203 -0.13699353 -0.11743398 -0.42891788 0.23757046 -0.049405873 -0.006124441 -0.05813454 0.37756538 0.016648386 0.107095286 0.024869319 -0.15292965 0.21272202 0.005329897 -0.24065234 0.014143486 -0.20463261 0.12389447 -0.045843072 -0.07987749 0.1373665 -0.1479509 0.12938128 0.098881625 -0.2047241 -0.07703384 -0.24253342 -0.20236635 0.066757634 0.09790839 -0.1472635 -0.21262568 0.1718197 0.21426797 0.17522438 0.14187561 -0.26696 -0.25193086 -0.21502534 -0.20770071 -0.30661532 -0.09463785 -0.12737077 -0.033430215 -0.1457302 0.23825112 -0.02970304 -0.2604275
2204 0.4927924 0.07348905 -0.23037788 0.016790748 -0.37055552 0.055376995 0.28457937 -0.15448035 0.08423543 -0.09148414 0.15332936 -0.32100987 -0.052371524 0.16333216 -0.015931977 -0.007418783 0.05094697 -0.15379733 -0.18492562 0.18624519 -0.26058337 -0.1802531 -0.16846433 -0.18580134 -0.034368917 0.11802178 0.13150014 -0.12224963 0.07760707 -0.04764807 -0.13978562 0.16552022 -0.045421783 0.2751389 -0.09193383 -0.29036367 0.17687427 -0.3199312 -0.24334718 0.2829152 0.1603333 -0.22823185 -0.3277409 -0.2033124 -0.13567181 -0.10093387 -0.26159608 -0.115034625 0.24863207 0.1528703 -0.06411518 -0.033243667 -0.01599725 -0.036434017 0.082166664 -0.020700185 -0.10151014 -0.25982463 0.04556468 0.025956266 -0.3652178 0.19195478 -0.14928444 -0.103925176
2559 0.34035873 -0.14472374 -0.29572833 -0.14264748 -0.08127793 0.33353555 0.12813994 -0.041938104 0.18722056 -0.24003771 -0.17979 -0.02737597 -0.033743124 0.13908155 -0.24395913 0.0030222337 0.014710354 0.026677985 -0.40783903 0.25258058 -0.024646109 0.11112083 -0.28089416 0.13525839 -0.08383175 0.1732946 -0.1170434 -0.26308906 0.3069368 0.16680953 -0.0037228363 -0.14602819 -0.42294782 0.27901667 -0.0971773 -0.08310328 0.06314207 -0.24613905 0.14863044 0.05619617 -0.03592479 -0.06819446 -0.34876254 0.31818092 -0.070298314 -0.018134225 0.048590396 -0.16039102 0.07804102 0.21388894 -0.1331384 0.24984041 -0.21885201 -0.016640062 -0.22101638 0.040087387 -0.24055286 -0.3093507 -0.01623908 -0.339943 -0.33297363 0.4388507 -0.248236 -0.007316286
1386 0.32124516 -0.00053294265 -0.106168784 -0.17974754 0.058229435 0.2621134 0.29404074 -0.14667766 0.015258141 -0.11840904 0.21177854 -0.33181745 -0.27680323 -0.013709137 -0.16931999 -0.09545319 0.019389918 0.0683254 -0.25545603 0.17325413 -0.055947497 0.157576 -0.08780877 0.057785295 0.114889674 0.0791029 0.10211623 -0.29252985 0.03832568 -0.009094902 0.008338814 0.271088 -0.08336949 0.24305311 -0.08158557 -0.006817387 0.4769234 0.20272027 0.048541952 0.30077142 0.008445394 -0.19656418 -0.057438836 0.009368232 -0.13483423 0.18476446 -0.19909531 -0.2609074 0.18525818 0.16093336 0.0043553747 -0.081175566 -0.13056044 -0.10565445 -0.21234258 -0.02308796 -0.24157396 -0.057702653 -0.058496196 0.14064808 -0.19875212 0.5626424 0.059172824 -0.0459411
1119 0.16082892 -0.17097613 0.0809481 -0.10677304 -0.16656813 0.4246409 0.19848375 -0.21518739 0.0822058 -0.08477173 0.08948331 -0.2034974 -0.35762587 0.039090134 -0.00014050808 0.20092283 -0.16108897 0.22810112 -0.22244945 0.16876338 -0.12048799 0.24720772 -0.07652499 -0.12214292 0.015058562 0.02768553 0.2021754 -0.42316577 0.10755372 0.1157793 -0.1256595 0.003847084 -0.2144379 0.15974581 -0.036236715 0.07024865 0.35368973 0.13675117 0.05621097 0.034953754 0.070396535 -0.25703943 -0.41630414 -0.02040822 0.0821976 0.17843372 -0.16975218 -0.03144952 0.15756336 -0.104772 0.039828777 0.13198836 -0.22697377 -0.0067542978 -0.095620625 -0.043057892 -0.38366657 -0.28616318 -0.27357918 -0.027810242 -0.3962561 0.1738644 0.19523424 -0.12599443
2539 0.3409048 -0.1601244 -0.21124937 -0.19676282 -0.108874045 -0.024871692 0.2570606 -0.029463628 -0.14979345 -0.29955912 0.11586221 -0.19597653 -0.29485956 -0.08788045 0.16720957 -0.016798263 -0.062178247 0.22149082 -0.16945788 0.37065932 -0.08340679 -0.030239007 -0.225729 -0.14693221 0.05993715 -0.05579591 -0.11052335 -0.23486064 0.08817674 0.14247029 -0.24105847 0.27629596 -0.072336994 0.12521946 -0.095441125 -0.019438384 0.2749259 -0.032199986 -0.06588447 0.4360603 -0.17413278 -0.20990238 -0.2918739 -0.17027113 -0.05987371 0.31127223 -0.010997876 -0.14443162 0.42668313 0.11745927 -0.019062573 -0.08674371 -0.24951579 -0.17898066 -0.035131816 0.057192307 -0.29384047 -0.21475399 -0.31320295 -0.09404642 0.10959977 0.08332301 -0.18032333 -0.07763348
1997 0.29858702 -0.099598035 -0.42120597 -0.16121924 -0.1821534 0.17126882 0.25009418 0.19425987 0.08451782 -0.2515557 0.12398417 0.010557673 0.036469385 -0.07711433 0.039138258 -0.15201089 -0.13389784 0.027624147 -0.24174833 -0.08118838 -0.38261303 0.23922107 -0.03969842 -0.23248607 0.02896662 0.32928774 0.030622756 0.021889403 0.013621799 -0.03570904 -0.15234381 0.25647977 -0.29406995 0.22569749 0.034836914 -0.10743615 0.24172868 0.013870605 0.13064195 0.16436958 -0.14766566 0.016639711 -0.20298517 -0.10779387 -0.22510268 -0.060751155 -0.17862998 -0.0943299 0.36068577 0.12435328 0.045112222 0.054369036 -0.18660659 -0.04033261 0.057326525 0.0058494676 -0.25116602 -0.088606745 -0.15326001 -0.08354471 -0.36861232 0.102688834 0.065902345 -0.1620292
2042 0.4181488 -0.038648322 -0.10868665 -0.3596396 -0.18647124 0.4029896 -0.004919764 -0.055349063 -0.10653095 -0.16161391 0.022331743 -0.043175302 -0.23797205 0.059347488 -0.06411105 0.10263792 0.019619009 0.04780707 -0.103509285 0.4353163 -0.15846638 0.084292874 -0.09158038 0.21008049 0.04312997 -0.00874393 0.10818826 -0.20853353 -0.03388339 0.22901656 0.023612084 0.23486601 0.116782516 0.13053745 -0.2832543 -0.029957429 0.31186008 -0.024165662 -0.09330944 0.10672021 -0.07795575 -0.20308968 -0.2379347 -0.16388132 0.14122434 0.17524813 -0.35937265 0.016402023 0.30623606 -0.14082791 0.046764642 0.05380744 -0.303572 -0.19566058 -0.18448047 0.048386347 -0.12545256 -0.16175675 -0.18590696 0.10894321 -0.3384127 0.057518467 0.06590981 -0.32266292
2028 0.4795484 -0.1572712 -0.18737547 -0.12894632 0.09879233 0.15695749 0.22281577 -0.01697874 -0.25045776 0.13815711 -0.010155271 -0.17067425 0.018214626 0.112731904 -0.012738431 -0.12049713 -0.026729358 -0.0054822145 -0.23952897 0.39672756 0.12961346 -0.20141263 -0.20401104 -0.035598133 0.1886954 0.1047555 0.16072926 -0.18066446 0.041336108 0.17892629 0.06649459 -0.12789229 -0.11226755 -0.005573499 -0.03761897 -0.20047125 0.15526442 -0.20170563 -0.121856555 0.17274776 0.012100267 -0.30581632 -0.43015885 -0.09389805 0.0060027177 -0.12375577 0.039590523 0.050185394 0.3815695 0.029046642 -0.0045449524 -0.013513482 -0.061190095 -0.1026874 -0.2743813 -0.047811013 -0.13800135 -0.1614515 0.021737402 0.055465214 -0.46359542 0.007737869 -0.111561105 -0.2820706
2700 0.46373287 -0.12779343 -0.25256163 -0.09716819 -0.18411171 0.21912774 0.04112277 -0.2686202 0.019424882 -0.122366376 0.20492622 -0.053344913 -0.033192355 -0.012970599 -0.2498682 -0.009026576 -0.04743801 0.07507357 0.024469046 0.032481965 -0.34735876 0.1569553 -0.17252962 -0.096944705 0.049017467 0.19988032 0.02022812 -0.3128969 -0.058150552 -0.06175443 0.024374371 0.16059154 -0.21068913 -0.0913572 -0.031558502 -0.0079544615 0.33847 -0.18652715 -0.064429246 0.023511268 -0.26942244 -0.18578587 -0.13246122 -0.13483542 -0.19873656 0.21990295 0.031132357 -0.12864034 0.25760353 -0.030267445 -0.06858502 -0.14316082 -0.11702966 -0.011811465 -0.22441043 0.046527103 -0.1862242 0.0073276544 0.024990365 0.04581882 -0.44125053 0.21731752 -0.034169696 -0.373352
179 0.48363367 0.21867166 -0.17361908 0.16350023 -0.008024647 0.49148464 0.23305312 0.008387764 -0.024724739 -0.048505537 0.2175548 -0.31729433 0.016656978 0.09627787 -0.054584004 -0.18888247 0.07257695 -0.07650151 -0.24256411 0.18831804 -0.33072707 0.20149344 -0.23676099 0.24309222 -0.013028896 0.2319349 -0.11258534 -0.27611423 0.10623698 -0.037998162 -0.28563204 0.09418805 -0.10455195 0.07425202 -0.09483449 0.038368735 0.3224208 -0.09560852 0.1648453 0.06833417 -0.15959843 -0.107320316 -0.28319982 -0.15187536 0.03421404 0.12487468 -0.039014254 -0.04740264 -0.21852036 0.0453597 0.060140956 -0.04899138 -0.13881144 -0.09184393 -0.26894486 0.25303003 0.013891306 -0.2318913 -0.1011406 0.22104795 -0.35552973 0.14321493 -0.04917187 -0.119707674
2041 0.45804816 -0.13297395 -0.21104388 -0.16680284 -0.15288556 0.12472358 0.28080067 -0.2762665 0.21378814 -0.19277406 -0.16797629 -0.24494731 -0.20582998 -0.2403352 -0.06733437 -0.008306877 0.05439699 -0.21548136 -0.24846528 0.3586725 -0.18879837 -0.012327371 -0.2195698 -0.027797515 -0.13334271 0.11781108 -0.0067069433 -0.012549536 0.24142228 0.092249796 -0.032912962 0.21978775 -0.12212623 0.064357646 -0.21732256 -0.20228483 0.27026188 -0.26921996 -0.0792394 0.20931293 -0.22171316 -0.050064348 -0.22329736 -0.18092959 -0.048472647 0.13736361 -0.24736427 -0.18811353 0.058514155 0.0387435 0.1773588 0.15478195 0.015197477 -0.08469745 -0.26195967 -0.0018310276 -0.16101906 -0.14616059 -0.13667075 0.04701618 -0.13907163 0.5420606 -0.21346529 -0.037203085
2162 0.15686071 -0.0715211 -0.21133661 -0.20642465 0.08389155 0.17481457 0.27213386 -0.27957687 0.0134478165 0.023423 0.23064372 -0.111929126 -0.25590754 -0.11463412 -0.070563056 0.19011907 0.09471316 -0.17965154 -0.14267029 0.30393526 0.0101483455 -0.095235914 -0.1423847 0.16304378 0.1799096 0.14181325 0.069887295 -0.23124288 -0.03488559 -0.012522582 -0.08312613 -0.038799465 -0.21183746 -0.07159215 -0.10268213 -0.002878722 0.049159758 -0.15538104 0.17805442 0.17190176 -0.1971485 -0.33298555 -0.21554652 -0.071013786 -0.026520249 -0.06537897 -0.14122117 -0.26353267 0.21285217 0.054050814 0.22662182 -0.027277652 -0.19947147 -0.33134258 -0.11981685 0.08871105 -0.15310141 -0.13100745 0.044924088 0.31795007 -0.41364437 0.058251943 -0.0052059195 -0.19137312
2701 0.27620256 -0.029468574 0.116331 0.11282598 -0.17322108 0.008609579 0.18380405 -0.05845771 -0.05255439 -0.06520717 -0.14732587 -0.47977966 -0.01646398 0.086540535 0.057593837 0.15816687 -0.14107619 -0.07305858 -0.3152178 0.39682683 -0.24038427 0.192307 0.020291416 -0.086840674 0.052185513 0.16286181 0.3004845 -0.16223909 0.099532835 0.13531965 -0.12958042 0.03250674 -0.41050473 0.087168 -0.15117611 -0.13828708 0.2764344 -0.23916475 0.16014187 0.22957444 -0.06083582 -0.12818606 -0.30075666 -0.26082334 0.14952758 0.042904418 -0.17816934 -0.076982945 0.18992649 0.15047231 0.15459174 0.051565688 -0.20616049 -0.19652207 -0.0051562954 0.07623052 -0.049068723 -0.009369216 0.045420293 0.1275395 -0.17330086 0.28658956 0.13182944 -0.12320921
15 0.37113833 0.07794868 -0.336822 -0.06943795 -0.15841992 0.262956 -0.05680658 -0.22137955 0.110103436 0.08283252 -0.043036886 -0.06875264 -0.122685954 0.094133995 -0.050889958 0.110099636 -0.16530038 -0.08339507 -0.15121591 0.35182664 -0.2901376 -0.0056789746 -0.044094022 0.038905054 0.0055404017 -0.019895187 0.42774466 -0.14053796 -0.134184 0.2595033 -0.112352386 -0.15184174 -0.35083205 -0.29651502 -0.14138173 0.01443033 0.3856454 0.0776744 0.04318692 0.24397713 -0.16783951 -0.26655206 -0.07749303 -0.09440618 -0.21797834 0.058377124 -0.16449417 -0.16967312 0.39124352 0.055215817 0.08458073 -0.092642404 -0.23321952 -0.0565514 -0.0013957289 0.04448392 -0.09176915 -0.0895572 -0.027429512 -0.12435285 -0.21902579 0.47811675 -0.1604695 0.053045772
952 0.23459059 0.23129688 -0.020191913 -0.1347589 0.06393259 0.10462233 0.08888413 -0.09305208 -0.21189088 -0.21528597 -0.004446492 -0.3578496 -0.19354641 -0.05211525 0.08114387 -0.11502253 -0.12532984 0.23187284 -0.15182142 0.116001666 -0.12497285 0.22646359 -0.0024122018 0.1500731 0.16718765 0.21208367 0.14634183 -0.13354932 0.21185876 0.23387216 -0.08554207 -0.031982426 -0.22541699 -0.040777154 -0.19764571 -0.20907247 0.13610172 -0.0015535551 0.12859435 -0.00042792832 -0.028730959 -0.32292157 -0.24241258 -0.16924295 -0.113093026 0.13628647 -0.44677213 -0.10753866 0.41507107 -0.055391252 -0.035155658 -0.15881084 -0.118728496 0.020009026 -0.092045695 -0.022787467 -0.20077585 -0.13047408 -0.08295563 0.19027731 -0.5538561 0.43037257 0.14889939 -0.11758342
200 0.4725438 0.14411464 -0.15683527 -0.024001056 0.028445663 0.2237688 0.028066033 -0.051343333 0.14150305 -0.018017689 0.014554347 -0.13459983 -0.10419602 0.27813247 0.16847174 0.11058384 -0.21982524 -0.075214475 -0.119471855 0.11597528 0.006843849 0.036122143 -0.18046337 -0.0016417488 -0.116777025 0.31323394 0.15405399 -0.07792007 0.06635442 -0.005647751 -0.1438707 -0.00011202982 -0.20407887 -0.032773543 0.028129643 -0.05750516 0.2680755 -0.31067073 0.12705238 0.2956602 0.0074866866 -0.2110505 -0.077906035 -0.32518107 0.043703664 0.23951036 -0.3304763 -0.08200153 0.27610868 -0.017296303 0.14885563 -0.105579786 -0.18229985 -0.08990513 -0.038216665 -0.19738722 -0.28780112 -0.2544223 0.024532003 -0.07480934 -0.28006902 0.35028097 0.016084874 -0.17502506
2567 0.26627403 -0.094014555 -0.18718424 -0.18830027 -0.17239347 0.17470951 -0.06882271 -0.049729373 -0.11696997 -0.14370926 0.19851744 -0.2523134 0.20391698 -0.12182714 -0.08099442 0.10116745 0.093433015 0.078927524 -0.43990734 0.116071604 -0.29382095 -0.17310685 -0.3109643 0.051254548 -0.29493842 0.05983157 0.20573455 -0.20092574 -0.03990006 -0.067030534 -0.22850166 0.02961374 -0.09574724 0.21862653 -0.19470066 -0.012135858 0.27880293 -0.20701186 -0.029903254 0.19438869 -0.16780205 -0.13915944 -0.043977372 -0.12490305 0.007562311 -0.048998974 -0.09520732 -0.0058340183 0.42184627 0.0835632 0.041603252 -0.13839361 -0.28754795 -0.32279146 -0.0013032056 0.04180489 -0.25672588 -0.053616606 -0.3976187 -0.124445036 -0.25987566 0.36716506 -0.089918345 -0.16974336
2509 0.10847245 0.014617564 0.049128197 0.073804855 -0.17675854 0.19250503 0.3020937 0.20469846 0.033117477 -0.33805013 0.19486047 -0.36275208 -0.15565455 -0.039732054 -0.08306779 -0.0847862 -0.000861024 -0.03257515 -0.3979106 0.32254896 0.005082 -0.006533273 -0.25564146 0.0073387926 0.05940074 0.28327382 0.050956994 -0.42080796 -0.009694848 0.023804298 -0.08756954 -0.023053577 -0.25598556 0.23371404 -0.41793755 -0.031324256 0.17775336 -0.17134558 0.073498316 0.30594462 -0.12228338 0.010308896 -0.2160987 -0.050317146 0.23988834 0.10202619 -0.088399485 -0.028123928 0.23410976 0.09893111 0.15681969 -0.054392338 -0.06213091 -0.15068264 -0.040069334 -0.017017921 -0.20795397 -0.032053165 -0.028788295 -0.15296474 -0.40820384 0.2828801 -0.099877544 -0.30621415
2032 0.28671715 0.19378531 -0.094330244 -0.18087249 -0.15902996 0.10530853 0.030836422 -0.19893691 -0.0009869526 -0.40513745 -0.023080014 -0.25170794 0.021114156 0.18512616 -0.030451976 -0.07814524 -0.0119867865 0.17818344 -0.120184466 0.13133027 -0.25253785 0.35851637 -0.08448998 -0.10077938 -0.18775858 0.24081498 0.11642783 -0.40096018 -0.14134216 0.24515529 -0.10824302 0.09933236 0.07332201 -0.09741579 0.042572267 -0.19778293 0.20862526 -0.08851227 0.053317368 0.21338943 0.039898004 -0.2577644 -0.341264 -0.123084806 -0.038201287 0.20067106 -0.18792747 -0.02339107 0.32549262 0.056803048 0.15905426 0.30909 -0.20360042 -0.18961367 -0.043929107 0.14887872 -0.3337814 -0.12637271 -0.09213759 0.14901312 -0.42781264 0.0029731514 -0.060166463 -0.35587242
2114 0.42464498 -0.016675713 -0.1429591 -0.064611055 -0.27560592 0.06372323 0.12550594 -0.052240163 -0.087081365 -0.1468578 -0.030182665 -0.21518746 -0.24078442 0.07751658 -0.20476384 0.09592576 -0.11060753 -0.056980163 -0.15522327 0.2903083 -0.2485605 0.03997193 -0.05881344 0.1520202 0.15394281 0.088789 -0.09760497 -0.070064895 0.14182329 0.18335581 -0.2071258 0.19589224 -0.051014602 0.39162868 0.017117232 -0.16192375 0.13256523 -0.29052204 0.27925897 0.028648214 -0.12041685 -0.13733982 -0.313233 -0.05843662 0.048029803 0.058343366 -0.36381465 -0.09573585 0.25842643 -0.02008592 0.07006698 -0.004509687 -0.272755 -0.12191984 -0.034088995 -0.010472026 -0.14236039 -0.048751112 0.19193046 0.1079789 -0.23105375 0.2764242 0.039834708 -0.2388448
2009 0.35694453 -0.252577 -0.088844545 0.008678381 0.049523886 0.00090469193 -0.0006125722 -0.0869726 0.03490611 -0.34166485 -0.12577964 -0.20941554 -0.14464775 0.00090092164 0.14319363 -0.00838608 -0.00443823 0.027840143 -0.07141778 0.4358132 -0.34636697 0.07206809 -0.11497025 0.07935606 -0.026109759 0.11672289 -0.032420523 -0.25520015 -0.06431343 -0.027220583 -0.21453013 -0.086286314 -0.028381124 -0.04966987 0.10839253 -0.16826066 0.28724036 -0.042825412 0.044950653 0.17300119 -0.16048557 -0.010206448 -0.4082646 0.014751979 -0.071340464 0.29767394 -0.21796066 -0.06947293 0.31574386 0.14486338 0.16852404 -0.026648512 -0.38954955 -0.15856363 -0.09606843 0.0005882909 -0.2483458 0.074028544 -0.12745382 0.36111632 -0.31336224 0.14699289 -0.049612794 -0.1363363
899 0.46262553 0.13650453 -0.19845425 -0.027183708 -0.13660552 0.43141893 0.27103007 -0.09075047 0.13677411 -0.1590325 -0.072800964 -0.2608367 -0.24677022 0.055222075 0.019739747 0.11549466 -0.100643806 0.025676277 -0.28302267 0.32105106 -0.0999002 0.26218233 -0.20781358 0.2734219 -0.019810194 0.38555565 -0.028786175 -0.12347509 0.16940807 -0.048790686 -0.1432771 0.16273312 -0.054061767 0.24197328 0.0031400365 -0.043274388 -0.1892106 -0.2670015 0.07833735 -0.019827615 0.12056612 -0.44894558 -0.30351815 -0.164555 -0.18921158 -0.059512075 -0.14818417 0.0036769395 0.09434617 0.16437478 0.04991382 0.15038244 -0.0375884 -0.14552574 -0.029303333 0.15375964 -0.11084927 -0.37888294 0.043057334 0.28177583 -0.35280576 0.36304748 -0.09504092 0.039493013
169 0.27909702 -0.20525655 -0.0018294384 0.04095353 -0.2680981 0.096112385 0.031091768 -0.029256972 0.021419581 -0.00866761 0.13062972 -0.10758737 0.020473793 -0.027022764 -0.30970722 0.25445765 0.05829623 0.25199488 -0.07120509 0.2601397 -0.28420165 -0.031872988 -0.16453429 0.34764326 0.20962055 0.16207275 0.17559712 -0.10991453 0.18450128 -0.15251817 -0.189493 0.28346646 -0.12379491 -0.113690704 -0.2832323 0.02465685 0.1998072 -0.14812501 -0.06970151 0.13474388 -0.30877644 -0.12238381 -0.25593922 0.022914978 -0.000361834 0.029513335 -0.3734665 -0.27932373 0.16471107 -0.0009575644 0.017596144 -0.12109218 -0.3825125 -0.11344272 -0.15473539 0.11432389 -0.36684018 -0.055611044 -0.20095518 -0.009558726 -0.5159261 0.27253845 -0.2679678 -0.015625466
2064 0.44608852 0.14568168 0.045143966 0.11492164 -0.028192772 0.32610434 0.1621201 -0.25934613 0.30510333 0.028082749 -0.19465804 -0.028013846 -0.1545968 0.20655484 -0.05397986 -0.01538029 -0.16337423 -0.013435081 -0.28271887 0.20758481 -0.117411435 0.110277176 -0.072477974 -0.009353169 -0.09615822 0.121528424 -0.18637733 -0.22528948 0.09091212 0.19673109 -0.103779666 -0.20770115 -0.20185599 0.15362248 0.031434894 -0.027801208 0.3792823 -0.3844816 0.019899858 0.2233156 -0.16244163 -0.34307802 -0.34797925 -0.30221206 -0.09775666 0.20007135 0.007064624 -0.100508556 0.2551611 0.1421641 0.028124971 -0.19378893 -0.04025041 0.04455654 0.03682382 0.12451092 -0.23310786 -0.07338597 -0.06412109 0.117453516 -0.2084582 0.15296616 0.21878122 -0.40072018
1894 0.23558591 0.14829099 -0.15489005 0.06731513 0.06433114 0.23238803 -0.23758166 -0.2939724 -0.061054833 -0.25362936 -0.051694337 -0.10005956 -0.026861764 0.14108068 -0.057976115 -0.14190456 0.04927511 0.039878037 -0.28727004 0.29965323 0.029636709 -0.16961785 -0.22494133 -0.12893748 -0.042546563 0.07325515 0.20217028 -0.16143559 0.1437454 0.049905013 -0.13781098 0.1469236 -0.13906421 0.09781871 -0.13099603 -0.11380174 0.36422768 -0.12869574 -0.12983301 0.11313479 -0.11463267 -0.18961498 -0.05914656 -0.09260917 0.028277338 0.03293269 -0.35226792 -0.18366106 0.3559359 0.03324062 -0.07078105 0.021403665 -0.28614882 -0.15370697 -0.28261644 -0.15410113 -0.18934625 -0.20171964 -0.16445078 0.15880635 -0.20912135 0.33009765 -0.025940673 -0.033420984
1272 0.22781666 -0.005927012 -0.1948787 0.019611696 -0.050656833 0.1329322 0.16415106 -0.3651655 -0.013309634 0.007147362 -0.29046178 -0.13348602 -0.06251017 0.22461036 -0.03227966 0.025975145 -0.08461455 -0.07670431 -0.13868125 0.5582705 -0.13458383 0.04443571 -0.14226596 -0.032739565 0.0040581343 0.093377 0.09449309 -0.2077201 0.10785483 -0.1375914 -0.07892766 0.10480401 -0.032295275 0.07453014 -0.18546897 -0.022168597 0.23622903 -0.311065 0.1386366 0.22977778 -0.14751142 -0.23330697 -0.42934632 0.19392829 0.039935626 0.05626239 -0.05689417 -0.1816982 0.22408117 -0.19126546 0.07828955 0.013798861 -0.12934987 -0.1440775 0.003853689 0.15860507 -0.035210516 -0.24133207 -0.015527242 0.1326549 -0.31425962 0.32810062 -0.25199628 -0.010128672
2600 0.42755532 -0.23801726 -0.1552626 0.044869605 -0.013457267 0.20011538 0.11734428 -0.14372231 0.01556577 -0.03461358 -0.032816373 -0.080433644 -0.08522852 -0.2739776 -0.09553726 -0.06544034 -0.15253574 -0.01179397 -0.3047658 0.13775875 -0.021180328 0.0057254545 0.080476865 -0.09705618 0.042126503 0.22967413 0.06926187 -0.13687344 -0.02811866 0.2617913 -0.36473507 0.33264858 -0.2240929 0.13449968 -0.15096103 0.053073693 0.17565398 -0.03161711 0.0783347 0.3947015 -0.019710148 -0.20853306 -0.29094964 0.12576099 -0.10845267 -0.043769002 -0.20959131 -0.0048446925 0.1588309 0.1134736 -0.063008234 -0.10223122 -0.2624725 -0.12705986 -0.2237231 0.10982102 -0.05062724 -0.3182874 -0.14955321 0.18208645 -0.1569011 0.195235 0.13612428 -0.2854042
1095 0.2009353 0.1697896 -0.034428716 -0.055087723 -0.1847958 0.2178595 0.26888454 0.12329436 -0.024141716 -0.10352667 -0.09892804 -0.05382016 -0.14185292 -0.0038495893 0.03702565 0.27178237 -0.09534349 0.010920944 -0.13017581 0.23925133 -0.2705412 0.0743881 -0.24854665 -0.17165652 0.013542035 0.23157516 0.12102153 -0.44584098 0.038670033 0.062296893 -0.18493909 0.15592903 0.031353284 0.12592188 -0.16240248 -0.11416485 0.34525737 -0.0359213 -0.1482726 0.22679876 0.017508058 -0.21703254 -0.26600704 0.06359951 -0.032344263 -0.13407551 -0.4871258 -0.17865257 0.18161243 0.33462203 -0.018864844 0.038173582 -0.30353412 -0.23984517 -0.18585962 0.09116679 -0.31078792 -0.094446875 -0.16554427 0.15227771 -0.49859983 0.08371609 0.116583996 0.06501204
2425 0.26256958 0.0047203614 0.09150545 0.07681503 -0.2096141 0.33663014 0.14720793 -0.17914963 0.1620307 0.1103294 0.003458999 -0.110666 -0.16900748 -0.063721344 -0.045499396 0.044221032 -0.046068307 -0.095168896 -0.43711627 0.2462435 -0.2086612 0.07163832 -0.13232465 -0.25284436 -0.120922096 0.0077760476 0.096159674 -0.20658554 0.03372843 0.104349315 -0.27391902 0.28516927 0.07055879 0.15201965 -0.2157213 0.056707107 0.2548759 -0.057687618 -0.08290881 -0.013681251 0.005200906 -0.26693806 -0.24515888 0.0056679538 -0.11413398 0.055276994 -0.23147307 -0.021547593 0.31838202 -0.0060150377 -0.059106417 0.13388321 -0.2631188 0.009536629 -0.022684162 0.10423377 -0.3044003 -0.36477742 -0.18790501 -0.0048576156 -0.23539075 0.44806123 -0.32500115 -0.056132212
1816 0.08522058 0.18879247 0.04880881 -0.06818988 -0.29780573 0.13537368 0.116936974 -0.34308422 0.16083956 -0.2105998 -0.012489966 -0.08793149 -0.0769907 -0.21503805 -0.27444318 -0.034908663 -0.17933998 0.039704666 0.04368557 0.26550862 -0.00531304 0.052047495 -0.2665581 -0.108628266 -0.12646392 0.16515517 -0.022342369 -0.02108898 0.077351175 0.1469948 -0.012284311 0.36227453 0.12667935 0.05265444 -0.2396971 -0.32103968 0.17770301 -0.24348018 0.0135361925 0.13756798 -0.21670778 -0.14158101 -0.3579099 0.049197566 -0.1661889 -0.03610367 -0.22943905 -0.17407031 0.2239735 0.047381483 0.034811564 0.051823556 -0.24839903 0.020629508 -0.10438729 0.099895954 -0.25743288 -0.14479683 -0.08100716 0.20142968 -0.3256426 0.48469788 -0.15291804 -0.46865377
1664 0.33291385 -0.10264896 -0.18917197 -0.32362866 -0.25123957 0.1320448 0.021419754 -0.25026885 0.06522963 -0.14702797 0.26020437 -0.30842292 -0.18652679 -0.07434943 -0.029660817 -0.0885853 -0.12010557 0.027388103 0.034216207 0.16310067 -0.07008971 0.25687122 -0.3752201 0.04850319 -0.014522211 0.016922623 0.13219462 -0.1765458 -0.10882835 0.043665443 -0.09546435 0.14388263 -0.34083152 0.0953455 -0.051580124 0.05670668 0.36085775 -0.15524171 0.14801544 0.19260222 0.022242675 -0.23206913 -0.15394935 -0.12193901 -0.12198694 0.14293556 -0.14155105 -0.22817053 0.4993401 -0.06059492 -0.024139697 0.059705835 -0.32423142 -0.1499353 -0.05716893 -0.21811326 -0.060990933 -0.065742806 0.009977121 -0.045113795 -0.35221043 0.20796941 -0.019983402 -0.2890627
1024 0.181559 0.08991809 0.13365622 -0.054747596 0.24531902 0.12541915 0.19726187 -0.2441827 0.29186195 -0.044728193 0.18940498 -0.3453755 -0.24323541 -0.060895976 0.07729565 -0.014240301 -0.32722917 -0.24851704 -0.49020863 0.19481175 -0.23509182 0.046903852 -0.21530457 0.03874701 0.053442962 0.22159736 0.14148706 0.059003536 0.019270156 0.15975909 -0.32941824 0.28855118 -0.20607053 0.1149225 -0.19928992 0.0025521321 0.40170184 0.06631728 -0.12521419 0.04766324 -0.024384925 -0.27720988 -0.3863469 -0.102506116 -0.05603284 0.058327746 -0.021580806 -0.044149235 0.2644959 0.0020915426 0.13722624 0.08488626 -0.102939576 -0.036951937 -0.058948193 0.11182128 -0.34697545 -0.19240057 0.09837043 0.07507569 -0.16886586 0.30967823 0.06335521 -0.1437685
1806 0.4700304 0.0860827 -0.031051423 0.035501074 -0.021448966 0.2591927 -0.024478843 -0.15222608 0.101486295 0.012486476 0.01425674 -0.28274098 -0.15845461 -0.23321612 -0.12193232 0.027076865 -0.2079647 0.01086231 -0.30192012 0.20139495 -0.34672418 0.03518695 -0.074484974 0.1308148 0.1985006 0.14725186 -0.066355586 -0.30987185 0.14833188 -0.05297804 -0.34821743 0.12771994 -0.037550986 0.22120547 0.20290028 -0.11347336 0.41695505 0.07921656 -0.016237264 0.020243084 0.020182118 -0.09191959 0.02112226 -0.10507109 -0.022231208 -0.10219942 -0.17971388 0.05849895 0.37413996 -0.17007318 0.13529849 -0.31151983 -0.2560259 -0.048242725 -0.11782036 -0.17271155 -0.39355516 -0.24450754 -0.20106086 0.10330227 -0.32685146 0.14656852 0.15732385 -0.22031108
846 0.3434009 -0.21308362 -0.06683955 0.08544264 0.017671071 0.20278737 -0.12268492 -0.20460781 0.3200618 -0.080260605 0.24755375 -0.050035715 -0.15847257 -0.081419095 0.014924952 -0.40645808 -0.01265104 -0.1326623 -0.29292837 0.16779737 -0.017013136 -0.17982882 -0.045635913 0.13753082 0.028644267 -0.035710685 0.028789895 -0.1654371 0.08531519 -0.18973237 -0.22765182 0.06123574 -0.10921039 0.06137071 -0.0873463 -0.1517044 0.2773444 -0.051416434 -0.018506553 0.20950416 -0.13587582 -0.107796244 -0.22720304 0.0937172 0.038498696 0.08903619 -0.22120774 0.107413374 0.24032697 0.027337141 0.14818825 -0.15155166 -0.23517057 -0.08796064 0.03885624 -0.12162918 -0.49161965 -0.3773369 -0.14514862 0.24799328 -0.34555528 0.4870741 -0.08156673 -0.069461845
2693 0.39394575 -0.08393279 0.0053785318 -0.03135531 -0.1542536 0.043799803 0.30228743 -0.020647608 0.2097111 0.037183654 -0.00041722122 -0.19182643 -0.075572744 0.095819436 -0.052136164 -0.11559124 -0.18930209 0.0661215 -0.10739388 0.24024588 -0.40337238 0.07963178 0.019117016 -0.12713557 -0.01721159 0.26317018 0.07555735 -0.35304075 0.2556017 -0.077993885 0.023189828 0.24379349 -0.23164527 0.19812179 0.16537559 0.04962821 0.3621257 -0.18801014 0.063253164 0.2798405 0.1455321 -0.17758529 -0.16016662 -0.14957742 -0.07828524 0.13283183 -0.14785334 -0.11297848 0.42471164 0.19834453 0.3388842 0.027991995 0.00031239894 0.07752452 0.008715672 0.07141771 -0.18970688 -0.13444854 -0.020975843 -0.22417845 -0.50286895 0.20214266 -0.23883538 -0.17558387
1673 0.47159928 0.045557473 -0.0038011672 0.03551779 -0.050371937 0.3252914 0.11942868 -0.107961565 0.036298074 0.033040594 -0.08567855 -0.3368905 -0.041987274 -0.08606394 -0.17757583 -0.011665124 -0.10931032 0.12678553 -0.1176002 0.05921247 -0.48626748 0.025712553 -0.03689573 0.13891053 0.21086003 -0.07065954 0.00033655972 -0.19259436 -0.06644172 -0.1557396 -0.040362015 0.33019927 -0.059081748 -0.057868972 -0.13347971 0.1228677 0.21258104 -0.21278523 0.034216154 0.18956307 -0.17346062 -0.33331513 -0.20808409 -0.23816137 -0.2430089 0.22565678 -0.05011993 -0.115493596 0.25484538 -0.0676884 -0.026127819 0.122727744 0.07616858 0.015306666 -0.048349593 0.16404165 -0.32043356 -0.160605 -0.082577415 0.029244417 -0.4801836 0.61520696 -0.05317171 0.010325773
1348 0.16644447 0.069250196 -0.09281185 -0.08714067 -0.00012985696 0.17470069 0.13165286 -0.13178791 0.08604531 -0.2829978 -0.30527475 0.09274702 0.099870846 0.05319322 -0.11003753 0.056634463 -0.013900052 0.027101614 -0.28277484 0.26044747 -0.293882 -0.002027822 -0.06561819 0.082767606 0.08177765 0.5972521 -0.14481607 -0.18381825 0.039023772 -0.068443194 -0.11160653 0.21670191 0.15205413 -0.022842443 -0.14889415 -0.22401892 0.14244194 -0.053466424 -0.009455378 0.20668164 -0.045657407 -0.1552481 -0.41604152 0.11634713 -0.27401158 -0.030258106 -0.33438882 -0.25241265 0.05452416 0.2033789 0.025231438 -0.12266714 -0.30871013 -0.03856603 -0.14047614 -0.00984715 -0.33995536 -0.2842054 0.12961496 0.23315072 -0.60915935 0.14117488 0.14813495 0.014622996
1741 0.39293608 -0.12105304 -0.27231172 -0.10503679 -0.11549873 0.18320821 0.13621414 -0.09882848 0.12259189 0.10449532 0.043946374 -0.1421084 -0.07009967 0.011150762 -0.13104072 0.07525028 -0.24992377 -0.077732675 -0.3508407 0.1539596 0.008244651 0.10349952 0.11953635 -0.0065321936 0.023194458 -0.19000372 0.12653343 -0.115643725 0.19360738 0.20897536 0.046418622 0.16552275 -0.21348763 0.026163442 0.022888886 -0.027054511 0.17450593 -0.26074284 0.0046152836 0.0951912 -0.39906588 -0.07746778 -0.31354684 0.20030648 -0.11452637 0.076044016 -0.24031667 -0.3121698 0.28729838 0.12889344 -0.15434195 0.26309782 -0.43131524 -0.07411644 0.051036116 0.044126663 -0.34361655 -0.03941923 -0.24060586 0.0769426 -0.17699863 0.20676947 -0.18276668 -0.08118382
1054 0.3409803 -0.046629317 -0.18420152 0.10554386 -0.10023391 0.13715775 0.27647257 -0.06988163 -0.09867765 0.002399275 -0.11502174 -0.06957211 -0.008607926 0.074782036 -0.03306677 0.040275503 -0.0203691 0.022426266 -0.14368156 0.29616264 -0.06641401 0.1355667 -0.082011506 0.1513059 -0.023481727 0.19180678 0.33041716 -0.16360933 -0.0029622328 -0.0706043 0.016708136 -0.050301295 -0.23848969 -0.074275166 -0.17045964 0.08452839 0.19236691 -0.2100096 0.172685 0.25293267 0.017373534 -0.19663665 -0.5814476 0.034906615 -0.01176595 -0.013746189 -0.38177285 -0.3682387 0.13403487 0.008710358 0.16576064 -0.19968617 -0.06421352 -0.061735522 -0.22873577 0.028767657 -0.050493047 -0.26249275 0.04012693 0.13857388 -0.38225293 0.0107602235 -0.06815171 -0.34188244
2033 0.19481489 -0.036064334 -0.13722578 -0.18618053 -0.14193718 0.23701663 0.29841313 -0.14667189 0.2748848 -0.24471648 -0.16860554 -0.21496233 0.086688116 0.012706959 0.068842694 -0.0026304643 -0.24226075 -0.1907668 -0.43630335 0.21095 -0.12454389 0.1943022 -0.23032035 -0.08580633 -0.25363928 -0.17785718 0.01421443 -0.23028404 -0.0148306545 0.10116236 -0.13159753 0.24758556 -0.0053033163 0.2117938 -0.07197176 -0.24763756 0.30185986 0.09167098 0.01896564 0.29871765 -0.32684517 0.0418995 -0.30325112 -0.24883488 -0.07429629 -0.04325943 -0.35418186 0.052475132 0.31591806 0.009431583 0.1571326 0.047102287 -0.19251823 -0.025522165 0.019257588 0.16344054 -0.07702291 -0.32620972 -0.2615551 0.10622909 -0.28116944 0.07355203 -0.12563461 -0.29279658
2636 0.52375305 -0.13361968 -0.26514253 -0.07810751 -0.17617106 0.47731578 0.093447335 -0.25978103 0.084464826 -0.013399027 0.22532748 -0.15138514 -0.12148265 0.08626988 -0.1157566 0.031683173 -0.040438008 -0.21148093 -0.38616097 0.066244006 -0.055029202 -0.010175286 0.05260631 -0.1710266 -0.028967164 0.18644734 -0.04676037 -0.31248364 0.037647936 -0.15715897 -0.16517249 0.23317134 0.007897466 0.24676916 -0.048827242 0.0701967 -0.051311634 -0.101789445 -0.0745588 0.2127812 0.2604352 -0.30968815 -0.4213906 0.07663415 -0.17742778 0.30735278 -0.074452534 -0.07189495 0.32108942 0.104094066 0.13804823 -0.025039237 -0.13776419 -0.12640968 0.05402274 0.21513905 -0.18028 -0.101587415 -0.08437446 0.15837379 -0.32330367 0.24291931 0.043723036 -0.1277643
900 0.4436415 0.097164206 -0.1883849 0.112441994 -0.28250703 0.3215362 0.13600187 -0.016987743 0.14542034 -0.24548219 -0.21216832 -0.021826094 0.013168745 0.050376017 -0.14173192 -0.042528346 0.21966988 -0.12801601 -0.5055881 0.15101075 -0.2751313 0.026439063 0.073866725 -0.1768086 -0.29782295 -0.102675706 0.19761015 -0.20264074 -0.039583407 0.041643687 -0.25115323 -0.028255535 -0.0915833 0.057501834 0.06443698 0.15880714 0.18426056 -0.2914844 -0.011073267 0.08063679 -0.20587146 -0.04121704 -0.515398 -0.060449798 -0.12638946 -0.18035448 -0.2866435 -0.090756096 0.2109432 -0.092357196 0.3147232 -0.005146497 -0.082607016 -0.0036762697 -0.14472128 0.21083996 -0.27564016 -0.12376126 0.17077245 0.27767465 -0.35578114 0.13069552 -0.08026418 -0.22711119
30 0.32545635 0.13500848 -0.016789727 0.2545523 -0.12679479 0.18100803 0.12299893 -0.2689398 0.10661299 -0.15552723 -0.05386537 -0.09779768 -0.119869836 -0.060198754 -0.13410985 0.07178337 0.24649133 -0.09532795 -0.26893213 0.24575794 -0.13819665 -0.011143007 -0.005799345 -0.123001374 0.1461583 0.0084746275 -0.0029032577 -0.32167086 0.097334936 0.010841199 -0.12885049 0.17251706 -0.19493267 0.17963348 -0.07262544 -0.087993056 -0.08681612 -0.021709561 -0.033882245 0.062336747 0.08771574 -0.21018392 -0.24548993 -0.1180551 -0.14517963 -0.061818805 -0.121484116 -0.16120845 0.37512583 0.10566689 -0.091758184 -0.09961813 -0.11388953 -0.32693017 -0.094488144 -0.27060875 -0.30489746 -0.25506103 -0.047480777 0.26440755 -0.4474763 0.23212576 0.19061787 -0.2171209
710 0.41800886 -0.26737955 -0.0611384 0.10844395 -0.19932036 0.22867177 0.048711505 -0.115866266 -0.0017096995 -0.18823637 -0.0049652723 -0.17277929 0.023868175 0.087708384 -0.08545483 0.022695625 -0.017363813 0.1073232 -0.34787303 0.29691634 -0.2570736 -0.0683552 -0.09265036 -0.03607768 -0.015435378 0.09931215 0.030963523 -0.31731606 -0.1214423 -0.11384823 -0.047025815 0.036372066 -0.048276782 0.21364708 -0.25257608 -0.024026828 0.3094749 -0.22928384 0.1197809 0.36297092 0.1733057 -0.18532854 -0.08437225 -0.13285919 -0.07777325 0.16110173 -0.066137694 0.023497358 0.32440943 0.15299049 -0.0050225486 -0.14734021 -0.35935923 -0.086144045 -0.24311393 -0.031557977 -0.25127846 -0.051361777 0.15198126 0.010507398 -0.30528748 0.22707643 -0.18005735 -0.09014274
2688 0.4541647 0.089023 -0.22868347 -0.11404465 -0.16860089 0.31876934 0.1744029 -0.10487318 0.19682369 0.03926053 -0.23101099 -0.09025662 -0.12069036 0.1238685 -0.29920578 -0.18641467 0.09414735 -0.1222727 -0.12081758 0.3579287 -0.047530375 -0.16410875 -0.20234619 0.0668548 -0.05621714 0.10132433 -0.13769756 -0.14488268 0.12355613 0.0046705203 -0.15527613 0.03597271 -0.2666288 0.05604904 -0.00619762 -0.0009220174 0.12527609 -0.07566087 0.015940664 0.40956452 -0.19953112 -0.04101705 -0.3415244 -0.1733029 -0.21598102 0.0960925 -0.2299391 -0.17431462 0.25471494 -0.17606862 0.10796425 -0.12622061 -0.045951556 -0.06654301 -0.17458536 0.1640026 0.035885137 -0.13257992 -0.17023319 0.079330675 -0.08603118 0.26161173 -0.004282487 -0.20874488
2574 0.42794135 0.06324972 -0.15099639 -0.14129753 -0.0497922 0.2636769 0.3292507 -0.17933106 0.1683723 0.015341659 -0.2153765 -0.1056046 -0.29624593 0.12730525 -0.2677926 0.058489148 -0.20103975 -0.059744846 -0.15891248 0.20223728 -0.16591498 -0.019768005 -0.02388631 0.23979086 0.06202842 0.19484402 -0.08350267 -0.069796704 -0.026625158 0.15702564 0.16140246 0.107904196 -0.031015897 0.31064552 -0.0067802113 0.02589469 0.087440446 -0.19482294 0.086563446 0.40958205 0.08859425 -0.33660436 -0.21026094 -0.10804078 -0.20941257 0.008593546 -0.429322 -0.145574 0.16129431 0.1168304 -0.10250625 -0.045879815 -0.2643407 0.019248389 -0.18756458 0.025503332 -0.43139076 -0.05081464 0.04348572 0.033436123 -0.0051427237 0.14515805 0.16659805 -0.15833876
2283 0.27338427 0.16554147 -0.25517866 -0.10677232 -0.07950033 0.3068078 0.26998013 -0.40669343 -0.28042907 0.054458298 0.10194187 -0.016316151 -0.0060384166 0.05130309 -0.13092494 -0.28758204 -0.01513405 0.030082779 -0.21930206 0.07193297 -0.06315815 0.0021036407 -0.07317502 -0.10776236 0.05937424 0.08399491 0.109526716 -0.3598353 -0.0019683354 -0.002800951 0.00023655841 -0.15239286 -0.07556611 0.115402594 0.07659232 -0.037827067 0.23348492 -0.26692295 -0.15152012 0.2687982 0.09866462 -0.37765846 -0.06772223 -0.3286888 -0.09995823 -0.016935272 -0.32926708 -0.19774826 0.5176537 0.15764922 -0.12850542 0.12681353 -0.24795105 -0.09726852 -0.17595741 -0.18983285 -0.38664895 0.03845718 0.1021001 0.22169866 -0.2672243 -0.035132922 -0.09138774 -0.14977823
1446 0.32599646 -0.27503803 -0.18024582 -0.12634598 -0.058601983 0.125368 -0.12112065 -0.11288168 0.091712214 -0.22219853 0.09006583 -0.20373392 0.024155732 0.22826834 -0.21027559 0.054274376 0.0049465597 -0.0132712 0.1219549 0.26628384 -0.32850716 -0.054878253 -0.017180579 0.016945405 0.009291473 0.0525178 -0.015386078 -0.2095641 -0.021972228 0.25712386 -0.108556256 0.3776258 -0.05235412 0.1080626 -0.186443 0.07144318 0.19738573 -0.25184703 -0.015333372 0.08344302 0.004884344 -0.07244436 -0.3632267 -0.108696155 -0.076387204 0.24302767 -0.039890103 -0.041933358 0.339857 -0.043733273 0.026631532 -0.11386075 -0.36299664 -0.24342625 0.14053223 0.1129367 -0.23706186 -0.08538976 0.04005235 0.07257333 -0.5293535 0.2155929 0.056296207 -0.12764978
2698 0.31759396 -0.21010195 0.035664804 -0.19273083 -0.17722131 0.07978178 0.15236634 -0.265333 0.034680046 -0.16444434 0.030459166 -0.1996296 -0.20665154 0.038559046 -0.30936384 -0.070420444 -0.099166475 -0.23870099 -0.10060507 0.2291773 -0.35289854 0.07124923 -0.12595357 -0.18719971 -0.03633475 0.34907016 -0.1797509 -0.13019042 0.037553594 0.08997133 -0.084068716 -0.020128114 -0.18278179 0.15031154 -0.096992604 -0.16386603 0.027971443 -0.3304145 0.05787804 0.0876808 -0.26286232 -0.15454243 -0.14046761 -0.028083323 -0.08250731 0.055026628 -0.3116152 -0.025700051 0.3314535 0.04929965 0.011835505 0.07960245 -0.29930234 -0.08925429 -0.22983593 -0.0108172875 -0.30577677 -0.016297752 -0.10754931 0.12776275 -0.260476 0.27823576 0.026752329 -0.04740329
1439 0.33095297 0.024361735 -0.2583085 0.017122075 -0.12815742 0.25700754 0.13928999 -0.058354124 -0.08651386 -0.08982268 0.07140241 -0.20632711 -0.062621646 -0.16968405 -0.056830633 -0.06612135 -0.13811596 0.031412262 -0.10033924 0.20889312 -0.23547733 0.024349367 -0.17167972 -0.17652236 -0.0022408362 0.20315422 0.047984015 -0.31034604 0.10906436 0.21361989 0.03772143 0.1206364 0.028413994 0.26170537 -0.17732202 0.0058435486 0.2380767 -0.08552959 0.3043387 0.25257456 -0.13581993 -0.2937899 -0.3390045 0.011837485 -0.026044281 -0.09755499 0.09048055 -0.31251076 0.39758074 0.26352265 0.18094325 0.024674436 -0.23220837 -0.029925521 -0.1286512 -0.03481329 -0.19178419 0.16186102 0.038129892 0.2775328 -0.5631619 0.31425098 0.06568619 -0.016361594
1271 0.20353028 0.19663823 -0.24836203 0.06425354 -0.2798014 0.28513312 0.16489078 -0.13046035 0.062228143 -0.22956051 0.24918891 -0.05149816 -0.10300253 0.006559472 -0.41380784 0.071913004 -0.011896091 0.017558906 -0.21627194 0.3076054 -0.1623732 0.19037898 -0.16648383 -0.03029752 0.21935837 0.19703744 0.08165493 0.061630316 -0.0081564635 0.17326434 -0.3161798 0.11367493 -0.21327849 0.06984476 -0.011968729 0.09275628 -0.08034835 -0.2037167 -0.02314518 0.3414733 0.012470548 -0.17872533 -0.4310545 -0.09552842 -0.2394719 0.04620034 -0.042742163 -0.14367092 0.17237104 -0.17228398 -0.07898069 -0.31756985 -0.3232672 -0.102264374 -0.084054135 -0.08143043 -0.18223889 -0.19980948 -0.2628862 0.35873267 -0.39172143 0.08224997 -0.08667864 -0.4668198
1662 0.153328 0.07633177 -0.008295811 0.22767001 -0.07405548 0.08852049 0.24954656 -0.1906805 -0.05212817 -0.03966989 -0.045716252 -0.20976007 -0.19651538 -0.035192035 0.074377835 0.097902484 -0.03929411 -0.19895354 -0.24216242 0.25144717 -0.447227 0.09416582 0.016945777 0.14423704 0.03278731 0.24529603 0.038560927 -0.28651333 0.0907177 0.098109655 -0.07752555 0.16370182 -0.06318769 0.30159077 -0.020541582 0.09696886 0.27493387 0.06607947 0.20285295 0.36593473 0.17391276 -0.13978483 -0.30134147 -0.21873803 -0.08202529 -0.0549388 -0.3196488 -0.22979297 0.39906183 -0.0021930377 0.31745794 0.2367485 -0.19871531 -0.07647658 -0.23553404 -0.16323002 -0.23610088 0.030932033 -0.09987154 0.10160604 -0.2368002 0.29162282 -0.17723343 0.042393953
874 0.32853955 0.035363186 -0.20514464 -0.05605367 -0.065070175 0.21831372 0.09847404 -0.31178662 -0.10676712 0.051487785 0.06011222 0.038263183 -0.3218863 -0.09920761 -0.08477288 0.06965961 -0.055014323 0.049668293 -0.03805979 0.5149452 -0.0039302614 0.0074204826 -0.02690518 0.058894344 -0.037184566 -0.05992256 -0.06840453 -0.13134666 0.3472205 0.023646787 -0.21754827 -0.03893406 -0.2335063 0.026498137 0.0941657 -0.06442225 0.13641667 -0.18304996 0.090763636 0.23506425 0.08768575 -0.40077817 -0.28920472 -0.18346827 -0.20767365 -0.021187004 -0.16896547 -0.20653522 0.29573148 -0.16795504 -0.10493642 0.156436 -0.20593308 -0.06403694 0.054194424 -0.309028 -0.25142938 -0.21076243 -0.11423508 0.20987496 -0.49081874 0.17069747 0.0076046446 -0.1556932
2534 0.41397285 -0.06049246 -0.20853609 -0.11685245 -0.25522816 0.120971516 0.11344739 -0.24437821 0.020390356 0.07454113 0.0675643 0.020048913 -0.1124736 -0.0041494356 -0.00052384613 -0.30123666 0.12730494 0.10322553 -0.40306833 0.32897696 -0.12910336 0.09338306 -0.46967697 -0.23505342 -0.10759051 0.29732177 -0.07538521 -0.13766463 0.075056724 -0.262604 -0.26256385 -0.007280785 -0.10975322 0.06928783 0.06245652 0.021808207 -0.030822128 -0.17238474 -0.0605799 0.10703784 -0.15961966 -0.24658664 -0.18178466 0.055416793 0.15861253 0.09321753 -0.07942904 0.051526397 0.2605087 0.19820048 -0.24268474 -0.34904447 -0.20455779 -0.12578438 -0.30514917 0.09897953 -0.18146914 -0.008235356 0.12827858 0.17084719 -0.48827532 0.21263298 0.03918723 -0.46653855
1681 0.2790559 -0.04811221 -0.070566505 0.075137824 -0.15416619 0.105675004 0.13098347 0.072624676 0.03426105 0.038070764 0.17379783 0.040952977 -0.08925101 0.023250308 -0.09115586 0.24701667 -0.48006135 -0.13560118 -0.22551402 0.23357826 -0.07984381 -0.13887553 -0.27985314 0.22230268 0.03469215 0.32471085 0.06622102 0.07830546 0.42497116 0.038454667 -0.24753778 0.08713414 -0.39341724 0.21371545 -0.059406392 -0.19701427 0.1640447 -0.23972188 -0.110737056 0.01193554 -0.033597518 -0.0757357 -0.43764275 0.03652064 -0.34599268 -0.13150379 -0.4526301 -0.20797253 0.14429234 0.15244879 0.30098623 -0.04999674 -0.2831577 0.0010995619 -0.1989415 0.12493134 -0.1938275 -0.020257013 0.21300179 -0.049744092 -0.24417436 0.30469525 0.12683967 -0.12787873
770 0.29730195 0.24337775 -0.33477107 -0.07551434 -0.07193503 0.09038588 0.2929181 -0.17792799 -0.063053474 -0.22011743 0.061282758 -0.20853056 0.003742647 -0.058953278 -0.104840286 -0.07898536 -0.1503451 -0.060558636 -0.2661273 -0.050032075 -0.10202952 -0.029671643 -0.07319642 -0.11252085 0.073260956 0.43310428 0.16629246 -0.21137835 -0.015431666 -0.049484614 -0.3594814 -0.04720874 -0.19149925 0.008240819 -0.12714668 -0.1469639 0.3851108 -0.24673162 0.09841343 0.09898556 -0.121154666 -0.23953775 -0.12143633 -0.22605465 0.116206445 -0.08118564 -0.17973073 -0.3477635 0.16601257 -0.12888332 0.49170038 -0.03785772 -0.12666978 0.011498063 -0.07533191 -0.0062927413 -0.22202207 0.12676896 0.07835134 -0.01868951 -0.5658487 0.30944526 0.1869149 -0.20085208
1002 0.4310781 0.008556362 -0.07803537 -0.15492757 0.12705278 0.3848883 0.02052113 -0.18736842 0.025999552 -0.21385473 0.05340492 -0.14614274 0.3083526 0.030567084 0.06356546 -0.003258052 -0.0793245 0.013361572 -0.22362171 0.29100296 -0.1398668 -0.0225964 -0.12811312 -0.12687546 -0.14298227 0.13577417 0.17090954 -0.15604284 0.18183571 -0.046807054 -0.2165497 0.20787308 -0.09516551 0.2520454 -0.034564372 -0.20215572 -0.029564332 -0.11642077 0.063839875 0.15668525 -0.2808271 -0.1284076 -0.09453103 -0.044148084 -0.11684279 0.109918855 -0.15622282 0.017977973 -0.053782016 -0.045200873 0.425565 0.06470864 -0.15518127 -0.2561303 0.019496627 0.29475012 -0.3337198 -0.3207865 -0.12090538 0.063812375 -0.5508561 0.30749047 0.111773156 -0.12977149
1862 0.47210014 0.041128106 -0.122561015 -0.031295903 -0.16879211 0.11713775 -0.03170546 -0.3943343 -0.16169569 -0.066279456 0.2728916 -0.39547208 -0.1100416 0.28544578 -0.047691572 -0.2693184 -0.21130863 -0.33807486 -0.20693558 0.09115096 0.026976833 0.067547165 0.03884173 0.02073642 0.027364284 0.09848176 0.052639574 -0.09341698 -0.0051330975 0.022151522 -0.18519509 0.1432446 0.09820828 0.18041968 0.029405978 -0.11890516 -0.014697313 -0.10354489 0.052234963 0.36395603 0.085015535 -0.18014257 -0.29098058 -0.21571034 0.01926406 -0.07694662 -0.26854146 0.21744363 0.49972898 0.16925122 0.05315999 -0.112150244 -0.28013933 -0.35104248 0.05478576 -0.051393285 -0.048342284 -0.2427221 0.07205991 0.36567608 -0.33744654 0.20486015 -0.01853521 -0.20708299
1996 0.32927108 -0.08297189 -0.21687819 -0.1226361 -0.2337901 -0.06258726 0.037066404 0.08749818 0.021473661 -0.09711278 -0.10876325 -0.2171026 0.09562014 -0.19907601 -0.30114508 -0.03146851 -0.21800181 -0.08137834 -0.18769056 0.22877987 -0.10938716 0.20658088 -0.12647524 0.2338601 0.17437425 0.22025858 -0.20502895 -0.109559126 0.042251553 0.18748589 -0.28212467 0.3108939 -0.248375 0.1773005 0.025308795 -0.14003012 0.06900432 -0.30250472 0.11490185 0.24936226 0.1425087 -0.19413476 -0.286853 -0.034343585 -0.098410554 -0.08987223 -0.19035666 0.09002375 0.32752854 0.10089924 -0.057224326 -0.09119759 -0.1361549 -0.26240098 -0.045263577 0.25189787 -0.21999547 -0.17266537 -0.290844 0.18528081 -0.35886922 0.31627852 -0.24451384 -0.4261533
1121 0.31066886 0.0059246663 -0.2862832 -0.14352594 -0.042381156 0.04891083 -0.01570314 0.005663388 -0.020046119 -0.18965435 0.11180713 -0.12092041 -0.10092594 0.04658338 -0.2958244 0.016867641 0.06805348 0.0031597125 -0.17488131 0.123984516 -0.15533637 -0.03974816 -0.18918674 0.012182355 -0.16794333 -0.0045398767 -0.111077875 -0.14525843 0.07839075 0.016845845 -0.176152 0.33017066 0.09323079 -0.022925336 -0.105981566 -0.13972528 0.36857048 -0.065915994 0.012649967 0.31003115 -0.117123306 0.023223532 -0.37277338 -0.02406623 -0.31893277 0.17929116 -0.21659575 -0.1854263 0.39326116 0.024648566 0.106021896 -0.011629358 -0.1944037 -0.12773037 0.018950768 0.02443039 -0.17357206 -0.20354372 0.18631493 -0.10035138 -0.40660116 0.5600695 -0.08083655 -0.105481364
1026 0.5209632 0.010301861 0.059343673 -0.4564069 -0.31704333 0.23270027 0.30216962 -0.08581235 0.086774714 0.044693146 -0.1850967 -0.19121401 -0.03974598 0.031788174 -0.35690027 -0.079745725 -0.032476183 -0.05540049 -0.24063617 0.23118423 -0.03882366 0.013956413 -0.27693185 0.030965395 -0.049086798 0.08906406 -0.01810989 -0.1571396 -0.12238951 0.2638965 -0.398227 -0.16052859 -0.15880162 -0.060954258 -0.3520326 -0.02199624 0.093376555 -0.13532345 -0.15310699 0.39850152 -0.15654084 -0.1415989 -0.12693895 -0.31775433 -0.17499624 -0.02957623 -0.10406586 0.09982119 0.21531732 -0.21876274 0.21570723 -0.070984945 -0.3483329 -0.1475293 -0.039767552 0.2636609 -0.20891389 0.018235967 -0.07315745 -0.04034156 -0.23025706 0.21051216 -0.18203348 -0.23585284
2229 0.39345908 -0.22324972 -0.059872493 -0.23940435 -0.28130022 0.3375351 0.2338985 -0.23353629 -0.002055871 -0.28332287 0.009450373 -0.03129641 -0.28970286 -0.04404203 -0.022194475 -0.18253024 -0.025120148 0.0446346 -0.21635705 0.32603297 -0.24807274 0.011524321 -0.054408036 -0.10241763 0.014728083 0.11488925 0.16364442 -0.3309406 -0.14943118 0.0014762215 -0.093146 0.014770264 -0.05754677 0.20827186 -0.0084342845 0.09881901 0.46109316 -0.19037299 0.2923015 -0.011710271 -0.1467752 -0.20560403 -0.18360932 0.036898088 -0.16573688 0.06372172 -0.039042674 -0.003069595 0.23240653 -0.008671334 0.068370745 0.15060876 0.0017267232 -0.31199324 -0.29659617 -0.15251707 -0.19114643 -0.10391795 0.27706718 0.25870907 -0.15449227 0.25994828 0.18321747 -0.19861278
855 0.24480805 -0.21485679 0.020048818 0.069790795 -0.124005124 0.023730604 0.2014483 0.08962136 0.123687334 0.05875151 -0.09729517 -0.06699336 -0.22199172 -0.14091316 0.00024357262 -0.24301755 -0.24416798 0.056173354 0.01823107 0.22953738 -0.118535064 -0.05635284 -0.23627917 0.012242586 -0.052163795 0.29246995 -0.05429355 -0.32311648 0.17967597 0.17613004 -0.047985964 0.040660925 -0.35244304 0.28722212 -0.106216654 -0.09273384 0.16809027 -0.28989246 0.20653571 0.2086077 -0.06936167 -0.16341834 -0.41328925 -0.042778164 -0.14548357 -0.18481936 0.035823684 0.12783815 0.1812017 0.016400315 -0.006278158 -0.00921846 -0.16529378 0.050997525 -0.03896198 -0.08723972 -0.19419837 -0.037943453 -0.039118122 0.1540088 -0.3885613 0.3723379 -0.08656632 -0.18859859
990 0.3907147 -0.21809733 -0.23788519 -0.28425857 -0.11742764 0.20695044 0.24773364 -0.090971656 0.0052755796 -0.10601171 0.07977222 -0.34411228 -0.1490737 -0.17253548 0.1293357 0.09245822 -0.21693587 -0.1390712 -0.2000527 0.06810663 -0.33597115 -0.09320461 -0.18859714 -0.05550779 -0.14074679 0.30756363 0.09724012 -0.18308252 0.066979505 0.042505316 -0.16564278 0.08629678 -0.17843188 0.06580281 -0.12209744 -0.093313396 0.38692302 -0.32539794 0.13343218 0.13970827 -0.031334985 -0.13271733 0.104681194 -0.06592215 0.10230485 -0.0102402195 -0.1868091 0.114370115 0.20162673 -0.12842801 -0.008137909 0.008340859 -0.13160531 -0.017305149 -0.08790304 -0.03036095 -0.25530848 -0.27804652 -0.047774438 0.015050671 -0.16706064 0.28851926 0.07429602 -0.11988605
2148 0.21122397 -0.14104493 -0.18441059 -0.4058134 -0.10482718 0.25838342 0.18240751 -0.16455409 0.09520251 -0.10030939 0.054343153 0.108198516 -0.09618088 0.05007682 -0.3355455 -0.17356795 0.026195107 -0.2671028 -0.08838801 0.24260657 -0.007625162 -0.058474943 -0.0892692 0.22099844 -0.010846924 0.082778946 -0.30976993 -0.085064895 0.040443286 0.17072502 -0.077169955 0.15881744 -0.40939358 0.11813323 -0.0680704 0.03173491 0.0937574 -0.04562692 -0.13998953 0.39204225 -0.0038515502 0.029451564 -0.5205525 -0.055855233 -0.07112426 0.121123046 -0.18404455 -0.10305299 0.20471236 -0.03811106 0.10330298 -0.14118892 -0.21585417 -0.27250585 -0.3235639 0.073250234 -0.15177552 -0.06116684 -0.30412066 0.11946259 -0.46008903 0.24807374 0.09797634 -0.16116297
8 0.22212999 -0.14917856 -0.11245867 0.22235498 -0.24858907 0.3719546 0.107315145 -0.16016123 0.10357147 0.003985973 -0.03649518 -0.07691292 -0.14072907 -0.09440079 -0.2357431 0.037081752 0.017965574 0.06831265 -0.25793943 0.11939298 -0.065152764 0.11531972 -0.2354488 0.0028195207 -0.0626457 0.04093453 0.18549444 -0.16874379 -0.046534628 0.023002835 0.1328079 0.069113754 -0.14299397 0.35863253 0.08715816 0.07312614 0.38872063 -0.23464389 0.051622346 0.015690828 -0.20865136 -0.17776848 -0.22083524 -0.071094796 -0.23084672 0.026553994 -0.0944313 -0.091100775 0.3209829 -0.066787004 0.12101637 -0.07611678 -0.30817458 0.09133371 -0.15148747 -0.12501654 -0.4182933 -0.13738097 -0.16878372 0.16301115 -0.22767104 0.16066845 -0.23571083 -0.43181467
2602 0.1224381 0.11716016 -0.045325536 -0.16523942 -0.22898285 0.16544774 -0.0195406 -0.22460513 0.1834637 0.08382936 -0.009818519 -0.10897009 -0.27504152 -0.026127495 -0.02701791 -0.21927065 -0.1343822 0.020479325 -0.37622944 0.3401407 -0.20079617 -0.0021603045 -0.13655494 -0.047508597 -0.2592287 0.107991874 0.014581311 -0.42102656 0.21325475 -0.14431791 -0.33833802 0.12734838 -0.05209249 0.23475987 -0.17022209 -0.06455944 0.19624831 -0.17567074 0.15849188 0.054912798 0.020631908 -0.35090134 -0.23656075 -0.016125655 -0.032662578 -0.19691218 -0.3517075 -0.050630517 -0.06005141 0.073650345 0.17038816 -0.118523195 -0.38527706 -0.119216695 -0.017614169 0.10575097 -0.045564227 -0.25278565 -0.026025066 0.32385728 -0.47232997 0.088749066 -0.043743975 -0.25442994
1049 0.26534572 -0.031536788 -0.11947714 -0.21345544 -0.25695848 0.16819566 0.26616192 -0.19105789 0.14976372 -0.25965196 -0.049557216 -0.0020694046 -0.06980878 -0.0532419 -0.10791673 0.006841962 -0.1279158 0.053446535 -0.34935614 0.05286956 -0.103404514 0.041377477 -0.07042316 0.17603762 -0.021636995 -0.044558678 0.051919065 -0.030361332 0.13483769 0.0085329935 -0.085257605 0.25114766 -0.23013648 0.40897238 -0.09824151 -0.16211164 0.2626319 -0.0020623235 -0.13324162 0.21239541 -0.076437026 -0.27246025 -0.49327856 -0.2806684 0.10661638 -0.1075433 -0.0833667 -0.022720369 0.30575597 0.10457964 0.021994378 0.027023789 -0.19097602 -0.06976114 -0.048661795 -0.04587236 -0.27125433 -0.00060840935 -0.07566935 0.47629148 -0.14436084 0.21536773 -0.16921733 -0.25735396
1987 0.32289454 -0.2545414 0.13023898 -0.09628547 -0.14045395 0.25101027 0.15281875 0.11216878 0.23413187 -0.13211444 0.07615211 -0.24591237 0.056826077 -0.06273766 -0.26625407 0.09186874 -0.15348738 0.09724979 -0.27551934 0.43451297 -0.04745424 -0.025061801 -0.09717976 0.06615467 -0.23632883 0.26267818 0.2752028 -0.18311317 -0.006859181 0.0357052 0.088567935 0.17193286 -0.22108033 0.18069106 -0.06587708 0.08030497 0.14024644 -0.028688656 -0.027686853 0.16948232 -0.19642282 -0.006335855 -0.43435103 -0.093386896 -0.17761791 0.04044374 -0.18141237 -0.05888187 0.30909202 0.05520857 0.1284342 -0.049962908 -0.037985057 0.057691075 0.08264238 0.11874938 -0.11619026 -0.29491186 0.0017822109 0.11672888 -0.3288246 0.1253489 -0.07772077 -0.40180287
1575 0.426627 0.020990709 -0.024089962 -0.18603456 0.002180245 0.14060013 0.46170843 -0.18688908 0.10486923 -0.28158727 0.033783045 -0.04961939 -0.22472489 0.12619166 -0.067638524 -0.06229 0.0630637 0.18018055 -0.21103184 0.14748698 -0.19886127 -0.116540216 -0.09199245 -0.013096272 -0.12817383 -0.09834257 -0.051043198 -0.12612867 0.065288156 0.06376057 -0.14206241 0.023767581 -0.036732946 0.022240685 -0.004503241 -0.21683013 0.14972237 -0.2573275 0.029494256 0.27546138 -0.24267153 -0.24365546 -0.41985697 0.03995969 -0.05629866 0.0050379676 -0.096795544 -0.26309708 0.32922313 0.13942635 -0.041290794 -0.0946121 -0.14088207 -0.18910496 -0.17582943 -0.094036065 -0.10322432 -0.430989 0.027586022 0.36331534 0.010353134 0.13321047 -0.24172808 -0.28482613
1315 0.43362674 0.022901129 -0.13510117 -0.12429325 0.05651549 0.23335259 0.31388682 -0.30421972 0.50498563 -0.06491245 0.12982555 -0.26302508 -0.30543244 0.048322342 -0.0755275 -0.16401976 -0.12542792 -0.08741702 -0.22549835 0.22369997 -0.27036944 0.0030664643 0.08730809 -0.029478874 -0.11966402 -0.08629575 0.121374846 -0.12745251 0.005035455 0.10959791 -0.15702677 0.15474927 -0.20092897 0.24564198 -0.011333645 0.19033553 0.3140218 -0.22914605 0.0065348386 0.13953313 0.044155207 -0.10816022 -0.24214381 -0.21380852 0.015854234 0.17531522 -0.29883617 -0.42357922 0.014996268 0.03446176 0.15800597 -0.0513685 -0.12553035 0.067758374 0.049116526 0.18774883 -0.21686497 -0.41578686 -0.008005842 -0.14503926 -0.24646199 0.35005337 -0.15026243 -0.1584493
2552 0.63160634 -0.14923486 0.0258613 -0.18772839 0.041836 0.23231782 0.13202068 -0.1957555 -0.071715206 -0.095092885 0.06372722 -0.30119792 0.077140704 -0.024876421 0.12102082 -0.049668442 -0.028552758 0.020938685 -0.21831119 0.4308817 -0.11928382 0.085160874 0.019120997 -0.0133754825 0.047783185 -0.008458309 0.0015802654 0.13693492 -0.017180413 0.10952689 -0.10461625 0.14081627 -0.10421856 0.28509358 0.043599214 -0.13947214 0.17792821 -0.16824982 0.13119256 0.27637085 0.17708626 -0.12964138 -0.1377595 -0.035134804 0.098470196 -0.04682068 -0.18919423 -0.027139299 0.2940363 -0.21119753 0.06097891 -0.1056798 -0.14699009 -0.18695177 -0.20775959 0.1278482 -0.255 -0.107518874 -0.02682801 0.15504102 -0.44804454 0.018068036 0.016660457 -0.24385192
1815 0.57728785 -0.050661463 -0.1477169 -0.15526672 -0.08507067 0.4960313 -0.14349577 0.06570212 0.10806009 0.18616103 0.017948149 -0.12361294 0.043691106 0.11254448 -0.08458263 -0.11411402 -0.16479638 0.08510527 -0.37563214 0.09953872 0.13225083 -0.10135965 -0.0131075885 0.3197522 0.059446998 0.3442322 0.081889786 -0.21878867 -0.040429525 0.11384291 0.20863244 0.42821014 -0.022304915 0.092868425 -0.13452835 -0.22844772 0.07323039 -0.0030044054 -0.007520169 0.49202386 -0.030914206 -0.45177215 -0.2547418 0.032212067 -0.36526203 0.102264635 0.004099454 -0.040634032 0.19292814 0.12852666 0.027497102 0.09903647 -0.37181482 -0.013733483 -0.22642672 0.12105979 -0.21194492 -0.23444815 -0.075402565 0.047586255 -0.15731768 0.5266163 -0.28278178 -0.07351494
1075 0.3859152 -0.021138066 -0.109968185 -0.14291723 -0.1405603 0.22109681 0.10094456 -0.0016663356 -0.022321424 0.03457735 -0.16204685 -0.4709822 -0.2761395 -0.18003245 -0.21422304 -0.28731593 -0.12846777 0.171135 -0.3167039 0.17885377 -0.07291551 -0.033470016 -0.14596574 -0.20062502 -0.15154639 0.2200589 0.14108986 -0.33595935 0.14863013 0.030254168 -0.18391794 0.20500948 -0.118107095 0.19491458 0.09019671 0.18458278 0.033098534 -0.12952086 -0.07938509 0.19673543 -0.28582588 -0.06942976 -0.38298595 -0.0990073 -0.048689503 0.057518233 -0.29539967 -0.25682214 0.21421716 -0.056524236 0.041030318 0.132243 -0.25174516 -0.0028456922 0.088318884 -0.07141722 -0.2514102 0.15303539 -0.1926209 -0.045559842 -0.27526894 0.09661731 -0.12897581 -0.19552003
1941 0.088556185 0.08060849 -0.1316475 -0.0983283 -0.091529645 0.07624601 0.30911803 0.14024478 0.113198 0.016729044 0.112655655 -0.18243216 0.07391859 0.13100672 0.14277057 -0.11636363 -0.19839142 -0.10144672 -0.45637563 0.33410677 0.002082959 -0.045439757 -0.31936175 0.07564462 0.08592425 0.3081503 0.3412848 -0.19402964 0.06201667 0.002805045 -0.12360777 0.128204 -0.18942669 0.1623007 -0.03564851 -0.05460312 0.38409254 -0.12573776 -0.034950588 0.20751801 0.05920164 -0.1795245 -0.27310252 -0.060229905 -0.029692044 -0.09461972 -0.27450076 0.007040677 0.17569281 -0.022860397 0.027219445 0.09062659 -0.17000344 -0.34872112 -0.15634677 0.1979976 -0.0739484 -0.13907923 -0.03110783 0.038290646 -0.15983386 0.5688525 0.039664708 -0.28487328
1056 0.024859546 -0.16938101 0.018095385 -0.11886458 -0.19886146 0.097436115 0.27218848 -0.2215039 0.115930654 -0.20371485 0.2338005 0.034995817 -0.2125269 0.078427196 -0.039699554 -0.13206504 -0.27502725 -0.072882615 -0.44212782 0.30476794 0.032272343 -0.1957069 -0.16888948 0.03244973 0.2455003 0.09896516 0.12290969 -0.091140985 -0.15775985 0.15365471 -0.010303207 -0.031185158 -0.13997594 0.16332701 -0.15025657 -0.17198135 0.20524015 -0.2830014 0.1672169 0.38630503 -0.2496541 -0.010470345 -0.27621073 0.022906836 0.063154005 0.13640475 -0.08502191 -0.07682744 0.15264572 0.033800025 -0.07046807 -0.095509484 -0.3551434 -0.09240087 -0.18742241 -0.049900163 -0.27152652 -0.047123976 -0.00024712307 0.18987295 -0.26973268 0.39194396 0.084048264 -0.3316526
1004 0.28184342 -0.21004279 -0.065732405 -0.029095102 0.18630555 0.4375314 0.3927713 -0.30578175 0.067311585 -0.186736 -0.07695161 -0.19810887 -0.0740045 -0.11892035 -0.16378322 0.040412135 -0.12913235 -0.16230126 -0.1481362 0.20590037 -0.20092273 0.00012603618 -0.11403936 -0.0005916045 0.018198412 0.15691815 -0.050633773 -0.07231088 0.053609394 0.052545413 -0.16527914 -0.04867623 -0.014334464 -0.039576568 -0.27597484 -0.22871819 0.26826248 -0.27692905 0.029167993 0.075915165 -0.05993291 -0.28343502 -0.36037236 0.06180482 -0.23084922 0.10417348 0.033897053 -0.035334796 0.18595074 -0.00342282 0.014254307 -0.0920235 -0.24070466 0.08428394 0.121482566 0.14659733 -0.30642155 -0.21075031 -0.11553359 0.20627585 -0.36495772 0.22700903 -0.0044602845 -0.102200724
2358 0.161015 -0.3244391 -0.0052240323 -0.16820712 -0.39254436 0.23206806 0.36846218 -0.21349767 -0.17603679 -0.03650872 0.021885099 -0.38639334 -0.24569201 -0.06210246 -0.18571112 -0.10170847 -0.18262294 0.019545669 -0.22380337 0.08689145 -0.2930566 0.14130846 0.061015002 0.21626955 -0.0054179453 0.26606146 0.09686685 -0.30476743 0.040857844 -0.122847795 -0.26569605 0.09826521 0.07470503 -0.13178726 -0.055264316 0.18413313 0.26041806 -0.36797985 0.08088292 -0.05614882 -0.03665453 -0.053799536 -0.18288836 -0.004578036 -0.3477114 0.012966633 -0.29844934 -0.09673787 0.12646222 0.1623195 -0.19227202 0.053495925 -0.2839171 -0.1385155 0.17484827 -0.06590769 -0.104299836 -0.13314499 -0.051470514 0.2214903 -0.2257636 0.37352848 -0.1626095 -0.17511207
1988 0.38921002 0.042816497 -0.11127795 -0.03669044 -0.11348326 0.2515102 0.14602053 0.022948502 -0.04945678 -0.045860175 -0.2626474 -0.0018811732 -0.256108 0.033471365 -0.08215937 0.3110936 -0.09603897 0.008292964 -0.34554034 0.12743068 -0.15333304 0.2124591 -0.06749269 0.13516222 -0.09797877 0.1120963 -0.10323458 -0.3536126 -0.005603046 -0.069982216 -0.27207676 0.033331044 -0.27673694 0.1345382 0.030498613 0.027047213 -0.065814786 -0.0102854045 0.018467514 0.054704368 -0.09683097 -0.3895972 -0.4687201 -0.12778465 -0.31763658 0.05807744 -0.06748622 0.06909981 0.22053209 0.10095089 0.11236623 0.03116216 -0.39496827 -0.38166437 -0.15822779 -0.052906714 -0.16957812 0.010614065 -0.172381 0.015533523 -0.2550151 0.1957578 -0.14262913 -0.23749411
894 0.46966186 -0.02890792 -0.18514897 -0.09397442 -0.2155061 0.12829582 0.23148343 -0.042839378 0.28650326 -0.22403438 0.15729174 -0.038972426 0.07239095 0.16939712 -0.20971572 0.39352486 -0.24241506 -0.04542488 -0.21308526 0.1768956 -0.09984097 -0.029725432 0.19433317 0.2511142 0.07965157 0.044395965 -0.054896094 -0.31820965 0.17484596 0.08434896 -0.18623841 -0.035133995 -0.34363273 0.118405886 -0.03886815 -0.28014967 0.28416058 -0.09910515 -0.06492297 0.32692298 0.04237761 0.015396471 -0.22140056 -0.48486176 -0.26153257 0.10801941 -0.21555224 -0.14865692 0.2111015 0.24548721 -0.100787796 -0.04069369 -0.2727599 -0.204007 0.20296809 0.030046735 -0.18814002 -0.0438094 0.0077060107 0.03758147 -0.3289628 0.31320822 0.23433264 -0.0130906245
1977 0.4195576 -0.049853 -0.059903577 0.016282253 -0.14730994 0.27078465 0.2591457 -0.13424382 0.15710312 -0.12251639 0.016110664 -0.123029105 -0.25953215 -0.030642832 -0.19089149 -0.015095394 -0.23007092 -0.013562917 0.04592933 0.091387376 -0.028624546 -0.06514428 -0.2849873 0.09954482 0.05065891 0.35909167 0.053071875 -0.26595697 0.113578446 -0.06657661 -0.000114382885 0.3692839 -0.0416843 0.25821373 -0.03214969 -0.047751684 0.2969522 0.04711575 0.0044653527 0.18850307 -0.02914731 -0.07263425 -0.22092375 -0.24970078 0.08777071 0.129554 -0.095228 0.1924714 0.10117899 0.1951865 0.26787922 -0.092199 -0.1667881 0.06515951 -0.096738435 0.1832251 -0.3222462 -0.045902148 0.24377303 -0.08201877 -0.37448373 0.43433183 0.080581814 -0.17091165
2696 0.28867748 0.029311791 -0.12320379 -0.1189849 0.032503694 0.14478865 0.06339963 -0.018737696 -0.008173145 -0.07573302 -0.22080924 0.01426207 -0.14349094 0.11322439 -0.0058910875 0.20621829 0.07463158 0.16761936 -0.36069202 0.25744635 0.032918077 -0.059592474 0.1430746 -0.0050300593 -0.22343652 0.14961913 0.064939596 -0.15837085 -0.03285356 -0.023932198 -0.054335076 0.027140044 -0.3097893 0.14779982 -0.061878864 0.091680415 0.12963314 -0.14171004 -0.055581693 0.106361374 0.07282388 -0.26029512 -0.29982445 -0.1897662 -0.024547445 0.16282924 -0.1878298 -0.38450068 0.30582038 0.20068236 0.32071686 -0.21090798 -0.18110128 -0.20657744 0.21994199 0.1714666 -0.085833214 -0.21646307 -0.13613255 0.03939928 -0.5010847 0.390553 -0.25109074 -0.06435734
1697 0.27590215 0.01530255 -0.057255417 -0.10000594 -0.03505228 0.08427856 0.2131718 -0.071935296 0.07708411 0.116690606 -0.21096167 -0.18473566 -0.16241491 -0.3637415 -0.3647685 -0.066886045 0.051807735 -0.18207815 -0.51653695 0.4360979 -0.20669033 -0.009842459 -0.38084215 -0.18113734 -0.09016098 0.15579398 -0.15248483 -0.10390264 -0.03265449 0.14127965 -0.41958258 0.15531938 -0.13660398 0.15774012 0.019383458 -0.26381105 0.243782 -0.23040071 0.22054592 0.38210765 -0.36372983 0.06446992 -0.09760802 -0.022730283 -0.09389711 -0.014960016 -0.30263847 -0.23721007 0.06177317 0.0692854 0.15454851 0.05379624 -0.37310225 -0.21699981 -0.3380355 -0.00952981 -0.19259357 -0.1284388 -0.16663755 -0.19926989 -0.24813831 -0.0012273915 -0.0971019 -0.43547544
1692 0.3035012 -0.01129522 -0.16038767 0.050940465 -0.1850337 0.35327998 0.114632435 -0.36560404 -0.025247442 0.1487252 -0.31070206 -0.3243626 -0.13652 -0.1580122 -0.112825245 -0.21651226 -0.29297975 -0.078333445 -0.0934075 0.16732028 -0.2508054 0.108511716 -0.023029957 0.070491575 -0.17067997 0.110150404 0.13330516 -0.39865562 0.1642288 0.21273972 0.15579653 0.32695943 -0.22056025 0.0822536 0.03705 0.053620838 0.113935746 -0.086728744 -0.19176391 -0.044562068 -0.22938316 -0.24948548 -0.28852892 -0.3134682 -0.14110099 -0.16012841 -0.33216497 -0.3015098 0.047245193 0.015471591 0.04402683 0.2938695 -0.1867403 -0.15627415 -0.07175603 0.15295123 -0.37507617 -0.11377639 -0.060380988 0.15823565 -0.28508556 0.18713361 -0.11681439 -0.06407651
1057 0.46575597 -0.07047887 0.063749574 -0.13151212 -0.22054939 0.3795935 0.28969157 0.052737236 0.15450211 -0.23358607 -0.12432931 -0.24040475 -0.06669748 -0.19757542 -0.042310804 -0.015653946 -0.090154454 0.076840945 -0.21702684 0.05253447 -0.021998685 0.07113664 0.0299064 0.13966754 0.09243578 0.15993202 0.019489517 -0.28328392 -0.03221523 0.23419355 -0.052565295 0.003715816 -0.16755345 0.14877415 -0.058412652 0.007025398 0.14895958 -0.1497439 0.11711957 0.20576932 -0.30264273 -0.08924655 -0.4813451 0.26729667 -0.33154273 0.064712755 -0.32301027 -0.12096647 0.2820875 0.25413713 -0.17224422 0.24124278 -0.11717345 -0.119051225 -0.17135635 0.025119007 -0.2599222 -0.0401119 -0.20644717 -0.1177931 -0.13036841 0.30047283 0.20693341 -0.04819795
1124 0.22804885 0.27483392 -0.2122058 -0.13222215 -0.20401317 0.2408348 0.14089112 -0.0315898 0.033378705 -0.16464321 0.24078037 -0.1427204 -0.21102515 -0.08568226 -0.12686412 -0.101509295 0.009339333 -0.09553388 -0.37669578 0.25216225 0.09035143 0.1002979 -0.19208287 -0.14772484 0.18389425 0.09372534 0.11923422 -0.06015023 0.057988096 0.10120582 -0.036513608 0.16440155 -0.14327668 0.16994618 0.12353828 -0.12509482 -0.029981006 0.053854313 0.16721049 0.090641566 -0.3346045 -0.095718026 -0.19320387 0.048262678 -0.20146011 0.05293932 -0.2106039 -0.17394358 0.591637 0.20824344 0.19996957 0.006806724 -0.06106601 -0.24620406 0.0033020792 -0.07643164 -0.2125913 0.14912882 -0.029336993 -0.015959127 -0.40169516 0.44580403 0.18560027 -0.15939833
1273 0.45836678 0.0121569745 -0.10983162 -0.23252572 -0.19428939 0.08728943 0.18897274 -0.06366437 0.025307441 -0.09579413 0.1828836 -0.14506334 -0.25536963 0.1608919 0.036466464 0.016756875 -0.3383052 -0.17757142 -0.05121068 0.27718556 -0.35005653 0.20664129 -0.19240814 0.10561453 -0.09189378 0.4212872 0.08244336 -0.08138877 0.14536804 0.0482149 -0.1130735 0.25240675 -0.021997938 -0.085446864 -0.016510107 -0.018783184 0.0032268525 0.0144625325 -0.044858396 0.12315149 -0.2759665 -0.0705828 -0.32828143 -0.068627395 -0.37604213 0.14755675 -0.2458372 -0.19372024 0.4708464 0.09793454 0.07764654 0.072715126 -0.108996965 -0.192187 -0.13054535 -0.11082099 -0.31247064 0.03282896 -0.0746942 0.4212096 -0.08317931 0.36601394 0.11398195 0.14720137
2601 0.43983617 -0.068221085 0.07711011 0.05022889 -0.20151441 0.15076238 0.31566918 -0.19488609 0.034779713 0.13139144 0.07476939 -0.20792386 -0.06828957 0.057184454 0.20806395 -0.113869645 -0.16833082 -0.08298791 -0.25066227 0.070964515 -0.06943077 -0.17376082 -0.2616151 -0.2245244 -0.00811943 0.22177052 0.2236109 -0.20866628 -0.0045098383 -0.042346798 -0.15699993 0.17507394 -0.069852576 0.070650615 -0.105264865 -0.08577907 0.116564184 -0.22996268 0.040398363 0.22655699 -0.33483124 -0.3306358 -0.11395406 -0.2540163 -0.18558082 0.1309331 -0.35502803 -0.18703097 0.34378967 0.0047630435 0.14998531 0.12683794 -0.11003591 -0.14751092 0.08324307 -0.010201445 -0.2348997 -0.018720591 0.025457041 0.16195242 -0.21840052 0.09525101 0.05668537 -0.13348459
775 0.5450536 -0.13396344 -0.22726189 -0.20324372 -0.20768383 0.31050164 0.19679411 -0.23291469 0.089409545 0.29888576 0.01977676 -0.09316629 0.030757338 -0.02269451 -0.070700236 -0.027848983 -0.2424849 -0.17633449 -0.16235958 0.35386273 0.02679522 0.15237242 -0.15387943 0.17829995 0.029875493 0.21419084 0.04811354 -0.07702894 0.17685153 0.29158318 -0.07180386 -0.043111913 -0.0017681835 -0.05923111 0.05164696 -0.091744736 0.16836046 -0.29497865 0.23485935 0.08191931 0.0055707693 -0.053746875 -0.12108476 -0.09518587 -0.14081691 0.12673482 -0.10254545 -0.11698909 0.115889356 0.087625414 -0.043361895 0.098605186 -0.49457416 0.05683435 0.0025682072 0.048595082 -0.15406723 -0.17790408 -0.118155465 -0.022235805 -0.35587087 0.30906853 -0.09121941 -0.17713068
2119 0.42002437 0.112267986 -0.13711722 0.06424052 -0.32874435 0.3290016 0.1710351 -0.09294861 0.06336581 -0.058514923 0.010295708 -0.16611254 -0.026366225 0.038576316 -0.12670189 -0.00020805736 0.00521149 -0.062642306 -0.2913197 0.100683086 -0.3267759 -0.032620188 -0.097348325 0.012603023 -0.19041535 -0.038665205 0.048763093 -0.21674825 -0.034010716 0.14105763 -0.4728947 0.0945989 -0.025756732 0.14758082 -0.15564339 -0.05574004 0.10737276 -0.08289851 0.16030338 -0.10185862 0.1425247 -0.20434265 -0.25745106 -0.08523564 -0.33204806 -0.0037078676 0.20789135 0.010835722 0.33776113 0.095961414 0.18174902 0.021493662 -0.2599074 -0.2701586 0.07008814 -0.09085861 -0.3953959 -0.020392898 -0.053910863 -0.16254148 -0.40989822 0.43324086 0.15550338 -0.22386213
