2708 64
1056 -0.09637088 0.019492147 -0.044948008 -0.3239945 -0.18586753 -0.06607025 -0.060028832 -0.20604438 0.11408426 0.01442252 0.10719454 -0.094229355 0.123398915 -0.1685556 0.23578249 0.37716937 -0.15701881 -0.07445584 0.16859856 -0.040813226 -0.11003005 0.22158596 0.25503355 0.05333896 -0.10457596 -0.18945993 0.0527578 0.17905124 -0.1920282 0.13415909 -0.28006813 0.16304712 0.18586543 0.015447699 0.33419856 0.2689065 0.14579293 0.02105049 -0.10109665 0.25699595 -0.27952763 0.185479 0.111899875 0.06521128 0.123171024 -0.07444124 0.24144712 0.41497487 0.3769037 0.15916517 0.0921535 0.3505848 0.017378187 0.18637389 -0.45777813 -0.38745105 0.06622438 0.021717258 -0.27164719 -0.044573136 0.038812313 0.08295109 0.31380212 0.011108219
1570 -0.10161678 -0.1433358 0.13776009 -0.11692955 -0.2944461 0.46732315 -0.062241487 0.47946584 0.18936332 0.018712401 0.314094 0.17805092 0.044521343 -0.051670805 0.015588266 0.27818298 0.07096496 0.053548086 0.24717085 0.12930597 0.044610288 0.20436896 -0.09506971 -0.19476616 0.14935432 -0.3670571 0.2664747 0.15559788 -0.32939166 -0.071191795 -0.16602312 0.26768306 0.05863397 -0.12662786 0.24061275 0.3369934 -0.017128138 0.049646758 0.26012573 0.3820807 -0.20020887 -0.065482795 -0.017877175 -0.041624535 0.046635818 0.0034265572 0.049496107 0.20019291 0.45389 0.06343102 0.16802615 0.13026996 -0.15968117 -0.0071153855 0.07408572 -0.21349213 0.115113355 -0.16197957 0.12549144 -0.024692388 0.23171072 0.12215724 0.54562634 0.20825683
1701 -0.13129763 0.05902987 0.08177082 -0.0036765207 -0.11248693 -0.21803944 0.24031863 -0.06579887 -0.06922261 0.008983998 -0.0020021235 0.18021211 0.05565714 -0.25666952 -0.13426986 0.1593948 -0.06842163 0.064676486 0.19197968 0.16571459 -0.21742603 0.1894757 -0.005971172 -0.04623076 0.37022433 -0.38427898 0.0974019 0.043582376 0.015009056 0.24531126 -0.043582827 0.0833408 0.065245986 0.107040524 0.09418172 0.150265 0.32223487 0.15513863 -0.069808535 0.20610397 -0.24017154 0.06478373 -0.0270393 0.3549855 -0.00013440147 -0.22709376 0.030081827 0.49833596 0.38447604 -0.076494716 0.2228782 0.23740768 0.0934278 -0.31992698 -0.036095954 -0.050017886 0.019282805 -0.25934193 -0.25438365 -0.4174487 0.031233586 0.09274644 0.2693632 0.20194477
2700 -0.26846123 -0.07784128 0.076995514 -0.15846622 0.13752456 -0.08038965 0.07304802 -0.31420892 0.022374952 0.037796713 0.26289833 0.33389816 0.20393081 0.06931347 0.081344366 0.17343025 -0.13967745 0.15642886 -0.11908499 0.27964976 -0.20909384 0.42186272 -0.053609386 0.0640855 0.3104915 -0.32536176 -0.058470912 -0.0006981012 -0.2331984 -0.07703394 -0.14109969 0.09991108 0.023279743 -0.32279325 0.32529017 0.10479059 0.015656648 0.13377148 0.34158498 0.43676996 -0.43466783 0.14811486 -0.075227916 -0.14169581 -0.11180089 -0.07711731 0.0157161 0.32974103 0.1288086 0.048793845 0.44948453 0.39373794 -0.22838134 -0.145435 0.093453385 -0.20120953 0.13680455 0.14919673 -0.020922689 0.071650326 0.16988091 0.11498272 0.3118877 0.25504097
986 -0.12089005 0.012815146 0.19269814 -0.49270174 -0.2696346 -0.008046637 -0.21090236 0.17365368 -0.025223015 0.28856516 0.21110077 0.33536527 0.24347697 -0.11148932 -0.10635 0.14872228 -0.07000858 0.03848089 0.3627253 0.022995021 0.17852436 0.11064362 0.0905611 -0.061678894 0.25952283 -0.29370707 0.30678645 0.14788419 -0.077133395 0.14385797 -0.03730462 0.4070174 0.010575255 0.14642237 -0.08199944 0.20178387 0.035110544 0.12453166 -0.2656716 0.15406539 0.13408485 0.18640704 -0.20304455 0.22314265 0.053174946 -0.0968193 0.08498047 0.18051295 0.3113657 0.13472961 0.32245377 0.46247667 0.0674853 -0.023954026 0.24402869 -0.29273695 0.009070329 -0.06485968 -0.31664357 -0.041589506 0.18962531 0.16544776 0.42348045 0.23477119
169 -0.23948975 -0.21767312 0.23445335 -0.04115423 0.09084085 0.007188718 0.076054715 0.046736002 0.23480912 -0.3822159 -0.031841002 0.0041650203 -0.15996912 -0.15261249 0.116481654 0.018173488 -0.30454433 0.121288285 0.19757512 -0.138466 0.4692818 -0.017672196 -0.11728505 -0.13840942 -0.0063579953 -0.22945489 0.032757595 0.107749194 -0.1218082 0.1475051 0.016922291 0.24359499 -0.06922048 -0.27614918 0.048765723 -0.04044592 -0.061371367 0.13653629 0.06973865 0.2426891 -0.09864343 0.392304 -0.20366059 0.109924026 -0.07179727 -0.3048893 0.04530123 0.089515224 0.14689276 -0.09336217 0.15215114 0.30951157 0.13864134 -0.30972016 0.021737857 -0.22808528 -0.008880462 -0.37406543 -0.4157362 -0.30551162 0.20954727 0.26561612 0.49629357 0.017640674
1119 -0.16653861 0.017000362 -0.13339095 -0.12979436 -0.06428427 0.099971764 -0.04059822 -0.035534486 0.10321159 -0.09107663 0.14411414 0.08018011 0.0375658 0.12354417 0.047258515 0.19214185 -0.3650662 0.0017668396 0.16432889 -0.07338539 -0.090982504 0.062436055 -0.28908604 -0.24271935 0.14335555 -0.019467223 0.23838417 0.112684235 0.24986641 0.017734407 -0.24219593 -0.03287588 -0.043858908 0.14988355 0.003471254 0.20899375 0.0313322 0.2639003 0.14249732 0.23115891 -0.15618184 0.2647788 0.09138919 0.090454035 0.21771656 0.009183436 0.29749808 0.13424389 0.09767268 0.28200817 0.23884405 0.53775316 -0.13908741 -0.1116738 -0.29274616 -0.15379032 0.22405429 0.019682791 -0.27305886 -0.10939432 0.21193552 -0.084859185 0.59669065 0.115285955
2204 -0.24601798 -0.1148696 0.17140576 -0.062153306 -0.0475738 -0.2632344 0.18576097 -0.06673924 -0.04853154 -0.114943795 -0.03776713 0.24445367 0.019463813 -0.13243018 0.29791677 0.12487273 -0.52964884 -0.044862125 0.0053072646 -0.09536524 0.19873388 0.4272096 -0.12531117 -0.1705888 0.0716316 -0.31724328 0.13560638 -0.11245338 0.20185329 0.12981844 0.022643054 0.024851386 -0.21539666 0.03663944 -0.08745988 0.10441226 -0.069962986 0.0936913 -0.0078447675 -0.043987505 -0.2738711 0.19935648 0.021758813 0.06896089 0.026843196 -0.14416808 0.035346974 0.26101547 0.2688305 -0.008428887 0.1809657 0.54643387 0.070146814 -0.20099056 -0.18228553 -0.17947844 -0.24006903 0.114908084 -0.2278602 -0.11398459 0.0607762 -0.14976098 0.4817723 0.048042797
2571 -0.25979468 0.06582946 0.3014933 -0.063011155 0.14853981 -0.19577172 0.029397655 0.1995955 0.15632908 -0.30497906 0.2330518 -0.08446207 0.010010425 -0.13232978 0.102947704 0.3073103 -0.06105759 -0.1920847 -0.05783701 0.07497986 0.25732124 0.20744672 0.17032988 0.024987832 0.024832495 -0.34886906 0.1122578 0.3008831 0.17187679 0.10077441 -0.008837047 0.18748315 0.1498401 -0.16885488 0.013981449 0.3544752 -0.1574834 0.030158872 -0.072960936 0.23830438 -0.3884834 0.39935136 -0.41863078 0.365811 0.016056474 0.20535727 -0.10528267 0.10642796 0.045845736 0.057601556 0.30261654 0.23601495 -0.032658227 -0.12242378 -0.27743715 -0.11186922 0.15176389 -0.012180442 -0.10887539 -0.09765213 0.07746188 0.142688 0.6320178 -0.1601771
2303 -0.054624453 -0.18147281 0.2930813 0.09337461 -0.033790197 0.07972008 0.054289006 -0.069101594 0.23939984 -0.27171278 0.20142834 0.050781246 0.17979774 -0.17009346 0.16412163 0.2795185 -0.16689305 0.11206424 -0.013756387 -0.11724279 -0.014927208 0.29642135 0.024774117 0.037523706 -0.37553027 -0.37359807 0.251843 -0.07899817 -0.14730547 0.23918223 -0.26313072 -0.13235359 -0.28363025 -0.2274582 0.19551516 0.08077842 -0.31478098 0.1508006 -0.06419358 0.26904142 -0.17160141 0.411332 -0.0068793073 -0.020419182 0.19877595 -0.03734011 0.02782312 0.23019347 0.08816842 0.03345991 0.18875416 0.28654456 -0.16810223 -0.05138243 -0.18946905 -0.2854229 0.06347974 -0.17287324 0.0368309 0.13746049 0.47857776 0.02130714 0.47860327 0.016830415
2425 0.13219221 -0.07723297 0.09771841 -0.030063083 -0.012449111 -0.27342883 0.09878045 0.03927332 -0.035484876 -0.27888557 0.09888168 0.2727862 0.056989763 -0.114315465 0.27307782 -0.16190115 -0.3030633 -0.04828984 0.24016225 -0.22609901 0.05647934 0.13661987 -0.30365676 -0.124914415 0.07260294 -0.097995184 0.3265122 0.12281752 -0.1308893 -0.09391668 -0.17659084 0.20148617 -0.12883216 0.12085039 0.13655622 0.03751805 0.5410273 0.05283012 0.035766874 0.44083136 0.2468562 0.33904156 -0.3319391 0.19283561 0.28411 -0.01558139 -0.016188018 0.19255987 0.22033063 -0.106779344 0.1985533 0.37672195 0.12362225 -0.24477668 -0.024650725 0.16594826 0.34665617 -0.023357196 -0.22470182 -0.13602039 -0.18519759 0.14627156 0.51843876 0.26699063
216 0.023481898 -0.1441982 0.18461153 -0.101611786 0.10558833 0.034600187 -0.0007392979 -0.028364612 0.056388456 -0.018188424 0.09408407 0.056866165 -0.1617407 0.005342471 0.12742934 0.20987977 -0.104639694 0.17838886 0.14678991 -0.10911205 0.093275845 0.22442822 -0.0792789 -0.043564033 -0.1546879 -0.30313227 -0.05857902 0.022108601 -0.044595357 0.1180311 0.05985478 0.032112684 0.09695938 0.03843656 -0.35628992 -0.03919787 0.27015424 0.15319471 0.18583041 0.2761534 -0.13760678 0.13667792 0.051613864 0.007469191 0.12941766 0.0695587 0.016900858 0.42521387 0.17767783 -0.12426168 0.016769568 0.41693956 0.026426235 -0.16153231 0.010941512 0.07434978 -0.21866292 -0.04422165 -0.5022027 -0.08006224 0.17542407 0.25393647 0.7101582 0.44542408
1815 -0.044374928 0.07153761 -0.13115887 -0.1613951 -0.14967792 0.03387517 -0.16490173 -0.0015509384 -0.03945692 -0.26025212 0.28242573 0.27911463 0.14074403 -0.13675429 0.3193788 0.4229333 -0.16785508 -0.03497946 0.05150147 0.028555302 -0.03669717 0.3620402 0.21754453 -0.09254328 0.024245683 -0.2446895 -0.18831293 0.25848156 -0.26283595 -0.004265915 0.008117449 -0.029406123 0.005927303 0.17944549 -0.11725579 0.33621827 0.11763934 -0.38144934 0.013765713 0.101725176 -0.23833616 0.49005222 -0.28806233 0.16323556 0.07809175 0.14698489 0.063946635 0.06777645 0.23815227 -0.06647755 0.23919174 0.2999952 0.024917731 -0.1299449 -0.06092561 -0.02915365 -0.08891922 -0.30010068 -0.20298336 -0.31922573 0.26298678 -0.04352201 0.601581 -0.12462983
708 -0.13884751 0.18786421 0.07509975 -0.15766652 -0.16057494 -0.2226026 0.023881702 -0.014669134 -0.06060763 -0.04891558 0.1238827 -0.22990386 -0.12220803 0.08342917 -0.060514424 0.3192215 -0.33384183 -0.22321168 0.14819433 -0.02889547 -0.018220915 0.21673323 -0.014759738 0.061194237 0.03566845 -0.49670255 -0.0945358 -0.073056534 -0.10117918 0.099188 -0.4167427 0.3543099 0.007941315 -0.07044665 0.08525001 -0.14488834 0.13845064 -0.0966751 0.18014881 0.18485829 -0.41467747 0.29219586 0.050494786 0.10210491 -0.033541135 -0.06513871 -0.030444605 -0.030707138 0.29322904 0.0036646153 0.26247555 0.4955045 0.1820465 -0.022633513 -0.19138291 -0.21383058 -0.088848315 -0.023825828 -0.14959936 -0.006603654 -0.05222677 0.1366571 0.3980779 0.37596002
1310 -0.05330507 -0.3660405 0.08745037 0.0065475255 0.09201834 0.06512641 0.232246 -0.45543933 0.20685734 -0.031235699 0.10820115 0.20733231 0.015654748 -0.19313122 0.32064977 0.3287149 -0.32717493 -0.099287026 0.14167395 -0.111112475 0.17644341 0.22793473 -0.120654956 0.009557449 0.26900437 -0.036761288 -0.022321902 -0.2727166 -0.09264085 0.1600061 -0.38231862 0.1921731 -0.14850539 0.1562742 0.021372654 0.28965557 0.028088529 0.101556435 -0.29056045 0.18700857 -0.22101955 0.121712685 0.058343228 -0.18612878 -0.06441885 0.036406077 0.21481325 0.30838457 0.2963124 -0.12352348 0.22347827 0.3322255 -0.18141298 -0.2559712 0.051233824 -0.2940266 0.26416266 0.164334 -0.23043564 0.16403243 -0.04986034 -0.025192952 0.30051842 0.06706937
1242 0.12548019 -0.24908765 -0.08290741 -0.14663517 0.009658543 -0.1921676 0.33997077 0.09627061 -0.40060398 0.013548877 0.075530216 0.34382623 -0.12514798 -0.054934498 -0.07730355 0.17625499 -0.04683738 -0.30873656 -0.16030595 -0.095274754 0.21955504 0.040406205 0.368718 -0.20835559 0.18062182 -0.30178097 0.18167011 -0.28039268 0.011800045 -0.03236903 -0.06434384 0.3511229 -0.313767 -0.1537785 0.261331 0.1906821 0.24295668 0.10593122 -0.12228064 0.36768174 -0.05784069 0.2422381 -0.29534623 -0.0680719 0.14839607 0.20615067 -0.14103405 0.39119956 0.25107512 -0.32260382 0.12309396 0.41821614 -0.08394709 -0.08650286 -0.014959129 -0.09031469 0.26691648 0.033062242 -0.12867227 0.09170138 0.06597175 0.19456774 0.54971987 -0.1171316
1116 0.026863797 -0.052354787 0.04643922 0.023399815 0.009899232 -0.06856549 0.080589846 -0.09912332 -0.11425495 -0.09988911 0.026725093 0.22209361 0.05272309 -0.3167195 -0.11833356 0.2931063 -0.21098955 0.17733377 0.05850294 0.11315044 -0.02369314 0.44630945 -0.19747302 -0.08978868 0.055091076 -0.23359804 0.057144564 0.0923807 0.00022197096 -0.018057888 -0.04048771 0.016955864 -0.008908611 -0.1780448 0.028071757 0.08122019 -0.091462374 -0.13623326 0.07675806 -0.12520644 -0.1527175 0.24382703 -0.093668826 -0.1183384 0.18269719 -0.0916663 0.08494647 0.4419256 0.25195655 -0.29293734 0.4201522 0.38635916 0.118343815 -0.14602727 -0.18978576 -0.38470876 0.24531378 -0.17494422 -0.22820158 -0.26483116 0.008992884 0.07264336 0.41431686 0.094974466
1127 -0.1317441 0.051499914 0.01943823 -0.13228582 -0.049457 -0.3840717 -0.040905107 0.124849334 -0.028811812 -0.23492005 0.1975569 -0.05122933 0.1771945 -0.36445448 0.1082906 0.40137723 -0.17975791 0.07519861 0.048368536 -0.03428223 0.03342104 0.12838888 0.08625526 -0.1692727 0.32367894 -0.20249523 0.2870425 0.16145423 0.085567705 -0.021762637 -0.09356356 -0.14220275 0.058846198 -0.14241935 0.21243022 0.2755768 0.3595514 0.08909903 0.16219935 0.37661028 -0.18792151 0.30843598 -0.48132154 -0.09053899 0.33868435 0.11065923 0.13044858 0.2789426 0.29029426 0.18449695 0.026778668 0.4208668 -0.3111012 0.0923093 -0.32272065 -0.16361716 0.1285715 -0.12871903 -0.12325647 0.08100464 0.040572815 -0.1324991 0.35790348 -0.08177447
2410 -0.31509188 0.025199492 0.21864498 -0.14478168 -0.14050876 0.08992761 -0.049059775 -0.22978327 -0.0052338764 -0.16714281 0.16437261 0.2920992 0.035583608 -0.36310107 0.25467518 -0.035740983 -0.182849 0.043234486 0.031312857 -0.10373022 0.12800272 0.015644576 -0.12927997 0.006368206 -0.16747884 -0.62927985 -0.070976146 -0.28172573 0.122436956 0.48911044 -0.11074271 0.23165417 -0.1884514 0.053881064 0.052769117 0.07310002 0.1791976 -0.16355412 0.04595476 0.27312586 -0.09169258 0.47102523 -0.059811857 0.16079718 0.19775441 0.11889155 -0.1374162 0.2736144 0.50706124 0.16812952 0.18827803 0.21950671 -0.2216942 -0.17815354 -0.030710703 -0.12832463 -0.18692698 0.019384474 -0.25725055 0.2705541 0.19207546 0.07034547 0.35390854 0.06806864
201 -0.23076116 0.075177275 0.39034277 0.2749326 -0.09876535 0.0033668939 0.24548301 -0.037637737 -0.11946048 -0.050525047 0.29135805 0.11771198 -0.058393426 -0.11220655 0.029108915 0.046566296 0.047502317 0.37573865 -0.096001804 0.033104062 -0.06480277 0.2054029 -0.068744324 -0.112763986 -0.21673128 -0.33497307 0.24804975 -0.023708558 -0.013226475 0.17937766 -0.20195365 0.17618597 -0.10570738 -0.13153552 0.0021331897 0.042736106 0.12883995 -0.064142674 -0.13777201 0.35700253 -0.72639555 0.17100354 0.0025250295 0.11883512 0.15649685 -0.1932433 0.067373805 -0.02656794 0.112186104 0.009495942 -0.0058419676 0.36155942 0.017997649 -0.17174742 -0.28228733 -0.49628583 0.19567771 0.04430269 0.03039864 -0.21033151 0.090572685 -0.07833029 0.33691308 0.27844763
729 -0.15248172 -0.13067508 -0.05549595 -0.33838674 0.14475138 0.10544078 0.26283506 -0.1647086 -0.0047769146 -0.04934312 -0.038860567 0.18915261 0.07992978 -0.33054104 0.2553743 0.09979462 -0.09783316 -0.27154687 -0.07365424 -0.031486627 -0.26962474 0.030188551 -0.12773468 -0.24857436 0.09445469 -0.057309404 -0.10799101 -0.020397913 -0.031329747 0.028693862 0.0432607 0.26956663 -0.27427763 -0.23225184 -0.004824787 0.20015435 0.29760453 0.07516321 -0.009309667 0.40547517 -0.3014964 0.06473884 0.18926439 0.024647623 -0.1411133 -0.049075432 -0.005150051 0.065621324 0.16802472 -0.11265233 0.5111172 0.17193627 0.029490976 -0.4299352 -0.18889679 -0.22365518 0.17183888 -0.28494075 -0.33250123 -0.05598129 0.12954049 0.022946296 0.55863243 0.13062967
2605 0.06273877 -0.27042902 0.021149471 -0.15689905 -0.051023457 -0.022291785 -0.025182847 -0.097162776 -0.11528259 0.014966172 0.07778794 0.29300678 0.393467 0.047935776 -0.05688849 0.22275563 -0.4128025 -0.056032553 -0.118399285 -0.054600157 0.025951697 0.23311712 -0.084276445 -0.036638368 0.14616336 -0.043518767 0.31342795 -0.1009414 0.10530297 0.2570779 -0.2718743 -0.08271617 -0.094163455 -0.096834384 -0.21475896 0.22095594 0.3668338 0.06219451 0.15603277 0.24131341 -0.19593382 0.21404207 -0.19834934 -0.23352863 0.1333133 0.035139218 0.09150431 0.06972562 0.12712555 0.03602355 0.1379994 0.2876472 -0.14835274 -0.43917906 -0.23684888 -0.12768248 0.2083559 -0.02071389 0.0054091816 0.039645135 0.2244899 0.028245257 0.6066813 0.1487911
653 0.07906365 -0.08249237 0.20080855 0.036078025 -0.3350484 -0.25360495 0.10032059 -0.2654703 0.050858997 -0.14626588 0.41886654 -0.14119431 0.007756626 -0.2505176 -0.0045290566 0.29407814 -0.18152383 -0.2190604 -0.03468614 -0.087868206 -0.1708926 0.2878318 0.3570536 0.16937953 0.02234461 -0.38323578 0.026377771 0.02018378 -0.21907322 0.17755783 -0.26118946 0.22032344 -0.014976784 0.17453554 0.40437797 -0.06824146 -0.035450462 0.02312528 0.06825094 0.3305395 -0.048298426 -0.035580553 -0.21294211 -0.10099335 0.011165475 0.2217823 0.28979132 0.5174997 -0.0026424145 0.0631673 0.16891764 0.2513675 0.0013865279 -0.049325168 0.026211658 -0.38899058 -0.009218094 -0.019517662 -0.08672915 -0.11168546 0.18966806 -0.0034863078 0.64277935 -0.04088154
2567 -0.11692616 -0.18313219 0.09339465 0.014972063 -0.20581554 -0.04558693 0.10329964 -0.032242134 0.106632985 -0.030429572 0.2703901 0.3556907 0.35726938 -0.2989587 0.14104782 0.13628769 -0.35787746 0.011424693 -0.12180179 0.22555478 -0.20662591 0.022517787 -0.04088274 0.111746974 0.22392164 -0.19357218 0.31769738 -0.15400566 -0.25715375 0.14640059 -0.109075986 0.037169665 0.23607394 0.0172455 0.22955716 0.22484891 0.027410988 -0.098828845 -0.26969504 0.27909553 -0.14241162 -0.10584663 -0.28291655 0.32928982 0.13896264 -0.042910118 -0.079609536 0.35031992 0.38090485 0.07582423 0.19099735 0.29960176 0.05597882 0.012333217 0.24130608 -0.28390756 0.11829285 -0.15615925 -0.16113819 -0.036852255 -0.10166959 -0.16103843 0.4674765 0.3270457
1611 -0.16214857 -0.07297044 0.05078131 -0.22555505 0.12325291 0.014253883 -0.13997507 0.107973486 0.30019405 -0.07048472 0.1204888 0.07110367 0.35738292 -0.10980419 0.067994535 0.47660682 -0.028733492 0.23259984 0.12804843 0.01184042 0.04173408 0.3926669 0.20368136 0.27944 -0.07316751 0.064564124 0.12616304 -0.1131894 -0.077093706 0.266813 -0.04612997 -0.15920822 0.13070421 -0.081486076 -0.085079506 0.15722929 0.018726235 0.17614374 0.27080187 0.20463657 -0.18201359 -0.078328714 -0.22749662 -0.087967336 0.12310957 -0.08141092 -0.06990834 -0.07270585 0.37471753 -0.08787141 0.20227237 0.44237855 0.009008883 -0.3848354 -0.3417568 0.099654205 0.0873252 -0.27280793 -0.29167312 -0.26508573 0.34131125 -0.22322807 0.62870926 0.3638427
874 0.18364716 -0.073217526 0.18289444 -0.028809922 0.010340528 0.05251784 -0.12592958 0.109334305 -0.122508615 -0.20963682 0.06568933 0.20818481 -0.051812172 -0.11141708 0.00058692356 0.07700154 -0.09429721 -0.2875414 0.33398643 -0.08484229 0.020269686 0.25036722 0.19708341 -0.28222346 -0.1407567 -0.22356632 -0.124986276 0.3068557 -0.2160312 0.069329515 -0.026165368 0.3730674 -0.1459715 -0.14078435 -0.097125925 0.09540979 0.021285558 0.19910125 0.018342705 0.33620986 -0.29713935 0.117906645 0.11418798 0.18242636 -0.022171177 0.06828885 -0.36236307 0.06431567 0.19834343 -0.06287461 0.20142749 0.2669693 0.018630382 -0.23971638 -0.1977507 -0.3065654 0.18210688 -0.23669346 -0.43117735 0.026230281 -0.022255993 -0.051759064 0.4491055 -0.05843032
1131 0.07124102 -0.22264695 0.17753431 0.120847054 -0.22652164 0.031126395 0.07990917 0.027616879 0.107495576 0.082413696 0.0008734008 -0.013197925 -0.10242828 -0.30027407 -0.047342613 0.4791191 -0.049341287 -0.048579957 -0.11178392 -0.12010186 0.23638146 0.008553281 -0.13417834 -0.20601697 0.13121203 -0.19653499 -0.114336595 -0.06706504 -0.009729429 0.11900724 -0.38244733 0.22498718 -0.15874071 0.103774324 0.07580973 0.37210083 -0.1615924 -0.19866195 -0.08501087 0.037078712 -0.3711137 0.3490256 -0.05917888 -0.046166837 0.04261306 0.054575816 -0.14698839 0.08109679 0.123973675 -0.14471218 0.1938954 0.24140225 -0.21199112 -0.1753322 0.034900095 0.059834857 -0.07794752 0.21182385 -0.24527241 -0.3217383 0.1691976 0.21213251 0.5346643 0.4040873
30 -0.20760751 0.26601133 0.038250934 0.22771205 -0.023749651 -0.049819898 0.11931223 0.136786 -0.21275777 -0.10016778 -0.052963853 0.12383611 0.24963365 -0.25367847 0.045274742 0.17051382 -0.07911106 -0.10645462 0.30073065 0.029520191 0.04916587 -0.03040849 -0.23481405 -0.09861705 0.008368947 -0.07365445 -0.0017163338 0.04711867 -0.056197524 0.21374758 -0.10721058 0.09222972 0.14453973 0.03509682 0.103642486 0.32053798 0.1425919 0.14660707 0.22812153 0.22180939 -0.4074895 0.019544907 0.074749246 -0.1508067 -0.014073922 -0.18765275 0.0007417001 0.028347552 0.12071429 -0.21777663 0.19247468 0.47765648 -0.31316715 -0.42802438 -0.21035306 -0.402076 0.12979987 0.022591004 -0.14743757 -0.18434756 -0.08328295 -0.041669738 0.5438209 0.23593478
1802 0.0007889723 -0.32905832 0.075311944 -0.1348967 -0.26719955 -0.24395111 0.057468235 -0.09780948 0.15929289 -0.24977359 0.089356385 0.05716353 0.1784673 0.061210286 -0.02092778 0.4682628 -0.17876193 -0.27008396 -0.10011296 -0.17392564 0.16916278 0.0513553 -0.27192542 -0.32130674 0.27210897 -0.2508577 -0.16804676 -0.088942066 -0.24409956 -0.11857574 -0.30437136 -0.00016923054 0.09072913 -0.1872717 -0.06810901 0.006060322 0.21059771 -0.08759857 0.4446129 0.5879586 -0.38571352 -0.123347774 -0.011957655 -0.14184926 0.19950621 0.07069849 -0.41186273 0.24809968 0.23208961 -0.24961993 0.04699453 0.11782679 -0.004930813 -0.19034642 0.07816058 -0.30486596 0.34327435 -0.102342635 -0.09407417 -0.28234503 0.25102523 -0.029051214 0.35969773 0.1444975
1147 -0.21102732 -0.26370382 0.23524763 -0.1615974 -0.09787248 0.03349302 0.1684059 0.109346926 -0.13104464 -0.12328511 -0.05904544 0.1992193 0.29891482 -0.113029964 -0.2318147 0.34041297 -0.24471274 0.06145524 0.12932982 -0.13906607 0.25065377 0.042527467 -0.023190716 -0.07371017 0.05350842 -0.2865913 0.24622154 -0.15318179 0.0111593725 0.22527058 0.046325233 0.101049565 0.08647534 0.051268104 -0.072725914 0.2718518 0.170325 0.42134506 -0.03485743 -0.097555354 -0.098489545 0.19548692 -0.33132017 0.030431796 -0.024826452 -0.1908042 -0.017807212 0.09762158 0.1521131 -0.041788053 -0.22261028 0.5217492 0.28077075 0.01492165 -0.09865492 -0.13446648 0.2964093 0.020128407 -0.4653174 -0.07377356 0.41399845 -0.14682978 0.4099317 0.2844014
1121 0.02206827 -0.1707611 0.115544625 -0.13129847 -0.25948918 -0.049648847 0.08973634 -0.060966544 -0.032704107 0.18334956 0.22464257 -0.017611608 0.07468865 0.01949434 -0.16687234 0.05442747 -0.3089975 -0.14773549 0.15170123 -0.30544567 0.34205198 0.34339607 0.16438428 -0.3780369 -0.03836731 -0.39425352 -0.18337852 -0.3474864 0.023329435 0.11403155 -0.07991281 -0.03688872 -0.053424355 -0.08990697 -0.14384449 -0.07125088 0.10243525 -0.0885974 0.25680467 0.22699127 -0.5956518 0.24573945 0.07222534 0.24953772 0.11362444 0.1825478 -0.080128 0.24554354 -0.074962884 0.121351205 0.2095553 0.13450891 0.09486533 -0.20739622 -0.40941715 -0.07619385 0.08475191 0.0110092955 -0.30962598 -0.33747324 0.15927753 -0.3226305 0.54834056 0.25344747
1465 -0.015778996 0.007045909 0.0025236565 0.024706855 -0.16539702 0.042668395 0.1668058 -0.060506202 -0.12121999 0.08756527 0.19603522 0.2709441 0.011882339 -0.17843969 0.098709896 0.21255493 -0.36827448 -0.078909166 0.12764038 0.32181868 0.13907264 0.45176676 0.25775772 -0.12260631 0.15442847 -0.12172607 -0.07964597 -0.1005384 -0.12656476 0.20074543 -0.119313195 0.13478824 0.03471125 0.04379733 0.062384292 0.16167212 -0.020517232 -0.10675455 0.1502368 0.17556405 -0.27083814 0.30071867 -0.15733317 0.13133669 0.04183419 0.016491238 -0.20704924 -0.044931803 0.35744506 0.08158375 0.34399658 0.12760147 0.05994967 0.039373018 -0.11788706 -0.40674895 0.025159165 -0.07190621 -0.1229342 -0.2450044 0.08823632 0.13650577 0.52192837 0.006340161
2438 -0.19312735 -0.0120818 0.16739783 -0.13335647 0.07479587 -0.12958254 0.0017500821 -0.06391389 -0.13812165 -0.03155989 0.5421861 0.07445947 -0.022997946 -0.08915526 0.20706902 0.24796402 0.025986955 -0.29229912 -0.12678114 0.18284543 -0.044827897 0.15290521 -0.247653 0.015945379 0.27756232 -0.27863917 0.041020952 -0.29258186 0.14295259 0.34402737 -0.1747392 -0.032298386 -0.058592774 -0.03564547 0.086208984 0.2670337 0.04429852 -0.069279686 -0.38533214 0.18560687 -0.14104979 0.34695983 -0.26743135 -0.034952242 0.3944082 -0.29764432 -0.30975017 0.22171707 0.1897832 0.092473425 0.25334147 0.3163545 -0.18223621 -0.1913685 -0.2872165 -0.31938198 0.23068857 0.082075015 -0.45663393 0.012661176 -0.030542657 0.1614101 0.3087875 0.18016732
2115 0.30147442 -0.096195005 0.13920787 -0.16861725 0.019814426 -0.17077658 0.06318319 0.106045656 -0.21875021 -0.08037593 0.18722752 0.20702653 -0.16833562 -0.09226601 0.18156743 0.0038566538 -0.12149985 -0.05082021 0.18358019 0.100588925 -0.20135188 0.07171376 0.008810698 -0.1048273 0.12279743 -0.44446054 -0.015684148 0.32834658 0.07440329 0.07325482 -0.24444367 0.6698623 -0.14467059 0.03910747 0.23622772 0.2672126 -0.010454384 0.21628797 -0.14423041 0.038781803 -0.17860489 0.30873102 -0.03640932 0.061728086 -0.06009398 -0.07677931 -0.23281135 0.14137329 0.094790414 -0.109517485 0.30901083 0.22932597 0.14615443 0.07221124 -0.12203825 -0.262385 -0.05865265 0.0018787754 -0.14054339 -0.36203277 0.17595537 0.09808329 0.50442517 0.22302993
256 -0.030413171 -0.18137822 0.17641476 -0.015614781 0.36702865 0.056381192 -0.18228497 -0.042188782 0.017103983 -0.49328136 0.14647163 0.16781366 0.0065745316 0.11775128 0.09258853 0.15986814 -0.14166631 0.06598436 -0.15423705 0.18862379 -0.04312074 0.26052335 -0.040437303 -0.2969961 -0.3186367 -0.15362394 0.25468776 -0.106998086 -0.20608981 0.13845775 -0.2979431 -0.19343457 0.004408772 -0.07991945 0.15351915 0.057500668 0.27835053 -0.13121296 -0.0771215 0.11169697 -0.31802407 0.3051869 -0.32216105 0.022676788 0.03998862 -0.09553875 0.1517006 0.24319972 0.35162207 0.05808099 0.34653312 0.27754048 0.079237595 0.0138851255 -0.14893438 -0.103001 0.11762894 0.036898814 -0.16621074 -0.13356262 -0.022129219 -0.18311523 0.7486257 0.08898933
2064 0.32657677 -0.11487267 0.41014785 -0.16811877 -0.091494 0.0497234 0.10323829 0.2686731 -0.19965872 0.14069223 -0.019126546 0.07671157 0.3571445 -0.028497718 -0.09253028 -0.12792854 -0.16532308 0.050703213 0.24036767 0.38739985 -0.058990303 0.0016512801 -0.12161524 -0.22700973 0.095010154 -0.03943129 0.16329037 -0.25915855 -0.11692214 0.033962026 -0.21192984 0.053010028 -0.15439153 0.041549787 0.06992012 0.35749236 0.24763328 0.13699462 -0.004785455 -0.08138396 -0.36532056 0.37625447 0.026214128 -0.12063504 -0.30032477 -0.09481454 -0.23572417 0.3414237 0.14941375 -0.106543116 0.31706637 0.338068 -0.2488582 -0.14545532 -0.22652346 -0.29643762 0.50135803 -0.27965733 -0.35492867 -0.2542833 0.17898262 -0.32099333 0.30570558 0.6492602
19 -0.030056419 -0.20887397 0.09786741 0.2658223 0.14110462 -0.16547562 0.2020189 0.20245665 -0.28777084 -0.19734776 0.24678114 0.32162854 -0.123991616 -0.23389241 0.34653205 0.20863277 0.011941166 0.07712843 0.020514995 -0.01610638 -0.11297537 0.09472097 0.019225864 0.11828852 0.12110598 -0.3516638 -0.052101217 0.07439991 0.0034144938 -0.2038384 0.13900922 0.07063663 0.13577966 -0.16451444 -0.09632522 0.051803462 0.0066269347 0.12299139 -0.19715062 0.32717562 -0.044534326 0.27899706 -0.033283945 -0.05521467 0.34699547 0.24595034 -0.15211299 0.15343918 0.37807816 -0.29374215 0.33841616 0.10626305 0.26832905 -0.34270522 -0.022122491 -0.48154125 0.3438125 -0.24980837 -0.040276434 -0.3689796 0.21739325 0.034277845 0.72575283 -0.08556529
2042 0.1347868 -0.21660735 0.03441001 -0.11225563 0.06309525 -0.0376765 0.033823594 0.035845846 0.07995462 0.099266656 -0.027449276 0.14451613 -0.25448895 -0.2098002 -0.011919904 0.37715322 0.12392885 0.10693949 0.078167595 0.14095953 -0.2700275 -0.08856585 -0.40682027 0.11386437 0.21790749 -0.07107159 -0.11038627 0.15928803 -0.040453717 0.29377708 0.23448427 0.024060652 0.10555363 -0.10171294 0.21690133 0.23853251 -0.05038344 0.2621328 0.028016003 0.27500683 -0.20897847 0.30692154 -0.008243789 0.06672818 -0.00744581 -0.1518296 -0.012953543 0.3579821 0.04207435 -0.1245957 0.42940515 0.33785507 -0.20386675 -0.28907526 -0.2956695 -0.15897992 0.28795803 -0.049279135 -0.25627628 -0.23476762 0.2896218 0.15396076 0.5251889 0.025100615
1447 0.035569713 -0.15488517 0.18605205 -0.22179711 0.102339365 -0.09202437 0.004494413 0.028834812 0.093481354 -0.0057336343 0.21367662 0.06710351 -0.067875385 -0.23747475 0.11471984 0.24260214 0.12997909 0.038897395 0.27043924 -0.06552224 -0.32190025 0.16642152 0.12802969 -0.00963018 -0.17270999 -0.16222616 0.0025994123 0.22021593 0.047787182 0.15631387 0.027402373 -0.08416594 0.11078149 0.1348073 0.14169696 0.2317532 0.036582027 0.4223196 -0.0321041 0.40877002 -0.12838916 0.59688646 -0.32108212 0.13554001 0.13018882 0.26836377 -0.32637382 -0.12996978 -0.0037424238 -0.0026674345 0.17397246 0.11793207 0.07518176 -0.018234476 -0.020079175 -0.16591167 0.20886646 -0.03930621 -0.3354144 -0.25859165 0.20543137 -0.038737852 0.6408583 0.30368578
51 -0.09543117 -0.1705872 0.2640033 0.06490399 0.07868998 -0.12148747 -0.02605549 -0.018165888 -0.26602578 0.03049089 0.35439968 0.014697836 -0.05441585 -0.25215006 -0.20794298 0.3648136 -0.04212813 0.14163798 0.19532183 -0.27633548 -0.020886846 0.2736009 -0.10300744 -0.17842838 0.084482834 -0.033068236 -0.078105755 -0.06710367 0.08545654 0.03437557 -0.13870652 0.4130769 0.10202077 -0.0441891 -0.20545156 0.13806854 0.16268785 0.049108744 0.13500938 0.2241588 -0.15950827 0.098451234 -0.37002122 -0.017868703 0.09864915 -0.10640982 -0.00043727664 0.23571701 0.18773067 0.12415751 -0.1360703 0.20761794 -0.3547005 -0.20044805 0.095337324 -0.2736832 0.11871215 -0.06209075 -0.51197284 -0.26004827 0.018819675 0.34598732 0.49731094 0.062486444
2701 -0.13519976 -0.37353987 0.2228324 -0.10708721 -0.08044354 -0.120001994 -0.10390428 -0.2784222 -0.18853138 0.09097032 0.18366334 0.038898524 0.049142268 -0.061748456 0.23383139 0.01360386 -0.27354348 0.19668025 0.30981913 -0.13922593 0.0655241 0.016401285 -0.21133207 -0.12813912 0.13701488 -0.31310424 0.14797297 -0.44034335 -0.07057716 0.119223185 -0.27091613 0.2622893 -0.2370255 0.015815472 0.05252238 0.22836651 -0.040603623 0.20298795 -0.10149136 0.09845709 -0.077088684 -0.081285164 -0.28765 0.022180384 0.22574049 -0.2534365 0.07674382 0.087047294 0.27140474 -0.1129401 0.14396027 0.253426 0.33880553 -0.169361 -0.018886337 -0.22447483 0.009538311 -0.05463187 -0.5690309 0.11171893 0.5536083 -0.041876256 0.37104315 0.4002413
2559 -0.25274792 -0.24928835 0.15512888 -0.18528521 0.18119423 -0.053951077 0.076675154 -0.066022955 -0.13114345 -0.06208477 0.45539176 -0.2247194 -0.2188978 -0.22272757 0.119883224 0.2386107 -0.06226849 -0.088925086 -0.1170579 0.1421563 0.06723815 0.26720503 0.121278465 0.10755543 0.11579159 -0.31853157 0.108062975 -0.22951657 -0.06880459 0.108117156 0.009151014 0.02970458 -0.0077218516 -0.040442355 -0.27669707 0.0004727043 0.20397104 0.06489312 0.08082288 0.013570913 -0.036981534 0.07940466 -0.015569611 0.17112856 0.07495079 0.041631665 0.09884732 0.40330082 0.17754072 -0.06692313 0.11292611 0.46896854 -0.0966533 -0.10693849 -0.38353467 -0.2127156 0.16704254 -0.009947964 -0.3759218 -0.4325432 0.12540291 0.08060813 0.64716446 0.15289854
1697 -0.09112094 -0.25108263 0.21686237 -0.17831755 0.039930973 -0.13570657 0.07801073 0.11957638 -0.28288463 0.09331746 0.2518255 0.14240731 -0.12192153 -0.08364099 -0.058103047 -0.13461576 0.08651444 -0.13249668 0.14638034 -0.15971144 0.07667219 0.1488678 -0.23157048 -0.38793218 0.11979022 -0.11739209 0.12528378 0.0057636923 -0.08762237 -0.078244895 -0.1956838 0.23318687 0.0029925725 -0.020519137 0.012918066 0.21260487 0.20907298 -0.03747985 -0.08017008 0.20092617 -0.1399063 0.31662133 0.13199745 0.15932262 0.04094781 0.3352428 -0.322693 0.2335191 0.304794 0.029148025 0.13440898 0.59723353 -0.19153138 -0.11316553 -0.049241763 -0.3178862 0.14021811 -0.011317457 -0.18042164 -0.15189302 0.070016414 -0.08604261 0.34716806 0.31495678
2310 -0.047844745 -0.1011372 0.019112078 -0.22426853 0.0534848 0.068076074 -0.17909363 0.1985652 0.12288553 -0.16447227 0.20475982 -0.14327179 0.10324048 -0.16619146 -0.11198627 0.21329911 -0.08071059 -0.010591674 0.33634874 -0.17716956 -0.00755952 -0.15999486 0.17716911 -0.24003874 0.2613398 0.01707146 0.21737832 0.1140689 0.052843865 -0.027391033 -0.22537859 0.15398622 -0.10247202 -0.1369187 0.21387438 -0.03391201 0.22411092 0.21498115 -0.057067115 -0.0034437329 -0.33274555 0.29669228 -0.09074649 0.07149956 -0.12959366 0.13085154 -0.15499723 0.43434954 0.23664373 0.107089885 -0.13044249 0.52962476 -0.13280225 -0.27350718 -0.25457117 -0.20704822 0.057363585 -0.06265319 -0.25536948 0.054183837 0.32158762 -0.43456352 0.5076474 0.08951311
200 -0.06770152 -0.13596427 -0.10720955 -0.24756016 -0.1485309 0.15728372 0.013601948 0.102770075 -0.05549271 -0.12423845 0.037297305 0.17593712 0.08858452 -0.2142632 0.2863884 0.23248218 -0.19469842 0.071778774 -0.052286994 -0.13390508 0.2009496 0.3511774 -0.0056249243 -0.12868135 -0.052104313 -0.3551966 -0.021006985 0.034804784 0.22198603 -0.03813582 -0.17103268 0.11701282 0.120470524 0.10785872 0.03608071 0.25586766 -0.013158744 0.28919795 0.14325614 0.20689927 -0.13318652 0.23858832 0.11631289 -0.22401783 -0.023970824 0.24804324 -0.09000468 0.2593742 0.4718492 0.05030511 0.1650725 0.28170127 0.13610247 -0.13358802 -0.38235557 0.08254396 -0.16860482 0.07924354 0.010625751 -0.063559026 -0.05574806 0.1306734 0.5849224 0.40993434
1460 0.19022964 -0.26192468 0.39979717 -0.097383924 0.16999976 -0.16560969 0.15778929 -0.093904994 0.3331047 0.12060945 0.026667697 0.08590881 -0.15058698 -0.10831049 -0.009458919 0.37600523 -0.10878788 -0.13837369 0.1759905 -0.011077705 0.13579792 0.2946666 0.049699727 -0.2642518 -0.029523432 -0.41772845 0.17152908 0.11547156 -0.19072568 0.109771796 -0.2536012 0.33630186 -0.06205595 -0.11630515 -0.071986616 0.19678476 0.08207254 0.094103076 0.035952654 0.26077852 -0.325238 0.29699147 -0.049882304 0.05354278 -0.11076525 0.17821808 0.038137887 0.288526 -0.06513495 -0.20210703 0.2222103 0.23872496 0.2722455 0.10229273 -0.032791067 -0.3500664 0.27750543 -0.14393322 0.17365001 -0.11076566 0.03036537 -0.009943334 0.53870493 0.1900723
1502 -0.034510978 -0.17321345 0.06798655 -0.36896065 -0.02764668 -0.15339838 0.20387807 -0.04426066 -0.01352954 -0.14402956 0.05515434 -0.16816963 -0.14077751 -0.35134655 -0.124126166 0.29795268 -0.22407559 -0.21952349 0.09220617 0.3091744 -0.10804025 0.25706968 0.14795643 -0.14184506 0.40387514 -0.06712095 -0.20623948 -0.049420875 0.10803004 0.07344928 -0.24902494 0.24814332 0.16416828 0.09200993 -0.15390617 0.13537663 0.292034 0.31599137 0.035085067 0.31655443 -0.13861117 0.21715197 -0.120566845 -0.2237193 0.122712165 -0.18763871 0.24514206 0.4416464 0.49509457 -0.07413019 0.24809375 0.1702208 0.027708657 -0.031409923 -0.034998395 -0.15121166 0.19775477 0.05379351 -0.32158202 0.13114661 0.28773752 0.034906227 0.2465823 0.1841443
952 -0.1710172 0.090504095 0.25394338 -0.49614358 0.115203 0.19744809 0.022412399 0.21676847 -0.031852055 0.008435013 0.22206964 -0.08671901 0.23416884 -0.16148204 -0.1089387 0.20020221 -0.19878487 -0.083464146 0.257127 0.03288335 -0.12470332 0.12282151 0.13719532 -0.2646272 0.13551834 -0.3078723 0.08257196 -0.164102 -0.27417767 0.13322905 -0.30412453 0.07397549 -0.006761585 -0.12905554 0.0054957443 0.3095262 0.17087084 -0.08499868 0.060989343 0.44933948 -0.08953052 0.051209398 -0.014102819 0.004980696 0.22455208 -0.16039789 0.060327422 0.20907903 -0.1943338 -0.06582707 0.076643534 0.23432645 -0.2083747 -0.344496 0.056201857 -0.34918123 0.13781734 0.0050721723 -0.25377065 -0.16434613 0.10241429 0.0069188736 0.5173075 0.42249304
1558 -0.02294799 -0.25354466 0.10601661 0.10471178 -0.066615514 -0.017322773 -0.024629002 -0.08251585 0.09940035 0.040302303 0.15406 0.27008292 0.09244727 -0.09678862 -0.017620761 -0.012042807 0.010851074 -0.23518719 0.20465507 -0.041494768 -0.1621199 0.26081458 0.112348706 -0.11068128 0.12196564 -0.062786244 0.19859757 -0.07824711 -0.16556749 0.03308394 -0.17116818 0.11876051 -0.14701803 0.08896053 0.022257486 0.45399576 0.2038692 -0.08128896 0.2544629 0.3182803 -0.47146556 0.50434875 0.061569948 0.16769992 0.23202431 0.10795963 0.1409487 0.19739136 -0.096807785 0.090088 0.37580952 0.26306844 -0.35351813 -0.32279754 -0.18728662 -0.13770933 -0.10052308 0.16144623 -0.23788622 -0.20828563 0.18075296 -0.11985798 0.4195483 -0.05468386
1126 0.087857515 -0.08724174 0.120044306 -0.08263458 0.0664465 0.23276359 -0.07949803 -0.13133961 -0.27281272 -0.28379765 0.24466148 0.23751318 0.29152355 -0.23405059 0.048007555 0.36944848 -0.045409232 -0.040434144 -0.081059024 -0.17480932 -0.2884484 -0.12584826 0.16532013 0.30770764 0.034759525 -0.18064786 0.24268444 -0.057476737 -0.0983758 0.15260611 -0.2815852 0.12150362 -0.16569372 0.019230694 -0.2688543 0.44900125 0.5180548 -0.08802379 -0.066928096 0.22951606 -0.058382202 0.2133336 0.099366166 -0.03371264 -0.10024455 0.0007663322 -0.09756522 0.26529458 0.50211024 0.12352034 -0.010867653 0.26151842 -0.122881435 -0.18408759 -0.3079346 -0.13144493 0.18561707 -0.40462777 -0.12123309 0.062150426 -0.07626124 -0.24179897 0.6801471 0.0861968
1095 -0.0659842 -0.122036695 0.53201056 0.01145061 0.26329708 0.12868582 0.0811292 0.012505971 -0.12886976 -0.34132233 0.101002 0.26649565 -0.10003062 -0.27092063 -0.3076273 0.21894307 0.048362955 0.12933448 -0.07438137 0.1294829 0.11200852 0.24667417 -0.22379209 0.013261411 -0.3171073 -0.3974938 0.009255978 -0.038970094 0.1680844 0.23100457 -0.17163186 0.21074782 -0.045453858 -0.055637717 0.06699945 0.22640535 -0.032103315 0.14163966 -0.1934959 0.06333954 -0.13614656 0.26070973 -0.18285134 -0.044894516 0.13530163 0.14233844 0.081093326 0.41758806 0.44389218 0.005435315 0.34312364 0.08797903 -0.050823335 -0.26016933 -0.079945475 -0.211146 0.20178723 -0.094375074 -0.35901237 -0.19659524 0.33157218 -0.061755206 0.29526147 0.10925578
1004 -0.17404796 0.06081881 0.1699321 0.113251165 -0.17495312 -0.17288671 0.19401425 -0.13665158 0.12669419 -0.21637903 -0.03280331 -0.17192544 -0.010602807 0.08728398 -0.27604133 0.40992913 -0.35511154 -0.05322812 0.06906635 0.19449443 -0.036304783 0.03070606 0.07610935 0.03306977 -0.15523964 -0.23137057 -0.13406213 -0.2386552 -0.012932035 0.20877598 -0.010969508 0.13394633 0.11563481 0.05004095 -0.048871916 0.051585764 0.39498946 -0.13105468 0.24353614 0.18026392 -0.23972166 0.053476185 -0.0467595 0.28882185 0.0446078 -0.090380944 0.007432236 0.5189141 0.22924885 -0.031884912 0.30091396 -0.0014207895 -0.05046326 -0.09087847 -0.16764458 -0.33386204 0.19515651 -0.25980246 -0.37484702 -0.22011173 -0.14493474 0.048512757 0.73729503 0.12817109
2599 -0.22641486 -0.37250328 -0.20226496 -0.29269543 -0.17013316 -0.067275725 -0.25409508 0.054690603 -0.11177569 0.06084364 0.28837398 0.26844054 0.13570152 -0.0213069 -0.17509581 0.25346684 -0.09777833 -0.016472332 0.03353203 -0.36691338 -0.020083085 0.24223222 0.17302373 0.10272723 0.2531789 0.10533593 0.33088148 -0.2908625 -0.089615785 -0.063621365 -0.23314744 0.41868553 0.37880263 0.32276726 0.044764783 0.12220313 0.24584252 0.38345945 -0.0765868 0.27646035 -0.29872674 0.034035098 -0.15954463 0.079773806 0.3715863 0.071163 0.0069315843 0.103356466 0.23222458 0.19425432 0.3500098 0.36429375 0.05783396 0.039377876 -0.25176534 -0.13707931 0.006459852 0.17565604 -0.4006471 0.13211809 0.042924743 0.15193218 0.3213313 0.35370022
1663 0.13062894 -0.08696252 -0.103256255 0.091723524 -0.0884182 0.18843816 0.31828064 0.14608546 -0.03241451 -0.09659826 0.29861403 0.31193486 0.068759665 -0.029622398 -0.054751303 0.21054691 -0.14317775 0.079315774 0.025594492 -0.086673655 -0.044879287 0.10359854 0.061874412 0.07495211 0.040319562 -0.11019305 0.23103948 0.020012308 -0.16262652 0.12116011 0.0030561427 0.27338877 0.12403407 -0.08274689 0.06015039 -0.03425839 0.14829348 -0.07216974 0.27032372 0.08703335 -0.26427075 0.017858574 -0.0112574585 -0.04838742 0.22326697 -0.014235253 -0.11911025 -0.09839198 0.16116937 0.2845239 0.33677664 0.39953247 -0.06616204 0.12709993 -0.18257028 -0.35871157 -0.21379045 -0.32573667 -0.08908169 -0.35687143 -0.027666852 -0.017378708 0.6805512 -0.12177557
57 -0.242809 -0.21112756 0.034002293 0.05433093 -0.24319181 0.24602634 -0.10084339 0.15013018 -0.19660786 0.16106004 -0.033371374 0.119797945 0.032683626 -0.047112178 -0.011298806 0.25510895 -0.23275258 -0.0050460296 -0.11779993 0.120487854 -0.05699402 0.30015373 0.05150433 -0.101704575 -0.012377128 -0.43088537 0.12598315 0.14067824 -0.12611672 0.12488237 0.05230241 0.109329626 0.24243964 0.06039984 0.27480873 0.14852896 0.10553544 0.14123668 -0.15281083 -0.041080814 -0.36651245 0.35694626 -0.20575556 0.21194349 -0.03915983 0.0015985285 0.2538283 -0.006343631 0.44010794 0.10342678 0.20811988 0.34570414 -0.021869164 -0.09329357 -0.12638804 0.012848346 0.09460599 -0.11272627 -0.42698085 -0.2683129 0.37002861 -0.028533999 0.5738047 0.05265812
967 0.14291503 -0.008728899 0.07424994 0.17834751 0.059546903 -0.40264478 0.055224646 -0.51454526 -0.42141974 0.07153132 0.30382645 0.4607783 0.22202061 -0.35271472 0.18140037 -0.012945819 -0.042724516 0.28325814 0.03301249 -0.3258375 -0.0021303743 0.00734928 -0.26896074 -0.052357916 0.15521488 -0.33716795 0.13704933 0.03455942 -0.02108719 -0.07208721 -0.111550145 0.030064095 -0.31177267 -0.02322373 0.15731807 -0.05254616 0.16280234 0.026505787 0.15628484 0.39902604 -0.3270796 0.2323492 -0.12508991 0.18356043 0.19391654 0.21792348 -0.07927385 0.15387216 0.012077582 0.36410838 0.08952663 0.29430762 -0.0043126303 -0.11621937 -0.40241256 -0.47405538 0.2508093 -0.015856395 -0.2487761 -0.15937658 -0.0074934806 -0.12021247 0.2517265 0.104838565
1673 -0.057618476 0.0385526 0.11723461 0.048405696 -0.12144323 0.10480674 0.12688045 -0.0937157 -0.10520149 -0.26127997 0.4943241 0.2684764 0.04377204 0.25784427 0.18726414 0.12273007 -0.16665012 -0.02585972 0.16235612 0.1142126 0.098757565 0.39747772 -0.10777071 -0.10426379 -0.16085266 -0.23685467 -0.07560247 0.092483185 -0.32719597 0.26202244 -0.0641425 -0.11461201 -0.18788332 -0.010746931 0.08960203 0.09935432 0.07425479 0.03833687 0.2101183 0.36794463 -0.61735857 0.25509754 0.28096458 0.29129484 -0.028242974 -0.14670679 0.1271207 0.1640317 0.3902997 0.051465314 0.33226126 0.2698525 -0.2057579 0.092662744 0.12147744 -0.31423616 0.31960535 0.076048546 -0.27158815 -0.19814578 0.022788681 -0.11628456 0.32485896 -0.106523685
866 -0.28284675 -0.19907884 0.11750957 0.071292296 -0.033206157 0.088487975 0.17292807 0.38267094 0.035427943 -0.074397266 -0.29889023 0.027800374 0.09887482 -0.058292087 0.0942707 0.13569053 0.09021783 0.31027937 0.053165555 -0.08420168 0.21008132 0.056073826 -0.13384257 -0.16745229 0.10529765 -0.085493125 0.050632227 -0.09117766 0.04904906 0.097649954 0.23497127 -0.17236954 0.39299658 -0.05003017 0.111457944 0.36634904 0.36913458 0.09232481 -0.31477156 0.26240793 -0.6361825 0.3352486 -0.32219738 -0.031010643 0.01951244 -0.13640721 0.23291786 0.3076207 0.15330246 -0.16167371 0.12793395 0.27642387 0.029311124 -0.26778367 -0.04553804 -0.281583 -0.026832102 -0.023747008 -0.040827807 -0.21089871 -0.20606908 0.08346959 0.63250434 0.21084097
2368 0.0970472 -0.26938546 0.19580488 0.030523293 -0.006613904 0.27460974 0.10188397 -0.16785872 0.058970433 -0.17105561 -0.21493581 0.1572716 -0.2091605 -0.044285122 -0.34064683 0.29842088 0.037502553 -0.1808783 -0.13379648 0.18014981 -0.03418086 0.25904357 -0.1836403 -0.07055708 0.048376966 -0.09349671 0.11173551 0.108268335 0.10321586 -0.1780529 -0.1840693 0.27872327 0.29920372 0.16644752 -0.112587415 0.09640862 0.17824814 0.4805011 0.051840894 0.12621717 -0.36724162 -0.042821348 -0.028767964 -0.14210385 0.03329036 0.03338614 -0.31310973 0.3072575 0.45902804 -0.16409482 0.1849831 0.31980777 0.11772299 -0.039284132 -0.15653542 -0.2641111 0.14431639 -0.4768024 -0.2738897 -0.34559232 0.31716713 0.062128767 0.399875 0.14875959
2229 -0.03591512 -0.28438133 0.03245109 -0.0711633 0.12694982 -0.39385524 0.16928625 0.32034525 0.046756532 -0.13297024 0.060188632 -0.27550313 0.09705194 -0.056883264 -0.07111859 0.31107712 -0.01971207 0.12830062 0.27157214 0.25259084 -0.20417863 0.13480607 -0.05928176 0.11705396 0.21993317 -0.21138391 0.029116482 0.12885308 0.09851727 0.047284506 -0.259162 0.010634292 0.10447941 0.35137987 -0.16715652 0.25562084 0.14782071 0.039706312 0.17169829 0.26413736 -0.88759077 0.398734 -0.021010019 0.16252798 0.11381429 -0.11028691 -0.089864075 0.21758324 0.12630725 -0.093889266 -0.07153348 0.5724819 0.4788596 -0.022824217 -0.14465296 -0.18544728 0.32113656 -0.20528436 0.030140957 -0.15060984 0.13231015 -0.075257406 0.3055386 0.23483638
1274 -0.023208616 -0.0008332531 -0.13175136 -0.016500443 -0.25110903 0.13656633 0.1743721 -0.15971808 -0.15661725 -0.34441033 0.0014146178 0.3364712 0.30294824 -0.33480513 -0.09254359 0.23859268 -0.2071949 0.07127292 0.17797329 -0.08576876 0.06847785 0.4039278 0.00013270596 -0.23432724 -0.041804343 -0.33102998 0.012225398 0.10945115 -0.17562957 0.13990067 -0.18870457 0.14334074 0.12630123 -0.08709808 -0.242201 0.24611065 0.2704153 0.20953818 -0.03921217 0.1733886 0.043300327 -0.010507083 -0.06904706 -0.09679912 0.060999222 0.11802465 0.08009568 0.17068301 0.005799807 0.016679512 0.08756018 0.42172998 0.07899484 -0.1588887 -0.17147352 0.073293045 -0.061190873 -0.07485601 -0.20531425 -0.20618501 0.3239736 0.32737246 0.47860798 0.20732872
892 0.1485343 -0.014574206 0.3081972 -0.2350693 0.082952075 -0.22342943 -0.01732322 0.08117444 -0.034393676 -0.34304008 0.20093775 0.065455034 0.10989463 -0.56620306 -0.11016604 0.11860553 -0.20919003 -0.004321015 -0.10027019 -0.23183061 0.11884906 0.35239395 -0.15153404 -0.24614425 0.14831167 -0.10167328 0.3640851 0.5948005 -0.08502022 0.19633503 0.1249985 0.119250216 0.0082122125 -0.20865875 -0.1299647 0.14886446 -0.04170926 0.13148236 -0.087861806 0.028293855 -0.34913188 0.13740529 -0.30214885 0.24624997 -0.009325744 -0.13420293 0.19212529 0.44439954 0.16991678 0.052552953 0.018827785 0.35396835 0.1275514 0.10642123 -0.13726707 -0.28613257 0.21888609 -0.2909303 -0.3317238 0.02544564 0.036707804 0.23426369 0.26783282 0.22028807
2358 0.10916858 -0.011198046 0.06818339 -0.06483999 -0.013560962 -0.06604856 0.045412086 -0.03963793 -0.043423858 -0.25945565 0.17046933 0.3935214 0.1343656 -0.23670475 -0.074013755 0.44484717 -0.20959121 -0.09133734 -0.036445554 -0.025003804 0.020767028 0.34878486 0.009230984 0.108346425 0.39161795 -0.19229583 0.048965625 -0.08684641 -0.121777594 -0.117233366 0.026120083 0.39144656 -0.115545236 0.35165414 0.008929402 0.07126258 -0.047464166 0.17463823 0.0097204195 0.37064603 -0.120397374 -0.1255059 0.13354696 -0.16386993 0.051820662 -0.071693964 0.014653649 0.29653373 0.28998938 -0.043374393 0.31104103 0.37191674 -0.050670564 -0.2682377 0.005314151 -0.13265553 0.026944324 0.087863415 -0.10555798 0.06952568 0.19447628 0.12213343 0.39288485 0.14512402
1054 -0.23081493 0.12855308 0.13226672 0.085105814 0.09500256 -0.2566124 -0.043105796 0.13128033 -0.031281464 -0.18714598 0.36845666 -0.008095548 -0.087391496 0.12803662 -0.2934515 0.33990318 -0.20079799 0.24026796 0.05133438 -0.09533578 -0.046311814 0.02909672 -0.076899454 -0.17185067 0.3160947 -0.051191688 0.14724144 0.12217942 -0.06761259 0.24030724 0.052576482 0.35934824 0.176735 -0.031567246 -0.024793928 0.26269525 0.060289808 0.2075806 0.09002257 0.2829707 -0.337732 0.110754654 -0.30914882 0.21782094 0.08121925 -0.17334585 -0.082551956 0.2890423 0.26827005 -0.079230726 0.28797314 0.2708738 -0.017980572 0.019981986 -0.078599535 -0.41057226 0.119446196 -0.22921033 -0.043335035 -0.1606703 0.28174582 -0.039152525 0.32688123 -0.024976058
1132 -0.22554982 -0.24859448 -0.36797345 0.28520837 0.08830583 -0.142122 0.50905967 -0.08334517 -0.016729886 0.17925547 -0.0647433 0.09267601 0.09101233 -0.17675936 -0.06989821 0.50121456 -0.25788322 0.034043096 0.31140763 0.0018556592 -0.04342048 0.37886328 -0.028910741 0.06838746 -0.0010817244 -0.029168664 0.15956001 -0.22453247 -0.11246078 0.1449515 -0.22135484 0.26797503 0.15456745 -0.010268729 0.36540022 0.40937197 0.35933897 0.06936042 0.014438967 0.29275712 -0.37486264 0.3164627 -0.13096441 0.22337636 -0.049601186 0.04585831 -0.03219471 0.13831168 0.25896654 -0.30372906 0.0752397 0.28411853 -0.070259795 -0.17387803 -0.17889348 0.11938927 0.10542799 -0.41366768 0.030493814 -0.26845708 0.058918 0.0049260063 0.35503104 0.30837658
1049 -0.07909889 -0.3057194 0.23663107 -0.045647692 -0.00931044 -0.15597603 -0.05849924 -0.16691741 0.08108381 -0.11737111 -0.026856974 0.30497694 -0.057826217 0.11524499 0.076004066 0.27809447 -0.09830299 0.017061023 0.20199431 0.032862175 -0.030130511 0.25921488 -0.14755297 -0.14947553 -0.12230028 -0.2796274 -0.02718957 -0.2462685 -0.1926701 0.08347569 0.1075481 0.012209912 0.2377823 -0.2776503 -0.03340369 0.31687194 0.32269138 0.16984244 -0.021400828 0.45219493 -0.49700865 0.18221335 -0.17195503 0.22805355 0.03131388 0.1193513 -0.07942312 0.34133002 0.14013782 -0.056392442 0.06979354 0.13519505 0.302715 0.13464667 -0.07438813 -0.51413393 -0.090569936 0.18980266 -0.43752092 -0.112302795 -0.021465758 0.09181403 0.30572423 0.27190053
2118 0.000119859265 -0.43622595 0.10972747 -0.094335236 0.1663372 0.03081204 -0.12725164 0.053623594 0.14289503 -0.2790698 0.066868216 0.1424702 0.14787695 0.019150846 0.13158303 0.2403625 -0.38969922 -0.10878587 -0.04896332 -0.12717293 -0.0017919848 0.13726094 -0.05950167 -0.061645374 0.014199754 -0.16668144 0.015036393 0.06765813 0.073324256 0.112111904 -0.22418399 0.060209975 -0.07738218 -0.09019842 0.12813164 0.45177066 -0.13166831 0.2190412 0.031958073 0.08746521 -0.19390327 0.36848718 -0.19711864 -0.044003185 0.14761765 -0.10306901 -0.027570423 0.15290342 -0.057335697 -0.12380643 0.28289878 0.32449663 -0.28991884 -0.10401345 -0.37804067 -0.063293636 0.25096837 0.0634283 -0.36112404 -0.08125613 0.2010609 0.0024237037 0.39620745 0.11039089
768 -0.103110865 -0.25396523 0.28944153 0.07026336 -0.21716899 -0.08730282 -0.1245193 -0.045270875 -0.1194141 -0.030724304 0.033244923 -0.09435721 0.062810995 -0.18923025 -0.04443771 0.15299313 -0.0042522554 0.17060012 0.27108657 -0.104785755 0.05103416 0.27551 0.43178535 -0.20389362 -0.0999411 -0.39877763 -0.028559579 -0.17895658 -0.21075454 -0.08294851 -0.26633137 -0.09860529 0.052503888 -0.024678968 -0.035091326 0.28412712 0.24084826 0.18290955 0.15585303 0.32921633 -0.0819213 0.44173604 -0.022615544 0.37278125 0.068554275 -0.07207383 -0.038599815 0.029948972 0.4182882 0.020729277 0.22947042 0.03193239 -0.17202248 -0.15533584 -0.11786574 0.24198344 -0.038684588 -0.16335617 -0.2086576 -0.20930643 0.1534453 -0.27352077 0.6428401 0.2342257
2009 0.12664424 -0.15669726 0.28924233 -0.101277225 -0.11643217 0.22195816 0.12044491 0.083222486 0.20161755 -0.0775578 0.18330485 0.27093905 0.21439955 -0.28764626 0.11760482 0.2799532 -0.1598702 -0.15338618 0.087832734 0.20384224 -0.43139035 0.4433782 0.058114603 0.17117772 0.10554742 -0.2576646 0.20187056 0.083769985 0.013399423 0.015776556 -0.07764845 0.17812854 0.10118202 0.012901905 0.04492701 0.12963803 0.2830905 0.11233244 0.013891122 0.23803024 -0.3595011 0.23048383 -0.18392166 0.11373968 -0.057215303 -0.08484605 -0.091838256 0.32589662 0.18400131 0.017456053 0.01396815 0.11360899 0.21818116 -0.16333489 -0.06413304 -0.14354868 0.18484233 0.014367821 -0.08004322 -0.17968455 -0.048175614 -0.4035991 0.50349814 0.19825478
2077 -0.044263404 0.20355663 -0.06446666 -0.059975773 0.044912536 -0.202658 0.05284511 -0.13804768 -0.055990517 -0.1226706 0.10086902 0.16757105 0.11757602 -0.20960778 0.14951682 0.41012648 -0.14479922 -0.17404471 0.2565053 -0.043275952 -0.102492355 0.18909854 -0.049367152 -0.3045505 0.1196364 -0.26114205 0.0024659545 0.042017713 0.076874524 0.022193315 0.20585157 -0.00879626 0.13543324 -0.102351986 0.23936926 0.23847546 0.33011115 0.09732959 0.28952995 0.37952426 -0.22298586 0.24162835 -0.21118042 0.28280407 -0.026016882 -0.12010527 0.12967835 0.3523573 0.27457607 0.07972374 -0.024235455 0.29246986 -0.1451383 0.047854226 -0.12842964 0.059316706 0.11367683 -0.10004742 0.012567693 -0.20371075 -0.19858281 0.1307639 0.47076684 0.31159037
8 -0.035213716 -0.01773042 0.11709893 -0.011777339 0.18493374 -0.30162328 0.26469097 -0.1398166 0.20785902 0.20433158 0.30543828 0.16015504 0.055158757 -0.16079998 0.023339594 0.26857403 -0.18234487 0.08776023 0.4843212 0.3380708 -0.14956461 0.052754425 -0.060248297 -0.28783807 -0.03313848 -0.25608665 -0.116325274 -0.05420938 0.08462575 0.29747367 -0.3976038 0.18051293 0.110138535 -0.018307142 -0.008201664 0.21104573 0.18724501 0.099394955 -0.16475034 0.19800226 -0.046620306 -0.09755272 -0.29582295 0.29009554 -0.039194223 -0.23318174 0.0055466336 0.49216285 0.19028912 0.07660585 0.36382732 -0.013879004 0.11427473 0.090381995 0.06681421 -0.12865838 0.1290198 0.020292897 -0.5075139 0.11056557 0.24055813 0.11206338 0.72661954 0.09455688
868 0.07315113 0.15897463 0.034477506 0.046542097 0.111685686 -0.16713208 -0.09555441 0.028562842 -0.006842645 -0.1638553 0.061166953 0.033910148 -0.019663746 -0.11198014 -0.06511801 0.5233326 -0.21808657 0.27863872 -0.10570549 -0.15321176 0.365134 0.17930897 -0.11811423 -0.13590635 0.2519659 -0.18042314 -0.19865608 0.31409627 0.029584697 0.47374395 0.029084869 0.05197304 -0.014183157 -0.2733485 0.033518128 0.08548989 -0.15387115 0.25964245 -0.10556831 0.25517645 -0.1661835 0.32773662 -0.22479828 -0.0035785385 0.097590595 -0.090552084 -0.2842962 -0.020092508 0.2692009 0.028983261 0.13004896 0.4842046 -0.01970207 -0.08786145 -0.53473246 -0.03367617 0.1567888 0.20137875 -0.021497699 -0.1756187 0.17091222 -0.072589554 0.3965292 0.2508085
2552 0.05002801 -0.24051957 0.43682647 0.036454983 -0.28005806 -0.1301221 -0.005797251 0.06165978 0.1208203 -0.08679675 0.027222054 0.042822644 -0.20214282 -0.07129366 0.1211477 0.042742044 -0.23688735 -0.14393395 -0.09160021 -0.11262993 0.32963976 0.1221535 0.069154285 -0.2103848 0.26239327 -0.35938984 0.09232758 0.2252764 -0.0194278 0.090011634 0.030990671 0.29788697 -0.095115796 0.35439983 0.30204654 -0.1615923 0.3253509 0.08008014 0.23190092 0.16085242 -0.22712119 0.3520167 -0.10308194 0.3792439 -0.12730771 -0.030715777 -0.035673562 0.053628024 0.34259912 0.09522861 -0.13588023 0.33469716 0.026778018 -0.12830625 0.016484905 -0.10640163 0.13743721 -0.1221975 -0.15398571 -0.22806343 0.21938623 0.031491067 0.67100656 0.078875
2555 -0.14993134 -0.16526094 0.06879507 -0.118680865 -0.09128438 0.020592254 -0.112325884 -0.22648478 0.0465149 -0.105417185 0.29518384 0.051791877 -0.12862526 0.016557325 0.11346681 0.24947192 -0.081996724 0.06758291 -0.013088136 -0.12957558 -0.07496793 0.3388749 0.07026443 0.0014876535 0.17175852 -0.17470013 -0.1037235 0.21428162 -0.0150695685 0.13082731 -0.039485518 0.13595362 0.122658655 0.1495141 0.25179702 -0.045463216 0.23803821 0.47636202 0.14019527 0.2764321 -0.15382741 0.05096473 0.04196187 0.097074136 0.15472327 -0.20387018 -0.19416533 0.15001504 0.16798191 -0.023915486 0.16860701 0.36342162 0.07268127 -0.03280042 -0.07914174 -0.26719335 0.13590924 -0.17052312 -0.45652857 -0.34525263 -0.11538831 0.025476234 0.46393734 0.25878304
1477 -0.13681242 -0.077624716 0.105250195 0.21147051 -0.2412511 0.19530433 0.10778202 0.12184133 0.03492735 0.29598597 0.077484116 0.11377138 0.06855416 -0.18106218 -0.20917055 0.35255024 -0.083937235 0.13323827 0.26944837 0.12904051 -0.0568673 0.24656911 0.17330036 -0.03903087 0.037213497 -0.024438709 0.26825112 0.020492243 -0.03602964 0.2173337 -0.011439305 0.28691038 0.067141764 0.020000726 0.027183445 0.067535296 0.20696387 -0.23553418 0.028468082 0.20436473 -0.12483646 0.32353717 -0.22848807 0.2980593 0.0066297003 -0.026855376 -0.06738055 0.2018984 0.35586134 0.11805564 0.09792633 0.3356915 0.06957048 -0.099076144 -0.051884763 -0.08098601 -0.0189512 -0.049847763 -0.12719892 -0.18995419 0.06366748 -0.11008826 0.75148475 0.10052504
212 0.017630007 0.06357669 0.28380948 -0.16475302 0.07894448 -0.03394685 0.4120786 -0.04986756 -0.13984907 -0.12021312 0.18250598 0.34398615 -0.09756788 -0.072136894 -0.21098478 0.19564669 -0.09038217 -0.09284979 0.32353812 -0.22491355 -0.1622672 0.26747486 -0.038024973 -0.19967136 0.2074861 -0.26349866 0.12663989 0.08469833 0.008366782 0.35730293 -0.18609895 0.53924364 0.18367687 0.22541744 0.012558913 0.13778503 0.14502321 -0.07203535 0.02681399 0.21957736 -0.048047174 0.17317735 -0.17097808 -0.206334 0.39219227 -0.4167657 -0.3732186 -0.10850066 0.21083575 -0.040616773 0.2413573 0.030113086 0.015300593 -0.28836527 -0.34945923 0.008062467 -0.03940642 0.13204676 -0.218531 -0.13863297 0.38223046 -0.022525897 0.57056016 -0.025705976
1057 0.09616484 -0.106578305 0.27038777 -0.24017215 -0.25938684 -0.26210958 0.29908875 -0.013992038 0.19953519 -0.25275502 -0.1611443 0.09710082 -0.07204821 -0.036086563 0.3220487 0.1387303 0.016986366 -0.11456015 0.00493555 0.10815919 -0.035073943 0.03166984 -0.048436213 0.011936828 -0.178137 -0.22749235 0.061669976 0.15438858 -0.12691371 0.26251805 0.0957402 0.2668255 -0.32624498 0.026885163 0.26354674 -0.032234143 0.036112897 0.38920283 -0.12293837 0.35249975 -0.36108693 0.37448123 0.054110024 -0.13741778 0.058670055 0.09673226 0.3785852 -0.046384625 0.41238624 -0.085503414 0.35513029 0.43253437 -0.16426739 0.13044791 -0.10498602 -0.5434671 0.2489555 -0.16051173 -0.14837188 0.030390581 0.14061506 0.06719996 0.49529058 0.20969881
710 0.17223035 0.15024209 -0.13571167 -0.121977076 -0.14151761 0.18261023 0.03746552 -0.35613587 0.20946325 -0.079147086 -0.051021647 0.176242 0.028468566 -0.24153022 -0.035336733 0.28376287 -0.26190588 0.01378871 -0.112406485 -0.12159688 -0.023472322 0.3908868 -0.050295457 0.0051154816 0.32511857 -0.25462544 0.16827059 -0.19248243 -0.07030743 0.08563801 -0.0073267543 0.042756334 0.09986607 0.118393146 0.08932121 0.06124699 0.08335539 0.4133008 -0.0154326 0.18097556 -0.13916957 0.19592081 0.087295055 0.09354088 -0.13767871 0.13546255 -0.18059137 0.16836104 0.13339801 0.14318843 0.1356684 0.50015503 -0.014436817 -0.22092026 -0.37540022 -0.16801295 0.11862541 -0.3744872 -0.21249801 -0.22261499 -0.11910093 0.006322526 0.29641786 0.27484402
1348 0.08180679 0.09793625 0.13913888 -0.060720835 0.15392703 -0.049225282 0.20108306 -0.20730454 -0.017408554 0.1137985 0.10551342 0.17727523 -0.22012386 -0.41429552 0.020459497 0.04239077 -0.07621701 -0.1483262 0.21414651 -0.11060559 -0.057353538 0.21804424 0.23777016 -0.14803888 0.2489524 0.031723548 0.043552566 -0.16825499 0.18258047 0.40589634 -0.30650276 0.28638095 0.074593514 0.08939988 0.24191277 0.19537883 0.112210125 -0.031125965 -0.04263212 0.14808774 -0.3169762 0.10158399 -0.41903156 0.16919309 0.13563584 -0.06517827 -0.06794359 0.20607552 -0.007974911 -0.038872093 0.04298136 0.21686618 -0.17369682 -0.14319058 0.07070861 -0.273499 -0.15683801 -0.19212164 -0.45920208 -0.40643865 -0.08997448 -0.057734456 0.32119122 0.2834657
1096 -0.008050197 -0.23064245 0.04760135 -0.11659669 0.06243078 0.04777359 0.059487164 -0.015959166 0.045343 0.0132575305 0.25267586 0.2443451 0.15364371 -0.12907366 0.15950191 0.4444709 -0.2210686 -0.15861852 0.10237751 -0.1546687 0.07201042 0.04895296 -0.3646471 0.049295202 0.05016243 -0.010894237 0.10790586 -0.124103375 0.016732786 0.48647684 0.085479595 0.031780217 0.31822553 0.0044888537 -0.057141006 0.15631987 0.26072425 0.06492723 -0.19483887 0.31468612 -0.08051751 0.037250686 -0.04898016 0.26107287 -0.04081999 -0.21217917 -0.34164983 0.22381093 0.22803122 0.08645966 0.16159485 0.33395892 0.18086237 -0.257727 -0.20397651 0.002779162 0.2822636 -0.22451226 0.029120956 0.062128033 0.024296932 -0.0840877 0.69735587 -0.061650973
197 -0.019296555 -0.47902167 0.08949724 -0.076121025 0.024711924 0.26729915 0.03375286 0.0026713104 -0.2838092 0.012391815 -0.0894907 0.14872102 -0.011543296 -0.079288356 0.2455618 0.102382645 -0.3174808 0.010570741 0.102540895 -0.066196956 0.12778506 0.42138743 -0.15266916 -0.28184718 0.018477278 -0.08327265 0.39064687 0.1436242 0.03446158 0.14940539 -0.26470712 0.5253224 -0.025744919 -0.41117454 0.022448702 0.2159064 0.21704213 -0.072510615 0.16224411 0.14043118 -0.061143916 0.24909842 0.16215941 0.014636134 -0.2403029 0.012305141 0.21520509 0.18028632 0.56415576 0.052336935 -0.052096803 0.28667024 -0.13401969 -0.13337189 -0.34283867 -0.011456113 0.22510481 0.07787975 -0.45162112 0.05870379 -0.12649982 -0.14249676 0.34604195 0.36962214
1894 -0.08019394 -0.2921278 0.18685114 -0.003182573 0.13358992 0.019721892 0.182435 0.040126957 0.23213847 -0.024872093 0.22570145 -0.2466017 0.08302861 -0.11164398 0.16485691 0.30002752 -0.22117615 0.0031116924 0.28644168 -0.11072667 0.15333723 0.32802024 -0.2968991 -0.020972017 0.1832898 -0.43312243 0.08012251 0.14104165 -0.26628307 -0.3271147 -0.08387186 0.21836089 -0.03635176 -0.04861704 0.18287818 0.16517228 -0.0066690263 0.072800875 0.01469761 0.11064735 0.02341031 0.25342694 -0.12826909 -0.12910901 0.021832503 0.014808558 -0.13399799 0.147298 0.29155993 0.16993023 0.22346288 0.20706187 -0.099715844 0.0051786574 -0.3028068 -0.2008919 -0.11793889 0.20342071 -0.15272354 -0.21573353 -0.0564802 -0.35065234 0.51852745 0.053339735
1799 -0.023375753 -0.24725239 0.17112146 0.1914211 0.02980643 -0.13597511 -0.09242616 -0.073779866 0.10364897 -0.08580646 0.22448629 -0.08167278 -0.06063745 -0.063038565 -0.066334814 0.18216532 0.1713914 -0.06872765 -0.09010099 -0.108326755 -0.07186543 0.33426932 0.097925566 -0.40089384 0.33007556 -0.077077776 0.17719086 -0.0992585 0.14401972 0.030448943 -0.28244552 0.27842623 -0.08629593 0.107914634 -0.2923172 0.11985955 0.08589832 0.17290029 -0.12795967 0.4638655 -0.1708291 0.121706575 -0.054296482 0.12218187 0.17808683 -0.10222721 -0.002007076 0.12123715 0.2711912 -0.09444082 0.172925 0.04793616 0.06451813 -0.5288897 -0.2196977 -0.098094955 0.28044167 -0.06744513 -0.36448827 -0.20110947 -0.008900455 -0.02083456 0.521918 0.3264984
2162 -0.3834435 -0.06270376 0.18674822 0.16481471 -0.060411885 -0.02014363 0.25781643 -0.077922046 0.17993568 -0.19309196 -0.14732805 -0.13422574 -0.026052134 -0.2362875 0.17510115 0.4625404 -0.2674905 0.10807755 0.2250683 -0.2611221 0.089321315 0.014300066 -0.22968261 -0.028744956 -0.1018557 -0.032678965 0.17838275 0.1284183 0.08834594 0.40820822 -0.025589384 0.1635431 0.21995522 0.1632361 0.37895828 0.24378267 0.081785955 -0.13650812 0.15958941 0.29706115 -0.1410468 0.40913805 0.157415 0.19930433 -0.29407883 -0.09678457 0.011089862 0.004368879 0.19690903 -0.19930601 0.25442955 0.3348433 0.0011265924 -0.032721706 -0.2166566 -0.24813189 0.16978182 -0.34476188 0.06364223 0.12793247 0.3403185 0.18264015 0.5890548 0.1291524
1691 0.064782694 -0.5153786 0.09618744 -0.24226043 -0.32153544 -0.39736527 -0.16775118 -0.42348725 0.03621353 0.056951933 0.04790613 0.15753625 0.08407884 -0.09026414 0.07499822 0.27629006 -0.07599584 -0.1893718 -0.25806853 -0.20544933 0.1352989 0.32897046 0.014589112 -0.005291904 0.3753929 -0.11055184 0.0012902322 0.106675625 0.045888733 0.29665264 0.10179912 0.018513741 0.15480004 0.14549254 0.3169401 0.11791811 -0.04981551 0.12062744 0.06812228 0.47030407 -0.56326514 0.2686118 -0.11651754 0.058633033 -0.12719351 -0.1160471 0.0555228 0.19381918 -0.14816654 0.055024043 0.15074918 0.34900773 -0.09791336 -0.3515543 -0.16664852 -0.21795958 0.099567994 -0.010654164 -0.18453005 0.10333353 0.059589706 0.11038197 0.6444466 -0.046289362
743 -0.10266426 0.06890292 0.37050664 -0.15278736 -0.11101494 0.27346578 -0.16628894 -0.09063856 0.056117814 -0.099268705 0.10602836 0.024505587 -0.10475217 0.10348871 -0.11537077 0.26879415 -0.057590816 -0.06343563 0.10080137 -0.15719628 0.2845703 -0.08900799 0.116983324 -0.034958143 0.26636887 -0.43458942 0.07329605 0.0019911653 -0.23048268 -0.056160938 -0.23672971 0.37691492 -0.29730102 -0.07154862 0.015992252 0.09059405 0.2223874 0.2040099 0.18678527 0.4120917 -0.39659604 0.13358544 -0.021613989 0.048334196 0.062491674 -0.07965146 -0.168157 0.05725185 0.08312605 0.06663013 0.08237642 0.25339866 -0.13217944 -0.20709886 -0.15378886 -0.31850716 0.10858524 -0.1471803 0.016687084 -0.026728751 0.18841815 -0.044440977 0.4319934 0.1594553
2343 0.039030403 0.15756592 0.21829414 0.095909245 0.087097146 0.18135175 0.11674825 0.066251144 0.16440955 0.015189435 0.072591856 0.07105224 0.12536474 -0.20885274 0.08888221 0.08011481 -0.078098945 0.0658678 0.14874808 -0.046203792 0.085095264 0.27143097 0.067773536 -0.0572079 0.07245732 -0.24704874 -0.102191634 0.04841604 -0.07714263 0.15622427 -0.13376825 -0.008240063 -0.18484463 0.03135124 -0.049534123 0.17990392 0.11776172 0.20245576 0.17045419 0.28631175 -0.18033704 0.29817444 -0.19252902 0.075359754 0.14468645 0.0274525 0.06555991 0.016212922 0.2517618 -0.16571875 0.31997314 0.2850061 -0.38471198 -0.1466988 -0.10551512 -0.1668572 0.20367056 -0.20852907 -0.036841806 -0.16546565 0.13519134 0.04417176 0.4076228 0.23222634
2601 0.04962188 -0.16221677 -0.058773898 -0.0004038087 0.010425049 0.048523728 0.22576599 -0.039752588 -0.31106073 -0.05282791 0.19306828 0.19150333 0.05970278 -0.034328476 -0.3402294 0.17571083 -0.075349994 0.12018127 -0.10770094 -0.18199521 0.15963368 0.2457732 0.22880481 -0.053789783 0.058298577 -0.27658457 0.27440628 -0.06957335 0.055703025 0.08004876 -0.3181388 0.23874372 -0.14547 -0.009139926 -0.01174141 0.054477688 0.13316144 0.18984564 0.023232138 0.40839392 -0.27301005 0.34742257 -0.0116889095 0.23622791 0.27525404 0.12347274 0.04034644 0.38875657 -0.013547157 0.22126973 0.19129278 0.2340314 -0.18291607 0.08280676 -0.10508539 0.06185783 0.27792203 -0.26204866 -0.19085163 -0.2654283 -0.10058294 0.0805748 0.36111704 0.35828057
846 0.27195495 -0.27426094 0.18057166 0.21228684 -0.04270259 -0.105640404 0.099061996 -0.23760244 -0.014113981 -0.16855112 0.3967865 0.18102138 -0.1385084 -0.10317725 0.114449404 0.12716635 -0.0244901 0.21708639 0.12589216 -0.19571069 -0.1803522 0.05538357 -0.16947365 -0.12452755 -0.1300561 -0.127422 -0.2434373 0.2061584 0.033350576 0.18096691 -0.10404163 0.25691122 0.16016163 -0.002550875 0.10092302 0.28741962 0.35583213 0.17837851 0.08029168 0.25398245 -0.059731174 0.29712477 -0.054127138 0.5177331 -0.09916004 0.0558615 -0.10436003 0.23923495 0.4306715 0.026505038 0.21049997 -0.037944026 -0.08446495 0.13037032 -0.18723379 -0.17182638 0.4663458 -0.38498685 -0.15550326 -0.13161568 0.124355875 -0.25381762 0.5434808 -0.1437153
918 -0.19825286 -0.18391183 0.11768119 -0.4075563 0.19372588 -0.1473254 -0.034600526 0.008307135 -0.0015199641 -0.060471524 0.19134063 -0.18991135 0.046570007 -0.21449652 -0.007916624 0.06800667 0.056008596 -0.0068135234 -0.20895839 -0.061628748 -0.439444 0.04570966 -0.14732563 -0.33604488 -0.021074722 -0.26527464 -0.06395997 -0.046100654 0.092910714 0.099023536 -0.24914117 0.07020416 0.28282708 -0.16349351 0.030112451 0.24667424 -0.14539719 -0.016424883 0.10529983 0.078281604 -0.17241433 0.20511127 -0.20502532 0.006334066 0.3485498 -0.020596663 -0.19685757 0.18957359 0.12889738 0.22478935 0.008097591 0.45178148 -0.08642876 -0.051803734 -0.23370747 -0.29367816 -0.28509113 -0.012745989 -0.19157206 -0.011179336 0.11862104 -0.44746143 0.48840278 0.4550888
2482 0.03159712 -0.039271403 0.06849011 -0.10449144 0.09294138 -0.11684548 0.28184703 0.072840445 0.07519769 -0.12815747 -0.018984316 0.124547206 0.056719642 -0.18903677 0.09871951 -0.0047632377 0.014455706 0.08090616 0.071912706 -0.1741591 0.2489493 0.024473527 -0.18978332 -0.17344521 0.11993013 -0.0130066825 0.22746764 0.06734276 0.1117753 0.06186056 0.10277189 0.12181922 0.10715106 -0.0024650197 0.025493922 0.21164948 0.2801092 0.3949222 0.008276029 0.34287608 -0.28658223 0.1410726 -0.18907176 -0.06447994 -0.1952701 -0.012357861 0.26521742 0.05442525 0.24811527 -0.13575351 0.31898904 0.36954126 0.112021945 -0.23878793 -0.40088257 -0.07341776 0.22840929 -0.38622954 -0.18890801 -0.09625079 0.034356453 -0.2771524 0.35687372 0.33638522
1837 -0.0714071 -0.21933177 0.17112762 -0.17710778 -0.027371958 0.023132991 0.085718445 0.40861303 -0.3727767 -0.20686093 0.4087463 0.42933238 0.04048078 -0.20239462 -0.16266681 0.26473832 0.019888418 0.08716148 0.1353785 -0.24851802 0.06488588 0.085047066 0.2455282 0.15701878 0.060961455 -0.28881592 0.07855925 -0.031543873 0.0645037 0.03753863 -0.47810173 0.3100407 0.049850974 -0.051984403 0.12065891 0.48945612 0.06964424 0.035425764 -0.05784711 0.14956684 -0.19837359 -0.16803403 -0.1550067 -0.19573334 0.10781613 -0.09011834 0.013312041 0.37084493 0.35321075 0.12512982 0.1262691 0.17275287 -0.088686116 -0.14450583 -0.21946351 -0.21388604 -0.0751091 -0.25192496 -0.3737068 0.06324199 0.26020056 0.009341276 0.35217386 -0.12754808
2610 -0.32281628 -0.20012139 -0.22211163 0.17573738 0.107950695 -0.3470738 0.10725383 -0.16386811 -0.14544055 -0.48007044 0.22262523 0.036440764 -0.09066758 -0.12617822 -0.0022068212 0.2814039 -0.03366966 -0.047691863 -0.116819434 -0.03624451 0.009550804 0.19289495 -0.014902117 -0.09323217 -0.097834535 -0.23923102 -0.3508462 -0.06860692 -0.19930363 0.00060974923 -0.053379256 0.3671239 0.19643533 0.006764499 -0.29349318 -0.07293011 0.36098263 0.32740945 -0.10627338 0.030926028 -0.38483268 0.16804716 0.13803765 0.116977744 0.013308356 -0.10344387 -0.23569 0.04005914 0.250395 -0.25410068 0.31967854 0.33664843 -0.02578331 -0.16517307 -0.05197026 -0.11457973 0.1824917 -0.48322102 -0.608394 0.20250535 0.27015075 -0.068125755 0.56307197 0.17147362
960 -0.2238022 -0.44539085 0.141936 -0.015511827 0.011262233 0.03843309 0.11571146 0.17157754 0.07225892 -0.010181526 0.3792775 0.13013825 0.048580192 -0.20290065 0.19720349 0.2402443 -0.0911042 0.12877607 0.16789672 0.027188038 0.032772303 0.26704276 0.34287274 0.15021837 -0.016439809 -0.15863183 0.12298223 -0.09722592 -0.15223025 0.29852435 -0.18466343 0.2487775 0.05613209 -0.082649305 0.24440198 0.37055412 0.18562528 -0.12178134 0.16997433 0.10682028 -0.1990858 0.20226958 -0.13584413 0.47776845 0.02474772 0.08638182 -0.113894984 0.31290543 0.3696344 -0.024474643 0.07416609 0.17401537 0.08435049 0.17883368 -0.1988723 -0.27340367 -0.12631875 -0.16929539 -0.09196478 -0.1168059 0.22121653 0.025764197 0.38241857 0.00714415
2535 0.017614132 -0.44033954 -0.05658251 -0.26818812 0.24252684 -0.38243398 0.30484968 -0.43217707 -0.075044475 -0.2869807 -0.032185044 0.34671402 -0.011396943 -0.6098458 -0.17624323 0.15339595 -0.19958074 -0.017972888 0.13071589 0.20387675 0.016001947 0.043320805 0.11476782 -0.16319054 0.20028538 -0.11294005 -0.011223657 -0.14583886 -0.023675019 -0.15108736 -0.14021961 0.11891414 -0.12013333 -0.09327613 0.23859863 0.20740099 -0.04030696 0.12712212 0.035763398 0.1726269 -0.12973522 0.20024943 -0.030801458 -0.15500294 0.05340045 0.10572936 -0.1817391 0.020891152 0.12158211 -0.0358495 0.44820905 0.16142285 -0.01055083 -0.168975 -0.013201762 -0.445943 0.1514759 -0.18059517 -0.27205586 -0.35574275 0.26779568 0.27051243 0.45165232 0.08600885
678 -0.10582204 -0.3604001 0.23081931 -0.18522863 -0.12128132 -0.20546652 -0.11274265 -0.053802658 0.041129395 -0.041996054 0.007768676 0.1315383 0.0853552 -0.1567687 0.07334291 0.09140182 -0.08531827 -0.17603526 -0.1377044 -0.027181933 -0.083779804 -0.042727698 -0.1331316 0.051628098 -0.027749347 0.05510569 0.104836024 -0.21879655 0.021493975 0.13361442 0.14014512 -0.039342664 0.29652974 -0.046783693 0.19400834 0.25506812 0.25393844 0.26419514 -0.0018914925 0.3163081 -0.39902163 0.23706532 -0.088723704 0.14872196 0.13949563 0.18549085 -0.21284454 0.15279095 0.43004853 -0.09519357 0.50473964 0.38024274 -0.017816233 -0.055273682 -0.22744974 -0.10319707 0.392219 -0.01900211 0.08951856 -0.30080435 0.33289197 -0.32653728 0.2769553 0.27429795
1055 0.020166803 -0.11193387 0.43008083 -0.10960585 -0.060231254 -0.074662074 0.12682566 0.16025874 0.15328142 -0.19237651 -0.0054774997 0.1285053 -0.066433065 -0.16465695 -0.034560233 0.092974685 0.12062147 0.20671298 0.31805494 -0.06888711 -0.073004246 -0.19649744 -0.00059760077 -0.008844726 0.11989453 -0.10411524 0.11074577 0.2140242 0.27546275 0.08316835 -0.0947655 0.24626817 0.020488381 -0.027399832 -0.0004741928 0.012038831 0.14392811 0.21021068 -0.18738846 0.37321433 -0.5567903 0.092108846 -0.13679393 0.12910424 0.08785089 -0.09574413 -0.5102258 0.09499704 0.25393915 0.21837956 0.0005274663 0.26514927 0.15397657 -0.146917 -0.051206775 -0.1525655 0.25082985 -0.14241357 -0.4906146 -0.1361037 0.21971112 -0.108202726 0.40020338 0.059789598
1358 0.19917057 0.26917523 -0.21186894 0.28115138 -0.12388659 -0.082838446 -0.26981694 0.0477422 0.09633906 0.087893166 -0.10475352 0.05063484 -0.31570983 -0.123971865 0.11734724 0.17854764 -0.020552378 -0.030006224 -0.43682984 -0.43571287 -0.12637657 0.07464882 0.33027083 0.09824839 -0.30832395 -0.12898172 0.2749413 -0.26870894 0.076826826 0.17656408 -0.36250526 0.19374406 0.044515945 -0.22955051 -0.20369469 0.37520424 0.095931076 -0.062281765 -0.13547109 0.11728432 0.01709878 0.2207576 -0.22579935 0.034461793 -0.29084578 -0.3875557 -0.22798856 -0.045841962 -0.015083645 0.30302554 0.25808105 0.16123077 -0.27481037 -0.16173775 -0.42544833 0.05269245 0.029620642 -0.13195392 -0.2141303 -0.20317213 0.014104205 -0.08092098 0.15635547 0.14813812
2033 0.44192815 -0.15938765 0.07842834 0.08452871 0.10448054 -0.1774147 0.29468578 0.046493355 0.37898842 -0.18598966 0.17236209 0.33063945 0.145386 -0.2256249 -0.21907912 0.10108001 -0.2757804 0.111860715 0.26769626 -0.024126086 -0.05206765 0.32894474 -0.16928956 -0.12835667 0.017507486 -0.02427413 -0.114673354 0.28975615 0.010754157 0.58439595 -0.2992137 0.10743258 0.035760485 0.06787962 0.031584732 0.26391736 0.3354513 0.0046371454 0.08050413 0.036327265 -0.5703711 0.21561415 -0.15889388 -0.017591551 -0.0028247703 -0.0066909855 0.13018185 0.19312604 0.27281782 0.08638059 0.058930226 0.5427589 -0.17047127 0.034684885 -0.13847113 -0.059165142 -0.016220976 -0.013874006 -0.2739802 0.020494174 0.25077164 -0.035797488 0.32387593 -0.11375549
215 0.033989962 -0.050549496 0.37766805 -0.054473005 -0.15333828 0.008302982 0.0854156 -0.23495273 0.07553608 -0.11316985 0.1639109 0.019097624 -0.23997092 -0.09289853 0.114058025 0.1397353 -0.24194776 -0.021819815 0.0843801 -0.059677314 0.16550419 0.32813397 0.07586 0.0546119 -0.17473869 -0.012230726 0.03453093 0.3430252 -0.13965288 0.28238982 -0.23207374 0.28778028 0.07618931 0.14338604 -0.021270351 0.3499979 0.18556736 0.100063495 -0.079283156 0.21623977 -0.4025901 0.47090507 -0.07873377 0.15494534 0.00573005 0.13105334 -0.19267476 0.15157892 0.23295502 -0.091315605 -0.06212901 0.36684233 -0.2402995 -0.11014757 -0.021418499 -0.08003176 0.009408518 -0.106151566 -0.23068772 -0.05180845 0.11591986 0.10065456 0.49382967 0.076146886
1942 0.005387831 -0.006011412 0.21272612 -0.11062861 0.0157394 -0.26676258 0.07910147 0.06253301 0.13317741 -0.059296727 0.025880108 0.27736223 -0.019792981 0.09577141 -0.15882798 0.043925464 -0.14329147 0.3123106 0.16198409 -0.33187565 -0.14732058 0.23555909 0.0028263247 -0.034522086 -0.18193808 -0.3130164 0.099048294 -0.13719516 0.3993106 0.43006784 -0.011585115 0.17648663 -0.11436906 0.04708366 0.19367544 0.27972624 0.26249236 0.07054912 -0.12588105 0.12695494 -0.22551508 0.2601229 -0.013552322 0.07482752 0.0894029 0.089488104 -0.10548774 0.101356745 0.35377657 0.045277484 0.2362209 0.53359085 0.016703455 -0.28669614 -0.32652095 -0.27803278 -0.1568445 -0.11687852 0.20434342 0.02907795 0.09062553 0.2424121 0.61739665 -0.062570885
1277 -0.23520103 0.044651102 -0.013333728 -0.1404185 -0.094602965 -0.02039482 -0.056222122 -0.046358943 -0.022382816 0.19909902 0.06767139 0.4325452 -0.18359621 0.021997424 -0.061720528 0.1581746 -0.34059644 0.055456042 -0.049228434 -0.16078344 -0.04008417 0.29484406 0.10363365 -0.31544954 0.045550983 0.084195614 0.09077365 -0.018035525 0.04120935 0.19541073 -0.088687256 0.21642326 0.0646646 -0.3329089 0.1580758 0.20796639 0.23416826 -0.00966965 -0.06757978 0.4799389 -0.08949823 0.29778525 -0.26144618 -0.002264549 0.23133725 0.3320756 0.099993445 0.27087846 0.2704274 0.0030274254 0.32687968 0.41519237 -0.40504393 -0.23463337 0.008995522 -0.2552331 0.2114394 -0.110977635 -0.113672845 0.1924964 -0.080514975 -0.018704068 0.19857842 0.23470792
1869 0.17576267 -0.26961136 -0.014775255 -0.01944709 0.16578346 0.01077507 -0.39198214 -0.10538402 -0.3809265 0.20415907 0.24291211 -0.15173422 -0.13335498 -0.27258566 -0.10249396 0.36373776 -0.2884842 -0.35363516 0.06718728 -0.048437867 -0.20969495 0.26351944 0.061710626 0.03752685 0.30699503 -0.1025657 0.1846752 -0.06289297 0.25728846 0.122152366 0.058206487 0.024319 0.2747339 0.09224893 0.17540884 0.089808114 0.16571942 0.121905826 0.19523463 -0.027123962 -0.3296609 0.23322053 -0.20849502 0.27306706 0.002743894 0.20718336 -0.2314952 0.28691328 0.30332783 0.057489727 0.15854384 0.16367 -0.15597071 -0.21403071 -0.118899144 -0.18499427 0.06263816 -0.3572427 -0.46238405 -0.14918959 0.19178708 0.1472702 0.40657714 0.0042862864
1692 -0.18959878 -0.028392326 0.30080602 -0.3840524 0.1288804 -0.08323327 0.36863887 -0.30034208 0.18109876 -0.21622802 0.22635219 0.29325718 -0.010999737 -0.060287025 -0.07602088 0.04663002 -0.111699186 -0.026853206 0.03934548 -0.027574448 0.29016382 0.18921624 -0.12624641 -0.041936807 0.06778307 -0.03668833 0.24595907 0.06582507 -0.09889489 0.10398518 -0.14181904 0.10825933 0.18860127 0.1702087 0.24867995 0.2006494 0.23089293 0.1931248 -0.08100985 -0.113506794 -0.11266126 0.34150314 -0.29108402 0.16480528 -0.08422146 0.04429704 -0.13558888 0.12520371 0.048407443 -0.020694597 0.15469965 0.4931411 0.0113941105 0.004114549 -0.27534124 -0.2697764 0.23432718 0.0039853463 -0.32464805 -0.10100019 0.16803733 -0.058354102 0.223931 0.31316012
900 -0.024202915 -0.3037509 0.121807136 -0.2549275 -0.014159187 -0.046532355 -0.10617038 0.0810444 0.29997763 0.09340898 -0.01938094 -0.18257008 0.14175712 0.14573272 -0.014849683 0.15130667 -0.110060774 0.0466929 -0.103474155 0.10271047 0.11498508 0.3755367 -0.17007253 0.1305686 -0.14084947 0.09732585 -0.057924617 -0.10320877 -0.12096033 0.38105264 0.002249603 0.07860128 0.25000283 0.079264514 -0.18246372 0.20547065 -0.027108064 0.06758869 -0.0024403569 0.10495131 -0.21959858 0.6420858 -0.1077251 -0.05463884 0.21988115 0.14180595 -0.071601115 0.1806923 0.07465891 -0.16500682 0.098820396 0.6012477 -0.19396435 -0.27640712 -0.10963613 -0.38510585 0.35206336 -0.023138963 -0.5533124 -0.18133476 0.10394183 -0.054577254 0.31217209 0.33926842
2501 -0.000572866 -0.20587029 0.20736279 -0.11449516 0.047862303 0.023793498 0.31665644 -0.037101526 0.10201006 -0.24073102 0.08131761 -0.08346144 -0.1461518 -0.29192698 0.051277038 0.16514389 -0.08653665 -0.0038693044 0.2997589 0.15269582 0.0756428 0.3823996 0.01889678 -0.073964745 0.18483448 -0.22653654 -0.070652224 -0.20078044 -0.012521214 0.06776962 -0.0818614 0.0724148 -0.3808786 -0.21101245 -0.020809555 0.045777284 0.18699397 0.23532154 0.18942 0.51742375 -0.05938479 0.14182386 0.022932844 -0.065042935 -0.11064381 -0.043792643 -0.14339155 0.16509026 0.04668829 -0.056774046 -0.024013849 0.39777806 -0.24798079 -0.28952524 -0.14218475 -0.32607767 -0.18947715 -0.047150128 -0.2617281 -0.024248606 0.2568802 -0.14049096 0.44309187 -0.04786442
841 -0.31296256 -0.1528461 0.24704738 -0.04706466 -0.048252657 0.22276555 0.03427085 0.037646614 0.16125108 0.090307705 0.0014034632 -0.02111534 -0.071535245 -0.0111356415 -0.0612516 0.03420062 -0.3898365 0.2691474 0.34721345 0.16150552 0.04298147 0.31808215 -0.24363165 -0.21529372 0.23348382 -0.054231096 0.17690895 -0.085016325 -0.26403785 0.23779058 0.007961145 -0.09829972 0.060956042 -0.17761366 0.14638866 0.24180412 0.17599544 0.2671861 -0.04289851 0.34927353 -0.21449551 0.33378717 -0.10744867 0.23281465 -0.030615745 -0.12518188 -0.047791425 0.17419349 0.078159176 -0.06447801 0.36732215 0.35418034 0.058903135 -0.3378 0.03588354 -0.3329017 0.25470164 -0.017911378 -0.12346892 -0.40328494 0.44847214 0.26105592 0.15912372 -0.029929273
990 0.0884959 0.1001534 0.13487804 0.07485701 -0.04732542 -0.27316993 0.22966637 -0.12845194 -0.16124134 -0.13337561 0.1409372 0.11287566 -0.2733765 -0.11520309 0.08939946 0.30138788 0.06935988 -0.0496703 0.12700091 -0.17466521 0.05585661 0.18901514 0.1756093 -0.008512419 0.13747223 -0.13678156 0.2628158 0.2594443 -0.040038016 0.008429482 -0.33633563 0.13962278 0.16608727 -0.06800677 0.06735647 -0.09316542 0.020407727 -0.39311022 -0.06433473 0.36544046 -0.51311105 0.3543116 -0.10059289 0.12943444 0.15541008 -0.041473303 -0.44541553 -0.004178103 0.11925556 -0.124281675 0.23436873 0.18431604 0.18613346 -0.23949355 -0.20912813 -0.19101991 0.1735613 -0.2654003 -0.14722578 0.05161145 -0.29452923 0.08344534 0.64489883 -0.016739264
1450 -0.047065426 -0.25994122 0.46108052 -0.1332207 -0.2976475 0.04508693 -0.009746886 -0.027386492 0.071468025 -0.19451398 -0.016322767 -0.30979577 0.19491453 -0.37803027 -0.12445244 0.15428437 -0.18783419 -0.10469477 0.1179821 0.20580742 -0.24950741 0.13885313 0.041434366 -0.0008514427 0.007461091 -0.06474957 0.1266305 -0.09656585 0.034968946 0.07551919 -0.20400897 -0.018618634 0.2150319 0.061465543 -0.049063336 0.23002279 0.10388877 0.04695433 -0.07182171 0.2953352 -0.2697773 0.15498422 0.18880165 0.004002093 0.19677497 0.06694021 -0.35671276 0.44091874 0.22277583 0.25518134 0.17308728 -0.04839384 0.15753552 -0.299499 -0.17985371 -0.44468907 0.050247535 -0.027748026 -0.22855335 -0.03665295 0.219955 -0.10181258 0.3926417 0.25421098
1321 -0.100906305 -0.2660486 0.13086091 -0.41176072 -0.076439306 0.01907937 0.108976595 -0.101529546 -0.15236217 -0.2561649 0.27953753 0.30154407 0.21739194 -0.2743806 0.08043755 0.24822217 -0.20594609 0.015682619 0.3461329 -0.02014298 0.117434084 0.22784626 -0.053521115 -0.0143510215 -0.18179795 -0.24992903 0.04299267 -0.25420666 0.1832016 0.046081346 -0.2618223 0.30309662 0.13620555 0.25783703 0.089572355 0.3056938 -0.118606284 0.35833693 0.12540543 0.25522643 -0.27602577 0.20419419 0.2078256 0.008293702 0.046857107 -0.12829813 -0.32271338 0.12337224 0.20733838 0.26243263 -0.05663766 0.20974982 0.021506397 -0.2890445 -0.34827375 -0.020661041 0.014534156 -0.10163121 -0.005766287 0.019948428 0.42693892 -0.28343344 0.3285724 0.16664872
2367 -0.08831455 -0.08023956 0.21825379 0.02936199 0.28803807 0.020810053 -0.1190904 -0.033055477 -0.17058092 -0.07944226 0.07685984 0.30065873 -0.10426114 -0.31922778 -0.006662143 0.14034133 0.014070608 0.087469146 -0.015545283 0.10419528 0.07774886 0.17798129 0.17651351 -0.17536256 0.003786342 -0.31372783 0.27395922 0.112503886 -0.07476213 0.12277155 -0.16302359 0.386605 -0.093636736 -0.17085782 0.12425829 -0.00035024865 -0.14691131 0.39309266 -0.054600276 0.37424833 -0.06047923 0.14508687 -0.058782615 0.09594544 0.06520232 0.090333685 -0.011223388 0.11024306 0.3530779 0.04198719 0.18792118 0.25968614 -0.26827693 -0.24000496 -0.08007679 -0.16874608 0.12723145 -0.05237055 -0.026269052 0.06098811 0.17587046 0.029748224 0.6396186 0.32804415
781 0.13023414 -0.25104326 -0.043965172 0.22625329 0.08086224 -0.14252229 0.20590024 -0.044887755 0.07158532 0.012664948 0.14845382 0.07585032 -0.16167064 0.09059643 -0.1852155 0.32474723 0.21326047 0.38436094 0.3734358 -0.0033903047 0.27688175 0.17646204 0.028461443 0.040784676 -0.40731683 -0.17358217 0.23812275 -0.21273349 -0.15090747 0.17601396 -0.2855124 -0.00070729404 0.14646627 0.07299833 -0.1887859 0.023799704 0.17537935 0.037585236 -0.20861441 0.2689108 -0.36267683 0.42935103 -0.07380992 0.3582344 0.058446873 0.27754626 -0.014128805 0.16926005 0.028515596 -0.06846697 0.12909734 0.5330618 -0.110617116 -0.059171353 -0.38860592 0.09008043 0.19561718 -0.2915433 -0.46007124 0.19875367 0.098709725 0.21572053 0.55931467 0.13364656
2698 -0.1407153 -0.23436457 -0.056914892 0.081458434 -0.41178244 0.18992935 -0.16749048 0.086543225 0.09521286 -0.093616165 0.0060911584 -0.08128284 0.31109917 0.037719805 0.032905713 0.25841415 -0.23674361 -0.028064104 0.20824996 -0.008362621 0.11823116 0.1587871 0.18742172 -0.3405244 0.2996885 -0.21661866 0.025720218 -0.017348949 -0.13443276 0.10552837 0.015713649 0.0394989 0.00334415 0.15647568 0.16245975 0.30847973 0.24611306 0.08009445 0.070522435 -0.03303964 -0.50610644 0.2759069 0.33469725 0.23995024 0.11483702 -0.2164851 -0.21252295 0.63081515 0.07380477 -0.117541514 0.2636273 0.21041206 0.092326134 0.01051121 -0.087326795 -0.18925487 0.08077914 0.081141055 -0.26328543 -0.25882176 0.109057456 0.06679443 0.5549058 0.15066363
2688 -0.08365959 -0.08967485 0.10799505 0.14124836 0.01633556 -0.15910213 -0.044694204 -0.13397963 -0.22516572 0.01909477 0.20420055 -0.004360041 -0.06522841 -0.07863738 0.2508461 0.009427827 -0.14290397 -0.05494608 -0.03376758 0.018059604 -0.06740619 -0.12555952 -0.1225364 0.06489609 0.45981118 -0.39037618 0.13868704 0.20239368 -0.17943248 -0.035901606 -0.05399891 0.27460817 0.35077173 0.030925097 0.16025725 0.17999619 0.2585704 -0.0017809131 0.0028634386 0.15499999 -0.33257133 0.34787717 -0.22396672 0.5444869 0.2636879 -0.013302386 -0.1710114 0.08464322 0.16167113 -0.16234377 0.10330157 0.28113 -0.26737258 -0.04008313 0.03245688 -0.023421945 0.31080058 -0.20912078 -0.050590828 -0.35845768 0.28114152 -0.2185509 0.46460348 0.3358323
1861 -0.03662055 -0.095449805 0.07516098 -0.16897653 -0.10603112 -0.03927592 0.31484413 0.13432783 0.010700141 -0.13525027 -0.13419707 -0.124128446 -0.08901425 -0.042130657 -0.15975134 0.23076642 -0.104983486 -0.012991439 -0.009435312 -0.25843412 0.28744572 -0.04603376 -0.13668396 -0.2800599 0.13688575 -0.20672314 0.16938138 -0.14800233 0.06163247 0.1669144 0.08900769 -0.124821655 0.09683018 0.21552499 0.24121141 0.032360207 0.22505315 0.24146965 0.15403137 0.01467731 -0.055769566 0.17189467 -0.087381326 0.056990284 0.15519807 -0.017710205 -0.0063016843 0.09149703 0.26638588 0.09959122 0.15773618 0.05527408 0.051547974 -0.08480869 -0.35425103 -0.2627693 0.20660673 -0.22603017 -0.42715487 -0.25282907 0.1659849 0.0607004 0.66940844 0.17291571
2566 -0.1556973 -0.2604255 0.18545803 -0.21698669 0.047375508 -0.031100132 0.15070908 0.17616029 -0.20191997 -0.026050074 0.23479019 -0.12260348 -0.013374809 -0.3166786 -0.12001315 0.062338762 0.10904028 -0.05192712 -0.18628946 -0.06548209 0.06584448 0.13267812 0.24662046 -0.12755491 0.03767899 -0.24658015 0.25818756 -0.3340672 -0.11594821 0.19639124 -0.31103888 0.03008524 -0.1061995 -0.052786883 -0.037810486 -0.05537778 0.0312599 0.28257108 -0.034574483 0.3039086 -0.08124662 0.2282024 -0.11453192 -0.076139286 0.48206925 0.1209392 -0.21515292 0.16394508 0.21796548 0.09084132 -0.013735222 0.5651053 -0.20663714 -0.18165909 -0.08614531 -0.26537564 0.18745048 -0.26576298 -0.26262957 -0.06701757 -0.0092685465 -0.14086652 0.5156661 0.26615828
2624 -0.027845623 -0.3428812 -0.1819257 -0.1697863 -0.13297881 0.037301376 0.039085984 0.17994842 0.15883482 0.21017082 0.08713615 0.17715332 -0.016095089 -0.048801195 0.24805038 0.22458102 -0.0020774542 -0.025216134 -0.09283189 -0.34936816 -0.06736971 0.34959072 0.027024606 -0.23976487 0.050210256 -0.06771492 0.04813741 -0.10557411 0.03546777 0.23761688 -0.15324774 0.37110406 -0.016269192 -0.12642156 0.047278043 0.16689222 0.08139608 0.25171858 0.1319141 0.14574747 -0.020911366 0.23427743 -0.37648776 0.069946505 0.034671362 0.036075056 0.16280085 -0.04588089 0.35852474 -0.10301123 0.05076363 0.5871942 -0.08143406 0.08878309 -0.3485042 -0.19822423 0.106913894 -0.23586342 -0.09172533 -0.09149276 -0.05573632 0.11840254 0.51135 0.12889181
1806 -0.24555352 0.07465991 0.19430105 -0.2870623 0.14400832 -0.023522213 0.290239 0.34602556 -0.06499868 0.0013246912 0.22216988 0.2190676 -0.029593362 0.094892204 -0.04680684 0.3019279 -0.18145384 0.08979713 0.13747235 -0.30408108 -0.022479959 0.3007545 -0.21824351 -0.09095411 0.24527389 0.03772473 0.13732298 0.07506966 0.047221106 0.088547304 0.10286443 0.19191009 -0.02188957 -0.2763217 0.031053968 0.19079079 0.021428794 0.11648387 0.26234213 0.3538345 -0.3246546 0.011823007 -0.38687474 0.1454058 0.12518242 -0.22223984 -0.09855184 0.13389117 0.26747474 0.16862032 0.37877098 -0.07146108 -0.039146017 -0.1493358 -0.27909553 0.051796257 0.17141506 0.15404473 -0.48844087 -0.122784525 0.34161103 0.35637426 0.48293838 0.08248108
1002 -0.111866824 0.046149388 -0.14123255 -0.03654172 -0.23586592 0.023035014 0.034474585 0.016096637 -0.15591551 -0.20450337 0.11439531 0.2244313 0.3895183 -0.07750588 -0.23438512 0.657073 -0.25331485 -0.29190975 -0.1743483 0.09036292 -0.05840501 0.28960076 -0.14793941 -0.015792299 -0.25854707 -0.3006965 0.056263115 0.28898937 -0.11225383 0.22584586 -0.16545913 0.07707518 0.24965872 -0.122234754 -0.1928673 0.3331826 0.08166478 -0.029398194 -0.087880924 0.1948505 -0.43072048 0.064809546 -0.31945682 -0.13107042 0.096532434 0.13439772 0.15336342 0.08683474 0.11260795 0.06798427 0.091487505 0.35994175 -0.23249915 -0.10381335 0.06849415 -0.1618293 0.05217748 -0.15639305 -0.18807498 -0.22883238 -0.06561029 0.2939881 0.49141946 0.045053035
1708 -0.23933206 -0.09815996 0.09221709 -0.11884288 -0.09573024 0.24904029 0.20072256 0.26701376 0.008255559 0.19892584 0.22280738 0.10280233 0.065658145 -0.08805749 -0.09359636 0.3522969 -0.029940985 0.17057171 0.27397537 -0.046819255 -0.08876065 0.137799 -0.1301816 -0.119778074 -0.08466825 -0.0016047285 -0.1930918 -0.17165689 0.2528136 0.16842623 -0.15068078 0.23990111 0.18529671 0.09418255 0.21578296 0.34053293 0.12324722 -0.070060045 0.17193669 0.41005772 -0.19567716 0.07603498 -0.042632785 -0.3285244 0.12807417 0.22635134 0.17390256 0.092691444 0.44071957 -0.08301542 0.61081916 0.118087865 0.018877193 -0.29789636 0.011741101 -0.006887876 0.27860528 0.1437156 -0.123309 -0.13257442 0.3380282 -0.2451631 0.5390783 0.2314166
2607 -0.15812863 -0.2685933 0.1006636 0.10276352 0.08448012 0.05356741 0.0445899 0.014031406 0.29127777 -0.11322331 -0.24248491 0.15918088 0.097267084 -0.01824888 -0.049079873 0.26004377 -0.10679771 -0.12398486 -0.20431955 0.090295926 0.040364917 0.20915732 0.010405683 0.04432892 0.14431858 -0.5156344 0.326524 -0.21497378 0.04425464 0.24030377 0.046979193 0.2570449 -0.095142886 -0.13856392 -0.10631754 0.39307356 -0.09950618 0.14714044 0.2701265 0.16949357 -0.548323 0.117525786 0.048627652 0.20580864 -0.120308295 -0.08326689 0.027877923 0.14695582 0.07472777 -0.04687394 0.16688189 0.24486694 0.26763433 -0.18178092 -0.3725279 -0.12794673 -0.045645535 -0.17134503 -0.17825693 -0.22012019 0.24829032 0.085624486 0.40359285 0.3852932
1957 -0.16005297 -0.06163876 0.2923426 -0.19628574 -0.10802961 0.071367584 -0.15351059 0.014328915 0.06377279 0.0067645856 0.14462121 -0.12964952 -0.26747102 0.14068426 -0.16167516 0.19338918 -0.1269757 0.041425016 0.2288077 0.15282676 -0.0066517624 0.28729168 0.10493243 0.119146615 -0.04688176 -0.42884716 0.11506916 -0.0702156 -0.1159629 0.1831157 -0.029062048 0.20854682 0.16702655 0.059935596 0.12974966 0.27272388 0.2823507 0.23886947 -0.16151187 0.10819061 -0.12909897 0.49061325 -0.1426878 0.19869885 0.07853113 0.05774837 -0.07862186 0.043215655 0.40744832 0.010793661 0.30277705 0.28796723 -0.01519237 0.08980378 0.006097146 -0.5272333 0.050698202 -0.26770392 -0.10621382 0.05835207 -0.15218373 -0.044711266 0.5068216 0.1425749
855 -0.050600164 0.0669371 0.0083397105 -0.11332173 -0.32578442 0.11753701 -0.010877328 0.0030669568 0.3915773 0.111177295 0.07770953 0.05505646 0.12673938 -0.30215 0.3559605 0.35296106 -0.17515746 0.030302728 -0.026114156 0.21785173 -0.100891724 0.210535 -0.5001025 -0.06801549 0.059383858 -0.46422422 0.21165818 -0.031435806 0.2807847 0.11048587 0.0014135113 0.22811113 -0.09680574 0.040070612 -0.07798882 0.20311792 0.15985118 0.15278389 -0.23626393 0.3170882 -0.07691105 0.19892201 -0.0344982 -0.10375495 0.33342305 -0.22836822 0.20033528 0.40204918 0.3693407 0.26230696 0.001058281 0.2014049 -0.027606579 -0.15825896 -0.087288976 -0.12813576 0.027475744 0.08925271 -0.25205022 -0.3207197 0.032253943 0.41464248 0.36506018 0.37449563
1031 0.011187307 -0.1330147 0.08334322 0.05768788 -0.27546498 -0.35759106 0.1563773 -0.05603606 -0.07944692 -0.059586182 0.15413113 0.11565121 -0.0059642633 -0.4700152 0.1410133 0.18317652 -0.12510529 0.18656218 -0.02165283 -0.35981476 -0.07752573 0.19774084 -0.08187548 -0.13489428 0.10467553 -0.11547131 -0.034951128 0.21314612 -0.011089598 0.112397484 -0.2204385 0.14640526 0.1526534 0.01589748 0.09150085 0.08192723 0.25771052 0.021796647 -0.08616788 0.1594997 -0.021654412 0.10826746 0.1375284 -0.05725824 0.18637389 0.08287571 -0.16409428 0.40982014 0.18229088 0.019455506 0.1671862 0.21726748 -0.10395577 -0.17953295 -0.21496105 -0.40575686 -0.09044184 0.033122424 -0.14352523 0.04567155 -0.23928863 0.22386593 0.66293526 0.15356083
1392 0.42113125 -0.26805356 0.25383824 -0.07004888 0.035288393 -0.4226116 0.04030665 -0.058629505 -0.05428599 -0.015225822 0.047470544 0.11710113 0.06550101 -0.014207212 0.1977314 0.39975995 -0.33240873 -0.17035346 0.058301833 -0.021876737 0.3710947 0.090542845 -0.04735385 0.050263137 -0.12023001 -0.19354582 0.17323627 -0.043617845 0.036157735 0.0820741 -0.0751022 0.08798724 0.123045236 0.056604516 -0.15206301 0.19183576 -0.15969107 -0.07390488 0.24470426 0.2525104 -0.17852263 0.3959535 -0.028209012 -0.09104383 0.07236871 0.050527766 0.007591022 0.10428823 0.42203185 0.22452268 -0.1460781 0.07308705 0.02906922 -0.15972316 -0.35844713 -0.173894 0.2632629 0.050335523 -0.2210989 -0.109035864 0.252412 -0.0768604 0.6259651 0.0061055827
869 -0.107258044 -0.079382785 0.16058692 -0.06823148 -0.024253698 0.18126257 -0.28272912 0.08871144 0.11831774 0.3165258 0.13180926 0.04786058 0.09519663 -0.15340215 -0.16669962 0.16998006 -0.115866035 -0.081713594 0.08341906 -0.24433196 -0.09425891 0.37362805 -0.24034509 -0.3780616 -0.16325735 -0.24982992 0.12479955 -0.14101565 0.18364112 0.36983204 -0.3697042 0.08173187 -0.0059585036 0.0065021943 0.17285371 0.1390258 -0.011881272 0.042785868 0.18475574 0.2815803 -0.41245925 -0.017069306 -0.06557836 0.18675588 0.23605958 0.0054346584 0.1280803 0.063553415 0.24479619 0.16363887 0.16255577 0.20040572 -0.108666904 -0.26850587 0.09017707 -0.11661525 0.2075398 -0.24130131 0.051069096 -0.2175735 0.18525499 0.2168795 0.33913735 0.59257466
2508 0.18683322 -0.3329014 0.15647903 0.035767313 0.03785012 0.05889201 0.3139717 0.02578509 -0.05152655 -0.04323925 -0.024789406 0.06814483 0.07964272 -0.0629027 -0.05058242 0.08111937 -0.15300424 0.11319566 0.1653827 0.0010881298 -0.18135801 -0.046332847 -0.06657799 0.045834903 0.0035220813 -0.054904465 0.26609492 -0.30323103 0.1860505 0.120390736 -0.16520773 -0.108441316 -0.07194344 0.17656636 0.14997606 0.06394078 0.15171239 0.19553395 0.293728 0.021194417 -0.29042354 0.39941433 0.08413086 -0.13587627 0.06620151 -0.019016663 -0.37834045 0.31513658 0.14956106 0.11402333 0.36008066 0.2883141 0.17947789 -0.16252925 -0.40537202 0.01261866 0.058737732 -0.1244257 -0.27197918 -0.13144612 0.018956712 -0.17780705 0.8062241 0.24340534
1870 -0.022067454 -0.3001816 -0.07720473 -0.06774008 0.013765546 0.01194548 0.37655255 -0.057040136 0.018288963 -0.27320954 0.3706411 0.033096123 0.40695786 -0.32902583 0.22720093 0.19887698 0.13450618 -0.008770335 0.36799565 -0.10338973 0.07350202 0.09107055 -0.03881182 0.0113111595 0.0020882485 -0.21176633 -0.102470525 -0.061241455 0.14215586 0.21567228 -0.26349604 -0.00071072683 0.07061537 0.10466097 0.04863932 0.09547131 0.088829674 0.30521575 0.20102993 0.34662718 -0.5992576 0.19406836 -0.09896089 -0.10693508 -0.28182417 -0.34895077 -0.033098783 0.48275378 0.16515446 0.1379669 -0.0074226097 0.29706103 0.26616082 0.10379594 -0.2174069 0.09882415 -0.3897993 -0.07034082 -0.41177973 -0.13713746 0.05077755 -0.061869077 0.5843058 0.11975559
2028 0.05761741 0.00521679 0.13022016 -0.10262883 0.18146916 0.20496158 -0.048399102 0.29028267 0.23401825 -0.12746757 0.2904478 0.14697653 0.108541146 -0.010243813 0.064754605 0.15177876 -0.2396886 -0.012759014 0.006216335 -0.021385973 0.27290636 0.1540137 -0.1763167 0.050082568 -0.1703266 -0.2518669 -0.012898324 0.3220094 0.12552433 0.23861511 -0.33162743 0.27188805 -0.083015695 0.29021123 -0.014306503 0.3344247 -0.0046295347 0.07417464 0.028023046 0.29640746 -0.35534284 0.19398402 -0.10835488 0.073450595 -0.020571098 0.071587116 0.06630625 0.33878627 -0.00043070642 0.38546848 0.28110114 0.41250703 0.04534233 -0.080676645 -0.3390401 -0.021646494 0.24747981 -0.15753546 -0.25460616 -0.17874892 0.13291177 0.24707256 0.49991393 -0.19859314
1340 -0.1820861 0.039006144 0.3119192 0.0036404121 0.22004788 0.028830327 -0.014517384 -0.054722402 -0.10732152 -0.057969924 0.17355035 0.1477319 -0.1482102 -0.11537282 0.09736173 0.34922278 -0.15638624 -0.23490292 -0.040173825 -0.061806846 0.1204259 0.15502618 -0.13469222 -9.0614834e-05 0.1547164 -0.45303503 -0.21630907 -0.35270834 -0.17811182 -0.19841221 0.29286107 0.20930398 0.20471515 0.14541146 -0.10737336 0.06743967 0.1921327 0.15691613 0.058456812 0.32079273 -0.400353 0.1997161 0.089808695 0.0775347 0.024870263 0.26261178 0.09717654 -0.09365715 0.2659669 0.043630734 0.42296037 0.19276702 -0.36567184 -0.3291894 0.20959902 -0.20961912 0.14818004 0.022576144 -0.14264123 -0.17941079 0.04829275 0.005565497 0.56590843 0.2227007
1608 -0.1140301 -0.1462293 0.3901213 -0.057973523 -0.29261103 0.2305089 -0.0883188 -0.21826299 0.099034086 -0.23968202 0.13746187 -0.08938419 0.1959717 0.05857561 0.23117262 0.22667123 0.015468563 0.070522636 0.08761219 0.0043548034 -0.17370285 0.10849384 0.0699679 -0.035464823 -0.10608671 0.051163025 0.09652148 0.07048649 0.016502198 0.42694777 -0.11785728 0.11295446 0.13684118 -0.04305769 0.03152587 0.021755418 0.11474446 0.08743617 0.020239197 0.1683027 -0.46857122 0.09134368 -0.09195378 -0.0070124953 -0.2965577 -0.22244781 -0.33101264 0.31070942 0.075362876 -0.081773795 0.19224727 0.1130063 -0.23301695 -0.3050547 -0.17445977 -0.12193669 0.044271577 -0.04876197 -0.39184615 -0.21072164 0.07427407 -0.13332687 0.6433564 0.19553328
1124 -0.030948421 -0.09085525 -0.009785113 -0.14830229 0.07380637 0.22209808 -0.009333957 0.09901874 0.20584571 -0.215609 0.087855555 0.11313394 0.094722226 0.13931853 0.13881603 0.033421416 -0.39903626 -0.031148503 0.13341625 0.105228096 0.05876413 0.45628402 -0.017452205 -0.047729034 0.091799855 -0.33607113 0.08045451 -0.11751262 -0.1405789 0.17227599 -0.2687146 0.17133503 0.14963509 -0.26274514 0.089191966 0.05656363 -0.035618763 0.029357098 0.34601164 0.38009962 -0.5644055 0.19025971 -0.22837766 -0.114791565 0.09065728 0.02855075 0.2597653 0.07597078 0.2827403 0.2298692 0.30901015 0.27975413 -0.109373555 -0.18836337 -0.024664843 -0.15476857 -0.095309526 -0.15486598 -0.1638928 0.03582595 0.1063607 0.18479612 0.48666546 -0.15122962
2067 -0.081113726 -0.22014758 0.23428485 -0.2463694 0.2576608 -0.00874943 -0.032620605 0.029087937 0.00090832537 -0.45739266 -0.07800299 -0.030231826 0.10235136 -0.046539262 0.13658991 0.24493995 -0.18179804 -0.15706493 0.006156647 -0.3672582 -0.13115354 0.15513042 0.055329252 -0.26954994 0.06776434 -0.1865245 -0.007516459 0.13717107 -0.037640158 0.15670379 -0.13873568 -0.045051873 -0.19022644 -0.06327241 0.13098675 0.13448556 0.15587543 0.23846123 0.2456918 0.16034564 -0.09054331 0.39083767 0.0747756 0.16796544 0.47311726 -0.31531888 -0.015056675 0.08264762 0.37266666 -0.05201778 -0.0657482 0.30100986 -0.36511135 -0.11270005 -0.19298385 -0.12374798 0.29219767 -0.22468327 -0.30519694 0.07131605 0.23897022 -0.103354566 0.3311998 0.08929747
1681 -0.11139889 0.107118115 0.29961646 0.015052447 -0.1051519 0.095392205 0.16749252 0.045540743 0.027364012 0.09435326 0.1909252 0.3883216 0.012365602 0.08736221 0.29981235 0.269354 0.031124579 -0.32336602 0.17533566 -0.42946342 0.26317313 0.12525688 -0.16292058 0.035824735 -0.12809062 -0.036010124 0.29779348 0.11999029 -0.24424021 0.30297902 -0.056859966 0.15942253 -0.22367346 0.07439861 0.2386859 0.075830154 0.045020033 0.26937553 -0.2682172 0.36222392 -0.24628134 0.059114914 -0.15513621 -0.026564464 0.027760236 -0.07232531 -0.34035534 0.23462579 0.20018151 -0.19566078 0.16363917 0.35401246 -0.18004094 -0.057636067 0.04501311 -0.33978453 0.20821264 -0.062476873 -0.45366862 -0.18594018 0.117297806 0.19762053 0.37097967 0.043699726
