2708 64
1358 -0.5113824 0.42429072 0.022675874 0.23355092 -0.39972153 0.22162157 0.20077743 -0.36439726 -0.045403954 0.3120926 -0.030470503 -0.10778001 -0.23691846 0.3801466 0.26287144 -0.12442454 0.032340966 0.07001198 -0.049306024 -0.07393669 -0.29760084 0.026959654 -0.2004825 -0.22068378 -0.07525146 -0.4019798 -0.06441309 -0.23292126 -0.20733695 -0.083403625 -0.1955113 -0.13332662 0.010583242 0.16889736 -0.14720978 -0.20593742 0.11905774 0.12002263 -0.25249988 0.045125384 -0.0452176 0.048633765 -0.44868514 -0.028255055 -0.13096543 0.16298263 0.0826667 -0.034876954 -0.12956801 -0.08486173 0.22712268 0.16218224 -0.08643884 -0.21353178 0.27298483 -0.026913336 0.25311497 0.40784353 0.058444966 0.069170654 -0.24223052 0.1677366 0.3289488 -0.091518015
127 -0.48549312 0.34759155 -0.079720914 0.4072454 -0.2853946 0.19031498 0.1097976 -0.080171615 -0.4462442 -0.17846686 0.07919666 -0.119801514 -0.22635384 0.42777285 -0.004219555 0.25931135 -0.15478015 0.07101807 0.061396383 0.28968433 -0.20932475 0.028452408 -0.033631932 -0.51659477 -0.30900568 -0.10865446 0.0073634596 -0.23155725 0.04983984 -0.23749883 0.12964894 -0.08112918 -0.00043951068 -0.09849901 -0.09596992 0.1057462 0.3032191 0.08692156 0.31910047 0.070640214 -0.01708397 -0.06647713 -0.38039562 -0.2413918 0.16114524 0.18093078 -0.2561238 0.21879657 -0.29500026 0.33899707 0.19523142 -0.09214552 0.14235814 -0.10228113 -0.16044378 0.058549613 0.32482192 0.23392871 -0.23460425 -0.008370635 -0.08210148 0.18391757 0.27630442 -0.32654706
1701 -0.01564541 0.3457271 -0.01638989 -0.07283971 0.26854017 0.17035662 -0.032754775 -0.3496629 0.2838917 -0.12183152 -0.41933757 0.3897881 -0.13720235 -0.005101465 -0.3799232 -0.1567335 0.020476015 0.05567946 0.16955076 0.08309169 0.30018887 -0.14223567 -0.030543508 -0.21229006 -0.2984555 0.02778995 -0.15626651 -0.26796362 -0.008506807 -0.029915493 0.11176229 0.16309184 0.25018254 -0.13520019 0.2221099 -0.16267751 0.06581137 0.17353159 -0.055256777 0.31102186 -0.13082904 -0.6230776 -0.093167245 -0.11222724 0.21451415 0.0008432054 -0.011741272 0.12434849 0.12766461 -0.19107126 -0.3930923 -0.11571027 -0.20115693 -0.21286543 -0.13386777 0.26243043 -0.06705978 0.29342753 -0.052339856 0.13677804 0.030018786 -0.1433316 -0.027051173 -0.038079236
50 -0.11823288 0.17608717 0.21535528 -0.035694093 0.18107043 0.068205394 0.18965659 -0.44205576 0.17111 0.024331432 -0.1219039 0.25681013 0.1897409 0.1079188 0.04993039 0.21800852 0.046597436 -0.083198704 0.07108217 -0.09661822 0.18699567 -0.14607574 -0.61321306 -0.13498493 0.025758715 0.007287397 0.054565243 -0.13647813 -0.09070636 -0.37774852 -0.12052311 0.20827459 -0.10138927 -0.27474153 0.008687808 -0.36298084 -0.094717644 -0.051393606 0.075705275 0.4108394 0.086534254 -0.37250748 -0.047850896 0.4841439 0.49352992 0.29446563 0.0942632 0.07869067 0.18183571 -0.27977937 -0.2865719 -0.28756773 0.021855233 -0.1328022 -0.13671188 -0.23693578 -0.06936097 0.67556655 -0.08797344 0.14066833 -0.09546581 0.08864887 0.22766304 -0.016176566
1986 0.4282192 0.09028731 0.10798217 -0.20311818 -0.35876632 0.11885491 -0.15767395 -0.23555416 0.0019334252 -0.16066773 -0.48469165 0.38521788 -0.10373554 0.12044626 -0.15333243 -0.23148789 0.4171502 -0.13337323 -0.027670298 -0.28151932 0.20854 -0.01860316 -0.13452984 -0.34843335 -0.082896896 0.30105618 -0.5470287 -0.08940413 0.273213 -0.39238456 0.2245083 -0.11371734 0.028506491 -0.39053828 -0.26326436 0.007657003 0.0909207 0.10145512 -0.38322842 0.602409 0.37133288 -0.5720278 -0.09529119 -0.037608054 -0.0109015275 0.24516018 -0.19537708 -0.08490866 -0.043198936 -0.0069700074 0.04449553 -0.230928 -0.2526083 -0.20545655 0.054577593 0.4169494 0.2660945 -0.0008277682 -0.18372409 0.017658237 0.19652219 0.08005838 0.17024678 -0.06565079
1664 -0.12433636 -0.058724303 0.13481021 -0.012834612 0.046982933 0.22934556 0.16980317 -0.26251575 0.18471791 -0.014051953 -0.090527885 -0.07900625 0.30192992 0.04179849 -0.36853603 -0.49087042 0.06892259 -0.045307282 0.33201706 -0.13730109 0.23903169 0.041200817 -0.15950966 -0.25964227 0.29412577 -0.048250943 -0.053067856 0.10351724 -0.10544255 -0.17965417 0.3302547 0.3171197 0.09481841 0.4136125 -0.42980242 -0.327268 0.5604841 0.5120302 -0.22085737 -0.1127343 -0.2423329 -0.5191591 -0.088031806 0.16596004 -0.01882201 -0.5798628 -0.086171545 0.06911294 -0.115070745 -0.057139542 -0.33361682 -0.35754934 0.25735176 -0.37696123 0.17630662 0.09948461 0.06857258 -0.0931483 0.12391816 -0.29538998 -0.24173662 -0.14921099 -0.1299876 -0.0072694076
855 -0.1452886 0.32991216 0.22861011 0.18008715 -0.28755552 -0.15053417 0.26987642 0.07502439 0.17946856 0.058752317 -0.16907169 0.073889114 -0.06127326 -0.028668411 -0.74711365 -0.063998 -0.097822934 -0.11590663 0.20766832 0.100445576 -0.093541004 0.16027494 0.09967161 -0.13649125 -0.26703006 0.06079838 0.2805223 -0.27992278 -0.25133514 0.05220673 -0.2887904 0.124706574 0.13132675 0.29890943 0.05781907 -0.112082675 -0.15102032 0.61896294 -0.21418843 0.019602196 -0.2070145 -0.32204345 0.10324344 0.32219777 0.22850315 0.021638373 -0.5525209 0.010099347 -0.15030108 0.33260354 -0.2816651 -0.26648435 0.11067239 -0.06821979 0.05357188 0.43931097 -0.1666481 0.043766603 -0.16474846 0.049852338 -0.08406984 0.3165232 0.12119328 0.03947693
11 0.29381496 -0.109841384 0.035894252 0.23799136 -0.05638987 -0.045623206 0.09759319 -0.25787884 0.1460668 0.08818255 -0.46852148 -0.3021303 0.1174594 0.20493597 -0.10386998 -0.15967564 -0.14762852 -0.20485935 0.031430684 -0.15750012 0.196793 0.13226932 -0.5144226 0.08544684 0.054859586 -0.049399626 -0.13628414 -0.35425282 -0.3001921 0.06790848 -0.038493898 -0.030992845 -0.18666954 -0.017290257 -0.22579898 -0.16734464 0.35214916 -0.08504882 -0.3769747 0.59928524 0.2312119 -0.4289043 -0.29484865 0.029497541 -0.11101889 0.40043905 -0.020410644 0.10444782 0.0368958 0.22298157 -0.29299235 0.09104641 -0.2714833 0.12650803 0.21914288 0.14999351 -0.34518316 0.45864928 -0.39296874 0.18169801 0.101938955 -0.061743792 0.09648596 -0.33972278
306 -0.21479914 -0.1736993 0.08807422 -0.39044273 -0.31955883 0.35650426 0.3672065 0.1418734 0.12147654 0.49502668 0.046404775 0.14305468 0.31333613 0.20078972 -0.0032385723 0.37835342 -0.66103375 -0.38142255 0.07287492 0.057481706 0.089952946 -0.035063688 -0.02216993 -0.02786228 -0.1539251 0.14524786 -0.08972767 0.37091535 -0.0873964 -0.24890925 0.2280779 -0.3270366 -0.17600435 -0.26682395 0.025182763 0.096988164 0.11881833 -0.21138905 0.032959804 0.5885631 -0.26322126 -0.49349916 -0.08039771 0.0658581 -0.41903657 0.39755696 -0.3127432 0.27072465 -0.09189635 0.106474414 -0.61798733 -0.4268607 -0.45380172 0.036285177 0.3973365 0.008231649 -0.08294411 -0.33591476 -0.070114285 -0.12340762 -0.14307877 0.15555842 0.30734292 -0.18005542
51 0.40538833 0.17844756 -0.033392504 -0.41944116 -0.039928395 0.39358786 0.031024683 -0.16996889 0.049111877 -0.05076301 -0.3154358 0.056306217 -0.037059043 0.038748458 -0.4177298 -0.39721775 0.26001492 -0.11163689 0.30773792 -0.13772708 0.30694848 -0.096938595 -0.22393157 -0.67369705 0.048440043 0.16689613 0.015629739 0.014598826 -0.285385 -0.07198455 0.0026397852 -0.017648999 -0.15391329 0.058965057 0.14627954 -0.48824677 0.57494897 -0.03090383 -0.5169926 0.06825068 -0.22450279 -0.32593116 0.1373318 -0.042682063 0.07871309 0.1385415 0.19035886 0.14110559 -0.114537925 0.056174364 -0.21403497 -0.33580458 0.2870994 -0.32359955 -0.1438085 -0.24694361 0.10889199 0.3176366 -0.15696299 -0.07828917 -0.16299957 -0.051959094 0.07035313 0.049364507
14 -0.3045228 0.19349423 0.08095793 0.25619143 -0.06383136 0.29343092 0.20436679 -0.0673896 -0.0025267056 0.003988566 -0.13194567 0.09426778 0.2490723 -0.2550571 -0.24690112 -0.31564415 -0.057509944 -0.005321426 0.42056224 0.22719088 0.35497048 -0.13140379 -0.20834625 0.049726777 0.16800818 -0.33403057 0.30615863 0.005660165 0.03273787 -0.23154184 0.30458978 -0.07772667 0.0891066 0.19876045 0.49450505 0.25828522 0.21131957 0.447267 -0.49153525 0.07935774 -0.25434548 -0.06688117 0.34456086 0.092682436 0.28653154 -0.053965002 -0.26958138 0.18453524 0.2431124 0.2404194 -0.32625574 -0.19301696 0.02167762 0.13369097 -0.24874455 -0.025906244 0.10774744 0.32311535 -0.1768576 0.52102524 0.17974287 -0.2419838 0.18973422 -0.30426696
1439 0.07168207 0.29604328 0.0004902119 -0.3845361 -0.10222715 0.010167103 0.06726985 -0.19757798 0.14668459 0.07883927 -0.38631806 0.55065376 0.3519915 -0.25911614 -0.17223118 -0.18798056 -0.016016455 0.0448089 -0.10085176 0.30961147 0.21893966 -0.0006692044 0.29928547 -0.16510943 0.0758959 -0.32548493 0.20702507 0.18191579 -0.14695635 -0.088546 0.25184998 -0.2506515 0.14348342 -0.018121753 -0.02402046 -0.07427914 -0.2341566 0.35584074 -0.5862963 0.22809815 0.22379042 -0.25185293 -0.4515242 -0.17437787 -0.104898505 0.06995982 -0.1539495 0.09606472 0.31259266 -0.064963594 -0.23300374 0.026050422 -0.05030651 -0.4895827 -0.11123332 -0.06438836 0.27904603 0.40930632 -0.003499937 0.065122575 0.07942037 -0.49723262 -0.13703662 -0.16618149
215 0.10925901 -0.3101524 -0.27234146 0.07096058 -0.17230389 0.27648032 -0.27060083 -0.4480534 0.25542203 -0.14487979 -0.41997108 0.0016435161 0.013166312 -0.02258888 -0.47024125 0.2651149 0.0866907 -0.01649057 0.122609526 -0.14643013 0.342738 -0.13630004 -0.0859751 -0.35116005 0.22684032 0.039949268 0.11849287 0.010648571 0.21285045 -0.06477213 0.57536733 -0.13314228 0.2864367 -0.27044684 0.14677049 -0.29928592 0.054669134 0.073645845 -0.33655202 0.35008055 0.32477275 -0.48685777 -0.26619378 0.35081056 0.10804235 0.13363323 -0.23720925 0.11121193 0.03261326 0.04757378 -0.08486267 0.124647595 0.41138244 0.0039445744 0.09849201 -0.40603608 0.100821584 0.17558333 -0.48768777 0.04761436 -0.40081057 0.05070287 0.12994401 0.18534367
1446 -0.24716717 0.0634946 -0.28806344 -0.083335355 -0.03619194 0.33720347 0.1851118 0.08755523 0.06472719 0.14389034 -0.11430168 0.10902873 0.3163604 -0.14433554 -0.4730742 -0.014849194 0.03370216 -0.038534064 0.15344432 -0.07051168 0.062324446 0.035675015 -0.2393306 0.0037313653 -0.022062043 -0.15428407 0.039277814 -0.3515709 0.12178852 -0.15126802 0.12953356 -0.057451878 0.34073085 0.21683507 -0.25117505 -0.37900302 0.46350804 0.21230221 -0.32487231 -0.036152154 -0.15699495 -0.39963895 0.17714898 0.17226918 0.10272404 0.04057708 -0.02906412 0.48919842 -0.008237618 0.2905646 -0.40623322 -0.42301026 0.019651968 -0.34171396 0.16572455 -0.051468905 -0.097171485 0.2914961 -0.051301323 0.056623857 0.13497968 0.08240303 -0.16179548 0.13831042
1075 -0.09144564 -0.020420197 -0.1546795 0.026506996 -0.22851634 0.1640088 -0.32466215 -0.104285695 -0.008986305 0.12426787 -0.52727395 0.05458004 0.19992182 0.08919331 -0.108209744 0.3727443 0.3213229 -0.114938624 -0.06834049 -0.021824664 -0.103075296 0.17412582 0.07921752 -0.11669404 0.011404757 -0.20187846 0.07780273 0.06480886 -0.4314349 -0.1349191 0.22525002 -0.15265357 -0.14625713 0.22904325 0.13670944 -0.26446736 -0.104138985 0.60395056 -0.7703606 0.21932253 -0.05988099 -0.19843957 0.14093293 -0.13996333 0.34204912 0.4812936 -0.4995401 0.21402855 0.011530539 0.09627815 -0.0882539 -0.1081412 0.15539207 -0.32820925 0.22827443 -0.012044754 -0.18010543 0.15729506 0.12996422 -0.07381871 0.033426218 0.15658118 0.012224626 0.10147321
19 -0.37482002 0.38028857 -0.051265463 0.33830675 0.13088968 0.15425523 0.17234115 -0.014003026 0.07877696 0.24224146 -0.38221398 -0.059668038 0.12626317 -0.081688784 -0.26844534 0.02048445 -0.17158686 0.12281664 0.29298016 -0.07090765 0.08417833 0.16206913 0.14093168 0.10134618 -0.26517472 0.024536384 0.0062161405 -0.18737356 -0.23414011 0.027408486 -0.079059646 0.30578166 -0.010124169 0.12958506 0.23690087 -0.058161262 -0.17504917 0.4739332 -0.59472555 0.258497 -0.2895015 -0.8212081 0.2040509 -0.07759615 -0.0022507433 0.09555021 -0.44495472 -0.2829189 -0.11475195 0.19974424 0.16183324 -0.40259725 0.046581663 0.12260221 -0.05597866 -0.015375052 -0.5244036 0.2651266 -0.22298047 -0.18691182 -0.15958476 -0.4015554 0.15921311 -0.26623324
1016 0.19702734 0.16469403 -0.22603889 0.15191625 -0.093062736 0.4270699 0.14507945 0.08492305 0.5581749 0.123623855 0.024769811 -0.06817851 0.2504027 -0.124877505 -0.3640135 -0.3148862 0.2698032 0.42277357 0.34906825 -0.14405492 0.093469575 -0.12844877 -0.27957013 0.24826355 -0.03576301 -0.20379251 -0.25995114 0.023062458 0.12196031 -0.15613618 0.13741158 0.05019036 -0.0812072 0.20746425 0.22662516 0.0004540221 -0.19258681 0.16362496 -0.4747971 -0.19820067 0.27831656 -0.5745199 0.21943027 0.011966927 0.19082549 0.24250232 -0.1247588 -0.19979219 -0.35930315 0.18943597 -0.04006986 -0.3735728 0.18889698 -0.54142225 -0.012860073 -0.13488357 -0.081777096 -0.1342945 -0.50936013 0.08078516 -0.16045693 -0.15085746 0.3716443 -0.31260473
2367 0.07041264 -0.042857822 -0.0006695797 0.07232017 -0.42246553 -0.07535592 -0.15300635 -0.48878258 0.24928783 0.23978336 -0.27002367 0.029515099 0.565255 0.13732894 -0.27297908 -0.33950272 0.08765033 -0.1569946 0.09884239 0.21208021 0.019413967 0.5679833 0.23684546 -0.0031106214 -0.09194252 0.09752178 0.4219972 -0.066138275 -0.36373508 0.00018805302 0.4069422 0.14562453 -0.060710736 -0.5424895 0.312731 -0.10451183 -0.16582821 0.3114407 -0.22273402 -0.14281078 0.1630368 -0.33126932 0.2169301 -0.07268908 0.24801932 0.36624056 0.09392547 0.13227342 -0.10418772 -0.016078185 -0.09379206 -0.46570027 -0.03329454 -0.4839307 -0.28033108 0.015772756 -0.03301667 -0.14528966 -0.31455758 0.13100573 -0.202053 0.29466605 0.023333455 0.0019949246
598 -0.06492305 0.0593498 -0.14127406 0.30353695 0.06939867 0.31353983 0.17545786 -0.11397821 0.13830028 -0.1329412 -0.195906 0.36774477 -0.2998729 0.040587187 -0.32132804 -0.58347654 0.012012034 0.22361368 0.052724577 -0.20815514 -0.34359032 0.33987144 0.037866425 -0.22297944 -0.18600775 0.5813223 -0.35083508 -0.093938984 0.1390789 0.1758222 0.11645744 0.059803918 0.16611075 0.1063374 0.1681208 -0.27686065 0.20691124 0.00092318916 0.0042818924 0.14093922 0.27452233 -0.56007 -0.16373192 0.006358099 0.062088255 0.12699042 -0.3060087 0.20157073 -0.32636163 -0.5695458 -0.19793318 -0.015710237 0.056216836 -0.3036029 0.33654526 -0.30682722 -0.3092921 0.21266378 -0.15438077 0.06964534 0.12068852 -0.0318856 0.18077332 0.24224135
15 -0.027995545 0.19466098 -0.094903976 0.3753604 0.051037237 0.06452845 -0.29948312 -0.16203138 0.24373247 0.19824238 -0.39073238 0.05225735 0.43402526 -0.4841128 -0.52453846 -0.2951249 -0.27078694 0.22914828 0.1125888 0.044756 -0.4636889 0.21510153 -0.14708427 -0.12884976 0.013567533 -0.47310802 0.21479876 -0.042199828 -0.2549482 -0.09562735 0.2137733 0.2550886 0.031601045 -0.07858663 0.30179295 -0.30599204 -0.48767024 0.002641237 -0.32421994 0.18735407 0.2342761 -0.40907288 0.18376061 0.36299083 -0.07150272 0.41392058 -0.12374123 -0.6512974 -0.1606024 0.17981568 0.32787246 -0.39402202 0.19323936 -0.54032063 0.23744072 -0.025318846 -0.03333744 0.20393626 -0.034085914 0.19410111 0.10167478 -0.09553992 0.06857347 -0.1430068
1810 0.20656528 0.021301575 -0.056439698 -0.014659424 0.20671158 0.15308087 -0.22859113 0.012529388 0.28631762 -0.3202802 -0.11467973 0.32121217 0.071085185 -0.0920612 -0.0021427248 -0.2796929 0.06150379 0.08120835 0.05660271 0.066321835 0.5590749 -0.03178936 -0.13916159 -0.2817684 0.20107731 0.17885019 0.06907491 -0.07793592 -0.031008288 -0.2635791 0.013772141 0.023396257 -0.14531772 -0.23251343 0.047684185 -0.33904943 0.4175705 0.13787778 -0.7614157 0.027072037 -0.028497357 -0.75691766 -0.08283883 -0.060076766 -0.2342452 -0.19940771 -0.09531397 0.2990745 -0.13698322 -0.21281041 0.10783408 0.021653043 -0.30836478 -0.54470444 0.39269027 -0.42282888 0.17120238 -0.0062982403 0.065598674 0.028023588 -0.060789943 -0.2620847 -0.41495296 -0.31893513
729 -0.16262932 0.290983 0.25886288 0.24004032 0.06374343 -0.1515818 -0.19695362 0.056320764 0.056718774 0.18625394 -0.2772463 0.098470055 0.57663614 0.049375135 -0.09536089 -0.10456988 0.36581326 -0.24699554 -0.0446851 0.15127178 0.23139635 0.08722337 0.3447926 0.103664696 0.006550765 -0.5979021 -0.10954509 -0.21621294 -0.13676807 -0.077488475 0.07349016 -0.2314545 -0.0410812 0.24340788 0.23751903 -0.1681404 -0.16697879 0.2018214 -0.1980815 0.41957265 0.20367196 0.0028473355 0.045034077 0.010780087 0.38332117 0.113858856 -0.23103687 0.21492061 0.19155578 -0.12710893 -0.057766963 -0.09587387 0.08653079 -0.51256216 -0.36305752 -0.1374204 0.1578123 0.70494 -0.11301764 -0.49261913 -0.20347181 0.012044268 0.19074045 -0.075720735
775 -0.21056761 0.13629955 -0.091628164 0.09089296 -0.015470531 0.2814705 0.2891156 -0.06483023 0.20198955 0.1586266 -0.38371545 0.32544884 0.48822606 -0.15001214 0.1706485 -0.07370554 0.23921211 -0.09557671 0.24301428 0.3401388 0.07448546 -0.26089838 -0.06208066 0.28744152 -0.05585035 -0.13445404 0.42584276 0.018445244 0.04174175 0.1318042 0.2229814 -0.13503852 0.26793194 -0.122439004 -0.3130723 0.061195586 -0.10761261 0.03268018 -0.6440699 0.12293473 0.047978625 -0.30103415 0.16495073 0.08842909 0.4400518 0.1411225 -0.37785086 0.24885312 -0.4034238 0.14740126 -0.20683503 0.17069845 0.17216195 -0.694595 0.26555195 -0.19417706 0.0025859093 0.30730647 0.2096301 -0.14258605 0.08991013 -0.15385878 0.048750106 0.1708413
1862 -0.26305372 0.18524458 0.17708237 0.45482737 -0.324546 -0.00034026007 0.01766659 -0.39727604 0.20091382 0.40374207 -0.5516452 0.29980677 0.0017317819 0.029133707 -0.20488873 -0.2477317 0.16891955 -0.19433771 0.2108481 0.093874656 0.39169517 -0.0424998 -0.13383982 -0.20182014 0.36034334 -0.28549877 -0.1543732 0.082132064 0.22130667 -0.41020197 0.004566643 0.20476754 0.42695194 0.1953295 0.015527279 -0.24950382 0.11287292 0.22219779 -0.049163062 0.015615701 0.25372162 -0.031571712 -0.07728608 0.2831004 0.27827314 0.2038174 -0.33443376 0.20075507 0.1835917 -0.17652638 -0.20786418 -0.018501421 0.19446912 -0.18457542 -0.17433874 0.32780877 -0.4143375 0.17909278 -0.077205546 0.32486358 0.12521367 -0.409977 -0.017383927 -0.04363607
1175 0.30344886 0.1531007 -0.1159665 0.009811144 -0.1413357 0.18253082 -0.18300664 -0.21664342 0.27868727 0.22644304 -0.15122582 0.09870552 0.10196817 -0.35407963 -0.0005280511 -0.187597 0.14278357 -0.15394944 0.093800984 0.07206995 -0.15841559 0.25003502 0.055958673 -0.32711273 0.31428394 -0.4400321 0.11518045 -0.292063 0.007863715 0.20438533 0.15918557 0.06942193 0.06659933 0.19305438 -0.17426047 0.091928996 -0.38164777 0.12773408 -0.32107905 0.2261489 0.27519304 -0.44346547 0.33534852 0.10458407 0.30907407 0.22492164 -0.2071498 -0.121478796 -0.14071536 0.2679672 -0.43230087 -0.38401663 0.27956942 -0.4313465 0.21437381 -0.1207964 0.2721766 0.25229117 -0.56018054 -0.24285571 0.099427104 -0.10634961 0.19137543 0.13861759
1020 0.13707294 0.2481248 0.21377368 0.3909823 0.06812275 0.17276028 -0.01777454 0.052438535 -0.039721776 0.25579965 -0.46014288 0.17876534 -0.14546743 -0.30938947 -0.06929475 -0.19534874 -0.03738197 -0.17893033 0.4750542 0.11990167 -0.08365893 0.06283417 0.33771628 0.22350459 -0.033534564 -0.5857817 0.14520755 -0.33145377 -0.2168155 0.044795346 0.14293957 -0.17259665 0.3349918 0.027394237 -0.15873839 -0.29188052 -0.26172322 -0.10136827 -0.16610366 0.34329915 0.08893117 -0.17489171 -0.044794127 0.23604567 0.08165795 0.19078138 -0.14197217 -0.029021418 0.26095116 0.17004435 -0.1845622 -0.06293301 0.105933554 -0.53881663 0.12114825 -0.27897105 0.41711304 0.35865504 0.114735864 0.041691884 0.011491732 -0.48529518 0.20077296 -0.34172833
766 0.011106382 0.25494364 -0.10172762 0.14739929 0.06015535 0.28028196 -0.19622679 0.06692708 0.10645655 -0.03622677 0.035591703 0.2057124 -0.18047307 -0.031842064 0.05346272 -0.34453818 -0.11920747 -0.1396717 0.6877409 0.20454457 0.5010504 0.307782 -0.21879642 0.42105386 -0.2326143 0.22140709 -0.042400006 -0.11252703 -0.16857883 -0.18783577 0.23621896 -0.26004276 0.3285178 -0.10185076 -0.28222805 -0.33470452 0.07352024 0.09448032 -0.126791 0.040226545 -0.19277994 -0.5423603 -0.090964995 0.14554575 0.21797962 0.2738656 -0.23886003 0.014865831 0.11219282 -0.23135065 -0.31045982 -0.052420326 -0.020521319 -0.20943052 -0.08877 -0.26126215 -0.01718509 0.6788905 -0.004084573 -0.27585718 0.032139495 -0.050448637 0.022869242 -0.17082405
2077 -0.318516 0.06490625 -0.13564543 0.1901729 0.18130185 0.08027878 0.071387775 0.028848778 -0.14465088 -0.05958633 -0.34828076 0.528009 0.042562064 -0.4736297 -0.19931981 -0.44000006 0.21409556 -0.20652904 0.5201991 0.109805904 0.10791881 0.17760512 -0.11638149 0.16810918 -0.08781819 -0.111273624 0.13471574 -0.4315394 -0.22520368 -0.17805798 0.26957524 -0.5145065 -0.14210528 0.1371319 -0.08099343 -0.14893243 0.050751492 0.5534743 -0.029775131 0.11760386 0.098564394 -0.32072842 -0.02959658 0.23542301 0.34018978 0.26543042 -0.06343632 -0.14867344 0.2570278 -0.14087813 -0.29747796 -0.21987194 -0.12553594 0.09406455 0.26981506 -0.23842068 0.032528892 0.39508155 -0.1391765 0.14988962 0.24786495 0.010819761 0.294605 -0.10966701
1348 0.25796616 0.25037387 0.7925386 0.45130286 -0.16424446 0.050518896 0.15974058 -0.08576079 0.030707363 0.020502912 -0.1421887 0.13556224 -0.024245404 -0.20295161 -0.56838906 -0.51174104 0.23898521 -0.034836467 -0.11193837 0.011360002 0.1993622 0.13297367 0.16303185 -0.22011022 -0.15260592 -0.41180742 0.015826918 0.062032096 -0.25958645 -0.3766817 0.08325002 -0.12883182 -0.1820922 -0.02320173 0.3427059 -0.10189255 0.2765153 -0.08799361 -0.1725649 -0.119780906 0.08365332 -0.16915119 -0.18160114 0.019016169 0.035089087 0.22621563 -0.56979513 0.28472626 -0.17042123 0.26346976 -0.4406213 -0.22524284 0.21970734 -0.15565757 0.121604316 -0.10102996 -0.18606322 0.1554782 -0.1794545 0.21129921 -0.25129792 -0.37816232 0.2226405 0.14194228
1392 -0.3239125 0.10259375 0.08947511 0.025279209 0.14964402 0.06594912 -0.13142657 0.022577213 0.036242913 -0.06706734 0.18066864 0.58559436 0.3361518 -0.34215805 -0.5462062 -0.22689177 0.06634539 -0.1949554 0.39035356 0.4468878 -0.08575864 -0.24007834 -0.15311228 0.23277006 0.150063 -0.42866546 -0.14007713 -0.41136315 -0.28387254 -0.21560757 0.18392287 -0.025078136 0.25375214 0.22379582 0.048381463 -0.2828958 0.2692673 -0.06533912 -0.028369278 0.18342234 0.18620755 -0.121297084 -0.42811286 0.04826513 0.22527328 0.14124987 0.2803038 -0.014688549 0.24274722 0.08904287 -0.36533946 -0.2054945 0.30586165 -0.18480688 0.3759461 -0.049150664 0.27204227 0.34778666 -0.35915148 0.15151983 -0.17176221 -0.31787127 0.40013683 -0.02617037
892 -0.19676073 0.044702623 -0.41462445 0.17678443 -0.055046838 0.46321058 -0.116258554 0.12192866 0.32182392 0.39338732 -0.30569702 0.3825748 0.15041922 -0.2977086 -0.11839688 0.16803968 -0.18132149 0.1895941 0.65508235 0.18978864 -0.055477012 -0.18102282 -0.22506672 0.16313857 -0.16649011 -0.1327293 0.021271538 -0.38621852 0.043955866 0.03249412 0.08088619 0.17775685 0.30174857 0.06805231 -0.06399273 0.06515751 0.17241602 0.18212138 -0.40197942 -0.10947185 0.1483688 -0.28597823 0.25304833 0.21938448 0.4064763 0.28847915 0.0023263549 -0.03223766 0.17363417 0.06343472 0.15774721 -0.11409763 -0.48765385 -0.5070369 -0.11959968 -0.14193712 0.12699188 0.47205728 0.14992556 -0.055378873 -0.14964886 -0.18078989 0.3965097 -0.13776068
100 -0.21311544 -0.16944273 -0.20508145 0.11465971 -0.046328288 0.0005176787 0.3549484 0.40138677 0.27752793 0.25348836 -0.1547583 0.1337554 -0.4455434 0.09517151 -0.029914452 -0.17693208 -0.33568096 0.41999584 0.5200275 -0.41958797 -0.22193973 0.09675324 -0.09863132 0.111532174 -0.14724992 0.12419574 -0.08614028 -0.21127479 0.230506 -0.12770972 0.008498317 0.16825543 -0.10933296 -0.043858387 0.3449075 -0.29536402 0.16185896 0.068705484 0.13360062 -0.012992931 0.0067659756 -0.31469962 -0.1991508 0.19397703 0.35059863 0.28143948 -0.17001693 0.13050812 -0.04874902 -0.3126714 -0.24124534 -0.32535747 0.18840937 -0.30470276 0.37818995 -0.36585355 -0.3260634 1.1075943 0.147713 0.2062565 -0.09934682 0.07083359 0.11790041 0.056248825
2602 -0.115122795 0.34275615 0.13450402 -0.009139852 0.15556549 -0.2063787 0.1271631 -0.04655615 0.43723765 0.17618234 -0.03615166 0.454833 0.051936578 0.15785442 -0.48121107 -0.06465306 0.23459707 0.08317819 0.43410134 -0.07516343 0.6599368 0.1804717 -0.44823754 -0.1575709 -0.12778127 -0.24019402 0.15745574 0.17860837 0.57019407 -0.20832254 0.0012214789 -0.0003735194 -0.10549242 0.36573443 0.32162604 0.032216966 0.18639088 0.11493196 -0.40469813 0.12097682 -0.37099326 0.055525467 -0.069566764 0.31818148 0.09232299 0.3692298 -0.5613589 0.054870382 -0.28537878 -0.046483997 -0.052317984 -0.08207978 0.2663071 -0.1811096 0.35003057 0.05702088 0.1368747 -0.00884625 -0.31785154 0.23491289 0.103520945 -0.5038426 0.16508529 0.27802223
2534 -0.32729566 0.14784566 -0.19560558 -0.050873704 0.09435818 0.24795496 0.014318792 0.09986378 -0.082955256 0.3871886 -0.17340532 0.21573971 0.36973995 -0.25240445 -0.34306303 -0.20849276 -0.12161054 -0.19237801 0.32803082 0.24383108 -0.17918912 0.15677214 -0.10607437 0.056803383 -0.16024303 -0.042422052 -0.1506495 -0.08977342 0.13333954 0.13403264 0.014405896 -0.08116322 -0.035343993 0.097567886 0.2912947 -0.44985193 0.007448533 0.14582098 -0.60964346 0.03943986 -0.059800845 -0.34624317 -0.11353434 -0.109396234 0.45055255 0.22344325 -0.15353043 -0.002459292 -0.13943547 -0.08768299 -0.30759528 -0.12725152 0.2737617 -0.0023176016 0.17139558 0.22611001 -0.16800003 0.66828144 0.004413632 -0.12704511 -0.06362527 -0.0024299922 -0.063937515 -0.035710182
1837 -0.25569445 0.31247887 0.039210416 -0.24478817 0.060647663 0.2961612 -0.15493178 -0.5199663 0.15399908 -0.17127162 -0.39983222 0.33298984 -0.24645211 -0.30215025 0.13679887 -0.11275017 0.0038292112 0.17767268 0.4304974 -0.057325713 0.34981057 -0.00054248574 0.38580483 -0.036667734 -0.0618892 0.19715354 -0.06762001 0.11564358 0.14152747 0.0022413698 0.14674322 -0.034069017 -0.16763434 -0.12519126 0.08809526 -0.29005387 0.16287771 0.2584613 -0.44518846 0.30929112 -0.038782995 -0.25206667 -0.122008264 0.49616262 0.30579415 0.16536559 -0.34763113 0.11521318 0.022527616 0.29419512 -0.34259626 0.11394042 0.18904231 -0.14749272 -0.32670552 0.1654269 0.11798389 0.35515898 -0.33632606 0.4246116 0.0033126827 -0.1822536 0.16146214 -0.3345186
2509 0.0948241 0.19612765 -0.37871486 0.119568065 -0.013339309 -0.037980366 -0.010912441 -0.25930437 0.017147781 0.2074267 -0.21063943 0.14272055 0.024259623 -0.32562003 -0.6271695 -0.10279036 0.47532082 0.052563865 0.4913056 -0.2130608 0.08131196 -0.051039193 -0.07121562 0.07352296 -0.040291935 -0.323566 0.29829758 -0.07434891 -0.41141453 -0.25991967 -0.0019207238 -0.38304722 0.12694107 0.29600358 0.3273639 -0.3465713 0.09019302 0.12278447 -0.25755498 0.25172624 -0.17576444 -0.19265074 0.098099194 0.026795143 0.15656418 -0.09279611 -0.3154125 -0.09576874 0.11377672 0.608618 -0.36711025 -0.42463872 -0.091733426 -0.2028311 0.09198984 0.00783343 0.15966232 -0.12031704 -0.18918115 -0.13844036 0.3405379 -0.26106387 0.116672225 -0.542549
1321 0.53868556 0.02640423 -0.034543622 0.06679573 -0.45180336 0.017934253 -0.16810393 0.15630451 -0.025453672 0.08942156 -0.09137659 0.08558591 -0.010364049 -0.023459475 -0.34230787 -0.22550417 0.34625176 0.18738097 0.16438434 0.2531845 0.299938 0.009207432 0.06002834 -0.04529079 -0.19480574 -0.07527564 -0.15563354 0.07594687 -0.14487399 -0.30511868 0.1094551 0.18103583 -0.13252611 0.10060326 0.00967097 -0.11961144 -0.09314925 0.30782917 -0.61174434 0.20517164 0.20335084 -0.39739877 -0.39731216 0.045614965 0.05531585 -0.0451252 -0.14318591 0.3006847 0.11742279 0.34774345 -0.34006536 -0.27155632 0.3782966 -0.12697259 0.47236082 0.2777161 0.2876556 0.25617793 -0.391622 -0.117477804 0.013103961 0.10571578 0.32559994 0.06234011
1692 0.059173945 0.040197916 0.08640182 -0.05506136 -0.22850162 -0.02971224 0.20283104 0.13777852 -0.17017001 0.40376264 -0.23944677 0.3299926 -0.054488286 0.008733199 -0.52708066 -0.39301455 -0.033189263 -0.25858572 0.35707697 -0.0042766347 -0.16723296 0.110157505 0.14159821 -0.09614772 -0.078035735 -0.09184754 0.086504176 0.17619215 0.023518045 0.3278621 0.3196309 0.26747385 0.042945266 -0.014662202 -0.13134222 -0.37507048 0.36427036 0.18288201 -0.2960624 0.45759544 -0.009389717 -0.09593058 -0.3254369 0.09513891 0.23031238 0.24841626 -0.516381 0.047872305 0.0400129 0.025495926 -0.0993224 -0.41109154 0.23557727 0.3401 0.02717797 0.49511695 -0.17757222 0.2037179 0.011292105 -0.26932546 0.10491981 -0.3069392 -0.13803704 -0.121945955
383 0.28618455 -0.045642044 -0.21468227 0.2813696 -0.08806277 0.2777226 0.24867953 0.24595135 0.21115176 0.11268084 -0.011502678 0.22019283 0.053430624 -0.14455047 -0.09510896 0.34718803 0.27499518 0.24445191 0.06984547 0.09896964 0.4701166 -0.1523673 -0.060445186 -0.16382374 -0.11895235 -0.3996197 -0.21212025 -0.18422067 -0.1930619 0.0146577 0.28974515 -0.20805877 -0.2082586 -0.08533018 0.27579513 -0.45886546 -0.30100417 0.2857073 -0.3012466 -0.13963541 0.08886664 -0.3144203 -0.11913138 -0.074230276 0.11773813 0.42852288 -0.23745565 -0.009874108 0.08894974 0.323407 -0.43738145 -0.12926184 0.18546294 -0.37465107 0.24585606 0.10061111 0.011273216 0.40476573 -0.09498697 0.22292942 -0.22171023 -0.07231694 -0.2621611 -0.5451964
2148 -0.23008296 -0.24261191 -0.18887798 0.013844986 -0.04485224 0.3643615 0.011614247 0.22671005 0.41832504 0.14793146 -0.34802955 0.102800004 0.09990816 0.3728883 -0.120320074 -0.17397137 -0.13376568 -0.22765943 0.7718898 0.1654562 0.16475534 -0.10591539 0.027750075 -0.3200426 -0.08355612 -0.21991855 0.26282847 -0.030402744 -0.01524799 -0.26749673 0.096422285 0.14961605 0.13573445 0.56071913 0.16733009 -0.28128332 0.12027794 0.27891514 -0.5143598 0.09767058 0.17920773 0.089519426 0.08361727 -0.20608987 0.2146584 0.35116833 -0.1364874 0.11539031 -0.08140104 -0.0057805437 0.14617115 -0.2995691 -0.18878934 -0.28653663 -0.4137328 0.07157641 -0.11035803 0.15767972 0.301792 -0.15839013 -0.09944365 0.0073190983 -0.22434957 -0.18757989
869 -0.22383168 0.043978505 -0.15014185 0.05802632 -0.15898152 -0.14178145 0.14548588 -0.31322134 -0.08939051 -0.27121666 -0.14220071 0.17693785 -0.08689029 0.08915449 -0.6291452 -0.2021732 -0.2892102 0.20768604 0.33854988 -0.13278374 0.15127975 0.028886305 -0.35406783 -0.29152215 -0.12063848 0.019024475 0.24246754 -0.08888981 -0.022024954 -0.6185277 -0.48923594 0.070866436 0.00077458605 0.049282294 0.26809168 -0.2295517 0.078535445 0.21666668 -0.74510777 0.030029597 0.15303224 -0.29011038 -0.26381442 0.026077168 -0.107279226 0.084334195 -0.35079286 0.3434016 0.24813765 -0.13205269 -0.14770648 -0.4065815 -0.4122125 -0.10043404 0.047815856 0.055950243 -0.56374335 0.36725906 0.11322292 -0.5913295 -0.07463496 -0.003656654 -0.11509539 -0.024738705
1997 0.13151787 -0.1975461 -0.07810951 0.23634231 -0.11688558 0.10731031 0.11004152 -0.12724194 0.29948205 -0.10283896 -0.110841654 0.0408445 0.2692211 -0.16856292 -0.26253814 -0.4516948 -0.044102333 -0.4216836 0.218545 0.15359966 0.48257527 0.057387624 0.11866952 -0.22012863 0.068583116 0.16291478 -0.17172755 -0.030306865 0.14096388 -0.07432177 0.0068466235 0.025211899 0.095618 0.34477925 -0.05498126 -0.06146843 0.019809326 0.5770944 -0.3509291 0.09182538 -0.0037844833 -0.5913843 -0.37018532 0.0027163646 0.100276016 0.4423273 0.16578023 0.037164584 -0.17444697 0.08583189 -0.14290166 -0.32383305 0.099713035 -0.13273764 0.037454378 0.48043907 -0.0602201 -0.1355217 -0.2552532 0.30366477 -0.21671416 0.02354841 -0.084281296 -0.2462969
484 -0.06881304 0.060086433 0.2366242 -0.45975086 -0.4403518 0.5825957 0.07602782 0.10195514 0.52987564 0.4076639 -0.15034942 -0.094035484 -0.008806898 0.073149145 -0.1288271 0.26002854 -0.34315607 -0.26604775 -0.07833664 -0.017056428 -0.0953082 0.04994739 0.38131437 -0.4617199 -0.1032555 0.2947784 -0.32046357 0.3737731 -0.28881246 -0.30097502 -0.08520834 -0.1577064 0.07575591 0.10691804 0.13357796 0.23375002 0.3331492 -0.33709767 0.23970194 0.75374293 -0.5926633 -0.2626868 -0.13513294 0.024400841 -0.4211149 0.35759678 -0.037569687 0.09999644 -0.23487736 -0.06092671 -0.49958953 -0.4683421 -0.14573126 -0.09732489 0.26850933 0.0041853045 0.17565446 0.08572974 -0.26712877 -0.3823768 -0.0843652 0.2019137 0.27029115 -0.21863301
2358 -0.22182608 0.17440756 0.010099818 0.36937246 0.028697025 0.16640976 0.06840755 -0.2896079 0.48080188 -0.05334955 -0.08830888 0.048367977 0.26986346 -0.10339703 -0.4093272 0.114720225 0.29433048 0.39665568 -0.1627904 -0.22154252 0.26423174 0.23643747 0.11897337 0.005297252 0.072223045 -0.5642494 0.19612797 -0.31780988 0.023251396 -0.21245585 -0.030889736 -0.10984612 0.107867844 0.3344482 0.10560351 -0.3350273 -0.08234942 0.41072527 -0.15045212 0.12919767 0.0047254125 -0.40512553 0.10386525 0.21511869 0.3180514 0.17653629 -0.25654712 0.44607177 0.39062753 0.11242382 -0.10146818 -0.29913124 -0.108212836 0.17380524 0.14312913 0.20159897 -0.12391033 0.06833069 -0.39540282 -0.21958944 -0.08428917 -0.0671269 0.14770253 -0.28120217
2427 -0.05335872 -0.19263394 -0.05575549 0.14296933 -0.24269408 0.30321297 0.054467328 -0.23465097 0.043461796 -0.0013235766 -0.23470092 0.11798511 0.63339937 -0.07241237 -0.4988581 0.11933696 -0.10833185 -0.25218314 0.25870326 -0.07155312 0.12128438 -0.37020895 0.07649026 -0.28264484 0.10160295 -0.29808027 0.28625765 -0.11674968 0.0744636 0.29875168 0.0742854 -0.14839295 -0.14228451 0.06946228 0.11761641 -0.44258854 -0.27571982 0.33230582 -0.4085611 -0.32569474 0.02473459 -0.2944222 -0.33968192 -0.08783548 0.28169146 0.4835156 -0.01662923 -0.06835683 0.24863368 0.17225857 -0.20939049 -0.3431832 -0.28904396 -0.26415724 0.025660053 0.2396324 0.17725646 0.082673445 -0.28216663 0.17916381 -0.16596746 -0.49748167 0.13543873 -0.20920905
781 0.28382513 -0.08282802 -0.06958638 0.18410622 0.13554347 0.51411146 -0.049895544 -0.07804692 -0.036177922 0.29320702 -0.118419535 0.056014713 0.26955703 -0.02206657 -0.3245656 -0.096089646 -0.036518447 -0.049668428 0.45835334 0.22150941 0.13057126 0.16654845 -0.34088475 -0.3351044 0.108255416 -0.16491331 0.45056236 0.22246581 -0.1353999 -0.26172376 0.3575121 -0.050208937 0.10599761 0.10413394 0.09190744 -0.2027088 0.47086146 0.2528219 -0.014825738 0.34956187 -0.011560087 -0.11558534 0.25423717 0.2512768 0.37539086 0.61284125 -0.04156477 0.37785456 0.17249998 -0.14016028 0.040389944 -0.26269892 0.48464546 -0.05160042 0.028467176 -0.12189649 0.2930481 0.007093619 -0.33762234 0.1065185 -0.015235364 -0.38120988 -0.47860882 -0.5742902
2701 -0.15587692 -0.23994862 -0.42716473 0.1461351 -0.24654293 -0.1976533 -0.18685226 -0.027837459 0.32176054 -0.19968586 0.25075725 0.17073992 0.00817322 0.1354831 -0.5348919 -0.17082512 -0.08345339 -0.0698308 0.47832912 0.2325306 0.26331463 0.12042908 0.11226445 0.1220177 -0.009856206 0.038918767 0.4072725 -0.37529308 -0.20563197 0.17335112 0.4178371 -0.28396252 -0.079323426 -0.21190777 0.23172368 -0.49681082 -0.04192344 0.43674722 -0.3329344 0.28502852 -0.13213588 -0.16581646 -0.45433372 -0.001414236 0.03564414 0.21922131 -0.3797692 0.2971837 -0.41551584 0.18074004 0.08761201 -0.43036216 0.28628916 -0.5027181 0.04281386 0.5922108 -0.13934007 -0.09243909 -0.08212362 -0.07867903 -0.22645028 -0.2456863 0.075021006 0.4687295
846 -0.021713864 0.05517593 0.25309625 0.026836282 0.02244099 0.0023703414 -0.055351965 0.07516037 0.5442947 0.12849635 -0.3104486 0.24995753 0.26524752 0.36265114 -0.30036783 -0.12457954 0.12298546 -0.16220844 0.050427075 0.2698886 0.28491512 0.44815084 -0.08158825 -0.12300223 0.14603315 -0.041123632 -0.0062162257 -0.07754415 -0.010168961 0.24117169 0.210411 0.37671775 -0.020918736 0.31681427 -0.037209257 0.24132329 0.056806397 0.4488336 -0.3861115 -0.2621173 -0.17922033 -0.21280502 -0.10962532 0.32897758 -0.052047025 0.12734725 -0.02670935 0.3053673 0.19800116 0.46250814 0.056414023 -0.25270912 -0.17044757 -0.45833284 0.13781713 0.1225333 0.2937149 0.22813328 0.19086426 -0.22824268 -0.09607143 -0.43684524 0.20364024 -0.3029058
2038 0.080742426 -0.0007334957 -0.14343342 -0.03235142 0.10807716 0.13515349 -0.19666962 -0.5229272 -0.34068945 0.18038411 -0.092109814 0.054647457 0.41764012 0.06539283 -0.2731089 0.3141715 -0.10313164 0.35095954 0.13473648 0.5213513 -0.10722365 0.33676052 -0.33101633 -0.4675364 0.0023859316 -0.2464302 0.19242361 -0.0039042323 0.07356812 0.026166258 0.27920085 0.15209447 0.38762173 -0.19708364 -0.01791998 -0.21118176 0.02196189 0.34361646 -0.106182806 0.14308813 0.09636744 -0.19365987 0.035111245 0.09398594 0.21703511 0.42081106 -0.052243616 0.5201152 0.11777509 0.04478784 -0.551234 -0.38239944 0.113256484 -0.19158162 0.15012687 0.07351939 -0.2975836 0.14225695 0.5508478 0.21459046 0.017710663 -0.17025413 -0.067665674 -0.46377325
2438 0.054458946 -0.14096884 -0.090542234 -0.0639184 0.1559839 -0.12345552 -0.2649826 0.06004653 0.11939326 0.34738153 -0.06812796 0.121453084 -0.017621541 -0.34276843 -0.4216355 -0.33802813 0.29006192 -0.18434735 0.21954933 0.31093627 0.21530342 0.025995577 0.014153518 -0.15351829 -0.008768249 0.068856835 -0.007650781 -0.16516274 0.029530395 -0.7652448 -0.2184307 0.5148465 -0.04039475 -0.03978924 -0.07263884 -0.19724576 0.6449284 0.045137294 -0.3295587 -0.1039139 -0.22026151 -0.47900268 -0.31059274 0.36726227 0.07277106 0.38742405 -0.08733168 0.20128207 -0.20067103 0.2382575 0.09993325 -0.51997876 0.31123227 0.103224106 -0.091437735 -0.09355315 0.21303777 0.29058218 -0.22256891 0.015105284 0.23053712 -0.110342205 0.086540796 -0.17894392
1662 -0.041009616 -0.061233748 -0.28621715 0.5128651 -0.43559867 -0.18788226 -0.43787295 0.038927056 0.3183052 -0.017647434 -0.29297903 0.20593844 0.19391742 -0.3306985 0.33804736 0.35443768 0.4486106 -0.4640872 0.37387186 0.023548834 0.4202339 -0.12265261 -0.06253869 0.31124154 0.0023999813 -0.20193636 -0.035709653 0.019470097 -0.25840974 -0.31465453 0.07709173 0.15529917 -0.026486136 -0.09326416 0.31154165 -0.09554795 0.06117684 0.40845007 -0.4655702 0.21506412 -0.36587384 -0.17149302 -0.0048007183 0.27858344 0.33392745 0.10812981 -0.30578166 0.07908857 0.10753179 0.13340458 -0.25335625 -0.4132713 -0.17763217 -0.26013196 0.36295208 0.0037579078 -0.059305966 0.50503933 -0.017728021 -0.16240436 -0.08667346 -0.24155614 -0.11018518 -0.17805363
1131 -0.45273477 0.13798277 0.11800707 -0.19603363 0.07608896 0.07424217 0.31916723 -0.15212655 0.22463647 -0.32596096 -0.35754716 -0.002064787 -0.04311678 -0.16353351 0.14012477 -0.2112339 0.008222932 -0.47504976 0.1009175 0.11633323 0.02980365 0.52583086 0.09601613 0.36099076 -0.21789357 0.12423691 0.0069122184 0.34048906 -0.32366455 0.24168262 0.09950449 0.47762978 0.3700733 -0.43602756 0.3248686 -0.45953912 -0.18743636 0.36926535 -0.31409186 -0.04568387 0.3488767 -0.19468398 -0.29204232 -0.19132076 0.24944915 -0.1363661 -0.2781425 0.28160307 -0.1950776 0.30112973 -0.31273037 -0.40393585 0.19401762 -0.3437958 -0.2138641 -0.04382216 0.19610864 0.13638034 0.30321923 -0.36112532 0.012912118 0.02659855 0.18108109 -0.25149813
681 -0.11248127 0.023668425 -0.22180802 0.5081766 -0.11995764 0.023909142 -0.15769753 -0.12355487 0.12638736 0.24506293 -0.023361294 0.16314872 0.31922328 0.063875355 -0.16210318 -0.23225649 0.2347954 -0.18720719 0.6681045 -0.22177105 0.04645114 0.09053002 0.03526717 -0.019445168 -0.07624509 0.124186814 0.17270741 -0.40347356 0.10314534 -0.089962065 0.11554407 0.18039268 0.3921798 0.31079096 0.1176397 0.2078688 0.26163876 0.3244452 -0.09206375 0.35798937 0.33751127 -0.47448662 0.042008154 0.040810272 -0.25087717 0.40435728 -0.033439398 -0.23802051 0.15958038 -0.0024258702 -0.3173557 -0.05783184 -0.10769847 -0.4578734 0.019740272 0.02824519 -0.31237254 0.39299566 0.065435186 -0.11212768 0.37551573 0.10738887 -0.15775076 -0.4621431
1031 0.31479824 -0.042732228 -0.01640703 0.22444725 -0.13367768 -0.1335837 0.082334764 -0.23248585 0.20379066 0.5580104 -0.08810671 -0.15820524 0.29112175 -0.1637898 -0.32278824 0.021346165 0.16947137 0.090335466 0.5135451 0.043600954 0.20157541 0.08226514 0.14790988 0.077507064 0.5201245 0.054233752 -0.203941 -0.13025975 -0.048182327 -0.18104059 -0.1818555 -0.2557402 0.3264849 -0.23971125 0.058797862 0.09823137 -0.07395333 0.19738856 -0.5727707 0.22468159 -0.2833009 -0.30137473 -0.23757723 -0.06098897 0.18332326 -0.07933044 -0.500375 0.48053268 -0.06311008 -0.06863838 0.15120679 -0.50532234 0.18734765 -0.5134311 -0.111357965 -0.104548275 0.08924442 0.31496078 0.035333015 0.18050204 -0.07722129 -0.11920822 0.2439126 -0.13163872
1869 0.40229097 0.11331428 0.3497522 0.0062294323 -0.15631834 0.018694665 0.009229536 -0.3570954 -0.04617165 0.31448707 -0.48320198 0.58963025 -0.13028139 -0.007419217 -0.30000898 -0.09094305 -0.03274561 -0.253508 0.27509162 0.054912034 0.12325794 0.57993764 0.0050792648 -0.08472656 0.17886733 -0.113234885 0.09080485 0.23288321 0.0029228805 0.148417 0.28314662 0.3072315 -0.012682784 0.051551916 -0.09856894 0.0770827 0.18566914 0.10628786 -0.16196986 -0.09630918 0.09740113 -0.41923648 0.002613175 0.05020249 0.115113355 0.37206712 -0.12444769 0.21007176 -0.2749174 -0.26457074 -0.13474417 -0.2806773 0.3299879 -0.17170301 -0.118885726 0.001991402 -0.104575545 0.8079745 0.21105741 0.08564621 -0.21165831 -0.31383762 0.10462559 -0.3430475
1440 0.0296361 0.05979578 -0.1398208 0.08594287 0.07871723 0.23070104 0.113068275 -0.5915033 0.053690434 -0.08830753 -0.4042565 0.33348593 0.58095074 -0.071427315 -0.3083311 -0.15385221 0.13982144 -0.24373038 0.2077359 0.10611039 0.14460015 -0.01645592 -0.04877364 -0.013995624 0.050691072 0.07584142 0.57244056 -0.31255567 -0.41097486 -0.40635064 0.24463896 -0.17257968 0.07457005 0.29463148 -0.16243438 0.027841669 -0.17940037 0.279365 0.045983046 0.005884431 0.18606253 -0.08044741 0.14134502 0.04415291 0.558529 0.11550964 -0.06849089 0.32892317 0.31746846 -0.43765828 -0.17733625 -0.587637 -0.129337 -0.13472663 -0.11270971 -0.32268023 0.025994997 -0.03783527 -0.39934486 -0.14802134 0.07668853 0.07252706 0.26739874 -0.41091293
2425 0.14586109 0.38540986 -0.13276169 0.06403879 0.0545 -0.19425663 -0.059248626 0.03419137 0.18457206 0.03670432 0.1424729 -0.21759784 -0.21850856 -0.21826337 -0.4034125 -0.29154852 0.007588979 -0.17481565 0.12973592 0.29725033 -0.090808004 0.4918338 -0.114997715 -0.44847646 0.2022945 -0.19315925 -0.3087094 -0.14608997 -0.048123352 0.22389384 0.1091541 0.023541134 -0.21370405 0.027102055 -0.104244724 -0.048315823 0.28070047 0.53087014 -0.33561328 0.31215763 -0.058972735 -0.07651296 -0.16086313 0.41597587 -0.12239485 0.6219188 -0.257154 -0.019592797 -0.45039064 0.7288532 -0.40131983 0.18616362 0.13819481 -0.34866372 -0.2694812 0.19914941 -0.05694379 0.46704626 -0.072662525 -0.028114147 0.06926289 0.25591552 -0.26566818 -0.025350904
952 -0.33810657 0.21653888 -0.2522374 -0.023025122 -0.1853994 0.17485684 -0.21939246 -0.34542274 -0.16547836 0.112018526 -0.20135434 0.17193845 -0.001085529 -0.26996326 -0.40489185 -0.120529994 -0.034423523 0.07690441 -0.014871683 0.2276912 -0.22449622 0.06343223 -0.08578557 -0.1729198 0.10329775 0.20688327 0.044101965 -0.15061268 -0.031121453 -0.29625365 0.22523805 0.41687125 -0.5081742 0.02221866 0.2860624 -0.4024732 0.028137315 0.602345 -0.3195309 0.08853414 0.042026192 -0.3192619 -0.18960252 0.54734695 0.25198495 -0.13195914 -0.14429975 0.06651103 0.12060711 0.20326047 -0.038569182 -0.47246176 0.004041652 -0.46158034 0.11168934 0.12413568 -0.11814507 0.17163604 0.0482647 0.24803688 -0.07344756 0.2262807 -0.04831607 0.28745547
1799 -0.06096143 0.07737995 0.04460838 -0.33175087 0.06295586 -0.06431104 0.30022755 -0.19234793 0.1467828 0.2095791 -0.23639734 0.5372868 0.03938536 -0.09918971 -0.21909636 0.0979608 -0.28763917 0.16464193 0.46971858 0.43453088 -0.3494266 0.054198924 0.02548164 -0.17782338 0.01579181 -0.23607583 -0.02797999 0.1652266 -0.07554561 -0.2083351 0.12753393 -0.19787283 0.16968544 -0.05024269 -0.15797558 -0.23543993 0.11927242 0.42570117 -0.45277688 0.44413885 -0.093590915 -0.40752107 0.11527453 0.014052042 0.23311006 0.24563147 -0.11675606 0.2244656 0.00115937 0.10215322 0.06442166 -0.38021106 0.39100674 0.06829017 0.11997366 -0.108405046 -0.042147987 0.38335484 0.06938421 -0.0043584527 0.17079434 -0.084131345 -0.21312597 -0.085013285
1363 0.19160971 0.049998455 0.37785202 0.45069167 -0.08911725 0.10622069 0.13889147 -0.49802557 0.1359317 -0.20290558 -0.0213742 0.21143748 0.19691908 0.07399099 -0.5618481 -0.2620911 -0.0653517 0.55105233 0.15755463 0.1623939 -0.05994951 -0.07010608 -0.38698372 -0.044362776 0.3575269 0.059564743 0.31248933 0.009616694 0.09235595 -0.28690454 0.21590789 0.10235 -0.4363449 0.014922974 -0.20238735 0.026121583 0.35585228 0.28072312 -0.29816812 -0.15398346 -0.2560744 0.010378301 -0.19278836 0.04607992 0.46490824 0.23507862 -0.45327595 0.0931439 0.025814654 -0.38790497 0.022408834 -0.40616387 0.29461092 -0.23011328 0.060549803 0.4262323 0.033802062 -0.042976473 0.1468381 -0.12681508 -0.15658066 0.2741589 0.08855325 -0.044417363
768 -0.42753983 -0.27152738 -0.113572404 0.058285236 0.16224474 0.19960454 -0.0047646123 -0.31454095 0.30257532 0.20897835 -0.0059829415 0.32090524 0.3288779 0.046072233 -0.19168669 -0.4786451 0.4560498 -0.39315057 0.10684879 0.31183046 -0.16100572 0.1567973 -0.1366174 0.15718526 -0.28527704 -0.13607222 0.030812267 0.10489636 -0.2780178 -0.32378435 -0.004227659 0.32713482 0.007972166 0.2991205 0.06835486 -0.30801103 0.24857733 0.31012818 -0.3329817 0.06802395 0.24115315 -0.12860867 -0.3625136 0.0402521 0.2702929 0.20093022 -0.38549927 -0.033416983 0.0028830145 0.052372746 -0.42626187 0.11956812 0.39296755 0.17638905 0.33825606 0.13397926 -0.10572031 -0.086914755 0.065952115 0.027176248 -0.36560637 -0.22465621 0.15669563 -0.09048579
2636 -0.023260519 0.04822361 -0.06468216 0.35198835 -0.1808174 -0.087655775 -0.32738543 0.07742738 0.41486248 -0.30627462 -0.04844018 -0.041103553 0.006622981 -0.1619446 -0.40002555 0.14727464 0.11038291 -0.4138299 0.61805314 0.044396747 0.051334336 -0.14106975 0.2796068 -0.31014478 -0.060217675 -0.20859702 0.32752112 -0.31308675 -0.068628386 -0.015059461 0.46015167 0.39073944 0.089538544 0.05587898 0.08968348 -0.27499485 0.0673396 0.25084767 -0.14701843 0.5765509 0.08544398 -0.21027346 -0.27426904 0.38718432 0.07309724 0.013335467 -0.20340693 -0.019803315 -0.255747 0.28722674 -0.05492443 -0.25944245 0.14011763 -0.32140368 0.0003098302 -0.15625906 -0.22950484 0.22386323 0.17863184 -0.05362352 -0.12006113 0.08557098 -0.14788215 0.07301631
2698 -0.49052307 0.3831196 0.05788391 0.05039008 0.117762856 0.26458374 -0.22986221 -0.19645424 0.3208362 -0.48590985 -0.11247509 -0.3033085 0.35217118 0.11054833 -0.47951752 -0.12624256 0.37257576 -0.1501686 0.7528218 0.029430296 0.2662831 0.09006933 -0.13420774 -0.027709797 -0.07713106 0.14986807 0.11854688 0.020737112 0.40025154 0.055076066 -0.15356372 0.045924827 -0.031186089 0.03391152 0.4052629 -0.17311753 0.3569227 0.09224601 -0.37264338 0.23025246 0.6040349 -0.016993884 -0.45279652 -0.015810354 0.4361428 0.14461163 -0.18443052 -0.016694201 0.20003544 0.2598063 -0.3115836 -0.10760376 -0.009232275 -0.16726607 0.20414163 0.17824207 -0.06583477 0.077796586 0.0059975754 -0.16783477 0.20615852 0.112194486 -0.03699332 -0.13804586
2368 -0.20065062 -0.2645799 0.3793081 0.15085231 -0.27724007 0.23733485 0.049143013 0.033503704 0.1702811 0.15424253 0.25844064 0.11170303 0.2075639 -0.32115424 -0.00645044 -0.22207724 0.15286325 -0.2910713 0.26787886 0.30738494 0.07249664 0.27903017 0.23156577 0.109079935 -0.24815057 0.080008686 0.08792502 0.0104553215 -0.1418041 -0.02120024 -0.08246724 0.09780641 0.2916333 -0.15198961 -0.47447765 -0.043179154 -0.020121781 0.61957926 -0.45193493 -0.06523733 -0.10844964 -0.39633325 0.22033623 0.22866625 0.35039958 0.18493342 -0.50150275 -0.027917463 0.14727728 0.278046 -0.32959628 -0.2070961 0.4229973 -0.09620464 0.025893958 -0.14555325 0.10429496 0.30645907 -0.24984139 0.13879186 -0.040135533 -0.050818637 0.1742324 -0.5047977
1042 -0.30947933 0.14081375 -0.6006189 -0.14172877 -0.4713173 -0.23322266 0.06522787 -0.41105184 0.17426984 0.48184684 -0.05427604 -0.2775971 0.21682347 0.11104746 -0.4211874 0.26100653 -0.06971913 -0.1672873 -0.007538491 -0.11974048 0.018086933 -0.18119198 -0.12464965 0.015691327 0.5713778 -0.17514193 0.2419346 -0.040625542 0.281603 -0.15032525 0.049536236 0.3008496 -0.035881393 0.077011496 0.1268006 -0.14841218 0.16290893 0.16729623 -0.36141807 0.27110842 -0.78313106 -0.4127685 -0.23784615 0.33532643 0.58620316 0.062197313 -0.3381312 0.105086744 0.11513261 0.13202809 -0.032005064 -0.17458569 -0.22820443 0.1994791 0.0034654 -0.47638866 -0.13720359 0.03751109 -0.02790429 0.39240623 0.0011592766 0.06334885 -0.12927765 -0.1381503
875 -0.30674762 0.31763935 0.22501378 -0.33560458 0.10648443 0.22429124 -0.16289882 -0.46136382 0.17552151 -0.23923676 -0.3794725 0.1974837 0.388847 0.2736642 -0.06427046 -0.4285023 0.07900195 -0.010019312 0.12055819 -0.113300525 0.38771018 -0.09643905 -0.09545845 -0.04769038 0.3003842 -0.28844586 -0.33616373 0.12088803 -0.117967755 -0.5124066 0.5780337 0.10612439 0.18874964 0.2943538 0.32874215 -0.15063408 -0.052011613 0.40808806 -0.17162903 -0.17428283 0.13208672 -0.176643 -0.20182686 0.51454073 0.039326847 0.09647153 -0.002792487 0.19188541 0.22605681 0.014720953 -0.17736961 -0.041890766 0.06862743 -0.40207756 -0.3711235 0.08683916 0.013512895 0.49411812 0.1302642 -0.23667629 0.12729329 0.17733455 0.22444306 -0.060962956
1575 0.027643556 -0.4666207 0.07825393 0.17479022 0.02133396 0.022423519 -0.2373048 -0.54816717 -0.05659873 -0.19689132 -0.24779435 0.22875948 0.23860696 -0.12396511 -0.27535415 0.035831608 0.14507191 -0.2241924 0.2687925 0.13550225 0.44081587 -0.055464532 0.52201647 -0.7338078 0.09082109 -0.15471058 0.4908096 0.06913078 -0.115889326 -0.39868692 0.32107913 0.13110574 -0.1422675 0.0989243 0.23777236 -0.13502449 -0.0056391107 0.047092997 -0.08664587 0.35123542 0.29038224 -0.26222757 -0.16565496 0.23257788 0.35602403 0.037815683 -0.24578972 0.04077729 0.107808866 0.37885916 -0.04660403 -0.07674882 0.26858208 -0.45726913 0.165029 0.06366358 -0.17763825 0.2948772 -0.3331782 -0.10457238 0.47347817 0.0016283073 -0.18715495 -0.26402846
1815 0.049072426 -0.1937382 -0.10557407 0.09970255 -0.051587906 -0.016537042 0.032560017 -0.27323726 -0.028444706 0.22843002 -0.30361935 0.12662567 0.16281666 -0.037200708 -0.5331614 -0.126026 -0.2002665 -0.10012337 0.5157981 0.03375174 0.039867964 0.42789355 0.07324025 -0.2938311 -0.035875887 -0.12596323 -0.09086372 -0.17450069 0.053029396 -0.073248595 0.30300626 -0.23991063 0.054108612 0.5788252 -0.0030233408 0.017668407 0.16672298 0.21166982 -0.63145906 -0.18756634 -0.19101858 -0.13514529 0.0067142835 0.113908395 0.3920018 0.15475516 0.24748784 0.23605707 -0.15551908 0.13112961 -0.31478164 0.039420158 -0.14648187 -0.493188 0.22393474 0.2099812 -0.106940225 0.14432523 0.18630482 0.08517219 -0.037280437 0.08030146 0.23897786 -0.19489168
1116 -0.3819363 0.18406586 0.037381828 0.40385738 -0.32605687 0.27911752 -0.27880356 0.018122157 0.32502657 0.002648196 -0.20804535 0.0856933 0.070684694 -0.18047535 -0.48027903 -0.33068982 0.12623349 -0.029221626 0.42624414 0.09270799 -0.21623269 0.13819876 0.12402866 -0.22921486 -0.41609696 -0.002618251 0.058164276 0.2749477 -0.2745052 -0.1885794 0.052759923 0.16799144 -0.15574011 0.19523911 -0.16640681 0.028826807 0.2720862 0.5816021 -0.16104865 0.006278053 0.26919064 -0.32602778 -0.28297418 0.14791012 0.54362375 0.015969189 -0.32110173 -0.4366538 0.15106341 -0.038161978 -0.45710966 -0.060723092 -0.114912674 -0.28997916 0.047829047 -0.011042433 -0.3335045 0.09537998 0.2052515 0.04209183 0.026019996 0.091971144 0.045833025 0.30069005
866 -0.17780317 -0.07830249 -0.12927312 0.16356455 -0.34701976 -0.115334794 0.015687853 0.21608534 0.09054064 0.40665826 -0.2977412 0.2873374 0.3711872 -0.12518714 -0.44597697 -0.28445014 0.18481359 0.052003983 0.21432115 0.1251675 0.047357175 -0.07358558 0.080936626 -0.22089054 -0.14466238 0.3705235 0.16187353 0.22201853 -0.1926893 -0.1952405 0.402236 0.095411405 0.15832531 0.3684581 0.15209365 -0.3281071 -0.07384149 0.28696552 -0.2937783 0.1913493 0.38791314 -0.2581109 -0.038702786 0.6042643 0.10508701 0.120048285 -0.20874596 -0.18401158 -0.017034287 0.23604028 -0.17900592 -0.14960511 -0.14357823 0.079723656 -0.09918857 0.25756618 -0.14346722 0.22070168 -0.3521664 -0.3760356 -0.25790358 0.07202434 0.4605472 -0.026924772
55 0.39267215 0.113193646 -0.2532194 0.26442313 -0.16105404 0.6313749 0.23047194 -0.0794403 0.17579049 -0.031907886 -0.2510043 0.24622375 0.07449248 -0.021251261 -0.30277136 -0.09199722 -0.4949314 0.02709504 0.04931007 0.23334953 0.23146425 -0.08447092 -0.090525866 0.4899971 -0.036413465 0.03913129 0.45040667 -0.008723223 -0.21998523 0.4466486 0.483498 -0.07809134 0.28715336 -0.5386951 0.40689182 -0.2770134 0.0009184052 0.07410926 -0.3527109 -0.5136665 0.3582061 -0.05003049 -0.29792714 -0.15108359 0.31277704 0.43659732 -0.0010489491 -0.08207401 0.2045839 0.06537197 -0.061762653 0.13786109 0.1768086 -0.0028342162 0.46992087 -0.07039983 0.041583028 0.23337619 -0.06637872 0.056640375 0.5305312 -0.09140449 0.35994026 -0.37048325
649 -0.36031792 -0.30799526 0.543661 0.16436963 -0.35647953 0.11480192 0.0103893 0.13692318 -0.010938184 0.028832225 -0.058053505 0.0025125088 0.2593229 0.578054 -0.4334787 -0.09417302 0.057041854 -0.18657354 0.037180085 0.08088658 0.106142506 -0.06748516 -0.21608457 0.23401959 -0.16415444 -0.21154186 0.0661253 -0.11771221 -0.17315155 0.12214276 0.1968966 0.15917441 0.508483 0.34637868 -0.16896163 -0.46423307 0.32000512 0.48066357 -0.38710698 0.23433645 0.28754327 -0.255361 -0.0016391877 -0.028916467 0.0654132 0.14608048 -0.03174379 0.25723723 0.07369753 0.18513119 -0.42475545 0.008514751 0.3459792 -0.48954827 -0.0962537 0.39528665 0.15495498 0.24628583 -0.14902915 0.026005609 -0.28668696 0.23731486 0.14572813 0.22282264
2034 -0.2258107 0.20706485 0.3314835 0.21304895 0.22039513 -0.10683744 0.055256624 0.14178114 0.2988195 -0.46470213 -0.19533107 -0.3792089 0.06533197 0.18037196 0.117528036 0.16059603 -0.2307661 0.2944149 0.3800842 -0.019653188 0.22851543 -0.0625914 -0.1954805 0.073321104 0.101067 -0.22653763 0.19566509 0.07200758 -0.3844303 0.06661798 0.1511624 0.23684365 0.099351205 -0.2037294 -0.24381733 -0.040499654 0.41918248 0.48102614 -0.1694593 -0.05246907 -0.1493993 -0.23943631 0.41673025 0.21923429 0.54625314 0.5153925 0.19580628 -0.12881094 0.15941547 -0.5410859 -0.6745886 0.017577993 -0.06481694 -0.24817644 0.08461964 0.3912467 0.42059007 0.07098184 -0.20437385 -0.20167753 0.15590812 0.105053745 0.4439033 0.043487538
2032 0.10202204 -0.07326715 0.070953466 -0.21809463 0.1324742 0.4520823 0.029098708 -0.2646664 0.5607988 -0.14150272 -0.2772003 0.15661699 0.38250282 0.31339088 -0.50235736 -0.15407643 -0.030855486 -0.013859585 0.10798721 -0.24250397 -0.27046233 -0.091852546 -0.12570578 -0.667398 -0.23471993 0.064930685 0.2091165 -0.074142955 -0.23890369 -0.124826625 0.37560752 0.37586161 0.07829566 0.24553552 -0.15077549 -0.08527111 -0.14261577 0.35970446 -0.3645944 -0.09592311 0.33577046 -0.27608037 -0.08938001 -0.2765808 0.19748074 0.08031411 -0.0011187553 0.008974653 0.10351647 0.16299503 -0.5066154 -0.21862336 -0.06777005 -0.251349 0.19447781 -0.35997304 0.21310197 -0.15867017 -0.1707149 0.2764552 -0.48642868 -0.015489556 0.28430617 0.010669512
592 0.24859355 0.051132523 -0.09859898 -0.116889685 0.021770453 0.092900634 0.29714525 -0.29320878 -0.02786891 -0.11753531 -0.13013557 0.061111253 0.06870911 -0.10853598 0.1484897 -0.12113534 0.2611752 0.19774507 0.36309847 0.40267208 0.07498407 0.22932917 0.1952372 0.09571118 -0.11309799 -0.13434955 0.34744024 0.35981402 -0.41668874 -0.15604053 0.22371379 0.26927954 0.12718697 0.31335685 -0.42854616 -0.10453157 0.19374122 0.4136945 -0.43307927 0.011664085 0.12621258 -0.6040286 -0.19528122 -0.1922502 0.14623901 0.30709186 -0.20245744 -0.020030944 -0.14607106 -0.29050204 -0.20582758 0.21569197 0.4887389 -0.435953 -0.42705235 0.17644364 0.09579621 -0.1292241 -0.008888326 -0.35774058 -0.11377211 0.22930804 0.45085505 -0.21045667
710 -0.019877603 -0.17321664 0.28472066 0.4474858 -0.12562673 -0.10386167 0.03660106 -0.09312701 0.11251124 0.13311265 -0.4639866 0.2322578 0.12026138 -0.140307 -0.2493858 -0.35675037 0.14221714 -0.10579556 0.22212371 0.17199546 0.3096628 -0.18853575 -0.16460401 -0.11777434 -0.009406952 -0.2710398 -0.019915424 -0.10001394 -0.30472437 -0.3967105 0.18794373 -0.015990792 0.1281153 0.21762896 0.02094973 -0.15330829 0.027351027 0.3827833 0.038064327 0.044402685 0.376898 -0.18006605 -0.30527443 0.15799107 0.32742947 -0.042281076 -0.16187984 -0.3391583 0.06091931 0.058359977 -0.25605732 -0.17058988 0.19466278 -0.6637719 0.35411173 0.11548771 0.15913625 0.21667285 0.15353751 0.082552575 -0.011534606 0.30083105 -0.28565574 0.07352908
226 -0.024321113 0.11200982 -0.08563999 0.20469174 -0.026087286 -0.013227105 6.3703483e-06 -0.08696188 -0.13517001 0.19203489 -0.27531692 -0.028775876 0.44418687 0.21248204 -0.40132582 -0.11540316 0.412974 0.096833095 0.18861075 0.012750598 0.07537093 0.36160922 -0.07499091 -0.16072059 -0.24392855 0.17363967 0.09693622 -0.16994895 -0.397966 0.10397783 -0.020392204 0.15013283 -0.087502025 -0.23330566 0.1047061 -0.28282592 0.004096375 0.08244568 -0.27504686 0.30000964 0.112790525 -0.7019127 -0.40758824 0.14482468 -0.3005792 0.38944718 -0.07662447 0.47918943 -0.069121055 0.15320095 -0.20225607 -0.20997687 0.19678472 -0.18540533 -0.1458075 -0.1106027 -0.36339292 0.09133406 -0.09429125 -0.05048405 -0.13979973 -0.23372157 0.2755299 -0.21755777
1741 0.14294684 0.19368926 0.3482402 0.7696791 -0.23595186 0.06973921 0.44931358 0.23017855 0.22506434 -0.23295365 -0.0066090957 0.35218042 0.3671561 -0.048351347 -0.42274162 0.018993188 0.13412905 0.31600332 0.092171535 -0.029817926 -0.38014925 -0.06718516 -0.16484697 0.06279586 0.11290638 -0.35203966 -0.02853654 0.16698836 -0.08824663 0.2838735 -0.060845643 0.056724902 -0.01375882 -0.14499962 0.13718621 -0.04343492 0.24230017 0.47064376 -0.17114587 0.009120618 0.076156214 -0.16572824 0.15999182 0.17611012 0.62113804 0.23158678 0.21767223 0.12363657 -0.3372023 0.54159135 -0.5823712 -0.5846983 0.1507824 0.075356305 0.1428928 0.10028122 -0.0104314275 0.113385215 -0.12086839 0.115613125 0.27438623 0.32991552 -0.09350099 -0.20118715
27 -0.2998166 -0.24738051 -0.011135125 0.03763563 0.04905597 -0.18642531 -0.35695526 -0.07782633 -0.09118037 -0.1319197 -0.0073001413 -0.2489366 0.06519976 0.15386905 0.07290575 -0.45274523 0.29495063 0.11351946 -0.27345404 0.6151274 0.10905348 -0.33565724 0.49831167 -0.21220528 -0.11087046 0.025834057 -0.034599338 -0.09564802 -0.011594444 0.19065963 0.05625789 0.5424668 0.122402 0.050454102 0.33990076 0.108504675 0.30382153 -0.10793925 -0.13050422 0.20057964 -0.3090816 -0.75386393 -0.039308563 0.220124 0.21390238 -0.066115804 -0.047231834 -0.45056692 -0.32228857 0.17140803 -0.2583593 -0.5537 0.13594626 -0.4334429 -0.0017373384 -0.41221613 -0.3181921 0.4047537 -0.29393882 -0.03002676 0.18677905 -0.18163739 -0.17615199 -0.42848045
436 -0.24815494 0.31890708 -0.058094062 0.6829983 0.12041815 -0.045662493 0.15519008 0.09861795 -0.23640062 -0.13696618 -0.0882249 -0.05559839 0.33359525 -0.26862946 -0.52560985 0.16692923 0.2729217 0.19575962 -0.10533847 0.31558928 0.16932115 0.001459429 -0.14425966 0.25178275 0.17252624 -0.032295745 0.19123243 0.12925604 0.13812862 -0.07378875 -0.16052663 -0.20790665 -0.20324335 0.051605858 -0.11891484 -0.4549809 0.14353667 0.24431472 -0.21650247 0.18354017 0.2067649 0.14779687 0.06599206 0.09827315 0.19120705 0.20722142 -0.48552465 0.25165936 -0.51349396 0.06559866 -0.6361557 0.30507892 -0.28465745 -0.051828638 -0.2248364 -0.2021552 0.023067584 -0.1317564 -0.07177698 0.23062514 -0.004829273 0.20330611 0.3073036 -0.46694565
743 0.044321578 -0.026394125 -0.15689506 0.34674513 -0.306367 0.19584593 0.34040263 -0.055966347 -0.13661428 0.21301737 -0.038543463 -0.08968655 0.26203436 0.0070192292 -0.41139725 -0.11281733 0.12939626 -0.07079509 0.053946238 -0.07773636 0.17674889 0.039630022 0.13302116 0.20818712 -0.32256085 -0.31113937 -0.34574604 0.2715579 -0.07871063 0.093828395 0.057282586 0.10946354 0.16099064 -0.047603015 0.1374671 -0.25824684 0.014803036 0.44507974 -0.25876352 -0.18101116 -0.027962476 -0.68839836 0.10444502 -0.018747045 0.22581054 0.046589583 -0.39744052 0.069031514 -0.00072825287 -0.06408656 -0.33320427 -0.5179829 0.22790927 -0.1930768 0.30092075 0.06171355 -0.5329557 0.14675689 0.29629982 0.16038564 -0.16977447 -0.051194925 -0.31201407 -0.4663181
8 0.26783162 -0.24076755 -0.061139837 0.41650155 0.07828843 0.37299946 -0.04103741 -0.36622158 0.14526206 0.20943561 -0.0008708212 -0.097002156 -0.37497106 0.04056448 -0.16527082 0.08044729 0.1805179 0.17899396 0.23601384 0.6061708 0.23059662 0.021174474 0.007737983 0.2972356 0.15325725 -0.11935138 -0.24453066 0.16242415 -0.13296476 -0.44791245 -0.15816334 -0.2527594 -0.028852351 -0.16555858 0.42218 -0.4667395 -0.05630078 0.73081106 -0.2329651 -0.13784774 0.23222947 -0.13154073 0.056807604 -0.0100280475 0.22737114 0.28876892 -0.104181424 -0.051895887 -0.12375427 0.21109697 -0.47104758 -0.17454916 0.24800348 -0.27302146 0.03618261 0.117185086 0.10013353 0.4372464 -0.23650554 -0.11880549 -0.14941011 0.04637076 -0.08367501 0.047256898
1186 -0.42847753 0.45551157 0.03274064 0.3876943 -0.5020374 -0.14534177 -0.08025816 -0.24647893 0.07424694 0.025355611 0.29790848 0.24119757 0.2049504 0.09405465 0.06252062 -0.27646706 0.5784676 -0.3880882 0.29019818 -0.03226062 -0.2522774 0.07614221 0.21181358 -0.12987846 -0.24272314 -0.08765811 0.27318117 -0.06056999 -0.33260614 0.25213343 0.2998386 -0.013234135 -0.037684288 0.04465365 -0.11458345 -0.15102902 -0.086781405 0.2967518 0.04195839 0.14889762 -0.057561964 -0.11329468 0.058238678 -0.18782002 0.23562184 -0.112426735 -0.17644024 0.29145065 0.0033434867 -0.22834134 -0.31338733 -0.41346645 -0.23489177 -0.3173857 -0.21490797 -0.4346766 0.26868573 -0.2517296 -0.32761973 0.16306792 -0.20148559 0.24925086 0.41682458 -0.27538595
1119 -0.25871706 0.2553902 0.026569232 0.29478735 0.34606105 -0.17643572 0.49124846 -0.0874662 0.13082612 -0.14169188 -0.030411301 -0.036820915 0.05665535 -0.07834304 -0.18752033 -0.36756977 0.019839285 -0.0066950424 0.033731643 0.34530786 0.5101626 0.73979354 -0.07278157 0.04976802 0.04209595 0.1453751 -0.2857452 0.32741356 0.22974925 -0.07512158 0.18576488 0.27833652 0.20516479 0.5723384 0.06999562 -0.3081457 -0.22350463 0.11711296 -0.2929788 0.39556053 0.2419433 -0.5303516 -0.06832333 0.41924933 0.042397548 0.09349562 0.3168053 0.36300027 -0.001309734 -0.22008233 0.12818779 -0.37018207 -0.29811198 -0.18074794 0.03584104 -0.24026504 -0.20017818 0.16644709 -0.24595901 -0.27269328 -0.26241997 -0.21314114 0.18919471 -0.30373886
2606 -0.27307028 0.32842532 0.044766296 0.28877124 0.20407648 -0.17338794 0.20537266 -0.6419515 0.24243578 0.25419414 -0.22363435 0.03156208 -0.20734142 0.032840576 -0.45283526 -0.13745141 -0.0056580035 -0.25427943 0.27826133 0.056195304 0.08718859 -0.2564445 -0.16164123 0.30805707 -0.11566503 -0.18767786 -0.30514616 0.069806516 0.009385178 0.061756093 -0.13882022 0.18999724 0.26862922 -0.21521774 0.27612618 -0.16188876 0.14897268 0.3688082 -0.36936945 -0.011204767 -0.35881776 -0.3283821 -0.17360772 -0.10740491 0.2904201 0.35584542 -0.17996068 0.085779086 -0.13698184 -0.04397677 -0.32543573 -0.32482865 0.35905516 -0.18065277 -0.21853152 0.13482508 -0.0027796472 0.2242337 -0.15000264 0.3865424 0.03181912 0.07462564 0.0015866758 0.072088555
1095 -0.039013714 -0.0011620498 -0.17165734 -0.10866626 -0.23672159 -0.068680465 -0.29907072 -0.39542964 0.20521499 0.12298931 -0.3810982 0.36248696 0.26141417 0.052411284 -0.15542446 -0.18031721 0.027678978 0.013887121 0.37194028 0.3812946 0.24696927 0.19939606 0.08515557 -0.14800407 -0.051807135 -0.058445312 0.0330806 0.16042434 0.26730457 -0.19174631 0.1429337 -0.078469835 -0.18548112 -0.09780865 0.2343131 -0.5042002 0.13976127 -0.12820363 -0.6128339 0.44054615 -0.30894852 -0.18911809 0.073784396 0.16572836 -0.09849778 0.35254326 0.1427233 0.196154 -0.14905107 0.053028803 -0.20406608 -0.31153142 -0.032896493 -0.33176178 0.32704273 0.23532797 -0.13789682 0.07848954 -0.011236055 0.12218323 -0.04266271 -0.34116483 0.08371042 0.4778712
2610 0.082652666 -0.3244639 0.33382997 0.25696635 0.04323139 0.1259716 -0.019919727 0.065215655 0.19986606 0.33813292 0.1423757 0.74212193 -0.08847493 0.021560268 -0.16705596 -0.3414838 0.17247123 0.08914949 0.17036204 0.078765675 -0.3872252 -0.085923195 -0.036610156 -0.3204687 0.098184735 -0.26767072 0.2937165 -0.18461004 0.07240772 -0.22902581 0.19243765 0.3995043 0.10043563 -0.057317074 -0.32532108 -0.28013864 0.10328288 0.32543012 -0.35062304 0.22792156 -0.07120254 -0.24282414 -0.43919963 0.0788021 0.049241733 0.19126381 0.4548179 -0.04971633 -0.49462885 -0.109219566 -0.6509587 -0.21834607 0.4062106 -0.40171897 -0.09668322 0.02954244 -0.2726766 0.5396678 -0.31209472 -0.1275124 -0.05254821 -0.18803282 -0.22507961 0.023245612
30 -0.10293239 0.34971195 -0.2118504 -0.04360457 0.08571301 -0.014416379 -0.33927825 -0.010767208 0.35135368 0.3117123 -0.25725305 0.09480764 0.2833802 0.24184611 -0.0839469 0.13170575 0.28423372 -0.120862536 0.39380625 0.07460867 -0.22030787 0.5178902 -0.27902365 -0.09626508 -0.10746681 -0.12526609 0.25666332 -0.07222772 0.36209512 -0.06397925 0.50127095 -0.39928752 0.38334972 0.49853617 -0.014455535 -0.09125383 0.15125003 0.08831543 -0.15041265 0.29943082 0.07054938 -0.48342073 0.11747889 0.15706746 0.01210265 0.22150354 -0.27513346 0.18038416 -0.23065795 -0.25213087 -0.23394316 -0.24786137 0.02901838 -0.09863702 0.18707253 -0.04199931 -0.3630001 0.64380777 0.040258728 -0.53803456 -0.0049878648 -0.024219656 -0.054452393 0.13796726
2310 -0.59843844 -0.39740825 -0.11519754 0.39505655 0.013579078 -0.0005061411 -0.028373512 -0.29188508 0.05687425 0.34472752 -0.17997767 -0.07622454 -0.21631047 -0.15213814 -0.36343288 0.1187811 0.09536764 0.30565926 0.09131322 0.14701886 0.26836157 0.27184138 -0.563989 -0.21911407 -0.21658836 -0.038465913 -0.13981833 -0.018033098 0.2762291 -0.07188843 0.08695476 0.29718667 -0.13571201 0.35089117 0.1396335 -0.37213692 -0.14623074 0.165702 -0.24639708 0.33150262 0.08481852 -0.15551752 -0.00048549863 0.39337465 0.3963148 0.349879 -0.016794639 -0.036537223 0.1715848 -0.15435055 -0.1910303 -0.39145118 -0.42843968 -0.31328747 0.039935965 -0.19513199 -0.023291726 0.20170006 -0.051294312 -0.24246937 -0.33495048 -0.16942595 0.31654325 -0.034763083
1445 0.38299075 -0.14791737 -0.028051514 0.2969438 -0.10296197 0.18591313 -0.20130679 -0.14694719 0.28966543 0.25422037 -0.06024572 0.27139464 -0.016603168 -0.079890005 -0.26363203 -0.20080556 -0.31085888 -0.12578431 -0.033981264 -0.028412659 -0.121281244 0.3783513 0.14412005 -0.10086247 0.08358749 -0.32018778 -0.34418458 -0.06614948 -0.13610584 -0.116111904 0.17599685 -0.028213788 0.14581105 0.13871302 -0.2963211 -0.4535087 0.16495427 0.23871548 -0.479599 -0.24298978 -0.19847067 -0.34729227 -0.18052493 0.49473798 0.25416014 0.20845823 0.3908715 0.32645646 -0.025251241 0.09926884 -0.08946232 -0.34496358 -0.2905378 -0.94193053 0.30361167 0.5678158 -0.3581746 0.28862625 0.044685245 -0.06388619 -0.24818347 -0.43047467 -0.14978954 0.053279154
1558 0.2504977 0.4359151 -0.122746244 0.1822829 -0.17565884 0.11361157 0.07281083 -0.04429315 0.20859577 0.23387207 -0.28059492 -0.023790956 0.07662622 -0.13159728 -0.26260966 0.045552414 0.31141827 -0.29083732 0.31796438 -0.0769749 0.045074865 0.3989669 0.14847861 -0.27535105 0.10935875 -0.004549591 -0.039643787 0.06387832 -0.07746143 0.20335995 0.027172392 0.0055256174 -0.08168856 0.017685909 0.23277386 -0.31614402 0.13472132 0.4223068 -0.17775036 0.42854062 0.12662986 0.08168267 -0.1747012 0.16794366 0.37259948 0.28888896 -0.05469269 0.5553252 -0.08190821 0.25079176 0.030841496 -0.19990975 -0.6606056 -0.34947762 -0.09039955 0.30613607 -0.21251337 0.20108368 0.13683613 0.1458305 -0.02947231 -0.5572694 0.09833436 -0.032723818
2539 -0.34573284 -0.1084846 0.13974087 0.08805786 -0.0756622 0.01967816 0.06945203 0.33086526 0.34292802 0.18066826 0.31872758 0.7186298 -0.00065641163 0.33007887 0.015053319 -0.21785113 0.07111429 -0.2566809 0.6139597 0.21247351 0.014626002 0.1908314 0.42662492 0.126391 0.09047297 -0.35307422 0.026862068 0.054739624 0.18103245 0.069662556 0.06813812 0.22355798 0.1902499 0.1720342 -0.0034036615 -0.69590104 -0.13745484 0.37433413 -0.112994716 0.060351867 -0.006551408 -0.07228195 -0.060653638 0.21727492 0.38643774 0.57557344 0.10246226 -0.1342428 -0.008731203 -0.118913785 -0.107339725 -0.29230288 0.09504526 -0.3856377 -0.12287016 0.18066329 -0.10111855 0.27822822 0.12648903 -0.06643044 -0.18985197 -0.4219137 0.09195241 0.1788683
2605 -0.2864086 -0.020998757 0.17718914 0.07237929 -0.23014376 0.35999644 -0.091140844 -0.100418195 0.2589289 -0.16726142 -0.17711076 0.38802075 -0.019048449 -0.091231674 -0.08790184 -0.5771051 0.27076456 0.20218885 0.072983444 0.23099348 0.023315161 0.357524 0.09565516 -0.11983524 0.35000774 0.17131509 -0.24574445 -0.30877885 -0.18109195 0.09186702 0.13788618 0.31762108 -0.05778542 0.052015424 0.27621225 -0.2156178 -0.42843676 0.53750646 -0.2837946 0.005069595 0.18080169 -0.28938675 0.07512142 0.29755512 0.19896373 -0.0046096276 -0.068437874 -0.006216453 0.13288666 -0.026750388 -0.023043033 -0.32866803 0.206876 -0.08778711 0.20339526 0.25016043 0.25647733 0.5544727 -0.37038663 0.01386264 -0.24715996 0.21693048 0.24278145 -0.07023753
1447 -0.2592389 -0.10196402 -0.43350908 0.36102602 0.33690825 0.03316475 0.058624394 0.14031638 -0.015296179 0.23838739 -0.27321768 0.18606175 -0.02405293 -0.16875535 -0.12537672 -0.3915333 0.27134144 -0.096686445 -0.07556186 0.028252244 -0.08346714 0.17255537 -0.020671286 -0.19351105 -0.011676593 0.21277906 0.28523275 -0.13011271 -0.02009749 -0.07645887 0.4225007 -0.022793569 -0.07723066 0.09362444 0.24357441 0.032600477 0.11005408 0.052671637 -0.2270384 -0.06749696 0.3950156 -0.47806165 -0.1269833 0.24509647 0.22211683 0.03294506 -0.01682418 0.111493684 0.3432889 0.21984535 -0.41951543 -0.3879231 0.105049066 -0.6161513 0.1922788 -0.3377052 0.08030969 0.6509341 -0.08347596 -0.22567937 -0.27332678 0.15439123 -0.25205117 -0.1737664
1017 -0.236919 -0.07441062 0.0258676 0.119790785 0.35583228 0.05500854 0.046039905 0.2100137 -0.23408428 -0.20375615 -0.28291062 0.28666648 0.42036456 0.08738663 -0.36439234 -0.55419946 0.43574908 -0.37127033 0.33165345 -0.033229172 0.23406981 -0.35706383 0.037516918 -0.10857725 0.17596933 0.079174675 -0.30287656 -0.071290605 0.044759247 -0.08248027 -0.2855524 -0.20115693 0.3544683 0.09578763 0.08695295 0.23093723 0.29682073 0.18578519 -0.38647792 0.13980581 -0.07067215 -0.046658635 -0.21432787 0.033895902 0.2146455 0.41154948 -0.33019957 0.2229905 -0.72806376 -0.07072705 0.3400776 -0.4099954 -0.03947806 -0.007040482 0.39208868 -0.17686005 -0.34297782 0.030485779 0.06482775 0.08371719 0.062255867 0.2804528 0.10503073 -0.30376437
2624 0.051273044 -0.0973548 -0.04182419 0.30043852 0.23901975 -0.15943502 -0.39501578 0.041055985 0.043550722 0.36295846 -0.30681622 0.106963225 -0.040232178 0.18553488 -0.44352755 -0.06098414 0.35144758 -0.20020644 -0.012634098 -0.18049917 0.4186052 0.036759775 -0.13237774 0.14610854 -0.33732054 -0.18310368 0.09981213 0.053805914 -0.22068968 -0.13377982 -0.12230236 -0.010987912 0.027676148 0.078089096 -0.27671865 -0.34308887 0.46634504 0.14339288 -0.625085 -0.30186608 -0.35585505 -0.19106932 -0.13304979 0.41042468 0.027098432 0.40502703 0.13632374 0.35549614 0.03502805 0.02250956 -0.43294933 -0.09414437 0.11631719 -0.49736387 0.087348334 0.11195079 0.09984868 0.5088275 -0.26252455 -0.33643985 -0.1564122 -0.23958965 0.12818038 -0.361799
2551 -0.42331505 0.21063693 -0.014191872 -0.08077483 -0.08840387 0.10167087 0.07433227 -0.11410527 0.33508027 0.04324762 -0.10354782 0.2870683 0.3888806 -0.20075369 -0.049126167 -0.21293534 -0.30792332 -0.44219118 0.33288077 0.13759102 0.1325688 0.20411108 0.3014523 0.052808113 0.23785236 -0.025727456 -0.030433932 0.04190718 0.42637172 -0.20316818 0.23996533 0.015971798 0.115196414 -0.17546639 0.34507564 -0.34563243 -0.3705318 0.371401 -0.34628114 -0.11867837 -0.08857434 -0.5275686 -0.010873581 0.13852893 0.37434807 -0.21270077 -0.19638814 0.18966976 0.15261705 -0.3624176 -0.36117885 0.01634122 0.108659916 -0.23141654 0.1456525 -0.10072465 -0.0404883 0.49323824 0.079154514 -0.20555614 -0.14511538 -0.059344392 -0.042374637 0.21825191
1816 0.08996784 -0.22903831 0.10653966 0.17830569 -0.05541445 -0.061867572 0.042122703 -0.30941632 0.050894998 0.18435504 -0.11670386 0.09435415 0.09366496 0.14327961 -0.13157597 0.03567045 0.0708711 -0.32204717 0.25284097 -0.09507644 0.15266888 0.15792307 -0.4308727 -0.1480713 0.11156401 -0.046825808 -0.008977922 -0.08965544 -0.15762697 -0.08319727 -0.10042995 -0.3682372 -0.01758435 -0.03463857 0.046293333 -0.053787842 0.313696 0.26279157 -0.35517064 -0.1551845 0.06680719 -0.67609066 -0.18953256 0.24723269 -0.20070791 0.2321573 -0.28117695 0.3001382 0.38275802 0.042059816 -0.18558653 -0.47693425 0.32689124 -0.43946627 -0.13660008 -0.007890562 -0.1887385 0.30572063 -0.11398065 -0.40951288 0.32552528 -0.11852024 0.063614145 -0.24824552
2599 -0.26665747 0.05876382 0.05976078 0.47834006 -0.051218078 0.13782711 -0.15843269 -0.33621377 0.31945202 0.15815987 -0.2971254 -0.114259176 0.19368888 -0.23321824 -0.19997989 -0.18976876 0.021605697 -0.07871261 -0.00068900577 -0.18700895 0.23700696 -0.1232626 0.2830349 -0.32573065 -0.17826143 -0.18110242 0.16043374 0.34317186 0.13896683 -0.6597814 -0.11485735 0.0365063 -0.020546446 0.11833599 0.4437819 -0.4245939 0.33934194 0.32487932 -0.25168866 -0.10370874 -0.09240689 -0.34067804 0.21622063 0.288438 0.0925032 0.3815257 0.08387528 0.18579577 0.14801064 -0.18378617 0.18697251 -0.20622954 -0.09334223 -0.2099911 -0.25221035 0.13330625 -0.47128516 0.23666272 -0.38310978 0.21370701 -0.05567087 -0.08653418 0.40208444 0.06553819
2303 0.100949734 -0.037501924 -0.051980477 -0.3663834 -0.28787088 0.3262815 -0.41878274 -0.27961925 0.6906576 0.14389317 -0.05911622 0.099646926 0.34519708 0.085202545 -0.1162044 -0.059024215 -0.033289943 0.17039841 0.5361101 0.21596813 -0.040924102 0.086973935 0.25054136 -0.2987141 0.086800285 -0.15997113 0.052302133 -0.08014711 -0.20456736 -0.25190446 -0.029094374 -0.053662132 0.6375001 0.35563892 -0.14247617 -0.276813 0.17898577 0.36309755 -0.5152549 0.14632937 -0.004916392 -0.01100948 -0.26233217 -0.0656631 0.27609822 -0.06980093 -0.37498152 0.1479113 -0.102394104 -0.12430166 -0.038933266 -0.35420248 -0.123736866 -0.13066833 -0.23377524 0.026835786 -0.09353031 -0.04509325 0.12916213 0.41170588 0.10308523 -0.24048223 -0.06440785 -0.17705686
1894 -0.05796668 0.3806342 -0.060217403 0.49098882 -0.4206537 0.43846047 -0.07117964 0.14629352 0.29890198 -0.1482903 -0.5938287 0.40142998 0.37334207 0.08004569 0.036224335 0.24908043 -0.0038394923 -0.18470989 0.1531232 0.32841408 0.2681229 0.30120447 -0.04623957 0.070112646 -0.4631884 0.23317404 0.29684654 -0.019625703 0.08205264 0.14895108 0.038575936 -0.06430558 -0.12320998 0.34994027 -0.2529547 0.0014341107 -0.10487521 0.24870032 -0.10229905 -0.09073068 -0.03377046 -0.03318457 0.06357335 0.25594535 0.34717435 0.47687882 0.08380801 0.36935753 0.13902263 0.18155782 -0.022770643 -0.2505088 -0.173322 -0.5640732 0.04252331 -0.184218 0.020126559 0.36252686 0.066966906 -0.10309876 -0.41313475 -0.33405107 0.3268919 -0.20024933
1725 -0.6231802 0.3564387 0.16405807 -0.15508391 -0.30290633 0.18113652 0.06777821 0.2030121 -0.14890672 0.21480267 -0.22882552 0.07381879 0.3926104 0.25223368 -0.041723847 0.08903382 -0.144457 0.38483065 -0.14549771 0.0056878272 0.18040106 0.008095379 -0.6341785 -0.37872785 -0.005264388 0.19735295 0.20295876 -0.3553757 -0.46564475 -0.19655286 0.0021599354 -0.25947487 0.12005059 0.25037217 -0.098255605 -0.14340387 0.26833615 0.19379267 -0.22173494 -0.168128 0.4365325 -0.09309988 -0.37544262 -0.008940822 0.22512862 0.2876766 0.028950578 0.3171234 -0.6303772 0.20328887 0.0825891 0.1675589 0.16177346 -0.38770851 0.17066325 -0.05276744 0.14264105 0.28828704 0.2645597 0.01544191 0.16836327 -0.002833621 0.3314288 -0.21075207
1050 0.19599405 -0.1861049 -0.052361704 0.07608099 0.01622526 0.21678898 0.17695001 -0.19735359 0.07571251 -0.016067766 -0.28087908 -0.08582721 -0.08685968 0.5581989 -0.21037008 0.43859932 0.2668075 -0.048163597 -0.09800538 0.08568901 0.12716351 0.182327 0.24844907 -0.39639693 -0.21573219 -0.3026286 0.67071414 -0.4688601 -0.10154186 -0.08318863 0.17215057 0.03215578 0.23717602 0.30129325 -0.40318826 -0.29017267 -0.009994523 0.2798439 -0.41735497 0.008770171 -0.01439135 -0.14031981 0.22601517 0.023115736 0.43446767 -0.039778676 -0.34627178 -0.3328863 0.21017344 -0.45251283 -0.2187357 -0.37917784 0.0031117485 -0.05779764 -0.082870245 0.09165561 -0.1623421 0.133642 -0.04463545 0.43244594 0.009462522 0.27420223 0.06453956 0.04845894
1477 -0.23886271 -0.17222232 -0.0860679 0.268932 0.15286465 0.29757205 0.04640492 0.07542819 0.24146214 0.2661229 -0.00030251057 0.58205855 0.1392726 -0.010216078 -0.4920199 -0.4809017 0.2252043 0.22932273 -0.12912914 -0.2033938 -0.1278772 -0.020907512 -0.0772643 0.26474443 -0.070062146 -0.20048068 0.016635159 0.08033562 -0.36216703 -0.17835875 -0.012218826 -0.1635419 0.3937941 0.50594455 0.19315684 -0.41916078 0.07053984 0.2414296 -0.31672108 -0.053395122 0.18726574 -0.49018407 -0.308585 0.086782716 0.18976276 0.17104715 0.12508927 0.061834425 0.038173206 -0.0461694 -0.19663918 -0.5640175 0.13872267 -0.21153624 -0.0053444584 0.11224162 0.30684814 0.12073698 -0.21018377 -0.23596896 -0.3392932 0.14772177 0.40962017 0.251967
1096 -0.25497833 0.25525826 -0.3558247 0.16197138 0.17454042 0.09597208 0.004627143 -0.09641693 0.09445666 0.09431435 -0.19199637 0.1422369 -0.1332075 -0.08368443 -0.20543519 -0.26221696 -0.11902633 -0.1989803 0.18586683 0.08474876 0.14208017 0.13561203 -0.24353512 0.2455347 -0.19269975 0.014782447 0.27301973 0.26481557 -0.011174711 -0.070691675 0.29686388 -0.0061085164 -0.15464716 0.024504617 -0.17592745 -0.21000166 0.43989256 0.14852995 -0.2968512 0.039500438 0.28419083 -0.4910549 -0.08487276 0.3593728 0.031161455 0.2082932 -0.253145 0.4563313 0.24341714 0.17693806 -0.2181672 -0.6015333 -0.11577704 -0.23094547 -0.36090526 -0.3869839 0.13194 0.11915132 -0.21325651 -0.21171106 -0.367684 -0.06409576 0.066736676 0.17359303
899 -0.11894912 -0.05436694 0.23205432 0.20307727 -0.27652496 0.22256605 -0.1198085 -0.072263874 0.312134 -0.10308589 -0.1895184 -0.29407665 0.13910285 0.41311288 -0.69336504 -0.5293836 0.40368488 -0.24489756 0.23820864 0.1318108 -0.30701753 0.109207384 -0.19048294 -0.2763047 -0.11097645 0.07175902 0.13845752 -0.16056582 0.18471627 -0.056944013 -0.05186118 -0.22043474 -0.14869715 0.0010859821 0.17353901 0.114783764 -0.003510923 0.13764998 -0.35560685 0.20132957 0.15463805 -0.4894877 0.08938514 0.09128253 0.28205195 -0.17952721 -0.24477614 0.24502851 0.30532083 0.34015977 -0.2822879 0.057783104 0.3547829 -0.10768789 0.37890118 0.01927357 -0.099123284 0.5161468 0.30723134 -0.06244065 -0.13084584 -0.13998856 0.33876422 -0.0997355
2265 0.300949 0.1479668 -0.03928215 0.13022484 -0.048954226 0.36401832 0.09289602 -0.1764982 0.34152266 -0.6262678 -0.0056250123 -0.06179668 0.002369452 -0.08143792 0.05175678 -0.27061415 -0.0064823823 -0.18340425 -0.14037558 0.3841206 0.025058355 0.21941331 0.5015804 0.15886672 0.20928565 -0.09529504 0.5746134 -0.20658255 -0.36329487 -0.26369968 -0.27157933 0.3388083 -0.11596657 0.05032712 0.12748338 -0.5578374 0.46389124 0.17647995 -0.33123365 -0.38486245 -0.019312818 -0.49115393 0.28738764 0.0024670868 0.0023383992 0.10958338 0.11216766 -0.06298435 -0.055706773 -0.10131244 -0.19481759 -0.13106668 0.43567455 0.11857317 0.13042952 -0.04581709 0.2758485 0.31609905 -0.2550314 0.13386823 0.3431072 0.104690954 -0.04008958 -0.33474946
1893 0.082601264 -0.43923151 -0.007679802 -0.3891581 0.25744537 0.05350188 0.064812705 0.05190097 0.050812367 0.1865998 -0.17143352 0.5280769 0.33689258 0.2944968 -0.24438989 -0.033022776 0.52067477 -0.17342222 0.34376794 -0.14346792 0.02092697 0.23833139 0.10080995 -0.03659592 0.14891861 -0.38557318 -0.1392544 -0.3231492 0.0664065 0.1018152 -0.28181705 -0.029966764 0.019958293 -0.12646282 -0.20129633 -0.32807097 0.3290731 0.33074835 -0.38817248 0.12902775 -0.1560616 -0.08759643 -0.09511137 0.056424554 0.49743238 0.2697269 0.06426708 0.40487742 -0.5812782 0.1578384 -0.21114546 0.1475191 0.3703118 -0.48007366 0.16934547 0.016229317 0.16407526 0.58961624 -0.21388556 -0.0022530835 0.37464544 0.05369382 0.11674909 0.22726241
841 -0.13490245 0.27270314 0.17264535 0.03004332 0.25467858 0.15438712 0.31867522 -0.10581043 0.15917444 -0.006614226 -0.5668278 -0.1637075 0.30685043 -0.10801123 -0.12544355 -0.08757173 -0.10360366 0.24290541 0.24502772 0.08178474 -0.0041774125 0.27424604 -0.07054511 0.039049793 0.018358514 -0.008558561 -0.11346392 -0.009828781 0.06796225 0.15873042 0.21422331 0.15823658 -0.57646054 -0.24870227 0.09935614 -0.45457506 0.17596549 -0.06295156 -0.80425227 -0.22539139 -0.27067423 -0.22179554 -0.32330185 0.35985607 0.3482955 0.19579044 -0.17793524 0.28697586 0.27984896 0.03262372 -0.43195844 0.104817495 -0.35952938 -0.20298004 -0.065215185 -0.18693417 -0.24397883 0.39896908 -0.2593612 -0.26857135 0.18873748 -0.09483874 0.20131846 0.11064467
2191 -0.1590958 0.15090086 0.0047359653 -0.13079943 -0.0704729 0.050210807 -0.26187104 0.06580724 -0.052074738 -0.008983867 -0.23613013 -0.010519234 0.19315206 0.023222284 -0.52117723 -0.27643922 0.23357138 -0.23364358 0.21424933 -0.047796857 0.316101 0.26192802 -0.3831821 -0.19221309 -0.1694641 -0.1717045 -0.27331328 -0.29201972 -0.4036639 0.114590384 -0.061370365 -0.101361625 0.13677615 -0.07576079 0.14076883 -0.41336966 0.2878887 0.072690025 -0.19059363 0.2235768 0.06968313 -0.24391195 0.035869736 0.26700714 0.07068474 -0.24073337 -0.22554564 0.14113872 0.14618614 -0.03816887 -0.42228618 -0.31930134 -0.03788501 -0.25702202 0.08337221 0.09470965 -0.0381425 0.38629037 0.52448916 -0.007698983 -0.09834869 -0.29487878 0.13674785 -0.24663474
1273 -0.13438022 -0.034645665 -0.20414037 0.38951114 0.36620313 -0.050103825 0.23443285 -0.21085273 0.1335225 -0.2895446 -0.18609074 -0.061414063 0.2085981 0.11908755 0.19880116 -0.032385375 -0.0671823 0.30997452 0.40262443 0.08631364 -0.019893562 0.16918683 -0.15062265 -0.17889245 0.057536088 -0.32383725 -0.32701984 -0.14097315 0.043573037 -0.015358537 0.31154007 0.2769671 0.45268217 0.4342222 0.2693474 -0.26158085 0.05138911 0.05951138 -0.7420439 0.35763997 -0.21019587 -0.3528399 -0.036221426 0.0908789 0.10944081 0.16534974 0.078650095 0.38917032 0.4705747 -0.17529777 -0.46019575 -0.23200549 0.2201005 -0.24105756 0.14592087 -0.4105447 0.21184309 0.40293625 0.051071525 -0.30073622 -0.20572233 0.26534075 0.13205796 0.30272177
2699 -0.29487956 0.041030873 -0.28347966 -0.055654146 0.19967209 0.2388049 -0.36828744 -0.18847632 0.2962579 -0.14396763 -0.033732392 -0.116256185 0.53979826 -0.35478652 -0.16050716 -0.4589721 -0.0045318836 -0.12394074 0.6116177 0.087016895 0.102876335 -0.009615779 0.13045743 -0.23632951 -0.23897344 -0.099879056 0.08607842 0.08267887 -0.13592824 0.06681072 -0.21194881 -0.08682768 0.07054993 -0.053835187 0.4521082 -0.3239023 0.27824992 -0.035561174 -0.6811924 0.25662696 -0.14996162 0.12777509 0.017601773 -0.0345964 0.22750163 0.014562224 -0.1526505 0.15901504 -0.29867387 0.47689 -0.17312178 -0.20685075 0.08110092 0.07861507 0.20844083 0.22116482 0.23165339 0.23137346 -0.0021248532 -0.117534086 0.025738608 0.11379787 0.17932045 -0.39878654
1147 0.07969457 -0.239688 0.091093615 0.20280056 0.008823591 -0.03069367 0.42306325 -0.2945672 -0.030684376 -0.023096867 0.24936084 0.21333992 0.12836084 -0.0756107 0.16320166 -0.27751535 0.19126785 -0.057594575 0.4650301 0.063417815 0.06972653 0.096158214 -0.097213954 -0.34697396 0.030389348 0.14917374 0.094719715 0.11485133 -0.12636039 -0.13517787 -0.014172603 0.10295043 0.09922327 -0.0020196182 -0.026206007 -0.61007756 0.211296 0.50314903 -0.545491 0.0575216 -0.2242934 -0.59251577 0.20820166 0.14627476 0.21532731 0.610464 0.004682865 -0.0020346122 -0.49832717 0.028483126 -0.35075364 0.14749181 0.29502198 -0.44667408 0.07113664 0.11844051 -0.0058926083 0.03900583 -0.4059841 0.5496369 -0.014038434 -0.06924322 -0.2504318 0.07588043
2601 -0.4127459 -0.115619764 0.12796654 -0.28753206 0.13171445 -0.059107102 -0.08794933 -0.04475541 0.57295936 0.14329712 0.16368213 0.11623586 0.3960979 0.17822455 -0.50515854 -0.13221931 -0.04288905 0.1376355 0.4939798 0.1297279 0.09073825 0.064953156 0.094795935 -0.23205364 -0.16493593 0.07294202 0.3749721 -0.31349358 0.022574088 0.45787942 -0.12318218 0.09309109 -0.09244262 0.080351315 0.1278485 -0.21987367 0.12934877 0.22881684 -0.34383973 0.3557402 -0.11195163 -0.41866067 -0.002477837 -0.045107685 0.13694607 0.3460322 -0.35140303 0.16370161 0.2555361 -0.0053779953 -0.22634017 -0.17282622 -0.29323483 -0.5369987 -0.121418975 0.13210426 0.0069049024 0.32527167 -0.11127608 0.3416027 -0.06535606 0.034813043 0.088570766 0.06936271
1004 0.12199048 0.4109808 0.18131198 -0.16419293 -0.010772983 0.32642305 -0.43230006 0.7040903 -0.11767163 0.17008692 -0.5416688 -0.19679779 0.2854588 0.009860684 -0.42680034 -0.22412787 0.33008078 -0.12244151 0.45931286 -0.20847028 0.0704621 0.27786237 0.08273867 -0.26160675 0.32864517 0.00316426 0.16310078 -0.2582081 -0.3104716 -0.07563228 0.37355265 0.3200482 0.106502324 -0.040800184 -0.28051326 -0.085808955 0.2928028 0.21946691 -0.3078482 -0.23197733 0.23177345 -0.2197603 0.047696628 0.46147668 -0.015938945 0.16910923 -0.021706866 0.10397527 -0.07682676 0.48894006 -0.33889458 -0.44553238 -0.3527794 -0.4102983 -0.06802788 -0.039820116 -0.0244498 0.3905449 0.03626758 -0.1409681 -0.36658424 -0.1535764 0.29546577 -0.19241135
1996 0.13747296 -0.039572544 0.020061206 0.25843468 -0.10297223 0.42845783 -0.31136444 -0.15435487 0.29742944 -0.07468322 -0.0020813367 -0.15630493 0.41981065 -0.14086333 0.12241575 -0.53166926 0.36454532 0.12927051 -0.07804993 0.23910768 0.31400776 0.09108521 -0.26501456 -0.18847251 -0.08715954 -0.33852306 -0.15917318 0.036775947 -0.1027747 -0.192185 0.57943755 -0.35669842 0.40071803 0.038374532 0.31285307 -0.32077068 0.43516833 0.16819684 -0.5582691 0.3363596 0.0232399 -0.19450551 -0.08408279 0.10069142 0.32166216 0.03582205 0.4393615 0.0014482923 0.046389896 0.09554655 -0.5430371 -0.41502175 -0.16854775 -0.16446464 0.2386398 0.019883415 0.047696695 0.09188913 0.24678661 0.040980846 -0.071196385 0.2563031 -0.22550997 0.15835412
177 0.051770397 0.13077897 -0.117216095 0.040173125 -0.22318114 -0.14165588 0.3362581 0.037712492 -0.15309834 -0.33753887 -0.71307987 -0.06346265 0.24299146 -0.0169746 -0.41178286 0.03172038 0.038058516 -0.23146796 0.17546545 0.05951543 -0.24219303 0.32149303 0.0010616732 0.010502052 -0.2519505 -0.06640598 0.23786165 -0.44867882 -0.29593605 -0.43129584 -0.16264704 -0.34082296 -0.16426276 0.051014543 -0.01877406 -0.33973855 0.3854501 -0.22351292 -0.6356908 -0.22102065 0.18215434 -0.4888048 -0.23622651 0.29509604 0.02795846 0.045313973 -0.010337686 -0.022539586 -0.023986444 0.010474505 0.02947558 -0.57958287 0.1414751 -0.15220007 0.21282479 0.13560113 -0.061111163 -0.021500912 0.11383839 0.13341781 -0.0973166 0.0945432 0.20518221 0.24728249
2570 -0.14510153 0.26107368 0.33707565 0.04615517 0.20543201 0.06582285 -0.17764442 0.19149508 -0.009116365 -0.07066018 -0.10838893 -0.3467949 -0.45764837 -0.04911897 -0.073317975 -0.39385477 -0.0101971645 -0.03504281 0.03237726 0.34291118 0.10030546 0.22951268 -0.02557196 -0.3616753 -0.012545952 -0.37813887 -0.29846147 0.021784259 0.0046792454 -0.023089686 0.33621836 0.000101109734 -0.06621789 0.30146307 -0.06607109 -0.42009103 0.05297007 0.1813793 -0.1730767 -0.29882723 -0.45991668 -0.071662426 -0.14897953 0.15188324 0.36411637 0.3585453 -0.4031989 0.31074896 -0.18834746 -0.1376858 -0.1310818 -0.079349235 0.27392492 -0.3823941 0.13718545 0.22997837 0.56199014 0.38084635 0.21984492 -0.087478094 -0.035203002 -0.05678405 -0.28346765 -0.51300967
821 -0.004779228 0.5311456 -0.038255576 -0.21763134 0.19073027 0.29581195 -0.08241656 -0.23356146 0.05071002 0.21007754 -0.0006379915 0.50883114 0.12857512 0.04734162 -0.17660661 -0.24131255 0.17731051 0.26614 0.2888967 0.109314285 0.056326546 0.43981034 -0.2113063 -0.36492306 0.3456486 -0.039601598 -0.21274267 -0.25734544 -0.14119138 0.10939589 0.51890635 0.07621549 0.00505066 0.049404066 -0.0766801 -0.19363083 0.11073279 0.39134163 -0.5381414 -0.012490271 0.23468314 -0.24496175 -0.19572492 -0.09528079 0.04494166 -0.11123895 0.029217651 0.072289094 -0.21041256 0.13180847 -0.29722318 -0.06834608 0.069880694 0.05086926 -0.18739782 0.15252127 -0.36221537 0.20969348 0.10999157 -0.24908024 -0.0800569 -0.101734504 0.13467377 -0.47269377
88 0.40001065 0.32331493 -0.05752698 0.8227439 -0.18207416 -0.079750486 0.29637572 -0.2454128 0.14797293 -0.22087258 -0.38546783 -0.3147965 0.026494266 0.23480542 -0.15466107 -0.026919067 0.18928054 0.08637092 -0.17536439 -0.13094059 0.29981342 -0.11751157 -0.054868873 0.08944261 0.17541037 0.06411853 0.06931107 -0.27296573 0.053719815 0.17892864 0.4063271 0.37781736 0.13698278 0.12819675 0.3987858 -0.15891938 0.088771425 0.14250806 -0.13324867 0.23216768 -0.54917073 -0.1637594 -0.3360543 -0.020685744 0.07403565 0.09944693 -0.37511614 -0.2466262 0.14773446 0.2991612 0.06630828 -0.29997325 0.14384918 0.087820515 -0.32458758 -0.20595783 -0.2645628 0.48324874 0.4812114 -0.07233344 -0.10138263 -0.2233272 0.58668184 -0.2545703
2042 -0.23103772 -0.13975212 -0.14552924 0.40287796 -0.14082815 -0.19554822 0.32629865 0.03051553 -0.11905273 0.07718935 -0.18284155 0.061685596 0.40699783 -0.18294051 -0.111669466 -0.37877357 0.08219597 0.2980204 0.42530626 -0.14226487 0.11632965 -0.21893695 0.20127097 -0.010367916 0.15614937 -0.06793762 0.30139056 0.08365487 -0.13080251 0.1916027 0.7440479 0.28524137 -0.0701128 -0.17005461 0.41651455 0.022648437 0.19127661 0.07744647 -0.036562268 0.11988775 -0.08211982 -0.30547145 -0.12484355 0.405763 0.3084784 0.22170202 -0.46416235 0.079907194 -0.010752612 -0.07956935 -0.7638338 0.16542043 0.18207635 0.011727554 0.3582652 0.29263338 0.22662263 0.33741716 -0.07920055 -0.17037536 -0.023352316 0.1076528 -0.025783364 0.04735924
2357 0.0070703235 0.4718099 -0.035716616 0.113035165 0.4042016 -0.39356205 -0.12696135 0.3734907 0.14687026 0.015706709 -0.019921685 -0.02328062 -0.013947142 -0.01391792 -0.35649815 -0.2756493 -0.18258315 0.2727007 -0.12099966 -0.22859158 0.37422368 -0.26228675 0.4308298 -0.20251852 0.082410716 -0.16330685 0.20117688 -0.012743185 -0.3680448 -0.065413065 -0.066963576 -0.16951056 0.069430105 0.14376435 -0.19610023 -0.8244202 0.05887606 0.65851945 0.13243528 0.15157603 0.7807259 0.2229225 -0.10604111 0.12755826 0.03390347 -0.21231997 -0.33502582 0.10176537 -0.563916 -0.016274208 -0.26321793 -0.5453588 0.23693123 -0.0723618 0.36299518 0.3993898 0.29268384 0.24087438 -0.24921556 0.10295547 0.106874354 0.11724432 0.3632659 -0.011141425
653 -0.06951694 0.294845 -0.09508669 0.30881444 0.011578749 0.3958059 -0.13691282 -0.19180335 0.22098556 0.17235988 -0.1940539 -0.06809595 0.19245988 -0.16090456 -0.5128079 -0.055365648 -0.33682093 -0.25606063 0.68496734 0.41483897 0.050270807 -0.13943128 -0.11243003 0.14509852 0.028625922 0.0072056907 -0.13882604 0.28080583 -0.23509814 -0.007061804 0.10926499 0.05071648 -0.14062145 -0.13920099 0.14847164 -0.16342264 0.1426478 0.18904209 0.049702358 0.21001004 0.19964977 -0.17119282 -0.33481714 0.08182769 0.3632178 0.46345732 0.018719379 0.08115416 0.101233326 -0.1980721 -0.104378186 -0.21053888 0.20409203 -0.46977994 -0.16635792 0.03051756 0.09744787 0.42189175 0.18474849 0.37466806 -0.2622333 0.16865991 0.056789808 0.15074569
1274 0.23015694 0.20029514 -0.07890492 -0.059201207 0.10655473 0.14912459 0.20725952 -0.3973233 0.25867447 -0.17834379 -0.26240352 0.40991244 0.011073009 0.4604554 -0.14136592 -0.4005674 0.05197971 0.24713175 0.5171351 -0.20958222 0.23058309 0.10318474 0.01211771 -0.20443578 0.16008021 -0.044375233 0.024988944 -0.08581848 -0.096684076 -0.28366956 0.20899445 0.08464581 -0.17009285 0.19035439 0.26244333 -0.72331077 0.55023754 0.035796914 0.03917401 0.22202867 -0.17941721 -0.43425414 0.2362626 0.12084721 -0.06542291 0.19894977 -0.21865588 0.2105999 -0.049900074 -0.0025198173 -0.26171812 -0.5119287 0.12055496 0.048339497 0.069288574 -0.40207717 0.27086535 0.2967019 0.45371804 -0.10880829 0.08968261 -0.379161 -0.48681104 0.1604731
997 -0.39677992 0.23599364 0.023495855 0.12442251 0.32073867 -0.08953355 -0.27689174 0.3005329 0.48646352 -0.17526884 -0.5298693 0.45076853 0.39032128 0.24864936 0.14823769 -0.22241613 -0.02716059 0.026409665 0.39940745 0.23362774 0.3822508 0.3411021 0.033389352 -0.11052725 0.064273514 -0.14768478 0.0026029232 -0.03629246 0.30653572 -0.33383903 0.5003139 0.041095525 -0.058223758 -0.26998347 -0.025749274 -0.37698933 0.3409408 0.47467402 -0.086299084 0.2808897 -0.027918236 -0.05912161 0.5860618 -0.10970914 0.043141484 0.123050936 -0.11755558 -0.013144339 -0.15452147 -0.015028681 -0.059471857 -0.22579914 0.04933626 0.16444644 -0.046385277 -0.011838468 0.58687013 0.21400926 0.0035785497 0.36764076 0.35458642 0.10602638 -0.12054122 0.06772618
1310 -0.30940577 0.33971494 -0.29147938 0.20425263 0.091181315 0.32225922 0.10408562 -0.000702461 -0.00059675024 0.1632831 -0.3032258 0.42028323 0.20892335 0.0915638 -0.20915781 -0.5699445 0.15809317 -0.10498445 0.121729895 0.23537625 0.32272074 -0.17855734 0.041579712 0.08473284 0.06511992 -0.25727326 0.11660046 0.26503834 0.29147336 0.018848563 0.48789084 -0.1383145 0.057711437 0.3054385 -0.15208529 -0.20063134 0.103918105 0.3507414 -0.25746146 0.0960383 0.110236965 -0.39767298 -0.19824313 -0.033930633 0.22124115 0.14217472 0.31097502 -0.31438324 0.02959651 -0.3061727 -0.3191606 -0.34024203 0.27912885 0.048674367 -0.37675548 0.119627215 -0.097960666 0.23937817 0.027338093 -0.14487678 0.20779902 -0.26976404 0.037573773 -0.014773731
200 0.026015742 0.37484816 0.081840105 0.27947345 0.07949979 -0.12208374 0.118384734 0.027051995 0.32530513 -0.015551133 -0.42366853 0.1622179 0.37706807 -0.21479945 -0.19374764 0.0067958883 0.28417206 -0.22688532 -0.1605134 -0.48138964 0.2385122 -0.018248508 -0.030130597 -0.4926692 0.26272008 -0.44721895 -0.012455968 -0.51676756 -0.36848053 0.05346645 0.027257962 -0.13385434 0.01533726 -0.21920279 0.17422335 0.088519916 -0.12372695 0.1348804 -0.50670075 0.6613347 -0.12528545 -0.50587493 -0.17195372 -0.12589249 -0.15304267 0.011676496 -0.46845073 0.29933396 0.021338796 0.07092554 -0.21591195 0.084908 0.41005507 -0.031347282 -0.105750024 -0.020088242 0.22035863 0.5189207 0.009507825 0.24795274 -0.2322402 -0.047539365 -0.06452174 -0.3103769
959 -0.08460748 -0.029448938 0.17349844 0.45288152 -0.11358091 -0.28793663 0.08963641 0.18453902 0.54792255 -0.06451218 -0.20127998 0.043829836 -0.3291408 -0.0753403 -0.121383786 -0.1335161 -0.19836842 -0.4748154 0.25362623 0.2785888 0.22975263 0.0029345271 -0.45888075 0.06203556 -0.091187485 -0.21049523 -0.36785978 0.17528524 -0.2703417 -0.30050695 0.3503146 0.06659416 0.12974747 -0.50218976 0.16442308 -0.053904142 0.48859534 0.18177159 -0.51386726 -0.19585985 0.31146717 -0.43317428 -0.05076446 0.021736845 0.12099254 -0.3810923 -0.4530852 -0.01060748 0.03187592 -0.19547668 0.4635024 -0.098075636 0.09839395 -0.19960424 -0.34303632 0.1518159 -0.08293851 -0.40928498 -0.6764429 -0.09965018 -0.3701557 0.08946088 0.09590813 -0.43814173
652 0.10173242 0.30923182 0.0943584 -0.19516188 -0.017324995 -0.25728363 0.105381615 -0.13988662 0.07305725 -0.32653886 -0.41272095 0.3364132 -0.20638739 -0.11922646 -0.02749877 -0.123651825 -0.07545003 0.022289073 0.6236991 0.41501114 -0.20204139 0.38185683 0.26695305 0.43577927 0.08932458 -0.2919413 0.123448044 -0.38192257 -0.50224334 -0.23947689 0.12963463 -0.13257545 -0.2559391 0.23368041 -0.11760027 -0.3240115 0.38726988 0.06316943 -0.32321864 0.4356735 0.14555909 -0.43985406 0.16356544 -0.045257475 0.39318037 0.10219202 0.15448566 -0.13224636 -0.10598544 -0.22147453 0.21718706 -0.0783422 0.25096628 -0.15030217 0.15518765 -0.110586755 0.10629241 0.44067508 0.18860298 0.30832165 -0.10513794 0.10050519 0.14246194 -0.32997164
53 -0.5373128 -0.15861368 -0.18091406 -0.2053686 0.002694467 0.34939435 0.20895183 -0.32681376 0.6207311 0.09186682 0.09443513 -0.2888711 -0.16717803 0.00159867 0.01971703 -0.30561706 -0.1793152 -0.114130646 0.67574644 0.15195467 -0.03959018 -0.5740321 -0.18166575 -0.080852814 -0.17918256 -0.2633222 0.46339878 -0.51897395 -0.13108827 -0.276228 -0.037667565 -0.07362854 0.10279874 0.17839836 0.085410915 0.26492617 0.5109047 0.09854674 -0.1313571 0.025237205 -0.03875059 -0.5692242 -0.085294366 0.08941397 0.20287561 0.3849516 0.12749276 -0.25671202 -0.2293624 0.098249726 0.06178942 -0.17838293 -0.053146627 0.12402965 -0.08333104 0.30277225 0.7982619 -0.08304689 -0.18462022 0.3398066 0.29701135 0.038687397 0.08564842 -0.43132675
2045 0.019432846 0.013896162 0.3878254 0.052221626 -0.20207982 0.19577768 0.509148 0.22338232 0.5615523 0.09096689 0.08270989 0.16292694 0.026538448 0.07039676 -0.3508913 0.050551914 -0.054792665 -0.37066668 0.18646954 -0.23893213 0.38452682 0.59902513 0.120502345 0.015277452 0.06376942 0.21915443 -0.011761934 -0.2918946 -0.07084445 -0.051722623 -0.06145404 0.11481572 -0.2637609 -0.026731616 0.014537782 0.1723819 -0.084554955 -0.14120685 0.06711212 0.5131073 -0.039993126 -0.45927915 0.21798837 0.04998689 0.43419808 0.40260103 -0.3532589 -0.047821023 -0.20916638 0.28291783 -0.61651826 0.102180354 -0.22522084 -0.069313265 0.36800146 0.14044261 0.29389468 -0.024991272 -0.029937623 -0.22533478 0.3879047 -0.10220357 0.16139442 -0.0918933
2535 -0.0534719 0.21374987 0.35559207 -0.007005821 -0.054282986 0.088239186 -0.18949409 -0.3584442 -0.032148745 0.060122933 -0.30669102 0.55672663 0.20416416 -0.14383656 -0.19146824 -0.01726844 -0.20647708 -0.21486713 0.14761034 -0.11769004 -0.0046944288 0.36074585 0.39088055 -0.1149276 -0.06026951 -0.053118955 0.53499144 0.044317916 0.1336838 -0.11388974 0.13076046 -0.10729484 0.31081703 0.46296057 0.10589759 -0.07226594 -0.2665874 0.23122908 -0.238159 -0.01062319 -0.05404311 -0.105725706 0.27728853 0.26464579 0.008783676 0.046849217 -0.3954495 0.070674546 -0.46008924 -0.098416746 -0.3003044 -0.3983441 0.121060275 -0.17808431 -0.14228417 -0.038594306 0.28440216 0.75853634 -0.11350227 -0.12905708 -0.19460523 -0.264199 0.32352692 -0.055796046
2320 -0.1546157 0.04145228 0.13035886 0.062659696 0.26637617 0.23853898 -0.0121563375 -0.47690672 0.19476774 -0.24210985 -0.45865083 -0.0132802455 0.007432867 0.30035943 -0.4205596 -0.060524736 0.22529624 -0.17157634 -0.014947436 -0.112265825 0.0018019663 0.24798837 -0.1586081 -0.34984756 0.0142470775 0.056110512 0.038034473 -0.21054986 0.026171917 -0.19997914 -0.043766405 0.12803969 -0.0037846328 -0.05130121 0.3351181 -0.32277218 -0.31575212 0.08754904 -0.59897286 0.4366039 -0.14230655 -0.47725773 -0.013257476 0.5138929 0.15465462 0.4228192 -0.05793493 0.076420635 -0.043301273 0.0407435 -0.010920346 -0.035440248 -0.06685925 0.2563722 0.09222268 -0.47530353 0.10835188 0.25553972 0.1813045 -0.16030438 -0.212849 -0.25986364 -0.026142266 -0.07877192
1257 0.07951846 -0.14822906 -0.48079315 -0.18970788 -0.078361616 0.53277904 0.10929278 0.12481516 0.2622292 0.54279315 -0.44562116 0.18351127 0.03494078 0.4220239 -0.1416391 0.14085497 0.10129544 -0.37957537 -0.11062375 0.13901334 0.16266377 0.26305607 0.42243305 -0.026282437 0.022005796 -0.13119403 -0.009549743 -0.10249969 0.0557107 -0.5635093 -0.13478313 -0.19064227 0.18333061 -0.21366864 -0.3419571 -0.64635015 0.12149329 0.2445784 -0.4956813 0.10922943 0.0823716 0.010227461 0.23195367 0.02163226 0.77554476 -0.010450979 -0.13553677 -0.35426474 -0.4361035 -0.17182004 -0.099103466 -0.22257236 0.27509698 0.27768463 -0.5641149 0.002760596 0.26920354 -0.40746835 0.3947954 -0.16287045 0.18284932 -0.17417075 0.059145488 -0.023117326
