2708 64
2119 0.08553527 -0.2089592 0.037141226 0.1251923 0.29799843 -0.2064549 -0.012489445 0.2867413 -0.04667506 0.27939963 -0.033317402 -0.19577584 0.029056387 0.11294974 0.09654883 0.06621729 -0.034930263 -0.06556793 0.11492706 0.26888004 0.20002288 -0.10073943 -0.40828177 0.18740663 0.10916653 0.15514362 -0.05666025 0.24027054 0.19518207 0.09679319 0.1723943 -0.03252105 0.3908678 0.23508489 0.19825248 0.062308747 -0.037679452 0.15198535 0.16937225 -0.1811071 0.028111748 0.22170456 0.279204 0.115005456 0.20029296 -0.0011766044 -0.14914072 0.23664625 0.04416664 -0.18748283 0.21154147 0.042993486 -0.24360773 -0.26428485 0.01664873 -0.090838514 0.096766755 0.026553491 -0.34015533 -0.08110833 -0.19216384 -0.056986306 0.114466235 -0.24438284
2555 0.16355546 -0.05160917 0.015104835 -0.11630089 0.18269117 -0.08794098 -0.069093175 0.07924604 -0.02630441 0.1327275 0.20871083 -0.014757328 -0.15495735 0.11982042 -0.015020185 0.27627808 -0.29110432 -0.057690736 0.21888568 0.38174507 0.09418916 -0.08270954 -0.4439719 0.13531002 -0.08903164 0.12493421 -0.10824574 0.16927367 -0.16378568 0.012136465 -0.033221833 -0.10503341 0.31182045 -0.06797975 0.2690765 0.100679696 -0.287504 0.32770222 -0.036901437 -0.09079298 0.02644332 0.17644525 0.29460475 0.19595489 0.10020564 -0.122125246 -0.01912361 0.26765126 0.11076391 -0.14428706 0.09189851 -0.033314474 -0.2388404 -0.18494663 -0.07770675 0.32294843 0.03031385 0.113674715 -0.08981973 0.036322627 0.057699166 -0.006978215 0.20663777 -0.273424
2114 0.2024036 -0.0374427 -0.018480983 0.052782968 0.32911617 -0.025405796 -0.011521128 0.056177832 0.051435366 0.23633394 -0.022759166 -0.04979935 -0.019416064 -0.064049706 0.021849865 0.15891595 -0.26603413 -0.073582634 0.089078814 0.04354377 0.21529742 -0.06460827 -0.43576837 0.0394834 0.009670314 0.15434143 -0.06734645 0.23154984 -0.19650787 0.0065789903 0.08311574 0.046510134 0.57252514 0.22658318 0.254927 0.07509359 -0.34129155 0.11030489 0.1489902 -0.06939396 0.014002658 0.22939076 0.23338497 0.39239207 0.15875274 0.004728377 -0.06760841 0.3099761 0.0591803 -0.14810288 0.25339976 0.087408684 -0.047947317 -0.112183444 0.010002627 0.07616898 -0.10530444 -0.2864517 -0.16299081 -0.0076208347 -0.15984157 -0.13546477 -0.0789008 -0.19945216
1023 0.17508051 -0.19135673 -0.06380843 0.021967767 0.26854864 -0.092608295 -0.06480456 0.13970649 0.04654248 0.22212967 0.070813365 -0.22318678 -0.14839838 0.15208824 0.004704028 0.19709255 0.03857342 0.081509225 0.13561435 0.35052323 0.15975846 -0.16977778 -0.26362205 0.12591115 -0.14165059 0.1774054 -0.15668523 0.2717484 -0.102349654 -0.25974193 0.16537634 -0.046269987 0.45749497 0.32285887 0.19409944 0.07820716 -0.13666806 0.3860412 0.27271748 0.06569695 0.11679014 0.18026939 0.36993173 0.314934 -0.02581008 -0.043467674 -0.1517821 0.22754863 0.05415074 -0.082186006 0.23891771 0.034692004 -0.03704334 -0.117150955 0.21135944 0.036101837 -0.03306695 0.08914738 0.056536216 -0.04600257 -0.15403129 -0.018322257 0.008240926 -0.043150436
781 0.23442826 -0.13786261 -0.17886443 0.05874427 0.17137828 -0.202996 -0.049309637 0.3410467 0.061135247 0.2173257 -0.11490535 -0.16151732 0.0644065 -0.13415296 -0.038894564 0.3062573 -0.25641605 -0.038040023 0.39867103 0.12801364 0.37582305 0.18329513 -0.31567234 0.043542832 0.035370655 0.24795215 -0.10835806 0.22161338 0.1998753 0.0054538758 0.123544425 -0.11791339 0.26203072 0.0069286325 -0.004834541 -0.06494496 -0.072009355 0.4551083 -0.05604349 0.0004991306 -0.14986293 0.097217456 0.21646088 0.4559811 0.07366696 0.049528968 -0.15542291 -0.046829857 0.0606765 0.02910409 0.014346977 0.20942698 -0.17418203 -0.05949621 -0.10984207 0.14256962 -0.015830219 0.20283468 -0.11514716 0.1315102 -0.1788191 -0.10512311 0.1250822 -0.21731633
1799 0.006526487 0.016039493 -0.25038084 0.10530511 0.27091756 -0.21293543 -0.030481584 0.33757338 -0.0018208022 0.25531805 0.14316982 -0.013577058 -0.11836984 0.03670645 -0.17218001 0.19769552 -0.31800833 0.08413564 0.4480242 0.24518654 -0.0019344721 -0.12203328 -0.22193553 0.21976052 -0.14677586 0.44274616 0.12462223 0.113304146 -0.102672525 0.11227306 -0.08393301 -0.036577474 0.33916512 -0.04281195 0.21054268 0.23215677 -0.34273165 0.25883394 0.005978153 0.0154844895 0.082174934 0.11167807 0.1524729 0.3015574 -0.09497825 -0.13246752 -0.108721256 0.27512658 0.24066314 -0.21936923 0.18561126 0.0056856694 -0.1671348 -0.14893033 0.03488129 -0.006595972 0.029618585 0.04646955 -0.023707079 -0.09264824 0.060743105 -0.103593595 -0.16359438 -0.2599219
678 0.39440593 0.06969799 -0.01735116 0.22102423 0.31232795 -0.0034585327 -0.12353534 0.17336012 -0.17760156 0.20447947 0.05384151 -0.043819126 -0.24678747 -0.007901212 0.20112683 0.027475242 -0.18106192 0.12128588 -0.017083319 0.33680862 0.036218405 0.14577726 -0.268924 0.026101148 -0.15544042 0.020478066 0.049653523 0.39662722 0.13317001 -0.1320839 0.12925047 0.14480056 0.24548052 0.11029295 0.20862314 0.042380687 -0.10504267 0.26515424 -0.07688808 -0.1835801 -0.1430775 0.1491324 0.23335566 0.28463566 0.115874335 -0.12391567 -0.23677342 0.2819169 -0.077674486 -0.104487486 0.26501516 0.08894309 -0.2723624 -0.086884715 0.008327663 0.08966653 -0.114255086 -0.11651818 -0.03501334 0.08670086 0.008018584 -0.22099636 0.037305612 -0.090332456
2283 0.014743733 -0.02277236 -0.051151223 0.2712716 0.119840845 -0.018830229 0.08567767 0.21369903 0.17680296 0.0053767124 0.050035242 -0.070634134 -0.08028933 0.009276667 -0.07596164 0.13483363 -0.27211908 -0.010241644 0.21815592 0.51991504 0.25938115 -0.04875922 -0.32769626 -0.03263464 -0.09047053 0.087965764 -0.20309725 0.18442896 -0.079350494 0.031443622 0.100572 0.047578357 0.46193585 0.13822287 0.1678322 0.1624624 -0.2907352 0.10161998 0.325199 0.0072267624 0.07165559 0.24894539 0.23011334 0.12968683 0.008076027 0.13127643 -0.08435745 0.21137013 -0.070767 -0.24743897 0.20094866 0.010953611 -0.19040154 -0.09885832 0.22063641 0.3025673 -0.098255485 -0.052831944 0.069985755 0.13559912 -0.09995021 -0.18939547 0.08957429 -0.20157816
2067 0.31654564 -0.036216073 -0.0045413175 -0.14671727 0.34400997 -0.081630245 -0.06671915 0.13401915 0.21464057 0.34362274 0.07672288 -0.10767149 -0.03410717 0.003902868 -0.030992098 0.22999135 -0.1574009 0.28971803 0.08000447 0.10105164 0.13568841 0.0024323643 -0.34488377 0.16196837 -0.08260944 -0.12546104 -0.20776659 0.31212977 0.1775372 0.08435735 0.19879691 -0.024716916 0.074762166 0.024534147 0.08547063 0.041495528 -0.19246693 0.2954373 0.06899834 0.019537324 -0.037098683 0.1554077 0.28801766 0.3188514 -0.04324167 0.07592012 -0.13039833 0.18844242 0.068798356 -0.035527006 0.2441114 0.008282231 -0.16351369 -0.08395995 -0.08954599 0.04696009 0.004495668 0.3405929 -0.11867076 0.11786054 -0.22323638 -0.111281104 -0.036395755 -0.22043133
899 0.109013826 0.03405369 -0.11894495 0.099841535 -0.04710841 0.06283365 -0.3253732 0.2342301 0.20079833 0.46762416 -0.2058554 -0.093734026 -0.09023063 -0.15070197 0.09301789 0.1911326 -0.27099785 0.0019404818 0.31489137 0.21871518 0.25024098 -0.015618887 -0.43445793 0.116583176 -0.011198638 0.33328187 0.07031423 -0.016162235 -0.012471183 -0.096523546 -0.09145627 0.106118485 0.36006925 0.18348792 0.2682495 0.26285437 -0.3256059 0.27764913 0.05114208 0.0010592251 0.15623902 0.3270584 0.1938227 0.19625427 -0.008552615 0.13175173 0.10580777 0.15547326 -0.12605518 0.015686803 0.021628492 0.08458968 -0.27191475 -0.16461857 -0.19464344 0.20153326 -0.17481434 -0.1434308 -0.101190075 0.1259919 -0.08564259 -0.075491115 -0.094262354 -0.19345936
960 0.019152422 -0.2968506 -0.06747415 0.0052761557 0.18452545 -0.06273695 -0.2662373 0.3119153 0.23706424 0.19151068 0.06306953 -0.12325299 -0.1078833 -0.0024802086 0.09518949 -0.016984632 -0.1092951 -0.14270955 0.47842896 0.15652701 -0.09920871 0.02107463 -0.29601383 0.2793474 -0.023352047 0.11198105 0.038795535 0.118147716 0.12784976 0.0040543997 0.005585081 -0.1224565 0.26114678 0.38696146 0.013178035 0.048528958 -0.08404069 0.085838415 0.12957416 -0.10244584 0.13869086 0.31436256 0.17626664 0.23258686 0.03239702 0.08999931 -0.18379976 0.36727723 -0.15985942 -0.20632148 0.29745564 -0.13757096 -0.04272516 -0.19254787 -0.07421212 0.06326848 0.09849918 -0.059240755 -0.24418548 -0.04423778 -0.1077024 -0.23274569 -0.07780271 -0.28914198
568 0.08218372 0.010858141 0.11550638 -0.02366911 0.29075974 -0.03776693 -0.20804954 0.333999 0.010790648 0.1812031 0.1528624 -0.11774595 -0.2476361 0.080997735 -0.21027026 0.05741012 -0.023204822 0.14297587 0.13491252 0.20938644 0.09581477 -0.26758096 -0.39271957 0.18334894 0.07721292 0.19525978 -0.09739031 0.086396575 -0.17116053 -0.14078069 0.11508573 0.1083497 0.38117993 0.19601266 0.07172099 0.13390385 -0.30191708 0.17329846 0.15632947 -0.015476384 0.031020373 0.029591437 0.21268621 0.35227045 -0.11189457 -0.055925675 -0.10395789 0.31951082 0.17354664 -0.17462976 0.27730724 -0.044740237 -0.27653816 -0.069820404 -0.050219107 0.094788685 -0.039800297 0.08008564 -0.0658947 0.19527426 -0.10703575 -0.23570485 -0.16991107 -0.17183894
1054 0.16725174 0.052430075 -0.2148561 0.0414365 0.19055659 0.11862671 -0.009859036 0.26120725 -0.22312477 0.316854 -0.060997646 -0.10730397 -0.2856591 0.032489643 -0.011037758 0.18228121 -0.15308243 0.06487884 0.041594308 0.2840193 0.08048549 0.023689102 -0.41651565 0.08778561 -0.009302526 0.14032555 0.010502789 0.30732507 -0.10487324 0.1512445 0.27873045 0.0989485 0.28560102 0.25109518 0.14019802 0.14488816 -0.094299175 0.109904766 0.20388567 0.052335076 -0.004665096 0.23803128 0.25357404 0.15515462 0.05301673 -0.10421853 -0.15090674 0.3289163 0.08468609 -0.20600212 0.100997806 0.11370931 -0.16702327 -0.32695055 0.052699897 0.1633949 -0.21463367 0.13870783 0.01944218 -0.1685493 0.033782635 -0.11847556 0.23797548 -0.051624693
51 0.13348077 -0.2545653 -0.12398925 0.25055644 0.22123171 0.040978108 -0.02629506 0.24238057 0.18967552 0.111020766 -0.037211172 0.0493332 -0.29397303 -0.0043652505 -0.093931295 0.09462598 0.019814823 0.21910658 0.35707211 0.1757774 0.2552424 -0.15472479 -0.40478328 0.13909958 -0.06153532 -0.14622632 -0.24126533 0.40118814 0.022715846 0.21153992 -0.15556715 -0.23477328 0.096097566 0.094927035 0.07539982 -0.041786496 -0.16822204 0.07373823 0.10007896 0.20741935 -0.03573294 0.17909576 0.19453564 0.16300063 0.0029078468 0.0920096 0.0954809 0.16230105 -0.06998658 -0.14171249 0.31753075 0.09144896 -0.34189856 -0.27670413 -0.030199714 0.11825976 -0.07810963 -0.056813825 -0.07954314 -0.04160326 -0.3159555 -8.283832e-05 -0.06351267 -0.13421619
2207 0.20991683 -0.2122861 -0.044801123 0.11484634 0.19376045 0.019408494 -0.1004309 0.24603614 0.2935328 0.07761005 0.35094765 -0.21440886 -0.19418503 0.27004436 -0.03343504 0.2945997 -0.01926154 0.086085975 0.16508505 0.13105218 0.08692891 0.18802463 -0.30229148 0.13476689 0.24685952 0.021327296 0.14187816 0.2515736 -0.037673894 0.043185826 -0.08254165 -0.06372378 0.3823811 0.09551508 0.24431384 0.022029808 0.0096305 0.35271066 0.058365695 0.06331023 -0.072556086 0.2128614 0.19678374 0.18427776 0.11240732 0.03695391 0.014290245 0.33991387 -0.24732599 -0.35902953 0.28793752 -0.18316329 -0.13426656 -0.21783552 0.08425124 0.08635292 0.0732775 0.27369466 -0.12866849 0.12373356 -0.12492138 -0.13775432 -0.028794715 -0.18401486
1502 0.15135053 0.060813185 -0.1442581 0.053999327 0.0686309 0.033125646 -0.17740262 0.17433533 -0.017196009 0.28110698 0.09124981 -0.011149878 0.0710756 0.10165459 0.062044825 0.17733338 -0.21234955 0.068101905 0.29499713 0.22611992 0.033692773 0.14087993 -0.40007278 0.09426053 -0.034802675 0.21412471 -0.17540874 0.213807 -0.0075417333 -0.104636185 0.0976339 -0.02817018 0.27352554 0.10750682 0.2684229 0.1748631 -0.22932169 0.059803225 0.07992838 -0.057932783 0.13633813 -0.0078068944 0.13503735 0.22881436 0.019126622 0.13587372 -0.114389226 0.28248316 -0.0060787806 -0.16947481 0.16461869 0.09886283 -0.2340434 -0.06114658 -0.12531446 0.025324542 -0.14312643 0.16344588 -0.07827826 -0.018166661 -0.1960831 -0.091078416 0.11475894 -0.37737325
953 0.18664387 -0.055909734 0.17873561 -0.0032274323 0.17700352 -0.15314788 -0.051485747 0.32582128 0.13950197 0.23543528 0.1743514 -0.067801 0.06948844 0.007843641 -0.062253885 0.28128168 -0.23811834 0.14294651 0.050000846 -0.0056190807 0.051785976 -0.13154523 -0.4703088 0.17227764 -0.19925955 -0.08341304 0.018189184 0.20753399 0.11404266 0.10917316 0.026077393 0.11782585 0.30619404 0.13963696 0.13455983 0.14708939 -0.11351302 0.31019872 0.084724426 -0.054284237 0.08420683 0.19788244 0.16995786 0.11618166 -0.018927991 0.19719504 -0.09196016 0.38417074 0.03784592 -0.1840005 0.16446353 -0.21546823 -0.1409266 -0.15875404 -0.14484848 0.041808866 -0.21287711 0.18308587 -0.047301017 -0.15930438 0.015082757 0.10155682 0.110862084 -0.14522982
1663 0.05825356 0.04177078 -0.09651884 0.2825046 0.30840948 0.0034722735 -0.064351656 0.36960787 0.032806903 0.21555677 0.061764218 0.062778935 -0.036509898 -0.04825602 -0.064000115 0.18173493 -0.06052941 0.07855381 0.10745272 0.15822797 0.088983856 -0.10208807 -0.4756271 0.230518 -0.08606242 0.1578936 -0.048478402 0.11692639 -0.07520775 -0.05696586 -0.0383284 -0.13363631 0.35454598 -0.029310487 0.07198641 0.04637842 0.047521204 0.23622216 0.12219532 0.15984282 0.018126925 -0.023772847 0.28424153 0.45150897 0.0700422 -0.004412991 -0.084414355 0.1194036 -0.16371197 -0.073553726 0.22588304 0.096867986 -0.36503655 -0.24014847 -0.0057507055 0.36313602 -0.01849524 0.05241246 0.027032815 0.0090050455 -0.23075984 -0.14805274 -0.11749763 -0.22821733
2438 0.25949758 0.0065579275 -0.13961685 0.09387977 0.15549491 -0.05614652 0.052384835 0.344441 0.028542787 0.24178788 0.08244577 -0.029503478 -0.020456308 0.13530087 -0.19457322 0.0607557 -0.19053647 0.049685955 0.17111717 0.30755666 0.12252965 0.12034368 -0.47614393 0.32671645 -0.10530877 0.15892076 -0.25539196 0.24760988 0.13458915 0.132608 -0.10117512 0.11518167 0.43328586 0.022232234 0.06680579 0.03882801 -0.11186348 0.33656946 0.12693332 -0.12315856 -0.06513011 0.119344555 0.29066232 0.16584834 0.113959365 0.24385834 -0.13139188 0.20883714 0.0016887735 -0.02262447 0.0911831 0.044817742 -0.33636975 -0.19384384 0.021728592 0.4584763 -0.07418841 0.20661333 -0.2442843 -0.032571413 -0.20821403 -0.087186165 -0.093918525 0.1497189
1977 0.17613405 -0.12106364 -0.039488614 0.04804684 0.15044919 -0.057060413 -0.07268055 0.47704437 -0.0012696268 0.19218557 0.11287126 -0.2615577 0.0065454245 0.23017408 -0.016820814 0.3028882 -0.15743656 0.08479562 0.12619615 0.3628636 0.29175195 -0.08253362 -0.19819778 0.19548352 -0.012649913 -0.052861266 -0.058747273 0.23901905 0.11775175 0.11644157 0.0016294653 -0.044786293 0.2553564 0.15324494 0.0006459295 0.21287487 -0.33139506 0.23329714 0.18336432 -0.077615604 0.013019183 0.2487939 0.22781937 0.25620568 -0.113496736 0.06840774 -0.16085745 0.016445573 -0.02773679 0.11002517 0.38481587 0.039274894 -0.25756574 -0.048327252 -0.15048675 0.24655078 -0.3159285 -0.007317508 0.06536726 0.11696153 0.17559749 -0.039822932 -0.16990565 -0.2652535
1439 0.12474406 -0.040154252 0.023244511 0.17762068 0.15439576 -0.30869347 0.20757854 0.31817475 -0.064875074 0.13880882 -0.083988056 -0.2671364 0.089765266 0.041616492 0.14237061 0.07750811 -0.044051483 0.0656615 0.2859505 0.2646622 0.09568948 0.095548846 -0.3720666 0.16583078 -0.12282547 0.20237441 -0.16153046 0.44051903 0.22054914 0.044694494 -0.0073140976 -0.21125127 0.2534742 0.2102952 -0.037028436 0.06966459 0.06198819 0.38043094 0.11788958 -0.22761743 0.19078898 0.3076898 0.088870384 0.48545945 0.15293191 0.03077996 -0.13378043 0.25617364 0.07970786 -0.23751879 0.113460705 -0.0048156665 -0.27959967 -0.26860717 0.12604694 0.057237286 -0.17418246 -0.025415229 0.0042422116 0.013989146 0.09681781 -0.11157878 0.18961895 -0.13518815
967 0.19034505 -0.21738961 -0.04036441 0.3077945 0.3809168 -0.21952389 -0.06110984 0.23564225 0.094891936 0.1336237 -0.0837129 -0.29072723 0.08645272 0.10227034 0.10822507 0.0035201248 -0.08764876 0.06954425 -0.024861492 0.25606167 0.12994552 0.10960472 -0.27776754 0.40348879 -0.06004962 0.17148718 -0.047631048 0.33069658 0.051428746 0.18141998 -0.03147139 -0.09619565 0.22603883 -0.026983535 0.031295903 0.080796 -0.076779924 0.42599002 0.18874276 0.08742172 -0.12615982 0.11863943 0.35410315 0.32289055 0.074584074 -0.011788988 -0.15880536 0.3087347 0.15222473 -0.103378735 0.12836845 -0.08986219 -0.22662641 -0.07556653 -0.1071233 -0.09177997 0.11915335 0.19246097 0.038104076 0.028503653 0.17168622 0.0111223 -0.011994659 -0.30325416
1988 0.3228457 0.05066566 0.069904655 0.02372235 0.05303293 -0.07556777 -0.04879454 0.32292345 -0.022953087 0.40484437 -0.2785469 0.2515381 -0.24586034 -0.10329248 -0.055045504 0.19902971 -0.12141386 0.18787046 0.28824452 0.17437221 -0.017903782 -0.08030503 -0.5102634 0.24235572 0.03052816 0.06330162 -0.14064959 0.12248202 0.05121163 -0.17700733 0.12868379 0.13221505 0.33287662 -0.01792691 0.26391652 0.054804616 0.16934678 0.2751475 0.13936076 -0.17328216 0.029950136 0.028045252 0.100158446 0.45824045 0.027046373 0.052360207 -0.14819202 0.24997047 -0.08540442 -0.11093466 0.12972057 -0.056481026 -0.14149675 -0.01887541 -0.0064357584 0.30784714 -0.011918071 0.047951467 -0.12978937 0.17263028 -0.17956941 -0.1819223 0.119619995 -0.045500103
2427 0.42409253 -0.0876135 0.07010996 -0.049291722 0.14641407 -0.08398574 -0.15127145 0.31624612 0.11896174 0.3210867 0.10637179 -0.083072245 -0.1881836 -0.060819913 -0.072092585 0.2039993 -0.04043987 -0.15727586 0.07898895 0.25157964 0.22155264 -0.058815647 -0.33518568 0.09540435 -0.046725124 0.24004653 -0.088486694 0.08910107 -0.052362397 -0.02690748 0.034155276 -0.080596894 0.34413534 0.2092601 0.13762818 0.0756772 -0.020746494 0.21284302 0.114293166 0.01193481 -0.10094849 0.30863875 0.079474166 0.3141682 0.04955774 0.10853321 0.06263177 0.030626219 -0.11260976 -0.23437399 -0.011327213 -0.049033493 -0.155944 -0.40340343 0.11228846 0.27067155 -0.017160177 -0.042739533 -0.16671674 -0.014204474 -0.09959962 -0.34914675 0.0034576147 -0.23400697
1056 0.03693131 -0.20805086 -0.114903644 0.29249376 0.10148305 -0.014164575 -0.022964608 0.50865626 -0.06199782 0.19875327 -0.09601087 0.04248469 -0.27387378 -0.033141892 -0.20083411 0.037868183 0.07914209 0.09291575 0.17437522 0.2607986 0.20321198 0.038044255 -0.3983778 0.019705145 -0.25965133 0.108543925 -0.16520104 0.34518072 -0.04340895 0.08513565 0.086817905 -0.053398967 -0.018283917 0.18478699 0.15032646 0.018624011 -0.06489582 0.29900205 0.07808132 -0.03648081 0.055000838 0.3025035 0.30693722 0.2580626 0.1357232 0.010420522 -0.04065659 0.4279952 0.24442752 -0.14605843 0.3345193 0.05327889 -0.28574398 -0.061905567 0.049774922 0.29365575 -0.030331844 0.0035524801 -0.015488611 0.05137966 -0.099083856 -0.15904972 0.06606238 -0.1177997
2574 0.19939384 0.0076690787 -0.15053897 -0.06512659 0.22605425 -0.07892143 0.008571244 0.011268507 0.06428599 0.24735743 0.19645573 0.08622276 0.13878305 0.044023335 0.08357637 -0.033041585 -0.3725338 0.056645818 0.018549787 0.2121776 0.21618176 -0.0027496049 -0.4773906 0.19553904 -0.07384837 0.23352478 -0.23056829 0.34847805 -0.09805733 0.06274811 -0.15145262 -0.16878702 0.41763622 -0.04598533 0.1613547 0.12143748 -0.29395324 0.2973316 0.41897964 -0.1838871 0.110905096 0.20562303 0.3853701 0.083848484 0.2594008 0.21341382 -0.10184745 0.25938874 -0.17391361 -0.066311605 0.028974624 -0.037004787 -0.20495588 -0.33372635 -0.23731196 -0.06813769 -0.09566898 0.12017906 0.08535292 0.0456433 -0.0131914485 0.05077416 0.121886864 -0.12907678
2373 0.122701794 -0.1406183 0.051412612 0.19667271 0.10704527 -0.16002236 -0.053220917 0.25118145 -0.0840569 0.32665232 0.13232541 -0.23566753 0.08063794 0.022436405 0.013845128 0.17046395 -0.10130431 0.07731892 0.22328413 0.29071912 0.002682616 0.0025278712 -0.37930238 0.3213351 -0.024660483 0.12573338 0.012867216 0.13533401 0.14795937 -0.0007219074 0.025172638 -0.0758121 0.47557533 0.06631701 0.122180514 0.1419031 -0.14324068 0.15567817 0.15193649 -0.13235591 0.184389 0.26128322 0.15493676 0.16911519 0.18070866 0.08181865 -0.21104996 0.44830695 -0.086150855 -0.0042066015 0.15937428 -0.039429087 -0.17993897 -0.09179812 0.064543694 0.10947674 -0.061015297 -0.014227777 -0.24487548 0.075811066 0.082721196 -0.023877501 -0.12519349 -0.113190025
1987 0.31547832 -0.15360205 0.16708952 0.1421044 0.24736375 -0.09457072 -0.043105874 0.23190957 0.072482474 0.014671045 0.15668792 -0.034762517 -0.12090852 -0.106707364 -0.018322812 0.14563675 -0.12964192 -0.18445495 0.24346289 0.08456865 -0.068693876 -0.28329638 -0.20602219 0.2290955 -0.14692989 -0.06190176 -0.01505404 0.19798128 0.19299635 -0.04812897 0.14248204 -0.040493414 0.33065873 0.09575568 -0.2233927 0.066877484 -0.2073801 0.4294375 0.17273891 -0.045518994 0.119386934 0.050119452 0.17501277 0.36684713 -0.043042626 -0.06812872 -0.30488208 0.18501525 0.16494586 -0.1864226 0.30185145 0.22315174 -0.16454963 -0.4512045 -0.14947906 0.27674708 -0.08955809 -0.05351115 0.14593178 -0.075060375 -0.10004761 -0.2577002 -0.039577805 -0.19956072
2508 0.25455564 -0.1572916 0.22855921 -0.015304503 0.37471068 -0.15251464 -0.03655068 0.20550145 0.16109519 0.28941372 -0.09358557 0.19301598 -0.08102627 -0.0583487 0.12638895 0.057742704 -0.16220292 0.13827254 0.0694725 0.12289537 0.08445428 -0.04194794 -0.40034506 0.04596413 -0.19210206 0.19705848 -0.1796453 0.3199824 -0.04692164 -0.13742226 0.19093782 0.11702314 0.34421045 -0.056720484 0.1987741 0.11482296 -0.1291272 0.23865137 0.0022994003 -0.08290961 -0.07208023 0.06218585 0.2103387 0.36271438 0.1861297 0.0009898082 0.18634577 0.19570342 -0.043169226 -0.26980266 0.027526615 0.048501763 -0.26673582 -0.18712722 -0.13970372 0.056360904 -0.26847833 0.122258045 0.076159544 -0.06428937 -0.17417973 -0.078085564 0.27489367 -0.27802125
865 0.17322376 -0.09858192 -0.15110342 0.059779417 0.33120632 0.06591085 -0.041705497 0.32160243 0.014191574 0.16773596 0.23026283 -0.06485686 -0.14113681 0.20464055 0.031463504 0.21010123 -0.040916853 0.15492518 0.109506235 0.3518897 0.18855906 -0.17406659 -0.57335895 0.4579645 -0.12804727 0.029163672 -0.11478868 0.085382946 -0.07086326 0.019052306 0.015822757 0.032472447 0.21122655 0.2420314 0.14836834 -0.08293184 -0.020716844 -0.036903083 0.33953658 -0.14259228 -0.012323084 0.17803074 0.19227895 0.12613317 -0.027887443 0.0006973926 -0.20085542 0.23000097 -0.21688086 -0.23846616 0.10226328 -0.2446875 -0.36528414 0.014783762 0.089947335 -0.0950441 0.123723 -0.011016334 0.052515652 -0.11078129 -0.26242927 -0.14333448 0.0869671 -0.30251655
2115 0.05659748 -0.03470661 -0.082502395 0.13476513 0.033439122 0.026477767 -0.06451603 0.1120705 0.025819119 0.14874433 -0.18457854 0.07630174 -0.20002173 -0.012413755 -0.08599337 -0.082611404 0.075131975 0.16645949 0.23261885 0.27546358 0.002305882 -0.13985729 -0.5342145 0.320013 -0.07845457 0.1402269 -0.030250927 0.28533018 0.17487101 0.0042154975 -0.009364249 0.041861217 0.18536027 0.1386486 0.24841611 0.12342843 -0.18697 0.3976208 0.18175164 -0.022396065 0.08186916 0.037549432 0.32213303 0.2711289 0.002017056 0.120595634 -0.3083584 0.15031786 0.08211706 -0.021002188 0.26545337 0.17932408 -0.24947836 -0.11165622 -0.11245287 0.19680543 0.30895963 -0.0020787406 -0.1813371 -0.2681352 -0.15015188 -0.008004766 0.010674605 -0.08297143
179 0.2081967 -0.124319494 -0.16222648 -0.00577667 -0.026101954 -0.1393065 -0.42247137 -0.011242444 0.041875612 0.31656495 -0.09684837 0.0340127 -0.16660583 -0.05258158 -0.16530734 -0.18458278 0.06644724 0.013924453 0.15727317 0.20262682 0.0639189 0.09659801 -0.325767 0.25913516 -0.14070918 0.27146494 -0.047722124 0.37535596 0.12491946 -0.010491689 0.059162553 -0.054994706 0.42468283 0.026856055 0.038169414 0.10928636 -0.20386916 0.34019187 0.18821163 0.0020479287 0.1295995 0.13227147 0.32310483 0.27304038 0.06514252 0.13036169 -0.03764658 0.26648626 0.28241247 -0.2215785 0.28940567 0.007827217 -0.07219544 -0.25374782 -0.113288075 -0.13503312 -0.17293264 -0.08357158 -0.11939633 -0.0881119 -0.17411864 -0.089918196 0.15220205 -0.19592227
1124 0.07496852 -0.12715629 0.15294918 0.09982162 0.08810713 -0.25630075 0.15883477 0.4902266 0.007654866 -0.005818679 -0.009501907 -0.1748223 -0.14969225 0.099390954 0.029589118 0.06388642 -0.0047093467 0.2293271 0.29993466 0.29882467 0.14208585 -0.26698527 -0.38141397 0.18497157 -0.17212388 0.14667775 -0.2715192 0.079696454 0.15220766 -0.11557795 0.21422443 -0.08850285 0.21263441 0.07411246 0.23450322 0.113774315 -0.33248958 0.22025897 0.085551985 0.10439008 0.11927554 0.21449018 0.26420346 0.1504023 0.0485452 0.07701353 0.111717746 0.28924605 0.18408981 -0.34167838 0.13481665 -0.017229538 -0.05642373 -0.024940388 0.046948522 0.25203162 -0.18947193 0.0119713 -0.09491778 -0.04131874 0.07340704 -0.31844535 0.06871019 -0.13392942
1541 0.1973526 -0.13646734 -0.059475392 -0.13559239 0.23532847 -0.064910956 -0.004608408 0.36086568 0.12771527 0.29516053 -0.0058985995 -0.01565822 -0.15876412 -0.13093823 -0.02527249 0.026438022 -0.39072832 0.14589305 0.19492562 -0.016272578 0.23318954 0.06936942 -0.29062578 0.25053033 -0.103362374 -0.07707583 0.058578175 0.2793172 0.12046714 0.028824521 -0.11149223 -0.07593367 0.33992895 0.09080473 0.08785823 -0.08751629 -0.05234267 0.34125474 0.21512392 -0.07750383 -0.17719616 0.2639501 0.12997273 0.43797892 0.11296648 0.028003938 -0.1473084 0.40592277 0.09519476 -0.15170766 0.04822958 0.037206326 -0.02595704 -0.21109344 -0.06087947 -0.07003531 -0.21741769 0.08351489 -0.1974466 0.051925577 -0.014453315 -0.16248131 0.027478052 -0.18916173
1256 0.018708723 0.004852328 -0.07993146 0.23448583 -0.0004454438 -0.043807626 -0.23910843 0.18728007 0.25830394 0.3928434 0.0043496266 0.032274175 -0.0690504 -0.04268707 -0.27393815 0.25690606 0.013236599 0.0049548442 0.24047449 0.13490511 0.14914294 -0.19141705 -0.42259997 0.2372051 -0.025730096 0.123403035 -0.012399778 0.26347315 0.23674035 0.0191151 0.07595566 0.11177458 0.32475388 0.28977525 0.13675669 0.110257804 -0.11576361 0.20570095 -0.12124592 -0.23532856 0.117666565 0.2988299 0.14970027 0.3685421 0.23175143 -0.090106666 -0.009998352 0.37031418 -0.020196151 0.031193173 0.2016895 0.121948496 -0.049993318 0.06510336 -0.014572584 0.16876498 0.08406602 -0.16349372 -0.33983192 -0.08342863 -0.15581322 -0.13947345 0.015877966 -0.08009796
1049 0.05343055 -0.21276449 0.030595785 0.047617614 0.15360412 0.09007433 -0.069663025 0.17350072 0.15322396 0.32172334 -0.13553682 -0.04479647 -0.034419745 0.038632303 -0.04238109 0.33949292 -0.023999002 0.03834157 0.20263296 0.2493033 0.150093 0.09201054 -0.24957609 0.12841657 -0.100161016 -0.03391571 -0.049145285 0.27323705 -0.031123413 -0.09188094 0.22750819 0.15939155 0.32415393 -0.0055297725 0.07941583 -0.14166993 -0.2477226 0.120285876 0.22050968 0.0141750965 0.2172683 0.04231857 0.40837178 0.3260317 0.121454835 0.09061861 0.0068652956 0.38638365 0.0047757546 -0.07145746 0.16364647 0.1817266 -0.50111306 -0.17098358 -0.14891084 0.03601221 0.17406467 -0.046906117 0.11026004 -0.11464195 -0.028434107 -0.18949066 0.0857693 -0.1976849
1862 0.30016717 0.0179295 -0.04547909 0.1140756 0.25867143 -0.35412693 0.063757576 0.33050278 0.008513576 0.12608726 0.11722252 0.07732558 0.052202526 0.17547353 -0.2241675 0.09974781 0.0038684867 -0.05347385 0.11028631 -0.03884724 0.36529866 -0.0989379 -0.3178196 0.019781495 -0.08333125 0.32461947 -0.007103459 0.25140178 0.009210111 -0.016679889 -0.03122445 -0.05697306 0.30212077 0.048147917 -0.010137481 0.010539593 -0.18552318 0.38507882 0.16345787 -0.28026965 0.07592829 0.07859002 0.32403973 0.365429 -0.038703296 0.13646759 -0.1183786 0.20928997 0.01753417 -0.39422977 0.230184 -0.042183775 -0.14330797 -0.21963327 0.028752038 0.14987166 0.13753721 0.22561102 -0.18813749 -0.06790656 -0.1748443 0.059674762 0.0395155 -0.13745603
2624 0.0043787253 -0.16144854 -0.0013103947 0.020071639 0.009240464 0.16871212 -0.30092204 -0.02984692 0.3288385 0.23642099 0.053092834 0.13902669 -0.16759297 -0.08648887 -0.12761874 0.16782978 -0.20885523 -0.05331015 0.4100289 0.26638645 0.115167715 0.11681834 -0.21701553 0.027182976 0.03785317 0.19001618 -0.2851641 0.27389497 -0.23915836 -0.028642235 0.0901808 0.04098062 0.30636546 0.11935664 0.057998363 0.051667754 -0.36963618 0.38672176 0.14012326 -0.1131351 -0.034886476 0.1247716 0.17102578 0.26492083 -0.042116903 -0.0040994305 -0.2921756 0.19352663 0.13029222 -0.10408924 0.25577736 -0.23105884 -0.20920622 -0.2106029 -0.09623668 0.032062925 0.2540612 0.19837399 -0.008627883 0.040183328 -0.2281168 -0.20643876 0.068385325 -0.4577776
2607 0.25501958 -0.13169684 -0.16603446 0.12252649 0.22624233 0.020162791 -0.119745634 0.33130723 -0.051676136 0.3853393 0.04134663 -0.21518603 -0.18583065 -0.023002373 -0.04982268 0.29605037 -0.053257205 0.33733326 0.11891312 0.09353934 -0.06082849 0.013475338 -0.392402 0.17564093 -0.14094561 0.20455736 -0.20170133 0.14570251 -0.044496942 0.121653475 0.118316785 0.21477534 0.18106937 0.12512669 0.064738475 0.11044501 -0.18789448 0.17430933 0.17023401 -0.105918206 0.13572398 0.23213975 0.23214495 0.30412185 0.18075252 0.16505538 -0.101047866 0.14690661 0.14398625 -0.17612128 0.08482897 0.15648927 -0.32264304 -0.13082659 -0.06598994 0.20604728 -0.06676388 0.19184887 0.08175822 0.029247088 -0.12037559 -0.21440086 -0.09453183 -0.14856619
892 0.31860465 -0.1835227 -0.022036277 0.1140269 0.118058674 -0.13705263 0.07412347 0.39557803 0.20395938 0.046752356 0.19232813 -0.09881154 -0.008894764 0.04421517 -0.05919514 0.09526571 -3.829333e-05 0.036278795 0.14493744 0.13884425 0.15513541 -0.02110578 -0.44281563 0.007894558 -0.09757486 0.025048507 0.11779444 0.3182915 0.08786702 0.0810658 -0.008199404 -0.16576026 0.15793371 0.39610544 0.1663792 0.1846399 0.041531038 0.39685452 0.3512758 0.13347253 -0.14696975 0.24096943 0.12689695 0.16169009 0.13097434 0.14800258 -0.12495999 0.26046768 -0.13571297 -0.28463855 0.17419578 -0.08361238 -0.26627335 -0.056221403 -0.15319246 0.13812828 -0.08794333 0.079603255 -0.15001585 0.06385396 -0.15976757 -0.038656313 0.15641668 -0.43200326
1665 0.07632782 -0.24915203 -0.050961394 0.07603081 0.18463649 -0.082752064 -0.061853025 0.27281642 0.27209657 0.24088518 -0.014996734 0.029718233 0.010702841 0.037662793 -0.055030957 -0.014604762 -0.15570417 0.11315893 0.15983956 0.10930269 0.3047734 0.08019332 -0.36081246 0.23925757 -0.23786299 0.009230809 -0.15667482 -0.016178606 0.27334535 0.20592012 0.0117306085 0.08690704 0.29390797 0.12258776 0.19051816 0.15096645 -0.085441515 0.30806103 -0.12193471 -0.059934847 0.13381347 0.23132563 0.34732673 0.07101426 0.25289458 -0.089803725 -0.010680598 0.2004749 0.05376671 -0.18867601 0.0041681794 0.08182333 -0.2597634 -0.24027775 -0.17648686 0.09610304 -0.17047323 -0.03347 0.014292468 -0.1631225 -0.27456743 -0.34569138 0.22204661 -0.1890445
918 0.19986598 -0.082587935 -0.26708668 0.0008974881 0.33386502 -0.07449435 -0.1609465 0.25096473 0.109096326 0.21994492 0.25705892 -0.20420344 -0.07808907 0.041257314 0.054911207 0.20109552 -0.24983288 0.044610247 0.12719096 0.09928918 0.09769092 -0.01092191 -0.4224442 -0.04690349 -0.019787727 0.22268032 0.04316659 0.31021795 -0.10783908 0.056840412 0.17477427 0.16777213 0.19384456 0.12207418 0.20547403 0.16727956 -0.07568486 0.2477306 0.04737196 0.063870244 -0.040393576 0.38374323 0.24195947 0.16056566 -0.034885336 0.1457103 -0.28707066 0.27166334 -0.14895461 -0.12303478 0.24957263 -0.11809003 -0.2649542 0.04739443 0.013524227 0.23777448 -0.1485138 -0.04637277 -0.06883639 0.18519102 -0.07799928 0.15618776 -0.08775188 -0.27356905
1096 0.16701005 -0.23847394 0.025084866 -0.066786274 0.2532303 -0.026460545 -0.118143044 0.27684003 -0.19193481 0.3254819 0.10291693 -0.04487791 -0.07445063 0.08119859 -0.15867266 0.18199913 -0.2388434 0.14546423 0.032594323 0.37016258 0.065969184 0.15431881 -0.24014914 0.03369615 0.0059109605 0.14487551 -0.12480885 0.19940716 0.10849377 0.2062665 0.21276292 0.043482758 0.38982856 0.03057295 0.139247 -0.030235784 0.02064403 0.29764494 0.1078254 -0.022591827 0.07521056 0.019117547 0.31138864 0.22461358 -0.028283998 -0.118464455 0.019178258 0.19333605 -0.03627763 -0.09155177 0.041822143 -0.12069523 -0.25769788 -0.25057638 0.08018257 0.20868693 0.11285786 0.08719217 0.0042824238 0.16895235 -0.2017721 -0.20241338 0.027686434 -0.370304
1894 0.2876211 -0.06155791 0.01750881 0.06287871 0.2790882 -0.18241982 -0.041766483 0.21364652 0.020260187 0.06061011 0.34701368 -0.058661748 -0.06343392 0.096943155 -0.24223022 0.15813401 -0.011291632 0.13420168 0.07347047 0.25756198 0.17675725 0.079471186 -0.5040179 0.015496316 -0.014962303 0.19895753 -0.031225579 0.15547253 0.100334056 0.017533991 -0.09207196 -0.028463436 0.49410367 0.34793 0.22587016 -0.082944445 -0.15829886 0.19319725 0.23707695 -0.0025668086 0.09745646 0.08861263 0.1611221 0.14197911 0.13609304 -0.14402597 -0.020072592 0.4222984 -0.16166638 -0.20214762 0.1071636 0.022655025 -0.23780644 -0.023365749 -0.00903409 0.103055604 -0.0867148 0.098776504 -0.1605057 0.377432 -0.13727754 -0.086274095 0.030229904 -0.034720633
1615 0.21819532 0.08937129 0.050935604 0.0497833 0.20026542 -0.011005314 -0.26480767 0.2793745 0.14660406 0.14135242 0.05138065 -0.12855522 0.11228811 0.007734753 -0.15460017 0.25314078 0.09946017 -0.08292682 0.30220962 0.177809 -0.19469014 0.018388024 -0.5207234 0.18048424 -0.20869339 0.33602256 -0.10133288 0.3346402 -0.13637388 0.19763751 0.22946374 -0.00066748494 0.14842223 0.16383347 0.04671334 0.0053368947 -0.19563131 0.038972355 0.32524246 -0.106685504 0.1256632 0.16298763 0.19477722 0.34449932 -0.10447239 0.017240133 -0.11342024 0.12134205 -0.0015902173 -0.056322902 0.33778557 -0.14440392 -0.3283807 -0.19104522 0.018987024 0.120257914 -0.0534485 0.1398556 -0.01229035 -0.096071824 -0.21056843 -0.28573152 0.03824149 -0.18163137
1948 0.26375094 -0.20794895 -0.028663384 -0.020571519 0.27173707 -0.056504626 -0.013805404 0.32558793 -0.062349763 0.15193465 0.35270894 -0.15404764 -0.110657245 0.0010040248 0.021042677 0.11198853 -0.34434965 -0.11476968 0.12605293 0.19624753 0.1976861 0.033458702 -0.36021915 -0.15006375 0.2103628 0.22384408 -0.102745995 0.11441081 -0.16144273 0.06810971 0.11865653 -0.033546187 0.46162242 0.17427807 0.28306216 0.13800152 -0.16018993 0.38631272 0.08261768 0.05976596 0.21188438 0.15306996 -0.091049336 0.10388888 0.03925304 -0.022054069 -0.13773227 0.17447706 -0.05779554 -0.33239636 0.13172504 -0.11986783 -0.10150837 -0.23402943 0.3050572 0.07700034 -0.1590926 0.106098324 -0.26158273 -0.015195432 -0.21285577 -0.23763132 -0.2325473 -0.3698547
2482 0.12122082 -0.17254114 -0.08031698 -0.0963324 0.13529027 -0.11248129 -0.08464774 0.16260396 -0.073663644 0.3886552 0.08129568 0.0047735227 -0.2036595 -0.104268484 -0.29334846 0.04027573 -0.3152744 -0.13069992 0.2243759 0.16148971 -0.11700003 -0.124571815 -0.2867053 0.09667516 -0.09746313 0.14810793 -0.11943077 0.090996824 0.020415565 -0.06643978 0.25977156 0.20992269 0.41264784 0.17410538 0.16790003 0.039688066 -0.28589717 0.26164216 -0.022168323 -0.10585084 -0.08426646 0.16955301 0.47067752 0.2653265 0.16365993 -0.10545866 -0.191799 0.15310438 0.09474165 -0.23742372 0.16722281 -0.0066934926 -0.06643397 -0.17269923 0.23747887 0.19432928 0.06202922 0.09815445 -0.049438078 0.05309016 -0.10738171 -0.12074513 -0.09509445 -0.050738182
216 0.12403105 0.1101762 -0.04469694 -0.15958516 0.053406566 0.1607122 -0.16999239 0.2699069 0.107172556 0.3034088 -0.07551162 -0.058006223 0.03709591 -0.065314494 -0.04345157 0.27707487 -0.2675091 -0.01522102 0.3201082 0.22238748 -0.14635535 -0.077945895 -0.5349524 0.078537904 -0.06154771 0.06539785 0.1526207 0.123474814 0.050562408 -0.08391657 0.2382477 -0.13262828 0.36811468 -0.010199182 0.20685583 0.030091343 -0.02505765 0.39861667 0.027328487 0.11800977 0.12140542 0.060520723 0.28154272 0.32244614 0.035941873 -0.09459026 -0.17720489 0.38487062 0.025368135 -0.22357675 0.050284956 0.11708352 -0.081069544 -0.16667499 -0.007096811 0.05840979 0.036504287 0.11208228 -0.019537749 0.18901412 0.10095594 -0.06449213 -0.06875079 -0.034251545
2688 0.045826368 -0.37653726 -0.10849286 -0.09724392 0.058258142 -0.26520967 0.010556635 0.1517608 0.042731646 0.15844423 -0.022016704 -0.22607899 -0.08612116 0.019645937 -0.08355365 -0.020917794 -0.13425311 0.20569983 0.15464646 0.21575063 0.15848845 0.06771993 -0.36697966 0.28122503 0.030744964 0.23402444 -0.093944475 0.04347837 0.14203252 0.0137454495 0.07479962 0.035415657 0.45524636 0.12949124 0.07844366 -0.09781718 -0.28181106 0.215362 0.055795707 -0.063887805 0.06751302 0.25379333 0.21097343 0.14215118 0.36623728 0.23880367 -0.022948423 0.21321744 -0.10880677 -0.3946786 0.069434755 0.05420269 -0.15047844 -0.0129215205 -0.18340148 0.14051794 -0.19860417 0.28824517 -0.08124882 -0.035639904 -0.17630088 -0.056795064 -0.14139286 -0.2589986
1130 0.10679548 0.07048285 -0.17173472 0.08369303 0.3332786 0.026200537 0.00517347 0.30419475 0.24888328 -0.044657584 0.122491 -0.1418973 -0.24216713 0.10881053 0.1839823 0.04554097 -0.66092336 0.14085014 0.19131827 0.091394335 0.08537608 -0.14615038 -0.44119504 0.032770246 0.12406281 -0.12065912 0.17813477 0.24102749 0.13456014 0.115044855 0.21211101 0.09087265 0.26604453 0.10273121 0.31920338 -0.048372913 -0.14540681 0.14347625 0.37443376 0.020925988 -0.008910998 0.097458884 0.35056522 0.26947203 -0.07449765 0.17153993 -0.20918861 0.30854172 0.18220335 -0.04028456 0.3339937 0.14294739 0.03983213 -0.47285557 -0.0016066012 0.11638924 0.039997023 0.042608283 -0.2605437 -0.0865232 0.02786778 -0.16940235 -0.029431434 -0.103814095
592 0.02296877 -0.25111714 0.14490615 0.0041784453 0.23951204 -0.07239807 -0.005184275 0.07778851 -0.06821151 0.4293212 -0.09837461 0.08381298 0.103800565 -0.096693516 0.047389954 0.34858346 -0.28148216 0.057641443 -0.12617864 0.15165268 0.15051548 -0.07591396 -0.2702837 0.29454425 -0.18948856 -0.23171775 -0.0038101939 0.23339954 0.20653155 0.1309642 -0.061948553 -0.15943049 0.5870951 0.1455438 0.04856917 0.112077065 -0.011433416 0.31031212 0.12793854 0.0688414 0.10677715 0.12430566 0.16325232 0.11968445 -0.0836102 -0.21068574 -0.15138312 0.38015386 0.17595685 -0.24492273 0.27481726 -0.1009603 -0.18113539 -0.2991751 0.07650505 0.15522423 -0.23697028 -0.00838508 0.09851998 0.017086562 -0.20014367 -0.11256911 0.110089555 -0.2422748
1681 0.18842752 -0.13665824 0.0847936 0.12619907 0.17091992 -0.21150431 -0.14233613 0.61422455 -0.09552096 0.119688556 -0.03139705 -0.087302685 0.008881867 0.04824359 0.10761819 0.27580944 -0.27369246 -0.000265826 0.12780188 0.18482724 0.21469583 -0.019950451 -0.4075919 0.040017277 0.15168369 0.13869561 0.0907921 0.038492117 -0.11752087 0.013067056 -0.11185551 -0.03829354 0.26623642 0.20742534 0.2826331 -0.123098716 -0.11639198 0.12865612 0.05836041 -0.112193696 0.18788959 0.21091811 0.2946289 0.21712881 0.09516929 0.091327436 -0.09094887 0.32387927 -0.3417096 -0.10872041 0.22401415 -0.0359158 -0.15410353 0.065216556 -0.14668716 0.21526499 -0.15579118 0.23852381 -0.23488347 0.013774503 0.047116842 0.103128806 0.00019368023 -0.21484789
1340 0.17628999 -0.02891638 -0.08214673 -0.015061032 0.05644865 -0.032908462 0.047213323 0.35054183 0.16408293 0.3594622 0.31670102 -0.09096865 -0.11076805 0.07906223 -0.22300081 0.17719686 -0.15533248 -0.011515878 0.09369188 0.10920393 0.09426415 -0.018860977 -0.4759822 0.2718439 0.08738103 -0.009263294 -0.11972702 0.3302385 0.024680505 0.0034802135 0.3091068 0.13740006 0.22049056 -0.0008490247 0.24820122 -0.048954863 -0.17651923 0.35810414 0.22908092 -0.0191841 0.09441129 0.110243894 0.038028065 0.16055843 -0.00065235305 0.15972178 0.10311512 0.3011661 -0.14700969 -0.13581567 0.20928763 0.0057021007 -0.38265365 -0.12725197 -0.037976783 0.12020055 0.06270514 0.05841532 0.06566235 -0.09395571 -0.14482258 -0.16273268 -0.009943369 -0.15600286
215 0.043613352 -0.29272488 0.07136269 0.27265465 0.16230579 0.08374086 -0.114121675 0.2638002 0.24153891 0.21104309 0.23640546 0.19593428 -0.034656763 0.049460668 -0.10056074 0.04696804 -0.10482854 0.07773267 0.1876355 0.15809122 0.12885864 -0.14713544 -0.6488128 0.2437154 0.13824591 0.33156082 -0.05953419 0.16616823 -0.006380597 0.023256868 -0.036793258 -0.018942757 0.19518325 0.11290538 0.22982219 -0.09374441 -0.17366672 0.13705918 0.3357026 -0.09601458 -0.019484576 -0.039043196 0.1649032 0.2209381 -0.038364336 0.09454562 0.03305039 0.40792447 0.0510566 0.041583423 0.034007516 -0.16708621 -0.15370142 -0.22179125 -0.094317116 0.0243311 0.038907614 0.17080921 0.034298703 0.015038921 -0.22663966 -0.12607247 0.17759585 -0.29526407
2042 0.21693256 -0.3759456 0.079265185 0.14831728 0.07783273 -0.0854047 -0.08610736 0.19508117 0.10305139 0.09999539 -0.009686581 -0.108479254 -0.13429485 0.1297908 0.034770664 -0.011762873 0.0017958095 0.03669149 0.2824211 0.2821379 0.14711452 0.07513081 -0.28404316 -0.030270355 0.18089332 -0.05308269 -0.2565392 0.35540253 0.029455481 0.07998156 0.13019897 -0.021501785 0.29144305 -0.07720328 -0.032513022 0.026030712 -0.15668139 0.34953743 0.038304344 -0.065440066 0.20531508 0.10049177 0.15042986 0.18970531 0.069373004 0.14954285 -0.03188523 0.23784749 -0.030100165 -0.09772523 0.24020353 -0.11353172 -0.2096381 -0.44263205 0.106887035 0.23243266 0.10859384 0.24258015 -0.2314907 0.251179 -0.04114092 -0.021758351 -0.035936106 -0.2611597
2367 0.13599482 0.03889717 0.015864866 -0.22800641 0.16865273 -0.084447615 -0.15326454 0.23843142 -0.054291043 0.09106384 -0.03824933 -0.06123441 0.035357635 0.1172746 0.06808156 0.13126545 -0.100638434 -0.035797182 0.008167183 0.15640107 0.08959734 -0.14327133 -0.47863576 0.14293914 -0.017139854 0.2132413 -0.033347093 0.11947535 -0.03118129 0.14223295 0.019048871 -0.06420363 0.5868941 -0.019754656 0.17052434 0.2077963 -0.2527995 0.15294279 0.18317904 0.032510143 -0.053277038 0.02616535 0.08093482 0.043015245 0.101194985 0.05068295 -0.29035348 0.4075338 0.10236585 -0.2648226 -0.003686395 0.08126803 -0.20565462 -0.31625754 -0.05528256 0.17083621 -0.3422055 0.00467079 -0.16560912 0.2448982 -0.36269346 -0.13144317 -0.09145193 -0.2325135
775 0.17838714 0.01990332 -0.1694251 0.27930525 -0.032496344 -0.010861442 0.06527735 0.25581858 0.10401285 0.17049062 0.01642692 -0.20134345 -0.012863546 -0.05777566 -0.14279337 0.22931162 -0.21710078 0.20402916 0.34069788 0.27265608 0.171232 -0.1024686 -0.2779246 0.17552002 0.3012705 0.022902735 -0.11078501 0.2014712 -0.04235744 -0.1069333 -0.011185621 0.028154533 0.45664072 0.12343168 0.16054714 0.25172156 0.08222769 0.43848103 0.2255707 -0.02970686 0.10147209 0.24211401 0.23351309 0.0857833 0.020303737 0.024834905 -0.0047191093 0.1854451 -0.0347026 -0.23252635 0.11145774 0.009077242 -0.16889493 -0.28955266 -0.18686508 0.2794106 -0.06664088 -0.020466203 0.2150774 -0.22899292 -0.13589957 -0.023222078 0.16854733 -0.10574795
2009 0.362051 -0.13968213 -0.06577438 0.21540204 0.18853928 -0.14004526 0.029424006 0.13688105 0.23647533 0.22658245 0.12210479 -0.23669375 0.08552992 -0.07840214 0.08536452 0.27050984 -0.10798648 0.31495085 0.20423281 0.36401373 0.120708615 -0.12779447 -0.2911049 0.13360412 0.1308365 0.24559818 0.0053142477 0.16864608 0.21289912 0.23101337 -0.022398863 -0.08769707 0.3223492 0.24919811 0.18789011 0.16583696 -0.10509091 0.39263025 0.1851726 -0.03320826 0.20248747 0.28299993 0.113923654 0.0160197 -0.087002024 0.008668287 -0.22617613 0.20945336 0.017765673 -0.013470527 -0.09041743 0.0422466 -0.11954239 -0.1965032 -0.03774709 0.16260122 0.2555729 0.18208826 -0.19516933 -0.10325847 -0.013539121 -0.23395997 -0.0061348416 -0.10729088
2609 0.2886362 -0.1663023 -0.018571634 0.13378187 0.113729954 -0.09296121 0.04195566 0.20057864 -0.35522342 0.09515805 0.14838839 -0.0311713 -0.044432964 0.025930269 0.08250219 0.19964 -0.20037195 0.25097287 0.30008498 0.29900596 -0.079003 -0.13804665 -0.4227979 0.08509025 0.009449714 -0.0045469534 -0.13635129 0.091944724 0.0036224336 -0.09964741 0.025216 -0.07598746 0.43062925 0.026579339 0.09907414 0.14411643 -0.22737499 0.049516965 0.40818742 -0.20569767 0.1844232 0.08256452 0.24976215 0.2308602 -0.16837882 0.18725492 -0.20380361 0.22828987 -0.025557578 -0.0985257 0.41256502 -0.2213306 0.008442784 -0.18884045 -0.06866269 0.2807371 0.010993105 0.06410753 -0.034403678 -0.024763124 -0.07850129 -0.07645822 0.09650212 -0.11858277
2343 0.28151196 -0.06162091 -0.017505156 -0.0695788 0.17781417 -0.14202072 -0.08250128 0.2444963 0.1773079 0.24686866 0.06732831 -0.027312884 -0.1021991 -0.26298705 -0.04348597 0.1519714 -0.22945425 0.022341425 0.044251915 0.13817428 0.0973754 -0.10001368 -0.46181557 0.20939447 0.078807235 0.042518377 -0.095195085 0.20774597 -0.025114581 0.06094733 0.15156648 -0.12601976 0.30921376 0.31455547 0.13072741 0.21759865 -0.15996838 0.040371306 -0.0076765125 0.13134666 0.16597539 0.24671125 0.21594259 0.2680423 0.2739364 -0.11781014 -0.011314991 0.21418174 0.035829935 -0.010376202 -0.018029906 0.1939888 -0.18662931 -0.40046343 -0.021477755 0.032078266 -0.17407084 0.24643567 -0.1479872 0.024305869 -0.22751145 -0.07156415 -0.056737024 -0.257981
2320 0.002043494 0.07626989 -0.016421864 0.0018325513 -0.009421823 -0.091209985 -0.23114802 0.4915648 -0.17292893 0.06340419 -0.10977588 -0.22327751 0.082801 0.080989055 0.047356337 0.16863231 -0.099693835 0.017519413 0.29392135 0.26556897 0.12096814 -0.23551092 -0.45992085 0.20682646 0.120293565 0.023799287 -0.07875212 0.24532728 0.06630337 0.14553533 0.12284105 -0.1570978 0.24355114 0.16279192 -0.10126123 -0.010645806 -0.06708341 0.4120166 0.3118121 -0.11356187 -0.17087092 0.15780646 0.29404166 0.2289876 -0.036625862 0.11904488 -0.30799446 -0.0037934685 0.08449378 -0.013246343 0.39820924 -0.2631646 -0.25219417 -0.32654214 -0.01647996 -0.13155222 -0.068593435 0.12452946 0.08695105 0.07623621 0.11077793 -0.10962455 0.05496832 -0.33094904
1274 0.12791535 -0.04034741 -0.13507538 0.0077800467 0.12528014 -0.0061038667 -0.17460865 0.1783101 0.024087347 0.15717435 0.026523877 -0.18583842 -0.025083637 -0.14140762 -0.06754548 0.20621055 -0.030524543 0.050343912 0.45840967 0.008342724 0.08139799 -0.10316041 -0.39576536 0.038249765 -0.08613973 -0.0011910324 -0.073665194 0.28171095 0.1451455 0.04770237 0.153632 -0.023312172 0.28071338 0.12446387 0.08024966 -0.00027725252 -0.22366774 0.18319362 0.19000708 -0.06392413 0.08518233 0.18082339 0.0687224 0.30579615 0.024100946 0.0289786 -0.107962266 0.36554143 0.02699872 0.057621427 0.20332041 0.0689312 -0.12512577 -0.0969441 0.009120341 -0.15407057 -0.0048080967 0.022415552 -0.23105392 0.13884959 -0.11267531 -0.24976273 0.03676013 -0.33172572
1575 0.13650146 -0.08437152 -0.15630826 0.017517017 0.07903573 -0.2752585 -0.22481798 0.43930277 0.25387868 0.42653745 0.037772555 0.03546591 -0.12588258 0.04740776 -0.21935442 0.15028735 -0.18560825 0.24011433 0.11634447 0.050704252 0.11995098 -0.022578685 -0.3922209 0.35566613 -0.12628129 0.009222153 0.05262529 0.06694921 -0.044768415 0.06502362 0.13864785 0.0070816907 0.22625692 -0.058033127 0.033098605 0.13617855 0.10692154 0.45729402 0.13572836 -0.08866461 0.16577901 0.1254084 0.09449603 0.4293876 -0.07567034 0.037056018 -0.036625933 0.22819674 -0.016353669 -0.11227493 0.16484796 -0.31160927 -0.29161155 -0.026506571 -0.039509974 0.29261455 0.10065547 0.13000846 -0.13266298 -0.04925395 0.0022691642 -0.0724662 0.04200959 -0.43025166
1608 0.11862083 0.021839367 -0.14402325 -0.0040814755 0.2816991 -0.043182015 -0.1728382 0.26277807 0.055020314 0.23028779 0.17039107 -0.025230957 -0.032588113 0.013289244 -0.1022876 -0.0072644083 -0.37033498 0.14392877 0.23160332 0.23207444 0.017409865 -0.15905422 -0.3527479 0.05644616 0.0067970576 0.0063582323 -0.12897074 0.22340083 -0.030134687 -0.031886987 0.11880433 0.24050777 0.36554244 0.06878076 -0.07743726 0.13192841 -0.22334453 0.1636182 0.23421907 -0.09993932 -0.030253341 0.119475305 0.3039067 0.25357595 -0.014112202 -0.094266586 -0.0047768205 0.34992763 -0.08758852 -0.09015666 0.10598572 -0.08597528 -0.24394503 -0.1630842 0.042744074 -0.08148659 -0.04216323 -0.036954388 -0.01978728 0.04876101 -0.14301443 -0.14129137 -0.14742744 0.0054420037
2693 0.13008967 0.02129383 0.048698302 0.11860626 0.36216608 0.020130778 -0.19266698 0.31887597 0.1450265 0.05301187 -0.20871143 0.045760404 -0.36682644 -0.1828528 -0.0067443536 0.1173942 -0.26028317 0.049064413 0.20506112 0.17644481 0.024340078 0.043994594 -0.5459785 0.27980047 -0.0066444236 0.14690194 -0.103554375 0.2432989 -0.10380557 -0.034152266 -0.05870632 -0.07509173 0.07182174 0.1895989 0.26427233 0.019810721 0.021112613 0.30208486 0.1552038 0.027601145 0.047351476 0.20276946 0.09311012 0.35873502 0.1500282 -0.054649428 -0.15451606 0.19952677 0.13118288 -0.45579436 0.20170866 -0.066008836 -0.32254547 -0.2439594 0.060285464 0.3343387 -0.28985995 0.11359408 0.095954716 0.10265152 -0.09907521 -0.027452497 0.28408182 -0.08214215
14 0.12846178 -0.19029412 -0.11420615 -0.033540517 0.25961354 -0.04102036 -0.3034959 0.11736584 0.22745308 0.14603375 -0.015029729 -0.21870832 -0.13321348 -0.03157892 -0.082961 -0.05382452 -0.16370164 0.08657777 0.032712597 0.4228631 0.176481 -0.060517482 -0.22974452 0.2448529 -0.03993308 0.0039392714 -0.05806201 0.0900826 -0.0636205 -0.030041762 -0.029641137 0.19795382 0.45883936 -0.086554304 -0.034375463 0.026226975 -0.147854 0.2813337 0.05506629 0.095173195 -0.097177796 0.13277403 0.28832334 0.21986485 -0.0007762972 0.11426993 -0.058494233 0.29223987 0.13879022 -0.29118 0.09603092 -0.111690894 -0.18297046 -0.21123047 0.14844516 0.21837369 -0.009852408 0.12660061 -0.16615608 0.12730874 -0.100694716 -0.26296678 -0.025994986 -0.12996045
1741 0.18443763 0.07146205 0.07626369 0.13247147 0.4173239 -0.3037369 -0.07458786 0.2735364 0.13779944 -0.050977506 0.23798257 0.09429034 -0.07066961 -0.10092835 -0.17069298 0.16623114 -0.050037168 0.0650946 0.26493505 0.22166044 0.36796185 -0.028026648 -0.3711779 0.16019438 0.13683279 0.17056374 -0.14306419 0.23350465 -0.15370025 -0.078694955 0.020046864 0.14476316 0.21390814 0.087208465 -0.051519763 0.113064796 0.019590471 0.25578773 0.047399554 0.003032934 0.12938417 0.1552556 0.2664182 0.3205923 0.077498086 -0.006635207 -0.004392067 0.1698767 -0.048663408 0.07578598 0.39681152 0.07445321 -0.058699362 -0.10363588 -0.1608625 0.1708553 -0.115635455 0.26638636 0.072763294 0.19792573 -0.016765997 -0.1393094 -0.058274005 -0.22193138
2542 0.19483715 -0.050787248 0.104824424 -0.050719827 0.107934654 -0.16799077 -0.043229684 0.24357325 0.054389317 0.03926578 0.034960732 -0.041829173 0.03873995 0.19983947 -0.21676418 0.55560046 -0.22031666 -0.1306763 0.31551948 0.23695457 0.13424301 0.034499682 -0.28258497 0.39153242 -0.058711696 -0.0085374005 -0.016040817 0.13636582 0.3236997 -0.14557308 0.0079000415 -0.06525097 0.50129163 0.11663215 0.11594399 -0.057770804 -0.23426484 0.1847591 0.04408822 -0.12110231 0.027818184 0.07974057 0.30702558 0.22544625 0.09728127 -0.049252033 -0.23069416 0.26940423 0.096634015 -0.37773514 0.35888004 -0.022049185 0.04893261 -0.1415373 -0.14877406 0.05823418 0.064318106 0.10104877 0.0035961682 0.034016304 -0.14986446 0.099001154 0.122874744 -0.14769866
2033 0.14055145 -0.20878287 -0.13094488 0.005222594 0.3535038 0.024223203 -0.12641634 0.16869348 0.115514815 0.1475738 0.20651074 -0.20266433 -0.18123984 0.02911732 0.08780837 0.1327281 -0.22294983 0.19587517 0.024757465 0.050858922 0.0856216 0.17145707 -0.18572623 0.2767582 0.065200865 0.016835188 -0.17300265 0.1918874 0.08204625 -0.09197737 0.11854342 0.13803189 0.4135928 0.050305344 -0.0061853616 0.13787808 -0.14645039 0.4785243 -0.054739982 0.026274286 -0.109626815 0.14257428 0.35298082 0.20042245 0.14539073 0.14453053 -0.284168 0.19918574 -0.1269174 -0.1331347 0.25212088 0.017429098 -0.25354725 -0.16345763 -0.16800892 0.21316403 -0.07209686 0.21309343 -0.029835394 -0.05706513 -0.16052268 -0.15102622 -0.030054195 -0.020823361
1321 0.15421528 0.13077237 -0.15247755 0.028955951 0.27196863 -0.14154272 -0.29246843 0.53049725 0.16850723 0.2998464 0.16579196 -0.19919714 -0.09192683 0.121774346 -0.40224624 -0.0077913953 -0.12369604 0.04443587 0.30242836 0.23120736 0.35351697 -0.013901716 -0.23684606 0.22087082 -0.1964001 0.069168754 0.049419098 0.1848105 -0.06692231 0.090804614 0.014944612 0.094283484 0.4363166 0.12235982 0.20917217 -0.028484097 -0.07503629 0.4500833 0.07579735 -0.038341157 -0.195027 0.25742212 0.07546016 0.13531686 0.0529061 -0.008709622 -0.058961466 0.061465304 -0.117776126 -0.2974152 -0.007973372 0.08831492 -0.32871237 -0.10732686 0.06610764 0.3292191 0.11982412 -0.18988235 -0.15565814 0.09911442 0.018738182 0.17392328 -0.14243723 -0.2733517
874 0.33049786 -0.105217345 -0.08467186 0.30925846 0.12058179 0.18451338 -0.048743926 0.30435443 -0.061973523 0.40723288 0.12109096 -0.31670502 -0.056036513 -0.23453082 -0.1452696 0.40581906 -0.17559591 0.004915198 0.31620792 0.3262807 -0.094485834 -0.08727308 -0.41409293 0.17319672 -0.18024051 0.052920345 0.0027513234 0.092788935 0.04221442 0.0013100558 0.23424257 0.01959908 0.2644675 0.20377873 0.20460236 0.28017837 -0.14643875 0.16695082 0.29486492 0.010212573 0.36846578 0.18347606 -0.09312005 0.18693674 0.1847725 -0.18391313 -0.04174691 0.3668139 -0.011664247 -0.13246189 0.11405934 -0.114262775 -0.23317856 -0.16770096 0.1404996 0.1522331 -0.18326977 0.1339413 0.08850043 -0.029209718 0.040089376 -0.108411774 0.109530665 -0.23673761
1942 0.32323197 -0.11000065 -0.21153162 -0.30688182 0.15160522 -0.1967335 -0.22103077 0.089601934 0.02015644 0.14006394 -0.15644006 -0.15128386 -0.13451907 -0.023593033 0.043659218 0.1755473 -0.2207522 0.21798244 0.21070127 0.12427022 0.029853014 0.14521144 -0.35679418 0.04247388 -0.0818669 0.15497525 -0.1168283 0.02874185 0.037895743 -0.16261007 -0.12739599 0.09308136 0.41587317 0.15238616 0.059692413 0.08110665 -0.16913517 0.20067428 0.12720405 -0.240787 0.033206157 0.077018805 0.30580357 0.37540165 0.01278167 0.1748524 -0.24649364 0.036626212 -0.05143527 -0.15506047 0.20044528 -0.29564866 -0.3743581 -0.26823497 -0.023148624 0.3085647 -0.03265068 0.030332372 -0.015336268 -0.024783747 -0.3081244 -0.21286114 -0.017913627 -0.12778
653 0.29330692 -0.31998038 -0.021742892 0.023576843 0.0365579 0.119669326 -0.1482011 0.1514258 0.12316498 0.22118981 -0.1757103 0.066368885 -0.12253411 -0.038658597 0.0706803 0.07361075 -0.3387641 -0.04116419 0.24566953 0.37488988 0.10347579 -0.0718474 -0.2785914 0.02278559 -0.112982996 -0.007708513 -0.0051261913 0.2909396 0.029173445 -0.24146472 0.014406634 -0.22375119 0.3696095 0.30649242 0.04931347 0.024169112 -0.17972104 0.25813496 0.21810265 -0.08619535 -0.052453972 0.21524158 0.15338548 0.25041497 -0.1610449 0.121855415 -0.19405253 0.34365082 -0.015628628 -0.208796 0.2775074 -0.11837474 -0.13659713 -0.16170636 -0.3138698 0.047253057 -0.14595072 0.039061286 0.088697076 0.06883043 -0.06626237 -0.028286953 0.16400865 -0.39460757
1692 0.13383086 -0.24792449 -0.036024492 0.04980444 0.0057105785 -0.042388447 0.072976604 0.37151983 -0.022153648 0.030011173 -0.060870316 0.004096458 -0.24004667 0.08650393 0.1469495 0.15151387 -0.13007496 -0.065947525 0.3449799 0.2295313 0.05740885 0.0604998 -0.31405064 0.13932714 -0.15003666 0.13899595 -0.093015954 0.14045565 0.19921711 0.058109906 0.0012218098 -0.27288356 0.24383116 0.19843508 0.20718491 -0.043081272 -0.21036603 0.288566 0.27480605 -0.25352398 0.0020751907 0.07566186 0.1865986 0.28252238 -0.17339948 0.0698624 -0.2695074 0.24883525 0.16621085 -0.24904321 0.07149214 0.01716024 -0.0373379 -0.14592506 -0.023727173 0.242576 -0.0097278105 0.3187842 -0.04396547 -0.0026443396 -0.33035812 -0.272843 0.16555825 -0.17970622
1708 0.40224734 -0.29220274 -0.035219222 -0.16495198 0.2568555 -0.15254492 -0.0017985591 0.33316976 -0.055018056 0.28652558 -0.039063644 -0.047536727 0.045761455 -0.055050895 -0.03866022 -0.010998191 -0.057714153 0.060395785 0.31387347 0.09890069 -0.16477703 -0.22565225 -0.33468333 -0.0385347 -0.0033532702 0.15435271 -0.12787162 0.3034785 -0.034838676 0.0896763 0.092005216 -0.26050234 0.41536805 0.12841855 0.28304887 -0.03422641 -0.21296398 0.23318005 0.08098056 -0.049519487 -0.11835846 0.23100886 0.21703331 0.3268234 -0.09484702 0.26866555 -0.24649914 0.30590168 -0.14945891 -0.12749808 0.30376554 -0.08467455 -0.15289108 -0.10721847 0.08785313 0.17813465 0.07686681 -0.081252545 -0.15566872 0.16769724 -0.08878739 0.0141063975 -0.24478844 -0.16619852
1310 0.08724665 -0.1296016 0.051678743 -0.13839665 0.1133273 -0.123330325 -0.045624625 0.16629669 0.17151165 0.16885181 -0.14665839 -0.13503034 -0.1580013 0.02638629 -0.117286876 0.0940149 0.077683926 0.1782265 0.10169659 0.19316849 0.049394585 0.09365408 -0.38313952 0.4299055 0.21842088 0.045821406 -0.028734753 0.30492637 0.21896826 -0.05981238 0.11745867 0.018930376 0.20991513 0.08160918 0.21442567 -0.039901473 0.04107133 0.42777693 -0.11342219 0.27496552 0.13836476 0.1526989 0.18780044 0.32850057 -0.06347841 0.11475321 -0.2034296 0.27707916 0.033500258 -0.29495707 0.41734686 0.0068940753 -0.29093426 -0.009349754 -0.20513059 0.24857041 -0.14785966 -0.076835275 -0.10861681 -0.04746372 -0.039910793 -0.06926872 0.021194622 -0.083738305
1004 0.2505904 -0.24406582 -0.010164168 0.24724564 0.22667558 -0.1749508 -0.25309628 0.22817536 -0.11964715 0.033179946 0.019221582 -0.017225202 -0.14689906 0.120604105 0.07385029 0.098299 -0.20319895 0.10690579 0.22963388 0.2543383 0.16236947 0.10144424 -0.35920838 0.13410227 0.16699134 0.2550868 -0.035889734 0.046607908 0.07175687 -0.13607047 -0.010139749 0.10385704 0.31295934 0.056349985 0.0868188 0.14674059 -0.08017387 0.37500587 0.14860763 -0.17698447 -0.18747203 0.0077184904 0.2630473 0.09054291 -0.083379835 0.07532782 -0.07937076 0.19076763 0.13445763 -0.088964514 0.18289383 -0.021610035 -0.04117603 -0.22929908 -0.18221194 -0.12285608 0.18966676 0.19043665 -0.18668264 0.03679453 -0.1257794 -0.02872601 0.06871354 -0.28812018
1997 0.20691432 -0.11881879 -0.28547886 0.025541957 -0.0006053751 0.0334851 0.114208266 0.11468976 0.08560394 0.11899624 0.21420008 0.24783596 -0.15970716 -0.012960203 -0.07538897 0.25449905 -0.12549026 0.1499052 0.23833787 0.33154812 0.12538558 -0.030603344 -0.34268326 0.2100052 0.05007156 0.20148805 -0.10180453 0.22415413 0.13116182 -0.089668095 0.053451434 -0.0011189216 0.52309895 0.07402553 0.040396504 -0.056649804 -0.0509682 0.1389877 0.2595508 -0.04093293 0.17599915 0.13573658 0.31176355 0.20230612 -0.052473005 -0.11380393 -0.042655878 0.02213768 -0.20479807 -0.21500717 0.18491824 0.1998135 -0.4940462 -0.3069257 0.051618002 0.009059091 -0.18068387 -0.16625087 0.13184668 -0.03923236 -0.22783393 -0.19161387 -0.046972696 -0.3518418
1869 0.37083223 0.040624786 0.096103124 0.0907337 0.09547876 0.04180394 -0.2957313 0.35653397 0.23037398 0.15238652 0.12419552 -0.24978332 0.09605864 0.06528377 0.021039097 0.18098527 -0.03843507 -0.111461766 0.36455405 0.35023043 0.14274138 -0.07503011 -0.54990196 -0.016593745 -0.14206108 0.22493428 -0.07598231 0.21650118 0.037665397 -0.050603863 0.29607153 0.025193645 0.19440116 0.16597898 0.100283206 0.008646651 -0.12760022 0.14237455 0.08001761 -0.01927549 0.09533379 0.23226123 0.29542607 0.08693024 0.079557545 0.061929777 -0.15360166 0.26664853 -0.08607427 -0.114364356 -0.0115662925 0.013034304 -0.17098893 -0.08225093 0.1896744 -0.03268099 -0.14416929 0.15063319 -0.058799706 0.21793057 -0.24127412 -0.15805134 0.023079077 -0.05588404
15 0.3049073 -0.01765376 -0.11442187 -0.049337413 0.062556006 -0.12657604 -0.10782 0.3221963 -0.2156153 0.14459628 0.00077638734 -0.09933554 -0.35621876 0.019472593 -0.13785625 0.28534195 -0.083559476 0.23410462 0.25022265 0.10946678 -0.085994035 -0.102486946 -0.4415338 -0.04960991 0.12520368 0.24634676 -0.018734938 0.2716117 0.11438047 -0.028413014 0.022478541 0.06554607 0.48375428 -0.08769156 0.107486494 -0.05785388 -0.46361554 0.20412992 0.14941074 -0.10098517 0.010251139 -0.06963601 0.26481253 0.1212705 -0.0642594 0.058634166 -0.057258055 0.07256211 -0.048883684 -0.22955751 0.14860676 0.03767326 -0.29836494 -0.1677424 0.10512687 0.07646502 -0.0029721623 0.27551955 0.017345952 0.09209913 -0.18701023 0.04239678 -0.27445012 -0.22379892
869 0.14124371 -0.16504647 -0.093177274 0.0049661575 0.2018391 -0.25214317 -0.19723701 0.44644743 0.26006284 0.18693711 0.008687409 -0.12015899 -0.06006084 0.1008631 -0.23102817 0.02031314 -0.2187295 0.13015163 0.36773747 0.06668912 0.10735293 -0.008394623 -0.32277644 0.2667672 -0.06143524 0.1050825 -0.029082812 -0.004725711 -0.06272727 0.03789819 -0.023508191 0.05098109 0.10402635 -0.05361175 0.06828142 0.04211837 -0.19854674 0.18399327 0.18269429 0.06657398 -0.0119729 0.22306493 0.29691428 0.12344562 0.103918366 0.236224 0.023080004 0.48339248 0.024167182 -0.33256033 0.19203806 -0.12008293 -0.022212777 -0.20667407 -0.2123204 0.11364551 0.05319313 0.2202372 -0.0769368 0.0067201112 -0.039375838 -0.026142053 -0.05918705 -0.26044437
2539 -0.06650605 -0.21151215 -0.20075676 -0.14376248 0.25872236 0.0673043 -0.19118564 0.13697839 0.19077015 0.35385698 -0.030152475 -0.34530437 -0.21404089 0.07241819 -0.07981949 0.14752509 -0.293657 0.33728093 0.20864956 0.24645521 0.24443801 -0.07712097 -0.106314346 0.10353808 0.107179336 -0.06593334 -0.027295763 0.10672784 0.104185656 0.08608147 -0.13501914 0.06409172 0.27724195 0.39617085 0.12666509 0.30165136 -0.09150629 0.048493057 0.14109896 0.14034119 0.00042469957 0.20905264 0.3010821 0.35303122 -0.07244659 0.065549135 -0.1877298 0.40368238 0.24720241 -0.13332105 0.18592282 0.04282685 -0.10861551 -0.15413593 -0.03857292 0.16549541 0.011865624 -0.14640796 -0.3098448 -0.1879219 -0.11274116 -0.060386047 -0.1456011 -0.12575047
1445 0.2929697 -0.02542168 -0.17429161 -0.1161927 0.09170865 -0.026937524 0.06883068 0.008452861 0.14050768 0.27070075 -0.14368713 0.070924625 -0.016796114 -0.15114006 -0.1141257 0.1988175 -0.2164475 0.15473208 0.24310549 0.19873914 0.013520683 -0.0023084257 -0.24367443 0.17226328 -0.09031815 0.19570471 -0.13280958 0.22887154 -0.042438366 0.0023452113 -0.029780993 0.17803127 0.40831986 -0.11104876 0.20826773 0.001069457 -0.16530362 0.28286132 0.20498681 -0.19629028 0.06443564 0.21569751 0.1686517 0.25992486 -0.08287407 0.08243238 -0.31976986 0.31304583 0.046564445 -0.22762771 0.07337093 0.05230071 -0.1742413 -0.010613611 -0.11837018 0.24873331 0.11746279 -0.02980577 -0.10436518 -0.12579376 -0.08380296 -0.21560635 -0.02357981 -0.20911482
1673 0.063720345 -0.28599972 0.10750572 0.23796955 0.20208399 0.16297139 -0.12393677 0.20730142 0.051905055 0.28856078 0.107089736 -0.14474072 -0.31756195 -0.07798121 -0.014311845 0.17736898 -0.4034518 0.06421446 0.19697931 0.36015192 0.20496717 0.0037198358 -0.3328334 0.15020637 0.04108934 -0.22565418 -0.003206212 0.06040416 0.20543574 0.069529586 0.091780886 0.05403507 0.47288406 0.10380013 0.2343976 -0.0122342985 -0.02211004 0.26313633 0.2182486 -0.06934833 0.07401211 0.17599376 0.3334638 0.030238517 -0.111054175 0.11321278 -0.13762689 0.26126638 0.04280928 -0.119265765 0.21010473 -0.076997295 -0.12498081 -0.14846666 0.105101146 0.31462285 0.03529131 -0.08606061 -0.07787264 0.124143705 -0.07628251 -0.024306694 0.13132626 -0.05950038
178 0.1123808 -0.061572827 -0.008251699 0.0720077 0.08230765 -0.012954615 -0.13875845 0.5244616 -0.19973853 0.1316855 0.03350858 0.06702766 -0.25159544 -0.026093395 -0.02283462 0.13593774 -0.15706155 0.09001925 0.26495206 0.15196583 0.36810976 0.024561603 -0.41454643 0.18041939 -0.031228123 0.17543106 -0.18186879 0.040844742 -0.12793289 -0.067686014 0.28194448 0.051723406 0.16663955 0.0843221 0.32725435 -0.0035464447 -0.19914368 0.11944408 -0.013475668 -0.16947201 0.044459544 0.10510806 0.13283795 0.15681158 -0.005897534 0.008143881 -0.02465426 0.114002734 -0.059086163 -0.10312762 0.17269441 0.10074258 -0.2806116 -0.3162882 0.018504174 0.20140408 0.19126011 0.21918029 0.014943424 -0.22970347 -0.32452202 -0.16384381 0.12170416 -0.33715448
1348 0.186674 0.13493876 -0.021742374 0.14814943 0.2502374 -0.0072886846 0.08764154 0.19631006 0.029957134 0.20136368 0.42282468 0.01625334 -0.062134217 0.026046488 -0.33610132 0.23190707 -0.228495 0.054250088 0.13713978 0.27100867 0.12077831 -0.13189742 -0.48113388 0.1341566 0.005764937 0.13929564 -0.25112996 0.12682155 -0.05846958 0.036765378 0.00049125915 0.06885125 0.27247643 0.110461205 0.2097039 0.013776102 -0.15514342 -0.019579085 -0.007633182 -0.053152066 0.12574273 0.13650534 0.27293608 0.14941569 -0.09815455 -0.0019262367 -0.1783975 0.26728156 0.007816861 -0.29038608 0.29330504 0.079623826 -0.19662295 0.092114836 0.11196264 0.36052752 -0.24786338 -0.00066784455 0.092047505 -0.102491364 -0.15941153 -0.16222653 0.068313085 -0.38952225
2699 0.27069828 -0.09433797 -0.06689804 0.14684542 0.098621465 -0.037057288 -0.13056527 0.34896898 0.112610735 0.18978095 0.19871336 0.0514486 0.11778595 0.07358127 -0.211847 0.12382833 -0.26814294 -0.039777685 0.23419337 0.1041207 -0.16880402 0.13293184 -0.5930357 0.15015805 0.110614315 0.16902936 -0.030574191 0.14631705 -0.022371467 0.09792517 0.060563937 0.18084306 0.115170226 0.38027006 0.15705518 -0.21016751 0.0042888056 0.1989268 0.11157707 -0.13094759 -0.11097978 0.22939461 0.30783924 0.2825818 -0.12496815 0.13361946 -0.018942537 0.20914117 -0.067282274 -0.21132147 0.29555526 -0.11590883 -0.18274005 -0.056185838 -0.21266824 0.09048202 0.11512198 0.21160205 0.15092292 -0.048705377 -0.062418055 -0.21206741 -0.022699472 -0.23842274
2118 0.3418396 -0.14067328 -0.036085896 -0.0075675882 0.24569216 0.09899989 -0.2503035 0.18906952 0.26682824 0.19084676 0.09779679 -0.26344562 -0.054641288 0.069306016 -0.027286254 0.13105977 -0.14884472 0.2203916 0.10461165 0.076136835 0.080231085 -0.17101802 -0.33289123 -0.0048444723 0.05185119 0.19758302 -0.0486857 0.15692838 0.12440508 0.022737497 -0.015538687 0.05147402 0.3023363 0.23698278 0.09517796 0.17978588 -0.08064045 0.08165383 0.18198745 -0.20309968 0.20739914 0.18378896 0.2569452 0.30266073 -0.19918498 0.2126793 -0.00013153633 0.34827524 -0.17569692 -0.08531824 0.043028887 -0.10125985 -0.21436298 -0.024656551 -0.022639742 0.12820847 -0.2901424 0.006789356 0.15945458 -0.08515573 -0.30201986 -0.27774116 -0.04777588 -0.32963017
2028 -0.029236346 -0.056513816 -0.028179873 0.057865705 0.18180633 -0.037909918 -0.011672407 0.20976956 0.20721099 0.24617593 0.15874936 -0.021452542 0.07968411 0.08278501 -0.17189394 0.08415232 -0.15831675 0.07046342 0.1811982 0.26778284 0.16407463 -0.19404438 -0.42415583 0.037270345 -0.23628289 0.05258157 -0.061891515 0.18792789 0.17455979 -0.017887322 -0.062483475 -0.14374143 0.16710748 0.036636133 0.22898059 0.075084925 -0.33353645 0.102135316 0.16702873 -0.074642 0.01715223 0.17405534 0.41164026 0.27808988 0.14629549 0.24783346 0.06138077 0.3264076 0.2073831 -0.11268235 0.19298752 0.06360326 -0.10951019 -0.2595286 -0.09745603 0.036337994 -0.04397662 0.17312965 -0.14917435 0.11316764 0.059520554 -0.14561057 -0.011549662 -0.074230365
1392 0.09154888 -0.007160991 -0.15759794 0.22176398 0.08915535 -0.0368325 -0.037461184 0.23692347 0.088897 0.18161276 0.17099254 -0.18331766 -0.117804095 0.024997583 -0.06775217 0.027510146 -0.40944397 -0.033683185 0.116325565 0.41926295 0.21770519 -0.04139639 -0.52236384 0.075192995 -0.06925405 -0.03003684 0.14717063 0.21954416 0.11964867 -0.06844646 0.02935327 -0.0055213557 0.15092172 0.15342633 0.10149037 0.11243598 -0.12696503 0.20906809 0.24248965 -0.07260912 0.009494204 0.25069523 0.27074862 0.14442052 -0.017421605 0.18546343 -0.10939714 0.26431423 0.1955222 -0.15695257 0.2647019 -0.06733217 -0.12414358 -0.16896376 0.07022149 -0.05187106 -0.008643814 0.14363912 -0.33163795 0.15432853 0.0793392 -0.011995165 -0.09371245 -0.075527996
1315 0.16824478 -0.11630935 -0.1325999 0.037857905 -0.0549873 -0.19474629 -0.047383893 0.2999447 -0.18920633 0.29420188 0.19649318 -0.13033435 -0.06217179 0.15743415 -0.25345275 0.22104195 0.09864301 0.07092067 0.24023251 0.16608453 -0.1428407 -0.04628048 -0.4731311 0.43845943 0.1745944 0.24980418 -0.15798122 0.19438449 0.08310161 0.20283447 0.09831642 -0.10667531 0.35997996 0.022482026 0.23846379 0.028033588 -0.16408618 0.27529475 0.0037520078 0.12948757 0.026957752 0.10602719 0.20061705 0.29057366 -0.06050653 0.16591631 -0.24193627 -0.0667825 0.07276627 -0.14819919 0.21955262 0.03614107 -0.038814675 -0.23669602 -0.22020684 0.24730062 0.038745165 0.26864192 -0.058210615 -0.19796231 -0.26658595 0.034353428 0.066269405 -0.14310421
846 0.101904266 -0.2443867 -0.183371 -0.0048088827 0.068530515 0.008386746 -0.045802608 0.060240563 0.058626316 0.105869025 0.087931655 0.11471224 -0.13106811 -0.14743085 -0.058347788 0.21931882 -0.08726317 -0.053805746 0.36068633 0.13184354 -0.059693452 -0.15222116 -0.73432827 0.0766957 -0.1654352 0.33381367 -0.07233877 0.18646224 -0.071303606 -0.04664812 0.10094177 0.05172316 0.07393491 0.21842311 -0.058866248 -0.08774132 -0.03586331 0.13114126 0.1009917 0.009881806 -0.059628412 0.24350266 0.53013563 0.4032327 0.09065435 0.24299267 -0.054772526 0.0019278616 0.0042857905 -0.10551963 0.36007544 0.06331955 -0.18778174 0.033311974 -0.13317357 -0.0010575445 -0.122081615 -0.0658959 0.1339094 0.15864001 0.120498665 -0.17211594 0.245983 -0.27928615
766 0.10941767 -0.045675375 -0.035993427 0.084340185 0.21568981 0.057262797 -0.14211668 0.19928297 -0.066219784 0.12278503 -0.0070858854 0.023161747 -0.18162948 0.1526584 0.19502933 0.08371314 0.015839165 0.053869914 -0.04409582 0.20339845 0.05873217 -0.21167007 -0.6031292 0.115550086 0.1541869 0.060277123 0.13294117 0.19520912 -0.16238095 -0.30424082 0.25294712 0.04968536 0.32203647 0.074104056 0.10820264 0.09470123 0.01201962 0.24508688 0.17004178 0.11459926 0.023281438 0.13067824 0.17454605 0.2775282 -0.07565301 -0.009284944 -0.17156352 0.33040205 -0.16616254 -0.25151813 0.29419142 0.06306418 -0.30638534 -0.05804287 -0.050236367 0.057268143 -0.049115118 0.05085284 0.054356135 -0.1796047 -0.10783874 -0.26616633 -0.12553744 -0.32688105
2064 0.2687503 -0.05588834 -0.015457115 0.13514291 0.019799208 0.017723156 -0.21708532 0.36226416 0.25674096 0.2735873 0.0138949985 0.10572584 -0.07520817 0.109682895 -0.09928204 0.0645494 -0.10248266 0.13044539 0.19576141 0.27997977 0.17270899 0.10805 -0.42217508 0.007044169 -0.20384808 0.055273972 -0.04969121 0.068067744 -0.10982948 -0.018061664 0.13519236 0.04253423 0.0891592 0.41832134 0.1348491 0.26521698 0.081313014 0.18936293 0.15830356 -0.07038814 0.2052102 0.13491024 0.35162628 0.25790408 0.052890953 -0.12788686 0.054356378 0.2752931 0.15351266 -0.36172795 0.26950675 -0.23770052 -0.20769152 -0.19543648 -0.048442107 0.20613386 -0.15331244 -0.0605558 -0.069934316 -0.029581986 -0.22829898 -0.09087401 0.19290228 -0.28286687
2552 0.14460528 0.011294983 0.1437679 0.07985543 0.2254762 -0.15004355 -0.026617901 0.25125772 0.37342882 0.24037659 -0.16768882 0.10079272 -0.051864196 -0.13471924 0.08598543 0.178089 -0.22530073 0.09604266 0.1706635 0.12941708 0.12690587 -0.19134249 -0.46093562 0.116104744 -0.032977246 0.3182271 -0.025767 0.36046237 -0.1636802 0.12970847 -0.013684245 -0.029483052 0.046444785 0.0027143916 0.1935009 0.02823928 -0.052611426 0.22642666 -0.10778491 -0.051495645 0.02989235 0.17267226 0.113365434 0.34017214 0.20676965 -0.11493133 -0.40251663 0.21490778 0.14588839 -0.2674268 0.20567125 0.067147955 -0.36987746 -0.051710974 -0.067537315 0.15909179 -0.032403518 0.30188763 0.017293885 -0.047041275 -0.12600416 -0.17292506 -0.19605714 -0.18228254
821 0.2972918 -0.15206248 -0.008390343 -0.23622344 -0.014147285 -0.08099596 -0.30227685 0.095123954 0.041239686 0.114825726 0.061043147 -0.12056366 -0.012341379 0.0335858 0.053885203 0.27511442 -0.22297142 0.10567263 0.19905756 0.27390888 0.0071247295 0.042548094 -0.41793987 0.19290581 0.0041775354 0.21760735 0.035516605 0.09093313 0.062192235 -0.026710534 0.109652825 0.1112692 0.26263484 -0.13704295 0.11033363 0.13863091 -0.0672477 0.5790869 -0.0033914307 0.06987227 0.1591732 0.26492003 0.21520448 0.20975415 -0.055395268 0.06773774 -0.21430467 0.21995188 0.08069461 -0.09774194 0.08088955 -0.305513 -0.13017029 -0.2567417 -0.098989636 0.20613925 -0.0057093184 0.02334086 -0.0554166 -0.12304392 0.1691907 -0.19994 0.10885487 -0.17645109
2559 0.27717537 -0.120116316 -0.0064443853 0.098044336 0.22819847 0.16286914 0.04162915 0.4067175 0.1440603 0.23242696 0.297181 -0.27043942 -0.075636365 -0.1016197 0.091324374 0.124062926 -0.21216659 0.04407993 0.3672302 0.33490223 0.07875993 0.13355556 -0.36150026 0.3089459 0.2180398 0.11173668 -0.4231046 0.12535262 -0.0025969183 0.02496251 0.25459293 0.15305792 0.23207995 0.009333683 0.1598726 -0.13605472 -0.044730794 0.38720852 0.12182192 -0.045786157 0.27156296 0.10515572 0.1615863 0.13965146 -0.014710523 0.0348476 -0.16140874 0.1628313 0.005724204 -0.23733683 -0.3080876 0.007960574 -0.10852303 -0.20156787 -0.046848226 0.199111 -0.09693289 0.11430559 -0.058566924 0.2119907 -0.16491783 -0.011187975 0.2747755 -0.05618466
1175 0.28808737 0.16539459 -0.14786915 0.0591285 0.25555214 0.102614455 -0.15080006 0.106198356 0.07238861 0.38519418 0.2694245 0.1550797 -0.2792174 0.00015959138 0.075005084 0.11066576 -0.14704336 0.06836362 -0.12091456 0.21874501 0.0868482 0.17637174 -0.39653692 0.22913755 0.045096282 0.1806099 -0.05521248 0.36046886 0.01952484 -0.033085067 0.26357728 0.042861752 0.30588675 0.107608974 0.14271218 0.080233976 -0.2777976 0.0039051962 0.33775926 -0.052143697 0.014715897 0.038688518 0.25571486 0.20308699 -0.0947365 -0.239855 -0.04135719 0.1380083 -0.087280296 -0.2410774 0.02583966 -0.0049688527 -0.29998723 -0.21739271 0.025833897 0.1411979 -0.024592252 0.2122051 -0.05538879 0.03218829 -0.24416934 -0.23689422 0.07526893 -0.15582624
169 0.17735565 -0.0073146927 0.031316195 0.14861149 0.102530725 -0.13757938 0.10277417 -0.017383434 -0.028326249 0.15408862 0.055620003 -0.030894093 -0.18655583 -0.029907018 -0.018342732 0.105171435 -0.27264503 -0.076357625 0.2693553 0.15247414 0.0013385538 0.08069395 -0.36870676 0.14654532 -0.018417008 0.20339638 -0.19382815 0.29286024 0.047388237 0.023352645 0.0741261 0.114860676 0.25123054 0.28548297 0.12276401 0.27678934 -0.3565718 0.25198948 0.091267854 0.017851284 0.07373665 0.2006703 0.25085297 0.08956494 -0.031760573 -0.21755539 -0.15957355 0.4178232 -0.012893981 -0.27058956 0.21494636 -0.09729051 -0.17369872 -0.09012075 -0.008534466 0.22492668 -0.036639623 0.13801794 -0.0017947928 0.20430665 -0.22784132 0.00546014 0.09748449 -0.044143535
894 0.25611088 0.08809532 -0.10381576 -0.008930265 0.16296895 -0.09768629 -0.1458868 0.29017466 -0.005854776 0.0037550065 -0.10769733 0.19884601 -0.14417233 0.012743047 -0.2885853 0.23582739 -0.106650874 0.18761481 0.14732325 0.06687523 0.14527507 0.15660924 -0.36346164 0.25522572 -0.014971113 0.27811146 -0.08590139 0.13238697 -0.08211241 -0.0022174267 -0.1200197 0.13028409 0.4436751 0.060005292 0.01783332 0.104787 -0.14876749 0.049113315 0.21178636 -0.19109939 0.10353553 -0.0070417547 0.24839333 0.3717847 0.01794899 0.07719768 -0.18125814 0.32370934 0.05814768 -0.030448506 0.30976188 -0.02331059 -0.18220295 -0.19866227 -0.28289494 0.24090335 -0.03761263 0.06703967 -0.05540832 0.18891571 -0.1915385 -0.24568503 -0.0925003 -0.15016992
1697 0.267877 -0.3504324 -0.047754463 0.037561037 0.27137938 -0.06298821 -0.2295328 0.2235058 0.2676961 0.38635543 0.035063636 -0.07030472 -0.016816538 -0.038346525 -0.10523535 0.34977528 -0.047485765 0.06741553 0.15049914 0.20580988 0.13295126 -0.065257266 -0.42960748 0.14253321 0.024394702 0.24801834 -0.1618931 -0.0068929647 0.14010157 -0.0808785 0.11887355 -0.0029144431 0.25350025 0.20467478 0.07947585 0.14573725 -0.30021852 0.30295646 0.24031699 -0.0682454 0.04783166 0.114291176 0.25445965 0.15464446 0.017990908 0.11915213 -0.17416327 0.004534179 -0.1307116 0.027827807 0.18520993 -0.34975004 -0.3141915 0.030671725 -0.040910583 0.038829733 -0.0820245 0.081912816 -0.06824962 -0.005211419 -0.032814894 -0.03511906 0.03970802 -0.19492817
1132 0.096364014 -0.10913035 0.02235698 0.054204367 0.058293782 0.006424235 -0.016940432 0.30438507 0.1650422 0.24545008 0.10829738 0.08010301 -0.02383796 0.07110367 0.08769726 0.18173264 -0.13623098 0.23417796 0.4279047 0.13492142 0.06967439 -0.13457267 -0.18417107 0.20594555 -0.24229364 0.12896413 -0.26258415 0.17379653 0.09301757 0.02288058 -0.08754291 -0.21651551 0.40852615 -0.055705346 0.26220477 0.057759292 -0.23683488 0.14912198 0.10846704 0.029075723 0.12789978 0.24595708 0.1619501 0.22810128 0.061754253 0.015740156 -0.1116538 0.23148748 -0.024706075 -0.1965477 0.2532993 0.036019526 -0.16822356 -0.39010313 -0.073388554 -0.15271403 -0.09526777 0.108978994 -0.040689565 0.20159024 -0.14591922 -0.3647216 -0.24133156 -0.2342037
1131 0.14616469 0.018025257 -0.04326531 0.21322414 0.329367 0.12021736 0.12250243 0.13096252 -0.045041822 0.013674792 0.16564897 -0.043251764 -0.081950724 -0.059921946 0.013358908 0.20488895 -0.108017206 0.16455036 0.25494376 0.21838047 0.2336713 -0.14714977 -0.46495676 -0.081456974 -0.029288748 0.14160948 -0.19712587 0.06951905 0.08382407 -0.25380805 -0.092747375 -0.07645581 0.22925456 0.22473353 0.21194924 -0.07327813 -0.18651086 0.45419523 0.05075539 0.024445754 -0.090666965 -0.036749676 0.1251913 0.52398694 0.09430663 -0.008779226 -0.00040677967 0.124099076 0.028638609 -0.15153328 0.10282176 0.17180674 -0.24694005 -0.22075719 -0.0322023 0.41443935 0.16191317 0.0008885976 -0.16063492 0.1279945 0.000419044 -0.19860874 -0.015043808 -0.3187082
765 0.09281276 -0.07812534 0.024771774 0.024894617 0.04631743 -0.04172276 -0.4417009 0.26978076 -0.010089819 0.074252285 0.10309779 0.060790055 -0.14225294 -0.058456272 -0.035523854 0.065782234 -0.16462035 -0.09891159 -0.09058098 0.1421773 0.26030332 -0.09367546 -0.6678349 0.102335 0.033162672 0.010298344 0.08122668 -0.04087609 0.16952829 0.00012355817 0.14053299 -0.071532175 0.51103646 0.22292984 0.036984224 -0.058396038 -0.09501025 0.3266531 -0.0023051747 -0.001271094 0.10589269 0.07498647 0.42518473 0.3805962 0.1489385 -0.029220412 0.18893106 0.17452717 -0.073252715 -0.10483678 0.13630183 -0.055226445 -0.10909046 -0.24588805 -0.11978745 0.11571866 -0.116194785 0.115807936 0.0052561276 0.0034265672 -0.32636732 -0.07146675 0.09651688 -0.30612028
2204 0.1854933 -0.06650959 -0.07446844 0.11443174 0.30466485 -0.040192477 -0.14559323 0.3709126 0.21707495 0.28535786 0.07480736 0.112525254 -0.071771845 0.051401086 0.103706434 0.08847903 0.023869278 0.15594071 0.10860579 0.08665633 0.033859164 0.05249073 -0.2257883 0.45005456 0.01943708 0.03391176 -0.22970998 0.2033368 -0.023114115 0.044218313 -0.035617962 0.15152459 0.42975998 -0.0004721696 0.17826724 -0.012118925 -0.26419342 0.27073294 0.23360541 -0.07019033 -0.121581204 0.25390866 0.26444262 0.3667217 0.107637174 -0.017451003 -0.017094037 0.4892043 -0.19641775 -0.0886468 0.0010882143 -0.07338869 -0.10554973 -0.04832566 0.08345549 -0.040248614 -0.12052639 0.12960048 -0.0016682204 0.13407463 -0.003924394 -0.08159891 -0.11484456 -0.21744138
2425 0.09239105 -0.12169076 0.038832027 0.26471126 0.15215783 0.039014038 -0.057574004 0.24880762 0.2812816 0.30767038 -0.071806274 -0.053184167 -0.01917316 -0.009989095 -0.060781177 0.36837158 -0.03306899 -0.0323216 0.194982 0.14944176 0.19182205 -0.013883353 -0.45033747 0.14876941 0.06311204 0.09714256 -0.09316628 0.30232826 0.14815544 -0.008360963 0.074089915 0.1072778 0.083230205 0.086852565 0.17326711 0.0038774584 0.0017583461 0.2563953 0.2932532 0.07814045 -0.0069396524 0.15043138 0.15155314 0.20735763 0.024950288 0.26896793 -0.08815462 0.21180561 0.042765837 -0.10282228 0.2940668 0.043028183 -0.3776033 -0.117882855 0.053397425 -0.001795082 0.011527466 0.20820741 0.0047946437 0.066543415 -0.14853553 -0.24408141 -0.119439766 -0.07449897
2191 0.15539667 -0.1177846 -0.098224506 0.14683603 0.22411051 0.08159643 -0.13935263 0.33727312 0.14989091 0.33015528 0.02489854 0.044437975 -0.021902101 0.15069039 -0.031287495 0.26042673 -0.1102867 0.18888643 0.39697772 0.08888262 0.10017916 0.10247494 -0.446247 0.090584755 -0.025011411 0.17221865 -0.0871382 0.25882077 -0.008838796 -0.2146483 0.15114473 0.018703587 0.23232785 0.20009956 0.054255642 0.026466295 -0.0047737635 0.16148844 0.21058778 0.03585538 0.057009332 0.058336142 0.29179573 0.34416956 0.025454056 -0.045927197 -0.100286104 0.24366236 0.020619186 -0.2243077 0.16867083 0.037151795 -0.21293254 -0.0776242 0.07704124 -0.026974395 -0.011937357 0.026453666 -0.0819754 -0.021172298 -0.17030287 -0.036998954 -0.029709265 -0.16941848
1728 -0.0024588932 -0.13882199 0.0018588176 0.08706477 0.124817744 -0.0057671433 -0.11767432 0.23968393 0.13173716 0.11384864 -0.050687708 -0.08583031 -0.054129496 0.05472589 0.0089906305 -0.044028852 -0.29567996 0.06259511 0.27256364 0.1745631 -0.041695397 -0.28240386 -0.5588545 0.028206294 0.03894096 0.031942878 -0.008629856 0.2977067 0.19036189 0.1097033 -0.035132095 -0.006586764 0.44950822 0.10711373 0.115763605 -0.04556907 -0.21151976 0.38439754 0.08066906 -0.17182265 0.08996263 0.17886068 0.32460463 0.19702475 -0.042276796 0.14641023 -0.3004803 0.36478394 0.030381141 0.026939534 0.287011 -0.21912713 -0.15904444 -0.09271041 0.078414604 0.12916069 0.0037711528 0.1779368 0.0064812563 0.051092412 0.010481972 -0.11295958 -0.17384449 -0.19694084
1002 0.17245454 -0.07866906 0.0004638623 0.0039879493 0.052378517 -0.05029566 -0.20681939 0.06560485 -0.0067681773 0.1799259 -0.059885804 0.14496376 -0.025032759 0.055217568 -0.062107258 0.038464498 -0.23754455 0.0011120246 0.16152026 0.036813855 0.061216846 -0.05497279 -0.31999978 -0.033745907 0.24830058 0.1610704 -0.06341185 0.32076555 0.0970855 -0.030977415 -0.02623585 0.3443278 0.44392934 0.10111587 0.06419055 0.17452075 -0.14017262 0.33140138 0.050558187 -0.2152253 -0.24141078 0.082743675 0.32958606 0.19983608 0.09800135 0.14929569 -0.23988612 0.19680786 0.23474889 -0.3122184 0.2824028 0.024611626 -0.2601009 -0.19688983 0.03333999 0.2608554 -0.018323738 -0.01875769 -0.08042023 -0.045751795 -0.15194054 -0.25117955 -0.07008789 -0.32546613
1861 0.12373935 -0.18890256 -0.06346413 -0.09178326 0.19347107 0.033336207 -0.24925327 0.1477387 -0.015018454 0.22232811 0.008632862 -0.1912074 -0.042096555 -0.02280856 -0.0010323902 0.17140897 -0.2373781 0.0363847 0.27840567 0.04506317 -0.030771311 -0.086224735 -0.34637398 0.28273487 0.015286758 0.16948712 -0.004227642 -0.043622408 0.012194508 0.0931028 0.06406871 -0.047905676 0.39430213 0.21731652 0.15366615 0.19951335 0.0036009278 0.37891847 0.28963438 0.122616686 0.17013349 0.17068031 0.2976269 0.2291396 -0.14312144 0.03862761 -0.056595623 0.18280604 -0.1273186 -0.063223734 -0.051781487 0.01859035 -0.26973805 -0.33667564 0.07484628 0.21199448 -0.0840776 -0.052539293 0.041829426 0.13528259 -0.01438602 0.04989529 -0.011183038 -0.3634203
2566 0.35925564 -0.22416331 0.23538972 0.1688601 0.30631426 -0.04436497 -0.22628124 0.3860966 -0.25389528 0.2757067 0.119050466 -0.02363538 0.06940132 -0.09317047 -0.12342345 0.18269469 0.0076588877 0.015589733 0.22689162 0.2275037 0.10713268 -0.10406385 -0.37779257 0.015646968 -0.047502235 0.09306081 -0.23843475 0.24432823 0.14361005 0.022561356 0.21838513 0.11546327 0.25374636 -0.0475494 0.017519573 0.091225475 -0.18382423 0.02519407 -0.06638363 -0.002801082 -0.16178429 -0.043753486 0.21456742 0.2293465 0.3940191 -0.0133598 -0.20920956 0.18015157 0.12759557 -0.0022553406 0.23407495 0.08269571 -0.032374296 -0.23173718 -0.10217575 -0.119506486 0.00645034 0.14244288 -0.15759733 -0.15629789 -0.1905197 -0.113264605 0.09622878 -0.37753898
866 0.28688133 -0.101763785 0.08177895 0.41303492 0.027145801 -0.07508641 0.11298813 0.31166443 0.013332753 0.24005656 -0.015944097 -0.10148911 -0.21255778 -0.06150569 -0.15639548 0.38214868 -0.18373057 0.049005046 0.32591468 0.2505531 0.112425 0.1389038 -0.3247714 0.32507914 -0.016714877 0.1875044 -0.1531383 0.21603103 0.16041343 0.10485591 0.06719362 -0.05570191 0.21942148 0.39620873 0.11783862 0.050812453 -0.12747882 0.013958715 0.017034182 0.14172089 0.06265843 0.052656792 0.2245382 0.23643206 0.030294204 0.007179887 -0.12723702 0.22174276 0.10303804 -0.119575895 0.2939888 0.032683406 -0.065615565 -0.026411474 -0.026760042 0.13378358 0.12912063 0.14883848 -0.017232267 0.21437165 -0.17027642 -0.20383129 -0.028677246 -0.02643052
1815 0.17561437 -0.14965914 -0.015971085 -0.06622559 0.090199344 -0.017520128 0.023685472 0.11956935 -0.01156818 0.15801516 0.0700211 -0.062755786 -0.19988678 0.04762801 0.09707319 0.025776278 -0.2167933 -0.06371512 0.18946955 0.20162927 0.22465123 0.017384874 -0.37122798 0.07363299 0.22556835 0.25102106 -0.21761774 0.16695672 -0.013781201 -0.076746754 -0.04564005 0.043970633 0.31963086 0.33760765 0.20493077 0.13602568 -0.22854204 0.33308756 0.23376372 0.093163095 0.13894069 0.13459377 0.29267398 0.15178594 -0.034098245 0.15894201 -0.13892543 0.12753268 0.05066997 -0.20606008 0.025614472 0.13336146 -0.12686111 -0.295995 -0.07036996 0.29302981 0.055182394 -0.1315144 -0.32578823 -0.047520787 -0.065833345 -0.025586726 -0.020362232 -0.29636616
2077 0.23578566 -0.15496148 -0.14186312 0.0012515889 0.25988162 -0.12571451 -0.091828234 0.25902197 0.029773202 0.2283892 -0.015229768 -0.16562276 -0.35157004 -0.13465512 -0.14283805 0.13674797 -0.29545516 0.20591013 0.21768087 0.20379321 -0.0198064 -0.055490397 -0.36364368 0.122818746 -0.06935516 0.109401144 0.111463614 0.049518142 -0.24636202 0.035654835 -0.033482786 -0.035026617 0.1676895 0.25271752 0.014253358 0.11230836 -0.12966082 0.21286671 0.22402392 0.0050897724 0.08241184 0.032180987 0.304995 0.18811809 -0.03626432 0.007903582 -0.4656298 0.037048664 0.12110669 -0.3152804 0.2455631 0.079608254 -0.09016236 0.079025075 -0.11547353 0.086679734 -0.1353725 0.2012689 0.066305056 -0.2904156 -0.23308834 -0.07717679 -0.13121279 -0.050344847
2595 0.24429731 -0.038852718 -0.22353886 -0.0395607 0.11316834 -0.040489096 -0.2364581 0.23260957 0.0073406296 0.30975306 0.25340325 0.05723152 -0.10104838 0.10347249 0.02843371 0.2739151 0.027084172 0.22424452 0.15625508 0.1798095 0.08620461 0.09274065 -0.29736444 0.06866896 -0.042964667 0.2135941 -0.027307892 0.24134283 0.00013780121 0.037440103 0.18585433 -0.06668031 0.045526993 -0.011800361 -0.09064162 -0.0754616 -0.20131537 0.37959617 0.29583666 -0.14189376 0.017182712 -0.009625615 0.5835258 0.356185 -0.061475284 0.14624633 -0.12208005 0.1342139 0.06101751 -0.036391642 0.14787099 0.18703397 -0.21106142 -0.12178541 0.10702552 0.19255698 0.03036828 0.092138834 -0.0008652973 -0.13078733 -0.0794037 -0.17328505 0.19156797 -0.22226919
1277 0.10716206 -0.116953075 -0.19375564 0.29016763 0.124962516 -0.117273524 0.025298074 0.286494 0.33167762 0.1637528 -0.066908404 -0.09922347 -0.20857409 0.03700496 -0.0030208044 0.23653689 -0.1166763 0.1867676 0.06731112 0.3735524 0.03921305 -0.06970592 -0.15792014 -0.020352248 -0.098862864 0.11637334 -0.09469875 0.22345535 -0.14772499 -0.06331146 0.06858449 0.1415615 0.30504465 -0.14977984 0.3048781 0.26022524 -0.37612027 0.21733803 0.20498367 -0.28369254 0.04893407 0.20000926 0.32320926 0.16761246 0.23446654 0.02635712 -0.035225634 0.12616691 -0.14755543 -0.12965281 0.28861472 -0.15996242 -0.28170744 -0.24587402 -0.059769284 0.17377567 0.021843027 0.2273923 0.23591603 0.1615799 -0.14079227 -0.10494683 -0.082073666 -0.23660095
1558 0.29641718 -0.06922568 0.008922001 -0.042910505 0.42437547 -0.11612384 -0.0018741185 0.2082749 0.04787761 -0.03900622 -0.0839352 -0.20506029 -0.12327287 0.06116786 0.026962645 0.018810106 -0.18131633 0.3072729 0.16248369 0.19521485 0.013996004 -0.17257912 -0.6108632 0.11943627 0.17835663 0.28884575 -0.06302142 0.29244748 0.05181001 -0.009606812 -0.05975133 -0.18677706 0.5153538 0.14963937 0.23785953 0.12784907 -0.27066717 -0.026229933 0.08624781 0.1473697 0.13393804 0.054916333 0.052542873 0.2378599 0.021356871 0.0067194887 -0.05326695 0.40125585 6.319657e-05 -0.29938605 0.14443246 -0.033548094 -0.2142738 -0.25979272 -0.0015274176 0.17583095 -0.29675817 0.047086086 -0.04328822 0.030522352 -0.24817577 -0.039882705 0.0126813175 -0.054343358
875 0.17371574 -0.090107374 -0.1463196 -0.084022194 0.337102 0.044693887 -0.07800302 0.29561624 0.17498317 0.35093912 0.07539779 0.024840748 0.008567303 0.061591845 0.07261061 0.097284846 -0.23980862 0.22283807 0.43474865 -0.016232844 0.085357755 -0.07501871 -0.26661405 0.16314653 -0.09275764 -0.13709715 -0.16550648 0.121327765 0.02423757 0.0703765 0.13146274 0.16358477 0.43558025 -0.0009521947 0.052888166 0.02006162 -0.11557819 0.22090049 0.24610397 -0.0042578764 -0.07549974 0.18552701 0.36462665 0.24405049 -0.17089482 0.0949797 -0.22678347 0.40362018 0.005570652 -0.18730977 0.099309415 -0.0031260871 0.018401064 -0.22455615 0.029125554 0.074940264 0.07339912 0.0073079085 -0.20749705 -0.2780903 -0.18437363 -0.20606007 0.1460223 0.0876403
401 0.25684384 0.08358849 -0.1316923 -0.0132667655 0.34521082 -0.11117696 -0.25986752 0.08771058 -0.051018473 0.30527985 -0.15427199 -0.0033172623 -0.12412967 -0.08801928 -0.3179309 0.058263417 0.013203658 0.1557777 0.2179589 0.06898198 0.14210783 -0.0056971386 -0.33627126 0.18154931 -0.050047517 0.08127767 0.16901058 0.26764843 0.053111497 -0.27256802 0.18239953 0.12903304 0.59739715 0.11880055 -0.04404219 0.13840291 -0.057828497 0.25402558 0.15385117 -0.023567157 0.10536246 0.2569225 0.12864807 0.1759185 -0.23783362 0.03347262 0.02638367 0.3655322 -0.113813914 -0.20558384 0.2684213 0.039334565 -0.016434047 -0.16698852 -0.38313854 -0.031779565 -0.059091542 0.04035431 0.10959241 0.091252245 -0.079108216 -0.098121576 0.07036318 -0.051131852
1816 0.20332436 0.07545871 -0.109586455 0.2692841 0.18692015 -0.14091837 -0.14989196 0.24198885 0.10853525 0.12861979 0.08338032 0.10870071 0.10743666 0.1427273 0.03178561 0.00054935284 -0.15657558 -0.008265611 0.21724339 0.37031078 0.08236444 0.041583218 -0.43617964 0.15199836 -0.34779778 0.0066829203 -0.0755851 0.22024573 0.31363645 0.106816344 0.016609933 -0.033290006 0.11453189 0.2568907 0.22307055 0.060597118 -0.0048069246 0.12816659 -0.028040921 0.066726714 0.08345329 0.26689792 0.30940217 0.14937268 0.05961068 0.0022536444 0.12728743 0.2010362 -0.24665293 -0.1425367 0.22473715 0.09114288 -0.31025395 -0.16586323 -0.13108191 0.04156346 -0.15315893 0.3145661 0.020877553 0.140774 -0.09698965 0.0033337239 -0.04833862 -0.41687125
770 0.0932712 0.08373343 0.01740786 -0.16475192 0.13363805 0.12190629 -0.10956611 0.3211893 -0.16418283 0.13113184 0.15154606 -0.04226281 -0.13441046 -0.042484 -0.26131064 0.19684793 -0.47962826 -0.1934122 0.013136658 0.26658845 0.14163151 0.17895281 -0.29438663 0.11920769 0.050367486 -0.15798666 -0.22924562 0.57238406 -0.03166316 -0.09536353 0.3110549 0.14197384 0.41853204 0.3007546 0.02639593 0.012820452 -0.0986159 0.26759687 0.14417392 -0.03770286 0.14793183 0.17329307 0.111229055 0.14561468 -0.017652452 0.1350023 -0.08870151 0.34078598 0.062990874 -0.010374412 0.2418931 0.12867962 -0.2624091 -0.2951408 -0.25557977 0.120646544 -0.020000782 0.037182342 -0.09918088 -0.0043815677 -0.04983138 -0.125677 0.13620812 -0.18615925
2610 0.007406308 -0.07063735 -0.043855313 0.0053808787 0.18166234 -0.07176592 -0.1478028 0.17330414 0.12587287 0.19427434 0.008081687 -0.18441345 0.05321917 0.010410409 0.0244576 0.12705445 -0.25639403 0.14510284 0.110545196 0.10035102 -0.0028811088 -0.23745357 -0.61816657 0.29055694 -0.023226097 0.110692345 -0.015678639 0.0482127 0.14121073 0.076022886 0.1512058 -0.037294123 0.12990208 0.12996472 0.10582171 0.10901561 -0.3346425 0.215552 -0.0039466755 -0.1073543 0.04030082 0.12424637 0.33053577 0.2914525 -0.06264378 -0.04583844 -0.039532226 0.24174432 0.22706841 -0.07260174 0.15543559 0.12417114 -0.39628473 -0.087941766 -0.24925536 -0.11663209 0.045441274 0.097102985 -0.062025905 -0.075675145 0.013333737 0.050987273 -0.022693552 -0.42623433
200 0.0475937 -0.14815952 -0.085247695 0.12674542 0.1284446 -0.035476815 -0.1617283 0.24155392 0.04809453 0.26638034 -0.08195796 -0.22125423 -0.07192877 0.14792618 -0.16523483 0.33819574 -0.14707132 0.20097736 0.3445107 0.12579009 0.45451203 0.036141697 -0.49392077 0.06560593 0.11254545 0.15642358 -0.006848057 0.19187374 0.34538472 0.16706207 -0.024461241 -0.019964244 0.317756 0.05334639 0.04715182 0.0036182054 -0.056912396 0.2583176 0.1271928 -0.20799138 0.067198135 0.17774317 0.2989588 0.21243006 -0.14153646 0.1725408 0.04293028 0.24393794 0.1917357 0.0130032385 0.13973391 -0.056285687 -0.13825794 -0.23162028 0.08494755 0.104574464 0.04675215 0.030550485 0.0569458 -0.038777236 -0.32399037 -0.037754636 0.036728587 -0.06862819
1450 0.16118439 -0.113921545 -0.13527359 0.16423 0.4060002 0.12171341 0.047747765 0.28349182 -0.2103732 0.1460429 0.088923104 -0.18474713 0.13962542 0.009634938 0.010228658 0.1807773 -0.3699102 0.04714744 0.45924878 0.33717728 0.048176065 0.2123885 -0.3441594 0.22199458 -0.18190737 0.0012173965 -0.07293902 0.13080144 0.23632039 0.1952375 0.034733232 0.05409171 0.2753211 -0.020676052 0.0056279683 -0.034916934 0.034828864 0.20984758 0.045799088 -0.008621427 -0.024961822 0.19930845 0.31971696 0.34686196 -0.009530475 -0.107678406 -0.15174331 0.29650262 -0.04909598 -0.05264372 0.20208195 -0.00016181545 -0.25192708 -0.16721725 -0.021796314 0.11177069 -0.057979047 0.0137658715 0.022772055 0.09569548 -0.05444127 -0.2257748 0.044166375 -0.03072742
900 0.29752508 -0.03636558 0.15698911 -0.0769921 0.29094264 -0.115465164 0.051506165 0.31057855 0.014425043 0.054924604 0.08285413 -0.15452644 0.007843528 0.24579914 0.070097044 0.21118851 -0.10367666 0.020013379 0.028725278 0.4114735 0.19487236 -0.16843557 -0.48230964 0.035841256 -0.15770204 0.15349364 -0.1233192 0.21084358 0.07287641 -0.08103667 0.08092542 -0.24596246 0.50548375 0.19064717 0.23096374 -0.018877663 -0.26261008 0.16997287 -0.11402438 -0.12651578 0.073143974 0.18958999 0.39973906 0.3174292 -0.07459548 0.06338771 -0.1196582 0.19096173 -0.16232099 -0.1898578 0.11197764 -0.1412082 -0.033592697 0.002161 -0.17457871 0.0923106 0.06343035 0.25715628 0.02900588 0.13162547 -0.14842892 0.04407922 0.05734304 -0.16311777
2163 0.31609637 -0.027513346 -0.07206592 -0.06928768 0.18688495 0.1937417 -0.17884974 0.38502026 -0.19296172 0.3413441 -0.025334734 0.03609761 -0.17202283 -0.06451994 -0.08269032 0.22179304 -0.18665439 -0.050168477 0.078592375 0.16650201 0.043066505 0.09016555 -0.38773394 0.33901206 -0.16919227 0.30360126 -0.32283118 0.26404437 0.04094037 0.14452301 0.033799708 0.037289888 0.18203667 0.22949733 0.19630858 0.07926116 -0.31115198 0.34607688 -0.09062535 -0.011973948 0.19732444 0.2689948 0.36203727 0.03505243 -0.12620856 -0.02948273 -0.20877548 0.18380152 -0.024689939 -0.045534704 -0.11064669 0.06558975 -0.18363267 -0.017517608 -0.20730294 0.36697364 -0.015216085 0.03353481 -0.1439524 0.12763916 -0.19808672 -0.08588322 0.1723973 -0.056035783
8 0.090801656 0.059437163 0.12506269 0.34823382 0.0118346 0.09953399 -0.027583297 0.4515854 -0.101469345 0.296478 0.23832117 0.0585025 0.002893335 -0.01079362 -0.084334984 0.052037954 -0.29058453 0.12972039 0.18474771 0.28152698 0.078194685 -0.23696122 -0.38627884 0.116248526 0.023678865 0.06592362 -0.11922617 0.2576551 0.09286912 0.03255852 0.02522942 0.08300955 0.36641538 0.2557743 0.031548843 0.12780933 -0.17299034 0.3348242 0.19101419 -0.35631365 -0.038075015 0.10270834 0.3469787 0.07766926 0.037533857 0.057258774 0.03190065 0.17099391 0.036672868 0.19078699 0.104121864 0.1106657 -0.31720486 -0.45014447 -0.22415812 0.33820024 0.025808848 0.1531437 -0.19779979 0.2557131 -0.051439103 -0.12745087 0.02524586 -0.033475764
2310 0.2444388 -0.020407025 -0.13631126 -0.08442359 0.2640796 -0.12982681 -0.19066662 0.03509748 -0.16719475 0.12215585 0.12804426 -0.098881714 -0.113813356 -0.078840315 -0.086352356 0.18981703 0.003512046 0.08193388 0.28619272 0.016707756 0.07023999 0.02178638 -0.3356152 0.42492118 0.014327767 0.32004496 -0.35640138 0.13852625 0.17485572 -0.08617979 -0.06307202 -0.11708237 0.52751744 0.33327115 -0.013882002 0.14221951 -0.1860085 0.33056754 -0.03997144 0.065332785 0.21293761 0.15702266 0.120787784 0.35098383 -0.14666343 -0.10619925 0.11559989 0.40369654 0.11481522 -0.1601604 0.12411792 0.0021119849 -0.0919688 -0.11306491 -0.11366632 0.007773933 -0.14734171 0.12578954 -0.12870693 0.068050504 -0.07090303 -0.24517061 0.07119303 -0.10812868
2701 0.07656522 -0.06037849 -0.11711463 0.002904544 0.14015226 -0.06245596 -0.31648308 0.17320596 -0.011929393 0.18875018 -0.15569256 0.012741131 -0.26906434 -0.10360863 -0.123236105 -0.03288096 -0.11429379 -0.24435316 0.19893105 0.19282188 0.20089413 -0.035002287 -0.41889563 0.041583043 0.042605177 0.25506735 -0.07267178 0.3257313 -0.23794742 0.0615091 0.27263623 0.23103456 0.30711567 0.10496171 0.008071103 0.05786719 -0.1979934 0.33826897 0.054653395 0.03648616 -0.010932372 0.0462417 -0.022425592 0.16951706 -0.14569862 0.0075219134 -0.12964118 0.28033486 0.06334521 -0.25899434 0.25525948 -0.0024229528 -0.29331505 -0.13484627 0.060583174 0.2321614 0.062025785 0.08724772 0.0012097382 -0.018044326 -0.20955302 0.016849028 0.07854232 -0.4547731
1127 0.410493 -0.32451612 -0.054127995 0.09914869 0.034492157 -0.024859706 -0.07753211 0.26600754 0.04042887 0.39685914 -0.043951493 0.016384533 -0.05299051 -0.056125864 0.1363932 0.12383729 -0.15414496 0.06278929 0.17852451 0.17019601 0.022799375 0.18329117 -0.24788547 0.26310351 0.08980663 0.03643433 -0.014527041 0.20698309 -0.088079765 0.015079039 0.11843172 -0.10321243 0.2653218 0.10743552 0.10877007 -0.1697046 -0.21895777 0.072555654 0.053305596 -0.09190759 -0.08309128 0.14668794 0.17719226 0.31355226 -0.0470982 0.20050566 0.0518175 0.19081445 0.023104552 -0.267156 0.24009435 0.10177593 -0.24777335 -0.11990049 0.012182151 -0.01999325 0.02847738 -0.12469748 -0.113985255 0.059984248 -0.050336972 -0.23278725 -0.24493872 -0.36268976
1570 0.22356403 0.014065743 0.033772226 -0.10545688 0.13185927 -0.274362 0.10368058 0.42171073 0.15277085 0.23199986 0.17081402 -0.20367706 -0.14564757 0.056678873 -0.0791283 -0.122941434 -0.063010536 0.06662413 0.25721857 0.0815043 0.21675625 0.06946528 -0.3762418 0.31712806 -0.003766189 0.04945557 -0.24233286 0.20853105 0.066211194 0.06728916 0.03758935 0.03858587 0.31560072 -0.19090797 0.1910907 -0.05785917 -0.13892947 0.34605095 -0.008405625 0.07571904 0.15871158 0.119912855 0.18985464 0.24181202 0.083470024 0.27127883 -0.14441395 0.3557511 -0.057514425 -0.37468135 0.08544046 -0.089493304 -0.18097141 0.08301885 0.038091656 0.16457531 -0.20884015 0.006050088 -0.08388848 0.26260346 -0.06637719 -0.13058217 -0.04789373 -0.17908925
1271 0.058327124 -0.15698294 -0.18184079 -0.17896321 0.02172086 -0.0043280176 -0.0946945 0.07154963 0.22443332 0.0731589 0.03734502 -0.13740155 -0.26794562 0.023432283 -0.035585996 0.30152622 -0.03808675 0.09093866 0.199425 0.12836249 0.2266461 0.013587356 -0.40428588 0.033696126 -0.10112617 0.036197904 -0.15741831 0.13118331 0.24748732 -0.21750386 0.15783912 0.12368424 0.2756971 0.04832077 0.07792773 0.04607781 -0.13052687 0.2961721 0.14230682 -0.2303197 0.21419805 0.31667483 0.33323357 0.29575396 0.19376957 -0.053425048 0.077844165 0.30017823 0.12281942 -0.2977469 0.08701272 0.14579569 -0.31831178 -0.09095756 -0.03063769 0.11307611 -0.14107262 0.08836269 0.11680863 0.011246198 -0.19620425 -0.3226196 0.1235582 -0.42926085
1664 0.14338884 -0.18468225 0.0061060637 0.110835664 0.069251046 0.07260702 -0.12440482 0.1389262 -0.085765556 0.3405241 -0.3098032 -0.04143101 -0.11097145 0.114299014 0.14629818 0.25208732 -0.33379334 -0.115325935 0.114207484 -0.080866955 0.08868187 0.2982379 -0.38305348 0.13510053 -0.07523424 0.10144458 -0.04114949 0.20480035 -0.01815908 0.04311018 0.19831951 -0.016604057 0.2315654 0.1340184 0.20629264 0.048903216 -0.30183175 0.24913883 0.10535019 0.11150916 0.043338493 0.015332231 0.35327014 0.27012846 -0.09255843 0.0060928916 -0.35474163 0.35175297 0.18620494 -0.21371673 0.28966647 0.09395485 -0.24127361 0.04996579 -0.07449511 0.025959792 0.020431576 0.13360997 -0.08740297 0.09856376 -0.04200154 -0.14670669 0.04068572 -0.23249358
2551 0.12930381 -0.13843761 -0.12619531 0.03029573 0.083798744 0.19669577 -0.11469536 0.14073566 0.027067391 0.07288716 -0.055857517 -0.027973985 -0.23558415 0.021112094 0.03461522 0.44512442 -0.24501297 0.14167175 0.109862626 0.12688267 0.02921306 0.1674586 -0.44695804 0.25106323 0.04307974 0.12198163 0.030387357 0.25777927 0.11272954 -0.038566522 -0.12359082 -0.01802823 0.17262936 0.07161217 0.12130833 -0.027964996 -0.026390646 0.095320314 0.15573749 -0.09901666 -0.13204746 0.18186274 0.31523037 0.24866511 -0.12483809 0.15436967 -0.19033077 0.11189178 -0.0643793 -0.21127255 0.39592472 0.10211202 -0.3763888 -0.34594005 0.036432188 0.21521695 -0.117808424 0.4025655 -0.062863566 0.09332027 -0.11566594 -0.06462646 0.12914059 -0.01814302
