2708 64
1870 0.17604575 -0.20497866 -0.23715223 -0.21517016 0.39075342 0.25552556 -0.23352394 0.04980635 0.16733938 0.011083901 0.043532453 -0.056907233 -0.059105244 0.056107827 0.054886587 -0.15473878 0.3386102 0.20564272 -0.10161692 0.2986172 0.26190066 -0.010800041 -0.12830697 -0.10433801 0.078824595 0.16004805 -0.08616417 0.042025153 0.306307 0.08096593 0.014465309 -0.3822803 0.15874097 -0.01010346 -0.18428235 0.23732741 0.06485552 -0.09251999 0.24320139 0.16414338 -0.12504928 0.2393638 -0.049050424 0.19820741 -0.09909413 0.10545744 -0.17751455 0.092238985 -0.20722409 -0.06494405 -0.40020537 0.06338536 0.06836521 -0.035447806 0.097085424 -0.029947642 -0.21023782 -0.06024803 -0.104092084 -0.01808184 -0.3696281 0.07523372 -0.12658425 -0.07381963
1363 0.16169833 -0.24545914 -0.2311473 0.099817686 0.38877827 0.23456731 -0.40600052 -0.11408324 0.0794799 0.1458695 0.34418377 0.1205642 -0.0026275606 0.18650047 -0.069175966 0.13744341 0.14337729 0.11486694 -0.09872519 0.10462232 0.043579802 -0.25901854 0.14692858 -0.1650357 0.3319351 0.24446656 -0.10344313 -0.014470874 0.05125206 -0.05749976 -0.11241874 -0.014922875 0.005399928 -0.056686334 -0.38029873 -0.0143730445 0.23970826 -0.045657877 -0.09234549 -0.051739976 -0.30498853 0.13598298 -0.1344096 0.26238078 0.1129 0.08021907 -0.16535498 0.19905476 0.175693 -0.10249692 0.024398362 0.056436107 -0.0029276502 -0.05292982 0.14872222 0.13358867 0.014686504 -0.09807965 0.026805097 -0.26361352 -0.11985644 -0.13984406 -0.17405838 -0.1004116
2229 -0.084926896 -0.20737024 -0.3592922 -0.19872722 0.4113347 0.28213787 -0.0797743 -0.2677456 0.23201734 0.029190011 0.19644818 -0.094529174 0.07243187 0.009463635 -0.15897301 0.008456079 0.14025691 -0.11604576 -0.022779612 0.11887193 -0.015477477 0.015313066 -0.035466876 -0.18109027 0.016693009 -0.17819263 -0.10204499 -0.07175566 0.30088845 0.13377269 -0.11919023 -0.26013744 0.39582074 0.036257908 -0.17632991 0.00030771567 0.0998411 -0.048728745 -0.10907908 -0.05719629 -0.18063235 -0.015448876 0.10293641 0.107663676 0.25271714 -0.029022185 -0.025761846 0.16452813 0.025435207 -0.19036488 -0.15440528 0.18911432 0.1422816 0.16051786 0.1972536 0.17367668 0.04748838 -0.018966092 -0.115658 -0.09795054 -0.18957761 0.104892254 -0.3016363 -0.21598123
2595 -0.018170632 -0.37585527 -0.3215887 0.034021843 0.37318674 0.34604642 -0.18231954 0.024771003 -0.03377564 -0.12801477 -0.057307515 -0.011076581 0.09570256 0.0012133806 -0.22468366 -0.17235923 0.28125304 0.12638645 -0.035688404 0.15236472 -0.026259933 -0.14596859 -0.06032148 -0.047570024 0.02739008 0.08940091 0.01211039 0.040025488 0.07308175 0.10784119 0.026536062 -0.3800205 -0.042977676 0.050118133 -0.14924374 0.25908825 0.12788717 -0.06602238 0.026482787 -0.13917014 -0.31536576 0.13512747 0.21197642 0.13726662 0.0085749375 -0.018350694 -0.16017482 0.21159184 -0.06252854 -0.117796585 -0.119285 0.23124035 -0.02663842 -0.058760736 0.34081078 0.069657065 -0.094537556 -0.20700678 -0.011868437 -0.17155103 -0.41174734 0.16339052 -0.15208587 -0.07133578
568 0.0797209 -0.18475163 -0.27675763 0.14241007 0.5445297 0.20038223 -0.20517403 -0.0549085 0.12481254 -0.08920836 0.3067054 -0.029766142 -0.046478026 -0.10955746 0.08277911 -0.19482777 0.33988374 0.1781844 0.022979569 0.10127468 0.086495996 -0.07831478 -0.06699802 -0.1434283 -0.14155 0.008634703 -0.07698394 0.064727075 0.32463807 0.22356403 -0.09139718 -0.053177305 0.21077143 0.043227546 -0.327941 0.31069347 -0.050135106 -0.019578118 0.011796588 -0.18776703 -0.11959102 -0.17686288 -0.105027065 0.03278689 -0.08818232 0.037406713 -0.0067738118 0.0604561 -0.1780699 -0.11077158 -0.42334074 0.3502789 -0.00841572 -0.2257949 0.18406649 -0.14037517 0.09593103 0.14325328 -0.14644802 -0.17609908 -0.015963225 0.12527163 0.08888107 0.059581794
1662 -0.14820218 -0.07989155 -0.12512437 0.0998382 0.3329291 0.15529452 -0.118852824 0.013353067 0.015867524 -0.24664429 0.26609612 -0.26536274 0.20096597 -0.035824925 -0.17494172 0.20933291 0.19700663 0.04811385 -0.08437475 0.35194135 -0.073342696 -0.07216045 -0.031107187 -0.1892291 0.015595395 -0.036888275 -0.046944696 0.1217501 0.34632263 0.35456187 -0.11406537 -0.2109003 -0.13769646 0.032603852 -0.14407699 0.29060504 0.10297807 0.00095649745 -0.16976911 0.028446214 -0.3500372 0.15998359 0.18514197 -0.06432673 -0.058805764 0.0150743965 -0.27568355 0.15038754 -0.025267256 -0.15188597 -0.18144411 0.19332379 0.07844935 -0.0811035 0.08208666 -0.14278947 -0.08254541 -0.20937547 -0.2509712 -0.17062125 -0.21385485 0.06502966 -0.031654745 0.018963214
237 0.116229266 -0.18167295 -0.18027006 0.08941167 0.2888862 0.30932012 -0.18485168 -0.14104821 -0.012961842 -0.044777997 0.19650713 -0.14848354 0.0594567 0.07303703 -0.001471298 -0.06503463 0.0459885 0.096973546 -0.1377005 0.24484731 -0.031118017 0.06526914 0.21029095 -0.2578082 0.32435885 -0.030544877 -0.2527779 0.1345131 0.2280717 0.25404835 -0.09643716 -0.25134596 -0.048708364 -0.052025363 -0.21232098 0.09739261 0.24732597 -0.11229298 0.07281951 0.10496752 -0.36574748 -0.039483175 0.24421185 0.17521203 0.046138886 -0.002185153 -0.101831734 0.3050054 -0.09621351 0.015100029 0.032636024 0.17608048 -0.042510174 0.023573326 0.2441512 -0.111214004 -0.02911498 -0.19812076 -0.14710915 -0.11948419 -0.35176665 0.06925443 -0.051434986 -0.10458988
967 0.38857147 -0.3608494 -0.23109215 -0.1022512 0.18806522 0.22986665 0.029138621 -0.027932707 0.21237421 -0.13032551 0.092066996 -0.13322319 -0.015480356 0.060804274 -0.13597775 -0.025317052 0.051163584 0.31317452 -0.10147653 0.20116076 0.08739779 -0.11062528 -0.029947873 -0.23535262 0.32026905 -0.00265912 -0.27942777 -0.124962844 0.30019248 0.23722072 -0.12022159 -0.2976273 -0.23568997 0.20342758 -0.19737183 -0.01646298 0.23661336 -0.06668632 0.036037892 0.14130946 -0.30302513 -0.09305192 0.22774765 -0.0040600225 0.057747968 0.29956898 -0.083270386 0.12317448 -0.13135004 -0.285622 -0.17158946 0.08351975 0.2361707 0.0078238845 0.10437431 0.08931233 0.005743568 -0.3316617 -0.17585596 -0.18165739 -0.18238036 0.2164485 -0.11764794 -0.15548633
2368 0.07840603 -0.1306464 -0.20531853 0.038789768 0.51689076 0.25989178 -0.027841952 -0.14869952 -0.091623336 -0.17132 0.34280258 -0.05840466 0.10619706 -0.09792499 0.07754712 -0.0044072154 0.19391012 0.1114375 0.07775921 -0.009770264 0.20976211 -0.10305667 -0.07664072 -0.06591132 -0.05807916 0.11988428 -0.020104252 0.07831477 0.15229434 0.29567748 0.03529821 -0.25802252 0.16304748 -0.1858177 -0.2443952 0.21778318 0.18788715 0.013524203 0.0844693 -0.17829394 -0.20400105 -0.02312483 0.12761813 -0.06197814 0.08989287 0.06071087 -0.06824371 0.1764405 -0.18642238 -0.18127987 -0.10768441 0.39609408 0.052165695 -0.16301492 0.18059151 -0.14663862 -0.17301856 -0.25913492 0.01196846 -0.19007885 -0.15384428 0.14380413 -0.0046707764 -0.13079862
1031 -0.020637328 -0.20023015 -0.40041816 0.12959568 0.37768 0.37983215 -0.21712588 -0.45149785 0.13950692 -0.05237261 0.23566894 0.2501448 -0.0054335324 0.3148792 -0.20961538 -0.15832885 0.22833978 -0.17777072 -0.002958765 0.12585586 0.14422396 -0.333706 -0.18525511 -0.23285209 -0.2080036 0.061451748 -0.18451236 0.110660926 0.20819503 0.155308 -0.1318185 -0.2055711 -0.0665453 0.024588918 -0.1843091 0.12073434 -0.052002944 0.1283634 0.0747452 0.21326481 -0.12843007 -0.12403181 0.09228391 0.116961025 -0.17398253 0.02052751 -0.060052425 0.032418698 -0.075364776 -0.097833 -0.15313569 0.21378891 0.10929547 -0.043054465 0.010012026 -0.23676847 0.02004741 -0.11935603 -0.12218285 -0.1313386 -0.16786107 -0.023770908 -0.15024585 -0.004604134
1869 0.18733306 -0.14963466 -0.100002974 0.06091881 0.3560864 -0.045372456 -0.18490751 0.0033447794 0.0071297963 -0.07335819 0.19585109 0.058332138 0.06504296 -0.0050604735 0.04600776 0.07162349 0.30585402 0.057083435 -0.026908757 0.084295854 0.29335162 -0.21562636 -0.18274112 -0.29167432 -0.00058936764 0.04569764 -0.1619251 0.019584138 0.26417583 0.3199635 -0.075982876 -0.3314419 0.067174725 -0.0014746101 -0.3031728 0.009836728 0.10369291 -0.34543738 0.14837724 0.1592666 -0.1685892 0.06814299 0.019503986 -0.033250634 0.044036146 0.12466456 -0.054535493 0.068691395 -0.025909625 -0.19221202 -0.07693725 0.1662889 0.04835657 0.18744634 0.25062612 -0.2487342 0.21097952 0.00275349 -0.036958497 -0.10309887 -0.39311904 0.21353908 -0.0917296 -0.09875805
2114 0.02964229 -0.44024098 -0.10891822 -0.012452717 0.26805776 0.27049348 -0.3797573 0.04070477 0.058798015 0.15446132 -0.0057941475 -0.023788387 -0.12954092 0.043790054 -0.3427796 0.046640396 0.14722973 0.11475866 -0.09788585 0.07877444 -0.02707234 -0.27162912 -0.13939436 -0.26462752 -0.11758229 -0.09059719 -0.16988564 -0.06413204 0.3786104 0.122308314 0.06509904 -0.14042272 0.025044413 0.004414762 -0.23558442 0.39321363 0.27209145 -0.077658094 -0.030125769 0.25324684 -0.1386057 -0.032167114 -0.02683659 0.029535785 0.1641111 0.08938148 -0.036866095 0.05516532 -0.0678068 -0.1824583 -0.13624565 0.20613824 0.072158605 0.23516348 0.19820379 -0.15109393 -0.09356876 -0.09029219 0.13741791 -0.17123699 -0.21149224 0.19423465 -0.12573135 0.0051270267
1996 0.030955022 -0.050313395 -0.37629256 -0.005336324 0.27438882 0.3713479 0.06154455 -0.29329708 0.01695615 -0.19884863 0.2485353 0.026870077 -0.08706907 0.18876314 0.015052749 0.20635638 -0.01755337 0.0039932374 -0.018778276 0.22972737 0.14078914 -0.11731885 -0.01654128 -0.08012847 -0.015647935 -0.03559704 -0.24846704 -0.09712205 0.016157143 0.21546052 -0.011451093 -0.25432685 0.10391779 -0.23090948 -0.38523123 -0.043881766 0.12373289 0.08226661 0.29890668 0.06946118 -0.28669292 -0.029339515 0.06605856 0.18856382 0.15001717 -0.2499968 -0.15186438 0.15517229 -0.11239598 -0.16567867 -0.0938953 0.10220663 -0.01095797 0.12159807 0.24986923 -0.032026097 -0.07595364 -0.1350536 -0.08534218 -0.09484772 -0.2698842 0.24854033 -0.25493097 -0.20402421
1132 0.30474785 -0.3034052 -0.24027537 0.010235728 0.25574285 0.3891328 -0.27384228 -0.18269892 -0.013474733 -0.0069519817 0.19975725 -0.08922575 -0.21305928 0.07266414 0.102054104 -0.12021012 0.14001517 0.14608884 -0.25542834 0.059504695 -0.11999099 -0.06498664 0.031091021 -0.3021085 0.0021829365 -0.056327146 -0.14118715 -0.006813184 0.33180913 0.11947927 -0.15075192 -0.32155627 0.12463655 -0.3007389 -0.20600776 0.17333779 0.059748277 -0.03224911 -0.016499463 0.030317236 -0.19706273 -0.025435865 0.09128006 0.035811044 -0.18756463 0.06677969 -0.22703344 0.18955392 -0.030744947 0.0037775673 -0.09110573 0.24793561 -0.08429225 0.06918745 0.22147995 -0.07200164 -0.14588916 -0.13170798 -0.04724463 0.00042034202 -0.17665865 -0.01909205 -0.11690806 -0.0064222384
2636 0.07630225 -0.2621183 -0.22137733 0.07223899 0.39351395 0.20784076 -0.16951697 -0.051884577 0.100753695 -0.004726106 0.2733559 -0.03153374 0.17595783 0.03397529 -0.017477056 -0.016166454 0.091471925 0.03973505 -0.19003169 0.1531214 0.12175832 -0.26699418 -0.064892665 -0.100915596 -0.07626115 0.020945871 -0.07564789 0.1250777 0.14462742 0.20855817 -0.17960753 -0.3119747 0.065901846 0.16032282 -0.18928061 0.22304513 0.10290032 -0.13634053 -0.033698075 0.2783249 -0.3570538 -0.18543245 -0.14567028 0.01027259 -0.12049738 -0.011655423 -0.034714036 0.1547813 -0.06956409 -0.36133593 -0.31616712 0.22414316 -0.083096184 -0.07335956 0.11442794 -0.041554555 -0.22218594 -0.2555296 -0.18375555 0.018136632 -0.27518234 -0.03199428 0.10854447 -0.19401585
1987 0.23315573 -0.05057279 -0.22053741 0.06919509 0.31243137 0.22837904 -0.05637587 -0.1240761 0.12226613 -0.18022223 0.3818146 -0.117927596 0.1477701 0.1360348 0.09421139 0.044610646 0.23743267 0.104110055 0.068642356 0.00084211805 0.15193127 -0.17927805 0.08195634 -0.32587153 0.010078658 0.20194735 -0.0076439995 0.08884188 0.14253403 0.15680034 -0.062053666 -0.29570478 0.13369864 0.0050342656 -0.3661181 0.07926884 0.09760806 0.009493863 0.036497056 0.022745669 -0.20328951 0.033508595 -0.14659145 0.017942324 -0.07884761 0.15511256 -0.26145983 0.32167104 -0.11365275 -0.06478133 -0.21889424 0.08993041 -0.021658516 0.035917092 -0.068065085 0.19328703 0.053329807 -0.16108412 -0.16847448 -0.43620235 -0.3976565 0.09724571 0.0942567 0.07423395
1256 0.033830296 -0.14088114 -0.2957314 -0.013271532 0.36551693 0.1765162 -0.13623928 -0.02531754 0.07804348 -0.057947576 0.15965 -0.2772238 0.016637439 -0.103090696 -0.17814292 0.19059041 0.17056093 0.10309104 -0.1228144 0.20497403 0.04277104 -0.20589736 -0.17466862 -0.4447059 0.18677352 -0.080065265 -0.044084974 -0.01748907 0.28230157 0.21020523 0.057419788 -0.36405256 0.05630222 0.020365642 -0.25769362 0.014262641 0.115624495 -0.14323539 0.023219224 -0.1372314 -0.08611772 0.21132436 0.104931705 0.087463714 -0.016944505 -0.21897966 -0.22421506 0.37236044 -0.065469034 -0.019175133 -0.08954957 0.26520053 -0.07907872 -0.08560202 0.1624485 -0.025606709 -0.12115609 -0.0758716 -0.09022453 -0.17971484 -0.23433626 0.18349606 0.11949968 -0.01488402
2204 -0.19284844 0.08875183 -0.2681933 0.08334206 0.2838027 0.31658646 -0.16205561 -0.056971073 0.25669768 -0.13015422 0.18002729 0.00059463317 0.15394646 0.19630373 -0.15906908 0.038039744 0.16622898 -0.013240412 -0.33207858 0.10695577 0.010244865 -0.39666414 -0.15273027 -0.23639737 0.07953184 -0.15620182 -0.2966157 0.20154722 0.28965184 0.20859745 -0.0074608563 -0.039176494 0.22496514 -0.07626042 -0.11800584 0.31138167 0.023589313 -0.09800217 0.0420928 -0.010697314 -0.2419344 -0.0023088865 0.0356635 0.08264843 -0.12437401 0.12257709 -0.029342826 0.12857078 -0.22115824 -0.087693915 -0.13621722 0.10761171 0.023447134 -0.06951405 0.084393226 0.042236805 0.22206573 0.12832204 -0.046729736 -0.12034818 -0.39518914 0.21977246 -0.19244595 -0.058406994
2032 0.14724426 0.0012926091 -0.13042761 0.016456027 0.17075416 0.24130283 0.17425047 -0.20093223 0.1361831 -0.11426112 0.25938958 0.105387546 -0.09937558 0.2077339 -0.2269326 0.09638949 0.34212878 -0.023699585 -0.13618948 0.15167366 0.077815995 -0.12719071 -0.063706465 -0.20913786 -0.043012444 -0.110144705 -0.15170214 -0.0037452574 0.28777722 0.37937093 -0.035770074 -0.15992412 0.23252419 -0.116932824 0.02744029 0.13141079 0.11251313 0.03690341 -0.046659973 -0.06333207 -0.3646333 0.00061084883 -0.17878865 0.07428909 -0.13420892 0.044180848 -0.1272372 0.05608591 -0.14134274 -0.19272853 -0.21429773 0.20925657 -0.008586387 0.008677496 -0.010998426 0.03323551 0.11969021 0.03971607 0.0044248635 -0.104796655 -0.4914142 0.03951406 -0.12361062 -0.11786356
222 -0.04212978 -0.25248498 -0.23723492 0.023752997 0.41471547 0.29218102 0.10686703 -0.07320032 0.021457473 -0.16478872 0.3756824 0.007046433 -0.036652572 0.08282766 -0.12420231 0.04948893 -0.023241872 -0.08056222 -0.22759445 0.17450131 0.23241346 -0.3505106 -0.08017182 -0.022285074 0.014160306 -0.061350178 -0.23535916 -0.15987694 0.29862162 0.30456057 0.023972591 -0.045031004 0.08893224 -0.11619075 -0.04127693 0.27849647 0.2095003 -0.011625485 -0.047783043 -0.12815163 -0.0011202462 -0.010426491 -0.18389931 0.11541631 0.06896019 -0.050300844 -0.075553976 0.19246656 -0.21861598 -0.08728276 -0.11251903 0.25532442 0.005817223 0.09085166 0.18501338 -0.10544114 0.061784223 -0.24707334 -0.20589034 -0.19009472 0.05114498 0.27385026 -0.04010199 -0.17271808
1124 0.20069896 -0.100384384 -0.29287875 0.3137742 0.15269133 0.203297 -0.047899097 -0.021845868 -0.032990284 -0.32128677 0.30310497 -0.30875853 -0.09632308 0.15175384 0.118294574 0.0449596 0.12481861 0.3802551 -0.038235705 0.24547327 0.3192147 -0.32688564 -0.072988465 -0.07429487 -0.14229544 -0.15553388 -0.08978798 0.025629269 0.07177782 0.13006519 -0.05539662 -0.34235275 0.0875697 0.05908233 -0.13942121 0.08385206 0.14293075 -0.016530199 -0.003128725 0.084144644 -0.23874503 -0.09037183 0.25094825 -0.026920022 0.13794388 0.23444495 -0.05067624 0.19051796 -0.153313 -0.14463083 -0.29615837 0.20368765 -0.06084509 -0.036943797 0.12390531 -0.13290541 -0.012191708 -0.2196073 -0.297728 -0.39806297 -0.22149715 0.12777789 -0.008640863 0.11318698
1575 0.07781241 -0.04768735 -0.20201112 0.10464439 0.2661506 0.3373913 -0.09437893 -0.12144537 -0.11566782 0.073098086 0.32085228 -0.07143862 0.04723866 0.27495024 -0.015559234 0.18485002 0.13391393 0.10498559 -0.29124522 0.18229605 -0.11815241 -0.09132008 -0.2772746 -0.18975557 -0.046330217 0.0068599554 -0.089741975 0.030782888 0.11670894 0.12726362 0.1472013 -0.31408703 0.20154274 0.024114752 -0.20397493 0.31769016 0.06584214 -0.056982856 -0.01845277 -0.14016072 -0.28653327 0.09123139 0.23276882 -0.08044895 0.30150616 0.16278943 -0.017501688 0.22408974 0.036743205 -0.13011348 -0.12583756 0.26894012 0.12779348 0.07087069 0.08589324 -0.08008542 -0.16315857 -0.23873146 -0.22031373 -0.21268491 -0.1007948 -0.1262248 -0.121224746 -0.07232155
1004 0.044232115 -0.20365094 -0.20177166 -0.12564175 0.21316428 0.27715486 -0.14155518 -0.3970748 0.1059611 0.04102959 0.11164388 -0.10895826 0.053239282 -0.042784028 -0.023077197 -0.13436848 0.32523915 0.087989256 4.663054e-05 0.339435 0.2837978 -0.10597906 -0.21810913 -0.17809275 -0.24681711 -0.2244514 -0.17744945 0.10724108 0.20850931 0.2123875 0.024689073 -0.26442057 0.18174349 -0.08090725 -0.24722114 0.16639324 -0.054839678 -0.1480622 0.17163236 0.24566689 -0.3713121 -0.095055856 0.0365533 -0.08007556 0.1284805 -0.013017753 -0.08175355 0.2483043 -0.12810509 -0.27207154 -0.10519938 0.16930659 -0.1872808 -0.058784313 0.20635061 0.022215463 -0.2508406 -0.063783154 -0.10273145 -0.33890933 -0.081853524 0.09074975 -0.08135278 -0.21308623
1502 -0.065718934 -0.21080469 -0.37240314 -0.04030468 0.36825627 0.14528003 -0.0893619 0.06542367 0.091115005 -0.21563219 0.28284568 -0.17389973 0.08976275 -0.008736501 -0.072292276 0.15369458 0.1458644 -0.015383469 -0.24923848 0.07176579 -0.08980886 -0.38134083 0.034747716 -0.16311675 0.18636917 0.12815802 -0.08058246 0.040700573 0.19174132 0.18488793 -0.05324299 -0.22594239 0.14684786 0.014153475 -0.21383302 0.18305832 -0.08964343 -0.09736322 0.009532462 -0.1189009 -0.36274806 0.10457857 0.090715855 0.24487308 0.050778896 -0.034790363 -0.12779008 0.10146993 -0.006537188 -0.04704717 -0.22381453 0.1285797 -0.09289288 -0.004402298 0.2686515 -0.21017824 -0.074200526 -0.037529256 -0.14095484 -0.19878896 -0.233711 0.34378487 -0.20463124 0.07514445
51 0.09856336 -0.33502305 -0.29586875 -0.056080904 0.27315402 0.2729812 -0.09614594 0.008539433 0.053165145 -0.11299249 0.0957791 0.076075114 0.09048291 0.2174946 -0.07127803 0.10098316 0.12038524 -0.0075092404 0.08860216 0.03967635 0.031865537 -0.33015516 0.031935938 -0.17902808 0.11435511 -0.011228345 -0.15418544 -0.249458 0.24430414 0.12159314 -0.08223393 -0.38654244 -0.06401223 -0.05771192 -0.08548193 -0.108632535 0.3605811 -0.023936762 -0.02423958 -0.04727372 -0.3166954 0.008891872 0.09401691 0.2783579 0.13533399 0.2698211 -0.24097621 0.11357991 -0.032754563 -0.21759872 -0.12395223 0.105203174 -0.091503195 -0.30753973 0.36220816 -0.0921274 -0.12605277 -0.25144598 0.029426873 -0.19376051 -0.36398375 -0.01409135 -0.16426219 -0.16163349
1130 -0.16933922 -0.00045605967 -0.24258845 0.05368945 0.33033785 0.276132 -0.18618709 -0.14144464 0.28848028 -0.19787861 0.3392689 -0.2627872 -0.01579381 0.14337844 0.055414975 -0.06757631 0.25683883 0.0642196 0.065121785 -0.053213984 -0.017333793 -0.24519132 -0.19512656 -0.2586515 0.025734665 0.032353397 -0.20096162 0.0015474873 0.3143176 0.23368637 0.06477678 -0.2911342 -0.14421098 -0.06597185 -0.35168877 0.08267475 0.15568729 -0.21314292 0.036975376 -0.15677716 -0.015267875 0.19263953 0.16362178 -0.056338057 0.12339028 0.07600565 -0.15975052 0.21777076 0.030708086 -0.1224833 -0.15188013 0.023354754 0.09896253 0.13990077 -0.0146305505 -0.09905449 0.116058834 0.1527387 -0.16868643 -0.16944756 -0.10766933 -0.098784946 -0.038466725 -0.1540042
8 0.08645855 -0.0738655 -0.42243907 0.19674362 0.52894247 0.43713596 -0.06434525 -0.1457705 0.05858229 -0.19773225 0.35547805 -0.09527126 -0.058648396 -0.012742579 -0.16925699 -0.11588384 0.03608711 0.008539912 0.04416139 0.11172201 0.11159383 -0.21860759 0.21352567 -0.23155236 -0.035332642 0.08510396 -0.11173842 -0.0070433123 0.22280961 0.23089121 -0.17474258 -0.23720245 -0.07574061 0.017534105 -0.22622038 -0.012373615 -0.018098822 -0.07172841 -0.044876613 0.16388057 -0.11850089 0.05917379 0.056658916 0.1680944 0.088703774 0.036238544 -0.027854685 0.28872988 -0.061656635 -0.10278139 -0.10659687 0.08718505 -0.15602162 0.0028507954 0.24710958 -0.107429475 0.12877347 0.0057889335 -0.11050615 -0.26996958 -0.11001042 0.1169506 0.030098887 -0.06701339
1814 0.010992835 -0.14790045 -0.2756079 0.023982028 0.2622331 0.3064202 -0.24722031 -0.2522955 -0.13714953 -0.25787047 0.22411573 -0.12591688 -0.13510238 0.109587744 0.098190516 -0.18543816 0.016494285 -0.0876473 0.016202142 0.3475553 -0.20007733 -0.034893572 -0.08687304 -0.03596774 -0.024332605 -0.026137326 -0.24807964 0.00022338331 0.13347074 0.15130761 -0.2554913 -0.17966768 0.101192266 -0.18115723 -0.22043334 0.28103167 0.1447547 0.11428571 -0.2088246 -0.017365975 -0.37537873 -0.022118926 -0.045258716 0.1546779 -0.0038610653 -0.05316022 0.21301293 0.3247061 -0.17542997 -0.22632714 -0.21424243 0.13938533 0.05318517 -0.34265104 0.28939778 0.08326228 0.2336325 -0.25360352 -0.19520289 -0.14705689 -0.42367375 -0.101482764 -0.017029712 0.0998918
1697 -0.010092158 -0.15568158 -0.27817836 -0.06382976 0.30314285 0.25478202 -0.18078887 -0.21157017 0.28693888 -0.017576927 0.42320663 -0.08593138 0.040452283 0.019731108 -0.0628721 0.008535092 0.21897028 -0.06466686 -0.33332628 -0.0037023816 0.11983536 -0.32804063 -0.06299672 -0.1315828 0.164656 0.033551916 -0.18999109 0.08011239 0.26379165 0.13968447 -0.06428534 -0.19309169 0.13150233 0.04131002 -0.41071615 0.19008318 0.15896606 0.038083185 0.13401596 -0.14585523 -0.03200802 0.10607942 -0.107491985 0.00777892 0.036997754 -0.107869245 0.0012832306 0.18443097 -0.052168027 -0.1763981 -0.16926475 0.12698123 -0.03960072 0.15538731 -0.02388822 0.025689572 -0.07007958 0.008985358 0.0145299975 0.022895738 -0.11226757 0.060043875 -0.07583149 -0.13965419
1679 -0.16772254 -0.18338604 -0.16824505 0.15674634 0.5546416 0.3540358 -0.19791941 -0.27231434 0.0829595 -0.05990399 0.1944071 -0.22154188 -0.009781511 0.17766257 0.072213136 -0.19914946 0.07020712 0.24484415 0.07499085 0.12122772 0.09317191 -0.21385932 -0.3072294 0.0008396122 0.0800344 -0.027274154 -0.33715343 -0.025593374 0.22695285 0.28601718 -0.19620869 -0.2962418 0.03418508 -0.16525221 -0.28559333 0.06485788 0.048099533 -0.12413452 -0.009236029 -0.052203417 -0.058315583 0.14248784 0.26019683 -0.108551815 -0.20043123 0.057236318 -0.06162575 0.0071194815 -0.31735045 -0.0997424 -0.09309602 0.21046141 -0.108710535 0.018893192 0.25365072 -0.13633119 -0.023726277 -0.11785557 -0.019911125 -0.16437691 -0.35267508 0.27243724 0.19213492 0.07415547
2410 0.16332397 -0.18757011 -0.35790852 -0.0077380445 0.48544005 0.4438372 -0.12152361 0.057693157 0.21078531 -0.032827873 0.1709592 0.07102043 -0.024549277 -0.0075174165 -0.23663975 0.15132694 0.20451172 0.0957658 -0.12940437 0.3159408 -0.06488663 -0.2794483 -0.09024308 0.0344562 -0.36621022 -0.07104337 -0.09438816 -0.080694765 0.13234149 0.16069004 0.037911277 -0.23544885 0.12200218 0.22015454 -0.26988283 0.37657407 0.29434153 -0.23912562 0.09966191 -0.083383106 -0.051549565 0.172882 -0.044956274 0.17941245 -0.14044178 0.113605864 0.08581305 0.14231661 -0.13151275 -0.13296156 -0.29054815 0.29019365 0.31893304 0.16548578 0.15641662 -0.20700572 0.074325964 -0.052227166 -0.063208185 0.13566877 0.06260954 0.13958552 -0.10583114 0.20750543
768 -0.026367368 -0.2657157 -0.3639582 0.1919868 0.37451035 0.27698287 -0.052688397 -0.30676982 -0.034644593 0.037478108 0.110018305 0.10638311 -0.14260818 0.055512518 -0.021992445 -0.11331067 0.17827109 -0.03404136 0.10790402 0.08749453 0.1915476 -0.025660083 0.07799311 -0.2375594 0.04304399 0.0580923 -0.35339662 0.040332794 0.10008767 0.24328917 -0.050422102 -0.17379633 -0.10192393 -0.13868383 -0.14535005 -0.20718792 0.32959038 0.09938958 0.0851178 -0.13307649 -0.25748208 -0.050187167 -0.12475146 -0.012417557 0.08368657 -0.2011113 -0.12060498 0.03731789 0.049774267 0.0589945 -0.1983803 0.2967981 0.26343286 0.16568296 0.18053806 -0.20179272 -0.12051958 -0.12549028 0.019111468 -0.3216838 -0.37874737 0.09337177 -0.08194364 -0.19826496
592 0.12685171 -0.2438852 -0.27897766 0.11620102 0.48266843 0.1163521 -0.29813623 -0.08387407 0.00454058 -0.058485534 0.18484244 -0.03416927 -0.02869602 0.029697796 -0.09974069 -0.08616162 0.06372687 -0.028938489 -0.07783234 0.15686792 -0.047060765 0.014784917 0.034507588 -0.25882173 0.016808463 0.07163839 -0.062808245 -0.1588029 0.17527606 0.24419758 -0.01111086 -0.2997432 0.02113741 -0.02646496 -0.33777058 -0.19430381 0.18364576 -0.008723421 -0.028694136 0.036869045 -0.1656919 -0.09380928 0.10797978 0.14985617 0.05096624 0.1761056 -0.21926996 0.12687448 0.032449532 -0.26537773 -0.2056363 0.23301509 -0.052239604 -0.13601743 0.2356432 -0.17246436 0.08205378 -0.07350023 0.042955037 -0.025752125 -0.20884474 0.15476915 -0.12054484 -0.079847
1347 0.012957203 -0.09205906 -0.42585203 0.27795693 0.51690817 0.31773365 -0.26811224 -0.09414755 0.15561624 -0.10218092 0.2385856 0.07299117 0.25489601 0.09318708 -0.037639808 -0.11838364 -0.10918471 0.1706084 -0.12420297 0.0832918 0.2224535 -0.05044795 -0.106031656 -0.09516357 0.02984632 0.029626299 -0.1482829 0.06931202 0.19047004 0.07959264 0.23667167 -0.10578694 0.13695781 -0.057679288 -0.31860963 0.2129988 -0.023112414 0.06864038 0.08093692 0.2600331 -0.21533626 0.07352594 -0.08613275 -0.11242801 0.05515927 0.016242933 -0.04659883 0.073649704 -0.18851995 0.038606994 -0.2549276 0.1265662 0.09281386 -0.09484043 0.1399874 -0.06555971 0.08097286 -0.0075237555 -0.0714911 -0.35917023 -0.20918581 0.300496 0.051744975 -0.04526098
401 0.11433128 -0.10904821 -0.2827143 0.056411028 0.6456464 0.17968723 -0.049635153 -0.29539004 0.06636932 -0.08955865 0.29855275 0.08054665 -0.010818516 0.09024547 -0.16146402 -0.013627027 0.16162728 0.21633083 -0.24205825 0.097881615 0.18624577 0.022682067 0.03350082 -0.36192998 0.1223653 0.079188876 -0.012865117 0.104087405 0.22066139 0.20058072 0.18370292 -0.09892997 0.07928341 -0.040305234 -0.1480225 0.0047617145 0.19251771 0.109283775 0.115861155 -0.2804342 -0.029188102 -0.11764299 0.00020008946 0.119791515 -0.0607417 0.14388023 -0.12233082 0.30485114 -0.03596805 -0.07102931 -0.04164957 0.21932958 0.1226417 -0.14056356 0.4383939 0.2404748 0.39132807 0.000117543634 -0.09118081 -0.2520385 -0.104421385 0.23599766 -0.007318841 -0.21406329
2118 0.13432567 -0.3049972 -0.11898473 -0.11111228 0.40937084 0.23455614 -0.28282675 -0.26493633 0.15669593 -0.13210063 0.50007427 -0.11422431 -0.2420467 -0.06400594 -0.025751576 -0.03950047 0.18749617 0.04332315 0.044659216 0.11425385 -0.20115606 -0.18145959 -0.01720919 -0.12194567 0.07617782 -0.18796866 -0.112364724 0.12639247 0.15018578 0.1321146 -0.0641714 0.009045886 0.008467773 -0.103399135 -0.16320066 0.029872285 0.32457763 -0.05336637 -0.099258095 0.22839792 -0.29007912 -0.041643478 0.20352489 0.028084384 0.060163554 0.008801909 -0.11219991 0.25815442 0.08480456 0.14352779 -0.15944393 0.26565233 0.079548754 -0.15128654 0.11552749 0.0018295756 0.100466795 -0.12627083 -0.1531706 -0.2661378 -0.21445952 0.14065255 0.106798954 -0.1580102
653 0.104768254 -0.31151208 -0.13043112 -0.25161263 0.4296358 0.29467463 -0.08165858 -0.14119014 -0.115796864 -0.14043273 0.0021650225 -0.13493076 0.17453018 -0.08132623 -0.03658483 0.13603859 0.10386648 -0.07359437 0.061208833 0.1275148 -0.10386669 -0.055012256 -0.018299215 -0.367427 -0.10993903 0.12466469 -0.3899796 -0.18544576 0.2973834 -0.030493425 -0.12260045 -0.28554255 0.06711587 -0.22323675 -0.3343842 0.25703415 0.31507432 -0.22530717 0.07341933 -0.08295304 -0.31198037 -0.17043224 0.16748013 -0.02106663 -0.08346775 -0.023898527 -0.14815423 0.19625965 -0.15696774 -0.20228575 -0.25203276 0.15130061 0.12949947 -0.1893133 0.12612809 0.06675894 -0.22130042 -0.06018598 -0.07384628 -0.24730897 -0.048915215 0.008507768 -0.0009004141 -0.18874255
874 -0.008825943 -0.25478193 -0.1542264 -0.06339702 0.27341375 0.23271808 -0.10222049 -0.026434999 0.15916906 -0.11715478 0.2635361 0.022160543 0.21544783 0.14914452 -0.010881532 0.047384195 0.19296934 0.21209118 -0.24842668 0.27297142 0.15710741 -0.22579141 0.10707118 -0.1974229 0.0054296735 0.055823993 -0.10352918 0.053486902 0.35256708 0.02399696 0.064315446 -0.15945047 0.21096325 0.07152034 -0.25768515 0.18355216 0.28806162 -0.14942698 0.006266193 -0.07293916 -0.3155045 -0.14605397 0.030461192 -0.1010324 -0.07751515 -0.0033233187 -0.115202755 0.06287774 -0.14391692 -0.02030634 -0.23946169 0.053262293 0.08781194 -0.0130860815 0.2820918 -0.053223554 0.0016920973 -0.048079193 -0.12311804 -0.1797267 -0.18999518 0.25643346 -0.13221921 -0.09281749
2310 0.095596425 -0.26378277 -0.31738868 0.13082196 0.5153816 0.37852466 -0.17943528 -0.09824709 0.16722628 -0.09374708 0.10578904 0.080701955 -0.020448055 0.18287449 -0.22464897 0.12128598 0.21819513 0.09526279 -0.095812865 0.2877388 0.077487014 -0.077857114 -0.084987186 -0.2971244 -0.030992858 -0.112465814 0.055989366 0.029329227 0.118162125 -0.034029145 0.034664117 -0.22955258 0.09346779 0.09034775 -0.107222445 0.06513736 -0.012993269 0.16287878 0.1445124 -0.111428715 -0.2956028 -0.14339152 0.08066159 0.0008322131 -0.23216219 -0.012366121 -0.20113471 0.28523335 0.021791942 -0.10163926 -0.22397445 0.19488658 -0.02551223 0.086636946 0.100886166 0.08931949 0.21394387 -0.08641205 -0.10651303 -0.12794909 -0.077700704 0.25694934 -0.24430345 0.16881174
960 0.18771064 0.06884283 -0.35374197 -0.049932577 0.2861805 0.43032944 -0.19536217 -0.18175226 0.09886822 0.018385164 0.2066146 -0.22582945 -0.088106096 0.06550927 -0.14654832 -0.14226997 0.09196854 -0.008987627 0.12734869 0.2566009 -0.1310401 -0.2586168 0.15036613 0.007627962 -0.06035606 0.12361445 -0.009567823 0.21540898 0.4061779 0.121971324 0.0050892504 -0.2083561 -0.080822594 0.0614217 -0.28118354 0.03308117 0.17200606 0.1967324 0.042646542 -0.21573277 -0.2564193 -0.051799655 0.2683721 0.2379285 -0.15671402 0.08523499 -0.17586201 0.28432587 0.030025411 -0.12905678 -0.27853227 0.21683723 0.016807292 -0.12646745 0.110263295 0.058505688 -0.034114283 -0.036831174 -0.07379966 -0.0648307 0.059071455 0.22784154 -0.099065796 -0.1333715
1541 -0.002017391 -0.36934078 -0.29426017 0.085664354 0.286034 0.38383728 -0.2152571 -0.3398026 0.04107172 -0.14409377 0.025386887 0.071637325 -0.19608465 0.17306621 -0.07252548 -0.029882602 -0.041870438 0.123220816 0.005106225 0.13811019 -0.091261715 -0.18552285 -0.15941799 -0.0125747975 -0.16895984 0.15815878 -0.16800007 -0.03107021 0.29812163 0.25296748 0.087555066 -0.31093848 0.10107495 -0.1702261 -0.06405315 0.0040599573 0.08466878 0.189098 0.009148822 0.059808556 -0.314014 0.0032047916 0.074665725 0.060057264 -0.1029365 0.26013795 -0.007215166 0.085776426 -0.13351548 -0.098496035 -0.060693204 0.12358198 -0.03609607 0.016812582 0.16502696 -0.22606218 -0.062068224 -0.23500167 -0.051622298 -0.026016768 -0.045761608 0.31060445 -0.15960602 -0.07392369
2508 -0.059589624 -0.26687267 -0.41242418 0.20508805 0.22248192 0.21018197 -0.04481207 -0.025878953 0.14863902 -0.11820937 0.028233113 -0.115558386 -0.2951088 0.11702901 -0.11085275 -0.073908426 -0.007648922 0.36166143 -0.30540305 0.22327615 -0.026017822 -0.0089646 0.002180933 -0.0761105 -0.13031265 -0.04009068 -0.13298263 0.14429833 -0.015444004 0.24283528 -0.199803 -0.30577374 0.05589221 0.15284258 -0.165454 0.4156217 0.23969576 0.011681501 0.20181586 0.10992373 -0.27190176 0.025724683 0.037292216 0.04218126 0.07351547 0.09049375 0.043411873 0.113805406 -0.14590459 -0.21745369 -0.25696456 0.23051871 0.08614269 0.12590137 0.1677853 0.23371911 -0.18074808 -0.22314827 -0.15624024 -0.20821187 -0.42708293 -0.1340548 -0.056605257 -0.10265989
708 -0.069117695 -0.1433455 -0.40181178 -0.09987755 0.3896725 0.27830866 0.057032388 -0.336811 0.1246822 -0.28898168 0.23122646 0.030195417 -0.000641451 0.16218743 -0.19174874 -0.31496486 0.002620817 -0.1214058 -0.06969142 0.18004297 0.19334494 0.033130303 0.1771016 -0.28142923 0.030410131 -0.1242669 -0.27845147 -0.18555014 0.1021035 0.16101995 0.18917632 0.04280635 0.15173647 -0.080178596 -0.25799322 0.20386937 0.06403851 0.07591155 0.08671524 0.048124604 -0.2610433 -0.18023941 -0.012074143 0.29852933 -0.00744663 -0.110570654 -0.20215407 0.1772764 0.11955405 -0.24208447 -0.21145369 0.3188112 0.076486334 0.14549188 -0.0600538 0.1418499 0.1532819 0.12238952 -0.08837911 -0.13941357 -0.28754285 -0.01203473 -0.088875666 -0.29944274
19 0.30599394 -0.02799623 -0.17469816 0.2079836 0.46553606 0.3949931 -0.0054515526 -0.31162313 0.08572198 0.07238119 -0.012383943 0.17244819 -0.026076391 0.12743066 0.10789905 -0.1805825 0.37457892 -0.008296332 -0.04054254 0.11976624 -0.03431451 -0.13180517 0.217748 -0.20987318 -0.16477735 0.02457008 0.16544169 -0.00729959 0.31924105 0.21669772 0.012654106 -0.28285322 0.07221373 0.052967586 -0.3109429 0.09022525 -0.034103505 0.23970154 0.17281045 0.17839284 -0.088411175 -0.007598761 0.0034264245 0.118607566 -0.015483351 0.04506934 -0.07503793 0.21665859 -0.037408616 -0.38897285 -0.2681357 0.20834509 -0.2478215 0.20760012 -0.14581588 -0.2040477 0.0064241355 -0.05074334 -0.28857335 -0.21227992 -0.24494821 0.027571833 0.05821007 -0.18512988
1447 -0.1402434 -0.38487148 -0.2720269 0.13121216 0.53178287 0.22343281 -0.2350874 -0.15421355 -0.0043403306 -0.16045865 0.25122482 0.020035567 0.083201565 0.23287341 0.14931622 0.043055046 0.22014529 0.27085206 0.15214646 0.08058536 0.052359216 -0.20975322 -0.01882772 -0.3034906 0.21564436 0.33973742 -0.049670532 -0.17532574 0.3612632 0.03390993 -0.13113846 -0.4259453 -0.055094056 0.07941623 -0.1883539 -0.043428466 -0.03797251 -0.049478844 0.12454054 0.07099279 -0.11085073 -0.04184203 0.12483438 0.095485196 0.08562044 0.25421768 -0.2543858 0.066000685 -0.051500116 -0.07692653 -0.20629448 0.08053847 -0.11476668 0.14337924 0.013686391 -0.07322691 -0.0029086375 -0.04368509 -0.11694684 -0.24551009 -0.029434552 0.17309332 -0.060667627 -0.17255251
1075 0.2965635 -0.31821176 -0.1568626 -0.16848235 0.26619607 0.37610504 -0.1911501 -0.36287123 0.04698617 -0.044544965 -0.057319462 0.04737789 -0.20894349 0.04349457 -0.26660478 -0.1126995 0.19166738 0.14064963 -0.037709072 0.14541481 0.14036347 -0.1729372 -0.09793057 -0.32251257 0.059742335 0.12313499 -0.058281668 -0.10563972 0.07631629 0.32015476 -0.025949102 -0.17199911 0.18308826 -0.12261516 -0.08898077 0.24808864 0.116244406 -0.15323074 0.09381881 0.052304864 -0.3057286 0.2610787 -0.114784546 0.03229145 -0.06572132 -0.028777659 -0.0046600364 0.21156125 0.09301479 -0.20349133 -0.2904116 0.08505207 -0.06817587 0.09846732 -0.01217743 0.13940892 0.10074078 0.030758701 -0.13102393 -0.09527892 -0.1901552 0.0010053294 -0.013500764 -0.09694208
1728 -0.100064285 -0.050275486 -0.29361328 0.14078362 0.46057945 0.5232001 -0.14000128 -0.29559126 0.18034281 0.0046565346 0.07524385 -0.020266946 0.025746446 0.10711665 -0.13054293 0.011733396 0.2656925 0.097661085 -0.12799706 0.21093306 -0.12940775 -0.410318 -0.019767487 -0.19147898 0.17470425 0.012114914 -0.009465814 -0.079905175 0.09299473 0.39455032 -0.044814546 -0.14878525 0.17628312 0.10552993 -0.47307765 0.028423222 0.058725152 -0.041934144 -0.09202595 -0.076457284 -0.24278381 -0.20477016 -0.07543959 0.19389689 -0.18610926 0.013867739 -0.022345515 0.225177 0.07977217 -0.00768966 -0.00249876 0.17658028 -0.2778062 -0.015371676 0.11300271 -0.05033088 0.056593746 -0.15947348 0.005293471 0.015858196 -0.13348658 0.028681664 -0.23350315 0.14020333
178 0.1606784 -0.27881688 -0.02345701 0.21905501 0.2994452 0.45999017 -0.077093616 -0.26058623 -0.05643146 -0.0046910206 0.15989177 0.14016373 -0.20532215 0.31163567 0.006721056 -0.059506897 0.15496744 -0.03768582 -0.10503852 -0.009862357 0.23532696 -0.16686746 0.044656537 -0.28976753 -0.09031735 -0.05275439 -0.2725112 0.047505338 0.08973857 0.19630872 0.092893004 -0.21183226 0.22764072 -0.19408025 -0.11702246 0.2477208 0.2604051 0.13881278 0.26496327 -0.04619985 -0.17538138 -0.037249226 0.054229982 0.10319569 0.1709455 0.18446346 0.0864351 0.033706836 -0.2400258 -0.16562484 -0.25003442 0.2231994 -0.059098214 -0.036155406 0.048562046 -0.08389228 0.05206869 0.16707528 -0.1754884 -0.23086418 -0.1208886 0.16135669 -0.16663422 -0.03519048
869 -0.003883474 -0.20585227 -0.15910374 0.20605895 0.3759994 0.4588401 -0.27997866 -0.11976274 0.21958897 -0.036268592 0.32922608 -0.0590336 0.050667647 0.387824 -0.26339096 0.09146795 -0.139135 0.06936219 -0.14669843 0.039318144 0.060130004 -0.25149646 0.10600754 -0.23474276 0.025802698 -0.12123271 -0.0032942367 0.16520168 0.019353494 0.10127446 0.031896107 -0.20746921 0.0069173854 -0.066759095 -0.21121518 0.26566166 0.22496895 0.11847025 0.0889083 -0.13652688 -0.2637379 0.0052087978 -0.17392674 -0.046377003 -0.16753513 0.049089063 -0.2057354 -0.13757715 -0.042827033 -0.24913031 -0.37017363 0.0093202945 -0.09442905 -0.029632293 0.31778666 0.05626246 0.089857854 -0.19638468 -0.110302664 -0.19478776 -0.18329185 0.20412831 -0.067777984 -0.018073631
1450 0.040839784 -0.28214496 -0.10081858 -0.19633444 0.3266254 0.17119946 -0.27207196 -0.21862589 -0.13812543 -0.045754544 0.20811594 -0.05651479 0.040510863 -0.08930896 0.0011539471 -0.16835523 0.19143106 0.0033483321 -0.031955328 0.088118546 -0.023709195 -0.12697047 -0.14331736 -0.3143778 -0.12009024 0.09143566 -0.070551775 0.27704394 0.2449803 0.2196822 -0.20168202 -0.47923335 0.016595222 0.06690163 -0.24394102 -0.10627619 -0.042892113 -0.003103259 0.13739815 0.05029694 -0.2821981 0.0690873 0.16698566 -0.012144129 0.17238024 -0.21838515 -0.09107674 0.091785625 -0.096689 -0.07699872 -0.3401667 0.005707669 0.035283547 -0.031282667 0.35483348 -0.2469435 0.0026048843 -0.08249391 -0.015865048 -0.24331965 -0.19582295 0.17430246 -0.13020867 -0.0014117325
1439 0.24858645 -0.22487 -0.22477476 0.23584647 0.26650208 0.07182384 -0.012374012 0.09993333 -0.0022561734 -0.0054066908 0.18152946 0.1288674 0.07539717 -0.0050449 0.13846934 -0.017715381 0.18952696 -0.039008044 -0.23788583 -0.008413905 -0.036080834 -0.13181366 -0.04241341 -0.41593707 -0.21350102 -0.12117149 -0.30187303 -0.15388215 0.3973866 0.17016882 -0.016613511 -0.17123081 0.16224052 -0.19739018 -0.2593026 0.26020563 0.30211487 0.0059554693 0.17563069 -0.13025625 -0.1688482 0.045025744 -0.05324283 -0.06718754 0.21927814 0.14667062 -0.0062819696 0.1921565 -0.17400835 -0.05204345 -0.1452156 0.26865697 0.0671822 0.0036107057 0.05887429 0.024739148 -0.056658063 -0.026011214 -0.17586608 -0.10870217 -0.25970033 0.25412783 -0.18487962 -0.0907416
2163 -0.0036268272 -0.18573803 -0.29169416 -0.115894064 0.13762456 0.039937716 -0.12111508 -0.05733855 -0.17855275 -0.39108208 0.34489673 0.07121747 0.08419785 0.0983157 -0.18600008 0.23457012 0.351194 -0.06614476 -0.17856586 0.21793306 0.15601271 -0.1823876 0.03991145 -0.16049701 0.0642639 -0.042976137 0.024865774 0.069530554 0.17938611 0.13593802 -0.04879685 -0.25626814 0.24091579 -0.034073383 -0.20247392 0.18764657 0.119011864 -0.007576562 -0.052350152 0.061466932 -0.17893647 0.05274499 0.04659371 0.24912201 -0.09274142 0.086847804 0.060718905 0.08600353 -0.10344604 -0.087548345 -0.34877196 0.15229273 0.053340286 -0.014999651 0.15535316 -0.009218103 -0.14823404 -0.13000062 -0.14654742 -0.32175827 -0.10376346 0.21307386 0.104803614 -0.26208284
2700 0.18294883 -0.07328623 -0.30133295 0.23354846 0.11048424 0.45245388 -0.23751499 -0.43035513 0.21684897 -0.30012265 0.13834833 -0.06687554 0.2284996 0.19789284 -0.10412213 -0.025404295 0.028120808 0.08202837 -0.10095255 0.100387745 0.0025011085 -0.14650738 0.23669714 0.026652351 0.10133949 0.20661023 -0.19076866 0.17725609 0.12315054 0.30780187 -0.27150193 -0.38998199 0.002903912 0.049434144 -0.16892208 0.098945774 0.1665663 0.08553881 -0.082604274 0.060069934 -0.3136476 0.2814929 0.014398301 0.16224267 -0.043829497 0.040916715 -0.0042895167 0.11713236 -0.26992863 -0.22249597 -0.26182556 -0.016080007 0.05707377 -0.17609647 0.047989815 0.058038663 0.008121689 -0.34953192 0.003056533 0.13037048 -0.255099 0.06909697 -0.089104645 0.036495067
1465 -0.11789245 0.016648062 -0.3455863 -0.1164331 0.30465823 0.37056917 -0.0717528 -0.13560414 0.2154082 -0.096656054 0.118273266 -0.07607668 0.030559435 0.25630856 -0.057182662 0.066023044 0.16671564 0.03533295 -0.009582807 0.25323582 0.17403954 -0.33269987 0.065599464 -0.12448353 -0.15064609 -0.1672316 -0.029270943 -0.091376424 0.23776251 0.11122993 -0.11602678 -0.40109795 0.012730424 -0.044141475 -0.3208823 0.2161048 0.09960648 0.08662455 0.32966924 -0.15368062 -0.2256153 -0.08969103 0.0011845847 0.27525398 -0.07840465 -0.004799413 -0.1676707 0.12746507 0.023029273 -0.10686943 -0.36021465 0.027120447 0.03839844 0.20546634 0.3296353 0.16320497 0.08254679 -0.2703242 0.087924056 0.083956786 -0.29849917 0.18747996 -0.11934493 -0.10008737
1348 0.0761874 -0.023443943 -0.11233033 -0.0024207924 0.38800415 0.1103525 -0.18539928 -0.15125073 0.2833041 -0.000947996 0.37928674 -0.29108524 -0.0052828356 0.02914257 -0.39020634 -0.2932426 0.038523737 0.012660862 -0.22888309 0.23912524 0.27506799 -0.22684534 -0.068009734 -0.22881787 -0.012480214 -0.13684876 -0.11875406 0.074211486 0.16809025 0.19926877 -0.055306252 -0.08764507 0.18182641 0.08720735 -0.3332613 0.143202 0.18243614 -0.15771076 0.08952075 0.10129445 -0.274195 -0.13363011 0.15010868 -0.0013358796 -0.29913878 -0.06498928 -0.11842142 0.15084735 0.03293334 -0.14604297 -0.13352318 0.31765214 0.12881511 0.047420118 0.09162631 -0.02621668 0.0653167 0.11084015 -0.020612385 -0.13370427 -0.46227524 -0.13344255 -0.17045264 -0.05009688
1277 0.27026632 -0.26272127 -0.09691885 0.0011177637 0.33502182 0.27104342 -0.1551144 -0.31367972 0.12537874 0.018608373 0.29919022 -0.05723696 -0.23276283 0.26992798 -0.1635676 -0.049613573 0.32897255 -0.038379565 0.00894848 0.031998478 -0.016086627 0.03389453 0.06883739 -0.2371332 -0.12748511 0.07321534 -0.02266837 -0.10937378 0.30638582 0.3604393 0.01925198 -0.39015266 0.08398947 0.035430532 -0.25050795 0.10194951 0.0515012 0.056026697 -0.028220028 -0.08709983 -0.14068154 -0.050280638 -0.12340829 0.12191849 0.021658225 0.2152711 -0.18694322 -0.037038904 0.15012187 0.1658892 -0.14132625 0.2044751 0.1755497 -0.067318045 0.12787794 -0.092452385 0.03391918 0.066638075 -0.06665173 -0.33759806 -0.41376445 0.09973208 -0.008058604 -0.14019184
865 0.16067043 -0.16367747 -0.26920775 -0.112821534 0.190794 0.26193473 -0.010328597 0.11647655 0.26128313 -0.08345667 0.23650044 -0.17482245 0.060488347 -0.0013249295 -0.17848054 -0.28779662 -0.1000471 0.09588365 -0.15352257 0.21512453 0.059882395 -0.14159948 0.028112048 -0.26117712 0.17174426 0.10184749 -0.21886042 0.052216224 0.2722567 0.35502592 -0.070602395 -0.18472487 0.046520606 0.16304795 -0.3176493 -0.008996483 0.32041416 -0.031135364 0.33137894 0.27895793 -0.21137789 0.11860943 -0.1543223 0.26527178 0.057535015 0.010093949 -0.059030242 0.1456901 -0.19924498 -0.24852972 -0.3556592 0.14631343 0.18404382 -0.028539909 0.06302324 -0.0316615 -0.17169012 -0.20678955 -0.16080965 -0.21735857 -0.16292673 0.21578746 -0.042450864 0.07133687
2438 0.13586271 -0.11312916 -0.255621 -0.14267312 0.5507135 0.39754802 0.14009002 -0.3005126 3.819069e-05 -0.10957363 0.39634553 0.29737455 0.10064633 0.19360483 -0.0044011017 -0.019031545 -0.02046618 -0.037116528 0.050518543 0.13696104 0.23521194 -0.29154932 -0.16172272 -0.19719802 -0.03222516 0.2096477 -0.2159341 0.004472697 -0.013287411 0.16567034 0.0020031487 -0.11183949 0.026059156 -0.07559819 -0.1959804 0.34891102 0.13111667 0.12482572 0.123763114 0.035847213 -0.2286138 0.101013914 -0.16626522 0.07716055 -0.11981998 0.02595566 0.07679371 0.13005805 0.11308313 -0.214389 -0.10846481 0.29450542 0.009495511 -0.16492887 0.025896791 -0.13124996 0.02710226 -0.2985506 -0.13808379 -0.3901415 -0.08778004 -0.0184553 -0.026498776 -0.1402164
781 -0.01905983 -0.050218318 -0.19950598 0.26291898 0.36049753 0.13551274 -0.16820094 -0.3139233 0.062183697 -0.002289143 0.21662888 0.10777231 0.0428675 -0.0015708139 0.015825022 -0.0011537555 0.2831261 -0.07299409 -0.021387083 0.19888704 0.16888875 -0.22662862 -0.07648418 0.010189524 0.08722445 -0.108464286 -0.19104657 -0.2290519 0.3152385 0.31721428 0.049251378 -0.31883907 -0.022564705 -0.014404364 -0.22229996 0.22464089 0.29992053 -0.045063786 0.12240788 0.19330935 -0.22483414 0.12517655 0.02128057 0.025863793 0.15395099 0.022841822 -0.058577478 0.27254423 0.03296452 -0.22253168 -0.23876758 0.19552235 0.14579523 0.16573833 -0.01475396 -0.17379977 -0.25810704 -0.16896126 -0.10622734 -0.24124804 0.020500088 0.16654384 -0.07297248 0.037425727
2283 0.11760054 -0.22003712 -0.27995926 0.05307102 0.43917805 0.38413572 -0.22144179 -0.053282604 -0.17510037 -0.121348925 0.3193348 -0.11208303 0.011206048 -0.0862387 0.08239183 0.03516445 0.056902893 0.06931134 0.03352009 0.101428166 -0.03915905 -0.3142654 0.04567858 -0.3949791 -0.08530541 -0.23067175 -0.08636447 -0.10450414 0.061299253 0.047163405 -0.037673417 -0.1902838 0.29416165 0.03539633 -0.37686145 0.09114864 0.02287024 0.006881651 0.06428582 0.09749412 -0.2430655 0.021732487 -0.0009790607 0.06977234 -0.11997378 -0.006764514 -0.002697731 0.10219601 -0.20921905 -0.043235533 -0.078933336 0.31833073 0.14814146 -0.14393258 0.15401682 -0.068244845 -0.10847428 0.12081365 -0.0911138 -0.18606101 -0.213191 0.11148278 -0.270335 -0.1154565
1020 0.039256163 -0.26470938 -0.22828037 0.14944664 0.16986308 0.42162865 -0.22402187 0.046345674 -0.04797488 -0.105244964 -0.090190895 -0.0075407843 0.15992121 0.026538016 -0.20798151 0.19721447 0.20169277 0.31611067 0.19502944 0.3059601 0.16631915 -0.35933983 -0.028247358 -0.39406583 -0.0106607685 -0.0065439176 -0.25918186 0.034321345 0.28787482 0.21986924 0.00727049 -0.13654599 0.23094153 -0.07642239 -0.39553964 0.108668014 0.19687964 -0.10439745 0.04863472 -0.28767058 -0.3018808 -0.21468098 -0.12074958 -0.1156765 -0.028843764 -0.035299446 -0.025630241 0.100629866 -0.14100567 -0.12464207 -0.05831132 0.18727264 0.07640154 0.055005223 0.15131302 -0.026700653 -0.044828136 0.0017095766 -0.13336603 -0.15399274 -0.05673419 0.1253652 -0.15201205 -0.113967426
1126 -0.03013842 -0.12660685 -0.15719804 0.14282684 0.2036953 0.39570963 -0.1294639 -0.25174007 -0.03850174 -0.23365743 0.115249336 0.01392034 -0.09705441 0.33276746 -0.10554591 -0.18650694 0.098964825 0.07866245 -0.22308473 0.12288718 0.32263494 -0.2877675 0.18822391 -0.11744512 -0.1634552 0.08479801 -0.015061855 0.252091 0.30221522 0.30755115 -0.064360306 -0.013164441 0.05311194 -0.03683869 -0.2447725 0.33133653 0.24748386 0.12415105 -0.011627421 0.077253 -0.045809656 -0.22966675 0.060862474 0.17970614 0.15060313 -0.14476988 -0.05993732 0.14139408 -0.1382372 0.02840254 -0.035821564 0.26383352 0.04795025 -0.14113566 0.019842537 -0.15788034 0.124450415 -0.16880864 -0.16605157 -0.116980575 -0.29274938 0.16868304 -0.08275337 -0.14559948
918 -0.016037546 -0.15694024 -0.29754955 0.18103941 0.45309442 0.2698578 -0.13239977 -0.110760294 0.037589327 -0.030916173 0.22052923 0.031699564 0.04146798 0.07882943 -0.01019057 -0.18200718 0.13498639 0.07864407 0.07516239 -0.00604316 0.14407481 -0.007130146 -0.02168122 0.0268771 0.17091398 -0.07727027 -0.086938605 -0.046032988 0.03557036 0.07801053 0.04954541 -0.3112466 0.1340903 -0.1673577 -0.23703055 0.13936797 0.3028055 -0.10578449 -0.12032166 0.101316236 -0.077860214 0.086472265 -0.017009879 0.24150145 -0.0347271 0.052191667 -0.18526576 0.12978299 -0.21154572 -0.35034704 -0.22742005 0.2425276 -0.12691173 -0.0017846692 0.087048076 -0.22465152 -0.10272182 -0.18934609 -0.09086957 -0.4734635 -0.14185047 0.22690873 0.01871513 -0.09789787
2571 -0.089462966 -0.19208002 -0.3005359 -0.1061511 0.27579832 0.52919877 -0.2839287 -0.3437505 0.03390979 -0.30552968 0.23699856 0.12508674 0.22265223 0.19391419 -0.04235119 -0.050358605 -0.032213468 -0.20014273 0.07481485 -0.0490511 -0.00942837 -0.2780037 -0.015466829 -0.109725215 0.02458573 0.17272437 0.13587487 -0.011605996 0.15538545 0.37986848 0.2820441 -0.37227464 0.11974192 -0.08897905 -0.25778753 0.17971699 0.3286293 0.198086 0.03239663 -0.16241965 -0.2740685 -0.005438563 0.015909279 0.018468847 -0.14130197 0.03316749 0.048416574 0.15915239 0.02735252 -0.081548214 -0.22742943 0.5187812 0.24991445 0.15447527 0.035351038 0.118208975 -0.17561936 -0.06557805 -0.09242319 0.037823636 0.018312152 0.20197785 -0.21745491 -0.03833227
892 0.21639836 -0.21006346 -0.27238017 -0.008409375 0.28253686 0.19447984 -0.45734242 0.028399162 0.21587935 0.11688159 0.2848703 -0.058388777 0.08643551 0.021292057 -0.015660346 -0.21239087 0.35220766 0.14692344 0.02050881 0.17082597 0.26446933 -0.13201499 -0.18459 -0.15539153 0.030525502 -0.08209007 0.05239512 -0.08243543 0.034818884 0.22102694 0.1929459 -0.0829171 0.24666682 0.10031381 -0.23087408 0.30637816 0.07909643 0.23979416 0.1623839 0.05424289 -0.2696161 -0.081849545 0.10749833 0.0129762385 0.16003248 -0.06874305 -0.14005397 0.050024852 -0.2536865 -0.2569831 -0.20597593 0.15948282 -0.01260055 -0.099957936 0.016630288 -0.055896513 0.05974719 -0.07105011 -0.14494608 -0.043974716 -0.36855406 0.025162272 -0.059786405 -0.0734547
2077 0.019303488 -0.13276823 -0.27465847 -0.21274295 0.39766183 -6.209817e-05 -0.1439877 -0.13089772 0.3089964 -0.28848806 0.08035628 0.013123697 0.25812802 0.15766028 -0.08395937 -0.0004055556 -0.017037326 -0.04589067 -0.08270778 0.020735988 -0.14923374 -0.13439791 0.0758532 -0.17831694 -0.2544982 -0.076035276 -0.31552815 -0.018848991 0.23684807 0.3195603 0.004162986 -0.038049866 0.015716411 -0.04402202 -0.4192544 0.044266164 0.15027086 -0.0031500626 -0.019551305 -0.0053573293 -0.149249 -0.0942372 0.03313548 0.084387645 0.21691474 -0.12668942 -0.26790246 0.31317934 -0.03451544 -0.37888125 -0.25465998 0.04299196 -0.102145 0.034686126 0.24008264 -0.06592985 0.2491036 0.06331412 -0.06678399 -0.179189 -0.23590468 0.12468262 -0.17662229 -0.14806516
14 0.13207558 -0.15020837 -0.49881086 0.14276505 0.46703348 0.18709016 -0.16587746 -0.17471676 0.16336891 -0.16743599 0.20168768 0.009165288 0.12735695 0.09090499 -0.14836119 0.14719853 0.19926809 0.030362137 -0.17379747 0.13782825 0.042468354 -0.12361639 0.1695552 -0.041591633 0.030469563 -0.0458933 -0.26590717 -0.1911933 0.20433481 0.17449738 -0.04328382 -0.1381717 0.043936174 -0.3871194 -0.07225403 0.10464586 0.16114697 -0.036139425 0.17967597 0.044755433 -0.14746802 -0.16830082 -0.022079058 0.010608173 0.0044563594 0.115272336 -0.04019044 0.27152404 -0.17849761 0.037737675 -0.116687186 0.032535728 -0.169989 -0.17729813 0.19896205 0.17451653 0.040526174 -0.0395285 -0.14014573 -0.105970874 -0.16664246 0.05064042 -0.3311678 -0.08560488
1016 0.19214088 -0.19646549 -0.1432343 0.06483496 0.20664576 0.53914464 -0.22225264 -0.3038868 0.025684565 0.008855438 0.15607266 0.024453437 0.060349416 0.1077319 -0.12801273 -0.038640633 -0.055296548 -0.015636006 0.0581857 0.16795589 0.15246442 -0.17297618 0.0051334254 -0.469896 -0.054897476 -0.010640821 -0.0030838822 0.12348853 0.13496596 0.10325711 -0.112266265 -0.357089 0.009599608 -0.08046273 -0.154337 0.19057567 0.21844974 0.14328337 -0.09298046 -0.13095477 -0.23166288 -0.14930336 0.103051655 -0.06988557 -0.08718957 -0.06306158 -0.012038834 0.08026893 -0.08617276 -0.04533718 -0.18399246 0.25475836 -0.047067545 -0.13518335 0.18106264 0.057384063 0.02427435 -0.34452122 -0.03381552 -0.1370629 -0.06391158 0.1525434 -0.14612839 -0.3929514
2028 0.12722053 -0.25946057 -0.1498646 0.11866691 0.36548427 0.24635649 -0.30715463 -0.073210925 -0.15714504 -0.30170327 -0.009527416 0.17945719 0.13336922 -0.034554288 -0.16205987 0.12234751 0.35669494 0.08084029 -0.24608706 -0.08733344 0.09217922 -0.22805247 0.026640095 -0.3581709 -0.02906381 0.042800274 -0.23737365 -0.032702174 0.1369192 0.15049301 -0.041286536 -0.05579626 0.31725952 -0.16789818 -0.27100968 0.20843922 0.12110961 0.017801234 -0.04932205 -0.07355857 -0.17841414 -0.18230966 -0.03599873 0.101861715 0.113694765 0.11318138 0.10319476 0.15174733 -0.19800772 -0.16434485 -0.08200853 0.08746065 -0.06602788 0.073236205 0.040444706 -0.292689 0.07811363 -0.12717965 -0.20335369 -0.12723014 -0.318589 -0.027665582 -0.13612576 0.072967775
179 -0.07645568 -0.14459594 -0.29247394 0.11104552 0.31597388 0.17210066 -0.1683952 0.13951302 0.10624206 0.062228587 0.31523624 -0.28005934 -0.056396432 0.15963307 -0.2787691 -0.00033558597 0.12171675 0.044388134 -0.08941799 0.13279581 0.11860613 -0.16792701 -0.07555517 -0.28317982 -0.019062798 0.1538412 -0.0582369 -0.10237497 0.16600992 0.26568207 0.23608437 -0.2486386 0.31502134 0.16690247 -0.18751276 0.10456768 0.28057927 0.12279359 0.09397431 -0.16357294 0.02832956 0.027800376 -0.091077484 -0.049928125 -0.055867445 -0.1206811 -0.1347743 0.27972388 -0.024519753 -0.17727862 -0.17027573 0.12626779 -0.099664725 0.014194487 0.15732643 -0.30602095 -0.023227258 -0.17028272 -0.044499733 -0.12742236 -0.22927167 0.097429 0.009601198 -0.003753964
743 0.32044297 -0.048533563 -0.45323336 -0.02456232 0.052593727 0.37333536 -0.14832209 -0.19496685 0.018875709 -0.21683718 0.4133474 -0.021403711 -0.13797978 0.081238106 -0.25513732 0.081608616 0.15618953 -0.052799117 0.025375491 0.026414258 -0.09999774 -0.4233089 -0.16113786 -0.18342938 -0.1949476 -0.053159587 -0.043758903 0.24764588 0.09346426 0.24405818 -0.062322233 -0.17841177 0.14157724 -0.07991255 -0.3309043 0.08444327 0.26307613 0.08789779 0.074795015 -0.039424937 -0.31400138 -0.014816901 0.09472117 0.03433256 -0.09556668 0.25596648 -0.13944258 0.019648096 0.095585175 -0.18404917 -0.115156434 0.4193544 -0.0046868566 0.19933832 -0.08987419 0.0118566565 -0.11900642 -0.1388496 -0.17811336 -0.05474201 -0.064154424 0.11188607 -0.311198 0.10164855
1862 -0.05603353 -0.19031937 -0.33264187 0.015526103 0.18292318 0.24387677 -0.047005054 -0.1857912 0.044987727 -0.37295336 -0.07734788 -0.22380441 0.11857905 0.06538568 -0.04087168 0.07819114 0.42626637 0.1615728 -0.12438658 -0.028674353 -0.046836 -0.20382725 0.060410596 -0.20318748 -0.08780909 -0.043948572 0.01866839 0.0018942717 0.2190571 0.2523858 0.10781086 -0.27004325 -0.07938704 -0.02085292 -0.337969 0.27399203 -0.024606247 -0.024225866 -0.008084745 -0.07352164 -0.1555276 -0.038603887 -0.10911435 -0.038249243 0.060258973 0.0018640611 -0.29444376 0.24629675 -0.06715003 -0.059679393 -0.28680906 0.08512362 -0.12796548 0.19365956 -0.10736222 -0.08092138 -0.0568662 -0.26845205 -0.22063981 -0.14228219 -0.36903286 0.16279419 -0.15046456 -0.12147989
1056 0.013669445 -0.20881468 -0.20681538 0.03633667 0.4370408 0.20837276 -0.30350122 -0.16927531 0.08984087 -0.27893865 0.1973776 -0.105980374 0.31169856 0.04670209 -0.030962368 -0.187016 0.08132326 0.35110486 -0.087531485 0.11690161 0.09560444 -0.23487303 0.047825977 -0.18227078 0.09263072 0.042474944 -0.19973914 0.16013762 0.15032046 0.5175535 -0.08485183 -0.22137997 -0.16464879 -0.08556825 -0.36408055 0.026381724 0.25788656 -0.049362298 0.03033361 0.24663962 -0.34548593 -0.026770584 0.11047041 -0.08653236 -0.06589228 0.12199504 -0.0012841169 0.014755879 -0.018111523 -0.04856761 -0.09361219 -0.04691785 0.0027583125 -0.17037281 0.102183826 -0.31398496 -0.09026918 -0.14151557 -0.15788393 -0.17845404 -0.079822294 0.052357312 -0.021650739 -0.03561957
821 -0.017293377 -0.32063597 -0.24392067 0.094196334 0.26002684 0.2982806 -0.39340913 0.17641872 -0.12990297 -0.06062009 0.037126597 -0.12484358 -0.014311209 0.11613057 -0.15646194 0.13266183 -0.025553577 -0.25130865 0.05025627 0.08716529 0.051097155 -0.4030145 -0.069067486 -0.41825756 0.01536025 0.18133047 -0.12634759 -0.14746886 0.21137883 0.3272395 -0.0946443 -0.15654096 0.12555741 0.11997128 -0.3549582 0.26068398 0.14735365 0.10451446 0.09141809 0.037299093 -0.07748388 -0.11408262 -0.0674761 0.10601691 0.16856496 0.026567502 0.0029639543 0.25347885 0.054978207 -0.054416556 -0.06085664 0.24716446 0.033582933 -0.10558204 0.31259233 0.04470327 -0.06184466 -0.119994596 -0.12453178 -0.24159293 0.012970112 0.29823864 -0.19318783 -0.12014626
1988 0.17859486 -0.24839693 -0.1572603 -0.11738294 0.3453883 0.3764956 -0.036836285 -0.35723263 0.026574008 0.034100223 0.21443325 -0.2072206 -0.057418223 0.06698855 -0.12564877 -0.004384611 0.03856382 0.24818933 -0.14320642 0.12898451 0.22853316 -0.22710355 -0.0014170962 -0.23008032 -0.07496693 -0.12906185 -0.034002837 0.08159084 0.22587843 0.17639592 0.028689964 -0.25977954 0.049706135 0.020014144 -0.20136707 0.12232974 0.19309103 -0.078280084 0.08241911 -0.070965216 -0.14180928 -0.06747906 0.14862026 0.18093854 0.031833157 -0.071832016 -0.13147952 0.28348157 -0.066855825 -0.12337104 -0.08069265 0.0929442 -0.046505205 0.03379112 0.19371739 -0.0895274 -0.09232811 -0.1655605 -0.25711942 -0.13659509 0.016624292 -0.23411314 -0.15689667 -0.07651351
1440 0.22520718 0.095151074 -0.061927002 -0.016449807 0.26227778 0.32280838 -0.0221285 0.016129361 0.3008676 -0.035126466 0.2866902 0.06065795 0.03924714 0.17088373 -0.25743777 0.027673144 0.18408182 0.065845594 -0.18697463 0.23245007 -0.10395427 -0.18443622 0.062687755 -0.2220082 0.0830687 0.003993298 -0.3057308 0.13148504 0.3223069 0.08704631 0.08046431 -0.1221757 0.073679134 0.049973004 -0.11736942 0.10348052 0.13746673 -0.07156447 0.10854144 0.09635585 -0.09302637 -0.20441648 0.10080864 0.03556984 0.062048964 0.055455565 -0.060187973 0.1411014 -0.06729537 -0.29825094 -0.1931135 0.35745385 -0.008727095 -0.14506516 -0.020826023 -0.032916304 -0.09135286 -0.36397657 -0.14960451 -0.21317047 -0.40382314 0.099984564 0.05931116 -0.17889358
1615 0.12940453 -0.15041272 -0.34647116 -0.0053574694 0.32003137 0.2401286 0.032409403 -0.033306457 -0.05539661 -0.24433887 0.16682397 -0.052757565 0.021502389 0.2645626 -0.12619586 0.2846818 0.13217904 0.059437487 -0.19251004 -0.09788358 0.09219854 -0.056560773 -0.09357058 -0.29637367 -0.114270374 0.05269735 -0.0052573355 0.05087085 0.17795546 0.24695714 0.2033422 -0.5941931 -0.009076805 -0.093211465 -0.10691934 0.13679838 0.08164797 0.056201383 0.02698749 -0.3514524 -0.08183371 -0.18791765 -0.018118272 0.2928525 0.015177022 0.33122867 -0.23227057 0.19072165 -0.07580078 -0.27048212 -0.15433364 0.30577385 0.2099241 0.23666938 0.25796816 0.005789712 0.064515516 -0.24385065 -0.108654715 -0.19980493 -0.25487727 0.01198935 -0.08010296 0.04892354
1942 -0.020335242 -0.33697864 -0.33331928 -0.00453047 0.21919762 0.33556595 -0.17503777 -0.2038595 0.12891103 0.035316072 -0.03800982 0.10246625 -0.04005689 0.22216815 -0.21686009 -0.0025824457 -0.14509328 -0.26317075 -0.34074655 0.25508446 0.13463242 -0.16707489 0.031066671 -0.18432169 -0.10235923 0.045229275 0.023950152 -0.018345088 0.13092963 -0.06842206 0.0012713443 -0.20295852 0.020328721 0.0039749057 -0.10431963 0.2759239 0.25785488 0.14633323 0.25077423 -0.07293618 -0.19015026 0.09508305 0.04971274 0.06679078 0.075306945 -0.02923363 -0.050743144 0.24478784 -0.053955823 -0.3342186 -0.23183379 0.36351505 0.054958656 -0.1358757 0.1040648 0.13478594 0.07909946 -0.017484376 -0.23754226 -0.24708769 -0.39478162 0.16348723 -0.29247102 -0.14667886
2624 0.01497803 -0.14379366 -0.09105066 -0.023848956 0.31886876 0.37058118 -0.2163925 -0.20747232 -0.0027484314 -0.04332548 0.37061659 -0.10754636 0.14114048 0.21383886 -0.2864038 0.16114722 0.25441706 0.0070633404 0.03611458 0.0868187 0.08212926 -0.13854073 -0.07196546 -0.20556784 -0.11558344 -0.016511912 -0.2065899 0.11528438 0.12792102 0.24346097 -0.22878452 -0.24711804 0.15300463 0.21073975 -0.38048354 -0.062176954 0.1687847 -0.038391475 -0.04734067 0.07145407 -0.14912377 0.031876627 -0.063129105 -0.091742694 -0.17218696 0.13065003 -0.045035772 -0.13109116 -0.13821682 -0.2354518 -0.1462914 -0.06965464 0.19677195 0.09138978 0.2263392 0.023558648 0.0359584 -0.06235931 -0.2103754 -0.13611294 -0.38504007 0.19264702 -0.087192535 -0.036973312
2693 0.060535695 -0.0043226606 -0.29440117 -0.0016229425 0.35164866 0.30472392 -0.47191542 -0.07296344 0.12370748 -0.03560178 0.60214084 -0.015476016 -0.14363162 -0.010480546 -0.1265481 -0.0039969124 0.06668286 0.16030556 -0.32904068 0.07617058 0.05603419 -0.04216437 0.081416324 -0.015641967 -0.057371702 0.23729071 -0.085054666 0.23630765 0.07841664 -0.15329263 0.21100442 -0.062993586 0.027581709 0.06313377 -0.24231671 0.106216945 0.07284922 -0.049482875 0.2016621 -0.19864784 -0.35122702 0.005844653 0.017940465 0.099932306 -0.23695245 -0.05370639 -0.10168477 0.33495826 0.13752434 -0.12201428 -0.18730856 0.27786186 0.056763098 0.11533212 0.06345045 -0.011394202 -0.28658703 0.07888256 -0.1288442 0.088702165 -0.169157 0.12724827 -0.08899132 -0.07525843
2697 1.0463561e-05 -0.37704632 -0.14680406 -0.16446269 0.38707888 0.327073 -0.06426137 -0.029988324 -0.30595788 -0.14534344 0.23170464 -0.004722551 0.04172359 0.031505022 -0.008186694 0.13156603 0.031289864 0.15206727 -0.33006835 0.13430254 0.02394135 -0.3189698 0.09960891 -0.13314489 0.05597677 0.06995911 -0.01008982 0.035869613 0.30631486 -0.050031696 -0.0052419137 -0.033875655 0.077325135 -0.23239383 -0.43127862 0.2963959 0.35714567 0.035616305 -0.06918595 -0.22030555 -0.17185207 0.071179844 -0.08295285 0.049481023 0.043783125 0.04358808 -0.15791261 0.24785599 -0.19658187 -0.15363169 -0.30010852 0.12898055 0.12841223 -0.09619492 0.25823054 -0.04197366 0.023374928 -0.20855899 -0.2830502 -0.029216567 -0.2686493 0.12770174 -0.15605626 -0.112668134
2701 0.19707984 0.08827372 -0.14303006 0.12604105 0.22136603 0.24309261 -0.01956083 -0.23512514 -0.040833674 0.13064502 0.32345277 -0.06839299 0.0041157813 0.28092533 -0.058988 0.17113703 0.031734154 0.04542503 -0.36784756 0.16699217 0.16039355 -0.21386994 0.12233964 -0.11328355 -0.018679542 -0.00089583703 -0.18019602 -0.11856594 0.08429479 0.24295685 -0.1033214 -0.14203528 0.16877605 -0.07446114 -0.38475722 0.07597287 0.30145618 -0.02904233 -0.14232928 -0.23660165 -0.33813575 -0.16058153 -0.022271996 0.086371064 0.0028749383 0.073264144 0.027544174 0.104860134 0.02891514 -0.4292583 -0.25429597 0.054127913 -0.1265601 -0.24756533 0.39717236 0.20207304 -0.052578308 -0.03465384 -0.3470153 -0.11968967 -0.22979932 0.16522932 -0.10646939 -0.06619763
1321 0.3130659 -0.09891264 -0.1928794 0.0550451 0.3063587 0.47154552 -0.12213813 -0.17656188 -0.15496206 0.08125305 0.40778732 -0.33984026 0.12764643 0.07011527 -0.11556097 0.10721926 0.18103181 -0.03216815 0.051675323 0.23631851 0.21989353 -0.16676764 0.049840607 -0.020759588 -0.11833148 -0.12842876 0.015339896 0.14644282 0.04531903 0.07483426 -0.1525326 -0.30987442 0.15211114 0.0043537403 -0.42857987 0.08899416 0.20497264 0.20347276 -0.047869205 -0.057094052 -0.3054517 -0.036946192 -0.031867 -0.007438877 -0.0050156037 -0.1985617 -0.10926277 0.11880067 -0.021414578 -0.24972102 -0.22568685 0.10110609 0.05139727 0.049536668 0.37669396 -0.08282733 0.23606826 -0.36948946 -0.1379914 0.2895114 -0.18517672 0.013784066 -0.14164694 -0.091120355
2041 -0.10080891 -0.02011434 -0.16772144 0.051536564 0.30657235 0.275845 -0.2186608 -0.15220712 0.33220017 -0.1302564 0.29465863 -0.05241667 0.08796855 0.15428418 -0.08544182 -0.08979699 0.105574936 -0.060739867 -0.2569152 0.20871854 0.072368465 -0.31910747 -0.152857 -0.17983444 0.062128063 -0.29451293 -0.14417738 0.15237261 0.4799016 0.08813033 0.057996944 -0.086472474 0.024577983 0.1491062 -0.1312892 -0.08284875 -0.081117444 0.03268455 0.16724059 0.066411585 -0.081266 -0.23988055 0.08226159 0.20466927 -0.20231728 -0.018281018 -0.032439183 0.2691654 0.015214995 -0.14985147 -0.26023665 0.21617872 0.085576504 -0.11310062 0.12545815 -0.012584293 0.15901686 -0.06920736 -0.30917966 0.036331277 -0.24023528 0.2805541 -0.11383576 -0.10508835
855 0.0896188 -0.14364348 -0.3380576 -0.18077125 0.12281898 0.4172467 -0.040138304 -0.17174013 -0.008592335 -0.1860095 0.13204251 -0.07664024 0.11100084 0.013737068 -0.03173995 0.19595829 -0.0077403625 0.29331523 -0.011047562 0.21385646 0.24822098 -0.2961743 0.103997804 -0.123042695 0.20421553 -0.09230091 -0.35041305 -0.052188296 0.22789274 0.015771218 0.05038384 -0.030636469 0.13346785 -0.1392818 -0.34207043 -0.039524853 0.10852972 0.021898776 0.234476 -0.15210481 -0.29353225 -0.09210832 -0.08417591 0.027836593 0.22753175 -0.182396 -0.027908266 0.26332802 -0.24674359 -0.25970367 -0.342761 0.09209891 0.041178443 -0.3110833 0.25815463 -0.13818894 0.0116119785 -0.1204578 -0.05971283 -0.10620295 -0.23005287 0.23455952 -0.15074353 -0.35586298
1057 0.09376927 -0.40058577 -0.3664808 0.039727338 0.4105562 0.15790638 -0.051487844 -0.028445862 0.016733091 0.020343345 0.07845683 -0.0224537 -0.035007447 0.09548094 -0.34023768 0.06662742 0.11472861 -0.053632542 0.021480765 0.108860746 0.12874356 -0.45511335 -0.05151484 -0.3807311 -0.11222023 -0.00884967 -0.15548944 -0.10445115 0.21753578 0.011657794 0.16851553 -0.23218466 0.18567511 0.021570604 0.010284783 0.26693568 0.17240293 0.041118413 -0.3284985 0.2069604 -0.1313887 0.06514801 0.112569794 -0.050381076 -0.027532455 0.010222531 0.022885371 0.17271778 0.019901171 0.09174046 -0.097119875 0.15281196 0.089234926 -0.025882563 -0.008300727 -0.18564457 0.044433326 -0.2115282 0.02197095 -0.3384785 -0.5335461 0.21190497 0.07947717 -0.22715636
2607 -0.016018929 -0.2512444 -0.34470186 -0.057903934 0.3511549 0.29419458 -0.110599175 0.023600925 0.08671303 -0.14915916 0.13733557 0.14688213 0.1916294 0.20009688 -0.07416753 0.10802367 0.29496932 0.05667253 0.029092269 0.27339333 0.21775171 -0.05236146 -0.10690169 -0.19958998 -0.063323945 0.060670137 0.015904827 0.10566414 0.23842923 0.18624136 -0.024187552 -0.2087843 0.19583768 -0.023478985 -0.19164254 0.22141674 0.078890815 0.051128812 0.31371424 -0.16328959 -0.24926242 0.07312079 0.042835865 0.07021887 -0.0031727145 0.019587573 -0.086742565 0.017156437 -0.050401963 -0.22598937 -0.16843319 0.1712447 -0.057422586 0.12999985 0.21338594 -0.14515735 -0.18685251 -0.18295364 -0.24445884 -0.11576741 -0.17246367 0.13502224 -0.1467646 -0.12788416
1271 0.105221264 -0.12125886 -0.15388289 0.26791975 0.3999984 0.44596326 -0.15787496 -0.3365192 0.027656354 -0.20348577 0.22756024 -0.21057783 0.11367124 -0.033294257 -0.060052462 -0.113999896 0.17133506 0.09403164 -0.40799943 -0.13163188 -0.038503714 -0.18915936 -0.01859059 -0.0964765 -0.06834099 -0.04560743 -0.13233124 0.01184864 0.31005862 0.07654233 -0.1626251 -0.21697092 0.08871833 -0.13542788 -0.15044443 0.17878012 -0.12969097 -0.011362233 -0.015573614 0.005049517 -0.1315196 -0.09308912 -0.013024645 0.15031159 -0.18119276 0.12257439 -0.075647995 0.13335817 -0.10943791 0.04182423 -0.29353526 0.12335483 -0.10349869 -0.16006587 0.07485725 -0.12085181 0.10053985 0.07083939 -0.2019513 -0.15264957 -0.26226282 0.044038236 -0.016607974 -0.082411565
2320 -0.040466182 -0.16891871 -0.24294311 0.1311682 0.18765421 0.3397336 -0.11348758 -0.049152523 0.01911324 -0.19194883 0.39631888 -0.16026972 -0.13840549 0.15076332 -0.3215395 -0.05602925 0.2105231 0.07435081 -0.25900504 0.18410581 0.057696074 0.017592814 0.13433975 -0.4312499 0.036510922 0.031186217 -0.0744061 -0.08194068 0.16060457 0.21571407 0.04445887 -0.07128018 0.2524796 0.034546167 -0.05969633 0.13986573 0.2646955 -0.0017256414 0.015332168 -0.036435146 -0.13080402 -0.11921155 0.15765221 -0.018248051 -0.14212905 0.030254317 -0.13502945 0.10060951 0.019366672 -0.06296131 -0.13279791 0.24686654 0.0924053 0.00030918836 0.18660375 -0.19941685 -0.035868365 -0.11729716 -0.0053036627 -0.23656578 -0.22962482 0.10624129 0.01264337 -0.13923909
2501 0.103957996 0.021673135 -0.2722766 0.032280233 0.25776756 0.26407734 -0.26652318 -0.22425422 -0.00778315 0.0112643195 0.21602821 -0.07585498 0.19895075 0.005739562 -0.13191481 0.049374193 0.21870087 -0.08019692 0.13873304 0.32688358 0.26961347 -0.0067729834 0.03932851 0.033180293 0.22322357 -0.025193498 0.032481913 -0.0036055183 0.079749614 0.14097731 0.05542819 -0.14335053 0.5781361 -0.081013694 -0.05218993 0.24567902 0.38507053 0.119079426 0.21485601 -0.014762978 -0.43809828 0.04858041 0.10452598 -0.10196785 -0.1498558 -0.016518336 -0.19368786 0.32854098 -0.052185487 -0.1566776 -0.31384817 0.24148765 -0.14423998 0.19974695 0.023738364 -0.032278795 -0.06312244 -0.05605232 -0.1422701 -0.1904871 -0.14127289 0.20153302 -0.19555539 -0.30703536
1558 0.076593556 -0.10402087 -0.32119015 -0.010703534 0.34093714 0.16936575 -0.155031 -0.204629 0.2522286 0.20727031 0.24755532 0.17126559 0.05874316 -0.0011128895 -0.21957864 -0.11326358 0.2910626 0.0068569267 0.07794521 0.26998353 0.31290182 -0.33199343 0.005989331 -0.15231176 -0.08857391 0.18890083 -0.3054645 0.16244973 0.24559885 0.25514492 0.08153056 -0.23170552 0.15310755 0.06067556 -0.039894942 -0.023623189 0.008962629 -0.3712307 0.02506769 0.034005962 -0.08125194 -0.015001355 0.006559185 0.032778576 0.3095422 -0.21583949 -0.12633948 -0.0069943187 -0.11847095 -0.12324932 -0.07891173 0.32657993 -0.06922351 -0.07625141 0.07923837 -0.20491728 0.11879007 0.020228762 -0.08529421 -0.36505345 -0.15173364 0.30916557 0.08696088 0.083431475
383 0.09875165 -0.2044278 -0.24471602 -0.2323866 0.42106503 0.5746686 -0.30113074 -0.11070458 -0.027503496 0.017785216 0.36218986 0.06479463 -0.05780026 0.083135225 0.05614289 0.08268925 0.11381731 -0.028363349 -0.044998832 -0.05398249 0.12064982 -0.273428 -0.253793 0.051251195 -0.030367197 -0.0031444845 -0.18351015 -0.07582659 0.13591188 0.06992612 0.034983084 -0.024011968 0.22292623 -0.3831048 -0.31918752 0.31325814 0.34411773 0.09117195 -0.013788393 0.118318394 -0.16993818 0.08466838 0.11618828 0.032113027 -0.0144324135 -0.014599124 -0.06835566 0.039203253 -0.06144692 0.05997562 -0.121255375 0.16880034 0.017622013 -0.077347286 0.2733722 -0.011531622 -0.118117765 0.0026349146 -0.16150849 0.016138237 -0.21794543 0.055031426 -0.070612736 -0.0900335
256 0.059703745 -0.3214673 -0.26241678 -0.009045998 0.5971064 0.20411256 -0.066405565 -0.19117959 0.27505445 -0.16553757 0.20784198 -0.002565781 0.09130153 -0.20391437 -0.0027780973 0.035531487 0.017060257 0.11386889 -0.18374437 0.2157251 -0.10182882 -0.13343339 -0.15469278 -0.23712645 0.16135545 0.08781427 -0.1481165 -0.003670593 0.20113748 0.2052373 -0.12208385 -0.2977263 0.3003154 0.08104404 -0.20684974 0.11928059 -0.054017242 0.008465969 -0.122773156 0.039034612 -0.16781148 -0.09679712 -0.24702944 0.12477132 -0.10815961 -0.02166014 -0.08123629 0.24798869 -0.0069699483 -0.23564136 -0.099732265 0.17791817 -0.31393936 0.14255942 -0.19719118 0.09246038 0.16410452 -0.09887659 -0.025846202 -0.3188461 -0.14803149 0.30417174 0.15323372 -0.07477428
770 0.04255497 -0.12710576 -0.25018913 -0.0115264105 0.41972157 0.31722045 -0.25889033 -0.15685375 0.0460941 -0.062438693 0.06374806 -0.06980495 -0.027343413 0.21119101 -0.2770534 0.03205542 0.1729907 -0.009376123 -0.035163652 0.17376901 0.2259049 -0.063357815 -0.14846285 -0.18151905 0.020430332 -0.2444762 -0.13670257 -0.025240941 0.22587673 0.06628336 -0.059482012 -0.11015183 0.14956564 -0.219853 -0.37320825 0.18362851 0.262547 0.14309427 -0.0021795537 0.06607649 -0.07980856 0.23179355 0.016915597 0.12460733 -0.053784054 0.106394656 -0.096728295 0.09355289 -0.35767272 -0.03235832 -0.04679112 0.085474536 -0.02978846 0.06838664 0.20528561 -0.11662731 0.081921674 0.033186797 -0.11565714 -0.21416177 -0.40196663 -0.03515699 -0.22587205 -0.098106295
1861 0.09065883 -0.05993608 -0.5027329 0.14198919 0.29282483 0.50352645 -0.21249825 -0.21255197 0.09156488 -0.1396758 0.32267347 -0.31669268 0.13950008 0.12712678 -0.18874922 0.026670882 0.07029229 0.15185817 -0.047967363 0.30961818 0.020711496 -0.06964929 -0.06924979 -0.14545977 -0.11958463 0.22825687 0.09423526 0.010991741 -0.042710938 0.16103832 0.28699148 -0.08859177 0.29725933 0.15543029 -0.34889466 0.04590537 0.034131773 0.08458899 -0.019245662 0.107610226 -0.22019352 -0.15285987 -0.04155839 -0.18209004 -0.12545653 0.031599134 -0.14211202 0.047870465 0.16580239 -0.009551675 -0.17579961 0.21699555 0.08008837 -0.07074714 -0.023812681 -0.02850799 0.21975426 -0.044362977 -0.16259979 -0.18101944 -0.30935436 -0.11669535 0.058410294 -0.08334171
2162 0.2627307 -0.2509664 -0.37920275 0.06980003 0.25412503 0.26341048 -0.16898744 -0.2136146 -0.044614483 -0.27233344 0.4694607 -0.077867195 0.210897 0.22471632 -0.017788488 0.0076588686 0.2826792 0.13354391 -0.061360743 0.31896174 0.029183265 -0.33708856 0.12621659 -0.20340937 -0.049519695 0.40191334 -0.1860706 -0.024025755 0.16557166 0.13020065 0.095033854 -0.16511485 0.29591522 -0.016290057 -0.047671035 -0.026803812 0.1747858 0.04475143 -0.014498954 -0.20707883 -0.21525025 -0.04966253 -0.17915304 -0.08447034 0.20555049 0.1982985 -0.078302026 0.022439558 0.019492872 0.095837295 -0.07640642 0.23226695 -0.030141167 -0.12866972 0.105192944 -0.0868671 0.08639193 -0.17817988 -0.027709562 -0.32084343 -0.06589415 0.051452085 -0.07883087 0.07154165
1806 0.0061328826 -0.12839179 -0.15825282 -0.040582605 0.32115248 0.44379506 -0.16778801 -0.14135082 0.07643716 -0.22133084 0.27828085 -0.12964411 -0.05840804 0.1346118 -0.052148283 -0.084576346 0.032062713 -0.14089811 0.06146233 0.17169462 0.04668865 -0.22626199 -0.26867944 -0.22791626 -0.12557514 0.18862104 -0.24410588 0.08589422 0.27865598 0.28309008 -0.13527188 -0.27535895 0.15854128 0.08787955 -0.08166883 0.13293536 0.031601664 -0.066615134 0.16193351 -0.058668863 -0.24538656 -0.007681803 0.07115185 -0.03031378 -0.21660268 -0.039753087 -0.0011935877 -0.12878892 -0.13952646 -0.10254028 -0.2518724 0.16795367 0.2904316 -0.053466238 0.089654386 -0.12986071 -0.14855349 -0.045119207 -0.16108817 -0.06308718 -0.07987646 0.10485673 -0.23452482 0.04574196
197 0.13791265 -0.064450406 -0.14066921 0.04547787 0.3513697 0.25690928 -0.26758626 -0.06380437 -0.09448892 0.079751626 0.56832486 -0.22566023 0.18927698 -0.04013983 -0.06751102 0.14829837 0.35597104 0.32832095 -0.14306168 0.0074235657 0.25443247 -0.21107519 -0.12534283 -0.21270408 0.09366653 -0.05083593 -0.10289679 -0.0194607 0.056374695 0.22981156 0.11299382 -0.19179606 0.14588052 0.14981535 -0.2405425 0.06424219 -0.14889476 0.13955033 0.063735195 -0.02193633 -0.2315795 0.018933062 0.026970964 -0.068564855 0.009541502 0.23944491 -0.20799616 0.2644597 -0.17092794 -0.019974774 -0.14515373 -0.04802865 -0.011853617 -0.07808084 0.25715575 -0.08096378 -0.07483673 -0.29406232 -0.09476322 -0.012794191 -0.25276613 0.07631471 -0.11386467 -0.17373313
2698 0.28769386 -0.07973219 -0.30032906 -0.13532181 0.25830388 0.36568484 -0.27891263 -0.27351892 0.09506104 -0.06728274 0.31936508 -0.3019811 0.05128791 -0.114115015 -0.13938366 0.009584968 0.24198829 0.17127444 -0.04864651 0.20036854 0.14529404 -0.27977857 0.00028741258 -0.14339036 0.064792976 0.0012350461 -0.12004785 0.080093265 -0.07688803 0.3926677 -0.092078425 -0.10303076 0.22741044 0.21675722 0.049813457 0.19039305 0.24321589 0.08615893 0.15189315 -0.059890494 -0.44878465 -0.02448792 0.06916866 -0.19763401 -0.17242894 0.1568081 -0.054891586 0.056098938 0.083093576 -0.19352223 -0.2454305 0.11516267 -0.10654851 0.013222197 -0.005375465 0.015774077 -0.11835999 -0.034166098 -0.014976825 -0.22831713 -0.1968674 -0.03959577 -0.058470808 -0.13479134
1802 0.1734095 -0.14331767 -0.21784307 0.06311311 0.23608291 0.074002616 -0.1704442 -0.23422623 0.23467001 -0.1511197 0.28931454 -0.060307644 0.08953514 -0.059324265 -0.09984554 -0.040055882 0.20965338 0.04538103 -0.1958285 0.18218125 0.08204597 -0.3364129 -0.12755452 -0.14100243 0.04011832 -0.11612913 0.015559516 -0.028227154 0.19991222 0.19970366 -0.1250358 -0.28378078 0.26138264 0.14093705 -0.18863626 0.19851424 0.0020200459 0.013924811 -0.02280973 0.0949679 -0.5136992 -0.06297701 0.03908907 -0.035804212 0.10054675 0.01590365 -0.016955938 0.20516655 -0.062722124 -0.25118804 -0.12373984 0.2759026 -0.018921021 0.0056231543 0.07834179 0.21296062 -0.049789317 -0.049212147 -0.1644017 -0.08401908 -0.21290357 0.092740625 -0.1996062 -0.25411254
2303 0.11790031 0.09461338 -0.13582401 0.18176946 0.2954543 0.3685551 -0.25691462 -0.057303477 -0.00012536705 -0.004313165 0.34140924 0.08166083 0.24831605 0.10440236 -0.025375355 -0.100819625 0.21424134 0.23953468 0.18353358 0.19927622 0.15939362 -0.031695932 -0.0825589 -0.2877354 0.0842403 -0.23061164 -0.28069913 -0.048373155 0.060064305 0.39116415 -0.030275885 -0.4154174 -0.008620465 -0.16514988 -0.1961772 -0.014611321 0.20174028 -0.10566816 0.08166409 -0.009503531 -0.3227555 0.16504267 0.13233958 0.25223926 0.11376842 0.21219297 -0.0075961594 0.1629977 -0.16188811 -0.045265358 -0.049969 -0.017773902 -0.01053232 -0.121046156 0.2140237 0.16078119 -0.1168426 -0.2502752 -0.14395744 -0.10361687 -0.3068102 0.24826725 -0.028910182 -0.055420857
1894 0.1160731 -0.07492871 -0.13899752 0.028840628 0.40805498 0.22767967 -0.2064702 -0.14918087 0.11048216 0.084362395 0.39920908 -0.19394836 -0.031128572 0.20842062 0.030448059 0.14398445 0.16684197 0.020895218 -0.15910128 0.26508138 0.2538001 -0.3267748 -0.025442226 -0.2796887 0.07853705 0.1377643 -0.08727556 0.2698104 0.23785798 0.41291773 0.056310806 -0.187776 0.03436956 -0.1545256 -0.2850613 0.059149068 0.28867728 0.0756121 0.07918421 0.2044176 -0.17742214 0.07337962 -0.03982946 0.111798406 0.2305877 -0.14049232 0.037383623 -0.11292903 -0.09210865 -0.034681916 -0.0075714285 0.07833969 0.05396929 0.14387336 0.10158787 -0.17756073 0.033655915 0.027832044 -0.4199313 0.020763345 -0.097029276 0.15373334 -0.2287942 0.14707558
212 -0.06245209 -0.19792938 -0.08553287 0.013353092 0.4686284 0.44090664 -0.09774425 -0.20220862 0.05264686 -0.034934957 0.23975928 0.29299825 0.008212847 0.19225717 -0.04787341 0.017632613 0.09669596 0.08149064 -0.06767077 0.16583887 -0.074129246 -0.102290116 -0.023081189 -0.35666814 0.08033162 0.011163446 -0.017537678 -0.031711392 0.12220382 0.07677414 -0.28680673 -0.33134127 0.043570634 -0.019327112 -0.23315473 0.1491851 0.1186467 -0.06767178 -0.10021445 -0.019454064 -0.28937018 0.12317659 0.15097992 0.20223041 0.0130805895 0.103200644 0.04517512 -0.1030227 0.037217114 -0.26643038 -0.19705787 0.26047936 -0.04262321 0.055643648 0.21531841 -0.13877177 0.29518148 -0.036638994 -0.08253248 -0.19249651 -0.22736287 0.0825199 -0.03601973 -0.08394108
1119 0.12401387 -0.13594556 -0.144414 -0.17098753 0.47452176 0.26020107 0.048007872 -0.087706834 -0.07397265 -0.08238837 0.30716494 0.17035547 -0.14012238 0.122462355 0.03822504 0.13381273 0.1279141 -0.081956655 -0.21896893 0.19001137 -0.0132036 -0.14011821 0.13407409 -0.21366894 -0.108773276 0.2835014 -0.20827352 0.14687863 0.31633937 0.21730143 -0.03673846 -0.21854982 0.090218864 -0.09347243 0.19751027 0.17851582 0.27688894 0.09092489 0.058940236 0.04339011 -0.20786846 0.052787032 0.10810659 0.0924547 0.021377685 0.08260109 -0.3266459 0.35688412 0.16604476 -0.03327337 -0.21354258 0.1441936 -0.25811696 -0.072839126 0.1585952 0.029708661 0.0938044 -0.028532837 -0.2988962 -0.2502481 -0.18138275 0.087769 0.011384791 0.0134400595
2534 0.11308403 -0.18670425 -0.42609745 -0.14451607 0.4286856 0.465397 -0.15964969 0.066188835 0.010828797 0.0041764067 0.30336106 -0.11985087 0.15081868 0.016238892 0.07590891 -0.01527975 0.23845062 -0.025537128 -0.17479463 0.12652749 0.15061279 -0.32431155 -0.0015127761 -0.0745552 -0.0038640746 0.07761119 0.027200354 0.06823696 0.26000592 0.15922406 -0.117569566 -0.15096655 0.20581533 -0.035810832 -0.33187032 0.19246446 -0.11037085 0.083148085 0.1576296 0.20429021 -0.037635874 -0.15148862 -0.100094214 0.06622922 0.20075983 -0.09173288 -0.04397806 0.09000295 0.015260558 -0.057720583 -0.33542937 0.18957844 -0.024261191 0.04154302 0.09541681 -0.1439046 0.15715632 -0.14525631 -0.025819676 -0.09100906 -0.16014017 0.18709578 0.0028917745 0.103640676
1116 0.17150764 -0.13060562 -0.08236044 0.069845974 0.22422059 0.29700324 0.058043055 -0.077108525 -0.14866766 -0.12806392 0.16966794 -0.2263025 -0.17330596 0.34810483 -0.028566528 0.11494217 0.14590333 0.08525362 -0.14360864 0.18014668 0.022679206 -0.38177982 -0.16122568 -0.20773114 0.12064368 0.102894835 -0.16354902 -0.0061695697 0.3494224 0.22939047 -0.025342725 -0.22410513 -0.23925011 -0.049904708 -0.25133935 0.10628926 0.25298864 0.07528975 -0.05214264 -0.02353924 -0.3904814 -0.059683286 -0.27372694 0.16801433 -0.13610628 0.143714 -0.10844536 0.23462828 0.019022515 -0.17579913 -0.12544192 0.31801945 -0.08585589 -0.016259385 -0.039227992 0.0047363513 -0.121251695 -0.083666116 -0.1989869 -0.2338422 -0.18404153 0.24587952 0.12857321 -0.022840742
1893 0.084765166 -0.20457995 -0.30321145 -0.1497241 0.30180657 0.23546225 0.09175193 -0.23571497 0.059353948 0.080607735 0.33289516 -0.18783933 -0.044700857 0.23296884 -0.00468374 -0.16805576 0.22933523 -0.03675718 -0.20720643 0.18590601 0.14363047 -0.16453682 0.09516373 -0.03322577 -0.03375352 -0.009093623 -0.1748101 -0.02084331 0.335009 0.22798918 0.023012457 -0.25439695 0.23204263 -0.1374808 -0.2603997 0.27548027 0.15516202 -0.03353259 0.09238607 -0.2442037 -0.16025972 0.092819735 0.050427493 0.06357408 -0.12840691 0.1686403 -0.015779715 0.22336657 -0.009752957 0.030712515 -0.045062616 0.17234585 -0.12712133 0.045661587 0.09761571 -0.16975315 -0.061168894 0.024254415 -0.046886493 -0.16679834 -0.24247642 0.111797586 -0.09368358 -0.15015607
986 0.19855659 -0.22225897 -0.39157405 -0.05251973 0.3805742 0.3093141 -0.15108576 -0.12737653 0.050297916 -0.1567811 0.21555607 0.22175996 0.20027874 0.3065345 -0.13343118 -0.15662107 0.0983379 0.07129429 0.10451149 0.20343354 -0.17687604 -0.15147063 0.06810329 -0.26436272 -0.13361995 0.08886647 -0.20707728 -0.15708332 0.10077759 0.24981226 -0.04135917 -0.15443417 -0.07528962 -0.2326173 -0.15743273 0.18439929 0.13918361 -0.030504225 -0.04602109 -0.16129492 -0.21239983 -0.102343425 -0.041062403 0.11133059 -0.19251226 -0.084955595 0.09951974 -0.15828912 -0.16380638 -0.444736 -0.16462366 0.32849765 -0.18724304 -0.16936795 -0.038654834 -0.10171528 -0.17101613 -0.27392027 -0.26958418 0.07094123 -0.23534884 0.005100391 0.035813063 -0.113770224
990 0.060939983 -0.2132947 -0.28804347 0.081028216 0.22595474 0.27841663 -0.026143538 -0.26117274 -0.0058877952 0.052900214 0.13306203 0.042186283 0.0067870356 0.0054684016 -0.20821956 0.054627806 0.20297258 0.14599334 -0.38006982 0.35066554 0.18513207 -0.15598696 -0.002720664 -0.13074586 -0.14213999 -0.03631063 -0.28676945 0.093245074 0.2333002 0.40837297 -0.077718325 -0.14984086 -0.06721386 0.06530911 -0.13038924 0.17043427 0.2998429 -0.15707178 0.12361205 -0.012593102 -0.26376855 0.24284291 -0.103579484 -0.034621242 0.12200288 0.19453494 -0.14170603 0.28218687 -0.00082781736 -0.17993288 -0.1667933 0.07966094 0.011481688 0.06750692 0.09412153 -0.2081333 -0.042380504 0.07988861 -0.28332433 -0.18085556 -0.0042239823 -0.034749568 0.015061803 -0.14084303
1948 0.18348894 -0.16668 -0.16023682 0.15769196 0.19347066 0.2821395 0.061599392 -0.0842686 -0.06689176 -0.05392346 0.2407464 -0.1404212 0.119938456 0.19969021 -0.24271926 0.19654381 0.22683425 -0.12214551 -0.0715878 0.09192671 -0.03979892 -0.30477265 -0.03972455 -0.4671325 -0.057622135 0.22780704 -0.24945907 -0.12554643 0.14172442 0.28524628 -0.045286603 -0.48412934 0.05857107 -0.15142016 -0.01622763 0.17377116 -0.09400096 -0.003149354 -0.3498178 -0.20727783 -0.2765597 -0.054623708 0.14949827 -0.25829348 0.12776549 -0.06423488 0.010084826 0.16414322 -0.11947053 -0.2940196 -0.190358 0.14414893 -0.11531864 0.05957517 0.09788925 -0.0120586045 -0.010910662 -0.24419221 -0.0634574 -0.33359852 -0.110017866 0.22626248 0.045881495 -0.010853341
1741 0.1797221 -0.21958815 -0.34186745 -0.12246549 0.3853386 0.4354853 0.010619414 -0.06757561 0.03770844 -0.17403358 0.3163179 0.044273615 -0.017872982 -0.0067974166 -0.08554546 -0.18395573 0.13793054 0.2167737 0.006189844 0.15251593 0.11587704 -0.1868684 0.2328283 -0.2251632 -0.14755405 0.26779607 -0.3298196 0.012761013 0.07291461 0.11206946 -0.004661442 -0.28829688 0.11427476 0.028705155 -0.07220835 0.34462786 0.10537113 -0.058377925 -0.12604198 -0.01336702 -0.20863111 0.14961694 0.083294906 0.11874714 0.08630352 -0.116836205 -0.06377552 -0.011173096 -0.21255441 -0.16740024 -0.109602645 0.101317935 0.013699925 0.07866219 0.1002902 -0.13646251 0.0138912955 -0.17869605 -0.0008238362 0.06310476 -0.23475309 -0.09823263 -0.13582948 -0.041815378
1614 0.011869747 -0.20173594 -0.28176367 0.12976304 0.35505784 0.21076953 -0.2734743 -0.27765587 0.16084518 0.06799011 0.28682 0.067688905 0.011581177 0.10721668 -0.12660868 -0.0055092233 0.01244993 -0.06689663 -0.16770214 0.20919546 0.2077244 0.04871137 -0.24927758 -0.23436162 -0.19806324 -0.114372596 -0.06262415 0.3132744 0.2559795 -0.10263165 -0.051903274 -0.35639986 0.27260098 -0.31690225 -0.22376427 0.3037946 0.084407836 -0.0210475 -0.035691828 -0.0060024057 -0.08406723 -0.05120726 0.12561116 0.03303334 -0.046986934 -0.103074715 0.023441412 -0.11302588 -0.16900174 -0.07349058 -0.3526792 0.23259334 -0.019304868 0.055008136 0.14254312 -0.23265964 -0.06559147 -0.2868921 -0.031528756 -0.015317915 -0.24552688 0.024166841 -0.2039323 -0.09473454
1024 0.0687103 -0.07473412 -0.36964282 0.029333662 0.27884778 0.4836996 -0.16408688 -0.09900813 0.048981063 -0.05549349 0.36575922 -0.12910137 0.2526808 -0.06443254 -0.12097253 -0.07889139 0.20753615 0.20939957 -0.14051016 0.10455384 0.036306117 -0.43455452 0.1854335 -0.15797676 -0.119961604 -0.0743052 -0.050964892 -0.029223725 0.08950329 0.2597736 -0.1585677 -0.050660092 0.3975065 0.15124626 -0.31257394 0.15858784 0.09837968 -0.017358586 0.11856143 -0.21491414 -0.17020436 0.01880685 -0.05230489 0.15790536 0.0048783594 0.058368158 -0.20018423 0.39398935 -0.056573085 0.0029003967 -0.13002723 0.072481364 -0.13167304 -0.056096636 0.25021836 0.12140338 0.018312432 -0.21217543 -0.07056821 -0.12879689 0.035194967 0.009514503 0.020260872 -0.034250263
678 0.018082257 -0.43342292 -0.2290802 -0.16790317 0.5012898 0.20396802 -0.2571706 -0.19234273 0.123364516 0.016017722 0.082661726 -0.106114835 -0.068093486 0.048813753 -0.018362327 -0.022126596 0.23830317 0.23192379 -0.08816366 0.31930616 0.102495804 -0.33116454 -0.07285192 0.08883465 -0.010021768 -0.040579364 -0.068065785 0.10395159 0.19858208 0.12458118 -0.043696754 -0.30527171 0.091652386 -0.02837879 -0.21684276 0.2005902 0.2271416 -0.00810612 0.048887506 0.061393075 -0.29579806 -0.27196366 0.032448918 -0.11626558 -0.11066435 0.01041795 0.06049385 0.03003153 -0.024836056 -0.25990742 -0.08029507 0.22351503 -0.009301292 -0.24235827 0.3013384 0.054526407 0.060924277 -0.037250567 -0.07033315 -0.1664477 -0.17385058 -0.11475665 0.05829825 -0.12883623
1340 0.090383016 -0.13695326 -0.24757095 -0.031391706 0.49355343 0.32487202 -0.22435279 -0.22644435 0.3456578 -0.015149759 0.1489587 -0.02129627 0.20015144 -0.03166226 -0.27409923 -0.27781254 0.16917574 -0.1855792 0.11072978 0.16817762 -0.03648731 -0.12060436 -0.09200897 -0.06179565 0.18791437 0.11203252 -0.21708727 0.00068864966 0.16884954 0.09378555 -0.2500631 -0.4028735 -0.014626003 -0.058717318 -0.01413479 0.22867388 0.13584864 0.015522896 -0.04326551 -0.0770078 -0.16927315 0.03365855 0.3595178 0.090232946 0.16415255 0.049938306 -0.2054899 0.22367513 -0.21249495 0.06358751 -0.23382089 0.2550849 -0.17004862 -0.07854132 -0.02238488 0.19925156 0.13113347 -0.39477807 -0.09322132 -0.19457465 -0.24037552 0.21529274 -0.1666803 -0.11014322
2610 0.1849258 -0.117404036 -0.2517546 -0.0065448903 0.24349973 0.19107911 -0.09601426 0.07959645 0.021525938 -0.03391047 0.11006157 -0.39190578 -0.070932746 0.27097842 -0.19886377 0.17669696 0.022103354 0.091962196 -0.19024277 0.40929946 0.15128791 -0.15699898 -0.27468762 -0.07272113 0.09122175 0.10990141 -0.15381601 -0.003037838 0.054740295 0.16573383 -0.044010777 -0.1999038 0.042397656 -0.051225327 -0.35201874 -0.026649851 0.3009661 -0.08743957 0.0859074 0.09369825 -0.26363522 -0.14596446 0.04939322 0.35322574 0.16370438 0.18597032 0.08782967 0.04656861 -0.111914754 -0.24464765 -0.08679345 0.10674323 -0.07797784 0.035662744 0.4055155 0.1462349 -0.036648884 -0.28613162 -0.3952381 -0.16905916 -0.13851948 0.11747328 -0.08477189 -0.05692038
1570 0.04954831 -0.040892288 -0.16897139 -0.14958432 0.40231082 0.10866951 -0.12825637 -0.3283818 -0.039903443 0.09558057 0.33478984 -0.13794461 0.20788096 0.24356592 -0.10608953 0.0006531445 -0.12038405 0.16718152 -0.17299223 0.11245559 0.063519016 -0.11186854 0.05405986 -0.20477104 -0.31262273 0.112290524 -0.015478567 -0.3942848 0.26335657 0.25690806 0.15412919 -0.18611352 0.3671315 0.11917042 -0.46100286 0.095592 0.11399602 -0.012081124 -0.040640544 -0.047339883 -0.025386529 0.023496475 0.07289345 -0.08216507 -0.062913634 0.055542108 -0.016495535 0.20428057 -0.06276959 -0.12658772 -0.27631918 0.032896932 0.14511335 -0.1361776 0.3460962 -0.22378688 0.14063372 -0.03744554 -0.11061637 -0.029704938 -0.3427259 0.037261933 -0.05126052 -0.26695102
765 0.25097072 -0.1755324 -0.018221358 -0.024902772 0.38249522 0.20349234 -0.18621817 -0.3392235 0.080658786 -0.08154661 0.2813215 0.13294247 -0.19804673 0.010397816 -0.2671102 -0.03972318 0.29787457 0.011417762 -0.021738483 -0.06386986 0.060663685 -0.0096778525 0.22417292 -0.16797432 -0.068977505 0.15211226 -0.21784735 0.28725642 0.26459587 0.20329234 -0.11204507 -0.12266507 0.1821051 -0.11424198 -0.37648574 0.092578046 0.13086683 0.03279964 -0.14795639 0.011038851 -0.04136299 0.130396 0.079067916 0.19383705 0.089538395 -0.07014418 0.015581539 0.2858294 -0.18370627 -0.08169669 -0.17910202 0.088644475 0.02275101 -0.20033512 0.08833405 -0.070842795 0.113341965 0.0264582 -0.25597316 -0.07921669 -0.35765636 0.11583117 -0.09839091 0.032111913
1663 0.050332826 -0.12241601 -0.24370974 0.20838314 0.3208135 0.13047074 -0.063929364 0.042585794 0.03364335 -0.08348572 0.25365824 0.08313597 0.28842863 0.10797779 0.14816496 0.023949167 0.1899786 0.115987636 -0.1902624 0.16899586 0.33834442 -0.28768063 -0.074639656 -0.19370125 -0.15020804 0.0030757296 0.10306372 0.06238555 0.19991371 0.055244833 0.14159855 -0.22492005 0.15096779 -0.16966395 -0.25986153 0.21630423 0.13533835 0.044785164 -0.12881234 0.24246362 -0.15296778 0.03863668 -0.048154175 0.13614017 0.2667078 -0.23044918 -0.11073969 0.14623988 -0.0038779099 -0.065555625 -0.14209303 0.26532272 0.092217356 0.102758884 0.019370487 -0.22169967 -0.09129992 -0.35525143 -0.07484942 -0.3574183 -0.35107616 0.041516263 -0.048922464 0.07861932
899 0.06220807 -0.038442206 -0.23245764 -0.061425216 0.37288475 0.25144652 -0.10717927 -0.0992347 -0.11870659 -0.08083223 0.19685021 -0.2238934 0.03585285 0.25870794 -0.1269841 0.12923309 0.24310842 0.12511179 -0.0053197946 0.19085136 0.14050853 -0.1779806 -0.13543314 -0.17751053 0.10418103 0.14916492 -0.1336801 0.050768673 0.24863167 -0.0379817 0.15937904 -0.23563322 0.17563051 -0.10034551 -0.20542315 0.0793255 0.23505467 0.06731899 0.039756373 -0.022601593 -0.4135986 0.06346701 0.14696388 0.0822252 -0.13311286 -0.14599901 -0.09738872 0.23477012 -0.06336464 0.14467062 -0.28603175 0.010124621 0.0075797453 -0.10257111 0.18966074 -0.40463987 0.04902345 -0.16726467 -0.1680038 0.10192316 -0.32915848 0.15894777 -0.1460585 0.0852458
952 0.023897398 -0.24456343 -0.36027646 -0.1228853 0.48699206 0.2117222 -0.22851652 -0.21722752 0.10680213 0.026401846 0.05336682 -0.012078209 0.21314344 0.068160065 0.18763874 -0.15320335 0.16318302 0.21465114 -0.164042 -0.020034773 0.0005019372 -0.21082263 -0.03353555 -0.27417257 -0.14308959 -0.06125244 -0.16983855 -0.020581163 0.1706624 0.28892437 0.015628004 -0.0031575393 -0.08218493 -0.039311558 -0.2705246 0.06785025 0.037290588 0.059412647 -0.16791259 -0.045866605 -0.20244095 -0.06511634 -0.119065255 0.2231697 0.08406544 0.2030111 0.054164805 0.29479957 -0.021508345 -0.22947046 0.030994678 0.19364704 -0.06159786 0.023413077 -0.08126467 -0.02110332 0.018153762 0.03821237 -0.22373208 -0.34529087 -0.30313745 0.048314698 0.17733897 -0.16105738
216 0.23447001 -0.117828526 -0.22041772 -0.1657331 0.24755274 0.21805306 -0.073573746 -0.20923406 0.027688524 -0.08264457 0.029101256 -0.39721698 0.10656406 0.022293545 0.14981055 -0.047856454 0.23469073 0.12169633 -0.06261949 0.23207916 0.16242881 -0.20635408 -0.11560076 -0.2732519 0.026575636 0.12469076 -0.12255743 0.07811664 0.17635767 0.36675867 -0.21925665 -0.2683168 -0.050470732 -0.08987723 -0.19148311 0.25354138 0.17362814 0.009391826 0.26751626 0.13733383 -0.38482162 -0.01357737 0.09167531 0.021294413 -0.047920015 0.03343473 -0.13691603 0.03709162 -0.08092039 -0.025898114 -0.24806677 0.22324637 -0.028943645 0.07983532 0.16396016 -0.03498316 -0.1588219 -0.32625625 -0.032714777 -0.14497769 -0.08745769 0.37219343 -0.10386054 -0.14310314
0 0.1187051 -0.18732184 -0.092135414 0.023869222 0.5066594 0.42502254 -0.1353598 -0.29110926 0.25877652 0.07272114 0.16125526 -0.054743245 0.16238405 0.04539609 -0.08750056 -0.11512867 0.076143265 -0.020747721 -0.06507779 0.045385007 0.36164635 -0.16279782 -0.0006619269 -0.1498532 0.16889222 0.20360078 -0.24357757 0.1597676 0.27478176 0.0152634 -0.10845041 -0.19544461 0.22371727 0.1507376 -0.19651422 0.027592968 0.2620132 0.003575142 -0.15988378 -0.07741728 -0.25847796 -0.026356028 -0.09903165 0.10362802 -0.010739934 0.032495428 -0.22460695 -0.07177867 -0.16785121 -0.34402376 -0.22837363 -0.05294345 0.01063716 0.011434885 0.1326257 -0.13058954 0.21579371 -0.1368978 -0.04689247 -0.0762822 -0.14622228 0.22334094 -0.048663247 -0.017409807
2373 0.23477527 0.1429663 -0.25746763 0.12559313 0.29202795 0.3441058 -0.0035238883 -0.02262496 0.11438984 -0.14778897 0.20549849 0.04114348 -0.003234442 0.12272534 0.023476494 0.16043487 0.1770506 -0.103402995 -0.09026728 0.24528089 0.18378167 -0.31315184 0.11030308 -0.33888358 0.0278433 0.11554857 -0.018340375 0.1489179 0.17640439 0.08996418 0.029119039 -0.2403969 0.20963372 -0.018788787 -0.37155232 -0.096083015 0.23362961 0.095696315 -0.051117387 0.026183002 -0.2605932 0.08982223 -0.03566429 0.15380883 0.1292612 -0.17829731 -0.1441437 -0.058820184 0.019901423 -0.25127596 -0.26745677 0.19457915 -0.045538075 -0.020781498 -0.006805651 0.030735817 -0.096720524 0.045384437 -0.20306522 -0.19889463 -0.37462607 0.026531998 -0.056337763 0.031122113
2067 0.13706575 -0.09975342 -0.08344159 0.15614624 0.36845672 0.10334789 -0.071829796 -0.00903935 0.08793704 -0.108234294 0.19599691 -0.031649146 0.004781523 0.25803435 -0.2053595 -0.0031609053 0.053082045 0.29035237 -0.056669675 0.22013566 0.25483352 -0.24342853 -0.055334244 -0.45225132 0.11529664 -0.18564117 -0.050969135 -0.1278647 0.43229195 0.13069919 0.066358976 -0.06515641 0.31783658 0.0715996 -0.2489434 0.12702765 0.10659912 -0.34899858 -0.0025409847 -0.07930207 -0.1850482 -0.029551987 0.047516756 0.04544799 -0.0024743006 0.043550387 0.09762219 0.14866011 0.0141889155 -0.18644756 -0.18202001 0.07107486 -0.11205302 0.06818494 0.285951 -0.11579407 0.20329016 0.052208085 -0.14053664 -0.20692772 -0.2169837 0.047493506 -0.021387119 -0.10612159
1242 0.2376134 -0.27346882 -0.122462094 -0.03344925 0.07560845 0.23114237 -0.049337436 -0.20928958 -0.05650283 -0.2440641 0.3693923 0.054805934 -0.058013774 0.29143718 0.046751365 -0.014299026 0.013138247 0.15690841 -0.21179189 0.058533832 0.30050883 -0.16443071 -0.08133392 -0.07556604 0.07739795 0.13943551 -0.080469474 0.05891327 0.11680606 0.2052931 0.0009353787 -0.43142936 0.075197324 -0.04709779 -0.19762862 0.21891607 0.16061695 -0.07756572 -0.10881367 -0.14249693 -0.47676685 -0.018146532 0.09044253 -0.15527552 0.03262579 0.0036890248 0.035344616 0.26688132 -0.15275213 -0.13564257 -0.17638092 0.16552593 -0.01143966 7.4421056e-05 -0.006989501 0.019659856 -0.012139727 -0.07372133 0.006049757 -0.16475329 -0.28786537 0.09549297 -0.036014907 -0.091166325
2687 -0.020642743 -0.11162862 0.006242727 -0.09719266 0.6989984 0.25913334 -0.09530853 -0.046204366 -0.057395928 -0.28328726 0.20558086 -0.32005513 0.14084627 0.021973098 0.114651956 -0.019137057 0.21122311 0.21668266 -0.09861875 0.13985588 0.15003234 -0.30078554 -0.09096314 -0.10782746 -0.1112048 -0.06268362 -0.21636003 -0.06181441 0.06697128 0.22512475 0.23479207 -0.19815123 0.16838434 -0.15338725 -0.110671125 0.13451283 0.07579947 0.082698256 0.2977525 -0.1170111 -0.3611431 -0.12046832 0.10401158 0.037207946 -0.006476084 -0.109680355 -0.0007223645 0.12689497 -0.121900745 -0.18887809 -0.1603089 0.11650258 -0.16663809 -0.17886375 0.16741306 -0.23255633 -0.037918754 0.055410955 -0.2261397 0.100606136 -0.075972535 0.058898006 -0.12141629 -0.13731146
1121 0.3528485 -0.26306993 -0.2981215 -0.02782651 0.3462778 0.3864606 -0.06828734 -0.19301534 0.12285229 -0.004923035 0.2934641 0.062998205 0.016632706 0.087366946 -0.14832495 0.061088733 0.14309242 0.07857599 -0.18105157 0.2624474 -0.014398524 -0.2331578 -0.0086230375 0.04878652 -0.35660052 -0.22165672 -0.24175034 -0.0720146 0.17762549 0.113276646 -0.02331693 -0.060682382 -0.05662096 -0.12069821 -0.012985102 -0.0939165 0.04307965 0.05121255 0.1734274 0.023977108 -0.19115324 0.0051946016 -0.035040423 0.025486318 0.108981945 0.073720105 -0.11393012 0.18048406 -0.10687761 -0.1860622 -0.073026456 0.3388515 -0.02529234 -0.17357561 0.04415437 0.085314326 0.15494132 -0.021382028 -0.31030688 -0.105467744 -0.2455323 0.14474143 -0.12889811 0.1210778
2027 0.020624837 -0.33747682 -0.34022483 0.06076204 0.2735835 0.62691116 -0.011999675 -0.29147625 0.11592583 -0.08682823 0.3610065 -0.01638309 0.12483986 0.020213068 0.016148662 -0.21493445 0.05187013 0.19505507 -0.07571978 -0.02289426 -0.006046029 -0.30085832 -0.22081308 -0.11977407 0.07935375 0.024156947 -0.027536461 -0.06686469 0.13290764 0.14455828 -0.21969129 -0.30388358 0.10585991 0.16353934 -0.2054569 0.10095587 -0.09636546 -0.22550303 0.061883368 0.077543445 -0.36984137 0.21990076 -0.17529617 -0.18564823 0.090483904 -0.34917122 -0.06660587 0.09821256 -0.12174783 -0.10036585 -0.30012664 0.19087982 -0.056583416 -0.16147977 0.27685884 -0.021280952 -0.056090556 -0.19283746 -0.09468824 -0.059082083 -0.09760701 0.014451229 -0.18947878 0.092385426
1386 0.12285949 -0.0994655 -0.2313867 0.06616371 0.39549637 0.23037478 0.14429711 0.21859731 0.017133456 -0.075281166 0.31661493 -0.15507466 0.1492163 -0.09335972 -0.1319921 -0.016019952 0.0640305 0.067426115 0.038479585 0.22408947 0.0787599 -0.1113289 -0.086933166 -0.24529737 -0.07764872 0.16268067 -0.32261202 0.120019846 0.26819688 0.29169622 -0.03155489 -0.2031521 0.18630111 -0.019476468 -0.33987287 0.023248937 0.36322692 -0.015411076 -0.3479305 0.016800178 -0.14531371 0.12761493 0.099503025 0.06306123 0.1081744 0.027679855 0.13412799 -0.0053863977 0.014417556 -0.28314805 -0.092907175 0.06461728 -0.026712425 0.07413224 0.24791151 -0.039803676 0.0041212416 -0.10864652 -0.2527747 -0.081411265 -0.23187295 0.02504528 -0.01175941 -0.04708488
1665 0.171827 -0.040040717 -0.42752597 0.108549915 0.3174386 0.42790386 0.12231308 -0.20105581 0.06548818 -0.17985566 0.23428912 -0.13632225 0.16426939 0.25474036 0.07727738 -0.036818493 -0.05182634 -0.02042213 0.09012036 0.30135596 0.06616209 -0.1306408 -0.074230984 -0.076466665 -0.071016185 -0.09378678 -0.12818211 -0.027425846 0.348376 0.19345194 -0.0780991 -0.3380605 0.23517752 -0.22905466 -0.13746628 0.08270237 0.18091598 0.064676225 -0.015408006 0.14963026 -0.15539244 -0.033708084 0.26839373 0.058595657 -0.034163177 0.34058672 0.00402735 0.09308306 -0.13769276 -0.17662294 -0.19886936 0.3148805 0.07944837 0.12289413 0.06527751 0.07512219 0.14444241 -0.16117902 -0.20048515 -0.073053315 -0.15455079 0.22670871 -0.24805726 -0.074666284
1673 0.1187719 -0.03722138 -0.24649355 0.254781 0.1200198 0.38457713 -0.097254954 0.016263548 -0.07247941 -0.054781288 0.12317834 0.10741812 0.00946222 0.2123279 -0.0048815915 -0.014042375 0.28078508 0.16104214 -0.07748143 0.35604918 -0.006192165 -0.3178259 -0.14023148 -0.35360327 -0.036866818 -0.18841064 -0.1335287 -0.06368695 0.26853168 0.17164585 -0.18606436 -0.057562407 0.20959277 -0.15646143 -0.24683839 0.063935794 0.19971022 -0.0964036 0.17467219 0.098067135 -0.26398426 0.07419488 0.17128846 0.13303953 -0.03936645 -0.024290439 -0.018424291 0.14874588 -0.01938334 -0.0151580665 -0.17352141 0.08707685 -0.33940235 0.08740167 0.046905264 -0.0049167015 -0.22871353 -0.040112223 -0.14526407 -0.27528304 -0.14898075 0.16980113 -0.13737468 0.098230325
